DATE: 2024-04-03 UNITS: metal CONTRIBUTOR: Xiaowang Zhou xzhou@sandia.gov, Lucas Hale lucas.hale@nist.gov, and Germain Clavier g.m.g.c.clavier@tue.nl/germain.clavier@gmail.com
 CITATION: X. W. Zhou, R. A. Johnson, H. N. G. Wadley, Phys. Rev. B, 69, 144113(2004)
Generated by create_eam.py
2     Ag Fe                   
2000  6.1763741613720766e-02   2000  3.2347637230042913e-03   6.4662926822855784e+00  
   47       107.86820         4.08964      fcc
   0.0000000000000000E+00  -1.8665094856486930E-02  -3.7202054568424625E-02  -5.5611294059314198E-02  -7.3893228252657095E-02
  -9.2048272071954762E-02  -1.1007684044070787E-01  -1.2797934828241742E-01  -1.4575621052058541E-01  -1.6340784207871289E-01
  -1.8093465788030050E-01  -1.9833707284884955E-01  -2.1561550190786188E-01  -2.3277035998083823E-01  -2.4980206199127980E-01
  -2.6671102286268755E-01  -2.8349765751856326E-01  -3.0016238088240782E-01  -3.1670560787772256E-01  -3.3312775342800810E-01
  -3.4942923245676644E-01  -3.6561045988749857E-01  -3.8167185064370551E-01  -3.9761381964888864E-01  -4.1343678182654858E-01
  -4.2914115210018733E-01  -4.4472734539330600E-01  -4.6019577662940492E-01  -4.7554686073198638E-01  -4.9078101262455121E-01
  -5.0589864723060063E-01  -5.2090017947363554E-01  -5.3578602427715705E-01  -5.5055659656466716E-01  -5.6521231125966653E-01
  -5.7975358328565640E-01  -5.9418082756613788E-01  -6.0849445902461219E-01  -6.2269489258458077E-01  -6.3678254316954463E-01
  -6.5075782570300489E-01  -6.6462115510846309E-01  -6.7837294630942013E-01  -6.9201361422937746E-01  -7.0554357379183608E-01
  -7.1896323992029698E-01  -7.3227302753826151E-01  -7.4547335156923156E-01  -7.5856462693670712E-01  -7.7154726856419087E-01
  -7.8442169137518225E-01  -7.9718831029318393E-01  -8.0984754024169647E-01  -8.2239979614422087E-01  -8.3484549292425914E-01
  -8.4718504550531182E-01  -8.5941886881087992E-01  -8.7154737776446567E-01  -8.8357098728956895E-01  -8.9549011230969189E-01
  -9.0730516774833547E-01  -9.1901656852900060E-01  -9.3062472957518905E-01  -9.4213006581040137E-01  -9.5353299215813925E-01
  -9.6483392354190378E-01  -9.7603327488519576E-01  -9.8713146111151662E-01  -9.9812889714436825E-01  -1.0090259979072511E+00
  -1.0198231783236664E+00  -1.0305208533171155E+00  -1.0411194378110997E+00  -1.0516193467291202E+00  -1.0620209949946779E+00
  -1.0723247975312744E+00  -1.0825311692624107E+00  -1.0926405251115878E+00  -1.1026532800023074E+00  -1.1125698488580704E+00
  -1.1223906466023781E+00  -1.1321160881587313E+00  -1.1417465884506319E+00  -1.1512825624015806E+00  -1.1607244249350785E+00
  -1.1700725909746272E+00  -1.1793274754437280E+00  -1.1884894932658812E+00  -1.1975590593645893E+00  -1.2065365886633526E+00
  -1.2154224960856725E+00  -1.2242171965550503E+00  -1.2329211049949873E+00  -1.2415346363289845E+00  -1.2500582054805431E+00
  -1.2584922273731642E+00  -1.2668371169303496E+00  -1.2750932890755999E+00  -1.2832611587324163E+00  -1.2913411408243003E+00
  -1.2993336502747530E+00  -1.3072391020072756E+00  -1.3150579109453693E+00  -1.3227904920125351E+00  -1.3304372601322745E+00
  -1.3379986302280884E+00  -1.3454750172234784E+00  -1.3528668360419458E+00  -1.3601745016069908E+00  -1.3673984288421157E+00
  -1.3745390326708211E+00  -1.3815967280166088E+00  -1.3885719298029793E+00  -1.3954650529534343E+00  -1.4022765123914747E+00
  -1.4090067230406018E+00  -1.4156560998243171E+00  -1.4222250576661211E+00  -1.4287140114895156E+00  -1.4351233762180016E+00
  -1.4414535667750803E+00  -1.4477049980842531E+00  -1.4538780850690212E+00  -1.4599732426528849E+00  -1.4659908857593469E+00
  -1.4719314293119072E+00  -1.4777952882340677E+00  -1.4835828774493292E+00  -1.4892946118811929E+00  -1.4949309064531604E+00
  -1.5004921760887326E+00  -1.5059788357114108E+00  -1.5113913002446961E+00  -1.5167299846120899E+00  -1.5219953037370930E+00
  -1.5271876725432070E+00  -1.5323075059539328E+00  -1.5373552188927722E+00  -1.5423312262832258E+00  -1.5472359430487947E+00
  -1.5520697841129809E+00  -1.5568331643992845E+00  -1.5615264988312076E+00  -1.5661502023322509E+00  -1.5707046898259160E+00
  -1.5751903762357040E+00  -1.5796076764851159E+00  -1.5839570054976526E+00  -1.5882387781968161E+00  -1.5924534095061069E+00
  -1.5966013143490267E+00  -1.6006829076490765E+00  -1.6046986043297575E+00  -1.6086488193145709E+00  -1.6125339675270183E+00
  -1.6163544638906000E+00  -1.6201107233288181E+00  -1.6238031607651731E+00  -1.6274321911231668E+00  -1.6309982293262999E+00
  -1.6345016902980738E+00  -1.6379429889619899E+00  -1.6413225402415492E+00  -1.6446407590602530E+00  -1.6478980603416022E+00
  -1.6510948590090984E+00  -1.6542315699862424E+00  -1.6573086081965362E+00  -1.6603263885634800E+00  -1.6632853260105755E+00
  -1.6661858354613239E+00  -1.6690283318392265E+00  -1.6718132300677844E+00  -1.6745409450704987E+00  -1.6772118917708705E+00
  -1.6798264850924012E+00  -1.6823851399585923E+00  -1.6848882712929443E+00  -1.6873362940189589E+00  -1.6897296230601371E+00
  -1.6920686733399803E+00  -1.6943538597819896E+00  -1.6965855973096662E+00  -1.6987643008465112E+00  -1.7008903853160258E+00
  -1.7029642656417114E+00  -1.7049863567470691E+00  -1.7069570735555997E+00  -1.7088768309908053E+00  -1.7107460439761866E+00
  -1.7125651274352447E+00  -1.7143344962914808E+00  -1.7160545654683963E+00  -1.7177257498894924E+00  -1.7193484644782702E+00
  -1.7209231241582308E+00  -1.7224501438528756E+00  -1.7239299384857056E+00  -1.7253629229802223E+00  -1.7267495122599268E+00
  -1.7280901212483200E+00  -1.7293850985857844E+00  -1.7306350085486568E+00  -1.7318402920727138E+00  -1.7330014713988664E+00
  -1.7341190687680252E+00  -1.7351936064211018E+00  -1.7362256065990069E+00  -1.7372155915426513E+00  -1.7381640834929464E+00
  -1.7390716046908028E+00  -1.7399386773771317E+00  -1.7407658237928438E+00  -1.7415535661788506E+00  -1.7423024267760627E+00
  -1.7430129278253912E+00  -1.7436855915677467E+00  -1.7443209402440407E+00  -1.7449194960951839E+00  -1.7454817813620875E+00
  -1.7460083182856625E+00  -1.7464996291068196E+00  -1.7469562360664701E+00  -1.7473786614055247E+00  -1.7477674273648944E+00
  -1.7481230561854901E+00  -1.7484460701082234E+00  -1.7487369913740045E+00  -1.7489963422237447E+00  -1.7492246448983551E+00
  -1.7494224216387466E+00  -1.7495901946858301E+00  -1.7497284862805165E+00  -1.7498378186637173E+00  -1.7499187140763428E+00
  -1.7499716947593043E+00  -1.7499972829535129E+00  -1.7499960008998794E+00  -1.7499683708393148E+00  -1.7499149150127302E+00
  -1.7498361556610365E+00  -1.7497326150251447E+00  -1.7496048153459656E+00  -1.7494532788644104E+00  -1.7492785278213900E+00
  -1.7490810844578155E+00  -1.7488614710145975E+00  -1.7486202097326475E+00  -1.7483578228528764E+00  -1.7480748326161948E+00
  -1.7477717612635140E+00  -1.7474491310357447E+00  -1.7471074641737985E+00  -1.7467472829185857E+00  -1.7463691095110172E+00
  -1.7459734661920050E+00  -1.7455608752024590E+00  -1.7451318587832907E+00  -1.7446869391754107E+00  -1.7442266386197305E+00
  -1.7437514793571607E+00  -1.7432619836286125E+00  -1.7427586736749969E+00  -1.7422420717372245E+00  -1.7417127000562067E+00
  -1.7411710808728544E+00  -1.7406177364280786E+00  -1.7400531889627899E+00  -1.7394779607178998E+00  -1.7388925739343191E+00
  -1.7382975508529586E+00  -1.7376934137147295E+00  -1.7370803761818274E+00  -1.7364550600729451E+00  -1.7358141088125287E+00
  -1.7351576044578407E+00  -1.7344856283491425E+00  -1.7337982611184966E+00  -1.7330955826984256E+00  -1.7323776723304378E+00
  -1.7316446085734183E+00  -1.7308964693118887E+00  -1.7301333317641383E+00  -1.7293552724902288E+00  -1.7285623673998753E+00
  -1.7277546917602062E+00  -1.7269323202034013E+00  -1.7260953267342194E+00  -1.7252437847374020E+00  -1.7243777669849718E+00
  -1.7234973456434186E+00  -1.7226025922807731E+00  -1.7216935778735802E+00  -1.7207703728137631E+00  -1.7198330469153860E+00
  -1.7188816694213183E+00  -1.7179163090097955E+00  -1.7169370338008880E+00  -1.7159439113628705E+00  -1.7149370087184987E+00
  -1.7139163923511969E+00  -1.7128821282111497E+00  -1.7118342817213121E+00  -1.7107729177833251E+00  -1.7096981007833523E+00
  -1.7086098945978270E+00  -1.7075083625991199E+00  -1.7063935676611259E+00  -1.7052655721647689E+00  -1.7041244380034297E+00
  -1.7029702265882984E+00  -1.7018029988536467E+00  -1.7006228152620317E+00  -1.6994297358094208E+00  -1.6982238200302506E+00
  -1.6970051270024102E+00  -1.6957737153521586E+00  -1.6945296432589712E+00  -1.6932729684603232E+00  -1.6920037482564012E+00
  -1.6907220395147564E+00  -1.6894278986748907E+00  -1.6881213817527780E+00  -1.6868025443453305E+00  -1.6854714416347976E+00
  -1.6841281283931093E+00  -1.6827726589861605E+00  -1.6814050873780353E+00  -1.6800254671351789E+00  -1.6786338514305088E+00
  -1.6772302930474756E+00  -1.6758148443840670E+00  -1.6743875574567610E+00  -1.6729484839044244E+00  -1.6714976749921622E+00
  -1.6700351816151138E+00  -1.6685610543022040E+00  -1.6670753432198413E+00  -1.6655780981755670E+00  -1.6640693686216619E+00
  -1.6625492036587031E+00  -1.6610176520390736E+00  -1.6594747621704302E+00  -1.6579205821191252E+00  -1.6563551596135835E+00
  -1.6547785420476377E+00  -1.6531907764838223E+00  -1.6515919096566234E+00  -1.6499819879756872E+00  -1.6483610575289922E+00
  -1.6467291640859765E+00  -1.6450863531006290E+00  -1.6434326697145405E+00  -1.6417681587599182E+00  -1.6400928647625623E+00
  -1.6384068319448033E+00  -1.6367101042284073E+00  -1.6350027252374428E+00  -1.6332847383011111E+00  -1.6315561864565460E+00
  -1.6298171124515752E+00  -1.6280675587474513E+00  -1.6263075675215473E+00  -1.6245371806700195E+00  -1.6227564398104408E+00
  -1.6209653862844007E+00  -1.6191640611600699E+00  -1.6173525052347439E+00  -1.6155307590373456E+00  -1.6136988628309046E+00
  -1.6118568566150067E+00  -1.6100047801282107E+00  -1.6081426728504398E+00  -1.6062705740053438E+00  -1.6043885225626344E+00
  -1.6024965572403906E+00  -1.6005947165073386E+00  -1.5986830385851094E+00  -1.5967615614504602E+00  -1.5948303228374792E+00
  -1.5928893602397620E+00  -1.5909387109125603E+00  -1.5889784118749093E+00  -1.5870084999117284E+00  -1.5850290115758996E+00
  -1.5830399831903217E+00  -1.5810414508499377E+00  -1.5790334504237473E+00  -1.5770160175567849E+00  -1.5749891876720881E+00
  -1.5729529959726332E+00  -1.5709074774432548E+00  -1.5688526668525429E+00  -1.5667885987547177E+00  -1.5647153074914835E+00
  -1.5626328271938623E+00  -1.5605411917840100E+00  -1.5584404349770056E+00  -1.5563305902826263E+00  -1.5542116910071031E+00
  -1.5520837702548533E+00  -1.5499468609301956E+00  -1.5478009957390484E+00  -1.5456462071906092E+00  -1.5434825275990092E+00
  -1.5413099890849624E+00  -1.5391286235773847E+00  -1.5369384628150020E+00  -1.5347395383479399E+00  -1.5325318815392937E+00
  -1.5303155235666877E+00  -1.5280904954238101E+00  -1.5258568279219360E+00  -1.5236145516914341E+00  -1.5213636971832571E+00
  -1.5191042946704139E+00  -1.5168363742494304E+00  -1.5145599658417908E+00  -1.5122750991953660E+00  -1.5099818038858275E+00
  -1.5076801093180441E+00  -1.5053700447274665E+00  -1.5030516391814968E+00  -1.5007249215808411E+00  -1.4983899206608526E+00
  -1.4960466649928574E+00  -1.4936951829854681E+00  -1.4913355028858835E+00  -1.4889676527811735E+00  -1.4865916605995542E+00
  -1.4842075541116466E+00  -1.4818153609317244E+00  -1.4794151085189482E+00  -1.4770068241785872E+00  -1.4745905350632298E+00
  -1.4721662681739780E+00  -1.4697340503616367E+00  -1.4672939083278844E+00  -1.4648458686264345E+00  -1.4623899576641852E+00
  -1.4599262017023595E+00  -1.4574546268576305E+00  -1.4549752591032374E+00  -1.4524881242700893E+00  -1.4499932480478623E+00
  -1.4474906559860772E+00  -1.4449803734951749E+00  -1.4424624258475791E+00  -1.4399368381787434E+00  -1.4374036354881958E+00
  -1.4348628426405665E+00  -1.4323144843666133E+00  -1.4297585852642249E+00  -1.4271951697994294E+00  -1.4246242623073790E+00
  -1.4220458869933363E+00  -1.4194600679336435E+00  -1.4168668290766864E+00  -1.4142661942438468E+00  -1.4116581871304490E+00
  -1.4090428313066909E+00  -1.4064201502185756E+00  -1.4037901671888240E+00  -1.4011529054177869E+00  -1.3985083879843445E+00
  -1.3958566378467956E+00  -1.3931976778437438E+00  -1.3905315306949710E+00  -1.3878582190023043E+00  -1.3851777652504744E+00
  -1.3824901918079646E+00  -1.3797955209278572E+00  -1.3770937747486636E+00  -1.3743849752951536E+00  -1.3716691444791738E+00
  -1.3689463041004606E+00  -1.3662164758474415E+00  -1.3634796812980343E+00  -1.3607359419204352E+00  -1.3579852790739011E+00
  -1.3552277140095244E+00  -1.3524632678710000E+00  -1.3496919616953882E+00  -1.3469138164138661E+00  -1.3441288528524753E+00
  -1.3413370917328638E+00  -1.3385385536730157E+00  -1.3357332591879825E+00  -1.3329212286905989E+00  -1.3301024824922008E+00
  -1.3272770408033294E+00  -1.3244449237344331E+00  -1.3216061512965649E+00  -1.3187607434020654E+00  -1.3159087198652497E+00
  -1.3130501004030837E+00  -1.3101849046358507E+00  -1.3073131520878194E+00  -1.3044348621879007E+00  -1.3015500542703009E+00
  -1.2986587475751683E+00  -1.2957609612492342E+00  -1.2928567143464498E+00  -1.2899460258286140E+00  -1.2870289145660005E+00
  -1.2841053993379745E+00  -1.2811754988336077E+00  -1.2782392316522864E+00  -1.2752966163043151E+00  -1.2723476712115125E+00
  -1.2693924147078068E+00  -1.2664308650398213E+00  -1.2634630403674567E+00  -1.2604889587644719E+00  -1.2575086382190508E+00
  -1.2545220966343764E+00  -1.2515293518291883E+00  -1.2485304215383430E+00  -1.2455253234133694E+00  -1.2425140750230113E+00
  -1.2394966938537786E+00  -1.2364731973104806E+00  -1.2334436027167648E+00  -1.2304079273156436E+00  -1.2273661882700246E+00
  -1.2243184026632274E+00  -1.2212645874995038E+00  -1.2182047597045489E+00  -1.2151389361260103E+00  -1.2120671335339910E+00
  -1.2089893686215516E+00  -1.2059056580052043E+00  -1.2028160182254055E+00  -1.1997204657470417E+00  -1.1966190169599169E+00
  -1.1935116881792276E+00  -1.1903984956460429E+00  -1.1872794555277728E+00  -1.1841545839186389E+00  -1.1810238968401350E+00
  -1.1778874102414925E+00  -1.1747451400001305E+00  -1.1715971019221161E+00  -1.1684433117426067E+00  -1.1652837851262996E+00
  -1.1621185376678733E+00  -1.1589475848924244E+00  -1.1557709422559050E+00  -1.1525886251455504E+00  -1.1494006488803108E+00
  -1.1462070287112733E+00  -1.1430077798220843E+00  -1.1398029173293653E+00  -1.1365924562831291E+00  -1.1333764116671914E+00
  -1.1301547983995750E+00  -1.1269276313329186E+00  -1.1236949252548765E+00  -1.1204566948885153E+00  -1.1172129548927123E+00
  -1.1139637198625421E+00  -1.1107090043296723E+00  -1.1074488227627435E+00  -1.1041831895677556E+00  -1.1009121190884452E+00
  -1.0976356256066646E+00  -1.0943537233427540E+00  -1.0910664264559138E+00  -1.0877737490445700E+00  -1.0844757051467449E+00
  -1.0811723087404130E+00  -1.0778635737438649E+00  -1.0745495140160632E+00  -1.0712301433569957E+00  -1.0679054755080277E+00
  -1.0645755241522514E+00  -1.0612403029148290E+00  -1.0578998253633400E+00  -1.0545541050081184E+00  -1.0512031553025938E+00
  -1.0478469896436238E+00  -1.0444856213718314E+00  -1.0411190637719310E+00  -1.0377473300730591E+00  -1.0343704334490984E+00
  -1.0309883870190037E+00  -1.0276012038471170E+00  -1.0242088969434928E+00  -1.0208114792642091E+00  -1.0174089637116803E+00
  -1.0140013631349738E+00  -1.0105886903301116E+00  -1.0071709580403836E+00  -1.0037481789566460E+00  -1.0003203657176281E+00
  -9.9688753091022853E-01  -9.9344968706981551E-01  -9.9000684668052041E-01  -9.8655902217552971E-01  -9.8310622593738040E-01
  -9.7964847029824420E-01  -9.7618576754021702E-01  -9.7271812989560213E-01  -9.6924556954719387E-01  -9.6576809862855773E-01
  -9.6228572922430744E-01  -9.5879847337038449E-01  -9.5530634305432838E-01  -9.5180935021555402E-01  -9.4830750674561659E-01
  -9.4480082448848646E-01  -9.4128931524080728E-01  -9.3777299075217102E-01  -9.3425186272536997E-01  -9.3072594281666665E-01
  -9.2719524263604725E-01  -9.2365977374748065E-01  -9.2011954766917270E-01  -9.1657457587382185E-01  -9.1302486978886832E-01
  -9.0947044079674499E-01  -9.0591130023512567E-01  -9.0234745939717098E-01  -8.9877892953177463E-01  -8.9520572184380220E-01
  -8.9162784749433577E-01  -8.8804531760091354E-01  -8.8445814323776528E-01  -8.8086633543604986E-01  -8.7726990518408965E-01
  -8.7366886342760219E-01  -8.7006322106993372E-01  -8.6645298897228540E-01  -8.6283817795394357E-01  -8.5921879879250596E-01
  -8.5559486222410563E-01  -8.5196637894363469E-01  -8.4833335960496659E-01  -8.4469581482117329E-01  -8.4105375516474856E-01
  -8.3740719116782147E-01  -8.3375613332237364E-01  -8.3010059208045117E-01  -8.2644057785438152E-01  -8.2277610101698051E-01
  -8.1910717190176507E-01  -8.1543380080315808E-01  -8.1175599797670039E-01  -8.0807377363925037E-01  -8.0438713796919370E-01
  -8.0069610110664102E-01  -7.9700067315363410E-01  -7.9330086417434054E-01  -7.8959668419525764E-01  -7.8588814320540556E-01
  -7.8217525115652653E-01  -7.7845801796327641E-01  -7.7473645350342069E-01  -7.7101056761802356E-01  -7.6728037011164241E-01
  -7.6354587075251568E-01  -7.5980707927274727E-01  -7.5606400536850060E-01  -7.5231665870017861E-01  -7.4856504889261233E-01
  -7.4480918553523834E-01  -7.4104907818228816E-01  -7.3728473635296288E-01  -7.3351616953161769E-01  -7.2974338716793585E-01
  -7.2596639867710866E-01  -7.2218521344001163E-01  -7.1839984080337804E-01  -7.1461029007997334E-01  -7.1081657054876879E-01
  -7.0701869145511020E-01  -7.0321666201089417E-01  -6.9941049139472822E-01  -6.9560018875210805E-01  -6.9178576319557927E-01
  -6.8796722380490727E-01  -6.8414457962723429E-01  -6.8031783967725568E-01  -6.7648701293737157E-01  -6.7265210835785438E-01
  -6.6881313485700700E-01  -6.6497010132132639E-01  -6.6112301660565487E-01  -6.5727188953334725E-01  -6.5341672889641877E-01
  -6.4955754345570638E-01  -6.4569434194102182E-01  -6.4182713305130301E-01  -6.3795592545477087E-01  -6.3408072778907776E-01
  -6.3020154866145772E-01  -6.2631839664888123E-01  -6.2243128029819816E-01  -6.1854020812628796E-01  -6.1464518862020701E-01
  -6.1074623023733587E-01  -6.0684334140552132E-01  -6.0293653052322149E-01  -5.9902580595965171E-01  -5.9511117605492425E-01
  -5.9119264912018976E-01  -5.8727023343777784E-01  -5.8334393726134126E-01  -5.7941376881598661E-01  -5.7547973629842086E-01
  -5.7154184787708062E-01  -5.6760011169227498E-01  -5.6365453585631697E-01  -5.5970512845366072E-01  -5.5575189754103238E-01
  -5.5179485114756488E-01  -5.4783399727493021E-01  -5.4386934389747132E-01  -5.3990089896232862E-01  -5.3592867038957603E-01
  -5.3195266607234459E-01  -5.2797289387695279E-01  -5.2398936164303223E-01  -5.2000207718366021E-01  -5.1601104828547373E-01
  -5.1201628270880883E-01  -5.0801778818781240E-01  -5.0401557243057338E-01  -5.0000964311924212E-01  -4.9600000791015375E-01
  -4.9198667443394817E-01  -4.8796965029569311E-01  -4.8394894307500086E-01  -4.7992456032614811E-01  -4.7589650957819718E-01
  -4.7186479833510886E-01  -4.6782943407586441E-01  -4.6379042425457601E-01  -4.5974777630061076E-01  -4.5570149761869366E-01
  -4.5165159558903517E-01  -4.4759807756743392E-01  -4.4354095088539386E-01  -4.3948022285023802E-01  -4.3541590074521763E-01
  -4.3134799182962258E-01  -4.2727650333889372E-01  -4.2320144248473007E-01  -4.1912281645519972E-01  -4.1504063241484629E-01
  -4.1095489750479836E-01  -4.0686561884287370E-01  -4.0277280352369010E-01  -3.9867645861876438E-01  -3.9457659117662569E-01
  -3.9047320822291209E-01  -3.8636631676048050E-01  -3.8225592376950485E-01  -3.7814203620758435E-01  -3.7402466100984016E-01
  -3.6990380508901965E-01  -3.6577947533559779E-01  -3.6165167861787528E-01  -3.5752042178207993E-01  -3.5338571165246507E-01
  -3.4924755503140903E-01  -3.4510595869951111E-01  -3.4096092941569112E-01  -3.3681247391728630E-01  -3.3266059892014432E-01
  -3.2850531111872355E-01  -3.2434661718618596E-01  -3.2018452377449008E-01  -3.1601903751448968E-01  -3.1185016501602231E-01
  -3.0767791286800655E-01  -3.0350228763853199E-01  -2.9932329587495249E-01  -2.9514094410397390E-01  -2.9095523883175395E-01
  -2.8676618654398089E-01  -2.8257379370597507E-01  -2.7837806676276666E-01  -2.7417901213919665E-01  -2.6997663623999368E-01
  -2.6577094544987323E-01  -2.6156194613361400E-01  -2.5734964463615295E-01  -2.5313404728266875E-01  -2.4891516037866607E-01
  -2.4469299021006616E-01  -2.4046754304328510E-01  -2.3623882512532357E-01  -2.3200684268385063E-01  -2.2777160192728121E-01
  -2.2353310904486792E-01  -2.1929137020677736E-01  -2.1504639156417682E-01  -2.1079817924931066E-01  -2.0654673937558810E-01
  -2.0229207803765603E-01  -1.9803420131148880E-01  -1.9377311525446014E-01  -1.8950882590542764E-01  -1.8524133928480846E-01
  -1.8097066139466125E-01  -1.7669679821876177E-01  -1.7241975572268098E-01  -1.6813953985386432E-01  -1.6385615654170682E-01
  -1.5956961169762965E-01  -1.5527991121515569E-01  -1.5098706096999034E-01  -1.4669106682008756E-01  -1.4239193460573152E-01
  -1.3808967014961041E-01  -1.3378427925688974E-01  -1.2947576771528277E-01  -1.2516414129512940E-01  -1.2084940574946434E-01
  -1.1653156681409424E-01  -1.1221063020766329E-01  -1.0788660163173179E-01  -1.0355948677084174E-01  -9.9229291292592670E-02
  -9.4896020847707374E-02  -9.0559681070106715E-02  -8.6220277576976381E-02  -8.1877815968836726E-02  -7.7532301829611058E-02
  -7.3183740726700267E-02  -6.8832138211038479E-02  -6.4477499817174974E-02  -6.0119831063335287E-02  -5.5759137451484704E-02
  -5.1395424467402494E-02  -4.7028697580744794E-02  -4.2658962245110253E-02  -3.8286223898108429E-02  -3.3910487961418961E-02
  -2.9531759840866745E-02  -2.5150044926477759E-02  -2.0765348592548933E-02  -1.6377676197709131E-02  -1.1987033084983230E-02
  -7.5934245818588394E-03  -3.1968560003451120E-03   1.2026673629620917E-03   5.6051402268202915E-03   1.0010557325270935E-02
   1.4418913407589969E-02   1.8830203238214556E-02   2.3244421596688793E-02   2.7661563277598167E-02   3.2081623090516195E-02
   3.6504595859935492E-02   4.0930476425214204E-02   4.5359259640514238E-02   4.9790940374741077E-02   5.4225513511486030E-02
   5.8662973948968897E-02   6.3103316599974521E-02   6.7546536391802650E-02   7.1992628266203118E-02   7.6441587179319856E-02
   8.0893408101636310E-02   8.5348086017918226E-02   8.9805615927150903E-02   9.4265992842497620E-02   9.8729211791222571E-02
   1.0319526781465299E-01   1.0766415596811554E-01   1.1213587132088396E-01   1.1661040895611920E-01   1.2108776397082288E-01
   1.2556793147577372E-01   1.3005090659548360E-01   1.3453668446813644E-01   1.3902526024553394E-01   1.4351662909304816E-01
   1.4801078618956395E-01   1.5250772672742996E-01   1.5700744591240040E-01   1.6150993896359070E-01   1.6601520111341619E-01
   1.7052322760754923E-01   1.7503401370486393E-01   1.7954755467738109E-01   1.8406384581022869E-01   1.8858288240157617E-01
   1.9310465976259625E-01   1.9762917321741022E-01   2.0215641810303472E-01   2.0668638976933940E-01   2.1121908357899027E-01
   2.1575449490740789E-01   2.2029261914270815E-01   2.2483345168566762E-01   2.2937698794965997E-01   2.3392322336062113E-01
   2.3847215335698937E-01   2.4302377338966927E-01   2.4757807892197398E-01   2.5213506542958508E-01   2.5669472840050239E-01
   2.6125706333499699E-01   2.6582206574556594E-01   2.7038973115688580E-01   2.7496005510576343E-01   2.7953303314109562E-01
   2.8410866082382003E-01   2.8868693372687060E-01   2.9326784743512752E-01   2.9785139754538453E-01   3.0243757966628837E-01
   3.0702638941830812E-01   3.1161782243368119E-01   3.1621187435637244E-01   3.2080854084203492E-01   3.2540781755795573E-01
   3.3000970018302483E-01   3.3461418440767959E-01   3.3922126593387214E-01   3.4383094047501922E-01   3.4844320375596372E-01
   3.5305805151292968E-01   3.5767547949348283E-01   3.6229548345648477E-01   3.6691805917205256E-01   3.7154320242152011E-01
   3.7617090899739175E-01   3.8080117470330704E-01   3.8543399535398987E-01   3.9006936677521836E-01   3.9470728480377737E-01
   3.9934774528742351E-01   4.0399074408483543E-01   4.0863627706558592E-01   4.1328434011009285E-01   4.1793492910958085E-01
   4.2258803996604771E-01   4.2724366859221369E-01   4.3190181091149848E-01   4.3656246285796496E-01   4.4122562037629193E-01
   4.4589127942172951E-01   4.5055943596006731E-01   4.5523008596758829E-01   4.5990322543103768E-01   4.6457885034757490E-01
   4.6925695672475115E-01   4.7393754058045839E-01   4.7862059794289719E-01   4.8330612485054014E-01   4.8799411735209292E-01
   4.9268457150646128E-01   4.9737748338270582E-01   5.0207284906001814E-01   5.0677066462766940E-01   5.1147092618499135E-01
   5.1617362984132242E-01   5.2087877171598540E-01   5.2558634793824521E-01   5.3029635464727765E-01   5.3500878799212592E-01
   5.3972364413167906E-01   5.4444091923461801E-01   5.4916060947940026E-01   5.5388271105421572E-01   5.5860722015694775E-01
   5.6333413299514612E-01   5.6806344578599244E-01   5.7279515475626352E-01   5.7752925614229189E-01   5.8226574618994731E-01
   5.8700462115458740E-01   5.9174587730103423E-01   5.9648951090353575E-01   6.0123551824573362E-01   6.0598389562063171E-01
   6.1073463933056182E-01   6.1548774568715314E-01   6.2024321101129598E-01   6.2500103163311360E-01   6.2976120389192258E-01
   6.3452372413621327E-01   6.3928858872360328E-01   6.4405579402081814E-01   6.4882533640365103E-01   6.5359721225693257E-01
   6.5837141797450771E-01   6.6314794995919013E-01   6.6792680462274323E-01   6.7270797838584329E-01   6.7749146767804991E-01
   6.8227726893777574E-01   6.8706537861225525E-01   6.9185579315751622E-01   6.9664850903834286E-01   7.0144352272825772E-01
   7.0624083070947508E-01   7.1104042947288859E-01   7.1584231551803101E-01   7.2064648535304143E-01   7.2545293549464984E-01
   7.3026166246813040E-01   7.3507266280728767E-01   7.3988593305441586E-01   7.4470146976027596E-01   7.4951926948406544E-01
   7.5433932879338839E-01   7.5916164426422850E-01   7.6398621248092136E-01   7.6881303003612200E-01   7.7364209353078206E-01
   7.7847339957411499E-01   7.8330694478357643E-01   7.8814272578482747E-01   7.9298073921171408E-01   7.9782098170623561E-01
   8.0266344991851890E-01   8.0750814050678810E-01   8.1235505013734277E-01   8.1720417548452295E-01   8.2205551323069037E-01
   8.2690906006619747E-01   8.3176481268935865E-01   8.3662276780642453E-01   8.4148292213156106E-01   8.4634527238681767E-01
   8.5120981530209627E-01   8.5607654761513829E-01   8.6094546607148226E-01   8.6581656742445579E-01   8.7068984843513086E-01
   8.7556530587231429E-01   8.8044293651250960E-01   8.8532273713990073E-01   8.9020470454632361E-01   8.9508883553123342E-01
   8.9997512690169201E-01   9.0486357547233498E-01   9.0975417806534664E-01   9.1464693151043752E-01   9.1954183264481937E-01
   9.2443887831317673E-01   9.2933806536765273E-01   9.3423939066780737E-01   9.3914285108060624E-01   9.4404844348039663E-01
   9.4895616474887690E-01   9.5386601177507546E-01   9.5877798145532112E-01   9.6369207069323348E-01   9.6860827639968505E-01
   9.7352659549278076E-01   9.7844702489783697E-01   9.8336956154736166E-01   9.8829420238102117E-01   9.9322094434562391E-01
   9.9814978439509661E-01   1.0030807194904583E+00   1.0080137465997980E+00   1.0129488626982561E+00   1.0178860647679957E+00
   1.0228253497981850E+00   1.0277667147849672E+00   1.0327101567314472E+00   1.0376556726476633E+00   1.0426032595505696E+00
   1.0475529144640015E+00   1.0525046344186715E+00   1.0574584164521346E+00   1.0624142576087727E+00   1.0673721549397617E+00
   1.0723321055030659E+00   1.0772941063634078E+00   1.0822581545922421E+00   1.0872242472677438E+00   1.0921923814747772E+00
   1.0971625543048809E+00   1.1021347628562495E+00   1.1071090042337000E+00   1.1120852755486648E+00   1.1170635739191590E+00
   1.1220438964697721E+00   1.1270262403316313E+00   1.1320106026423948E+00   1.1369969805462234E+00   1.1419853711937655E+00
   1.1469757717421276E+00   1.1519681793548622E+00   1.1569625912019506E+00   1.1619590044597656E+00   1.1669574163110703E+00
   1.1719578239449882E+00   1.1769602245569859E+00   1.1819646153488526E+00   1.1869709935286754E+00   1.1919793563108330E+00
   1.1969897009159607E+00   1.2020020245709389E+00   1.2070163245088732E+00   1.2120325979690720E+00   1.2170508421970314E+00
   1.2220710544444129E+00   1.2270932319690193E+00   1.2321173720347898E+00   1.2371434719117649E+00   1.2421715288760800E+00
   1.2472015402099355E+00   1.2522335032015885E+00   1.2572674151453280E+00   1.2623032733414521E+00   1.2673410750962644E+00
   1.2723808177220355E+00   1.2774224985370015E+00   1.2824661148653331E+00   1.2875116640371302E+00   1.2925591433883927E+00
   1.2976085502610020E+00   1.3026598820027142E+00   1.3077131359671268E+00   1.3127683095136784E+00   1.3178254000076131E+00
   1.3228844048199724E+00   1.3279453213275787E+00   1.3330081469130119E+00   1.3380728789645975E+00   1.3431395148763794E+00
   1.3482080520481170E+00   1.3532784878852551E+00   1.3583508197989149E+00   1.3634250452058700E+00   1.3685011615285319E+00
   1.3735791661949390E+00   1.3786590566387280E+00   1.3837408302991236E+00   1.3888244846209230E+00   1.3939100170544756E+00
   1.3989974250556694E+00   1.4040867060859101E+00   1.4091778576121050E+00   1.4142708771066530E+00   1.4193657620474163E+00
   1.4244625099177173E+00   1.4295611182063122E+00   1.4346615844073802E+00   1.4397639060204990E+00   1.4448680805506426E+00
   1.4499741055081512E+00   1.4550819784087268E+00   1.4601916967734019E+00   1.4653032581285428E+00   1.4704166600058211E+00
   1.4755318999421982E+00   1.4806489754799119E+00   1.4857678841664621E+00   1.4908886235545948E+00   1.4960111912022878E+00
   1.5011355846727228E+00   1.5062618015342906E+00   1.5113898393605578E+00   1.5165196957302653E+00   1.5216513682272979E+00
   1.5267848544406835E+00   1.5319201519645720E+00   1.5370572583982165E+00   1.5421961713459644E+00   1.5473368884172340E+00
   1.5524794072265153E+00   1.5576237253933363E+00   1.5627698405422592E+00   1.5679177503028641E+00   1.5730674523097354E+00
   1.5782189442024388E+00   1.5833722236255166E+00   1.5885272882284716E+00   1.5936841356657474E+00   1.5988427635967166E+00
   1.6040031696856676E+00   1.6091653516017916E+00   1.6143293070191627E+00   1.6194950336167282E+00   1.6246625290782915E+00
   1.6298317910925020E+00   1.6350028173528428E+00   1.6401756055576013E+00   1.6453501534098733E+00   1.6505264586175434E+00
   1.6557045188932702E+00   1.6608843319544639E+00   1.6660658955232921E+00   1.6712492073266463E+00   1.6764342650961410E+00
   1.6816210665680951E+00   1.6868096094835161E+00   1.6919998915880941E+00   1.6971919106321798E+00   1.7023856643707764E+00
   1.7075811505635226E+00   1.7127783669746872E+00   1.7179773113731431E+00   1.7231779815323636E+00   1.7283803752304108E+00
   1.7335844902499089E+00   1.7387903243780523E+00   1.7439978754065666E+00   1.7492071411317229E+00   1.7544181193543082E+00
   1.7596308078796092E+00   1.7648452045174137E+00   1.7700613070819848E+00   1.7752791133920638E+00   1.7804986212708334E+00
   1.7857198285459264E+00   1.7909427330494099E+00   1.7961673326177616E+00   1.8013936250918647E+00   1.8066216083170008E+00
   1.8118512801428213E+00   1.8170826384233598E+00   1.8223156810169912E+00   1.8275504057864396E+00   1.8327868105987624E+00
   1.8380248933253349E+00   1.8432646518418319E+00   1.8485060840282288E+00   1.8537491877687828E+00   1.8589939609520243E+00
   1.8642404014707328E+00   1.8694885072219420E+00   1.8747382761069178E+00   1.8799897060311483E+00   1.8852427949043316E+00
   1.8904975406403661E+00   1.8957539411573381E+00   1.9010119943775072E+00   1.9062716982272974E+00   1.9115330506372856E+00
   1.9167960495421916E+00   1.9220606928808615E+00   1.9273269785962559E+00   1.9325949046354496E+00   1.9378644689496087E+00
   1.9431356694939765E+00   1.9484085042278794E+00   1.9536829711146986E+00   1.9589590681218667E+00   1.9642367932208524E+00
   1.9695161443871518E+00   1.9747971196002811E+00   1.9800797168437598E+00   1.9853639341050988E+00   1.9906497693757943E+00
   1.9959372206513146E+00   2.0012262859310894E+00   2.0065169632184974E+00   2.0118092505208574E+00   2.0171031458494189E+00
   2.0223986472193456E+00   2.0276957526497092E+00   2.0329944601634815E+00   2.0382947677875154E+00   2.0435966735525408E+00
   2.0489001754931517E+00   2.0542052716477963E+00   2.0595119600587690E+00   2.0648202387721932E+00   2.0701301058380173E+00
   2.0754415593099975E+00   2.0807545972457011E+00   2.0860692177064784E+00   2.0913854187574632E+00   2.0967031984675595E+00
   2.1020225549094373E+00   2.1073434861595128E+00   2.1126659902979399E+00   2.1179900654086068E+00   2.1233157095791246E+00
   2.1286429209008095E+00   2.1339716974686755E+00   2.1393020373814333E+00   2.1446339387414750E+00   2.1499673996548543E+00
   2.1553024182312939E+00   2.1606389925841598E+00   2.1659771208304672E+00   2.1713168010908546E+00   2.1766580314895880E+00
   2.1820008101545403E+00   2.1873451352171873E+00   2.1926910048126005E+00   2.1980384170794309E+00   2.2033873701599047E+00
   2.2087378621998099E+00   2.2140898913484865E+00   2.2194434557588227E+00   2.2247985535872448E+00   2.2301551829937032E+00
   2.2355133421416538E+00   2.2408730291980752E+00   2.2462342423334354E+00   2.2515969797216959E+00   2.2569612395402894E+00
   2.2623270199701246E+00   2.2676943191955719E+00   2.2730631354044539E+00   2.2784334667880266E+00   2.2838053115409900E+00
   2.2891786678614654E+00   2.2945535339509910E+00   2.2999299080145050E+00   2.3053077882603490E+00   2.3106871729002498E+00
   2.3160680601493215E+00   2.3214504482260372E+00   2.3268343353522383E+00   2.3322197197531205E+00   2.3376065996572200E+00
   2.3429949732964115E+00   2.3483848389058961E+00   2.3537761947241909E+00   2.3591690389931235E+00   2.3645633699578208E+00
   2.3699591858667084E+00   2.3753564849714874E+00   2.3807552655271360E+00   2.3861555257919025E+00   2.3915572640272886E+00
   2.3969604784980509E+00   2.4023651674721789E+00   2.4077713292209024E+00   2.4131789620186725E+00   2.4185880641431567E+00
   2.4239986338752280E+00   2.4294106694989632E+00   2.4348241693016255E+00   2.4402391315736640E+00   2.4456555546087011E+00
   2.4510734367035232E+00   2.4564927761580799E+00   2.4619135712754692E+00   2.4673358203619258E+00   2.4727595217268266E+00
   2.4781846736826658E+00   2.4836112745450674E+00   2.4890393226327490E+00   2.4944688162675450E+00   2.4998997537743728E+00
   2.5053321334812435E+00   2.5107659537192406E+00   2.5162012128225197E+00   2.5216379091283017E+00   2.5270760409768576E+00
   2.5325156067115038E+00   2.5379566046786035E+00   2.5433990332275456E+00   2.5488428907107368E+00   2.5542881754836118E+00
   2.5597348859046059E+00   2.5651830203351569E+00   2.5706325771396905E+00   2.5760835546856256E+00   2.5815359513433536E+00
   2.5869897654862370E+00   2.5924449954906041E+00   2.5979016397357308E+00   2.6033596966038481E+00   2.6088191644801229E+00
   2.6142800417526582E+00   2.6197423268124762E+00   2.6252060180535230E+00   2.6306711138726553E+00   2.6361376126696321E+00
   2.6416055128471037E+00   2.6470748128106125E+00   2.6525455109685865E+00   2.6580176057323230E+00   2.6634910955159850E+00
   2.6689659787366016E+00   2.6744422538140484E+00   2.6799199191710468E+00   2.6853989732331627E+00   2.6908794144287866E+00
   2.6963612411891380E+00   2.7018444519482463E+00   2.7073290451429588E+00   2.7128150192129263E+00   2.7183023726005899E+00
   2.7237911037511817E+00   2.7292812111127183E+00   2.7347726931359895E+00   2.7402655482745555E+00   2.7457597749847360E+00
   2.7512553717256041E+00   2.7567523369589879E+00   2.7622506691494495E+00   2.7677503667642869E+00   2.7732514282735248E+00
   2.7787538521499124E+00   2.7842576368689103E+00   2.7897627809086871E+00   2.7952692827501111E+00   2.8007771408767446E+00
   2.8062863537748406E+00   2.8117969199333284E+00   2.8173088378438127E+00   2.8228221060005709E+00   2.8283367229005325E+00
   2.8338526870432874E+00   2.8393699969310751E+00   2.8448886510687705E+00   2.8504086479638873E+00   2.8559299861265708E+00
   2.8614526640695788E+00   2.8669766803083001E+00   2.8725020333607163E+00   2.8780287217474223E+00   2.8835567439916074E+00
   2.8890860986190536E+00   2.8946167841581194E+00   2.9001487991397492E+00   2.9056821420974530E+00   2.9112168115673129E+00
   2.9167528060879628E+00   2.9222901242005901E+00   2.9278287644489365E+00   2.9333687253792746E+00   2.9389100055404160E+00
   2.9444526034837000E+00   2.9499965177629890E+00   2.9555417469346570E+00   2.9610882895575950E+00   2.9666361441931874E+00
   2.9721853094053294E+00   2.9777357837603948E+00   2.9832875658272537E+00   2.9888406541772499E+00   2.9943950473842045E+00
   2.9999507440244000E+00   3.0055077426765875E+00   3.0110660419219735E+00   3.0166256403442122E+00   3.0221865365294027E+00
   3.0277487290660812E+00   3.0333122165452182E+00   3.0388769975602128E+00   3.0444430707068815E+00   3.0500104345834518E+00
   3.0555790877905742E+00   3.0611490289312897E+00   3.0667202566110405E+00   3.0722927694376652E+00   3.0778665660213846E+00
   3.0834416449748021E+00   3.0890180049128961E+00   3.0945956444530136E+00   3.1001745622148640E+00   3.1057547568205188E+00
   3.1113362268944007E+00   3.1169189710632761E+00   3.1225029879562580E+00   3.1280882762047928E+00   3.1336748344426582E+00
   3.1392626613059536E+00   3.1448517554331032E+00   3.1504421154648377E+00   3.1560337400442058E+00   3.1616266278165521E+00
   3.1672207774295256E+00   3.1728161875330558E+00   3.1784128567793699E+00   3.1840107838229716E+00   3.1896099673206453E+00
   3.1952104059314386E+00   3.2008120983166708E+00   3.2064150431399190E+00   3.2120192390670179E+00   3.2176246847660419E+00
   3.2232313789073230E+00   3.2288393201634245E+00   3.2344485072091453E+00   3.2400589387215124E+00   3.2456706133797764E+00
   3.2512835298654044E+00   3.2568976868620836E+00   3.2625130830556972E+00   3.2681297171343400E+00   3.2737475877883000E+00
   3.2793666937100658E+00   3.2849870335943003E+00   3.2906086061378566E+00   3.2962314100397672E+00   3.3018554440012302E+00
   3.3074807067256176E+00   3.3131071969184558E+00   3.3187349132874377E+00   3.3243638545424008E+00   3.3299940193953308E+00
   3.3356254065603590E+00   3.3412580147537518E+00   3.3468918426939069E+00   3.3525268891013527E+00   3.3581631526987361E+00
   3.3638006322108271E+00   3.3694393263644997E+00   3.3750792338887461E+00   3.3807203535146515E+00   3.3863626839754111E+00
   3.3920062240063031E+00   3.3976509723446973E+00   3.4032969277300489E+00   3.4089440889038918E+00   3.4145924546098332E+00
   3.4202420235935516E+00   3.4258927946027846E+00   3.4315447663873440E+00   3.4371979376990764E+00   3.4428523072918997E+00
   3.4485078739217605E+00   3.4541646363466585E+00   3.4598225933266273E+00   3.4654817436237275E+00   3.4711420860020565E+00
   3.4768036192277267E+00   3.4824663420688693E+00   3.4881302532956311E+00   3.4937953516801743E+00   3.4994616359966559E+00
   3.5051291050212332E+00   3.5107977575320666E+00   3.5164675923093021E+00   3.5221386081350756E+00   3.5278108037934994E+00
   3.5334841780706667E+00   3.5391587297546456E+00   3.5448344576354720E+00   3.5505113605051442E+00   3.5561894371576175E+00
   3.5618686863888125E+00   3.5675491069965912E+00   3.5732306977807631E+00   3.5789134575430839E+00   3.5845973850872479E+00
   3.5902824792188768E+00   3.5959687387455270E+00   3.6016561624766763E+00   3.6073447492237274E+00   3.6130344977999918E+00
   3.6187254070207042E+00   3.6244174757029919E+00   3.6301107026658976E+00   3.6358050867303597E+00   3.6415006267192123E+00
   3.6471973214571780E+00   3.6528951697708676E+00   3.6585941704887737E+00   3.6642943224412656E+00   3.6699956244605865E+00
   3.6756980753808550E+00   3.6814016740380491E+00   3.6871064192700080E+00   3.6928123099164298E+00   3.6985193448188736E+00
   3.7042275228207333E+00   3.7099368427672559E+00   3.7156473035055280E+00   3.7213589038844770E+00   3.7270716427548565E+00
   3.7327855189692527E+00   3.7385005313820723E+00   3.7442166788495532E+00   3.7499339602297370E+00   3.7556523743824841E+00
   3.7613719201694678E+00   3.7670925964541548E+00   3.7728144021018264E+00   3.7785373359795456E+00   3.7842613969561856E+00
   3.7899865839023912E+00   3.7957128956906043E+00   3.8014403311950411E+00   3.8071688892917019E+00   3.8128985688583485E+00
   3.8186293687745274E+00   3.8243612879215365E+00   3.8300943251824480E+00   3.8358284794420809E+00   3.8415637495870127E+00
   3.8473001345055722E+00   3.8530376330878355E+00   3.8587762442256173E+00   3.8645159668124704E+00   3.8702567997436885E+00
   3.8759987419162965E+00   3.8817417922290347E+00   3.8874859495823828E+00   3.8932312128785291E+00   3.8989775810213874E+00
   3.9047250529165747E+00   3.9104736274714211E+00   3.9162233035949621E+00   3.9219740801979377E+00   3.9277259561927793E+00
   3.9334789304936142E+00   3.9392330020162625E+00   3.9449881696782296E+00   3.9507444323987029E+00   3.9565017890985521E+00
   3.9622602387003183E+00   3.9680197801282202E+00   3.9737804123081406E+00   3.9795421341676311E+00   3.9853049446359021E+00
   3.9910688426438212E+00   3.9968338271239134E+00   4.0025998970103531E+00   4.0083670512389640E+00   4.0141352887472044E+00
   4.0199046084741834E+00   4.0256750093606453E+00   4.0314464903489657E+00   4.0372190503831469E+00   4.0429926884088205E+00
   4.0487674033732395E+00   4.0545431942252801E+00   4.0603200599154299E+00   4.0660979993957902E+00   4.0718770116200700E+00
   4.0776570955435902E+00   4.0834382501232662E+00   4.0892204743176110E+00   4.0950037670867427E+00   4.1007881273923630E+00
   4.1065735541977642E+00   4.1123600464678249E+00   4.1181476031690032E+00   4.1239362232693377E+00   4.1297259057384430E+00
   4.1355166495475055E+00   4.1413084536692732E+00   4.1471013170780724E+00   4.1528952387497755E+00   4.1586902176618255E+00
   4.1644862527932203E+00   4.1702833431245017E+00   4.1760814876377639E+00   4.1818806853166510E+00   4.1876809351463447E+00
   4.1934822361135664E+00   4.1992845872065709E+00   4.2050879874151530E+00   4.2108924357306288E+00   4.2166979311458457E+00
   4.2225044726551682E+00   4.2283120592544856E+00   4.2341206899412063E+00   4.2399303637142429E+00   4.2457410795740262E+00
   4.2515528365224888E+00   4.2573656335630741E+00   4.2631794697007139E+00   4.2689943439418521E+00   4.2748102552944180E+00
   4.2806272027678327E+00   4.2864451853730090E+00   4.2922642021223441E+00   4.2980842520297147E+00   4.3039053341104774E+00
   4.3097274473814657E+00   4.3155505908609841E+00   4.3213747635688149E+00   4.3271999645261952E+00   4.3330261927558285E+00
   4.3388534472818874E+00   4.3446817271299931E+00   4.3505110313272271E+00   4.3563413589021156E+00   4.3621727088846418E+00
   4.3680050803062285E+00   4.3738384721997452E+00   4.3796728835994969E+00   4.3855083135412256E+00   4.3913447610621148E+00
   4.3971822252007673E+00   4.4030207049972185E+00   4.4088601994929331E+00   4.4147007077307929E+00   4.4205422287550986E+00
   4.4263847616115672E+00   4.4322283053473326E+00   4.4380728590109353E+00   4.4439184216523202E+00   4.4497649923228479E+00
   4.4556125700752673E+00   4.4614611539637341E+00   4.4673107430437975E+00   4.4731613363724021E+00   4.4790129330078789E+00
   4.4848655320099491E+00   4.4907191324397147E+00   4.4965737333596678E+00   4.5024293338336676E+00   4.5082859329269640E+00
   4.5141435297061605E+00   4.5200021232392507E+00   4.5258617125955851E+00   4.5317222968458797E+00   4.5375838750622197E+00
   4.5434464463180371E+00   4.5493100096881340E+00   4.5551745642486621E+00   4.5610401090771155E+00   4.5669066432523460E+00
   4.5727741658545487E+00   4.5786426759652654E+00   4.5845121726673712E+00   4.5903826550450804E+00   4.5962541221839439E+00
   4.6021265731708478E+00   4.6080000070940024E+00   4.6138744230429447E+00   4.6197498201085399E+00   4.6256261973829718E+00
   4.6315035539597407E+00   4.6373818889336702E+00   4.6432612014008905E+00   4.6491414904588453E+00   4.6550227552062839E+00
   4.6609049947432686E+00   4.6667882081711554E+00   4.6726723945926034E+00   4.6785575531115757E+00   4.6844436828333205E+00
   4.6903307828643870E+00   4.6962188523126072E+00   4.7021078902871078E+00   4.7079978958982922E+00   4.7138888682578575E+00
   4.7197808064787639E+00   4.7256737096752630E+00   4.7315675769628749E+00   4.7374624074583958E+00   4.7433582002798849E+00
   4.7492549545466716E+00   4.7551526693793518E+00   4.7610513438997808E+00   4.7669509772310743E+00   4.7728515684976029E+00
   4.7787531168249950E+00   4.7846556213401303E+00   4.7905590811711312E+00   4.7964634954473784E+00   4.8023688632994901E+00
   4.8082751838593270E+00   4.8141824562599886E+00   4.8200906796358165E+00   4.8259998531223829E+00   4.8319099758564894E+00
   4.8378210469761704E+00   4.8437330656206941E+00   4.8496460309305460E+00   4.8555599420474334E+00   4.8614747981142870E+00
   4.8673905982752519E+00   4.8733073416756989E+00   4.8792250274621942E+00   4.8851436547825280E+00   4.8910632227856965E+00
   4.8969837306219022E+00   4.9029051774425474E+00   4.9088275624002300E+00   4.9147508846487611E+00   4.9206751433431402E+00
   4.9266003376395640E+00   4.9325264666954070E+00   4.9384535296692578E+00   4.9443815257208730E+00   4.9503104540111948E+00
   4.9562403137023630E+00   4.9621711039576804E+00   4.9681028239416340E+00   4.9740354728198897E+00   4.9799690497592817E+00
   4.9859035539278160E+00   4.9918389844946747E+00   4.9977753406301897E+00   5.0037126215058754E+00   5.0096508262943971E+00
   5.0155899541695819E+00   5.0215300043064159E+00   5.0274709758810383E+00   5.0334128680707453E+00   5.0393556800539727E+00
   5.0452994110103209E+00   5.0512440601205260E+00   5.0571896265664691E+00   5.0631361095311753E+00   5.0690835081988048E+00
   5.0750318217546617E+00   5.0809810493851826E+00   5.0869311902779373E+00   5.0928822436216192E+00   5.0988342086060641E+00
   5.1047870844222247E+00   5.1107408702621786E+00   5.1166955653191302E+00   5.1226511687873968E+00   5.1286076798624194E+00
   5.1345650977407509E+00   5.1405234216200641E+00   5.1464826506991317E+00   5.1524427841778495E+00   5.1584038212572079E+00
   5.1643657611393081E+00   5.1703286030273592E+00   5.1762923461256616E+00   5.1822569896396180E+00   5.1882225327757299E+00
   5.1941889747415892E+00   5.2001563147458851E+00   5.2061245519983936E+00   5.2120936857099789E+00   5.2180637150925948E+00
   5.2240346393592745E+00   5.2300064577241354E+00   5.2359791694023716E+00   5.2419527736102642E+00   5.2479272695651629E+00
   5.2539026564854892E+00   5.2598789335907385E+00   5.2658561001014856E+00   5.2718341552393584E+00   5.2778130982270541E+00
   5.2837929282883414E+00   5.2897736446480410E+00   5.2957552465320443E+00   5.3017377331672852E+00   5.3077211037817671E+00
   5.3137053576045368E+00   5.3196904938657008E+00   5.3256765117964129E+00   5.3316634106288685E+00   5.3376511895963237E+00
   5.3436398479330558E+00   5.3496293848744036E+00   5.3556197996567372E+00   5.3616110915174691E+00   5.3676032596950396E+00
   5.3735963034289300E+00   5.3795902219596519E+00   5.3855850145287478E+00   5.3915806803787794E+00   5.3975772187533524E+00
   5.4035746288970810E+00   5.4095729100556111E+00   5.4155720614756007E+00   5.4215720824047340E+00   5.4275729720917063E+00
   5.4335747297862342E+00   5.4395773547390407E+00   5.4455808462018620E+00   5.4515852034274408E+00   5.4575904256695340E+00
   5.4635965121829004E+00   5.4696034622232999E+00   5.4756112750474921E+00   5.4816199499132390E+00   5.4876294860793067E+00
   5.4936398828054500E+00   5.4996511393524150E+00   5.5056632549819504E+00   5.5116762289567829E+00   5.5176900605406383E+00
   5.5237047489982256E+00   5.5297202935952354E+00   5.5357366935983476E+00   5.5417539482752165E+00   5.5477720568944804E+00
   5.5537910187257573E+00   5.5598108330396316E+00   5.5658314991076736E+00   5.5718530162024180E+00   5.5778753835973731E+00
   5.5838986005670135E+00   5.5899226663867836E+00   5.5959475803330934E+00   5.6019733416833146E+00   5.6079999497157713E+00
   5.6140274037097653E+00   5.6200557029455442E+00   5.6260848467043134E+00   5.6321148342682399E+00   5.6381456649204296E+00
   5.6441773379449556E+00   5.6502098526268272E+00   5.6562432082520049E+00   5.6622774041074013E+00   5.6683124394808653E+00
   5.6743483136611914E+00   5.6803850259381141E+00   5.6864225756023048E+00   5.6924609619453763E+00   5.6985001842598741E+00
   5.7045402418392728E+00   5.7105811339779944E+00   5.7166228599713680E+00   5.7226654191156747E+00   5.7287088107081034E+00
   5.7347530340467880E+00   5.7407980884307612E+00   5.7468439731599990E+00   5.7528906875353867E+00   5.7589382308587336E+00
   5.7649866024327636E+00   5.7710358015611076E+00   5.7770858275483281E+00   5.7831366796998855E+00   5.7891883573221499E+00
   5.7952408597224121E+00   5.8012941862088496E+00   5.8073483360905733E+00   5.8134033086775680E+00   5.8194591032807415E+00
   5.8255157192118920E+00   5.8315731557837234E+00   5.8376314123098227E+00   5.8436904881046932E+00   5.8497503824837169E+00
   5.8558110947631734E+00   5.8618726242602275E+00   5.8679349702929411E+00   5.8739981321802563E+00   5.8800621092420098E+00
   5.8861269007989181E+00   5.8921925061725711E+00   5.8982589246854538E+00   5.9043261556609243E+00   5.9103941984232184E+00
   5.9164630522974555E+00   5.9225327166096200E+00   5.9286031906865677E+00   5.9346744738560337E+00   5.9407465654466307E+00
   5.9468194647878176E+00   5.9528931712099364E+00   5.9589676840441914E+00   5.9650430026226582E+00   5.9711191262782535E+00
   5.9771960543447760E+00   5.9832737861568788E+00   5.9893523210500605E+00   5.9954316583606913E+00   6.0015117974259899E+00
   6.0075927375840239E+00   6.0136744781737255E+00   6.0197570185348592E+00   6.0258403580080522E+00   6.0319244959347689E+00
   6.0380094316573283E+00   6.0440951645188949E+00   6.0501816938634594E+00   6.0562690190358683E+00   6.0623571393818088E+00
   6.0684460542477963E+00   6.0745357629811867E+00   6.0806262649301734E+00   6.0867175594437866E+00   6.0928096458718839E+00
   6.0989025235651493E+00   6.1049961918750988E+00   6.1110906501540860E+00   6.1171858977552818E+00   6.1232819340326774E+00
   6.1293787583410984E+00   6.1354763700361898E+00   6.1415747684744106E+00   6.1476739530130367E+00   6.1537739230101778E+00
   6.1598746778247495E+00   6.1659762168164773E+00   6.1720785393459057E+00   6.1781816447743925E+00   6.1842855324641093E+00
   6.1903902017780252E+00   6.1964956520799213E+00   6.2026018827343918E+00   6.2087088931068326E+00   6.2148166825634403E+00
   6.2209252504712085E+00   6.2270345961979414E+00   6.2331447191122411E+00   6.2392556185835018E+00   6.2453672939819178E+00
   6.2514797446784760E+00   6.2575929700449624E+00   6.2637069694539509E+00   6.2698217422788085E+00   6.2759372878936848E+00
   6.2131018749433345E+01   6.2131018749433345E+01   6.2131018749433345E+01   6.2131018749433345E+01   6.2131018749433345E+01
   6.2131018749433345E+01   6.2131018749433345E+01   6.2131018749433345E+01   6.2131018749433345E+01   6.2131018749433345E+01
   6.2131018749433345E+01   6.2131018749433345E+01   6.2131018749433345E+01   6.2131018749433345E+01   6.2131018749433345E+01
   6.2131018749433345E+01   6.2131018749433345E+01   6.2131018749433345E+01   6.2131018749433345E+01   6.2131018749433345E+01
   6.2131018749433345E+01   6.2131018749433345E+01   6.2131018749433345E+01   6.2131018749433345E+01   6.2131018749433345E+01
   6.2131018749433345E+01   6.2131018749433345E+01   6.2131018749433345E+01   6.2131018749433345E+01   6.2131018749433345E+01
   6.2131018749433345E+01   6.2131018749433345E+01   6.2131018749433345E+01   6.2131018749433345E+01   6.2131018749433345E+01
   6.2131018749433345E+01   6.2131018749433345E+01   6.2131018749433345E+01   6.2131018749433345E+01   6.2131018749433345E+01
   6.2131018749433345E+01   6.2131018749433345E+01   6.2131018749433345E+01   6.2131018749433345E+01   6.2131018749433345E+01
   6.2131018749433345E+01   6.2131018749433345E+01   6.2131018749433345E+01   6.2131018749433345E+01   6.2131018749433345E+01
   6.2131018749433345E+01   6.2131018749433345E+01   6.2131018749433345E+01   6.2131018749433345E+01   6.2131018749433345E+01
   6.2131018749433345E+01   6.2131018749433345E+01   6.2131018749433345E+01   6.2131018749433345E+01   6.2131018749433345E+01
   6.2131018749433345E+01   6.2131018749433345E+01   6.2131018749433345E+01   6.2131018749433345E+01   6.2131018749433345E+01
   6.2131018749433345E+01   6.2131018749433345E+01   6.2131018749433345E+01   6.2131018749433345E+01   6.2131018749433345E+01
   6.2131018749433345E+01   6.2131018749433345E+01   6.2131018749433345E+01   6.2131018749433345E+01   6.2131018749433345E+01
   6.2131018749433345E+01   6.2131018749433345E+01   6.2131018749433345E+01   6.2131018749433345E+01   6.2131018749433345E+01
   6.2131018749433345E+01   6.2131018749433345E+01   6.2131018749433345E+01   6.2131018749433345E+01   6.2131018749433345E+01
   6.2131018749433345E+01   6.2131018749433345E+01   6.2131018749433345E+01   6.2131018749433345E+01   6.2131018749433345E+01
   6.2131018749433345E+01   6.2131018749433345E+01   6.2131018749433345E+01   6.2131018749433345E+01   6.2131018749433345E+01
   6.2131018749433345E+01   6.2131018749433345E+01   6.2131018749433345E+01   6.2131018749433345E+01   6.2131018749433345E+01
   6.2131018749433345E+01   6.2131018749433345E+01   6.2131018749433345E+01   6.2131018749433345E+01   6.2131018749433345E+01
   6.2131018749433345E+01   6.2131018749433345E+01   6.2131018749433345E+01   6.2131018749433345E+01   6.2131018749433345E+01
   6.2131018749433345E+01   6.2131018749433345E+01   6.2131018749433345E+01   6.2131018749433345E+01   6.2131018749433345E+01
   6.2131018749433345E+01   6.2131018749433345E+01   6.2131018749433345E+01   6.2131018749433345E+01   6.2131018749433345E+01
   6.2131018749433345E+01   6.2131018749433345E+01   6.2131018749433345E+01   6.2131018749433345E+01   6.2131018749433345E+01
   6.2131018749433345E+01   6.2131018749433345E+01   6.2131018749433345E+01   6.2131018749433345E+01   6.2131018749433345E+01
   6.2131018749433345E+01   6.2131018749433345E+01   6.2131018749433345E+01   6.2131018749433345E+01   6.2131018749433345E+01
   6.2131018749433345E+01   6.2131018749433345E+01   6.2131018749433345E+01   6.2131018749433345E+01   6.2131018749433345E+01
   6.2131018749433345E+01   6.2131018749433345E+01   6.2131018749433345E+01   6.2131018749433345E+01   6.2131018749433345E+01
   6.2131018749433345E+01   6.2131018749433345E+01   6.2131018749433345E+01   6.2131018749433345E+01   6.2131018749433345E+01
   6.2131018749433345E+01   6.2131018749433345E+01   6.2131018749433345E+01   6.2131018749433345E+01   6.2131018749433345E+01
   6.1985924481529331E+01   6.1649182998516885E+01   6.1314269448050524E+01   6.0981173964287599E+01   6.0649886732475416E+01
   6.0320397988765457E+01   5.9992698020026467E+01   5.9666777163654253E+01   5.9342625807380351E+01   5.9020234389078375E+01
   5.8699593396568567E+01   5.8380693367420882E+01   5.8063524888756490E+01   5.7748078597047517E+01   5.7434345177915944E+01
   5.7122315365930554E+01   5.6811979944403177E+01   5.6503329745183827E+01   5.6196355648454322E+01   5.5891048582521584E+01
   5.5587399523609541E+01   5.5285399495650722E+01   5.4985039570076488E+01   5.4686310865607332E+01   5.4389204548041903E+01
   5.4093711830046033E+01   5.3799823970940984E+01   5.3507532276491290E+01   5.3216828098692467E+01   5.2927702835558208E+01
   5.2640147930907268E+01   5.2354154874150503E+01   5.2069715200077418E+01   5.1786820488642640E+01   5.1505462364752489E+01
   5.1225632498051553E+01   5.0947322602708986E+01   5.0670524437205351E+01   5.0395229804118998E+01   5.0121430549913057E+01
   4.9849118564722538E+01   4.9578285782141187E+01   4.9308924179009338E+01   4.9041025775201305E+01   4.8774582633413544E+01
   4.8509586858953128E+01   4.8246030599526286E+01   4.7983906045027474E+01   4.7723205427329148E+01   4.7463921020071382E+01
   4.7206045138452559E+01   4.6949570139020139E+01   4.6694488419462090E+01   4.6440792418398679E+01   4.6188474615175117E+01
   4.5937527529654496E+01   4.5687943722011468E+01   4.5439715792526229E+01   4.5192836381379514E+01   4.4947298168448000E+01
   4.4703093873100372E+01   4.4460216253994020E+01   4.4218658108872432E+01   4.3978412274363244E+01   4.3739471625777192E+01
   4.3501829076907320E+01   4.3265477579829366E+01   4.3030410124702520E+01   4.2796619739571241E+01   4.2564099490167493E+01
   4.2332842479713946E+01   4.2102841848727891E+01   4.1874090774825824E+01   4.1646582472529012E+01   4.1420310193069568E+01
   4.1195267224197600E+01   4.0971446889988883E+01   4.0748842550653471E+01   4.0527447602345212E+01   4.0307255476971854E+01
   4.0088259642006051E+01   3.9870453600297196E+01   3.9653830889884119E+01   3.9438385083808591E+01   3.9224109789929550E+01
   3.9010998650738209E+01   3.8799045343174072E+01   3.8588243578441777E+01   3.8378587101828622E+01   3.8170069692523072E+01
   3.7962685163434010E+01   3.7756427361011006E+01   3.7551290165065176E+01   3.7347267488591044E+01   3.7144353277589239E+01
   3.6942541510889939E+01   3.6741826199977261E+01   3.6542201388814419E+01   3.6343661153669878E+01   3.6146199602944023E+01
   3.5949810876997006E+01   3.5754489147977289E+01   3.5560228619651056E+01   3.5367023527232391E+01   3.5174868137214382E+01
   3.4983756747201006E+01   3.4793683685739964E+01   3.4604643312156149E+01   3.4416630016386094E+01   3.4229638218813200E+01
   3.4043662370103910E+01   3.3858696951044436E+01   3.3674736472378612E+01   3.3491775474646410E+01   3.3309808528023261E+01
   3.3128830232160333E+01   3.2948835216025373E+01   3.2769818137744792E+01   3.2591773684446011E+01   3.2414696572101050E+01
   3.2238581545370756E+01   3.2063423377449915E+01   3.1889216869912925E+01   3.1715956852560616E+01   3.1543638183267621E+01
   3.1372255747830700E+01   3.1201804459817655E+01   3.1032279260417226E+01   3.0863675118289656E+01   3.0695987029418120E+01
   3.0529210016960914E+01   3.0363339131104279E+01   3.0198369448916218E+01   3.0034296074200991E+01   2.9871114137354251E+01
   2.9708818795219230E+01   2.9547405230943394E+01   2.9386868653835961E+01   2.9227204299226241E+01   2.9068407428322690E+01
   2.8910473328072683E+01   2.8753397311022976E+01   2.8597174715181040E+01   2.8441800903877020E+01   2.8287271265626600E+01
   2.8133581213994312E+01   2.7980726187457812E+01   2.7828701649272794E+01   2.7677503087338696E+01   2.7527126014064930E+01
   2.7377565966238102E+01   2.7228818504889677E+01   2.7080879215164565E+01   2.6933743706190281E+01   2.6787407610946858E+01
   2.6641866586137400E+01   2.6497116312059454E+01   2.6353152492476919E+01   2.6209970854492742E+01   2.6067567148422338E+01
   2.5925937147667469E+01   2.5785076648591090E+01   2.5644981470392690E+01   2.5505647454984381E+01   2.5367070466867531E+01
   2.5229246393010236E+01   2.5092171142725320E+01   2.4955840647549117E+01   2.4820250861120698E+01   2.4685397759062013E+01
   2.4551277338858448E+01   2.4417885619740140E+01   2.4285218642564040E+01   2.4153272469696301E+01   2.4022043184895605E+01
   2.3891526893197000E+01   2.3761719720796318E+01   2.3632617814935347E+01   2.3504217343787463E+01   2.3376514496344047E+01
   2.3249505482301338E+01   2.3123186531948082E+01   2.2997553896053642E+01   2.2872603845756821E+01   2.2748332672455181E+01
   2.2624736687695048E+01   2.2501812223062057E+01   2.2379555630072392E+01   2.2257963280064423E+01   2.2137031564091117E+01
   2.2016756892812911E+01   2.1897135696391302E+01   2.1778164424382826E+01   2.1659839545633744E+01   2.1542157548175251E+01
   2.1425114939119339E+01   2.1308708244555060E+01   2.1192934009445473E+01   2.1077788797525134E+01   2.0963269191198108E+01
   2.0849371791436603E+01   2.0736093217680043E+01   2.0623430107734752E+01   2.0511379117674238E+01   2.0399936921739886E+01
   2.0289100212242325E+01   2.0178865699463270E+01   2.0069230111557818E+01   1.9960190194457425E+01   1.9851742711773316E+01
   1.9743884444700452E+01   1.9636612191921959E+01   1.9529922769514169E+01   1.9423813010852093E+01   1.9318279766515509E+01
   1.9213319904195398E+01   1.9108930308601057E+01   1.9005107881367621E+01   1.8901849540964111E+01   1.8799152222601940E+01
   1.8697012878144040E+01   1.8595428476014320E+01   1.8494396001107731E+01   1.8393912454700732E+01   1.8293974854362421E+01
   1.8194580233865832E+01   1.8095725643100057E+01   1.7997408147982586E+01   1.7899624830372293E+01   1.7802372787982829E+01
   1.7705649134296408E+01   1.7609450998478199E+01   1.7513775525291134E+01   1.7418619875011110E+01   1.7323981223342759E+01
   1.7229856761335583E+01   1.7136243695300607E+01   1.7043139246727463E+01   1.6950540652201919E+01   1.6858445163323871E+01
   1.6766850046625752E+01   1.6675752583491391E+01   1.6585150070075386E+01   1.6495039817222789E+01   1.6405419150389321E+01
   1.6316285409561974E+01   1.6227635949180069E+01   1.6139468138056792E+01   1.6051779359300966E+01   1.5964567010239520E+01
   1.5877828502340144E+01   1.5791561261134506E+01   1.5705762726141861E+01   1.5620430350793006E+01   1.5535561602354711E+01
   1.5451153961854549E+01   1.5367204924006160E+01   1.5283711997134850E+01   1.5200672703103656E+01   1.5118084577239788E+01
   1.5035945168261490E+01   1.4954252038205279E+01   1.4873002762353556E+01   1.4792194929162706E+01   1.4711826140191441E+01
   1.4631894010029672E+01   1.4552396166227666E+01   1.4473330249225700E+01   1.4394693912283923E+01   1.4316484821412805E+01
   1.4238700655303763E+01   1.4161339105260399E+01   1.4084397875129833E+01   1.4007874681234629E+01   1.3931767252304990E+01
   1.3856073329411380E+01   1.3780790665897444E+01   1.3705917027313312E+01   1.3631450191349305E+01   1.3557387947770000E+01
   1.3483728098348559E+01   1.3410468456801551E+01   1.3337606848724016E+01   1.3265141111524967E+01   1.3193069094363151E+01
   1.3121388658083262E+01   1.3050097675152436E+01   1.2979194029597073E+01   1.2908675616940060E+01   1.2838540344138307E+01
   1.2768786129520644E+01   1.2699410902725983E+01   1.2630412604641899E+01   1.2561789187343532E+01   1.2493538614032781E+01
   1.2425658858977826E+01   1.2358147907453061E+01   1.2291003755679265E+01   1.2224224410764105E+01   1.2157807890643015E+01
   1.2091752224020373E+01   1.2026055450310960E+01   1.1960715619581801E+01   1.1895730792494271E+01   1.1831099040246523E+01
   1.1766818444516288E+01   1.1702887097403867E+01   1.1639303101375566E+01   1.1576064569207336E+01   1.1513169623928770E+01
   1.1450616398767414E+01   1.1388403037093321E+01   1.1326527692363975E+01   1.1264988528069477E+01   1.1203783717678027E+01
   1.1142911444581717E+01   1.1082369902042609E+01   1.1022157293139136E+01   1.0962271830712707E+01   1.0902711737314739E+01
   1.0843475245153826E+01   1.0784560596043351E+01   1.0725966041349213E+01   1.0667689841938003E+01   1.0609730268125329E+01
   1.0552085599624514E+01   1.0494754125495520E+01   1.0437734144094179E+01   1.0381023963021645E+01   1.0324621899074238E+01
   1.0268526278193416E+01   1.0212735435416118E+01   1.0157247714825328E+01   1.0102061469500971E+01   1.0047175061470979E+01
   9.9925868616626907E+00   9.9382952498545194E+00   9.8842986146278431E+00   9.8305953533191808E+00   9.7771838719726070E+00
   9.7240625852925007E+00   9.6712299165964168E+00   9.6186842977683256E+00   9.5664241692120857E+00   9.5144479798051353E+00
   9.4627541868524325E+00   9.4113412560407070E+00   9.3602076613928986E+00   9.3093518852228723E+00   9.2587724180903557E+00
   9.2084677587561679E+00   9.1584364141376220E+00   9.1086768992642622E+00   9.0591877372337262E+00   9.0099674591679673E+00
   8.9610146041696002E+00   8.9123277192786077E+00   8.8639053594291539E+00   8.8157460874067191E+00   8.7678484738054561E+00
   8.7202110969857358E+00   8.6728325430319728E+00   8.6257114057106445E+00   8.5788462864285773E+00   8.5322357941914007E+00
   8.4858785455622847E+00   8.4397731646208740E+00   8.3939182829224563E+00   8.3483125394573268E+00   8.3029545806104021E+00
   8.2578430601210524E+00   8.2129766390431396E+00   8.1683539857052612E+00   8.1239737756712422E+00   8.0798346917008335E+00
   8.0359354237105656E+00   7.9922746687349360E+00   7.9488511308876895E+00   7.9056635213233566E+00   7.8627105581990087E+00
   7.8199909666362295E+00   7.7775034786832391E+00   7.7352468332772819E+00   7.6932197762072070E+00   7.6514210600762187E+00
   7.6098494442648672E+00   7.5685036948942148E+00   7.5273825847892377E+00   7.4864848934423707E+00   7.4458094069772978E+00
   7.4053549181129288E+00   7.3651202261275666E+00   7.3251041368232412E+00   7.2853054624902995E+00   7.2457230218721405E+00
   7.2063556401301465E+00   7.1672021488088253E+00   7.1282613858011192E+00   7.0895321953139252E+00   7.0510134278337757E+00
   7.0127039400927229E+00   6.9746025950344261E+00   6.9367082617803666E+00   6.8990198155963203E+00   6.8615361378589421E+00
   6.8242561160225845E+00   6.7871786435862749E+00   6.7503026200608645E+00   6.7136269509363729E+00   6.6771505476494886E+00
   6.6408723275512900E+00   6.6047912138750746E+00   6.5689061357044194E+00   6.5332160279413989E+00   6.4977198312749671E+00
   6.4624164921495053E+00   6.4273049627335661E+00   6.3923842008887730E+00   6.3576531701388781E+00   6.3231108396390017E+00
   6.2887561841450479E+00   6.2545881839832704E+00   6.2206058250199803E+00   6.1868080986314862E+00   6.1531940016741427E+00
   6.1197625364545596E+00   6.0865127107000108E+00   6.0534435375289810E+00   6.0205540354218572E+00   5.9878432281918119E+00
   5.9553101449558277E+00   5.9229538201058807E+00   5.8907732932802714E+00   5.8587676093351240E+00   5.8269358183160511E+00
   5.7952769754299380E+00   5.7637901410169121E+00   5.7324743805224507E+00   5.7013287644696424E+00   5.6703523684316002E+00
   5.6395442730040166E+00   5.6089035637778935E+00   5.5784293313123756E+00   5.5481206711077853E+00   5.5179766835787509E+00
   5.4879964740275273E+00   5.4581791526174221E+00   5.4285238343464011E+00   5.3990296390208119E+00   5.3696956912292535E+00
   5.3405211203166143E+00   5.3115050603582059E+00   5.2826466501340672E+00   5.2539450331034221E+00   5.2253993573792377E+00
   5.1970087757029386E+00   5.1687724454192638E+00   5.1406895284512713E+00   5.1127591912754360E+00   5.0849806048969253E+00
   5.0573529448249985E+00   5.0298753910485265E+00   5.0025471280116527E+00   4.9753673445895865E+00   4.9483352340645439E+00
   4.9214499941017751E+00   4.8947108267257846E+00   4.8681169382966063E+00   4.8416675394862914E+00   4.8153618452554428E+00
   4.7891990748299413E+00   4.7631784516777591E+00   4.7372992034859074E+00   4.7115605621375263E+00   4.6859617636890807E+00
   4.6605020483476762E+00   4.6351806604485226E+00   4.6099968484325000E+00   4.5849498648238534E+00   4.5600389662079985E+00
   4.5352634132094654E+00   4.5106224704699569E+00   4.4861154066265030E+00   4.4617414942897762E+00   4.4375000100224931E+00
   4.4133902343179416E+00   4.3894114515786171E+00   4.3655629500950051E+00   4.3418440220244303E+00   4.3182539633700694E+00
   4.2947920739600383E+00   4.2714576574266294E+00   4.2482500211856253E+00   4.2251684764157504E+00   4.2022123380382297E+00
   4.1793809246964440E+00   4.1566735587357151E+00   4.1340895661831922E+00   4.1116282767278474E+00   4.0892890237005775E+00
   4.0670711440544158E+00   4.0449739783448617E+00   4.0229968707102968E+00   4.0011391688525242E+00   3.9794002240173998E+00
   3.9577793909755954E+00   3.9362760280034230E+00   3.9148894968638106E+00   3.8936191627873460E+00   3.8724643944534334E+00
   3.8514245639715727E+00   3.8304990468626960E+00   3.8096872220406626E+00   3.7889884717937994E+00   3.7684021817665845E+00
   3.7479277409414054E+00   3.7275645416204166E+00   3.7073119794075220E+00   3.6871694531904082E+00   3.6671363651227309E+00
   3.6472121206063521E+00   3.6273961282736988E+00   3.6076877999702135E+00   3.5880865507368878E+00   3.5685917987929097E+00
   3.5492029655183912E+00   3.5299194754371941E+00   3.5107407561998509E+00   3.4916662385665815E+00   3.4726953563903851E+00
   3.4538275466002513E+00   3.4350622491844405E+00   3.4163989071738579E+00   3.3978369666255310E+00   3.3793758766061597E+00
   3.3610150891757762E+00   3.3427540593714649E+00   3.3245922451912029E+00   3.3065291075777687E+00   3.2885641104027354E+00
   3.2706967204505588E+00   3.2529264074027662E+00   3.2352526438222000E+00   3.2176749051373674E+00   3.2001926696268721E+00
   3.1828054184039329E+00   3.1655126354009746E+00   3.1483138073543100E+00   3.1312084237889177E+00   3.1141959770032845E+00
   3.0972759620543280E+00   3.0804478767424244E+00   3.0637112215964892E+00   3.0470654998591624E+00   3.0305102174720631E+00
   3.0140448830611133E+00   2.9976690079219748E+00   2.9813821060055221E+00   2.9651836939034353E+00   2.9490732908338360E+00
   2.9330504186270283E+00   2.9171146017113063E+00   2.9012653670988238E+00   2.8855022443715783E+00   2.8698247656674294E+00
   2.8542324656662266E+00   2.8387248815759851E+00   2.8233015531191614E+00   2.8079620225189879E+00   2.7927058344858775E+00
   2.7775325362039207E+00   2.7624416773174461E+00   2.7474328099176479E+00   2.7325054885292901E+00   2.7176592700974904E+00
   2.7028937139745715E+00   2.6882083819069686E+00   2.6736028380222367E+00   2.6590766488161104E+00   2.6446293831396321E+00
   2.6302606121863565E+00   2.6159699094796292E+00   2.6017568508599180E+00   2.5876210144722371E+00   2.5735619807536096E+00
   2.5595793324206295E+00   2.5456726544570718E+00   2.5318415341015661E+00   2.5180855608353601E+00   2.5044043263701208E+00
   2.4907974246358311E+00   2.4772644517687175E+00   2.4638050060992844E+00   2.4504186881403776E+00   2.4371051005753350E+00
   2.4238638482461896E+00   2.4106945381419407E+00   2.3975967793868955E+00   2.3845701832290538E+00   2.3716143630285886E+00
   2.3587289342463520E+00   2.3459135144324743E+00   2.3331677232150096E+00   2.3204911822886389E+00   2.3078835154034549E+00
   2.2953443483537774E+00   2.2828733089670665E+00   2.2704700270928586E+00   2.2581341345917911E+00   2.2458652653246731E+00
   2.2336630551416126E+00   2.2215271418712175E+00   2.2094571653098387E+00   2.1974527672108817E+00   2.1855135912741721E+00
   2.1736392831353859E+00   2.1618294903555246E+00   2.1500838624104559E+00   2.1384020506805150E+00   2.1267837084401502E+00
   2.1152284908476378E+00   2.1037360549348403E+00   2.0923060595970373E+00   2.0809381655827881E+00   2.0696320354838740E+00
   2.0583873337252774E+00   2.0472037265552219E+00   2.0360808820352689E+00   2.0250184700304623E+00   2.0140161621995354E+00
   2.0030736319851563E+00   1.9921905546042449E+00   1.9813666070383287E+00   1.9706014680239545E+00   1.9598948180431508E+00
   1.9492463393139530E+00   1.9386557157809652E+00   1.9281226331059760E+00   1.9176467786586371E+00   1.9072278415071795E+00
   1.8968655124091822E+00   1.8865594838024013E+00   1.8763094497956305E+00   1.8661151061596348E+00   1.8559761503181085E+00
   1.8458922813387040E+00   1.8358631999240962E+00   1.8258886084030941E+00   1.8159682107218178E+00   1.8061017124348955E+00
   1.7962888206967402E+00   1.7865292442528458E+00   1.7768226934311500E+00   1.7671688801334300E+00   1.7575675178267580E+00
   1.7480183215349949E+00   1.7385210078303248E+00   1.7290752948248551E+00   1.7196809021622390E+00   1.7103375510093619E+00
   1.7010449640480598E+00   1.6918028654668920E+00   1.6826109809529541E+00   1.6734690376837342E+00   1.6643767643190142E+00
   1.6553338909928235E+00   1.6463401493054226E+00   1.6373952723153367E+00   1.6284989945314361E+00   1.6196510519050555E+00
   1.6108511818221549E+00   1.6020991230955219E+00   1.5933946159570305E+00   1.5847374020499210E+00   1.5761272244211326E+00
   1.5675638275136836E+00   1.5590469571590764E+00   1.5505763605697647E+00   1.5421517863316381E+00   1.5337729843965711E+00
   1.5254397060749973E+00   1.5171517040285238E+00   1.5089087322625989E+00   1.5007105461192001E+00   1.4925569022695848E+00
   1.4844475587070536E+00   1.4763822747397817E+00   1.4683608109836666E+00   1.4603829293552228E+00   1.4524483930645207E+00
   1.4445569666081515E+00   1.4367084157622434E+00   1.4289025075755080E+00   1.4211390103623216E+00   1.4134176936958549E+00
   1.4057383284012304E+00   1.3981006865487218E+00   1.3905045414469868E+00   1.3829496676363406E+00   1.3754358408820653E+00
   1.3679628381677484E+00   1.3605304376886693E+00   1.3531384188452167E+00   1.3457865622363376E+00   1.3384746496530235E+00
   1.3312024640718412E+00   1.3239697896484832E+00   1.3167764117113667E+00   1.3096221167552586E+00   1.3025066924349418E+00
   1.2954299275589107E+00   1.2883916120831014E+00   1.2813915371046614E+00   1.2744294948557446E+00   1.2675052786973489E+00
   1.2606186831131778E+00   1.2537695037035481E+00   1.2469575371793142E+00   1.2401825813558425E+00   1.2334444351470051E+00
   1.2267428985592115E+00   1.2200777726854783E+00   1.2134488596995157E+00   1.2068559628498667E+00   1.2002988864540582E+00
   1.1937774358927991E+00   1.1872914176042022E+00   1.1808406390780362E+00   1.1744249088500172E+00   1.1680440364961191E+00
   1.1616978326269294E+00   1.1553861088820205E+00   1.1491086779243660E+00   1.1428653534347750E+00   1.1366559501063633E+00
   1.1304802836390568E+00   1.1243381707341140E+00   1.1182294290886943E+00   1.1121538773904402E+00   1.1061113353120997E+00
   1.1001016235061738E+00   1.0941245635995895E+00   1.0881799781884105E+00   1.0822676908325688E+00   1.0763875260506270E+00
   1.0705393093145763E+00   1.0647228670446465E+00   1.0589380266041597E+00   1.0531846162944096E+00   1.0474624653495570E+00
   1.0417714039315671E+00   1.0361112631251674E+00   1.0304818749328337E+00   1.0248830722698030E+00   1.0193146889591189E+00
   1.0137765597266915E+00   1.0082685201963970E+00   1.0027904068852020E+00   9.9734205719829983E-01   9.9192330942429985E-01
   9.8653400273041414E-01   9.8117397715769261E-01   9.7584307361626965E-01   9.7054113388064878E-01   9.6526800058499873E-01
   9.6002351721848767E-01   9.5480752812063696E-01   9.4961987847669826E-01   9.4446041431306516E-01   9.3932898249269492E-01
   9.3422543071056763E-01   9.2914960748916897E-01   9.2410136217398364E-01   9.1908054492903457E-01   9.1408700673243282E-01
   9.0912059937195056E-01   9.0418117544062504E-01   8.9926858833238488E-01   8.9438269223769562E-01   8.8952334213923234E-01
   8.8469039380757775E-01   8.7988370379693814E-01   8.7510312944089053E-01   8.7034852884814218E-01   8.6561976089832204E-01
   8.6091668523779541E-01   8.5623916227549246E-01   8.5158705317876537E-01   8.4696021986927472E-01   8.4235852501888264E-01
   8.3778183204558077E-01   8.3323000510943779E-01   8.2870290910856392E-01   8.2420040967510311E-01   8.1972237317124474E-01
   8.1526866668525555E-01   8.1083915802753914E-01   8.0643371572670630E-01   8.0205220902567675E-01   7.9769450787779606E-01
   7.9336048294297989E-01   7.8905000558386895E-01   7.8476294786201461E-01   7.8049918253408102E-01   7.7625858304806727E-01
   7.7204102353955462E-01   7.6784637882796514E-01   7.6367452441284989E-01   7.5952533647019571E-01   7.5539869184874187E-01
   7.5129446806633271E-01   7.4721254330628162E-01   7.4315279641374965E-01   7.3911510689215398E-01   7.3509935489959244E-01
   7.3110542124528177E-01   7.2713318738602384E-01   7.2318253542268496E-01   7.1925334809669716E-01   7.1534550878657976E-01
   7.1145890150447366E-01   7.0759341089270134E-01   7.0374892222034258E-01   6.9992532137982888E-01   6.9612249488355560E-01
   6.9234032986051619E-01   6.8857871405294802E-01   6.8483753581300222E-01   6.8111668409943216E-01   6.7741604847429282E-01
   6.7373551909966589E-01   6.7007498673439847E-01   6.6643434273086111E-01   6.6281347903172161E-01   6.5921228816674038E-01
   6.5563066324957664E-01   6.5206849797461797E-01   6.4852568661382692E-01   6.4500212401359536E-01   6.4149770559163333E-01
   6.3801232733385649E-01   6.3454588579130156E-01   6.3109827807705832E-01   6.2766940186321030E-01   6.2425915537780052E-01
   6.2086743740181061E-01   6.1749414726615526E-01   6.1413918484869323E-01   6.1080245057125915E-01   6.0748384539670164E-01
   6.0418327082594792E-01   6.0090062889508045E-01   5.9763582217242228E-01   5.9438875375565481E-01   5.9115932726893239E-01
   5.8794744686002676E-01   5.8475301719747819E-01   5.8157594346776920E-01   5.7841613137250603E-01   5.7527348712562210E-01
   5.7214791745059179E-01   5.6903932957766279E-01   5.6594763124110259E-01   5.6287273067645738E-01   5.5981453661782843E-01
   5.5677295829516471E-01   5.5374790543156482E-01   5.5073928824059892E-01   5.4774701742364251E-01   5.4477100416722546E-01
   5.4181116014039421E-01   5.3886739749209234E-01   5.3593962884854762E-01   5.3302776731068124E-01   5.3013172645152651E-01
   5.2725142031366234E-01   5.2438676340666379E-01   5.2153767070455903E-01   5.1870405764330796E-01   5.1588584011829153E-01
   5.1308293448181241E-01   5.1029525754061045E-01   5.0752272655339714E-01   5.0476525922839333E-01   5.0202277372088722E-01
   4.9929518863080630E-01   4.9658242300029587E-01   4.9388439631131698E-01   4.9120102848325720E-01   4.8853223987054650E-01
   4.8587795126029948E-01   4.8323808386995615E-01   4.8061255934494540E-01   4.7800129975635613E-01   4.7540422759862544E-01
   4.7282126578723238E-01   4.7025233765641072E-01   4.6769736695687142E-01   4.6515627785353608E-01   4.6262899492328730E-01
   4.6011544315272407E-01   4.5761554793593490E-01   4.5512923507228387E-01   4.5265643076420009E-01   4.5019706161499001E-01
   4.4775105462665621E-01   4.4531833719772534E-01   4.4289883712109218E-01   4.4049248258187629E-01   4.3809920215528292E-01
   4.3571892480448410E-01   4.3335157987850575E-01   4.3099709711012785E-01   4.2865540661379686E-01   4.2632643888354593E-01
   4.2401012479093109E-01   4.2170639558297407E-01   4.1941518288012081E-01   4.1713641867420409E-01   4.1487003532642658E-01
   4.1261596556534491E-01   4.1037414248487120E-01   4.0814449954228382E-01   4.0592697055624638E-01   4.0372148970484006E-01
   4.0152799152360580E-01   3.9934641090359652E-01   3.9717668308943893E-01   3.9501874367740952E-01   3.9287252861351463E-01
   3.9073797419158574E-01   3.8861501705138518E-01   3.8650359417671554E-01   3.8440364289354922E-01   3.8231510086815818E-01
   3.8023790610525976E-01   3.7817199694617160E-01   3.7611731206697269E-01   3.7407379047667916E-01   3.7204137151542604E-01
   3.7001999485266079E-01   3.6800960048534520E-01   3.6601012873616834E-01   3.6402152025176648E-01   3.6204371600095403E-01
   3.6007665727296573E-01   3.5812028567570336E-01   3.5617454313399555E-01   3.5423937188786625E-01   3.5231471449081025E-01
   3.5040051380808135E-01   3.4849671301498519E-01   3.4660325559518423E-01   3.4472008533901055E-01   3.4284714634178803E-01
   3.4098438300216172E-01   3.3913174002043911E-01   3.3728916239693535E-01   3.3545659543033174E-01   3.3363398471604078E-01
   3.3182127614457840E-01   3.3001841589994746E-01   3.2822535045802725E-01   3.2644202658497273E-01   3.2466839133562148E-01
   3.2290439205190946E-01   3.2114997636129344E-01   3.1940509217518309E-01   3.1766968768738213E-01   3.1594371137253230E-01
   3.1422711198457343E-01   3.1251983855520371E-01   3.1082184039235217E-01   3.0913306707865879E-01   3.0745346846995975E-01
   3.0578299469378278E-01   3.0412159614784939E-01   3.0246922349858496E-01   3.0082582767963523E-01   2.9919135989039258E-01
   2.9756577159452618E-01   2.9594901451852290E-01   2.9434104065023503E-01   2.9274180223743118E-01   2.9115125178636181E-01
   2.8956934206032436E-01   2.8799602607824032E-01   2.8643125711323736E-01   2.8487498869123995E-01   2.8332717458956408E-01
   2.8178776883552176E-01   2.8025672570503130E-01   2.7873399972123325E-01   2.7721954565311618E-01   2.7571331851414449E-01
   2.7421527356089642E-01   2.7272536629170885E-01   2.7124355244532533E-01   2.6976978799955220E-01   2.6830402916992446E-01
   2.6684623240837158E-01   2.6539635440189446E-01   2.6395435207124757E-01   2.6252018256962517E-01   2.6109380328135695E-01
   2.5967517182060651E-01   2.5826424603007847E-01   2.5686098397973056E-01   2.5546534396549031E-01   2.5407728450797945E-01
   2.5269676435124333E-01   2.5132374246148709E-01   2.4995817802581372E-01   2.4860003045097437E-01   2.4724925936211731E-01
   2.4590582460154675E-01   2.4456968622748645E-01   2.4324080451284688E-01   2.4191913994399958E-01   2.4060465321955624E-01
   2.3929730524915305E-01   2.3799705715223959E-01   2.3670387025687437E-01   2.3541770609852339E-01   2.3413852641886487E-01
   2.3286629316459984E-01   2.3160096848626519E-01   2.3034251473705353E-01   2.2909089447163736E-01   2.2784607044499705E-01
   2.2660800561125582E-01   2.2537666312251534E-01   2.2415200632769988E-01   2.2293399877140363E-01   2.2172260419273968E-01
   2.2051778652419810E-01   2.1931950989050558E-01   2.1812773860748852E-01   2.1694243718094197E-01   2.1576357030550311E-01
   2.1459110286352620E-01   2.1342499992396397E-01   2.1226522674125237E-01   2.1111174875419780E-01   2.0996453158487111E-01
   2.0882354103750111E-01   2.0768874309737609E-01   2.0656010392974578E-01   2.0543758987872845E-01   2.0432116746622120E-01
   2.0321080339081382E-01   2.0210646452670467E-01   2.0100811792262188E-01   1.9991573080074698E-01   1.9882927055564059E-01
   1.9774870475317274E-01   1.9667400112945574E-01   1.9560512758977947E-01   1.9454205220754997E-01   1.9348474322323181E-01
   1.9243316904329105E-01   1.9138729823914205E-01   1.9034709954609902E-01   1.8931254186232449E-01   1.8828359424778782E-01
   1.8726022592321892E-01   1.8624240626906918E-01   1.8523010482447308E-01   1.8422329128621073E-01   1.8322193550767515E-01
   1.8222600749783913E-01   1.8123547742022583E-01   1.8025031559188023E-01   1.7927049248234334E-01   1.7829597871262673E-01
   1.7732674505419041E-01   1.7636276242792187E-01   1.7540400190311448E-01   1.7445043469645222E-01   1.7350203217099033E-01
   1.7255876583514085E-01   1.7162060734165810E-01   1.7068752848662644E-01   1.6975950120844596E-01   1.6883649758682434E-01
   1.6791848984176444E-01   1.6700545033255668E-01   1.6609735155676944E-01   1.6519416614924132E-01   1.6429586688107534E-01
   1.6340242665863047E-01   1.6251381852251734E-01   1.6163001564659010E-01   1.6075099133694365E-01   1.5987671903090611E-01
   1.5900717229603523E-01   1.5814232482911225E-01   1.5728215045513677E-01   1.5642662312632283E-01   1.5557571692109162E-01
   1.5472940604306740E-01   1.5388766482007007E-01   1.5305046770310995E-01   1.5221778926537896E-01   1.5138960420124450E-01
   1.5056588732524120E-01   1.4974661357105964E-01   1.4893175799053904E-01   1.4812129575265418E-01   1.4731520214250476E-01
   1.4651345256030138E-01   1.4571602252035085E-01   1.4492288765004235E-01   1.4413402368882813E-01   1.4334940648720682E-01
   1.4256901200570193E-01   1.4179281631384197E-01   1.4102079558913477E-01   1.4025292611604406E-01   1.3948918428496249E-01
   1.3872954659118070E-01   1.3797398963385882E-01   1.3722249011499102E-01   1.3647502483837182E-01   1.3573157070855724E-01
   1.3499210472982473E-01   1.3425660400513173E-01   1.3352504573506910E-01   1.3279740721681507E-01   1.3207366584308292E-01
   1.3135379910106970E-01   1.3063778457139916E-01   1.2992559992706293E-01   1.2921722293235929E-01   1.2851263144182698E-01
   1.2781180339917869E-01   1.2711471683622830E-01   1.2642134987181752E-01   1.2573168071073698E-01   1.2504568764264534E-01
   1.2436334904098523E-01   1.2368464336189360E-01   1.2300954914311155E-01   1.2233804500288670E-01   1.2167010963887648E-01
   1.2100572182704343E-01   1.2034486042054905E-01   1.1968750434864413E-01   1.1903363261555268E-01   1.1838322429935562E-01
   1.1773625855086699E-01   1.1709271459250931E-01   1.1645257171718164E-01   1.1581580928712740E-01   1.1518240673279477E-01
   1.1455234355169522E-01   1.1392559930725732E-01   1.1330215362767562E-01   1.1268198620475772E-01   1.1206507679276470E-01
   1.1145140520724957E-01   1.1084095132389060E-01   1.1023369507732053E-01   1.0962961645995371E-01   1.0902869552080635E-01
   1.0843091236431623E-01   1.0783624714915500E-01   1.0724468008704093E-01   1.0665619144154415E-01   1.0607076152689078E-01
   1.0548837070676328E-01   1.0490899939309581E-01   1.0433262804486902E-01   1.0375923716689912E-01   1.0318880730862651E-01
   1.0262131906289869E-01   1.0205675306475323E-01   1.0149508999019709E-01   1.0093631055498314E-01   1.0038039551338582E-01
   9.9827325656973276E-02   9.9277081813380338E-02   9.8729644845077305E-02   9.8184995648139456E-02   9.7643115151015938E-02
   9.7103984313295671E-02   9.6567584124476871E-02   9.6033895602733121E-02   9.5502899793682497E-02   9.4974577769155272E-02
   9.4448910625965513E-02   9.3925879484682465E-02   9.3405465488404282E-02   9.2887649801535771E-02   9.2372413608567017E-02
   9.1859738112858191E-02   9.1349604535426468E-02   9.0841994113739083E-02   9.0336888100511423E-02   8.9834267762510273E-02
   8.9334114379366045E-02   8.8836409242389766E-02   8.8341133653400461E-02   8.7848268923559680E-02   8.7357796372217855E-02
   8.6869697325769185E-02   8.6383953116519391E-02   8.5900545081566054E-02   8.5419454561690644E-02   8.4940662900267819E-02
   8.4464151442187399E-02   8.3989901532795203E-02   8.3517894516849517E-02   8.3048111737498820E-02   8.2580534535278124E-02
   8.2115144247127028E-02   8.1651922205431535E-02   8.1190849737088622E-02   8.0731908162598426E-02   8.0275078795182031E-02
   7.9820342939929123E-02   7.9367681892975814E-02   7.8917076940714120E-02   7.8468509359036848E-02   7.8021960412616456E-02
   7.7577411354223191E-02   7.7134843424081334E-02   7.6694237849268737E-02   7.6255575843159298E-02   7.5818838604910843E-02
   7.5384007319002910E-02   7.4951063154822722E-02   7.4519987266306986E-02   7.4090760791636470E-02   7.3663364852990007E-02
   7.3237780556359364E-02   7.2813988991426312E-02   7.2391971231507188E-02   7.1971708333565323E-02   7.1553181338296842E-02
   7.1136371270290086E-02   7.0721259138264700E-02   7.0307825935391519E-02   6.9896052639697240E-02   6.9485920214557781E-02
   6.9077409609282464E-02   6.8670501759795194E-02   6.8265177589412793E-02   6.7861418009726948E-02   6.7459203921593575E-02
   6.7058516216230865E-02   6.6659335776433862E-02   6.6261643477906015E-02   6.5865420190715160E-02   6.5470646780874817E-02
   6.5077304112058837E-02   6.4685373047450784E-02   6.4294834451733229E-02   6.3905669193223491E-02   6.3517858146157236E-02
   6.3131382193127500E-02   6.2746222227681489E-02   6.2362359157082360E-02   6.1979773905237998E-02   6.1598447415804475E-02
   6.1218360655467194E-02   6.0839494617404899E-02   6.0461830324942539E-02   6.0085348835395895E-02   5.9710031244116037E-02
   5.9335858688734686E-02   5.8962812353618374E-02   5.8590873474535621E-02   5.8220023343540227E-02   5.7850243314078280E-02
   5.7481514806320542E-02   5.7113819312727972E-02   5.6747138403851240E-02   5.6381453734372582E-02   5.6016747049390976E-02
   5.5653000190956002E-02   5.5290195104855257E-02   5.4928313847656327E-02   5.4567338594010653E-02   5.4207251644218649E-02
   5.3848035432061583E-02   5.3489672532902800E-02   5.3132145672058810E-02   5.2775437733445077E-02   5.2419531768495557E-02
   5.2064411005359849E-02   5.1710058858376186E-02   5.1356458937823639E-02   5.1003595059951480E-02   5.0651451257285117E-02
   5.0300011789210029E-02   4.9949261152828564E-02   4.9599184094090788E-02   4.9249765619193933E-02   4.8900991006248451E-02
   4.8552845817206793E-02   4.8205315910048133E-02   4.7858387451215616E-02   4.7512046928297816E-02   4.7166281162948978E-02
   4.6821077324037307E-02   4.6476422941015248E-02   4.6132305917499616E-02   4.5788714545050652E-02   4.5445637517140113E-02
   4.5103063943292360E-02   4.4760983363387380E-02   4.4419385762108105E-02   4.4078261583518068E-02   4.3737601745749789E-02
   4.3397397655787776E-02   4.3057641224324671E-02   4.2718324880669810E-02   4.2379441587690095E-02   4.2040984856756933E-02
   4.1702948762677848E-02   4.1365327958584587E-02   4.1028117690752340E-02   4.0691313813322381E-02   4.0354912802896825E-02
   4.0018911772977700E-02   3.9683308488216537E-02   3.9348101378443849E-02   3.9013289552442411E-02   3.8678872811432070E-02
   3.8344851662228549E-02   3.8011227330039289E-02   3.7678001770861003E-02   3.7345177683436939E-02   3.7012758520738362E-02
   3.6680748500927139E-02   3.6349152617761053E-02   3.6017976650400775E-02   3.5687227172575324E-02   3.5356911561067093E-02
   3.5027038003471858E-02   3.4697615505195047E-02   3.4368653895639256E-02   3.4040163833544260E-02   3.3712156811437015E-02
   3.3384645159150683E-02   3.3057642046374729E-02   3.2731161484194325E-02   3.2405218325583379E-02   3.2079828264812482E-02
   3.1755007835737245E-02   3.1430774408933229E-02   3.1107146187643354E-02   3.0784142202509895E-02   3.0461782305059640E-02
   3.0140087159919494E-02   2.9819078235735073E-02   2.9498777794773782E-02   2.9179208881193117E-02   2.8860395307957337E-02
   2.8542361642392908E-02   2.8225133190370091E-02   2.7908735979107958E-02   2.7593196738598037E-02   2.7278542881649395E-02
   2.6964802482560453E-02   2.6652004254424839E-02   2.6340177525086394E-02   2.6029352211758287E-02   2.5719558794329616E-02
   2.5410828287382298E-02   2.5103192210949907E-02   2.4796682560050534E-02   2.4491331773032338E-02   2.4187172698774368E-02
   2.3884238562786868E-02   2.3582562932263913E-02   2.3282179680139882E-02   2.2983122948210900E-02   2.2685427109379822E-02
   2.2389126729092896E-02   2.2094256526035916E-02   2.1800851332161260E-02   2.1508946052123345E-02   2.1218575622197772E-02
   2.0929774968767412E-02   2.0642578966456476E-02   2.0357022395999007E-02   2.0073139901928785E-02   1.9790965950177732E-02
   1.9510534785674494E-02   1.9231880390031635E-02   1.8955036439415096E-02   1.8680036262684555E-02   1.8406912799898197E-02
   1.8135698561271871E-02   1.7866425586682003E-02   1.7599125405803363E-02   1.7333828998966468E-02   1.7070566758823107E-02
   1.6809368452901263E-02   1.6550263187132975E-02   1.6293279370432158E-02   1.6038444680398230E-02   1.5785786030218889E-02
   1.5535329536839072E-02   1.5287100490463387E-02   1.5041123325450583E-02   1.4797421592658759E-02   1.4556017933293025E-02
   1.4316934054302696E-02   1.4080190705373037E-02   1.3845807657547534E-02   1.3613803683516097E-02   1.3384196539595796E-02
   1.3157002949429092E-02   1.2932238589416542E-02   1.2709918075897253E-02   1.2490054954086038E-02   1.2272661688768715E-02
   1.2057749656755660E-02   1.1845329141084521E-02   1.1635409326962097E-02   1.1427998299428926E-02   1.1223103042724685E-02
   1.1020729441330885E-02   1.0820882282660014E-02   1.0623565261359330E-02   1.0428780985190553E-02   1.0236530982446788E-02
   1.0046815710860659E-02   9.8596345679581362E-03   9.6749859028074318E-03   9.4928670291099890E-03   9.3132742395798940E-03
   9.1362028215529953E-03   8.9616470737682967E-03   8.7896003242598168E-03   8.6200549492982653E-03   8.4530023933186357E-03
   8.2884331897699927E-03   8.1263369828237265E-03   7.9667025498742269E-03   7.8095178247685818E-03   7.6547699216987560E-03
   7.5024451596929333E-03   7.3525290876414696E-03   7.2050065097935684E-03   7.0598615116633529E-03   6.9170774862823492E-03
   6.7766371607394646E-03   6.6385226229482780E-03   6.5027153485854054E-03   6.3691962281431968E-03   6.2379455940428825E-03
   6.1089432477563332E-03   5.9821684868852183E-03   5.8576001321503576E-03   5.7352165542437243E-03   5.6149957004997574E-03
   5.4969151213439607E-03   5.3809519964782369E-03   5.2670831607663469E-03   5.1552851297832240E-03   5.0455341249958340E-03
   4.9378060985438271E-03   4.8320767575922331E-03   4.7283215882290407E-03   4.6265158788835340E-03   4.5266347432436202E-03
   4.4286531426514109E-03   4.3325459079599981E-03   4.2382877608344981E-03   4.1458533344839888E-03   4.0552171938122352E-03
   3.9663538549763455E-03   3.8792378043456498E-03   3.7938435168532645E-03   3.7101454737358177E-03   3.6281181796570575E-03
   3.5477361792140391E-03   3.4689740728243244E-03   3.3918065319954683E-03   3.3162083139785920E-03   3.2421542758087813E-03
   3.1696193877371361E-03   3.0985787460591622E-03   3.0290075853463294E-03   2.9608812900873858E-03   2.8941754057480030E-03
   2.8288656492571514E-03   2.7649279189297230E-03   2.7023383038357854E-03   2.6410730926267642E-03   2.5811087818302910E-03
   2.5224220836248265E-03   2.4649899331065880E-03   2.4087894950611259E-03   2.3537981702520614E-03   2.2999936012403476E-03
   2.2473536777468986E-03   2.1958565415723151E-03   2.1454805910867715E-03   2.0962044853041072E-03   2.0480071475533694E-03
   2.0008677687614849E-03   1.9547658103609769E-03   1.9096810068357918E-03   1.8655933679191529E-03   1.8224831804565076E-03
   1.7803310099469398E-03   1.7391177017762197E-03   1.6988243821541296E-03   1.6594324587691301E-03   1.6209236211725897E-03
   1.5832798409051590E-03   1.5464833713770402E-03   1.5105167475143156E-03   1.4753627851826435E-03   1.4410045803996483E-03
   1.4074255083472641E-03   1.3746092221944182E-03   1.3425396517408707E-03   1.3112010018921174E-03   1.2805777509753932E-03
   1.2506546489063984E-03   1.2214167152158496E-03   1.1928492369451121E-03   1.1649377664194127E-03   1.1376681189072210E-03
   1.1110263701737393E-03   1.0849988539365495E-03   1.0595721592307997E-03   1.0347331276912013E-03   1.0104688507579999E-03
   9.8676666681336172E-04   9.6361415825486842E-04   9.4099914851209388E-04   9.1890969901233779E-04   8.9733410610101812E-04
   8.7626089792228353E-04   8.5567883126490512E-04   8.3557688837835437E-04   8.1594427376390259E-04   7.9677041094501448E-04
   7.7804493922145547E-04   7.5975771041101475E-04   7.4189878558274930E-04   7.2445843178537946E-04   7.0742711877416688E-04
   6.9079551573966269E-04   6.7455448804124366E-04   6.5869509394844987E-04   6.4320858139270821E-04   6.2808638473211957E-04
   6.1332012153162048E-04   5.9890158936074650E-04   5.8482276261120436E-04   5.7107578933605235E-04   5.5765298811245184E-04
   5.4454684492957197E-04   5.3175001010328246E-04   5.1925529521907687E-04   5.0705567010450267E-04   4.9514425983241610E-04
   4.8351434175608078E-04   4.7215934257725534E-04   4.6107283544806618E-04   4.5024853710761234E-04   4.3968030505400627E-04
   4.2936213475249998E-04   4.1928815688037162E-04   4.0945263460898638E-04   3.9984996092357641E-04   3.9047465598105743E-04
   3.8132136450623417E-04   3.7238485322667314E-04   3.6366000834638670E-04   3.5514183305855932E-04   3.4682544509734043E-04
   3.3870607432884427E-04   3.3077906038127676E-04   3.2303985031423364E-04   3.1548399632706510E-04   3.0810715350618607E-04
   3.0090507761124986E-04   2.9387362289993248E-04   2.8700873999120373E-04   2.8030647376678472E-04   2.7376296131059800E-04
   2.6737442988588873E-04   2.6113719494972020E-04   2.5504765820454658E-04   2.4910230568647967E-04   2.4329770588994327E-04
   2.3763050792828137E-04   2.3209743972998759E-04   2.2669530627010811E-04   2.2142098783643261E-04   2.1627143833004812E-04
   2.1124368359979362E-04   2.0633481981021618E-04   2.0154201184253208E-04   1.9686249172818818E-04   1.9229355711450943E-04
   1.8783256976200564E-04   1.8347695407285402E-04   1.7922419565007030E-04   1.7507183988692642E-04   1.7101749058609793E-04
   1.6705880860809808E-04   1.6319351054849230E-04   1.5941936744343251E-04   1.5573420350303185E-04   1.5213589487208688E-04
   1.4862236841769693E-04   1.4519160054327938E-04   1.4184161602854314E-04   1.3857048689491658E-04   1.3537633129599220E-04
   1.3225731243251724E-04   1.2921163749146116E-04   1.2623755660873316E-04   1.2333336185506666E-04   1.2049738624465584E-04
   1.1772800276607724E-04   1.1502362343508550E-04   1.1238269836883304E-04   1.0980371488109398E-04   1.0728519659807942E-04
   1.0482570259441205E-04   1.0242382654887458E-04   1.0007819591950039E-04   9.7787471137631069E-05   9.5550344820537431E-05
   9.3365541002212821E-05   9.1231814381975370E-05   8.9147949590478494E-05   8.7112760472787812E-05   8.5125089388138949E-05
   8.3183806526027963E-05   8.1287809238290889E-05   7.9436021386807191E-05   7.7627392706509829E-05   7.5860898183350729E-05
   7.4135537446904114E-05   7.2450334177278852E-05   7.0804335526034956E-05   6.9196611550776036E-05   6.7626254663133808E-05
   6.6092379089828718E-05   6.4594120346520576E-05   6.3130634724167743E-05   6.1701098787597308E-05   6.0304708886028000E-05
   5.8940680675257412E-05   5.7608248651263697E-05   5.6306665694948315E-05   5.5035202627770802E-05   5.3793147778029205E-05
   5.2579806557529667E-05   5.1394501048420245E-05   5.0236569599940983E-05   4.9105366434866477E-05   4.8000261265418914E-05
   4.6920638918420725E-05   4.5865898969484426E-05   4.4835455386016649E-05   4.3828736178837333E-05   4.2845183062207822E-05
   4.1884251122072959E-05   4.0945408492323011E-05   4.0028136038883206E-05   3.9131927051450222E-05   3.8256286942690326E-05
   3.7400732954728359E-05   3.6564793872745473E-05   3.5748009745525022E-05   3.4949931612777258E-05   3.4170121239079743E-05
   3.3408150854278995E-05   3.2663602900195007E-05   3.1936069783483334E-05   3.1225153634498956E-05   3.0530466072027042E-05
   2.9851627973732116E-05   2.9188269252191163E-05   2.8540028636378961E-05   2.7906553458467377E-05   2.7287499445818278E-05
   2.6682530518038520E-05   2.6091318588977002E-05   2.5513543373546388E-05   2.4948892199247549E-05   2.4397059822288711E-05
   2.3857748248182969E-05   2.3330666556718605E-05   2.2815530731193989E-05   2.2312063491815588E-05   2.1819994133156694E-05
   2.1339058365576268E-05   2.0868998160506043E-05   2.0409561599506896E-05   1.9960502727005626E-05   1.9521581406620827E-05
   1.9092563180992472E-05   1.8673219135025842E-05   1.8263325762471351E-05   1.7862664835754452E-05   1.7471023278978069E-05
   1.7088193044021570E-05   1.6713970989656420E-05   1.6348158763609701E-05   1.5990562687499243E-05   1.5640993644571794E-05
   1.5299266970176970E-05   1.4965202344906418E-05   1.4638623690337133E-05   1.4319359067311525E-05   1.4007240576694366E-05
   1.3702104262544506E-05   1.3403790017643401E-05   1.3112141491322054E-05   1.2827005999529327E-05   1.2548234437088004E-05
   1.2275681192083496E-05   1.2009204062334982E-05   1.1748664173894886E-05   1.1493925901529855E-05   1.1244856791133033E-05
   1.1001327484020315E-05   1.0763211643064943E-05   1.0530385880624501E-05   1.0302729688217903E-05   1.0080125367906964E-05
   9.8624579653434497E-06   9.6496152044386483E-06   9.4414874236163731E-06   9.2379675136114296E-06   9.0389508567737153E-06
   8.8443352678431615E-06   8.6540209361577711E-06   8.4679103692601523E-06   8.2859083378690996E-06   8.1079218221809615E-06
   7.9338599594702249E-06   7.7636339929557074E-06   7.5971572219025784E-06   7.4343449529290373E-06   7.2751144524889044E-06
   7.1193849005010317E-06   6.9670773450966982E-06   6.8181146584591931E-06   6.6724214937272402E-06   6.5299242429372712E-06
   6.3905509959784430E-06   6.2542315005365637E-06   6.1208971230012671E-06   5.9904808103145772E-06   5.8629170527364365E-06
   5.7381418475053441E-06   5.6160926633727721E-06   5.4967084059886705E-06   5.3799293841188478E-06   5.2656972766726205E-06
   5.1539551005214821E-06   5.0446471790899406E-06   4.9377191116985156E-06   4.8331177436419333E-06   4.7307911369834143E-06
   4.6306885420483577E-06   4.5327603695998956E-06   4.4369581636801573E-06   4.3432345751007909E-06   4.2515433355666109E-06
   4.1618392324177682E-06   4.0740780839745824E-06   3.9882167154708859E-06   3.9042129355612566E-06   3.8220255133885295E-06
   3.7416141561977627E-06   3.6629394874832525E-06   3.5859630256560076E-06   3.5106471632186598E-06   3.4369551464360238E-06
   3.3648510554885658E-06   3.2942997850978792E-06   3.2252670256120490E-06   3.1577192445400854E-06   3.0916236685247277E-06
   3.0269482657424619E-06   2.9636617287211030E-06   2.9017334575642360E-06   2.8411335435729827E-06   2.7818327532556488E-06
