DATE: 2024-04-03 UNITS: metal CONTRIBUTOR: Xiaowang Zhou xzhou@sandia.gov, Lucas Hale lucas.hale@nist.gov, and Germain Clavier g.m.g.c.clavier@tue.nl/germain.clavier@gmail.com
 CITATION: X. W. Zhou, R. A. Johnson, H. N. G. Wadley, Phys. Rev. B, 69, 144113(2004)
Generated by create_eam.py
2     Ag Ni                   
2000  5.0025012506253123e-02   2000  3.2347637230042913e-03   6.4662926822855784e+00  
   47       107.86820         4.08964      fcc
   0.0000000000000000E+00  -1.5127508402700163E-02  -3.0170907764454635E-02  -4.5130418544784834E-02  -6.0006261203211064E-02
  -7.4798656199254965E-02  -8.9507823992436730E-02  -1.0413398504227711E-01  -1.1867735980829774E-01  -1.3313816875001871E-01
  -1.4751663232696105E-01  -1.6181297099864611E-01  -1.7602740522459404E-01  -1.9016015546432619E-01  -2.0421144217736359E-01
  -2.1818148582322622E-01  -2.3207050686143610E-01  -2.4587872575151326E-01  -2.5960636295297862E-01  -2.7325363892535365E-01
  -2.8682077412815837E-01  -3.0030798902091438E-01  -3.1371550406314230E-01  -3.2704353971436262E-01  -3.4029231643409691E-01
  -3.5346205468186515E-01  -3.6655297491718913E-01  -3.7956529759958929E-01  -3.9249924318858614E-01  -4.0535503214370106E-01
  -4.1813288492445455E-01  -4.3083302199036799E-01  -4.4345566380096191E-01  -4.5600103081575677E-01  -4.6846934349427422E-01
  -4.8086082229603433E-01  -4.9317568768055897E-01  -5.0541416010736817E-01  -5.1757646003598312E-01  -5.2966280792592413E-01
  -5.4167342423671272E-01  -5.5360852942786964E-01  -5.6546834395891588E-01  -5.7725308828937172E-01  -5.8896298287875870E-01
  -6.0059824818659702E-01  -6.1215910467240831E-01  -6.2364577279571309E-01  -6.3505847301603202E-01  -6.4639742579288573E-01
  -6.5766285158579585E-01  -6.6885497085428258E-01  -6.7997400405786734E-01  -6.9102017165607066E-01  -7.0199369410841306E-01
  -7.1289479187441629E-01  -7.2372368541360033E-01  -7.3448059518548670E-01  -7.4516574164959604E-01  -7.5577934526544877E-01
  -7.6632162649256630E-01  -7.7679280579046961E-01  -7.8719310361867911E-01  -7.9752274043671589E-01  -8.0778193670410059E-01
  -8.1797091288035451E-01  -8.2808988942499795E-01  -8.3813908679755222E-01  -8.4811872545753808E-01  -8.5802902586447638E-01
  -8.6787020847788776E-01  -8.7764249375729353E-01  -8.8734610216221399E-01  -8.9698125415217045E-01  -9.0654817018668399E-01
  -9.1604707072527480E-01  -9.2547817622746398E-01  -9.3484170715277259E-01  -9.4413788396072129E-01  -9.5336692711083126E-01
  -9.6252905706262259E-01  -9.7162449427561715E-01  -9.8065345920933522E-01  -9.8961617232329802E-01  -9.9851285407702584E-01
  -1.0073437249300401E+00  -1.0161090053418611E+00  -1.0248089157720102E+00  -1.0334436766800084E+00  -1.0420135085253761E+00
  -1.0505186317676340E+00  -1.0589592668663039E+00  -1.0673356342809055E+00  -1.0756479544709603E+00  -1.0838964478959896E+00
  -1.0920813350155134E+00  -1.1002028362890528E+00  -1.1082611721761289E+00  -1.1162565631362622E+00  -1.1241892296289739E+00
  -1.1320593921137849E+00  -1.1398672710502160E+00  -1.1476130868977876E+00  -1.1552970601160215E+00  -1.1629194111644376E+00
  -1.1704803605025573E+00  -1.1779801285899014E+00  -1.1854189358859908E+00  -1.1927970028503458E+00  -1.2001145499424881E+00
  -1.2073717976219385E+00  -1.2145689663482171E+00  -1.2217062765808451E+00  -1.2287839487793439E+00  -1.2358022034032334E+00
  -1.2427612609120355E+00  -1.2496613417652704E+00  -1.2565026664224592E+00  -1.2632854553431223E+00  -1.2700099289867814E+00
  -1.2766763078129568E+00  -1.2832848122811695E+00  -1.2898356628509402E+00  -1.2963290799817901E+00  -1.3027652841332398E+00
  -1.3091444957648102E+00  -1.3154669353360222E+00  -1.3217328233063967E+00  -1.3279423801354544E+00  -1.3340958262827163E+00
  -1.3401933822077035E+00  -1.3462352683699363E+00  -1.3522217052289360E+00  -1.3581529132442234E+00  -1.3640291128753195E+00
  -1.3698505245817445E+00  -1.3756173688230200E+00  -1.3813298660586666E+00  -1.3869882367482049E+00  -1.3925927013511561E+00
  -1.3981434803270412E+00  -1.4036407941353810E+00  -1.4090848632356958E+00  -1.4144759080875069E+00  -1.4198141491503353E+00
  -1.4250998068837015E+00  -1.4303331017471268E+00  -1.4355142542001316E+00  -1.4406434847022371E+00  -1.4457210137129641E+00
  -1.4507470616918330E+00  -1.4557218490983654E+00  -1.4606455963920819E+00  -1.4655185240325033E+00  -1.4703408524791504E+00
  -1.4751128021915438E+00  -1.4798345936292052E+00  -1.4845064472516547E+00  -1.4891285835184134E+00  -1.4937012228890023E+00
  -1.4982245858229419E+00  -1.5026988927797535E+00  -1.5071243642189578E+00  -1.5115012206000755E+00  -1.5158296823826276E+00
  -1.5201099700261349E+00  -1.5243423039901185E+00  -1.5285269047340990E+00  -1.5326639927175971E+00  -1.5367537884001343E+00
  -1.5407965122412308E+00  -1.5447923847004077E+00  -1.5487416262371858E+00  -1.5526444573110865E+00  -1.5565010983816299E+00
  -1.5603117699083373E+00  -1.5640766923507294E+00  -1.5677960861683269E+00  -1.5714701718206512E+00  -1.5750991697672228E+00
  -1.5786833004675622E+00  -1.5822227843811911E+00  -1.5857178419676297E+00  -1.5891686936863993E+00  -1.5925755599970202E+00
  -1.5959386613590139E+00  -1.5992582182319008E+00  -1.6025344510752020E+00  -1.6057675803484381E+00  -1.6089578265111304E+00
  -1.6121054100227996E+00  -1.6152105513429664E+00  -1.6182734709311517E+00  -1.6212943892468765E+00  -1.6242735267496617E+00
  -1.6272111038990276E+00  -1.6301073411544957E+00  -1.6329624589755867E+00  -1.6357766778218217E+00  -1.6385502181527209E+00
  -1.6412833004278058E+00  -1.6439761451065968E+00  -1.6466289726486152E+00  -1.6492420035133815E+00  -1.6518154581604165E+00
  -1.6543495570492415E+00  -1.6568445206393771E+00  -1.6593005693903444E+00  -1.6617179237616639E+00  -1.6640968042128563E+00
  -1.6664374312034436E+00  -1.6687400251929450E+00  -1.6710048066408825E+00  -1.6732319960067767E+00  -1.6754218137501489E+00
  -1.6775744803305186E+00  -1.6796902162074083E+00  -1.6817692418403378E+00  -1.6838117776888282E+00  -1.6858180442124004E+00
  -1.6877882618705755E+00  -1.6897226511228740E+00  -1.6916214324288175E+00  -1.6934848262479254E+00  -1.6953130530397202E+00
  -1.6971063332637217E+00  -1.6988648873794512E+00  -1.7005889358464292E+00  -1.7022786991241770E+00  -1.7039343976722154E+00
  -1.7055562519500653E+00  -1.7071444824172470E+00  -1.7086993095332821E+00  -1.7102209537576907E+00  -1.7117096355499943E+00
  -1.7131655753697135E+00  -1.7145889936763694E+00  -1.7159801109294825E+00  -1.7173391475885740E+00  -1.7186663241131646E+00
  -1.7199618609627751E+00  -1.7212259785969264E+00  -1.7224588974751394E+00  -1.7236608380569352E+00  -1.7248320208018342E+00
  -1.7259726661693573E+00  -1.7270829946190258E+00  -1.7281632266103601E+00  -1.7292135826028816E+00  -1.7302342213478223E+00
  -1.7312255397642520E+00  -1.7321877492881161E+00  -1.7331211273994340E+00  -1.7340259515782246E+00  -1.7349024993045068E+00
  -1.7357510480582996E+00  -1.7365718753196222E+00  -1.7373652585684938E+00  -1.7381314752849331E+00  -1.7388708029489590E+00
  -1.7395835190405913E+00  -1.7402699010398479E+00  -1.7409302264267490E+00  -1.7415647726813128E+00  -1.7421738172835586E+00
  -1.7427576377135054E+00  -1.7433165114511724E+00  -1.7438507159765784E+00  -1.7443605287697426E+00  -1.7448462273106837E+00
  -1.7453080890794213E+00  -1.7457463915559741E+00  -1.7461614122203610E+00  -1.7465534285526012E+00  -1.7469227180327140E+00
  -1.7472695581407178E+00  -1.7475942263566320E+00  -1.7478970001604757E+00  -1.7481781570322679E+00  -1.7484379744520273E+00
  -1.7486767298997736E+00  -1.7488947008555251E+00  -1.7490921647993012E+00  -1.7492693992111208E+00  -1.7494266815710033E+00
  -1.7495642893589674E+00  -1.7496825000550320E+00  -1.7497815911392163E+00  -1.7498618400915396E+00  -1.7499235243920204E+00
  -1.7499669215206781E+00  -1.7499923089575318E+00  -1.7499999641826001E+00  -1.7499901646759026E+00  -1.7499631879174580E+00
  -1.7499193113872851E+00  -1.7498588125654033E+00  -1.7497819689318315E+00  -1.7496890579665887E+00  -1.7495803571496942E+00
  -1.7494561439611667E+00  -1.7493166958810253E+00  -1.7491622903892892E+00  -1.7489932049659773E+00  -1.7488097170911083E+00
  -1.7486121042447018E+00  -1.7484006439067767E+00  -1.7481756135573518E+00  -1.7479372906764463E+00  -1.7476859527440791E+00
  -1.7474218772402694E+00  -1.7471453416450364E+00  -1.7468566234383986E+00  -1.7465560001003755E+00  -1.7462437491109859E+00
  -1.7459201479502486E+00  -1.7455854740981831E+00  -1.7452400050348083E+00  -1.7448840182401433E+00  -1.7445177911942067E+00
  -1.7441416013770179E+00  -1.7437557262685961E+00  -1.7433604433489598E+00  -1.7429560300981284E+00  -1.7425427639961208E+00
  -1.7421209225229561E+00  -1.7416907831586534E+00  -1.7412526233832317E+00  -1.7408067206767102E+00  -1.7403533525191073E+00
  -1.7398927963904425E+00  -1.7394253297707347E+00  -1.7389512301400034E+00  -1.7384707749782669E+00  -1.7379842417655444E+00
  -1.7374919079818556E+00  -1.7369935800066152E+00  -1.7364865346851581E+00  -1.7359692299481981E+00  -1.7354417094502077E+00
  -1.7349040165361882E+00  -1.7343561942447570E+00  -1.7337982853111886E+00  -1.7332303321704208E+00  -1.7326523769600228E+00
  -1.7320644615231215E+00  -1.7314666274112958E+00  -1.7308589158874317E+00  -1.7302413679285384E+00  -1.7296140242285374E+00
  -1.7289769252010068E+00  -1.7283301109818969E+00  -1.7276736214322117E+00  -1.7270074961406556E+00  -1.7263317744262479E+00
  -1.7256464953409036E+00  -1.7249516976719863E+00  -1.7242474199448232E+00  -1.7235337004251963E+00  -1.7228105771217981E+00
  -1.7220780877886601E+00  -1.7213362699275496E+00  -1.7205851607903395E+00  -1.7198247973813474E+00  -1.7190552164596486E+00
  -1.7182764545413600E+00  -1.7174885479018958E+00  -1.7166915325781991E+00  -1.7158854443709428E+00  -1.7150703188467074E+00
  -1.7142461913401330E+00  -1.7134130969560433E+00  -1.7125710705715458E+00  -1.7117201468381098E+00  -1.7108603601836154E+00
  -1.7099917448143809E+00  -1.7091143347171680E+00  -1.7082281636611607E+00  -1.7073332651999231E+00  -1.7064296726733337E+00
  -1.7055174192094968E+00  -1.7045965377266341E+00  -1.7036670609349533E+00  -1.7027290213384929E+00  -1.7017824512369495E+00
  -1.7008273827274822E+00  -1.6998638477064993E+00  -1.6988918778714179E+00  -1.6979115047224129E+00  -1.6969227595641379E+00
  -1.6959256735074328E+00  -1.6949202774710084E+00  -1.6939066021831137E+00  -1.6928846781831832E+00  -1.6918545358234700E+00
  -1.6908162052706543E+00  -1.6897697165074381E+00  -1.6887150993341240E+00  -1.6876523833701711E+00  -1.6865815980557373E+00
  -1.6855027726532053E+00  -1.6844159362486906E+00  -1.6833211177535325E+00  -1.6822183459057694E+00  -1.6811076492715982E+00
  -1.6799890562468180E+00  -1.6788625950582585E+00  -1.6777282937651912E+00  -1.6765861802607265E+00  -1.6754362822731983E+00
  -1.6742786273675290E+00  -1.6731132429465823E+00  -1.6719401562525029E+00  -1.6707593943680408E+00  -1.6695709842178590E+00
  -1.6683749525698315E+00  -1.6671713260363261E+00  -1.6659601310754726E+00  -1.6647413939924178E+00  -1.6635151409405693E+00
  -1.6622813979228239E+00  -1.6610401907927852E+00  -1.6597915452559653E+00  -1.6585354868709807E+00  -1.6572720410507253E+00
  -1.6560012330635434E+00  -1.6547230880343804E+00  -1.6534376309459256E+00  -1.6521448866397468E+00  -1.6508448798174080E+00
  -1.6495376350415760E+00  -1.6482231767371194E+00  -1.6469015291921942E+00  -1.6455727165593175E+00  -1.6442367628564323E+00
  -1.6428936919679584E+00  -1.6415435276458394E+00  -1.6401862935105678E+00  -1.6388220130522140E+00  -1.6374507096314326E+00
  -1.6360724064804657E+00  -1.6346871267041323E+00  -1.6332948932808140E+00  -1.6318957290634202E+00  -1.6304896567803562E+00
  -1.6290766990364727E+00  -1.6276568783140093E+00  -1.6262302169735281E+00  -1.6247967372548398E+00  -1.6233564612779185E+00
  -1.6219094110438081E+00  -1.6204556084355202E+00  -1.6189950752189235E+00  -1.6175278330436247E+00  -1.6160539034438404E+00
  -1.6145733078392590E+00  -1.6130860675358993E+00  -1.6115922037269537E+00  -1.6100917374936294E+00  -1.6085846898059792E+00
  -1.6070710815237228E+00  -1.6055509333970646E+00  -1.6040242660674975E+00  -1.6024911000686051E+00  -1.6009514558268534E+00
  -1.5994053536623738E+00  -1.5978528137897419E+00  -1.5962938563187470E+00  -1.5947285012551551E+00  -1.5931567685014612E+00
  -1.5915786778576426E+00  -1.5899942490218972E+00  -1.5884035015913782E+00  -1.5868064550629224E+00  -1.5852031288337702E+00
  -1.5835935422022822E+00  -1.5819777143686435E+00  -1.5803556644355672E+00  -1.5787274114089875E+00  -1.5770929741987489E+00
  -1.5754523716192892E+00  -1.5738056223903123E+00  -1.5721527451374611E+00  -1.5704937583929772E+00  -1.5688286805963623E+00
  -1.5671575300950276E+00  -1.5654803251449392E+00  -1.5637970839112576E+00  -1.5621078244689732E+00  -1.5604125648035334E+00
  -1.5587113228114660E+00  -1.5570041163009951E+00  -1.5552909629926537E+00  -1.5535718805198893E+00  -1.5518468864296646E+00
  -1.5501159981830535E+00  -1.5483792331558293E+00  -1.5466366086390524E+00  -1.5448881418396476E+00  -1.5431338498809799E+00
  -1.5413737498034226E+00  -1.5396078585649247E+00  -1.5378361930415667E+00  -1.5360587700281176E+00  -1.5342756062385858E+00
  -1.5324867183067603E+00  -1.5306921227867551E+00  -1.5288918361535420E+00  -1.5270858748034837E+00  -1.5252742550548584E+00
  -1.5234569931483817E+00  -1.5216341052477258E+00  -1.5198056074400301E+00  -1.5179715157364120E+00  -1.5161318460724695E+00
  -1.5142866143087801E+00  -1.5124358362313992E+00  -1.5105795275523490E+00  -1.5087177039101083E+00  -1.5068503808700913E+00
  -1.5049775739251310E+00  -1.5030992984959517E+00  -1.5012155699316410E+00  -1.4993264035101153E+00  -1.4974318144385848E+00
  -1.4955318178540111E+00  -1.4936264288235637E+00  -1.4917156623450698E+00  -1.4897995333474643E+00  -1.4878780566912322E+00
  -1.4859512471688490E+00  -1.4840191195052197E+00  -1.4820816883581072E+00  -1.4801389683185666E+00  -1.4781909739113681E+00
  -1.4762377195954222E+00  -1.4742792197641943E+00  -1.4723154887461261E+00  -1.4703465408050418E+00  -1.4683723901405621E+00
  -1.4663930508885055E+00  -1.4644085371212934E+00  -1.4624188628483472E+00  -1.4604240420164849E+00  -1.4584240885103130E+00
  -1.4564190161526176E+00  -1.4544088387047465E+00  -1.4523935698669961E+00  -1.4503732232789908E+00  -1.4483478125200582E+00
  -1.4463173511096035E+00  -1.4442818525074825E+00  -1.4422413301143664E+00  -1.4401957972721098E+00  -1.4381452672641095E+00
  -1.4360897533156682E+00  -1.4340292685943465E+00  -1.4319638262103198E+00  -1.4298934392167257E+00  -1.4278181206100169E+00
  -1.4257378833303012E+00  -1.4236527402616879E+00  -1.4215627042326262E+00  -1.4194677880162427E+00  -1.4173680043306762E+00
  -1.4152633658394087E+00  -1.4131538851515968E+00  -1.4110395748223965E+00  -1.4089204473532895E+00  -1.4067965151924029E+00
  -1.4046677907348308E+00  -1.4025342863229495E+00  -1.4003960142467329E+00  -1.3982529867440634E+00  -1.3961052160010434E+00
  -1.3939527141523003E+00  -1.3917954932812937E+00  -1.3896335654206169E+00  -1.3874669425522965E+00  -1.3852956366080911E+00
  -1.3831196594697881E+00  -1.3809390229694951E+00  -1.3787537388899322E+00  -1.3765638189647225E+00  -1.3743692748786758E+00
  -1.3721701182680766E+00  -1.3699663607209649E+00  -1.3677580137774161E+00  -1.3655450889298226E+00  -1.3633275976231656E+00
  -1.3611055512552923E+00  -1.3588789611771879E+00  -1.3566478386932455E+00  -1.3544121950615320E+00  -1.3521720414940592E+00
  -1.3499273891570436E+00  -1.3476782491711701E+00  -1.3454246326118522E+00  -1.3431665505094916E+00  -1.3409040138497332E+00
  -1.3386370335737199E+00  -1.3363656205783470E+00  -1.3340897857165097E+00  -1.3318095397973559E+00  -1.3295248935865311E+00
  -1.3272358578064258E+00  -1.3249424431364158E+00  -1.3226446602131086E+00  -1.3203425196305791E+00  -1.3180360319406126E+00
  -1.3157252076529367E+00  -1.3134100572354599E+00  -1.3110905911145037E+00  -1.3087668196750335E+00  -1.3064387532608899E+00
  -1.3041064021750159E+00  -1.3017697766796839E+00  -1.2994288869967221E+00  -1.2970837433077347E+00  -1.2947343557543276E+00
  -1.2923807344383265E+00  -1.2900228894219949E+00  -1.2876608307282540E+00  -1.2852945683408961E+00  -1.2829241122047994E+00
  -1.2805494722261408E+00  -1.2781706582726062E+00  -1.2757876801736017E+00  -1.2734005477204597E+00  -1.2710092706666483E+00
  -1.2686138587279736E+00  -1.2662143215827855E+00  -1.2638106688721797E+00  -1.2614029102001976E+00  -1.2589910551340286E+00
  -1.2565751132042051E+00  -1.2541550939048007E+00  -1.2517310066936269E+00  -1.2493028609924255E+00  -1.2468706661870623E+00
  -1.2444344316277169E+00  -1.2419941666290770E+00  -1.2395498804705214E+00  -1.2371015823963130E+00  -1.2346492816157812E+00
  -1.2321929873035091E+00  -1.2297327085995171E+00  -1.2272684546094437E+00  -1.2248002344047277E+00  -1.2223280570227901E+00
  -1.2198519314672089E+00  -1.2173718667079017E+00  -1.2148878716812963E+00  -1.2123999552905111E+00  -1.2099081264055267E+00
  -1.2074123938633572E+00  -1.2049127664682258E+00  -1.2024092529917321E+00  -1.1999018621730233E+00  -1.1973906027189609E+00
  -1.1948754833042896E+00  -1.1923565125718014E+00  -1.1898336991325020E+00  -1.1873070515657740E+00  -1.1847765784195401E+00
  -1.1822422882104242E+00  -1.1797041894239120E+00  -1.1771622905145098E+00  -1.1746165999059068E+00  -1.1720671259911259E+00
  -1.1695138771326861E+00  -1.1669568616627546E+00  -1.1643960878833026E+00  -1.1618315640662584E+00  -1.1592632984536579E+00
  -1.1566912992577998E+00  -1.1541155746613907E+00  -1.1515361328177005E+00  -1.1489529818507052E+00  -1.1463661298552379E+00
  -1.1437755848971347E+00  -1.1411813550133789E+00  -1.1385834482122461E+00  -1.1359818724734490E+00  -1.1333766357482793E+00
  -1.1307677459597483E+00  -1.1281552110027315E+00  -1.1255390387441029E+00  -1.1229192370228800E+00  -1.1202958136503580E+00
  -1.1176687764102486E+00  -1.1150381330588164E+00  -1.1124038913250154E+00  -1.1097660589106200E+00  -1.1071246434903654E+00
  -1.1044796527120737E+00  -1.1018310941967897E+00  -1.0991789755389132E+00  -1.0965233043063263E+00  -1.0938640880405259E+00
  -1.0912013342567508E+00  -1.0885350504441114E+00  -1.0858652440657151E+00  -1.0831919225587934E+00  -1.0805150933348282E+00
  -1.0778347637796764E+00  -1.0751509412536935E+00  -1.0724636330918589E+00  -1.0697728466038936E+00  -1.0670785890743881E+00
  -1.0643808677629205E+00  -1.0616796899041745E+00  -1.0589750627080639E+00  -1.0562669933598468E+00  -1.0535554890202481E+00
  -1.0508405568255710E+00  -1.0481222038878208E+00  -1.0454004372948151E+00  -1.0426752641103003E+00  -1.0399466913740683E+00
  -1.0372147261020666E+00  -1.0344793752865171E+00  -1.0317406458960203E+00  -1.0289985448756758E+00  -1.0262530791471862E+00
  -1.0235042556089724E+00  -1.0207520811362791E+00  -1.0179965625812888E+00  -1.0152377067732241E+00  -1.0124755205184621E+00
  -1.0097100106006351E+00  -1.0069411837807418E+00  -1.0041690467972502E+00  -1.0013936063662046E+00  -9.9861486918132791E-01
  -9.9583284191412635E-01  -9.9304753121399725E-01  -9.9025894370832268E-01  -9.8746708600257960E-01  -9.8467196468043572E-01
  -9.8187358630385491E-01  -9.7907195741319342E-01  -9.7626708452730249E-01  -9.7345897414362526E-01  -9.7064763273829657E-01
  -9.6783306676623959E-01  -9.6501528266126435E-01  -9.6219428683616315E-01  -9.5937008568280957E-01  -9.5654268557224920E-01
  -9.5371209285479774E-01  -9.5087831386013644E-01  -9.4804135489740315E-01  -9.4520122225528880E-01  -9.4235792220212600E-01
  -9.3951146098598526E-01  -9.3666184483476522E-01  -9.3380907995628348E-01  -9.3095317253836718E-01  -9.2809412874894448E-01
  -9.2523195473613173E-01  -9.2236665662832518E-01  -9.1949824053428786E-01  -9.1662671254323769E-01  -9.1375207872493724E-01
  -9.1087434512977550E-01  -9.0799351778886184E-01  -9.0510960271410512E-01  -9.0222260589830361E-01  -8.9933253331522811E-01
  -8.9643939091970815E-01  -8.9354318464771221E-01  -8.9064392041643758E-01  -8.8774160412438718E-01  -8.8483624165145669E-01
  -8.8192783885901394E-01  -8.7901640158998229E-01  -8.7610193566892092E-01  -8.7318444690210661E-01  -8.7026394107761318E-01
  -8.6734042396539102E-01  -8.6441390131734774E-01  -8.6148437886742657E-01  -8.5855186233168479E-01  -8.5561635740837194E-01
  -8.5267786977800675E-01  -8.4973640510345638E-01  -8.4679196903001042E-01  -8.4384456718545975E-01  -8.4089420518017044E-01
  -8.3794088860716076E-01  -8.3498462304217591E-01  -8.3202541404376196E-01  -8.2906326715334100E-01  -8.2609818789528422E-01
  -8.2313018177698527E-01  -8.2015925428893566E-01  -8.1718541090479258E-01  -8.1420865708145584E-01  -8.1122899825913741E-01
  -8.0824643986143263E-01  -8.0526098729539264E-01  -8.0227264595159398E-01  -7.9928142120420853E-01  -7.9628731841107436E-01
  -7.9329034291376366E-01  -7.9029050003765455E-01  -7.8728779509199742E-01  -7.8428223336998348E-01  -7.8127382014881375E-01
  -7.7826256068976585E-01  -7.7524846023826244E-01  -7.7223152402393558E-01  -7.6921175726069557E-01  -7.6618916514679747E-01
  -7.6316375286490323E-01  -7.6013552558215269E-01  -7.5710448845022227E-01  -7.5407064660539680E-01  -7.5103400516862595E-01
  -7.4799456924559637E-01  -7.4495234392678911E-01  -7.4190733428754629E-01  -7.3885954538813137E-01  -7.3580898227379632E-01
  -7.3275564997483889E-01  -7.2969955350666804E-01  -7.2664069786986341E-01  -7.2357908805023974E-01  -7.2051472901890279E-01
  -7.1744762573231657E-01  -7.1437778313235711E-01  -7.1130520614637704E-01  -7.0822989968726491E-01  -7.0515186865350088E-01
  -7.0207111792922228E-01  -6.9898765238427374E-01  -6.9590147687427539E-01  -6.9281259624067315E-01  -6.8972101531080010E-01
  -6.8662673889793424E-01  -6.8352977180135577E-01  -6.8043011880640103E-01  -6.7732778468452337E-01  -6.7422277419334697E-01
  -6.7111509207672304E-01  -6.6800474306478685E-01  -6.6489173187401163E-01  -6.6177606320726556E-01  -6.5865774175386638E-01
  -6.5553677218963224E-01  -6.5241315917694154E-01  -6.4928690736478456E-01  -6.4615802138881628E-01  -6.4302650587141230E-01
  -6.3989236542171879E-01  -6.3675560463570702E-01  -6.3361622809622853E-01  -6.3047424037306310E-01  -6.2732964602297592E-01
  -6.2418244958976099E-01  -6.2103265560430498E-01  -6.1788026858462708E-01  -6.1472529303593704E-01  -6.1156773345068371E-01
  -6.0840759430860514E-01  -6.0524488007677890E-01  -6.0207959520967491E-01  -5.9891174414920068E-01  -5.9574133132475271E-01
  -5.9256836115327005E-01  -5.8939283803927389E-01  -5.8621476637492698E-01  -5.8303415054007401E-01  -5.7985099490229441E-01
  -5.7666530381694925E-01  -5.7347708162722622E-01  -5.7028633266419237E-01  -5.6709306124683845E-01  -5.6389727168212622E-01
  -5.6069896826503474E-01  -5.5749815527860858E-01  -5.5429483699400228E-01  -5.5108901767052854E-01  -5.4788070155570223E-01
  -5.4466989288528833E-01  -5.4145659588334416E-01  -5.3824081476226926E-01  -5.3502255372284402E-01  -5.3180181695428075E-01
  -5.2857860863426542E-01  -5.2535293292900120E-01  -5.2212479399325207E-01  -5.1889419597039355E-01  -5.1566114299244548E-01
  -5.1242563918012174E-01  -5.0918768864287778E-01  -5.0594729547894213E-01  -5.0270446377537148E-01  -4.9945919760808222E-01
  -4.9621150104190381E-01  -4.9296137813061081E-01  -4.8970883291697281E-01  -4.8645386943279040E-01  -4.8319649169894191E-01
  -4.7993670372541997E-01  -4.7667450951137730E-01  -4.7340991304516211E-01  -4.7014291830436372E-01  -4.6687352925585318E-01
  -4.6360174985581959E-01  -4.6032758404981361E-01  -4.5705103577278644E-01  -4.5377210894913023E-01  -4.5049080749271730E-01
  -4.4720713530693906E-01  -4.4392109628474441E-01  -4.4063269430868279E-01  -4.3734193325093801E-01  -4.3404881697337061E-01
  -4.3075334932755377E-01  -4.2745553415481419E-01  -4.2415537528626757E-01  -4.2085287654285758E-01  -4.1754804173539595E-01
  -4.1424087466459475E-01  -4.1093137912110894E-01  -4.0761955888557116E-01  -4.0430541772863043E-01  -4.0098895941098411E-01
  -3.9767018768342360E-01  -3.9434910628685982E-01  -3.9102571895237004E-01  -3.8770002940122594E-01  -3.8437204134493469E-01
  -3.8104175848527250E-01  -3.7770918451431917E-01  -3.7437432311449848E-01  -3.7103717795860813E-01  -3.6769775270985622E-01
  -3.6435605102189844E-01  -3.6101207653887163E-01  -3.5766583289542614E-01  -3.5431732371676566E-01  -3.5096655261867582E-01
  -3.4761352320756150E-01  -3.4425823908047981E-01  -3.4090070382517756E-01  -3.3754092102011640E-01  -3.3417889423451602E-01
  -3.3081462702838249E-01  -3.2744812295253933E-01  -3.2407938554866755E-01  -3.2070841834933211E-01  -3.1733522487801979E-01
  -3.1395980864916462E-01  -3.1058217316818915E-01  -3.0720232193152947E-01  -3.0382025842667432E-01  -3.0043598613218842E-01
  -2.9704950851775286E-01  -2.9366082904419216E-01  -2.9026995116350479E-01  -2.8687687831889941E-01  -2.8348161394482296E-01
  -2.8008416146699033E-01  -2.7668452430241874E-01  -2.7328270585945802E-01  -2.6987870953781906E-01  -2.6647253872860605E-01
  -2.6306419681434673E-01  -2.5965368716902321E-01  -2.5624101315810000E-01  -2.5282617813855801E-01  -2.4940918545892060E-01
  -2.4599003845928516E-01  -2.4256874047135166E-01  -2.3914529481845465E-01  -2.3571970481558921E-01  -2.3229197376944125E-01
  -2.2886210497842127E-01  -2.2543010173268252E-01  -2.2199596731416352E-01  -2.1855970499660482E-01  -2.1512131804558479E-01
  -2.1168080971854547E-01  -2.0823818326482033E-01  -2.0479344192566443E-01  -2.0134658893428145E-01  -1.9789762751585147E-01
  -1.9444656088755741E-01  -1.9099339225861858E-01  -1.8753812483030752E-01  -1.8408076179598926E-01  -1.8062130634114137E-01
  -1.7715976164338268E-01  -1.7369613087249980E-01  -1.7023041719047738E-01  -1.6676262375152101E-01  -1.6329275370208682E-01
  -1.5982081018090336E-01  -1.5634679631900733E-01  -1.5287071523975701E-01  -1.4939257005887135E-01  -1.4591236388444734E-01
  -1.4243009981699220E-01  -1.3894578094944152E-01  -1.3545941036719336E-01  -1.3197099114812913E-01  -1.2848052636264076E-01
  -1.2498801907365475E-01  -1.2149347233665879E-01  -1.1799688919972835E-01  -1.1449827270354709E-01  -1.1099762588143801E-01
  -1.0749495175938296E-01  -1.0399025335605019E-01  -1.0048353368282038E-01  -9.6974795743807241E-02  -9.3464042535886402E-02
  -8.9951277048714667E-02  -8.6436502264760545E-02  -8.2919721159321669E-02  -7.9400936700556257E-02  -7.5880151849499380E-02
  -7.2357369560092352E-02  -6.8832592779203894E-02  -6.5305824446656294E-02  -6.1777067495244677E-02  -5.8246324850763753E-02
  -5.4713599432031267E-02  -5.1178894150910287E-02  -4.7642211912332103E-02  -4.4103555614316586E-02  -4.0562928148004537E-02
  -3.7020332397666764E-02  -3.3475771240741171E-02  -2.9929247547843034E-02  -2.6380764182794923E-02  -2.2830324002648547E-02
  -1.9277929857703397E-02  -1.5723584591532332E-02  -1.2167291041002483E-02  -8.6090520362994572E-03  -5.0488704009441655E-03
  -1.4867489518208691E-03   2.0773095008052639E-03   5.6433021532636416E-03   9.2112262084589214E-03   1.2781078875850534E-02
   1.6352857371425764E-02   1.9926558917683832E-02   2.3502180743613005E-02   2.7079720084665998E-02   3.0659174182747471E-02
   3.4240540286183889E-02   3.7823815649706598E-02   4.1408997534432057E-02   4.4996083207838225E-02   4.8585069943747908E-02
   5.2175955022301566E-02   5.5768735729946846E-02   5.9363409359406899E-02   6.2959973209669631E-02   6.6558424585961090E-02
   7.0158760799729158E-02   7.3760979168621940E-02   7.7365077016465847E-02   8.0971051673251276E-02   8.4578900475104898E-02
   8.8188620764279510E-02   9.1800209889124823E-02   9.5413665204074863E-02   9.9028984069626139E-02   1.0264616385231602E-01
   1.0626520192470584E-01   1.0988609566536459E-01   1.1350884245884182E-01   1.1713343969565645E-01   1.2075988477227377E-01
   1.2438817509108506E-01   1.2801830806039632E-01   1.3165028109439764E-01   1.3528409161315613E-01   1.3891973704258911E-01
   1.4255721481445124E-01   1.4619652236630970E-01   1.4983765714153294E-01   1.5348061658926759E-01   1.5712539816442286E-01
   1.6077199932765004E-01   1.6442041754532644E-01   1.6807065028953366E-01   1.7172269503804757E-01   1.7537654927430957E-01
   1.7903221048741844E-01   1.8268967617210785E-01   1.8634894382872871E-01   1.9001001096323328E-01   1.9367287508715669E-01
   1.9733753371759874E-01   2.0100398437720823E-01   2.0467222459416523E-01   2.0834225190216191E-01   2.1201406384038862E-01
   2.1568765795351447E-01   2.1936303179167066E-01   2.2304018291043254E-01   2.2671910887080729E-01   2.3039980723921125E-01
   2.3408227558745423E-01   2.3776651149272804E-01   2.4145251253758349E-01   2.4514027630991742E-01   2.4882980040295474E-01
   2.5252108241523247E-01   2.5621411995058396E-01   2.5990891061812021E-01   2.6360545203221869E-01   2.6730374181249889E-01
   2.7100377758381766E-01   2.7470555697624133E-01   2.7840907762503769E-01   2.8211433717065759E-01   2.8582133325871739E-01
   2.8953006353998562E-01   2.9324052567036824E-01   2.9695271731088813E-01   3.0066663612767430E-01   3.0438227979194532E-01
   3.0809964597999023E-01   3.1181873237315799E-01   3.1553953665784107E-01   3.1926205652545597E-01   3.2298628967243476E-01
   3.2671223380020403E-01   3.3043988661517354E-01   3.3416924582871721E-01   3.3790030915716301E-01   3.4163307432177464E-01
   3.4536753904873790E-01   3.4910370106914584E-01   3.5284155811898082E-01   3.5658110793910697E-01   3.6032234827524862E-01
   3.6406527687797852E-01   3.6780989150270338E-01   3.7155618990964978E-01   3.7530416986384785E-01   3.7905382913511670E-01
   3.8280516549805615E-01   3.8655817673202253E-01   3.9031286062112264E-01   3.9406921495419450E-01   3.9782723752479970E-01
   4.0158692613119884E-01   4.0534827857635014E-01   4.0911129266788188E-01   4.1287596621809280E-01   4.1664229704392636E-01
   4.2041028296696431E-01   4.2417992181340991E-01   4.2795121141407239E-01   4.3172414960436040E-01   4.3549873422425883E-01
   4.3927496311832109E-01   4.4305283413565716E-01   4.4683234512991848E-01   4.5061349395927819E-01   4.5439627848642822E-01
   4.5818069657856064E-01   4.6196674610735300E-01   4.6575442494895875E-01   4.6954373098399316E-01   4.7333466209751646E-01
   4.7712721617902909E-01   4.8092139112244842E-01   4.8471718482610521E-01   4.8851459519272400E-01   4.9231362012941310E-01
   4.9611425754765270E-01   4.9991650536327875E-01   5.0372036149647625E-01   5.0752582387176104E-01   5.1133289041796393E-01
   5.1514155906823411E-01   5.1895182776000559E-01   5.2276369443500237E-01   5.2657715703921004E-01   5.3039221352288346E-01
   5.3420886184051375E-01   5.3802709995082887E-01   5.4184692581677829E-01   5.4566833740551768E-01   5.4949133268840233E-01
   5.5331590964097166E-01   5.5714206624293683E-01   5.6096980047816702E-01   5.6479911033468810E-01   5.6862999380465584E-01
   5.7246244888435005E-01   5.7629647357416836E-01   5.8013206587860910E-01   5.8396922380625504E-01   5.8780794536977299E-01
   5.9164822858589350E-01   5.9549007147540112E-01   5.9933347206312360E-01   6.0317842837792213E-01   6.0702493845267536E-01
   6.1087300032427105E-01   6.1472261203359779E-01   6.1857377162552618E-01   6.2242647714890231E-01   6.2628072665653356E-01
   6.3013651820518479E-01   6.3399384985555884E-01   6.3785271967228574E-01   6.4171312572391914E-01   6.4557506608291648E-01
   6.4943853882563407E-01   6.5330354203231011E-01   6.5717007378706294E-01   6.6103813217787033E-01   6.6490771529656700E-01
   6.6877882123882570E-01   6.7265144810415123E-01   6.7652559399586942E-01   6.8040125702111909E-01   6.8427843529083265E-01
   6.8815712691973330E-01   6.9203733002632295E-01   6.9591904273287331E-01   6.9980226316540706E-01   7.0368698945369534E-01
   7.0757321973125042E-01   7.1146095213530247E-01   7.1535018480679957E-01   7.1924091589039874E-01   7.2313314353444380E-01
   7.2702686589097076E-01   7.3092208111568391E-01   7.3481878736795370E-01   7.3871698281080311E-01   7.4261666561090300E-01
   7.4651783393855053E-01   7.5042048596767208E-01   7.5432461987580435E-01   7.5823023384409338E-01   7.6213732605726892E-01
   7.6604589470365125E-01   7.6995593797513351E-01   7.7386745406717372E-01   7.7778044117877976E-01   7.8169489751250931E-01
   7.8561082127445125E-01   7.8952821067422152E-01   7.9344706392495090E-01   7.9736737924327339E-01   8.0128915484932317E-01
   8.0521238896671676E-01   8.0913707982255401E-01   8.1306322564739597E-01   8.1699082467526485E-01   8.2091987514362941E-01
   8.2485037529340399E-01   8.2878232336892455E-01   8.3271571761795271E-01   8.3665055629165863E-01   8.4058683764461850E-01
   8.4452455993479858E-01   8.4846372142354998E-01   8.5240432037559566E-01   8.5634635505902823E-01   8.6028982374529317E-01
   8.6423472470918494E-01   8.6818105622883679E-01   8.7212881658570618E-01   8.7607800406458103E-01   8.8002861695354828E-01
   8.8398065354400657E-01   8.8793411213064233E-01   8.9188899101143215E-01   8.9584528848762313E-01   8.9980300286373172E-01
   9.0376213244753389E-01   9.0772267555005171E-01   9.1168463048555215E-01   9.1564799557153209E-01   9.1961276912871148E-01
   9.2357894948102526E-01   9.2754653495561812E-01   9.3151552388282843E-01   9.3548591459618669E-01   9.3945770543240004E-01
   9.4343089473135355E-01   9.4740548083609288E-01   9.5138146209281949E-01   9.5535883685088463E-01   9.5933760346277364E-01
   9.6331776028410687E-01   9.6729930567362099E-01   9.7128223799317470E-01   9.7526655560772646E-01   9.7925225688533402E-01
   9.8323934019714299E-01   9.8722780391738407E-01   9.9121764642335919E-01   9.9520886609542791E-01   9.9920146131702170E-01
   1.0031954304746071E+00   1.0071907719576993E+00   1.0111874841588424E+00   1.0151855654736075E+00   1.0191850143005823E+00
   1.0231858290413642E+00   1.0271880081005467E+00   1.0311915498857249E+00   1.0351964528074755E+00   1.0392027152793493E+00
   1.0432103357178724E+00   1.0472193125425309E+00   1.0512296441757667E+00   1.0552413290429647E+00   1.0592543655724531E+00
   1.0632687521954913E+00   1.0672844873462592E+00   1.0713015694618535E+00   1.0753199969822862E+00   1.0793397683504595E+00
   1.0833608820121796E+00   1.0873833364161287E+00   1.0914071300138799E+00   1.0954322612598657E+00   1.0994587286113890E+00
   1.1034865305286068E+00   1.1075156654745280E+00   1.1115461319150002E+00   1.1155779283187039E+00   1.1196110531571521E+00
   1.1236455049046725E+00   1.1276812820384092E+00   1.1317183830383082E+00   1.1357568063871157E+00   1.1397965505703700E+00
   1.1438376140763891E+00   1.1478799953962726E+00   1.1519236930238856E+00   1.1559687054558578E+00   1.1600150311915736E+00
   1.1640626687331677E+00   1.1681116165855145E+00   1.1721618732562205E+00   1.1762134372556230E+00   1.1802663070967807E+00
   1.1843204812954622E+00   1.1883759583701454E+00   1.1924327368420067E+00   1.1964908152349161E+00   1.2005501920754309E+00
   1.2046108658927828E+00   1.2086728352188822E+00   1.2127360985883036E+00   1.2168006545382777E+00   1.2208665016086881E+00
   1.2249336383420695E+00   1.2290020632835892E+00   1.2330717749810465E+00   1.2371427719848713E+00   1.2412150528481085E+00
   1.2452886161264174E+00   1.2493634603780617E+00   1.2534395841639070E+00   1.2575169860474082E+00   1.2615956645946098E+00
   1.2656756183741331E+00   1.2697568459571753E+00   1.2738393459174981E+00   1.2779231168314258E+00   1.2820081572778343E+00
   1.2860944658381512E+00   1.2901820410963398E+00   1.2942708816389050E+00   1.2983609860548746E+00   1.3024523529358014E+00
   1.3065449808757539E+00   1.3106388684713113E+00   1.3147340143215522E+00   1.3188304170280609E+00   1.3229280751949049E+00
   1.3270269874286382E+00   1.3311271523382986E+00   1.3352285685353900E+00   1.3393312346338875E+00   1.3434351492502226E+00
   1.3475403110032882E+00   1.3516467185144159E+00   1.3557543704073876E+00   1.3598632653084166E+00   1.3639734018461507E+00
   1.3680847786516579E+00   1.3721973943584247E+00   1.3763112476023514E+00   1.3804263370217462E+00   1.3845426612573171E+00
   1.3886602189521629E+00   1.3927790087517762E+00   1.3968990293040302E+00   1.4010202792591755E+00   1.4051427572698301E+00
   1.4092664619909854E+00   1.4133913920799865E+00   1.4175175461965313E+00   1.4216449230026713E+00   1.4257735211627982E+00
   1.4299033393436373E+00   1.4340343762142485E+00   1.4381666304460148E+00   1.4423001007126415E+00   1.4464347856901452E+00
   1.4505706840568491E+00   1.4547077944933882E+00   1.4588461156826835E+00   1.4629856463099564E+00   1.4671263850627054E+00
   1.4712683306307215E+00   1.4754114817060600E+00   1.4795558369830513E+00   1.4837013951582874E+00   1.4878481549306195E+00
   1.4919961150011549E+00   1.4961452740732433E+00   1.5002956308524813E+00   1.5044471840467013E+00   1.5085999323659627E+00
   1.5127538745225573E+00   1.5169090092309969E+00   1.5210653352080059E+00   1.5252228511725194E+00   1.5293815558456785E+00
   1.5335414479508231E+00   1.5377025262134889E+00   1.5418647893613979E+00   1.5460282361244595E+00   1.5501928652347587E+00
   1.5543586754265544E+00   1.5585256654362742E+00   1.5626938340025112E+00   1.5668631798660118E+00   1.5710337017696778E+00
   1.5752053984585572E+00   1.5793782686798443E+00   1.5835523111828678E+00   1.5877275247190863E+00   1.5919039080420903E+00
   1.5960814599075910E+00   1.6002601790734161E+00   1.6044400642995058E+00   1.6086211143479092E+00   1.6128033279827736E+00
   1.6169867039703485E+00   1.6211712410789711E+00   1.6253569380790702E+00   1.6295437937431529E+00   1.6337318068458082E+00
   1.6379209761636937E+00   1.6421113004755370E+00   1.6463027785621291E+00   1.6504954092063164E+00   1.6546891911930020E+00
   1.6588841233091354E+00   1.6630802043437092E+00   1.6672774330877549E+00   1.6714758083343406E+00   1.6756753288785595E+00
   1.6798759935175345E+00   1.6840778010503996E+00   1.6882807502783166E+00   1.6924848400044465E+00   1.6966900690339595E+00
   1.7008964361740277E+00   1.7051039402338222E+00   1.7093125800244990E+00   1.7135223543592057E+00   1.7177332620530739E+00
   1.7219453019232080E+00   1.7261584727886872E+00   1.7303727734705621E+00   1.7345882027918462E+00   1.7388047595775120E+00
   1.7430224426544834E+00   1.7472412508516411E+00   1.7514611829998090E+00   1.7556822379317512E+00   1.7599044144821705E+00
   1.7641277114876988E+00   1.7683521277869021E+00   1.7725776622202645E+00   1.7768043136301916E+00   1.7810320808610058E+00
   1.7852609627589342E+00   1.7894909581721143E+00   1.7937220659505828E+00   1.7979542849462751E+00   1.8021876140130204E+00
   1.8064220520065328E+00   1.8106575977844139E+00   1.8148942502061438E+00   1.8191320081330773E+00   1.8233708704284401E+00
   1.8276108359573291E+00   1.8318519035866998E+00   1.8360940721853669E+00   1.8403373406239969E+00   1.8445817077751145E+00
   1.8488271725130792E+00   1.8530737337141021E+00   1.8573213902562213E+00   1.8615701410193184E+00   1.8658199848850983E+00
   1.8700709207370898E+00   1.8743229474606444E+00   1.8785760639429347E+00   1.8828302690729353E+00   1.8870855617414377E+00
   1.8913419408410377E+00   1.8955994052661216E+00   1.8998579539128861E+00   1.9041175856793080E+00   1.9083782994651577E+00
   1.9126400941719908E+00   1.9169029687031354E+00   1.9211669219637060E+00   1.9254319528605828E+00   1.9296980603024134E+00
   1.9339652431996099E+00   1.9382335004643483E+00   1.9425028310105559E+00   1.9467732337539123E+00   1.9510447076118496E+00
   1.9553172515035391E+00   1.9595908643498974E+00   1.9638655450735729E+00   1.9681412925989459E+00   1.9724181058521346E+00
   1.9766959837609694E+00   1.9809749252550100E+00   1.9852549292655284E+00   1.9895359947255167E+00   1.9938181205696688E+00
   1.9981013057343864E+00   2.0023855491577769E+00   2.0066708497796424E+00   2.0109572065414789E+00   2.0152446183864741E+00
   2.0195330842595038E+00   2.0238226031071216E+00   2.0281131738775686E+00   2.0324047955207520E+00   2.0366974669882616E+00
   2.0409911872333439E+00   2.0452859552109186E+00   2.0495817698775620E+00   2.0538786301915102E+00   2.0581765351126506E+00
   2.0624754836025176E+00   2.0667754746243001E+00   2.0710765071428194E+00   2.0753785801245446E+00   2.0796816925375734E+00
   2.0839858433516421E+00   2.0882910315381085E+00   2.0925972560699564E+00   2.0969045159217936E+00   2.1012128100698413E+00
   2.1055221374919411E+00   2.1098324971675346E+00   2.1141438880776802E+00   2.1184563092050359E+00   2.1227697595338562E+00
   2.1270842380499944E+00   2.1313997437408996E+00   2.1357162755956076E+00   2.1400338326047375E+00   2.1443524137604939E+00
   2.1486720180566619E+00   2.1529926444885974E+00   2.1573142920532300E+00   2.1616369597490617E+00   2.1659606465761541E+00
   2.1702853515361351E+00   2.1746110736321866E+00   2.1789378118690506E+00   2.1832655652530173E+00   2.1875943327919294E+00
   2.1919241134951650E+00   2.1962549063736558E+00   2.2005867104398624E+00   2.2049195247077882E+00   2.2092533481929606E+00
   2.2135881799124388E+00   2.2179240188848102E+00   2.2222608641301775E+00   2.2265987146701676E+00   2.2309375695279194E+00
   2.2352774277280836E+00   2.2396182882968207E+00   2.2439601502617963E+00   2.2483030126521801E+00   2.2526468744986379E+00
   2.2569917348333304E+00   2.2613375926899173E+00   2.2656844471035371E+00   2.2700322971108249E+00   2.2743811417498905E+00
   2.2787309800603328E+00   2.2830818110832172E+00   2.2874336338610863E+00   2.2917864474379588E+00   2.2961402508593101E+00
   2.3004950431720905E+00   2.3048508234247000E+00   2.3092075906670062E+00   2.3135653439503256E+00   2.3179240823274330E+00
   2.3222838048525398E+00   2.3266445105813154E+00   2.3310061985708654E+00   2.3353688678797315E+00   2.3397325175678998E+00
   2.3440971466967850E+00   2.3484627543292311E+00   2.3528293395295106E+00   2.3571969013633214E+00   2.3615654388977800E+00
   2.3659349512014218E+00   2.3703054373441992E+00   2.3746768963974740E+00   2.3790493274340196E+00   2.3834227295280161E+00
   2.3877971017550386E+00   2.3921724431920746E+00   2.3965487529175018E+00   2.4009260300110942E+00   2.4053042735540147E+00
   2.4096834826288189E+00   2.4140636563194455E+00   2.4184447937112132E+00   2.4228268938908273E+00   2.4272099559463651E+00
   2.4315939789672778E+00   2.4359789620443890E+00   2.4403649042698925E+00   2.4447518047373431E+00   2.4491396625416622E+00
   2.4535284767791241E+00   2.4579182465473726E+00   2.4623089709453945E+00   2.4667006490735277E+00   2.4710932800334691E+00
   2.4754868629282476E+00   2.4798813968622468E+00   2.4842768809411782E+00   2.4886733142721029E+00   2.4930706959634086E+00
   2.4974690251248153E+00   2.5018683008673746E+00   2.5062685223034635E+00   2.5106696885467796E+00   2.5150717987123450E+00
   2.5194748519164976E+00   2.5238788472768920E+00   2.5282837839124892E+00   2.5326896609435714E+00   2.5370964774917155E+00
   2.5415042326798116E+00   2.5459129256320474E+00   2.5503225554739113E+00   2.5547331213321844E+00   2.5591446223349479E+00
   2.5635570576115665E+00   2.5679704262926992E+00   2.5723847275102876E+00   2.5767999603975582E+00   2.5812161240890119E+00
   2.5856332177204373E+00   2.5900512404288918E+00   2.5944701913527046E+00   2.5988900696314778E+00   2.6033108744060787E+00
   2.6077326048186409E+00   2.6121552600125599E+00   2.6165788391324867E+00   2.6210033413243385E+00   2.6254287657352773E+00
   2.6298551115137183E+00   2.6342823778093347E+00   2.6387105637730373E+00   2.6431396685569828E+00   2.6475696913145708E+00
   2.6520006312004409E+00   2.6564324873704672E+00   2.6608652589817607E+00   2.6652989451926614E+00   2.6697335451627398E+00
   2.6741690580527924E+00   2.6786054830248389E+00   2.6830428192421212E+00   2.6874810658691031E+00   2.6919202220714618E+00
   2.6963602870160890E+00   2.7008012598710893E+00   2.7052431398057770E+00   2.7096859259906720E+00   2.7141296175974978E+00
   2.7185742137991835E+00   2.7230197137698551E+00   2.7274661166848335E+00   2.7319134217206376E+00   2.7363616280549814E+00
   2.7408107348667650E+00   2.7452607413360726E+00   2.7497116466441813E+00   2.7541634499735492E+00   2.7586161505078080E+00
   2.7630697474317718E+00   2.7675242399314364E+00   2.7719796271939638E+00   2.7764359084076879E+00   2.7808930827621103E+00
   2.7853511494479015E+00   2.7898101076568995E+00   2.7942699565820925E+00   2.7987306954176416E+00   2.8031923233588545E+00
   2.8076548396021992E+00   2.8121182433452936E+00   2.8165825337869075E+00   2.8210477101269573E+00   2.8255137715665066E+00
   2.8299807173077585E+00   2.8344485465540612E+00   2.8389172585098992E+00   2.8433868523808949E+00   2.8478573273738048E+00
   2.8523286826965135E+00   2.8568009175580427E+00   2.8612740311685392E+00   2.8657480227392642E+00   2.8702228914826189E+00
   2.8746986366121172E+00   2.8791752573423901E+00   2.8836527528891880E+00   2.8881311224693706E+00   2.8926103653009183E+00
   2.8970904806029103E+00   2.9015714675955442E+00   2.9060533255001175E+00   2.9105360535390310E+00   2.9150196509357853E+00
   2.9195041169149825E+00   2.9239894507023214E+00   2.9284756515245940E+00   2.9329627186096858E+00   2.9374506511865714E+00
   2.9419394484853170E+00   2.9464291097370672E+00   2.9509196341740567E+00   2.9554110210296041E+00   2.9599032695381022E+00
   2.9643963789350218E+00   2.9688903484569131E+00   2.9733851773413944E+00   2.9778808648271626E+00   2.9823774101539744E+00
   2.9868748125626614E+00   2.9913730712951150E+00   2.9958721855942927E+00   3.0003721547042130E+00   3.0048729778699497E+00
   3.0093746543376394E+00   3.0138771833544644E+00   3.0183805641686661E+00   3.0228847960295395E+00   3.0273898781874204E+00
   3.0318958098936943E+00   3.0364025904007925E+00   3.0409102189621868E+00   3.0454186948323883E+00   3.0499280172669514E+00
   3.0544381855224638E+00   3.0589491988565491E+00   3.0634610565278582E+00   3.0679737577960773E+00   3.0724873019219205E+00
   3.0770016881671278E+00   3.0815169157944640E+00   3.0860329840677161E+00   3.0905498922516914E+00   3.0950676396122128E+00
   3.0995862254161275E+00   3.1041056489312902E+00   3.1086259094265718E+00   3.1131470061718516E+00   3.1176689384380194E+00
   3.1221917054969714E+00   3.1267153066216125E+00   3.1312397410858401E+00   3.1357650081645643E+00   3.1402911071336894E+00
   3.1448180372701167E+00   3.1493457978517405E+00   3.1538743881574560E+00   3.1584038074671419E+00   3.1629340550616716E+00
   3.1674651302229035E+00   3.1719970322336861E+00   3.1765297603778460E+00   3.1810633139401951E+00   3.1855976922065272E+00
   3.1901328944636114E+00   3.1946689199991938E+00   3.1992057681019967E+00   3.2037434380617142E+00   3.2082819291690132E+00
   3.2128212407155265E+00   3.2173613719938547E+00   3.2219023222975687E+00   3.2264440909211980E+00   3.2309866771602316E+00
   3.2355300803111300E+00   3.2400742996712992E+00   3.2446193345391059E+00   3.2491651842138731E+00   3.2537118479958780E+00
   3.2582593251863408E+00   3.2628076150874419E+00   3.2673567170022988E+00   3.2719066302349860E+00   3.2764573540905064E+00
   3.2810088878748198E+00   3.2855612308948183E+00   3.2901143824583334E+00   3.2946683418741363E+00   3.2992231084519275E+00
   3.3037786815023500E+00   3.3083350603369670E+00   3.3128922442682822E+00   3.3174502326097177E+00   3.3220090246756269E+00
   3.3265686197812894E+00   3.3311290172429056E+00   3.3356902163775919E+00   3.3402522165033934E+00   3.3448150169392656E+00
   3.3493786170050859E+00   3.3539430160216375E+00   3.3585082133106239E+00   3.3630742081946554E+00   3.3676409999972532E+00
   3.3722085880428465E+00   3.3767769716567662E+00   3.3813461501652511E+00   3.3859161228954400E+00   3.3904868891753757E+00
   3.3950584483339963E+00   3.3996307997011384E+00   3.4042039426075346E+00   3.4087778763848124E+00   3.4133526003654886E+00
   3.4179281138829736E+00   3.4225044162715688E+00   3.4270815068664575E+00   3.4316593850037105E+00   3.4362380500202825E+00
   3.4408175012540165E+00   3.4453977380436291E+00   3.4499787597287179E+00   3.4545605656497589E+00   3.4591431551481051E+00
   3.4637265275659823E+00   3.4683106822464880E+00   3.4728956185335940E+00   3.4774813357721390E+00   3.4820678333078323E+00
   3.4866551104872454E+00   3.4912431666578194E+00   3.4958320011678539E+00   3.5004216133665143E+00   3.5050120026038201E+00
   3.5096031682306590E+00   3.5141951095987682E+00   3.5187878260607377E+00   3.5233813169700161E+00   3.5279755816809084E+00
   3.5325706195485620E+00   3.5371664299289716E+00   3.5417630121789929E+00   3.5463603656563141E+00   3.5509584897194721E+00
   3.5555573837278458E+00   3.5601570470416624E+00   3.5647574790219769E+00   3.5693586790306933E+00   3.5739606464305425E+00
   3.5785633805851051E+00   3.5831668808587773E+00   3.5877711466167979E+00   3.5923761772252409E+00   3.5969819720509983E+00
   3.6015885304617976E+00   3.6061958518261847E+00   3.6108039355135415E+00   3.6154127808940624E+00   3.6200223873387718E+00
   3.6246327542195074E+00   3.6292438809089269E+00   3.6338557667805134E+00   3.6384684112085521E+00   3.6430818135681524E+00
   3.6476959732352352E+00   3.6523108895865288E+00   3.6569265619995730E+00   3.6615429898527196E+00   3.6661601725251249E+00
   3.6707781093967484E+00   3.6753967998483517E+00   3.6800162432615111E+00   3.6846364390185919E+00   3.6892573865027627E+00
   3.6938790850979886E+00   3.6985015341890390E+00   3.7031247331614696E+00   3.7077486814016321E+00   3.7123733782966766E+00
   3.7169988232345395E+00   3.7216250156039474E+00   3.7262519547944124E+00   3.7308796401962394E+00   3.7355080712005195E+00
   3.7401372471991206E+00   3.7447671675846932E+00   3.7493978317506809E+00   3.7540292390912957E+00   3.7586613890015332E+00
   3.7632942808771621E+00   3.7679279141147299E+00   3.7725622881115606E+00   3.7771974022657435E+00   3.7818332559761516E+00
   3.7864698486424189E+00   3.7911071796649463E+00   3.7957452484449083E+00   3.8003840543842471E+00   3.8050235968856647E+00
   3.8096638753526242E+00   3.8143048891893589E+00   3.8189466378008574E+00   3.8235891205928683E+00   3.8282323369718996E+00
   3.8328762863452139E+00   3.8375209681208324E+00   3.8421663817075258E+00   3.8468125265148196E+00   3.8514594019529955E+00
   3.8561070074330770E+00   3.8607553423668399E+00   3.8654044061668098E+00   3.8700541982462546E+00   3.8747047180191885E+00
   3.8793559649003684E+00   3.8840079383052948E+00   3.8886606376502102E+00   3.8933140623520934E+00   3.8979682118286609E+00
   3.9026230854983690E+00   3.9072786827804125E+00   3.9119350030947104E+00   3.9165920458619223E+00   3.9212498105034430E+00
   3.9259082964413898E+00   3.9305675030986116E+00   3.9352274298986871E+00   3.9398880762659205E+00   3.9445494416253437E+00
   3.9492115254027063E+00   3.9538743270244883E+00   3.9585378459178897E+00   3.9632020815108251E+00   3.9678670332319341E+00
   3.9725327005105719E+00   3.9771990827768122E+00   3.9818661794614423E+00   3.9865339899959626E+00   3.9912025138125875E+00
   3.9958717503442451E+00   4.0005416990245717E+00   4.0052123592879090E+00   4.0098837305693165E+00   4.0145558123045495E+00
   6.2131018749433345E+01   6.2131018749433345E+01   6.2131018749433345E+01   6.2131018749433345E+01   6.2131018749433345E+01
   6.2131018749433345E+01   6.2131018749433345E+01   6.2131018749433345E+01   6.2131018749433345E+01   6.2131018749433345E+01
   6.2131018749433345E+01   6.2131018749433345E+01   6.2131018749433345E+01   6.2131018749433345E+01   6.2131018749433345E+01
   6.2131018749433345E+01   6.2131018749433345E+01   6.2131018749433345E+01   6.2131018749433345E+01   6.2131018749433345E+01
   6.2131018749433345E+01   6.2131018749433345E+01   6.2131018749433345E+01   6.2131018749433345E+01   6.2131018749433345E+01
   6.2131018749433345E+01   6.2131018749433345E+01   6.2131018749433345E+01   6.2131018749433345E+01   6.2131018749433345E+01
   6.2131018749433345E+01   6.2131018749433345E+01   6.2131018749433345E+01   6.2131018749433345E+01   6.2131018749433345E+01
   6.2131018749433345E+01   6.2131018749433345E+01   6.2131018749433345E+01   6.2131018749433345E+01   6.2131018749433345E+01
   6.2131018749433345E+01   6.2131018749433345E+01   6.2131018749433345E+01   6.2131018749433345E+01   6.2131018749433345E+01
   6.2131018749433345E+01   6.2131018749433345E+01   6.2131018749433345E+01   6.2131018749433345E+01   6.2131018749433345E+01
   6.2131018749433345E+01   6.2131018749433345E+01   6.2131018749433345E+01   6.2131018749433345E+01   6.2131018749433345E+01
   6.2131018749433345E+01   6.2131018749433345E+01   6.2131018749433345E+01   6.2131018749433345E+01   6.2131018749433345E+01
   6.2131018749433345E+01   6.2131018749433345E+01   6.2131018749433345E+01   6.2131018749433345E+01   6.2131018749433345E+01
   6.2131018749433345E+01   6.2131018749433345E+01   6.2131018749433345E+01   6.2131018749433345E+01   6.2131018749433345E+01
   6.2131018749433345E+01   6.2131018749433345E+01   6.2131018749433345E+01   6.2131018749433345E+01   6.2131018749433345E+01
   6.2131018749433345E+01   6.2131018749433345E+01   6.2131018749433345E+01   6.2131018749433345E+01   6.2131018749433345E+01
   6.2131018749433345E+01   6.2131018749433345E+01   6.2131018749433345E+01   6.2131018749433345E+01   6.2131018749433345E+01
   6.2131018749433345E+01   6.2131018749433345E+01   6.2131018749433345E+01   6.2131018749433345E+01   6.2131018749433345E+01
   6.2131018749433345E+01   6.2131018749433345E+01   6.2131018749433345E+01   6.2131018749433345E+01   6.2131018749433345E+01
   6.2131018749433345E+01   6.2131018749433345E+01   6.2131018749433345E+01   6.2131018749433345E+01   6.2131018749433345E+01
   6.2131018749433345E+01   6.2131018749433345E+01   6.2131018749433345E+01   6.2131018749433345E+01   6.2131018749433345E+01
   6.2131018749433345E+01   6.2131018749433345E+01   6.2131018749433345E+01   6.2131018749433345E+01   6.2131018749433345E+01
   6.2131018749433345E+01   6.2131018749433345E+01   6.2131018749433345E+01   6.2131018749433345E+01   6.2131018749433345E+01
   6.2131018749433345E+01   6.2131018749433345E+01   6.2131018749433345E+01   6.2131018749433345E+01   6.2131018749433345E+01
   6.2131018749433345E+01   6.2131018749433345E+01   6.2131018749433345E+01   6.2131018749433345E+01   6.2131018749433345E+01
   6.2131018749433345E+01   6.2131018749433345E+01   6.2131018749433345E+01   6.2131018749433345E+01   6.2131018749433345E+01
   6.2131018749433345E+01   6.2131018749433345E+01   6.2131018749433345E+01   6.2131018749433345E+01   6.2131018749433345E+01
   6.2131018749433345E+01   6.2131018749433345E+01   6.2131018749433345E+01   6.2131018749433345E+01   6.2131018749433345E+01
   6.2131018749433345E+01   6.2131018749433345E+01   6.2131018749433345E+01   6.2131018749433345E+01   6.2131018749433345E+01
   6.2131018749433345E+01   6.2131018749433345E+01   6.2131018749433345E+01   6.2131018749433345E+01   6.2131018749433345E+01
   6.2131018749433345E+01   6.2131018749433345E+01   6.2131018749433345E+01   6.2131018749433345E+01   6.2131018749433345E+01
   6.1985924481529331E+01   6.1649182998516885E+01   6.1314269448050524E+01   6.0981173964287599E+01   6.0649886732475416E+01
   6.0320397988765457E+01   5.9992698020026467E+01   5.9666777163654253E+01   5.9342625807380351E+01   5.9020234389078375E+01
   5.8699593396568567E+01   5.8380693367420882E+01   5.8063524888756490E+01   5.7748078597047517E+01   5.7434345177915944E+01
   5.7122315365930554E+01   5.6811979944403177E+01   5.6503329745183827E+01   5.6196355648454322E+01   5.5891048582521584E+01
   5.5587399523609541E+01   5.5285399495650722E+01   5.4985039570076488E+01   5.4686310865607332E+01   5.4389204548041903E+01
   5.4093711830046033E+01   5.3799823970940984E+01   5.3507532276491290E+01   5.3216828098692467E+01   5.2927702835558208E+01
   5.2640147930907268E+01   5.2354154874150503E+01   5.2069715200077418E+01   5.1786820488642640E+01   5.1505462364752489E+01
   5.1225632498051553E+01   5.0947322602708986E+01   5.0670524437205351E+01   5.0395229804118998E+01   5.0121430549913057E+01
   4.9849118564722538E+01   4.9578285782141187E+01   4.9308924179009338E+01   4.9041025775201305E+01   4.8774582633413544E+01
   4.8509586858953128E+01   4.8246030599526286E+01   4.7983906045027474E+01   4.7723205427329148E+01   4.7463921020071382E+01
   4.7206045138452559E+01   4.6949570139020139E+01   4.6694488419462090E+01   4.6440792418398679E+01   4.6188474615175117E+01
   4.5937527529654496E+01   4.5687943722011468E+01   4.5439715792526229E+01   4.5192836381379514E+01   4.4947298168448000E+01
   4.4703093873100372E+01   4.4460216253994020E+01   4.4218658108872432E+01   4.3978412274363244E+01   4.3739471625777192E+01
   4.3501829076907320E+01   4.3265477579829366E+01   4.3030410124702520E+01   4.2796619739571241E+01   4.2564099490167493E+01
   4.2332842479713946E+01   4.2102841848727891E+01   4.1874090774825824E+01   4.1646582472529012E+01   4.1420310193069568E+01
   4.1195267224197600E+01   4.0971446889988883E+01   4.0748842550653471E+01   4.0527447602345212E+01   4.0307255476971854E+01
   4.0088259642006051E+01   3.9870453600297196E+01   3.9653830889884119E+01   3.9438385083808591E+01   3.9224109789929550E+01
   3.9010998650738209E+01   3.8799045343174072E+01   3.8588243578441777E+01   3.8378587101828622E+01   3.8170069692523072E+01
   3.7962685163434010E+01   3.7756427361011006E+01   3.7551290165065176E+01   3.7347267488591044E+01   3.7144353277589239E+01
   3.6942541510889939E+01   3.6741826199977261E+01   3.6542201388814419E+01   3.6343661153669878E+01   3.6146199602944023E+01
   3.5949810876997006E+01   3.5754489147977289E+01   3.5560228619651056E+01   3.5367023527232391E+01   3.5174868137214382E+01
   3.4983756747201006E+01   3.4793683685739964E+01   3.4604643312156149E+01   3.4416630016386094E+01   3.4229638218813200E+01
   3.4043662370103910E+01   3.3858696951044436E+01   3.3674736472378612E+01   3.3491775474646410E+01   3.3309808528023261E+01
   3.3128830232160333E+01   3.2948835216025373E+01   3.2769818137744792E+01   3.2591773684446011E+01   3.2414696572101050E+01
   3.2238581545370756E+01   3.2063423377449915E+01   3.1889216869912925E+01   3.1715956852560616E+01   3.1543638183267621E+01
   3.1372255747830700E+01   3.1201804459817655E+01   3.1032279260417226E+01   3.0863675118289656E+01   3.0695987029418120E+01
   3.0529210016960914E+01   3.0363339131104279E+01   3.0198369448916218E+01   3.0034296074200991E+01   2.9871114137354251E+01
   2.9708818795219230E+01   2.9547405230943394E+01   2.9386868653835961E+01   2.9227204299226241E+01   2.9068407428322690E+01
   2.8910473328072683E+01   2.8753397311022976E+01   2.8597174715181040E+01   2.8441800903877020E+01   2.8287271265626600E+01
   2.8133581213994312E+01   2.7980726187457812E+01   2.7828701649272794E+01   2.7677503087338696E+01   2.7527126014064930E+01
   2.7377565966238102E+01   2.7228818504889677E+01   2.7080879215164565E+01   2.6933743706190281E+01   2.6787407610946858E+01
   2.6641866586137400E+01   2.6497116312059454E+01   2.6353152492476919E+01   2.6209970854492742E+01   2.6067567148422338E+01
   2.5925937147667469E+01   2.5785076648591090E+01   2.5644981470392690E+01   2.5505647454984381E+01   2.5367070466867531E+01
   2.5229246393010236E+01   2.5092171142725320E+01   2.4955840647549117E+01   2.4820250861120698E+01   2.4685397759062013E+01
   2.4551277338858448E+01   2.4417885619740140E+01   2.4285218642564040E+01   2.4153272469696301E+01   2.4022043184895605E+01
   2.3891526893197000E+01   2.3761719720796318E+01   2.3632617814935347E+01   2.3504217343787463E+01   2.3376514496344047E+01
   2.3249505482301338E+01   2.3123186531948082E+01   2.2997553896053642E+01   2.2872603845756821E+01   2.2748332672455181E+01
   2.2624736687695048E+01   2.2501812223062057E+01   2.2379555630072392E+01   2.2257963280064423E+01   2.2137031564091117E+01
   2.2016756892812911E+01   2.1897135696391302E+01   2.1778164424382826E+01   2.1659839545633744E+01   2.1542157548175251E+01
   2.1425114939119339E+01   2.1308708244555060E+01   2.1192934009445473E+01   2.1077788797525134E+01   2.0963269191198108E+01
   2.0849371791436603E+01   2.0736093217680043E+01   2.0623430107734752E+01   2.0511379117674238E+01   2.0399936921739886E+01
   2.0289100212242325E+01   2.0178865699463270E+01   2.0069230111557818E+01   1.9960190194457425E+01   1.9851742711773316E+01
   1.9743884444700452E+01   1.9636612191921959E+01   1.9529922769514169E+01   1.9423813010852093E+01   1.9318279766515509E+01
   1.9213319904195398E+01   1.9108930308601057E+01   1.9005107881367621E+01   1.8901849540964111E+01   1.8799152222601940E+01
   1.8697012878144040E+01   1.8595428476014320E+01   1.8494396001107731E+01   1.8393912454700732E+01   1.8293974854362421E+01
   1.8194580233865832E+01   1.8095725643100057E+01   1.7997408147982586E+01   1.7899624830372293E+01   1.7802372787982829E+01
   1.7705649134296408E+01   1.7609450998478199E+01   1.7513775525291134E+01   1.7418619875011110E+01   1.7323981223342759E+01
   1.7229856761335583E+01   1.7136243695300607E+01   1.7043139246727463E+01   1.6950540652201919E+01   1.6858445163323871E+01
   1.6766850046625752E+01   1.6675752583491391E+01   1.6585150070075386E+01   1.6495039817222789E+01   1.6405419150389321E+01
   1.6316285409561974E+01   1.6227635949180069E+01   1.6139468138056792E+01   1.6051779359300966E+01   1.5964567010239520E+01
   1.5877828502340144E+01   1.5791561261134506E+01   1.5705762726141861E+01   1.5620430350793006E+01   1.5535561602354711E+01
   1.5451153961854549E+01   1.5367204924006160E+01   1.5283711997134850E+01   1.5200672703103656E+01   1.5118084577239788E+01
   1.5035945168261490E+01   1.4954252038205279E+01   1.4873002762353556E+01   1.4792194929162706E+01   1.4711826140191441E+01
   1.4631894010029672E+01   1.4552396166227666E+01   1.4473330249225700E+01   1.4394693912283923E+01   1.4316484821412805E+01
   1.4238700655303763E+01   1.4161339105260399E+01   1.4084397875129833E+01   1.4007874681234629E+01   1.3931767252304990E+01
   1.3856073329411380E+01   1.3780790665897444E+01   1.3705917027313312E+01   1.3631450191349305E+01   1.3557387947770000E+01
   1.3483728098348559E+01   1.3410468456801551E+01   1.3337606848724016E+01   1.3265141111524967E+01   1.3193069094363151E+01
   1.3121388658083262E+01   1.3050097675152436E+01   1.2979194029597073E+01   1.2908675616940060E+01   1.2838540344138307E+01
   1.2768786129520644E+01   1.2699410902725983E+01   1.2630412604641899E+01   1.2561789187343532E+01   1.2493538614032781E+01
   1.2425658858977826E+01   1.2358147907453061E+01   1.2291003755679265E+01   1.2224224410764105E+01   1.2157807890643015E+01
   1.2091752224020373E+01   1.2026055450310960E+01   1.1960715619581801E+01   1.1895730792494271E+01   1.1831099040246523E+01
   1.1766818444516288E+01   1.1702887097403867E+01   1.1639303101375566E+01   1.1576064569207336E+01   1.1513169623928770E+01
   1.1450616398767414E+01   1.1388403037093321E+01   1.1326527692363975E+01   1.1264988528069477E+01   1.1203783717678027E+01
   1.1142911444581717E+01   1.1082369902042609E+01   1.1022157293139136E+01   1.0962271830712707E+01   1.0902711737314739E+01
   1.0843475245153826E+01   1.0784560596043351E+01   1.0725966041349213E+01   1.0667689841938003E+01   1.0609730268125329E+01
   1.0552085599624514E+01   1.0494754125495520E+01   1.0437734144094179E+01   1.0381023963021645E+01   1.0324621899074238E+01
   1.0268526278193416E+01   1.0212735435416118E+01   1.0157247714825328E+01   1.0102061469500971E+01   1.0047175061470979E+01
   9.9925868616626907E+00   9.9382952498545194E+00   9.8842986146278431E+00   9.8305953533191808E+00   9.7771838719726070E+00
   9.7240625852925007E+00   9.6712299165964168E+00   9.6186842977683256E+00   9.5664241692120857E+00   9.5144479798051353E+00
   9.4627541868524325E+00   9.4113412560407070E+00   9.3602076613928986E+00   9.3093518852228723E+00   9.2587724180903557E+00
   9.2084677587561679E+00   9.1584364141376220E+00   9.1086768992642622E+00   9.0591877372337262E+00   9.0099674591679673E+00
   8.9610146041696002E+00   8.9123277192786077E+00   8.8639053594291539E+00   8.8157460874067191E+00   8.7678484738054561E+00
   8.7202110969857358E+00   8.6728325430319728E+00   8.6257114057106445E+00   8.5788462864285773E+00   8.5322357941914007E+00
   8.4858785455622847E+00   8.4397731646208740E+00   8.3939182829224563E+00   8.3483125394573268E+00   8.3029545806104021E+00
   8.2578430601210524E+00   8.2129766390431396E+00   8.1683539857052612E+00   8.1239737756712422E+00   8.0798346917008335E+00
   8.0359354237105656E+00   7.9922746687349360E+00   7.9488511308876895E+00   7.9056635213233566E+00   7.8627105581990087E+00
   7.8199909666362295E+00   7.7775034786832391E+00   7.7352468332772819E+00   7.6932197762072070E+00   7.6514210600762187E+00
   7.6098494442648672E+00   7.5685036948942148E+00   7.5273825847892377E+00   7.4864848934423707E+00   7.4458094069772978E+00
   7.4053549181129288E+00   7.3651202261275666E+00   7.3251041368232412E+00   7.2853054624902995E+00   7.2457230218721405E+00
   7.2063556401301465E+00   7.1672021488088253E+00   7.1282613858011192E+00   7.0895321953139252E+00   7.0510134278337757E+00
   7.0127039400927229E+00   6.9746025950344261E+00   6.9367082617803666E+00   6.8990198155963203E+00   6.8615361378589421E+00
   6.8242561160225845E+00   6.7871786435862749E+00   6.7503026200608645E+00   6.7136269509363729E+00   6.6771505476494886E+00
   6.6408723275512900E+00   6.6047912138750746E+00   6.5689061357044194E+00   6.5332160279413989E+00   6.4977198312749671E+00
   6.4624164921495053E+00   6.4273049627335661E+00   6.3923842008887730E+00   6.3576531701388781E+00   6.3231108396390017E+00
   6.2887561841450479E+00   6.2545881839832704E+00   6.2206058250199803E+00   6.1868080986314862E+00   6.1531940016741427E+00
   6.1197625364545596E+00   6.0865127107000108E+00   6.0534435375289810E+00   6.0205540354218572E+00   5.9878432281918119E+00
   5.9553101449558277E+00   5.9229538201058807E+00   5.8907732932802714E+00   5.8587676093351240E+00   5.8269358183160511E+00
   5.7952769754299380E+00   5.7637901410169121E+00   5.7324743805224507E+00   5.7013287644696424E+00   5.6703523684316002E+00
   5.6395442730040166E+00   5.6089035637778935E+00   5.5784293313123756E+00   5.5481206711077853E+00   5.5179766835787509E+00
   5.4879964740275273E+00   5.4581791526174221E+00   5.4285238343464011E+00   5.3990296390208119E+00   5.3696956912292535E+00
   5.3405211203166143E+00   5.3115050603582059E+00   5.2826466501340672E+00   5.2539450331034221E+00   5.2253993573792377E+00
   5.1970087757029386E+00   5.1687724454192638E+00   5.1406895284512713E+00   5.1127591912754360E+00   5.0849806048969253E+00
   5.0573529448249985E+00   5.0298753910485265E+00   5.0025471280116527E+00   4.9753673445895865E+00   4.9483352340645439E+00
   4.9214499941017751E+00   4.8947108267257846E+00   4.8681169382966063E+00   4.8416675394862914E+00   4.8153618452554428E+00
   4.7891990748299413E+00   4.7631784516777591E+00   4.7372992034859074E+00   4.7115605621375263E+00   4.6859617636890807E+00
   4.6605020483476762E+00   4.6351806604485226E+00   4.6099968484325000E+00   4.5849498648238534E+00   4.5600389662079985E+00
   4.5352634132094654E+00   4.5106224704699569E+00   4.4861154066265030E+00   4.4617414942897762E+00   4.4375000100224931E+00
   4.4133902343179416E+00   4.3894114515786171E+00   4.3655629500950051E+00   4.3418440220244303E+00   4.3182539633700694E+00
   4.2947920739600383E+00   4.2714576574266294E+00   4.2482500211856253E+00   4.2251684764157504E+00   4.2022123380382297E+00
   4.1793809246964440E+00   4.1566735587357151E+00   4.1340895661831922E+00   4.1116282767278474E+00   4.0892890237005775E+00
   4.0670711440544158E+00   4.0449739783448617E+00   4.0229968707102968E+00   4.0011391688525242E+00   3.9794002240173998E+00
   3.9577793909755954E+00   3.9362760280034230E+00   3.9148894968638106E+00   3.8936191627873460E+00   3.8724643944534334E+00
   3.8514245639715727E+00   3.8304990468626960E+00   3.8096872220406626E+00   3.7889884717937994E+00   3.7684021817665845E+00
   3.7479277409414054E+00   3.7275645416204166E+00   3.7073119794075220E+00   3.6871694531904082E+00   3.6671363651227309E+00
   3.6472121206063521E+00   3.6273961282736988E+00   3.6076877999702135E+00   3.5880865507368878E+00   3.5685917987929097E+00
   3.5492029655183912E+00   3.5299194754371941E+00   3.5107407561998509E+00   3.4916662385665815E+00   3.4726953563903851E+00
   3.4538275466002513E+00   3.4350622491844405E+00   3.4163989071738579E+00   3.3978369666255310E+00   3.3793758766061597E+00
   3.3610150891757762E+00   3.3427540593714649E+00   3.3245922451912029E+00   3.3065291075777687E+00   3.2885641104027354E+00
   3.2706967204505588E+00   3.2529264074027662E+00   3.2352526438222000E+00   3.2176749051373674E+00   3.2001926696268721E+00
   3.1828054184039329E+00   3.1655126354009746E+00   3.1483138073543100E+00   3.1312084237889177E+00   3.1141959770032845E+00
   3.0972759620543280E+00   3.0804478767424244E+00   3.0637112215964892E+00   3.0470654998591624E+00   3.0305102174720631E+00
   3.0140448830611133E+00   2.9976690079219748E+00   2.9813821060055221E+00   2.9651836939034353E+00   2.9490732908338360E+00
   2.9330504186270283E+00   2.9171146017113063E+00   2.9012653670988238E+00   2.8855022443715783E+00   2.8698247656674294E+00
   2.8542324656662266E+00   2.8387248815759851E+00   2.8233015531191614E+00   2.8079620225189879E+00   2.7927058344858775E+00
   2.7775325362039207E+00   2.7624416773174461E+00   2.7474328099176479E+00   2.7325054885292901E+00   2.7176592700974904E+00
   2.7028937139745715E+00   2.6882083819069686E+00   2.6736028380222367E+00   2.6590766488161104E+00   2.6446293831396321E+00
   2.6302606121863565E+00   2.6159699094796292E+00   2.6017568508599180E+00   2.5876210144722371E+00   2.5735619807536096E+00
   2.5595793324206295E+00   2.5456726544570718E+00   2.5318415341015661E+00   2.5180855608353601E+00   2.5044043263701208E+00
   2.4907974246358311E+00   2.4772644517687175E+00   2.4638050060992844E+00   2.4504186881403776E+00   2.4371051005753350E+00
   2.4238638482461896E+00   2.4106945381419407E+00   2.3975967793868955E+00   2.3845701832290538E+00   2.3716143630285886E+00
   2.3587289342463520E+00   2.3459135144324743E+00   2.3331677232150096E+00   2.3204911822886389E+00   2.3078835154034549E+00
   2.2953443483537774E+00   2.2828733089670665E+00   2.2704700270928586E+00   2.2581341345917911E+00   2.2458652653246731E+00
   2.2336630551416126E+00   2.2215271418712175E+00   2.2094571653098387E+00   2.1974527672108817E+00   2.1855135912741721E+00
   2.1736392831353859E+00   2.1618294903555246E+00   2.1500838624104559E+00   2.1384020506805150E+00   2.1267837084401502E+00
   2.1152284908476378E+00   2.1037360549348403E+00   2.0923060595970373E+00   2.0809381655827881E+00   2.0696320354838740E+00
   2.0583873337252774E+00   2.0472037265552219E+00   2.0360808820352689E+00   2.0250184700304623E+00   2.0140161621995354E+00
   2.0030736319851563E+00   1.9921905546042449E+00   1.9813666070383287E+00   1.9706014680239545E+00   1.9598948180431508E+00
   1.9492463393139530E+00   1.9386557157809652E+00   1.9281226331059760E+00   1.9176467786586371E+00   1.9072278415071795E+00
   1.8968655124091822E+00   1.8865594838024013E+00   1.8763094497956305E+00   1.8661151061596348E+00   1.8559761503181085E+00
   1.8458922813387040E+00   1.8358631999240962E+00   1.8258886084030941E+00   1.8159682107218178E+00   1.8061017124348955E+00
   1.7962888206967402E+00   1.7865292442528458E+00   1.7768226934311500E+00   1.7671688801334300E+00   1.7575675178267580E+00
   1.7480183215349949E+00   1.7385210078303248E+00   1.7290752948248551E+00   1.7196809021622390E+00   1.7103375510093619E+00
   1.7010449640480598E+00   1.6918028654668920E+00   1.6826109809529541E+00   1.6734690376837342E+00   1.6643767643190142E+00
   1.6553338909928235E+00   1.6463401493054226E+00   1.6373952723153367E+00   1.6284989945314361E+00   1.6196510519050555E+00
   1.6108511818221549E+00   1.6020991230955219E+00   1.5933946159570305E+00   1.5847374020499210E+00   1.5761272244211326E+00
   1.5675638275136836E+00   1.5590469571590764E+00   1.5505763605697647E+00   1.5421517863316381E+00   1.5337729843965711E+00
   1.5254397060749973E+00   1.5171517040285238E+00   1.5089087322625989E+00   1.5007105461192001E+00   1.4925569022695848E+00
   1.4844475587070536E+00   1.4763822747397817E+00   1.4683608109836666E+00   1.4603829293552228E+00   1.4524483930645207E+00
   1.4445569666081515E+00   1.4367084157622434E+00   1.4289025075755080E+00   1.4211390103623216E+00   1.4134176936958549E+00
   1.4057383284012304E+00   1.3981006865487218E+00   1.3905045414469868E+00   1.3829496676363406E+00   1.3754358408820653E+00
   1.3679628381677484E+00   1.3605304376886693E+00   1.3531384188452167E+00   1.3457865622363376E+00   1.3384746496530235E+00
   1.3312024640718412E+00   1.3239697896484832E+00   1.3167764117113667E+00   1.3096221167552586E+00   1.3025066924349418E+00
   1.2954299275589107E+00   1.2883916120831014E+00   1.2813915371046614E+00   1.2744294948557446E+00   1.2675052786973489E+00
   1.2606186831131778E+00   1.2537695037035481E+00   1.2469575371793142E+00   1.2401825813558425E+00   1.2334444351470051E+00
   1.2267428985592115E+00   1.2200777726854783E+00   1.2134488596995157E+00   1.2068559628498667E+00   1.2002988864540582E+00
   1.1937774358927991E+00   1.1872914176042022E+00   1.1808406390780362E+00   1.1744249088500172E+00   1.1680440364961191E+00
   1.1616978326269294E+00   1.1553861088820205E+00   1.1491086779243660E+00   1.1428653534347750E+00   1.1366559501063633E+00
   1.1304802836390568E+00   1.1243381707341140E+00   1.1182294290886943E+00   1.1121538773904402E+00   1.1061113353120997E+00
   1.1001016235061738E+00   1.0941245635995895E+00   1.0881799781884105E+00   1.0822676908325688E+00   1.0763875260506270E+00
   1.0705393093145763E+00   1.0647228670446465E+00   1.0589380266041597E+00   1.0531846162944096E+00   1.0474624653495570E+00
   1.0417714039315671E+00   1.0361112631251674E+00   1.0304818749328337E+00   1.0248830722698030E+00   1.0193146889591189E+00
   1.0137765597266915E+00   1.0082685201963970E+00   1.0027904068852020E+00   9.9734205719829983E-01   9.9192330942429985E-01
   9.8653400273041414E-01   9.8117397715769261E-01   9.7584307361626965E-01   9.7054113388064878E-01   9.6526800058499873E-01
   9.6002351721848767E-01   9.5480752812063696E-01   9.4961987847669826E-01   9.4446041431306516E-01   9.3932898249269492E-01
   9.3422543071056763E-01   9.2914960748916897E-01   9.2410136217398364E-01   9.1908054492903457E-01   9.1408700673243282E-01
   9.0912059937195056E-01   9.0418117544062504E-01   8.9926858833238488E-01   8.9438269223769562E-01   8.8952334213923234E-01
   8.8469039380757775E-01   8.7988370379693814E-01   8.7510312944089053E-01   8.7034852884814218E-01   8.6561976089832204E-01
   8.6091668523779541E-01   8.5623916227549246E-01   8.5158705317876537E-01   8.4696021986927472E-01   8.4235852501888264E-01
   8.3778183204558077E-01   8.3323000510943779E-01   8.2870290910856392E-01   8.2420040967510311E-01   8.1972237317124474E-01
   8.1526866668525555E-01   8.1083915802753914E-01   8.0643371572670630E-01   8.0205220902567675E-01   7.9769450787779606E-01
   7.9336048294297989E-01   7.8905000558386895E-01   7.8476294786201461E-01   7.8049918253408102E-01   7.7625858304806727E-01
   7.7204102353955462E-01   7.6784637882796514E-01   7.6367452441284989E-01   7.5952533647019571E-01   7.5539869184874187E-01
   7.5129446806633271E-01   7.4721254330628162E-01   7.4315279641374965E-01   7.3911510689215398E-01   7.3509935489959244E-01
   7.3110542124528177E-01   7.2713318738602384E-01   7.2318253542268496E-01   7.1925334809669716E-01   7.1534550878657976E-01
   7.1145890150447366E-01   7.0759341089270134E-01   7.0374892222034258E-01   6.9992532137982888E-01   6.9612249488355560E-01
   6.9234032986051619E-01   6.8857871405294802E-01   6.8483753581300222E-01   6.8111668409943216E-01   6.7741604847429282E-01
   6.7373551909966589E-01   6.7007498673439847E-01   6.6643434273086111E-01   6.6281347903172161E-01   6.5921228816674038E-01
   6.5563066324957664E-01   6.5206849797461797E-01   6.4852568661382692E-01   6.4500212401359536E-01   6.4149770559163333E-01
   6.3801232733385649E-01   6.3454588579130156E-01   6.3109827807705832E-01   6.2766940186321030E-01   6.2425915537780052E-01
   6.2086743740181061E-01   6.1749414726615526E-01   6.1413918484869323E-01   6.1080245057125915E-01   6.0748384539670164E-01
   6.0418327082594792E-01   6.0090062889508045E-01   5.9763582217242228E-01   5.9438875375565481E-01   5.9115932726893239E-01
   5.8794744686002676E-01   5.8475301719747819E-01   5.8157594346776920E-01   5.7841613137250603E-01   5.7527348712562210E-01
   5.7214791745059179E-01   5.6903932957766279E-01   5.6594763124110259E-01   5.6287273067645738E-01   5.5981453661782843E-01
   5.5677295829516471E-01   5.5374790543156482E-01   5.5073928824059892E-01   5.4774701742364251E-01   5.4477100416722546E-01
   5.4181116014039421E-01   5.3886739749209234E-01   5.3593962884854762E-01   5.3302776731068124E-01   5.3013172645152651E-01
   5.2725142031366234E-01   5.2438676340666379E-01   5.2153767070455903E-01   5.1870405764330796E-01   5.1588584011829153E-01
   5.1308293448181241E-01   5.1029525754061045E-01   5.0752272655339714E-01   5.0476525922839333E-01   5.0202277372088722E-01
   4.9929518863080630E-01   4.9658242300029587E-01   4.9388439631131698E-01   4.9120102848325720E-01   4.8853223987054650E-01
   4.8587795126029948E-01   4.8323808386995615E-01   4.8061255934494540E-01   4.7800129975635613E-01   4.7540422759862544E-01
   4.7282126578723238E-01   4.7025233765641072E-01   4.6769736695687142E-01   4.6515627785353608E-01   4.6262899492328730E-01
   4.6011544315272407E-01   4.5761554793593490E-01   4.5512923507228387E-01   4.5265643076420009E-01   4.5019706161499001E-01
   4.4775105462665621E-01   4.4531833719772534E-01   4.4289883712109218E-01   4.4049248258187629E-01   4.3809920215528292E-01
   4.3571892480448410E-01   4.3335157987850575E-01   4.3099709711012785E-01   4.2865540661379686E-01   4.2632643888354593E-01
   4.2401012479093109E-01   4.2170639558297407E-01   4.1941518288012081E-01   4.1713641867420409E-01   4.1487003532642658E-01
   4.1261596556534491E-01   4.1037414248487120E-01   4.0814449954228382E-01   4.0592697055624638E-01   4.0372148970484006E-01
   4.0152799152360580E-01   3.9934641090359652E-01   3.9717668308943893E-01   3.9501874367740952E-01   3.9287252861351463E-01
   3.9073797419158574E-01   3.8861501705138518E-01   3.8650359417671554E-01   3.8440364289354922E-01   3.8231510086815818E-01
   3.8023790610525976E-01   3.7817199694617160E-01   3.7611731206697269E-01   3.7407379047667916E-01   3.7204137151542604E-01
   3.7001999485266079E-01   3.6800960048534520E-01   3.6601012873616834E-01   3.6402152025176648E-01   3.6204371600095403E-01
   3.6007665727296573E-01   3.5812028567570336E-01   3.5617454313399555E-01   3.5423937188786625E-01   3.5231471449081025E-01
   3.5040051380808135E-01   3.4849671301498519E-01   3.4660325559518423E-01   3.4472008533901055E-01   3.4284714634178803E-01
   3.4098438300216172E-01   3.3913174002043911E-01   3.3728916239693535E-01   3.3545659543033174E-01   3.3363398471604078E-01
   3.3182127614457840E-01   3.3001841589994746E-01   3.2822535045802725E-01   3.2644202658497273E-01   3.2466839133562148E-01
   3.2290439205190946E-01   3.2114997636129344E-01   3.1940509217518309E-01   3.1766968768738213E-01   3.1594371137253230E-01
   3.1422711198457343E-01   3.1251983855520371E-01   3.1082184039235217E-01   3.0913306707865879E-01   3.0745346846995975E-01
   3.0578299469378278E-01   3.0412159614784939E-01   3.0246922349858496E-01   3.0082582767963523E-01   2.9919135989039258E-01
   2.9756577159452618E-01   2.9594901451852290E-01   2.9434104065023503E-01   2.9274180223743118E-01   2.9115125178636181E-01
   2.8956934206032436E-01   2.8799602607824032E-01   2.8643125711323736E-01   2.8487498869123995E-01   2.8332717458956408E-01
   2.8178776883552176E-01   2.8025672570503130E-01   2.7873399972123325E-01   2.7721954565311618E-01   2.7571331851414449E-01
   2.7421527356089642E-01   2.7272536629170885E-01   2.7124355244532533E-01   2.6976978799955220E-01   2.6830402916992446E-01
   2.6684623240837158E-01   2.6539635440189446E-01   2.6395435207124757E-01   2.6252018256962517E-01   2.6109380328135695E-01
   2.5967517182060651E-01   2.5826424603007847E-01   2.5686098397973056E-01   2.5546534396549031E-01   2.5407728450797945E-01
   2.5269676435124333E-01   2.5132374246148709E-01   2.4995817802581372E-01   2.4860003045097437E-01   2.4724925936211731E-01
   2.4590582460154675E-01   2.4456968622748645E-01   2.4324080451284688E-01   2.4191913994399958E-01   2.4060465321955624E-01
   2.3929730524915305E-01   2.3799705715223959E-01   2.3670387025687437E-01   2.3541770609852339E-01   2.3413852641886487E-01
   2.3286629316459984E-01   2.3160096848626519E-01   2.3034251473705353E-01   2.2909089447163736E-01   2.2784607044499705E-01
   2.2660800561125582E-01   2.2537666312251534E-01   2.2415200632769988E-01   2.2293399877140363E-01   2.2172260419273968E-01
   2.2051778652419810E-01   2.1931950989050558E-01   2.1812773860748852E-01   2.1694243718094197E-01   2.1576357030550311E-01
   2.1459110286352620E-01   2.1342499992396397E-01   2.1226522674125237E-01   2.1111174875419780E-01   2.0996453158487111E-01
   2.0882354103750111E-01   2.0768874309737609E-01   2.0656010392974578E-01   2.0543758987872845E-01   2.0432116746622120E-01
   2.0321080339081382E-01   2.0210646452670467E-01   2.0100811792262188E-01   1.9991573080074698E-01   1.9882927055564059E-01
   1.9774870475317274E-01   1.9667400112945574E-01   1.9560512758977947E-01   1.9454205220754997E-01   1.9348474322323181E-01
   1.9243316904329105E-01   1.9138729823914205E-01   1.9034709954609902E-01   1.8931254186232449E-01   1.8828359424778782E-01
   1.8726022592321892E-01   1.8624240626906918E-01   1.8523010482447308E-01   1.8422329128621073E-01   1.8322193550767515E-01
   1.8222600749783913E-01   1.8123547742022583E-01   1.8025031559188023E-01   1.7927049248234334E-01   1.7829597871262673E-01
   1.7732674505419041E-01   1.7636276242792187E-01   1.7540400190311448E-01   1.7445043469645222E-01   1.7350203217099033E-01
   1.7255876583514085E-01   1.7162060734165810E-01   1.7068752848662644E-01   1.6975950120844596E-01   1.6883649758682434E-01
   1.6791848984176444E-01   1.6700545033255668E-01   1.6609735155676944E-01   1.6519416614924132E-01   1.6429586688107534E-01
   1.6340242665863047E-01   1.6251381852251734E-01   1.6163001564659010E-01   1.6075099133694365E-01   1.5987671903090611E-01
   1.5900717229603523E-01   1.5814232482911225E-01   1.5728215045513677E-01   1.5642662312632283E-01   1.5557571692109162E-01
   1.5472940604306740E-01   1.5388766482007007E-01   1.5305046770310995E-01   1.5221778926537896E-01   1.5138960420124450E-01
   1.5056588732524120E-01   1.4974661357105964E-01   1.4893175799053904E-01   1.4812129575265418E-01   1.4731520214250476E-01
   1.4651345256030138E-01   1.4571602252035085E-01   1.4492288765004235E-01   1.4413402368882813E-01   1.4334940648720682E-01
   1.4256901200570193E-01   1.4179281631384197E-01   1.4102079558913477E-01   1.4025292611604406E-01   1.3948918428496249E-01
   1.3872954659118070E-01   1.3797398963385882E-01   1.3722249011499102E-01   1.3647502483837182E-01   1.3573157070855724E-01
   1.3499210472982473E-01   1.3425660400513173E-01   1.3352504573506910E-01   1.3279740721681507E-01   1.3207366584308292E-01
   1.3135379910106970E-01   1.3063778457139916E-01   1.2992559992706293E-01   1.2921722293235929E-01   1.2851263144182698E-01
   1.2781180339917869E-01   1.2711471683622830E-01   1.2642134987181752E-01   1.2573168071073698E-01   1.2504568764264534E-01
   1.2436334904098523E-01   1.2368464336189360E-01   1.2300954914311155E-01   1.2233804500288670E-01   1.2167010963887648E-01
   1.2100572182704343E-01   1.2034486042054905E-01   1.1968750434864413E-01   1.1903363261555268E-01   1.1838322429935562E-01
   1.1773625855086699E-01   1.1709271459250931E-01   1.1645257171718164E-01   1.1581580928712740E-01   1.1518240673279477E-01
   1.1455234355169522E-01   1.1392559930725732E-01   1.1330215362767562E-01   1.1268198620475772E-01   1.1206507679276470E-01
   1.1145140520724957E-01   1.1084095132389060E-01   1.1023369507732053E-01   1.0962961645995371E-01   1.0902869552080635E-01
   1.0843091236431623E-01   1.0783624714915500E-01   1.0724468008704093E-01   1.0665619144154415E-01   1.0607076152689078E-01
   1.0548837070676328E-01   1.0490899939309581E-01   1.0433262804486902E-01   1.0375923716689912E-01   1.0318880730862651E-01
   1.0262131906289869E-01   1.0205675306475323E-01   1.0149508999019709E-01   1.0093631055498314E-01   1.0038039551338582E-01
   9.9827325656973276E-02   9.9277081813380338E-02   9.8729644845077305E-02   9.8184995648139456E-02   9.7643115151015938E-02
   9.7103984313295671E-02   9.6567584124476871E-02   9.6033895602733121E-02   9.5502899793682497E-02   9.4974577769155272E-02
   9.4448910625965513E-02   9.3925879484682465E-02   9.3405465488404282E-02   9.2887649801535771E-02   9.2372413608567017E-02
   9.1859738112858191E-02   9.1349604535426468E-02   9.0841994113739083E-02   9.0336888100511423E-02   8.9834267762510273E-02
   8.9334114379366045E-02   8.8836409242389766E-02   8.8341133653400461E-02   8.7848268923559680E-02   8.7357796372217855E-02
   8.6869697325769185E-02   8.6383953116519391E-02   8.5900545081566054E-02   8.5419454561690644E-02   8.4940662900267819E-02
   8.4464151442187399E-02   8.3989901532795203E-02   8.3517894516849517E-02   8.3048111737498820E-02   8.2580534535278124E-02
   8.2115144247127028E-02   8.1651922205431535E-02   8.1190849737088622E-02   8.0731908162598426E-02   8.0275078795182031E-02
   7.9820342939929123E-02   7.9367681892975814E-02   7.8917076940714120E-02   7.8468509359036848E-02   7.8021960412616456E-02
   7.7577411354223191E-02   7.7134843424081334E-02   7.6694237849268737E-02   7.6255575843159298E-02   7.5818838604910843E-02
   7.5384007319002910E-02   7.4951063154822722E-02   7.4519987266306986E-02   7.4090760791636470E-02   7.3663364852990007E-02
   7.3237780556359364E-02   7.2813988991426312E-02   7.2391971231507188E-02   7.1971708333565323E-02   7.1553181338296842E-02
   7.1136371270290086E-02   7.0721259138264700E-02   7.0307825935391519E-02   6.9896052639697240E-02   6.9485920214557781E-02
   6.9077409609282464E-02   6.8670501759795194E-02   6.8265177589412793E-02   6.7861418009726948E-02   6.7459203921593575E-02
   6.7058516216230865E-02   6.6659335776433862E-02   6.6261643477906015E-02   6.5865420190715160E-02   6.5470646780874817E-02
   6.5077304112058837E-02   6.4685373047450784E-02   6.4294834451733229E-02   6.3905669193223491E-02   6.3517858146157236E-02
   6.3131382193127500E-02   6.2746222227681489E-02   6.2362359157082360E-02   6.1979773905237998E-02   6.1598447415804475E-02
   6.1218360655467194E-02   6.0839494617404899E-02   6.0461830324942539E-02   6.0085348835395895E-02   5.9710031244116037E-02
   5.9335858688734686E-02   5.8962812353618374E-02   5.8590873474535621E-02   5.8220023343540227E-02   5.7850243314078280E-02
   5.7481514806320542E-02   5.7113819312727972E-02   5.6747138403851240E-02   5.6381453734372582E-02   5.6016747049390976E-02
   5.5653000190956002E-02   5.5290195104855257E-02   5.4928313847656327E-02   5.4567338594010653E-02   5.4207251644218649E-02
   5.3848035432061583E-02   5.3489672532902800E-02   5.3132145672058810E-02   5.2775437733445077E-02   5.2419531768495557E-02
   5.2064411005359849E-02   5.1710058858376186E-02   5.1356458937823639E-02   5.1003595059951480E-02   5.0651451257285117E-02
   5.0300011789210029E-02   4.9949261152828564E-02   4.9599184094090788E-02   4.9249765619193933E-02   4.8900991006248451E-02
   4.8552845817206793E-02   4.8205315910048133E-02   4.7858387451215616E-02   4.7512046928297816E-02   4.7166281162948978E-02
   4.6821077324037307E-02   4.6476422941015248E-02   4.6132305917499616E-02   4.5788714545050652E-02   4.5445637517140113E-02
   4.5103063943292360E-02   4.4760983363387380E-02   4.4419385762108105E-02   4.4078261583518068E-02   4.3737601745749789E-02
   4.3397397655787776E-02   4.3057641224324671E-02   4.2718324880669810E-02   4.2379441587690095E-02   4.2040984856756933E-02
   4.1702948762677848E-02   4.1365327958584587E-02   4.1028117690752340E-02   4.0691313813322381E-02   4.0354912802896825E-02
   4.0018911772977700E-02   3.9683308488216537E-02   3.9348101378443849E-02   3.9013289552442411E-02   3.8678872811432070E-02
   3.8344851662228549E-02   3.8011227330039289E-02   3.7678001770861003E-02   3.7345177683436939E-02   3.7012758520738362E-02
   3.6680748500927139E-02   3.6349152617761053E-02   3.6017976650400775E-02   3.5687227172575324E-02   3.5356911561067093E-02
   3.5027038003471858E-02   3.4697615505195047E-02   3.4368653895639256E-02   3.4040163833544260E-02   3.3712156811437015E-02
   3.3384645159150683E-02   3.3057642046374729E-02   3.2731161484194325E-02   3.2405218325583379E-02   3.2079828264812482E-02
   3.1755007835737245E-02   3.1430774408933229E-02   3.1107146187643354E-02   3.0784142202509895E-02   3.0461782305059640E-02
   3.0140087159919494E-02   2.9819078235735073E-02   2.9498777794773782E-02   2.9179208881193117E-02   2.8860395307957337E-02
   2.8542361642392908E-02   2.8225133190370091E-02   2.7908735979107958E-02   2.7593196738598037E-02   2.7278542881649395E-02
   2.6964802482560453E-02   2.6652004254424839E-02   2.6340177525086394E-02   2.6029352211758287E-02   2.5719558794329616E-02
   2.5410828287382298E-02   2.5103192210949907E-02   2.4796682560050534E-02   2.4491331773032338E-02   2.4187172698774368E-02
   2.3884238562786868E-02   2.3582562932263913E-02   2.3282179680139882E-02   2.2983122948210900E-02   2.2685427109379822E-02
   2.2389126729092896E-02   2.2094256526035916E-02   2.1800851332161260E-02   2.1508946052123345E-02   2.1218575622197772E-02
   2.0929774968767412E-02   2.0642578966456476E-02   2.0357022395999007E-02   2.0073139901928785E-02   1.9790965950177732E-02
   1.9510534785674494E-02   1.9231880390031635E-02   1.8955036439415096E-02   1.8680036262684555E-02   1.8406912799898197E-02
   1.8135698561271871E-02   1.7866425586682003E-02   1.7599125405803363E-02   1.7333828998966468E-02   1.7070566758823107E-02
   1.6809368452901263E-02   1.6550263187132975E-02   1.6293279370432158E-02   1.6038444680398230E-02   1.5785786030218889E-02
   1.5535329536839072E-02   1.5287100490463387E-02   1.5041123325450583E-02   1.4797421592658759E-02   1.4556017933293025E-02
   1.4316934054302696E-02   1.4080190705373037E-02   1.3845807657547534E-02   1.3613803683516097E-02   1.3384196539595796E-02
   1.3157002949429092E-02   1.2932238589416542E-02   1.2709918075897253E-02   1.2490054954086038E-02   1.2272661688768715E-02
   1.2057749656755660E-02   1.1845329141084521E-02   1.1635409326962097E-02   1.1427998299428926E-02   1.1223103042724685E-02
   1.1020729441330885E-02   1.0820882282660014E-02   1.0623565261359330E-02   1.0428780985190553E-02   1.0236530982446788E-02
   1.0046815710860659E-02   9.8596345679581362E-03   9.6749859028074318E-03   9.4928670291099890E-03   9.3132742395798940E-03
   9.1362028215529953E-03   8.9616470737682967E-03   8.7896003242598168E-03   8.6200549492982653E-03   8.4530023933186357E-03
   8.2884331897699927E-03   8.1263369828237265E-03   7.9667025498742269E-03   7.8095178247685818E-03   7.6547699216987560E-03
   7.5024451596929333E-03   7.3525290876414696E-03   7.2050065097935684E-03   7.0598615116633529E-03   6.9170774862823492E-03
   6.7766371607394646E-03   6.6385226229482780E-03   6.5027153485854054E-03   6.3691962281431968E-03   6.2379455940428825E-03
   6.1089432477563332E-03   5.9821684868852183E-03   5.8576001321503576E-03   5.7352165542437243E-03   5.6149957004997574E-03
   5.4969151213439607E-03   5.3809519964782369E-03   5.2670831607663469E-03   5.1552851297832240E-03   5.0455341249958340E-03
   4.9378060985438271E-03   4.8320767575922331E-03   4.7283215882290407E-03   4.6265158788835340E-03   4.5266347432436202E-03
   4.4286531426514109E-03   4.3325459079599981E-03   4.2382877608344981E-03   4.1458533344839888E-03   4.0552171938122352E-03
   3.9663538549763455E-03   3.8792378043456498E-03   3.7938435168532645E-03   3.7101454737358177E-03   3.6281181796570575E-03
   3.5477361792140391E-03   3.4689740728243244E-03   3.3918065319954683E-03   3.3162083139785920E-03   3.2421542758087813E-03
   3.1696193877371361E-03   3.0985787460591622E-03   3.0290075853463294E-03   2.9608812900873858E-03   2.8941754057480030E-03
   2.8288656492571514E-03   2.7649279189297230E-03   2.7023383038357854E-03   2.6410730926267642E-03   2.5811087818302910E-03
   2.5224220836248265E-03   2.4649899331065880E-03   2.4087894950611259E-03   2.3537981702520614E-03   2.2999936012403476E-03
   2.2473536777468986E-03   2.1958565415723151E-03   2.1454805910867715E-03   2.0962044853041072E-03   2.0480071475533694E-03
   2.0008677687614849E-03   1.9547658103609769E-03   1.9096810068357918E-03   1.8655933679191529E-03   1.8224831804565076E-03
   1.7803310099469398E-03   1.7391177017762197E-03   1.6988243821541296E-03   1.6594324587691301E-03   1.6209236211725897E-03
   1.5832798409051590E-03   1.5464833713770402E-03   1.5105167475143156E-03   1.4753627851826435E-03   1.4410045803996483E-03
   1.4074255083472641E-03   1.3746092221944182E-03   1.3425396517408707E-03   1.3112010018921174E-03   1.2805777509753932E-03
   1.2506546489063984E-03   1.2214167152158496E-03   1.1928492369451121E-03   1.1649377664194127E-03   1.1376681189072210E-03
   1.1110263701737393E-03   1.0849988539365495E-03   1.0595721592307997E-03   1.0347331276912013E-03   1.0104688507579999E-03
   9.8676666681336172E-04   9.6361415825486842E-04   9.4099914851209388E-04   9.1890969901233779E-04   8.9733410610101812E-04
   8.7626089792228353E-04   8.5567883126490512E-04   8.3557688837835437E-04   8.1594427376390259E-04   7.9677041094501448E-04
   7.7804493922145547E-04   7.5975771041101475E-04   7.4189878558274930E-04   7.2445843178537946E-04   7.0742711877416688E-04
   6.9079551573966269E-04   6.7455448804124366E-04   6.5869509394844987E-04   6.4320858139270821E-04   6.2808638473211957E-04
   6.1332012153162048E-04   5.9890158936074650E-04   5.8482276261120436E-04   5.7107578933605235E-04   5.5765298811245184E-04
   5.4454684492957197E-04   5.3175001010328246E-04   5.1925529521907687E-04   5.0705567010450267E-04   4.9514425983241610E-04
   4.8351434175608078E-04   4.7215934257725534E-04   4.6107283544806618E-04   4.5024853710761234E-04   4.3968030505400627E-04
   4.2936213475249998E-04   4.1928815688037162E-04   4.0945263460898638E-04   3.9984996092357641E-04   3.9047465598105743E-04
   3.8132136450623417E-04   3.7238485322667314E-04   3.6366000834638670E-04   3.5514183305855932E-04   3.4682544509734043E-04
   3.3870607432884427E-04   3.3077906038127676E-04   3.2303985031423364E-04   3.1548399632706510E-04   3.0810715350618607E-04
   3.0090507761124986E-04   2.9387362289993248E-04   2.8700873999120373E-04   2.8030647376678472E-04   2.7376296131059800E-04
   2.6737442988588873E-04   2.6113719494972020E-04   2.5504765820454658E-04   2.4910230568647967E-04   2.4329770588994327E-04
   2.3763050792828137E-04   2.3209743972998759E-04   2.2669530627010811E-04   2.2142098783643261E-04   2.1627143833004812E-04
   2.1124368359979362E-04   2.0633481981021618E-04   2.0154201184253208E-04   1.9686249172818818E-04   1.9229355711450943E-04
   1.8783256976200564E-04   1.8347695407285402E-04   1.7922419565007030E-04   1.7507183988692642E-04   1.7101749058609793E-04
   1.6705880860809808E-04   1.6319351054849230E-04   1.5941936744343251E-04   1.5573420350303185E-04   1.5213589487208688E-04
   1.4862236841769693E-04   1.4519160054327938E-04   1.4184161602854314E-04   1.3857048689491658E-04   1.3537633129599220E-04
   1.3225731243251724E-04   1.2921163749146116E-04   1.2623755660873316E-04   1.2333336185506666E-04   1.2049738624465584E-04
   1.1772800276607724E-04   1.1502362343508550E-04   1.1238269836883304E-04   1.0980371488109398E-04   1.0728519659807942E-04
   1.0482570259441205E-04   1.0242382654887458E-04   1.0007819591950039E-04   9.7787471137631069E-05   9.5550344820537431E-05
   9.3365541002212821E-05   9.1231814381975370E-05   8.9147949590478494E-05   8.7112760472787812E-05   8.5125089388138949E-05
   8.3183806526027963E-05   8.1287809238290889E-05   7.9436021386807191E-05   7.7627392706509829E-05   7.5860898183350729E-05
   7.4135537446904114E-05   7.2450334177278852E-05   7.0804335526034956E-05   6.9196611550776036E-05   6.7626254663133808E-05
   6.6092379089828718E-05   6.4594120346520576E-05   6.3130634724167743E-05   6.1701098787597308E-05   6.0304708886028000E-05
   5.8940680675257412E-05   5.7608248651263697E-05   5.6306665694948315E-05   5.5035202627770802E-05   5.3793147778029205E-05
   5.2579806557529667E-05   5.1394501048420245E-05   5.0236569599940983E-05   4.9105366434866477E-05   4.8000261265418914E-05
   4.6920638918420725E-05   4.5865898969484426E-05   4.4835455386016649E-05   4.3828736178837333E-05   4.2845183062207822E-05
   4.1884251122072959E-05   4.0945408492323011E-05   4.0028136038883206E-05   3.9131927051450222E-05   3.8256286942690326E-05
   3.7400732954728359E-05   3.6564793872745473E-05   3.5748009745525022E-05   3.4949931612777258E-05   3.4170121239079743E-05
   3.3408150854278995E-05   3.2663602900195007E-05   3.1936069783483334E-05   3.1225153634498956E-05   3.0530466072027042E-05
   2.9851627973732116E-05   2.9188269252191163E-05   2.8540028636378961E-05   2.7906553458467377E-05   2.7287499445818278E-05
   2.6682530518038520E-05   2.6091318588977002E-05   2.5513543373546388E-05   2.4948892199247549E-05   2.4397059822288711E-05
   2.3857748248182969E-05   2.3330666556718605E-05   2.2815530731193989E-05   2.2312063491815588E-05   2.1819994133156694E-05
   2.1339058365576268E-05   2.0868998160506043E-05   2.0409561599506896E-05   1.9960502727005626E-05   1.9521581406620827E-05
   1.9092563180992472E-05   1.8673219135025842E-05   1.8263325762471351E-05   1.7862664835754452E-05   1.7471023278978069E-05
   1.7088193044021570E-05   1.6713970989656420E-05   1.6348158763609701E-05   1.5990562687499243E-05   1.5640993644571794E-05
   1.5299266970176970E-05   1.4965202344906418E-05   1.4638623690337133E-05   1.4319359067311525E-05   1.4007240576694366E-05
   1.3702104262544506E-05   1.3403790017643401E-05   1.3112141491322054E-05   1.2827005999529327E-05   1.2548234437088004E-05
   1.2275681192083496E-05   1.2009204062334982E-05   1.1748664173894886E-05   1.1493925901529855E-05   1.1244856791133033E-05
   1.1001327484020315E-05   1.0763211643064943E-05   1.0530385880624501E-05   1.0302729688217903E-05   1.0080125367906964E-05
   9.8624579653434497E-06   9.6496152044386483E-06   9.4414874236163731E-06   9.2379675136114296E-06   9.0389508567737153E-06
   8.8443352678431615E-06   8.6540209361577711E-06   8.4679103692601523E-06   8.2859083378690996E-06   8.1079218221809615E-06
   7.9338599594702249E-06   7.7636339929557074E-06   7.5971572219025784E-06   7.4343449529290373E-06   7.2751144524889044E-06
   7.1193849005010317E-06   6.9670773450966982E-06   6.8181146584591931E-06   6.6724214937272402E-06   6.5299242429372712E-06
   6.3905509959784430E-06   6.2542315005365637E-06   6.1208971230012671E-06   5.9904808103145772E-06   5.8629170527364365E-06
   5.7381418475053441E-06   5.6160926633727721E-06   5.4967084059886705E-06   5.3799293841188478E-06   5.2656972766726205E-06
   5.1539551005214821E-06   5.0446471790899406E-06   4.9377191116985156E-06   4.8331177436419333E-06   4.7307911369834143E-06
   4.6306885420483577E-06   4.5327603695998956E-06   4.4369581636801573E-06   4.3432345751007909E-06   4.2515433355666109E-06
   4.1618392324177682E-06   4.0740780839745824E-06   3.9882167154708859E-06   3.9042129355612566E-06   3.8220255133885295E-06
   3.7416141561977627E-06   3.6629394874832525E-06   3.5859630256560076E-06   3.5106471632186598E-06   3.4369551464360238E-06
   3.3648510554885658E-06   3.2942997850978792E-06   3.2252670256120490E-06   3.1577192445400854E-06   3.0916236685247277E-06
   3.0269482657424619E-06   2.9636617287211030E-06   2.9017334575642360E-06   2.8411335435729827E-06   2.7818327532556488E-06
