DATE: 2024-04-03 UNITS: metal CONTRIBUTOR: Xiaowang Zhou xzhou@sandia.gov, Lucas Hale lucas.hale@nist.gov, and Germain Clavier g.m.g.c.clavier@tue.nl/germain.clavier@gmail.com
 CITATION: X. W. Zhou, R. A. Johnson, H. N. G. Wadley, Phys. Rev. B, 69, 144113(2004)
Generated by create_eam.py
1     Au                      
2000  5.0785667922446286e-02   2000  3.2271796605293293e-03   6.4511321413981291e+00  
   79       196.96654         4.08005      fcc
   0.0000000000000000E+00  -1.8525144959105067E-02  -3.6977028835336267E-02  -5.5355785453085726E-02  -7.3661548636745011E-02
  -9.1894452210708022E-02  -1.1005462999936633E-01  -1.2814221582711283E-01  -1.4615734351833953E-01  -1.6410014689743968E-01
  -1.8197075978880517E-01  -1.9976931601682824E-01  -2.1749594940590233E-01  -2.3515079378041892E-01  -2.5273398296477068E-01
  -2.7024565078335094E-01  -2.8768593106055107E-01  -3.0505495762076384E-01  -3.2235286428838172E-01  -3.3957978488779772E-01
  -3.5673585324340396E-01  -3.7382120317959244E-01  -3.9083596852075675E-01  -4.0778028309128811E-01  -4.2465428071557987E-01
  -4.4145809521802404E-01  -4.5819186042301385E-01  -4.7485571015494077E-01  -4.9144977823819758E-01  -5.0797419849717707E-01
  -5.2442910475627180E-01  -5.4081463083987336E-01  -5.5713091057237552E-01  -5.7337807777816929E-01  -5.8955626628164870E-01
  -6.0566560990720519E-01  -6.2170624247923145E-01  -6.3767829782211960E-01  -6.5358190976026365E-01  -6.6941721211805372E-01
  -6.8518433871988382E-01  -7.0088342339014631E-01  -7.1651459995323385E-01  -7.3207800223353803E-01  -7.4757376405545195E-01
  -7.6300201924336786E-01  -7.7836290162167876E-01  -7.9365654501477667E-01  -8.0888308324705349E-01  -8.2404265014290312E-01
  -8.3913537952671646E-01  -8.5416140522288730E-01  -8.6912086105580777E-01  -8.8401388084986943E-01  -8.9884059842946540E-01
  -9.1360114761898947E-01  -9.2829566224283167E-01  -9.4292427612538587E-01  -9.5748712309104467E-01  -9.7198433696420028E-01
  -9.8641605156924483E-01  -1.0007824007305719E+00  -1.0150835182725724E+00  -1.0293195380196394E+00  -1.0434905937961654E+00
  -1.0575968194265435E+00  -1.0716383487351659E+00  -1.0856153155464243E+00  -1.0995278536847117E+00  -1.1133760969744215E+00
  -1.1271601792399446E+00  -1.1408802343056741E+00  -1.1545363959960033E+00  -1.1681287981353232E+00  -1.1816575745480269E+00
  -1.1951228590585079E+00  -1.2085247854911567E+00  -1.2218634876703671E+00  -1.2351390994205320E+00  -1.2483517545660421E+00
  -1.2615015869312913E+00  -1.2745887303406727E+00  -1.2876133186185763E+00  -1.3005754855893970E+00  -1.3134753650775259E+00
  -1.3263130909073555E+00  -1.3390887969032799E+00  -1.3518026168896899E+00  -1.3644546846909780E+00  -1.3770451341315380E+00
  -1.3895740990357608E+00  -1.4020417132280394E+00  -1.4144481105327675E+00  -1.4267934247743355E+00  -1.4390777897771372E+00
  -1.4513013393655652E+00  -1.4634642073640109E+00  -1.4755665275968675E+00  -1.4876084338885280E+00  -1.4995900600633836E+00
  -1.5115115399458279E+00  -1.5233730073602532E+00  -1.5351745961310510E+00  -1.5469164400826150E+00  -1.5585986730393371E+00
  -1.5702214288256096E+00  -1.5817848412658257E+00  -1.5932890441843766E+00  -1.6047341714056560E+00  -1.6161203567540565E+00
  -1.6274477340539693E+00  -1.6387164371297875E+00  -1.6499265998059045E+00  -1.6610783559067110E+00  -1.6721718392566005E+00
  -1.6832071836799660E+00  -1.6941845230011987E+00  -1.7051039910446923E+00  -1.7159657216348387E+00  -1.7267698485960301E+00
  -1.7375165057526596E+00  -1.7482058269291194E+00  -1.7588379459498014E+00  -1.7694129966390992E+00  -1.7799311128214046E+00
  -1.7903924283211090E+00  -1.8007970769626076E+00  -1.8111451925702906E+00  -1.8214369089685507E+00  -1.8316723599817817E+00
  -1.8418516794343751E+00  -1.8519750011507230E+00  -1.8620424589552189E+00  -1.8720541866722549E+00  -1.8820103181262224E+00
  -1.8919109871415156E+00  -1.9017563275425258E+00  -1.9115464731536465E+00  -1.9212815577992688E+00  -1.9309617153037859E+00
  -1.9405870794915909E+00  -1.9501577841870756E+00  -1.9596739632146318E+00  -1.9691357503986535E+00  -1.9785432795635318E+00
  -1.9878966845336596E+00  -1.9971960991334305E+00  -2.0064416571872359E+00  -2.0156334925194672E+00  -2.0247717389545192E+00
  -2.0338565303167835E+00  -2.0428880004306511E+00  -2.0518662831205163E+00  -2.0607915122107707E+00  -2.0696638215258072E+00
  -2.0784833448900186E+00  -2.0872502161277962E+00  -2.0959645690635340E+00  -2.1046265375216229E+00  -2.1132362553264565E+00
  -2.1217938563024261E+00  -2.1302994742739259E+00  -2.1387532430653473E+00  -2.1471552965010825E+00  -2.1555057684055243E+00
  -2.1638047926030661E+00  -2.1720525029180990E+00  -2.1802490331750159E+00  -2.1883945171982102E+00  -2.1964890888120729E+00
  -2.2045328818409970E+00  -2.2125260301093759E+00  -2.2204686674416005E+00  -2.2283609276620644E+00  -2.2362029445951599E+00
  -2.2439948520652790E+00  -2.2517367838968143E+00  -2.2594288739141590E+00  -2.2670712559417052E+00  -2.2746640638038453E+00
  -2.2822074313249709E+00  -2.2897014923294754E+00  -2.2971463806417520E+00  -2.3045422300861915E+00  -2.3118891744871872E+00
  -2.3191873476691329E+00  -2.3264368834564184E+00  -2.3336379156734379E+00  -2.3407905781445839E+00  -2.3478950046942479E+00
  -2.3549513291468229E+00  -2.3619596853267022E+00  -2.3689202070582769E+00  -2.3758330281659408E+00  -2.3826982824740841E+00
  -2.3895161038071024E+00  -2.3962866259893856E+00  -2.4030099828453282E+00  -2.4096863081993205E+00  -2.4163157358757572E+00
  -2.4228983996990294E+00  -2.4294344334935296E+00  -2.4359239710836511E+00  -2.4423671462937855E+00  -2.4487640929483256E+00
  -2.4551149448716640E+00  -2.4614198358881931E+00  -2.4676788998223049E+00  -2.4738922704983928E+00  -2.4800600817408487E+00
  -2.4861824673740651E+00  -2.4922595612224345E+00  -2.4982914971103498E+00  -2.5042784088622030E+00  -2.5102204303023861E+00
  -2.5161176952552924E+00  -2.5219703375453149E+00  -2.5277784909968446E+00  -2.5335422894342745E+00  -2.5392618666819979E+00
  -2.5449373565644060E+00  -2.5505688929058925E+00  -2.5561566095308490E+00  -2.5617006402636679E+00  -2.5672011189287427E+00
  -2.5726581793504644E+00  -2.5780719553532276E+00  -2.5834425807614223E+00  -2.5887701893994421E+00  -2.5940549150916805E+00
  -2.5992968916625281E+00  -2.6044962529363782E+00  -2.6096531327376238E+00  -2.6147676648906573E+00  -2.6198399832198698E+00
  -2.6248702215496555E+00  -2.6298585137044062E+00  -2.6348049935085136E+00  -2.6397097947863712E+00  -2.6445730513623711E+00
  -2.6493948970609065E+00  -2.6541754657063685E+00  -2.6589148911231502E+00  -2.6636133071356447E+00  -2.6682708475682442E+00
  -2.6728876462453401E+00  -2.6774638369913260E+00  -2.6819995536305945E+00  -2.6864949299875369E+00  -2.6909500998865470E+00
  -2.6953651971520167E+00  -2.6997403556083381E+00  -2.7040757090799041E+00  -2.7083713913911076E+00  -2.7126275363663401E+00
  -2.7168442778299946E+00  -2.7210217496064635E+00  -2.7251600855201401E+00  -2.7292594193954152E+00  -2.7333198850566824E+00
  -2.7373416163283344E+00  -2.7413247470347630E+00  -2.7452694110003604E+00  -2.7491757420495198E+00  -2.7530438740066341E+00
  -2.7568739406960949E+00  -2.7606660759422943E+00  -2.7644204135696260E+00  -2.7681370874024815E+00  -2.7718162312652534E+00
  -2.7754579789823350E+00  -2.7790624643781183E+00  -2.7826298212769953E+00  -2.7861601835033585E+00  -2.7896536848816016E+00
  -2.7931104592361158E+00  -2.7965306403912931E+00  -2.7999143621715272E+00  -2.8032617584012116E+00  -2.8065729629047360E+00
  -2.8098481095064947E+00  -2.8130873320308800E+00  -2.8162907643022836E+00  -2.8194585401450989E+00  -2.8225907933837178E+00
  -2.8256876578425327E+00  -2.8287492673459362E+00  -2.8317757557183212E+00  -2.8347672567840805E+00  -2.8377239043676052E+00
  -2.8406458322932884E+00  -2.8435331743855237E+00  -2.8463860644687018E+00  -2.8492046363672157E+00  -2.8519890239054586E+00
  -2.8547393609078227E+00  -2.8574557811986994E+00  -2.8601384186024825E+00  -2.8627874069435646E+00  -2.8654028800463367E+00
  -2.8679849717351926E+00  -2.8705338158345244E+00  -2.8730495461687244E+00  -2.8755322965621852E+00  -2.8779822008392992E+00
  -2.8803993928244598E+00  -2.8827840063420576E+00  -2.8851361752164864E+00  -2.8874560332721386E+00  -2.8897437143334064E+00
  -2.8919993522246821E+00  -2.8942230807703586E+00  -2.8964150337948280E+00  -2.8985753451224832E+00  -2.9007041485777161E+00
  -2.9028015779849201E+00  -2.9048677671684868E+00  -2.9069028499528087E+00  -2.9089069601622790E+00  -2.9108802316212889E+00
  -2.9128227981542323E+00  -2.9147347935855015E+00  -2.9166163517394881E+00  -2.9184676064405846E+00  -2.9202886915131843E+00
  -2.9220797407816788E+00  -2.9238408880704623E+00  -2.9255722672039246E+00  -2.9272740120064604E+00  -2.9289462563024617E+00
  -2.9305891339163201E+00  -2.9322027786724281E+00  -2.9337873243951793E+00  -2.9353429049089654E+00  -2.9368696540381793E+00
  -2.9383676216100465E+00  -2.9398370982525135E+00  -2.9412781139017139E+00  -2.9426907801773647E+00  -2.9440752086991835E+00
  -2.9454315110868863E+00  -2.9467597989601910E+00  -2.9480601839388143E+00  -2.9493327776424731E+00  -2.9505776916908850E+00
  -2.9517950377037661E+00  -2.9529849273008342E+00  -2.9541474721018055E+00  -2.9552827837263980E+00  -2.9563909737943281E+00
  -2.9574721539253130E+00  -2.9585264357390697E+00  -2.9595539308553152E+00  -2.9605547508937660E+00  -2.9615290074741401E+00
  -2.9624768122161536E+00  -2.9633982767395244E+00  -2.9642935126639691E+00  -2.9651626316092043E+00  -2.9660057451949471E+00
  -2.9668229650409152E+00  -2.9676144027668259E+00  -2.9683801699923946E+00  -2.9691203783373399E+00  -2.9698351394213778E+00
  -2.9705245648642258E+00  -2.9711887662856009E+00  -2.9718278553052198E+00  -2.9724419435428002E+00  -2.9730311426180580E+00
  -2.9735955641507115E+00  -2.9741353197604763E+00  -2.9746505210670713E+00  -2.9751412796902117E+00  -2.9756077072496154E+00
  -2.9760499153649995E+00  -2.9764680156560805E+00  -2.9768621197425755E+00  -2.9772323392442019E+00  -2.9775787857806768E+00
  -2.9779015709717171E+00  -2.9782008064370391E+00  -2.9784766037963606E+00  -2.9787290746693982E+00  -2.9789583306758698E+00
  -2.9791644834354911E+00  -2.9793476445679801E+00  -2.9795079256930532E+00  -2.9796454384304276E+00  -2.9797602943998212E+00
  -2.9798526052209491E+00  -2.9799224825135298E+00  -2.9799700378972802E+00  -2.9799953829919170E+00  -2.9799986294171572E+00
  -2.9799798887927178E+00  -2.9799392727383163E+00  -2.9798768928736696E+00  -2.9797928608184936E+00  -2.9796872881925065E+00
  -2.9795602866154254E+00  -2.9794119677069664E+00  -2.9792424430868469E+00  -2.9790518243747841E+00  -2.9788402231904954E+00
  -2.9786077511536972E+00  -2.9783545198841064E+00  -2.9780806410014402E+00  -2.9777862261254162E+00  -2.9774713868757510E+00
  -2.9771362348721611E+00  -2.9767808817343644E+00  -2.9764054390820776E+00  -2.9760100185350167E+00  -2.9755947317129006E+00
  -2.9751596902354449E+00  -2.9747050057223672E+00  -2.9742307897933840E+00  -2.9737371540682132E+00  -2.9732242101665709E+00
  -2.9726920697081751E+00  -2.9721408443127415E+00  -2.9715706455999884E+00  -2.9709815851896320E+00  -2.9703737747013896E+00
  -2.9697473257549785E+00  -2.9691023499701150E+00  -2.9684389589665168E+00  -2.9677572643639007E+00  -2.9670573777819835E+00
  -2.9663394108404821E+00  -2.9656034751591145E+00  -2.9648496823575967E+00  -2.9640781440556458E+00  -2.9632889718729793E+00
  -2.9624822774293142E+00  -2.9616581723443671E+00  -2.9608167682378550E+00  -2.9599581767294953E+00  -2.9590825094390047E+00
  -2.9581898779861007E+00  -2.9572803939904997E+00  -2.9563541690719193E+00  -2.9554113148500760E+00  -2.9544519429446869E+00
  -2.9534761649754695E+00  -2.9524840925621403E+00  -2.9514758373244163E+00  -2.9504515108820146E+00  -2.9494112248546527E+00
  -2.9483550908620471E+00  -2.9472832205239148E+00  -2.9461957254599729E+00  -2.9450928456484156E+00  -2.9439727196749974E+00
  -2.9428351102301367E+00  -2.9416800541220987E+00  -2.9405075880011409E+00  -2.9393177483605313E+00  -2.9381105715375639E+00
  -2.9368860937145675E+00  -2.9356443509198940E+00  -2.9343853790289134E+00  -2.9331092137649897E+00  -2.9318158907004515E+00
  -2.9305054452575567E+00  -2.9291779127094446E+00  -2.9278333281810833E+00  -2.9264717266502105E+00  -2.9250931429482585E+00
  -2.9236976117612796E+00  -2.9222851676308648E+00  -2.9208558449550410E+00  -2.9194096779891821E+00  -2.9179467008468931E+00
  -2.9164669475008949E+00  -2.9149704517839061E+00  -2.9134572473895100E+00  -2.9119273678730142E+00  -2.9103808466523140E+00
  -2.9088177170087315E+00  -2.9072380120878636E+00  -2.9056417649004151E+00  -2.9040290083230245E+00  -2.9023997750990849E+00
  -2.9007540978395618E+00  -2.8990920090237959E+00  -2.8974135410003092E+00  -2.8957187259875927E+00  -2.8940075960749003E+00
  -2.8922801832230274E+00  -2.8905365192650869E+00  -2.8887766359072797E+00  -2.8870005647296555E+00  -2.8852083371868682E+00
  -2.8833999846089324E+00  -2.8815755382019614E+00  -2.8797350290489097E+00  -2.8778784881103068E+00  -2.8760059462249781E+00
  -2.8741174341107745E+00  -2.8722129823652822E+00  -2.8702926214665339E+00  -2.8683563817737152E+00  -2.8664042935278600E+00
  -2.8644363868525478E+00  -2.8624526917545845E+00  -2.8604532381246948E+00  -2.8584380557381919E+00  -2.8564071742556520E+00
  -2.8543606232235783E+00  -2.8522984320750684E+00  -2.8502206301304644E+00  -2.8481272465980068E+00  -2.8460183105744821E+00
  -2.8438938510458622E+00  -2.8417538968879383E+00  -2.8395984768669598E+00  -2.8374276196402550E+00  -2.8352413537568517E+00
  -2.8330397076580991E+00  -2.8308227096782774E+00  -2.8285903880452077E+00  -2.8263427708808524E+00  -2.8240798862019134E+00
  -2.8218017619204296E+00  -2.8195084258443655E+00  -2.8171999056781947E+00  -2.8148762290234797E+00  -2.8125374233794531E+00
  -2.8101835161435837E+00  -2.8078145346121492E+00  -2.8054305059807980E+00  -2.8030314573451078E+00  -2.8006174157011401E+00
  -2.7981884079459953E+00  -2.7957444608783573E+00  -2.7932856011990332E+00  -2.7908118555114978E+00  -2.7883232503224273E+00
  -2.7858198120422264E+00  -2.7833015669855623E+00  -2.7807685413718812E+00  -2.7782207613259335E+00  -2.7756582528782849E+00
  -2.7730810419658325E+00  -2.7704891544323091E+00  -2.7678826160287922E+00  -2.7652614524142023E+00  -2.7626256891557981E+00
  -2.7599753517296755E+00  -2.7573104655212535E+00  -2.7546310558257638E+00  -2.7519371478487313E+00  -2.7492287667064570E+00
  -2.7465059374264897E+00  -2.7437686849481042E+00  -2.7410170341227666E+00  -2.7382510097146029E+00  -2.7354706364008621E+00
  -2.7326759387723740E+00  -2.7298669413340075E+00  -2.7270436685051203E+00  -2.7242061446200148E+00  -2.7213543939283795E+00
  -2.7184884405957339E+00  -2.7156083087038732E+00  -2.7127140222512991E+00  -2.7098056051536581E+00  -2.7068830812441740E+00
  -2.7039464742740726E+00  -2.7009958079130096E+00  -2.6980311057494957E+00  -2.6950523912913087E+00  -2.6920596879659171E+00
  -2.6890530191208906E+00  -2.6860324080243116E+00  -2.6829978778651844E+00  -2.6799494517538389E+00  -2.6768871527223350E+00
  -2.6738110037248601E+00  -2.6707210276381268E+00  -2.6676172472617696E+00  -2.6644996853187330E+00  -2.6613683644556643E+00
  -2.6582233072432957E+00  -2.6550645361768326E+00  -2.6518920736763305E+00  -2.6487059420870778E+00  -2.6455061636799666E+00
  -2.6422927606518729E+00  -2.6390657551260204E+00  -2.6358251691523562E+00  -2.6325710247079122E+00  -2.6293033436971687E+00
  -2.6260221479524177E+00  -2.6227274592341212E+00  -2.6194192992312657E+00  -2.6160976895617205E+00  -2.6127626517725853E+00
  -2.6094142073405400E+00  -2.6060523776721944E+00  -2.6026771841044316E+00  -2.5992886479047490E+00  -2.5958867902716021E+00
  -2.5924716323347372E+00  -2.5890431951555346E+00  -2.5856014997273342E+00  -2.5821465669757750E+00  -2.5786784177591167E+00
  -2.5751970728685731E+00  -2.5717025530286337E+00  -2.5681948788973874E+00  -2.5646740710668441E+00  -2.5611401500632525E+00
  -2.5575931363474180E+00  -2.5540330503150179E+00  -2.5504599122969087E+00  -2.5468737425594452E+00  -2.5432745613047834E+00
  -2.5396623886711898E+00  -2.5360372447333428E+00  -2.5323991495026408E+00  -2.5287481229275000E+00  -2.5250841848936498E+00
  -2.5214073552244383E+00  -2.5177176536811201E+00  -2.5140150999631534E+00  -2.5102997137084908E+00  -2.5065715144938685E+00
  -2.5028305218350932E+00  -2.4990767551873301E+00  -2.4953102339453852E+00  -2.4915309774439915E+00  -2.4877390049580832E+00
  -2.4839343357030823E+00  -2.4801169888351682E+00  -2.4762869834515593E+00  -2.4724443385907824E+00  -2.4685890732329470E+00
  -2.4647212063000183E+00  -2.4608407566560784E+00  -2.4569477431076012E+00  -2.4530421844037131E+00  -2.4491240992364567E+00
  -2.4451935062410568E+00  -2.4412504239961770E+00  -2.4372948710241817E+00  -2.4333268657913885E+00  -2.4293464267083329E+00
  -2.4253535721300095E+00  -2.4213483203561394E+00  -2.4173306896314082E+00  -2.4133006981457261E+00  -2.4092583640344678E+00
  -2.4052037053787267E+00  -2.4011367402055499E+00  -2.3970574864881953E+00  -2.3929659621463593E+00  -2.3888621850464293E+00
  -2.3847461730017168E+00  -2.3806179437726964E+00  -2.3764775150672421E+00  -2.3723249045408648E+00  -2.3681601297969408E+00
  -2.3639832083869483E+00  -2.3597941578106973E+00  -2.3555929955165578E+00  -2.3513797389016897E+00  -2.3471544053122670E+00
  -2.3429170120437055E+00  -2.3386675763408857E+00  -2.3344061153983775E+00  -2.3301326463606582E+00  -2.3258471863223336E+00
  -2.3215497523283593E+00  -2.3172403613742572E+00  -2.3129190304063285E+00  -2.3085857763218751E+00  -2.3042406159694053E+00
  -2.2998835661488553E+00  -2.2955146436117917E+00  -2.2911338650616262E+00  -2.2867412471538273E+00  -2.2823368064961205E+00
  -2.2779205596487015E+00  -2.2734925231244367E+00  -2.2690527133890703E+00  -2.2646011468614251E+00  -2.2601378399136061E+00
  -2.2556628088711985E+00  -2.2511760700134711E+00  -2.2466776395735697E+00  -2.2421675337387166E+00  -2.2376457686504101E+00
  -2.2331123604046108E+00  -2.2285673250519435E+00  -2.2240106785978866E+00  -2.2194424370029631E+00  -2.2148626161829310E+00
  -2.2102712320089744E+00  -2.2056683003078921E+00  -2.2010538368622812E+00  -2.1964278574107281E+00  -2.1917903776479895E+00
  -2.1871414132251803E+00  -2.1824809797499518E+00  -2.1778090927866791E+00  -2.1731257678566398E+00  -2.1684310204381925E+00
  -2.1637248659669592E+00  -2.1590073198359998E+00  -2.1542783973959900E+00  -2.1495381139554004E+00  -2.1447864847806675E+00
  -2.1400235250963715E+00  -2.1352492500854052E+00  -2.1304636748891519E+00  -2.1256668146076474E+00  -2.1208586842997628E+00
  -2.1160392989833623E+00  -2.1112086736354780E+00  -2.1063668231924768E+00  -2.1015137625502263E+00  -2.0966495065642587E+00
  -2.0917740700499365E+00  -2.0868874677826192E+00  -2.0819897144978241E+00  -2.0770808248913859E+00  -2.0721608136196208E+00
  -2.0672296952994893E+00  -2.0622874845087495E+00  -2.0573341957861198E+00  -2.0523698436314355E+00  -2.0473944425058077E+00
  -2.0424080068317747E+00  -2.0374105509934619E+00  -2.0324020893367334E+00  -2.0273826361693468E+00  -2.0223522057611070E+00
  -2.0173108123440127E+00  -2.0122584701124171E+00  -2.0071951932231666E+00  -2.0021209957957602E+00  -1.9970358919124929E+00
  -1.9919398956186039E+00  -1.9868330209224252E+00  -1.9817152817955299E+00  -1.9765866921728705E+00  -1.9714472659529316E+00
  -1.9662970169978702E+00  -1.9611359591336588E+00  -1.9559641061502284E+00  -1.9507814718016117E+00  -1.9455880698060803E+00
  -1.9403839138462911E+00  -1.9351690175694185E+00  -1.9299433945872981E+00  -1.9247070584765640E+00  -1.9194600227787866E+00
  -1.9142023010006051E+00  -1.9089339066138700E+00  -1.9036548530557735E+00  -1.8983651537289850E+00  -1.8930648220017865E+00
  -1.8877538712082018E+00  -1.8824323146481365E+00  -1.8771001655875021E+00  -1.8717574372583470E+00  -1.8664041428589961E+00
  -1.8610402955541692E+00  -1.8556659084751186E+00  -1.8502809947197512E+00  -1.8448855673527604E+00  -1.8394796394057509E+00
  -1.8340632238773673E+00  -1.8286363337334166E+00  -1.8231989819069994E+00  -1.8177511812986253E+00  -1.8122929447763461E+00
  -1.8068242851758711E+00  -1.8013452153006955E+00  -1.7958557479222215E+00  -1.7903558957798749E+00  -1.7848456715812331E+00
  -1.7793250880021392E+00  -1.7737941576868261E+00  -1.7682528932480306E+00  -1.7627013072671147E+00  -1.7571394122941872E+00
  -1.7515672208482118E+00  -1.7459847454171313E+00  -1.7403919984579799E+00  -1.7347889923970004E+00  -1.7291757396297571E+00
  -1.7235522525212537E+00  -1.7179185434060418E+00  -1.7122746245883382E+00  -1.7066205083421375E+00  -1.7009562069113178E+00
  -1.6952817325097622E+00  -1.6895970973214638E+00  -1.6839023135006339E+00  -1.6781973931718182E+00  -1.6724823484299995E+00
  -1.6667571913407113E+00  -1.6610219339401435E+00  -1.6552765882352523E+00  -1.6495211662038645E+00  -1.6437556797947848E+00
  -1.6379801409279062E+00  -1.6321945614943063E+00  -1.6263989533563621E+00  -1.6205933283478486E+00  -1.6147776982740472E+00
  -1.6089520749118436E+00  -1.6031164700098364E+00  -1.5972708952884360E+00  -1.5914153624399665E+00  -1.5855498831287715E+00
  -1.5796744689913096E+00  -1.5737891316362598E+00  -1.5678938826446196E+00  -1.5619887335698013E+00  -1.5560736959377364E+00
  -1.5501487812469721E+00  -1.5442140009687688E+00  -1.5382693665471985E+00  -1.5323148893992420E+00  -1.5263505809148881E+00
  -1.5203764524572196E+00  -1.5143925153625275E+00  -1.5083987809403876E+00  -1.5023952604737685E+00  -1.4963819652191179E+00
  -1.4903589064064648E+00  -1.4843260952395014E+00  -1.4782835428956886E+00  -1.4722312605263423E+00  -1.4661692592567237E+00
  -1.4600975501861388E+00  -1.4540161443880215E+00  -1.4479250529100274E+00  -1.4418242867741302E+00  -1.4357138569766987E+00
  -1.4295937744886040E+00  -1.4234640502552909E+00  -1.4173246951968803E+00  -1.4111757202082498E+00  -1.4050171361591257E+00
  -1.3988489538941689E+00  -1.3926711842330628E+00  -1.3864838379705990E+00  -1.3802869258767654E+00  -1.3740804586968316E+00
  -1.3678644471514343E+00  -1.3616389019366602E+00  -1.3554038337241361E+00  -1.3491592531611079E+00  -1.3429051708705304E+00
  -1.3366415974511432E+00  -1.3303685434775601E+00  -1.3240860195003525E+00  -1.3177940360461260E+00  -1.3114926036176093E+00
  -1.3051817326937289E+00  -1.2988614337297004E+00  -1.2925317171570965E+00  -1.2861925933839387E+00  -1.2798440727947742E+00
  -1.2734861657507504E+00  -1.2671188825897057E+00  -1.2607422336262362E+00  -1.2543562291517829E+00  -1.2479608794347059E+00
  -1.2415561947203675E+00  -1.2351421852312052E+00  -1.2287188611668074E+00  -1.2222862327039985E+00  -1.2158443099969083E+00
  -1.2093931031770497E+00  -1.2029326223533967E+00  -1.1964628776124586E+00  -1.1899838790183597E+00  -1.1834956366129032E+00
  -1.1769981604156621E+00  -1.1704914604240324E+00  -1.1639755466133328E+00  -1.1574504289368530E+00  -1.1509161173259486E+00
  -1.1443726216900967E+00  -1.1378199519169809E+00  -1.1312581178725563E+00  -1.1246871294011223E+00  -1.1181069963254033E+00
  -1.1115177284466049E+00  -1.1049193355444993E+00  -1.0983118273774874E+00  -1.0916952136826676E+00  -1.0850695041759180E+00
  -1.0784347085519514E+00  -1.0717908364843967E+00  -1.0651378976258581E+00  -1.0584759016079937E+00  -1.0518048580415782E+00
  -1.0451247765165683E+00  -1.0384356666021826E+00  -1.0317375378469538E+00  -1.0250303997788099E+00  -1.0183142619051313E+00
  -1.0115891337128264E+00  -1.0048550246683874E+00  -9.9811194421796579E-01  -9.9135990178743694E-01  -9.8459890678246043E-01
  -9.7782896858855239E-01  -9.7105009657114461E-01  -9.6426230007565339E-01  -9.5746558842754292E-01  -9.5065997093238630E-01
  -9.4384545687593990E-01  -9.3702205552419027E-01  -9.3018977612343612E-01  -9.2334862790033623E-01  -9.1649862006198113E-01
  -9.0963976179595318E-01  -9.0277206227038798E-01  -8.9589553063404170E-01  -8.8901017601634291E-01  -8.8211600752746133E-01
  -8.7521303425837171E-01  -8.6830126528090745E-01  -8.6138070964782543E-01  -8.5445137639286683E-01  -8.4751327453081737E-01
  -8.4056641305756585E-01  -8.3361080095016193E-01  -8.2664644716688263E-01  -8.1967336064728558E-01  -8.1269155031226981E-01
  -8.0570102506413455E-01  -7.9870179378664097E-01  -7.9169386534505826E-01  -7.8467724858623977E-01  -7.7765195233866857E-01
  -7.7061798541251636E-01  -7.6357535659970699E-01  -7.5652407467396332E-01  -7.4946414839087439E-01  -7.4239558648794235E-01
  -7.3531839768464979E-01  -7.2823259068250779E-01  -7.2113817416511083E-01  -7.1403515679820140E-01  -7.0692354722971151E-01
  -6.9980335408983319E-01  -6.9267458599106368E-01  -6.8553725152826239E-01  -6.7839135927870420E-01  -6.7123691780213846E-01
  -6.6407393564083916E-01  -6.5690242131965515E-01  -6.4972238334607479E-01  -6.4253383021026678E-01  -6.3533677038514380E-01
  -6.2813121232640623E-01  -6.2091716447260337E-01  -6.1369463524518086E-01  -6.0646363304853179E-01  -5.9922416627005515E-01
  -5.9197624328019949E-01  -5.8471987243252355E-01  -5.7745506206374120E-01  -5.7018182049377009E-01  -5.6290015602579524E-01
  -5.5561007694630493E-01  -5.4831159152515319E-01  -5.4100470801559986E-01  -5.3368943465437080E-01  -5.2636577966170184E-01
  -5.1903375124138751E-01  -5.1169335758083800E-01  -5.0434460685111748E-01  -4.9698750720700613E-01  -4.8962206678703979E-01
  -4.8224829371355626E-01  -4.7486619609275904E-01  -4.6747578201474987E-01  -4.6007705955358302E-01  -4.5267003676731454E-01
  -4.4525472169805058E-01  -4.3783112237198957E-01  -4.3039924679947600E-01  -4.2295910297504519E-01  -4.1551069887746900E-01
  -4.0805404246980531E-01  -4.0058914169944304E-01  -3.9311600449814982E-01  -3.8563463878211668E-01  -3.7814505245200203E-01
  -3.7064725339299004E-01  -3.6314124947481735E-01  -3.5562704855183563E-01  -3.4810465846304484E-01  -3.4057408703214387E-01
  -3.3303534206757979E-01  -3.2548843136258454E-01  -3.1793336269522537E-01  -3.1037014382844208E-01  -3.0279878251010811E-01
  -2.9521928647304835E-01  -2.8763166343510893E-01  -2.8003592109918862E-01  -2.7243206715328017E-01  -2.6482010927052352E-01
  -2.5720005510923682E-01  -2.4957191231297102E-01  -2.4193568851054567E-01  -2.3429139131609772E-01  -2.2663902832911370E-01
  -2.1897860713448625E-01  -2.1131013530254728E-01  -2.0363362038910879E-01  -1.9594906993551300E-01  -1.8825649146866522E-01
  -1.8055589250108434E-01  -1.7284728053093568E-01  -1.6513066304207855E-01  -1.5740604750410725E-01  -1.4967344137238425E-01
  -1.4193285208809436E-01  -1.3418428707827085E-01  -1.2642775375585208E-01  -1.1866325951970405E-01  -1.1089081175467860E-01
  -1.0311041783163719E-01  -9.5322085107499746E-02  -8.7525820925289197E-02  -7.9721632614159113E-02  -7.1909527489439767E-02
  -6.4089512852679942E-02  -5.6261595991678716E-02  -4.8425784180533261E-02  -4.0582084679668937E-02  -3.2730504735887872E-02
  -2.4871051582396261E-02  -1.7003732438853874E-02  -9.1285545114039562E-03  -1.2455249927138020E-03   6.6453489379801611E-03
   1.4544060114850625E-02   2.2450601385421702E-02   3.0364965610547207E-02   3.8287145664366411E-02   4.6217134434265131E-02
   5.4154924820846849E-02   6.2100509737882809E-02   7.0053882112284929E-02   7.8015034884068468E-02   8.5983961006312198E-02
   9.3960653445121028E-02   1.0194510517959303E-01   1.0993730920178232E-01   1.1793725851665855E-01   1.2594494614208224E-01
   1.3396036510875339E-01   1.4198350846019026E-01   1.5001436925268502E-01   1.5805294055527142E-01   1.6609921544968767E-01
   1.7415318703034022E-01   1.8221484840427901E-01   1.9028419269115060E-01   1.9836121302316159E-01   2.0644590254505921E-01
   2.1453825441407837E-01   2.2263826179992877E-01   2.3074591788473101E-01   2.3886121586301637E-01   2.4698414894166595E-01
   2.5511471033989208E-01   2.6325289328919749E-01   2.7139869103333925E-01   2.7955209682830690E-01   2.8771310394227456E-01
   2.9588170565558780E-01   3.0405789526070093E-01   3.1224166606217080E-01   3.2043301137661412E-01   3.2863192453266926E-01
   3.3683839887096650E-01   3.4505242774410971E-01   3.5327400451662194E-01   3.6150312256492301E-01   3.6973977527729901E-01
   3.7798395605387580E-01   3.8623565830656137E-01   3.9449487545905587E-01   4.0276160094677493E-01   4.1103582821685641E-01
   4.1931755072810217E-01   4.2760676195095554E-01   4.3590345536747910E-01   4.4420762447130846E-01   4.5251926276763366E-01
   4.6083836377315407E-01   4.6916492101606533E-01   4.7749892803601707E-01   4.8584037838408090E-01   4.9418926562273008E-01
   5.0254558332579502E-01   5.1090932507845133E-01   5.1928048447716402E-01   5.2765905512969080E-01   5.3604503065501796E-01
   5.4443840468335347E-01   5.5283917085609535E-01   5.6124732282578460E-01   5.6966285425609919E-01   5.7808575882180402E-01
   5.8651603020874021E-01   5.9495366211378020E-01   6.0339864824480538E-01   6.1185098232068158E-01   6.2031065807121799E-01
   6.2877766923715017E-01   6.3725200957010841E-01   6.4573367283258254E-01   6.5422265279790448E-01   6.6271894325020275E-01
   6.7122253798440468E-01   6.7973343080616400E-01   6.8825161553188197E-01   6.9677708598863064E-01   7.0530983601416930E-01
   7.1384985945689039E-01   7.2239715017578987E-01   7.3095170204045612E-01   7.3951350893102741E-01   7.4808256473817980E-01
   7.5665886336308441E-01   7.6524239871739075E-01   7.7383316472318631E-01   7.8243115531298668E-01   7.9103636442970404E-01
   7.9964878602660561E-01   8.0826841406730687E-01   8.1689524252573198E-01   8.2552926538609728E-01   8.3417047664287147E-01
   8.4281887030075431E-01   8.5147444037466558E-01   8.6013718088968905E-01   8.6880708588107991E-01   8.7748414939420882E-01
   8.8616836548455657E-01   8.9485972821767612E-01   9.0355823166917226E-01   9.1226386992467956E-01   9.2097663707982380E-01
   9.2969652724021512E-01   9.3842353452140415E-01   9.4715765304886690E-01   9.5589887695798137E-01   9.6464720039398699E-01
   9.7340261751199086E-01   9.8216512247690280E-01   9.9093470946344320E-01   9.9971137265609933E-01   1.0084951062491117E+00
   1.0172859044464388E+00   1.0260837614617428E+00   1.0348886715183583E+00   1.0437006288492678E+00   1.0525196276970874E+00
   1.0613456623140249E+00   1.0701787269618752E+00   1.0790188159119751E+00   1.0878659234452004E+00   1.0967200438519336E+00
   1.1055811714320301E+00   1.1144493004948064E+00   1.1233244253590140E+00   1.1322065403528159E+00   1.1410956398137648E+00
   1.1499917180887664E+00   1.1588947695340783E+00   1.1678047885152669E+00   1.1767217694071976E+00   1.1856457065940014E+00
   1.1945765944690618E+00   1.2035144274349847E+00   1.2124591999035736E+00   1.2214109062958194E+00   1.2303695410418585E+00
   1.2393350985809692E+00   1.2483075733615376E+00   1.2572869598410328E+00   1.2662732524860016E+00   1.2752664457720200E+00
   1.2842665341836978E+00   1.2932735122146306E+00   1.3022873743674035E+00   1.3113081151535475E+00   1.3203357290935311E+00
   1.3293702107167289E+00   1.3384115545614068E+00   1.3474597551746963E+00   1.3565148071125761E+00   1.3655767049398491E+00
   1.3746454432301141E+00   1.3837210165657556E+00   1.3928034195379200E+00   1.4018926467464794E+00   1.4109886928000330E+00
   1.4200915523158766E+00   1.4292012199199740E+00   1.4383176902469363E+00   1.4474409579400198E+00   1.4565710176510824E+00
   1.4657078640405734E+00   1.4748514917775144E+00   1.4840018955394689E+00   1.4931590700125386E+00   1.5023230098913232E+00
   1.5114937098789090E+00   1.5206711646868518E+00   1.5298553690351508E+00   1.5390463176522333E+00   1.5482440052749302E+00
   1.5574484266484532E+00   1.5666595765263855E+00   1.5758774496706465E+00   1.5851020408514904E+00   1.5943333448474633E+00
   1.6035713564454059E+00   1.6128160704404171E+00   1.6220674816358465E+00   1.6313255848432646E+00   1.6405903748824473E+00
   1.6498618465813613E+00   1.6591399947761309E+00   1.6684248143110365E+00   1.6777163000384800E+00   1.6870144468189763E+00
   1.6963192495211223E+00   1.7056307030215891E+00   1.7149488022051047E+00   1.7242735419644144E+00   1.7336049172002872E+00
   1.7429429228214799E+00   1.7522875537447240E+00   1.7616388048947138E+00   1.7709966712040717E+00   1.7803611476133394E+00
   1.7897322290709625E+00   1.7991099105332669E+00   1.8084941869644333E+00   1.8178850533364976E+00   1.8272825046293149E+00
   1.8366865358305426E+00   1.8460971419356398E+00   1.8555143179478188E+00   1.8649380588780635E+00   1.8743683597450711E+00
   1.8838052155752736E+00   1.8932486214027868E+00   1.9026985722694132E+00   1.9121550632246194E+00   1.9216180893255084E+00
   1.9310876456368222E+00   1.9405637272308922E+00   1.9500463291876593E+00   1.9595354465946206E+00   1.9690310745468445E+00
   1.9785332081469349E+00   1.9880418425050015E+00   1.9975569727386782E+00   2.0070785939730627E+00   2.0166067013407396E+00
   2.0261412899817417E+00   2.0356823550435199E+00   2.0452298916809650E+00   2.0547838950563446E+00   2.0643443603393314E+00
   2.0739112827069430E+00   2.0834846573435581E+00   2.0930644794408879E+00   2.1026507441979470E+00   2.1122434468210636E+00
   2.1218425825238323E+00   2.1314481465271231E+00   2.1410601340590523E+00   2.1506785403549586E+00   2.1603033606574109E+00
   2.1699345902161582E+00   2.1795722242881514E+00   2.1892162581374883E+00   2.1988666870354243E+00   2.2085235062603559E+00
   2.2181867110977787E+00   2.2278562968403084E+00   2.2375322587876192E+00   2.2472145922464870E+00   2.2569032925307053E+00
   2.2665983549611313E+00   2.2762997748656293E+00   2.2860075475790680E+00   2.2957216684433090E+00   2.3054421328071815E+00
   2.3151689360264736E+00   2.3249020734639223E+00   2.3346415404891747E+00   2.3443873324788016E+00   2.3541394448162651E+00
   2.3638978728918993E+00   2.3736626121029056E+00   2.3834336578533386E+00   2.3932110055540798E+00   2.4029946506228264E+00
   2.4127845884840871E+00   2.4225808145691459E+00   2.4323833243160600E+00   2.4421921131696536E+00   2.4520071765814784E+00
   2.4618285100098261E+00   2.4716561089196829E+00   2.4814899687827454E+00   2.4913300850773870E+00   2.5011764532886436E+00
   2.5110290689082153E+00   2.5208879274344160E+00   2.5307530243722076E+00   2.5406243552331409E+00   2.5505019155353712E+00
   2.5603857008036170E+00   2.5702757065691775E+00   2.5801719283698930E+00   2.5900743617501347E+00   2.5999830022608013E+00
   2.6098978454592894E+00   2.6198188869094929E+00   2.6297461221817819E+00   2.6396795468529870E+00   2.6496191565063860E+00
   2.6595649467316962E+00   2.6695169131250496E+00   2.6794750512889869E+00   2.6894393568324397E+00   2.6994098253707199E+00
   2.7093864525255000E+00   2.7193692339248088E+00   2.7293581652029992E+00   2.7393532420007545E+00   2.7493544599650712E+00
   2.7593618147492287E+00   2.7693753020127976E+00   2.7793949174216070E+00   2.7894206566477493E+00   2.7994525153695458E+00
   2.8094904892715507E+00   2.8195345740445306E+00   2.8295847653854507E+00   2.8396410589974668E+00   2.8497034505898911E+00
   2.8597719358782188E+00   2.8698465105840683E+00   2.8799271704352005E+00   2.8900139111655019E+00   2.9001067285149515E+00
   2.9102056182296323E+00   2.9203105760616972E+00   2.9304215977693682E+00   2.9405386791169326E+00   2.9506618158746956E+00
   2.9607910038190113E+00   2.9709262387322348E+00   2.9810675164027254E+00   2.9912148326248289E+00   3.0013681831988794E+00
   3.0115275639311587E+00   3.0216929706339033E+00   3.0318643991252889E+00   3.0420418452294160E+00   3.0522253047762917E+00
   3.0624147736018323E+00   3.0726102475478321E+00   3.0828117224619618E+00   3.0930191941977525E+00   3.1032326586145924E+00
   3.1134521115776939E+00   3.1236775489580997E+00   3.1339089666326720E+00   3.1441463604840583E+00   3.1543897264007001E+00
   3.1646390602768157E+00   3.1748943580123856E+00   3.1851556155131333E+00   3.1954228286905293E+00   3.2056959934617746E+00
   3.2159751057497630E+00   3.2262601614831192E+00   3.2365511565961311E+00   3.2468480870287779E+00   3.2571509487267152E+00
   3.2674597376412224E+00   3.2777744497292542E+00   3.2880950809533713E+00   3.2984216272817664E+00   3.3087540846882306E+00
   3.3190924491521576E+00   3.3294367166585239E+00   3.3397868831978603E+00   3.3501429447662860E+00   3.3605048973654394E+00
   3.3708727370025198E+00   3.3812464596902392E+00   3.3916260614468157E+00   3.4020115382959886E+00   3.4124028862669671E+00
   3.4228001013944591E+00   3.4332031797186202E+00   3.4436121172850820E+00   3.4540269101449046E+00   3.4644475543545843E+00
   3.4748740459760543E+00   3.4853063810766383E+00   3.4957445557290745E+00   3.5061885660114767E+00   3.5166384080073501E+00
   3.5270940778055593E+00   3.5375555715003193E+00   3.5480228851912030E+00   3.5584960149830946E+00   3.5689749569862257E+00
   3.5794597073161203E+00   3.5899502620936090E+00   3.6004466174448160E+00   3.6109487695011251E+00   3.6214567143992209E+00
   3.6319704482810082E+00   3.6424899672936610E+00   3.6530152675895864E+00   3.6635463453264041E+00   3.6740831966669609E+00
   3.6846258177792923E+00   3.6951742048366421E+00   3.7057283540174195E+00   3.7162882615052193E+00   3.7268539234887892E+00
   3.7374253361620244E+00   3.7480024957239721E+00   3.7585853983787851E+00   3.7691740403357596E+00   3.7797684178092914E+00
   3.7903685270188614E+00   3.8009743641890585E+00   3.8115859255495335E+00   3.8222032073350123E+00   3.8328262057852660E+00
   3.8434549171451300E+00   3.8540893376644672E+00   3.8647294635981506E+00   3.8753752912060944E+00   3.8860268167532008E+00
   3.8966840365093804E+00   3.9073469467495139E+00   3.9180155437534698E+00   3.9286898238060761E+00   3.9393697831971179E+00
   3.9500554182213232E+00   3.9607467251783528E+00   3.9714437003728036E+00   3.9821463401141801E+00   3.9928546407168892E+00
   4.0035685985002427E+00   4.0142882097884263E+00   4.0250134709105172E+00   4.0357443782004401E+00   4.0464809279969973E+00
   4.0572231166438204E+00   4.0679709404893840E+00   4.0787243958869999E+00   4.0894834791947794E+00   4.1002481867756533E+00
   4.1110185149973573E+00   4.1217944602324010E+00   4.1325760188580878E+00   4.1433631872564760E+00   4.1541559618144008E+00
   4.1649543389234367E+00   4.1757583149799054E+00   4.1865678863848634E+00   4.1973830495440785E+00   4.2082038008680511E+00
   4.2190301367719654E+00   4.2298620536757090E+00   4.2406995480038665E+00   4.2515426161856809E+00   4.2623912546550731E+00
   4.2732454598506155E+00   4.2841052282155410E+00   4.2949705561976979E+00   4.3058414402495977E+00   4.3167178768283510E+00
   4.3275998623956839E+00   4.3384873934179309E+00   4.3493804663660143E+00   4.3602790777154503E+00   4.3711832239463222E+00
   4.3820929015432828E+00   4.3930081069955547E+00   4.4039288367968865E+00   4.4148550874455923E+00   4.4257868554444970E+00
   4.4367241373009634E+00   4.4476669295268607E+00   4.4586152286385641E+00   4.4695690311569471E+00   4.4805283336073689E+00
   4.4914931325196648E+00   4.5024634244281465E+00   4.5134392058715802E+00   4.5244204733931941E+00   4.5354072235406537E+00
   4.5463994528660567E+00   4.5573971579259336E+00   4.5684003352812290E+00   4.5794089814973100E+00   4.5904230931439249E+00
   4.6014426667952275E+00   4.6124676990297528E+00   4.6234981864304112E+00   4.6345341255844783E+00   4.6455755130835916E+00
   4.6566223455237461E+00   4.6676746195052576E+00   4.6787323316327987E+00   4.6897954785153484E+00   4.7008640567662239E+00
   4.7119380630030259E+00   4.7230174938476734E+00   4.7341023459263836E+00   4.7451926158696285E+00   4.7562883003121845E+00
   4.7673893958930842E+00   4.7784958992556197E+00   4.7896078070473385E+00   4.8007251159200175E+00   4.8118478225296952E+00
   4.8229759235366032E+00   4.8341094156052282E+00   4.8452482954042306E+00   4.8563925596065003E+00   4.8675422048891201E+00
   4.8786972279333387E+00   4.8898576254246144E+00   4.9010233940525438E+00   4.9121945305109129E+00   4.9233710314976529E+00
   4.9345528937148364E+00   4.9457401138686885E+00   4.9569326886695464E+00   4.9681306148318907E+00   4.9793338890743071E+00
   4.9905425081194945E+00   5.0017564686942517E+00   5.0129757675294551E+00   5.0242004013600905E+00   5.0354303669252021E+00
   5.0466656609679248E+00   5.0579062802354180E+00   5.0691522214789302E+00   5.0804034814537538E+00   5.0916600569191885E+00
   5.1029219446386067E+00   5.1141891413793772E+00   5.1254616439128871E+00   5.1367394490145468E+00   5.1480225534637576E+00
   5.1593109540439119E+00   5.1706046475423912E+00   5.1819036307505657E+00   5.1932079004637570E+00   5.2045174534812642E+00
   5.2158322866063456E+00   5.2271523966461970E+00   5.2384777804119596E+00   5.2498084347187133E+00   5.2611443563854632E+00
   5.2724855422351400E+00   5.2838319890945655E+00   5.2951836937944963E+00   5.3065406531695629E+00   5.3179028640583015E+00
   5.3292703233031169E+00   5.3406430277503070E+00   5.3520209742500322E+00   5.3634041596563051E+00   5.3747925808270081E+00
   5.3861862346238620E+00   5.3975851179124321E+00   5.4089892275621088E+00   5.4203985604461202E+00   5.4318131134415149E+00
   5.4432328834291335E+00   5.4546578672936494E+00   5.4660880619235188E+00   5.4775234642109769E+00   5.4889640710520720E+00
   5.5004098793466092E+00   5.5118608859981757E+00   5.5233170879141031E+00   5.5347784820055042E+00   5.5462450651872279E+00
   5.5577168343778567E+00   5.5691937864997323E+00   5.5806759184789003E+00   5.5921632272451589E+00   5.6036557097319877E+00
   5.6151533628765948E+00   5.6266561836198932E+00   5.6381641689064752E+00   5.6496773156846345E+00   5.6611956209063354E+00
   5.6727190815272399E+00   5.6842476945066460E+00   5.6957814568075342E+00   5.7073203653965479E+00   5.7188644172439433E+00
   5.7304136093236595E+00   5.7419679386132403E+00   5.7535274020938809E+00   5.7650919967503773E+00   5.7766617195711545E+00
   5.7882365675482497E+00   5.7998165376772821E+00   5.8114016269574895E+00   5.8229918323916792E+00   5.8345871509862635E+00
   5.8461875797512146E+00   5.8577931157000691E+00   5.8694037558499552E+00   5.8810194972215193E+00   5.8926403368389879E+00
   5.9042662717301191E+00   5.9158972989262191E+00   5.9275334154621122E+00   5.9391746183761516E+00   5.9508209047102216E+00
   5.9624722715096956E+00   5.9741287158234702E+00   5.9857902347039476E+00   5.9974568252070091E+00   6.0091284843920256E+00
   6.0208052093218463E+00   6.0324869970628203E+00   6.0441738446847264E+00   6.0558657492608319E+00   6.0675627078678582E+00
   6.0792647175859713E+00   6.0909717754987831E+00   6.1026838786933357E+00   6.1144010242601281E+00   6.1261232092930440E+00
   6.1378504308894239E+00   6.1495826861500102E+00   6.1613199721789433E+00   6.1730622860837752E+00   6.1848096249754443E+00
   6.1965619859682972E+00   6.2083193661800387E+00   6.2200817627317644E+00   6.2318491727479488E+00   6.2436215933564174E+00
   6.2553990216883602E+00   6.2671814548783180E+00   6.2789688900641902E+00   6.2907613243872085E+00   6.3025587549919360E+00
   6.3143611790262772E+00   6.3261685936414578E+00   6.3379809959920124E+00   6.3497983832358029E+00   6.3616207525339874E+00
   6.3734481010510269E+00   6.3852804259546723E+00   6.3971177244159785E+00   6.4089599936092672E+00   6.4208072307121480E+00
   6.4326594329055018E+00   6.4445165973734717E+00   6.4563787213034649E+00   6.4682458018861322E+00   6.4801178363153982E+00
   6.4919948217884098E+00   6.5038767555055479E+00   6.5157636346704511E+00   6.5276554564899589E+00   6.5395522181741459E+00
   6.5514539169362900E+00   6.5633605499928924E+00   6.5752721145636563E+00   6.5871886078714699E+00   6.5991100271424328E+00
   6.6110363696058156E+00   6.6229676324940865E+00   6.6349038130428708E+00   6.6468449084909880E+00   6.6587909160804051E+00
   6.6707418330562493E+00   6.6826976566668215E+00   6.6946583841635503E+00   6.7066240128010062E+00   6.7185945398369240E+00
   6.7305699625321447E+00   6.7425502781506506E+00   6.7545354839595326E+00   6.7665255772290180E+00   6.7785205552324292E+00
   6.7905204152461947E+00   6.8025251545498584E+00   6.8145347704260448E+00   6.8265492601604745E+00   6.8385686210419401E+00
   6.8505928503623421E+00   6.8626219454166275E+00   6.8746559035028127E+00   6.8866947219220087E+00   6.8987383979783425E+00
   6.9107869289790225E+00   6.9228403122342907E+00   6.9348985450574441E+00   6.9469616247648149E+00   6.9590295486757450E+00
   6.9711023141126365E+00   6.9831799184008920E+00   6.9952623588689411E+00   7.0073496328482090E+00   7.0194417376731497E+00
   7.0315386706812122E+00   7.0436404292128216E+00   7.0557470106114213E+00   7.0678584122234236E+00   7.0799746313982306E+00
   7.0920956654882108E+00   7.1042215118487180E+00   7.1163521678380670E+00   7.1284876308175109E+00   7.1406278981512941E+00
   7.1527729672065954E+00   7.1649228353535230E+00   7.1770774999651650E+00   7.1892369584175029E+00   7.2014012080894902E+00
   7.2135702463629601E+00   7.2257440706227092E+00   7.2379226782564299E+00   7.2501060666547223E+00   7.2622942332111036E+00
   7.2744871753219877E+00   7.2866848903866899E+00   7.2988873758074027E+00   7.3110946289892214E+00   7.3233066473401278E+00
   7.3355234282709496E+00   7.3477449691954160E+00   7.3599712675301188E+00   7.3722023206945142E+00   7.3844381261108971E+00
   7.3966786812044383E+00   7.4089239834031559E+00   7.4211740301378812E+00   7.4334288188423283E+00   7.4456883469530144E+00
   7.4579526119093016E+00   7.4702216111533728E+00   7.4824953421302141E+00   7.4947738022876669E+00   7.5070569890763332E+00
   7.5193448999496670E+00   7.5316375323638871E+00   7.5439348837780384E+00   7.5562369516539354E+00   7.5685437334561847E+00
   7.5808552266521954E+00   7.5931714287121208E+00   7.6054923371089167E+00   7.6178179493182903E+00   7.6301482628187287E+00
   7.6424832750914646E+00   7.6548229836204893E+00   7.6671673858925518E+00   7.6795164793971393E+00   7.6918702616264811E+00
   7.7042287300755543E+00   7.7165918822420485E+00   7.7289597156264076E+00   7.7413322277317667E+00   7.7537094160640141E+00
   7.7660912781317313E+00   7.7784778114462103E+00   7.7908690135214584E+00   7.8032648818741821E+00   7.8156654140237798E+00
   7.8280706074923350E+00   7.8404804598046480E+00   7.8528949684881715E+00   7.8653141310730437E+00   7.8777379450920995E+00
   7.8901664080808240E+00   7.9025995175773653E+00   7.9150372711225403E+00   7.9274796662598339E+00   7.9399267005353691E+00
   7.9523783714979137E+00   7.9648346766989011E+00   7.9772956136923892E+00   7.9897611800350763E+00   8.0022313732862784E+00
   8.0147061910079636E+00   8.0271856307647091E+00   8.0396696901237075E+00   8.0521583666547798E+00   8.0646516579303373E+00
   8.0771495615254114E+00   8.0896520750176375E+00   8.1021591959872357E+00   8.1146709220170337E+00   8.1271872506924314E+00
   8.1397081796014330E+00   8.1522337063346129E+00   8.1647638284851158E+00   8.1772985436486767E+00   8.1898378494235828E+00
   8.2023817434106920E+00   8.2149302232134218E+00   8.2274832864377458E+00   8.2400409306921887E+00   8.2526031535878239E+00
   8.2651699527382636E+00   8.2777413257596741E+00   8.2903172702707337E+00   8.3028977838926696E+00   8.3154828642492369E+00
   8.3280725089667058E+00   8.3406667156738621E+00   8.3532654820020227E+00   8.3658688055849986E+00   8.3784766840591196E+00
   8.3910891150632114E+00   8.4037060962386061E+00   8.4163276252291244E+00   8.4289536996810774E+00   8.4415843172432705E+00
   8.4542194755669886E+00   8.4668591723059894E+00   8.4795034051165175E+00   8.4921521716572865E+00   8.5048054695894617E+00
   8.5174632965766932E+00   8.5301256502850791E+00   8.5427925283831811E+00   8.5554639285419949E+00   8.5681398484349831E+00
   8.5808202857380493E+00   8.5935052381295307E+00   8.6061947032901944E+00   8.6188886789032608E+00   8.6315871626543625E+00
   8.6442901522315534E+00   8.6569976453253332E+00   8.6697096396285858E+00   8.6824261328366337E+00   8.6951471226471888E+00
   8.7078726067603771E+00   8.7206025828787475E+00   8.7333370487072006E+00   8.7460760019530817E+00   8.7588194403260911E+00
   8.7715673615383221E+00   8.7843197633042625E+00   8.7970766433407714E+00   8.8098379993670886E+00   8.8226038291048194E+00
   8.8353741302779323E+00   8.8481489006127827E+00   8.8609281378380516E+00   8.8737118396848089E+00   8.8865000038864590E+00
   8.8992926281787774E+00   8.9120897102998473E+00   8.9248912479901250E+00   8.9376972389924063E+00   8.9505076810517927E+00
   8.9633225719157554E+00   8.9761419093340624E+00   8.9889656910588300E+00   9.0017939148444643E+00   9.0146265784477180E+00
   9.0274636796276440E+00   9.0403052161455939E+00   9.0531511857652536E+00   9.0660015862525789E+00   9.0788564153758582E+00
   9.0917156709056375E+00   9.1045793506147810E+00   9.1174474522784372E+00   9.1303199736740250E+00   9.1431969125812618E+00
   9.1560782667821314E+00   9.1689640340609024E+00   9.1818542122040956E+00   9.1947487990005108E+00   9.2076477922412163E+00
   9.2205511897195294E+00   9.2334589892310284E+00   9.2463711885735407E+00   9.2592877855471460E+00   9.2722087779541784E+00
   9.2851341635991940E+00   9.2980639402890120E+00   9.3109981058326667E+00   9.3239366580414345E+00   9.3368795947288152E+00
   9.3498269137105439E+00   9.3627786128045685E+00   9.3757346898310558E+00   9.3886951426123932E+00   9.4016599689731759E+00
   9.4146291667402036E+00   9.4276027337424910E+00   9.4405806678112398E+00   9.4535629667798613E+00   9.4665496284839517E+00
   9.4795406507613222E+00   9.4925360314519445E+00   9.5055357683979800E+00   9.5185398594437824E+00   9.5315483024358780E+00
   9.5445610952229654E+00   9.5575782356559138E+00   9.5705997215877723E+00   9.5836255508737391E+00   9.5966557213711745E+00
   9.6096902309396146E+00   9.6227290774407379E+00   9.6357722587383652E+00   9.6488197726984790E+00   9.6618716171892043E+00
   9.6749277900808153E+00   9.6879882892457019E+00   9.7010531125584194E+00   9.7141222578956281E+00   9.7271957231361306E+00
   9.7402735061608556E+00   9.7533556048528531E+00   9.7664420170972921E+00   9.7795327407814501E+00   9.7926277737947309E+00
   9.8057271140286364E+00   9.8188307593767910E+00   9.8319387077348868E+00   9.8450509570007654E+00   9.8581675050743254E+00
   9.8712883498575739E+00   9.8844134892546194E+00   9.8975429211716346E+00   9.9106766435168954E+00   9.9238146542007524E+00
   9.9369569511356346E+00   9.9501035322360423E+00   9.9632543954185468E+00   9.9764095386018070E+00   9.9895689597065260E+00
   1.0002732656655462E+01   1.0015900627373467E+01   1.0029072869787424E+01   1.0042249381826268E+01   1.0055430161420990E+01
   1.0068615206504637E+01   1.0081804515012291E+01   1.0094998084881063E+01   1.0108195914050132E+01   1.0121398000460687E+01
   1.0134604342055958E+01   1.0147814936781197E+01   1.0161029782583693E+01   1.0174248877412758E+01   1.0187472219219705E+01
   1.0200699805957886E+01   1.0213931635582663E+01   1.0227167706051391E+01   1.0240408015323448E+01   1.0253652561360223E+01
   1.0266901342125092E+01   1.0280154355583434E+01   1.0293411599702637E+01   1.0306673072452060E+01   1.0319938771803068E+01
   1.0152055017697012E+02   1.0152055017697012E+02   1.0152055017697012E+02   1.0152055017697012E+02   1.0152055017697012E+02
   1.0152055017697012E+02   1.0152055017697012E+02   1.0152055017697012E+02   1.0152055017697012E+02   1.0152055017697012E+02
   1.0152055017697012E+02   1.0152055017697012E+02   1.0152055017697012E+02   1.0152055017697012E+02   1.0152055017697012E+02
   1.0152055017697012E+02   1.0152055017697012E+02   1.0152055017697012E+02   1.0152055017697012E+02   1.0152055017697012E+02
   1.0152055017697012E+02   1.0152055017697012E+02   1.0152055017697012E+02   1.0152055017697012E+02   1.0152055017697012E+02
   1.0152055017697012E+02   1.0152055017697012E+02   1.0152055017697012E+02   1.0152055017697012E+02   1.0152055017697012E+02
   1.0152055017697012E+02   1.0152055017697012E+02   1.0152055017697012E+02   1.0152055017697012E+02   1.0152055017697012E+02
   1.0152055017697012E+02   1.0152055017697012E+02   1.0152055017697012E+02   1.0152055017697012E+02   1.0152055017697012E+02
   1.0152055017697012E+02   1.0152055017697012E+02   1.0152055017697012E+02   1.0152055017697012E+02   1.0152055017697012E+02
   1.0152055017697012E+02   1.0152055017697012E+02   1.0152055017697012E+02   1.0152055017697012E+02   1.0152055017697012E+02
   1.0152055017697012E+02   1.0152055017697012E+02   1.0152055017697012E+02   1.0152055017697012E+02   1.0152055017697012E+02
   1.0152055017697012E+02   1.0152055017697012E+02   1.0152055017697012E+02   1.0152055017697012E+02   1.0152055017697012E+02
   1.0152055017697012E+02   1.0152055017697012E+02   1.0152055017697012E+02   1.0152055017697012E+02   1.0152055017697012E+02
   1.0152055017697012E+02   1.0152055017697012E+02   1.0152055017697012E+02   1.0152055017697012E+02   1.0152055017697012E+02
   1.0152055017697012E+02   1.0152055017697012E+02   1.0152055017697012E+02   1.0152055017697012E+02   1.0152055017697012E+02
   1.0152055017697012E+02   1.0152055017697012E+02   1.0152055017697012E+02   1.0152055017697012E+02   1.0152055017697012E+02
   1.0152055017697012E+02   1.0152055017697012E+02   1.0152055017697012E+02   1.0152055017697012E+02   1.0152055017697012E+02
   1.0152055017697012E+02   1.0152055017697012E+02   1.0152055017697012E+02   1.0152055017697012E+02   1.0152055017697012E+02
   1.0152055017697012E+02   1.0152055017697012E+02   1.0152055017697012E+02   1.0152055017697012E+02   1.0152055017697012E+02
   1.0152055017697012E+02   1.0152055017697012E+02   1.0152055017697012E+02   1.0152055017697012E+02   1.0152055017697012E+02
   1.0152055017697012E+02   1.0152055017697012E+02   1.0152055017697012E+02   1.0152055017697012E+02   1.0152055017697012E+02
   1.0152055017697012E+02   1.0152055017697012E+02   1.0152055017697012E+02   1.0152055017697012E+02   1.0152055017697012E+02
   1.0152055017697012E+02   1.0152055017697012E+02   1.0152055017697012E+02   1.0152055017697012E+02   1.0152055017697012E+02
   1.0152055017697012E+02   1.0152055017697012E+02   1.0152055017697012E+02   1.0152055017697012E+02   1.0152055017697012E+02
   1.0152055017697012E+02   1.0152055017697012E+02   1.0152055017697012E+02   1.0152055017697012E+02   1.0152055017697012E+02
   1.0152055017697012E+02   1.0152055017697012E+02   1.0152055017697012E+02   1.0152055017697012E+02   1.0152055017697012E+02
   1.0152055017697012E+02   1.0152055017697012E+02   1.0152055017697012E+02   1.0152055017697012E+02   1.0152055017697012E+02
   1.0152055017697012E+02   1.0152055017697012E+02   1.0152055017697012E+02   1.0152055017697012E+02   1.0152055017697012E+02
   1.0152055017697012E+02   1.0152055017697012E+02   1.0152055017697012E+02   1.0152055017697012E+02   1.0152055017697012E+02
   1.0152055017697012E+02   1.0152055017697012E+02   1.0152055017697012E+02   1.0152055017697012E+02   1.0152055017697012E+02
   1.0152055017697012E+02   1.0152055017697012E+02   1.0152055017697012E+02   1.0152055017697012E+02   1.0152055017697012E+02
   1.0148254887791614E+02   1.0090811395539650E+02   1.0033692837853732E+02   9.9768973855136210E+01   9.9204232192586531E+01
   9.8642685297460574E+01   9.8084315175089444E+01   9.7529103929140305E+01   9.6977033761191450E+01   9.6428086970304534E+01
   9.5882245952595653E+01   9.5339493200803119E+01   9.4799811303854568E+01   9.4263182946432053E+01   9.3729590908535798E+01
   9.3199018065046104E+01   9.2671447385284623E+01   9.2146861932574396E+01   9.1625244863798883E+01   9.1106579428960515E+01
   9.0590848970737497E+01   9.0078036924041569E+01   8.9568126815574416E+01   8.9061102263383475E+01   8.8556946976418033E+01
   8.8055644754085066E+01   8.7557179485804753E+01   8.7061535150566456E+01   8.6568695816484137E+01   8.6078645640352690E+01
   8.5591368867203983E+01   8.5106849829863961E+01   8.4625072948509100E+01   8.4146022730224416E+01   8.3669683768561484E+01
   8.3196040743097157E+01   8.2725078418993206E+01   8.2256781646556405E+01   8.1791135360799586E+01   8.1328124581003649E+01
   8.0867734410280264E+01   8.0409950035135893E+01   7.9954756725036489E+01   7.9502139831973395E+01   7.9052084790030420E+01
   7.8604577114951937E+01   7.8159602403712441E+01   7.7717146334086991E+01   7.7277194664223074E+01   7.6839733232213902E+01
   7.6404747955672860E+01   7.5972224831309489E+01   7.5542149934506696E+01   7.5114509418899431E+01   7.4689289515955039E+01
   7.4266476534554855E+01   7.3846056860577363E+01   7.3428016956482864E+01   7.3012343360899834E+01   7.2599022688212656E+01
   7.2188041628151197E+01   7.1779386945381731E+01   7.1373045479099588E+01   7.0969004142623490E+01   7.0567249922991664E+01
   7.0167769880559334E+01   6.9770551148598130E+01   6.9375580932896995E+01   6.8982846511365196E+01   6.8592335233636646E+01
   6.8204034520676146E+01   6.7817931864387290E+01   6.7434014827222242E+01   6.7052271041793105E+01   6.6672688210485390E+01
   6.6295254105072800E+01   6.5919956566334022E+01   6.5546783503671449E+01   6.5175722894731265E+01   6.4806762785026166E+01
   6.4439891287558623E+01   6.4075096582447017E+01   6.3712366916553080E+01   6.3351690603111450E+01   6.2993056021360537E+01
   6.2636451616175705E+01   6.2281865897703931E+01   6.1929287441000419E+01   6.1578704885667115E+01   6.1230106935492735E+01
   6.0883482358094859E+01   6.0538819984563766E+01   6.0196108709107875E+01   5.9855337488701444E+01   5.9516495342733748E+01
   5.9179571352659721E+01   5.8844554661653213E+01   5.8511434474261421E+01   5.8180200056061274E+01   5.7850840733317582E+01
   5.7523345892643064E+01   5.7197704980659999E+01   5.6873907503663844E+01   5.6551943027288445E+01   5.6231801176173043E+01
   5.5913471633631154E+01   5.5596944141321032E+01   5.5282208498918067E+01   5.4969254563788901E+01   5.4658072250666947E+01
   5.4348651531330106E+01   5.4040982434280110E+01   5.3735055044423277E+01   5.3430859502753329E+01   5.3128386006035726E+01
   5.2827624806493830E+01   5.2528566211496710E+01   5.2231200583248594E+01   5.1935518338480001E+01   5.1641509948140730E+01
   5.1349165937094213E+01   5.1058476883813853E+01   5.0769433420080965E+01   5.0482026230683921E+01   5.0196246053119616E+01
   4.9912083677296124E+01   4.9629529945237280E+01   4.9348575750788434E+01   4.9069212039324320E+01   4.8791429807458215E+01
   4.8515220102752956E+01   4.8240574023433254E+01   4.7967482718099795E+01   4.7695937385444829E+01   4.7425929273969480E+01
   4.7157449681702445E+01   4.6890489955920373E+01   4.6625041492869649E+01   4.6361095737489897E+01   4.6098644183138937E+01
   4.5837678371319264E+01   4.5578189891406097E+01   4.5320170380376794E+01   4.5063611522541990E+01   4.4808505049278125E+01
   4.4554842738761437E+01   4.4302616415703476E+01   4.4051817951087990E+01   4.3802439261909583E+01   4.3554472310913518E+01
   4.3307909106337057E+01   4.3062741701652342E+01   4.2818962195310576E+01   4.2576562730487787E+01   4.2335535494831930E+01
   4.2095872720211403E+01   4.1857566682464970E+01   4.1620609701153086E+01   4.1384994139310749E+01   4.1150712403201489E+01
   4.0917756942073005E+01   4.0686120247913884E+01   4.0455794855211963E+01   4.0226773340713983E+01   3.9999048323186408E+01
   3.9772612463177836E+01   3.9547458462782522E+01   3.9323579065405511E+01   3.9100967055528749E+01   3.8879615258478857E+01
   3.8659516540195916E+01   3.8440663807003752E+01   3.8223050005381332E+01   3.8006668121735871E+01   3.7791511182176549E+01
   3.7577572252289968E+01   3.7364844436916911E+01   3.7153320879930128E+01   3.6942994764013392E+01   3.6733859310442000E+01
   3.6525907778864301E+01   3.6319133467084583E+01   3.6113529710847139E+01   3.5909089883621611E+01   3.5705807396389361E+01
   3.5503675697431262E+01   3.5302688272116690E+01   3.5102838642693385E+01   3.4904120368079070E+01   3.4706527043653573E+01
   3.4510052301052667E+01   3.4314689807962857E+01   3.4120433267917278E+01   3.3927276420092831E+01   3.3735213039108430E+01
   3.3544236934824447E+01   3.3354341952143216E+01   3.3165521970810659E+01   3.2977770905219131E+01   3.2791082704211249E+01
   3.2605451350884998E+01   3.2420870862399710E+01   3.2237335289783388E+01   3.2054838717740857E+01   3.1873375264463277E+01
   3.1692939081438567E+01   3.1513524353262870E+01   3.1335125297453217E+01   3.1157736164261124E+01   3.0981351236487331E+01
   3.0805964829297551E+01   3.0631571290039297E+01   3.0458164998059637E+01   3.0285740364524070E+01   3.0114291832236578E+01
   2.9943813875460240E+01   2.9774300999739442E+01   2.9605747741722610E+01   2.9438148668986202E+01   2.9271498379859672E+01
   2.9105791503251339E+01   2.8941022698475290E+01   2.8777186655079269E+01   2.8614278092673523E+01   2.8452291760760676E+01
   2.8291222438566415E+01   2.8131064934871358E+01   2.7971814087843576E+01   2.7813464764872485E+01   2.7656011862403140E+01
   2.7499450305772012E+01   2.7343775049043266E+01   2.7188981074846197E+01   2.7035063394213566E+01   2.6882017046420714E+01
   2.6729837098825808E+01   2.6578518646710741E+01   2.6428056813123170E+01   2.6278446748719222E+01   2.6129683631607339E+01
   2.5981762667192751E+01   2.5834679088022984E+01   2.5688428153634266E+01   2.5543005150398713E+01   2.5398405391372343E+01
   2.5254624216144158E+01   2.5111656990685791E+01   2.4969499107202289E+01   2.4828145983983521E+01   2.4687593065256525E+01
   2.4547835821038710E+01   2.4408869746991815E+01   2.4270690364276803E+01   2.4133293219409417E+01   2.3996673884116760E+01
   2.3860827955194427E+01   2.3725751054364761E+01   2.3591438828135598E+01   2.3457886947660068E+01   2.3325091108596990E+01
   2.3193047030972192E+01   2.3061750459040560E+01   2.2931197161148880E+01   2.2801382929599477E+01   2.2672303580514519E+01
   2.2543954953701295E+01   2.2416332912518008E+01   2.2289433343740569E+01   2.2163252157429948E+01   2.2037785286800364E+01
   2.1913028688088250E+01   2.1788978340421931E+01   2.1665630245691965E+01   2.1542980428422375E+01   2.1421024935642428E+01
   2.1299759836759328E+01   2.1179181223431435E+01   2.1059285209442397E+01   2.0940067930575825E+01   2.0821525544490768E+01
   2.0703654230597937E+01   2.0586450189936436E+01   2.0469909645051498E+01   2.0354028839872559E+01   2.0238804039592356E+01
   2.0124231530546425E+01   2.0010307620093535E+01   1.9897028636496561E+01   1.9784390928804218E+01   1.9672390866733359E+01
   1.9561024840551998E+01   1.9450289260962958E+01   1.9340180558988170E+01   1.9230695185853655E+01   1.9121829612875178E+01
   1.9013580331344503E+01   1.8905943852416250E+01   1.8798916706995556E+01   1.8692495445626164E+01   1.8586676638379373E+01
   1.8481456874743330E+01   1.8376832763513256E+01   1.8272800932682056E+01   1.8169358029331697E+01   1.8066500719525102E+01
   1.7964225688198734E+01   1.7862529639055726E+01   1.7761409294459632E+01   1.7660861395328830E+01   1.7560882701031474E+01
   1.7461469989281014E+01   1.7362620056032370E+01   1.7264329715378686E+01   1.7166595799448579E+01   1.7069415158304132E+01
   1.6972784659839302E+01   1.6876701189678997E+01   1.6781161651078701E+01   1.6686162964824682E+01   1.6591702069134708E+01
   1.6497775919559427E+01   1.6404381488884162E+01   1.6311515767031462E+01   1.6219175760963942E+01   1.6127358494587966E+01
   1.6036061008657605E+01   1.5945280360679336E+01   1.5855013624817202E+01   1.5765257891798461E+01   1.5676010268819889E+01
   1.5587267879454483E+01   1.5499027863558810E+01   1.5411287377180777E+01   1.5324043592468012E+01   1.5237293697576700E+01
   1.5151034896580938E+01   1.5065264409382694E+01   1.4979979471622121E+01   1.4895177334588507E+01   1.4810855265131703E+01
   1.4727010545573966E+01   1.4643640473622456E+01   1.4560742362282083E+01   1.4478313539768907E+01   1.4396351349424053E+01
   1.4314853149628066E+01   1.4233816313715815E+01   1.4153238229891743E+01   1.4073116301145831E+01   1.3993447945169729E+01
   1.3914230594273679E+01   1.3835461695303668E+01   1.3757138709559184E+01   1.3679259112711367E+01   1.3601820394721654E+01
   1.3524820059760920E+01   1.3448255626128976E+01   1.3372124626174624E+01   1.3296424606216137E+01   1.3221153126462136E+01
   1.3146307760932981E+01   1.3071886097382594E+01   1.2997885737220685E+01   1.2924304295435448E+01   1.2851139400516736E+01
   1.2778388694379569E+01   1.2706049832288164E+01   1.2634120482780382E+01   1.2562598327592536E+01   1.2491481061584730E+01
   1.2420766392666511E+01   1.2350452041723049E+01   1.2280535742541634E+01   1.2211015241738670E+01   1.2141888298687034E+01
   1.2073152685443851E+01   1.2004806186678724E+01   1.1936846599602294E+01   1.1869271733895273E+01   1.1802079411637829E+01
   1.1735267467239415E+01   1.1668833747368952E+01   1.1602776110885433E+01   1.1537092428768933E+01   1.1471780584051961E+01
   1.1406838471751247E+01   1.1342263998799915E+01   1.1278055083979975E+01   1.1214209657855314E+01   1.1150725662704932E+01
   1.1087601052456677E+01   1.1024833792621253E+01   1.0962421860226698E+01   1.0900363243753130E+01   1.0838655943067959E+01
   1.0777297969361417E+01   1.0716287345082435E+01   1.0655622103874938E+01   1.0595300290514434E+01   1.0535319960845047E+01
   1.0475679181716801E+01   1.0416376030923363E+01   1.0357408597140061E+01   1.0298774979862300E+01   1.0240473289344282E+01
   1.0182501646538139E+01   1.0124858183033362E+01   1.0067541040996542E+01   1.0010548373111547E+01   9.9538783425199462E+00
   9.8975291227618403E+00   9.8414988977169600E+00   9.7857858615461542E+00   9.7303882186331823E+00   9.6753041835268565E+00
   9.6205319808834702E+00   9.5660698454096043E+00   9.5119160218052095E+00   9.4580687647070647E+00   9.4045263386324738E+00
   9.3512870179234042E+00   9.2983490866907932E+00   9.2457108387592903E+00   9.1933705776122725E+00   9.1413266163371247E+00
   9.0895772775709265E+00   9.0381208934463313E+00   8.9869558055378729E+00   8.9360803648084559E+00   8.8854929315562625E+00
   8.8351918753618559E+00   8.7851755750356713E+00   8.7354424185657322E+00   8.6859908030657351E+00   8.6368191347233463E+00
   8.5879258287488689E+00   8.5393093093241372E+00   8.4909680095517608E+00   8.4429003714045745E+00   8.3951048456754940E+00
   8.3475798919275110E+00   8.3003239784440890E+00   8.2533355821798029E+00   8.2066131887112128E+00   8.1601552921881009E+00
   8.1139603952848862E+00   8.0680270091524289E+00   8.0223536533699829E+00   7.9769388558975285E+00   7.9317811530283002E+00
   7.8868790893416314E+00   7.8422312176560247E+00   7.7978360989825433E+00   7.7536923024783890E+00   7.7097984054008286E+00
   7.6661529930613144E+00   7.6227546587798907E+00   7.5796020038398675E+00   7.5366936374427347E+00   7.4940281766633259E+00
   7.4516042464052656E+00   7.4094204793566485E+00   7.3674755159459524E+00   7.3257680042982463E+00   7.2842966001915892E+00
   7.2430599670137372E+00   7.2020567757190523E+00   7.1612857047856462E+00   7.1207454401728283E+00   7.0804346752787204E+00
   7.0403521108981701E+00   7.0004964551808646E+00   6.9608664235896809E+00   6.9214607388593192E+00   6.8822781309551129E+00
   6.8433173370321105E+00   6.8045771013943410E+00   6.7660561754543949E+00   6.7277533176931357E+00   6.6896672936197250E+00
   6.6517968757318009E+00   6.6141408434759317E+00   6.5766979832082839E+00   6.5394670881555079E+00   6.5024469583758115E+00
   6.4656364007203289E+00   6.4290342287946505E+00   6.3926392629205697E+00   6.3564503300980917E+00   6.3204662639675870E+00
   6.2846859047722514E+00   6.2491080993206873E+00   6.2137317009497579E+00   6.1785555694876049E+00   6.1435785712169366E+00
   6.1087995788384690E+00   6.0742174714345865E+00   6.0398311344332312E+00   6.0056394595719631E+00   5.9716413448622605E+00
   5.9378356945539990E+00   5.9042214191001090E+00   5.8707974351214993E+00   5.8375626653721158E+00   5.8045160387042340E+00
   5.7716564900339229E+00   5.7389829603067266E+00   5.7064943964635289E+00   5.6741897514066197E+00   5.6420679839659478E+00
   5.6101280588655342E+00   5.5783689466901558E+00   5.5467896238521304E+00   5.5153890725583450E+00   5.4841662807774281E+00
   5.4531202422071710E+00   5.4222499562420579E+00   5.3915544279410454E+00   5.3610326679954703E+00   5.3306836926971837E+00
   5.3005065239068392E+00   5.2705001890223686E+00   5.2406637209476399E+00   5.2109961580612643E+00   5.1814965441856442E+00
   5.1521639285561163E+00   5.1229973657903418E+00   5.0939959158578088E+00   5.0651586440495491E+00   5.0364846209480181E+00
   5.0079729223971352E+00   4.9796226294724795E+00   4.9514328284517060E+00   4.9234026107850823E+00   4.8955310730661932E+00
   4.8678173170028440E+00   4.8402604493880981E+00   4.8128595820714883E+00   4.7856138319304007E+00   4.7585223208416103E+00
   4.7315841756529586E+00   4.7047985281552442E+00   4.6781645150542239E+00   4.6516812779427861E+00   4.6253479632732857E+00
   4.5991637223300517E+00   4.5731277112020008E+00   4.5472390907554754E+00   4.5214970266071619E+00   4.4959006890972315E+00
   4.4704492532625784E+00   4.4451418988102454E+00   4.4199778100909723E+00   4.3949561760729159E+00   4.3700761903155163E+00
   4.3453370509434919E+00   4.3207379606210115E+00   4.2962781265259720E+00   4.2719567603244739E+00   4.2477730781453991E+00
   4.2237263005551524E+00   4.1998156525325196E+00   4.1760403634437262E+00   4.1523996670175674E+00   4.1288928013207311E+00
   4.1055190087332294E+00   4.0822775359239847E+00   4.0591676338265525E+00   4.0361885576149783E+00   4.0133395666797931E+00
   3.9906199246041276E+00   3.9680288991400108E+00   3.9455657621847351E+00   3.9232297897574169E+00   3.9010202619756424E+00
   3.8789364630322796E+00   3.8569776811724017E+00   3.8351432086703552E+00   3.8134323418069278E+00   3.7918443808467011E+00
   3.7703786300154754E+00   3.7490343974778448E+00   3.7278109953149148E+00   3.7067077395021153E+00   3.6857239498871599E+00
   3.6648589501681310E+00   3.6441120678716792E+00   3.6234826343313342E+00   3.6029699846659833E+00   3.5825734577584218E+00
   3.5622923962340471E+00   3.5421261464396756E+00   3.5220740584224801E+00   3.5021354859090299E+00   3.4823097862844787E+00
   3.4625963205718278E+00   3.4429944534113601E+00   3.4235035530401463E+00   3.4041229912716893E+00   3.3848521434756700E+00
   3.3656903885578244E+00   3.3466371089399241E+00   3.3276916905398672E+00   3.3088535227518960E+00   3.2901219984269021E+00
   3.2714965138528744E+00   3.2529764687354326E+00   3.2345612661784866E+00   3.2162503126649815E+00   3.1980430180377928E+00
   3.1799387954806915E+00   3.1619370614994318E+00   3.1440372359029474E+00   3.1262387417846509E+00   3.1085410055038443E+00
   3.0909434566672278E+00   3.0734455281105171E+00   3.0560466558801536E+00   3.0387462792151485E+00   3.0215438405289956E+00
   3.0044387853917018E+00   2.9874305625119200E+00   2.9705186237191792E+00   2.9537024239462233E+00   2.9369814212114398E+00
   2.9203550766013811E+00   2.9038228542534168E+00   2.8873842213384471E+00   2.8710386480437382E+00   2.8547856075558342E+00
   2.8386245760435966E+00   2.8225550326413051E+00   2.8065764594318794E+00   2.7906883414301880E+00   2.7748901665664354E+00
   2.7591814256696798E+00   2.7435616124514093E+00   2.7280302234892262E+00   2.7125867582106213E+00   2.6972307188768467E+00
   2.6819616105668653E+00   2.6667789411614078E+00   2.6516822213270999E+00   2.6366709645007069E+00   2.6217446868734409E+00
   2.6069029073753742E+00   2.5921451476599220E+00   2.5774709320884428E+00   2.5628797877149005E+00   2.5483712442706166E+00
   2.5339448341491244E+00   2.5196000923910842E+00   2.5053365566693127E+00   2.4911537672738726E+00   2.4770512670972633E+00
   2.4630286016196745E+00   2.4490853188943560E+00   2.4352209695330398E+00   2.4214351066914586E+00   2.4077272860549441E+00
   2.3940970658241061E+00   2.3805440067005992E+00   2.3670676718729555E+00   2.3536676270025159E+00   2.3403434402094172E+00
   2.3270946820586884E+00   2.3139209255464057E+00   2.3008217460859210E+00   2.2877967214941899E+00   2.2748454319781550E+00
   2.2619674601212250E+00   2.2491623908698184E+00   2.2364298115199768E+00   2.2237693117040798E+00   2.2111804833776083E+00
   2.1986629208060000E+00   2.1862162205515601E+00   2.1738399814604747E+00   2.1615338046498707E+00   2.1492972934949663E+00
   2.1371300536162861E+00   2.1250316928669415E+00   2.1130018213200077E+00   2.1010400512559468E+00   2.0891459971501147E+00
   2.0773192756603289E+00   2.0655595056145239E+00   2.0538663079984611E+00   2.0422393059435118E+00   2.0306781247145151E+00
   2.0191823916976919E+00   2.0077517363886481E+00   1.9963857903804265E+00   1.9850841873516252E+00   1.9738465630546083E+00
   1.9626725553037543E+00   1.9515618039637843E+00   1.9405139509381601E+00   1.9295286401575336E+00   1.9186055175682815E+00
   1.9077442311210877E+00   1.8969444307596017E+00   1.8862057684091447E+00   1.8755278979655066E+00   1.8649104752837835E+00
   1.8543531581672854E+00   1.8438556063565072E+00   1.8334174815181652E+00   1.8230384472342915E+00   1.8127181689913903E+00
   1.8024563141696601E+00   1.7922525520322625E+00   1.7821065537146794E+00   1.7720179922141022E+00   1.7619865423788947E+00
   1.7520118808981144E+00   1.7420936862910918E+00   1.7322316388970713E+00   1.7224254208649090E+00   1.7126747161428189E+00
   1.7029792104682002E+00   1.6933385913575019E+00   1.6837525480961535E+00   1.6742207717285433E+00   1.6647429550480741E+00
   1.6553187925872497E+00   1.6459479806078390E+00   1.6366302170910827E+00   1.6273652017279541E+00   1.6181526359094898E+00
   1.6089922227171602E+00   1.5998836669133027E+00   1.5908266749315998E+00   1.5818209548676261E+00   1.5728662164694345E+00
   1.5639621711282043E+00   1.5551085318689384E+00   1.5463050133412120E+00   1.5375513318099807E+00   1.5288472051464348E+00
   1.5201923528188981E+00   1.5115864958837972E+00   1.5030293569766700E+00   1.4945206603032160E+00   1.4860601316304247E+00
   1.4776474982777150E+00   1.4692824891081699E+00   1.4609648345197821E+00   1.4526942664367692E+00   1.4444705183009361E+00
   1.4362933250630794E+00   1.4281624231744521E+00   1.4200775505782610E+00   1.4120384467012252E+00   1.4040448524451767E+00
   1.3960965101787135E+00   1.3881931637288898E+00   1.3803345583729634E+00   1.3725204408301861E+00   1.3647505592536375E+00
   1.3570246632221157E+00   1.3493425037320561E+00   1.3417038331895126E+00   1.3341084054021741E+00   1.3265559755714367E+00
   1.3190463002845045E+00   1.3115791375065495E+00   1.3041542465729115E+00   1.2967713881813374E+00   1.2894303243842788E+00
   1.2821308185812041E+00   1.2748726355109956E+00   1.2676555412443473E+00   1.2604793031762427E+00   1.2533436900184383E+00
   1.2462484717920304E+00   1.2391934198200272E+00   1.2321783067199839E+00   1.2252029063966805E+00   1.2182669940348179E+00
   1.2113703460917942E+00   1.2045127402904801E+00   1.1976939556120714E+00   1.1909137722889476E+00   1.1841719717976091E+00
   1.1774683368516179E+00   1.1708026513946033E+00   1.1641747005932932E+00   1.1575842708305943E+00   1.1510311496987073E+00
   1.1445151259922748E+00   1.1380359897015855E+00   1.1315935320057884E+00   1.1251875452661833E+00   1.1188178230195118E+00
   1.1124841599713118E+00   1.1061863519892969E+00   1.0999241960967783E+00   1.0936974904661276E+00   1.0875060344122625E+00
   1.0813496283861856E+00   1.0752280739685502E+00   1.0691411738632683E+00   1.0630887318911486E+00   1.0570705529835724E+00
   1.0510864431762110E+00   1.0451362096027694E+00   1.0392196604887776E+00   1.0333366051453994E+00   1.0274868539632933E+00
   1.0216702184065003E+00   1.0158865110063673E+00   1.0101355453555034E+00   1.0044171361017733E+00   9.9873109894232237E-01
   9.9307725061763663E-01   9.8745540890564021E-01   9.8186539261581474E-01   9.7630702158336469E-01   9.7078011666340824E-01
   9.6528449972520869E-01   9.5981999364642179E-01   9.5438642230740067E-01   9.4898361058550940E-01   9.4361138434948133E-01
   9.3826957045381099E-01   9.3295799673316626E-01   9.2767649199684443E-01   9.2242488602325134E-01   9.1720300955442113E-01
   9.1201069429054948E-01   9.0684777288458240E-01   9.0171407893681221E-01   8.9660944698951950E-01   8.9153371252163693E-01
   8.8648671194345197E-01   8.8146828259132703E-01   8.7647826272246032E-01   8.7151649150967569E-01   8.6658280903622875E-01
   8.6167705629066593E-01   8.5679907516168907E-01   8.5194870843306214E-01   8.4712579977854552E-01   8.4233019375685425E-01
   8.3756173580665183E-01   8.3282027224156374E-01   8.2810565024522653E-01   8.2341771786636064E-01   8.1875632401387544E-01
   8.1412131845199465E-01   8.0951255179541703E-01   8.0492987550450024E-01   8.0037314188047159E-01   7.9584220406067152E-01
   7.9133691601381351E-01   7.8685713253528067E-01   7.8240270924244404E-01   7.7797350257001086E-01   7.7356936976539248E-01
   7.6919016888410585E-01   7.6483575878519683E-01   7.6050599912669026E-01   7.5620075036106849E-01   7.5191987373076874E-01
   7.4766323126371248E-01   7.4343068576885729E-01   7.3922210083177720E-01   7.3503734081025651E-01   7.3087627082992934E-01
   7.2673875677992095E-01   7.2262466530852876E-01   7.1853386381892603E-01   7.1446622046488073E-01   7.1042160414650990E-01
   7.0639988450605062E-01   7.0240093192366126E-01   6.9842461751323426E-01   6.9447081311825087E-01   6.9053939130764208E-01
   6.8663022537168295E-01   6.8274318931790556E-01   6.7887815786704087E-01   6.7503500644897330E-01   6.7121361119872858E-01
   6.6741384895247835E-01   6.6363559724356835E-01   6.5987873429857191E-01   6.5614313903335986E-01   6.5242869104919810E-01
   6.4873527062886405E-01   6.4506275873278918E-01   6.4141103699521473E-01   6.3777998772037925E-01   6.3416949387872068E-01
   6.3057943910310221E-01   6.2700970768506181E-01   6.2346018457107599E-01   6.1993075535885278E-01   6.1642130629363900E-01
   6.1293172426455511E-01   6.0946189680094176E-01   6.0601171206873550E-01   6.0258105886686009E-01   5.9916982662363816E-01
   5.9577790539322817E-01   5.9240518585207214E-01   5.8905155929537190E-01   5.8571691763358158E-01   5.8240115338892084E-01
   5.7910415969190454E-01   5.7582583027789691E-01   5.7256605948368111E-01   5.6932474224405005E-01   5.6610177408841811E-01
   5.6289705113744259E-01   5.5971047009968122E-01   5.5654192826824977E-01   5.5339132351751075E-01   5.5025855429977766E-01
   5.4714351964203456E-01   5.4404611914267731E-01   5.4096625296827305E-01   5.3790382185033747E-01   5.3485872708212490E-01
   5.3183087051544897E-01   5.2882015455750608E-01   5.2582648216772676E-01   5.2284975685464141E-01   5.1988988267276470E-01
   5.1694676421949359E-01   5.1402030663202769E-01   5.1111041558430381E-01   5.0821699728394776E-01   5.0533995846924695E-01
   5.0247920640613142E-01   4.9963464888518100E-01   4.9680619421864292E-01   4.9399375123747019E-01   4.9119722928837195E-01
   4.8841653823088438E-01   4.8565158843445499E-01   4.8290229077554470E-01   4.8016855663474717E-01   4.7745029789391946E-01
   4.7474742693333344E-01   4.7205985662883998E-01   4.6938750034905297E-01   4.6673027195254180E-01   4.6408808578504535E-01
   4.6146085667670000E-01   4.5884849993928145E-01   4.5625093136346379E-01   4.5366806721609143E-01   4.5109982423746670E-01
   4.4854611963865421E-01   4.4600687109879938E-01   4.4348199676245775E-01   4.4097141523694472E-01   4.3847504558969685E-01
   4.3599280734564633E-01   4.3352462048461515E-01   4.3107040543871394E-01   4.2863008308976713E-01   4.2620357476674064E-01
   4.2379080224319332E-01   4.2139168773473312E-01   4.1900615389649493E-01   4.1663412382062748E-01   4.1427552103379500E-01
   4.1193026949469508E-01   4.0959829359158179E-01   4.0727951813981439E-01   4.0497386837940796E-01   4.0268126997260512E-01
   4.0040164900145314E-01   3.9813493196540434E-01   3.9588104577891858E-01   3.9363991776908597E-01   3.9141147567325846E-01
   3.8919564763669606E-01   3.8699236221022587E-01   3.8480154834790942E-01   3.8262313540472975E-01   3.8045705313428102E-01
   3.7830323168648189E-01   3.7616160160528966E-01   3.7403209382643487E-01   3.7191463967516225E-01   3.6980917086398701E-01
   3.6771561949046222E-01   3.6563391803495493E-01   3.6356399935843803E-01   3.6150579670029043E-01   3.5945924367611187E-01
   3.5742427427554391E-01   3.5540082286010743E-01   3.5338882416104817E-01   3.5138821327719438E-01   3.4939892567282582E-01
   3.4742089717555119E-01   3.4545406397419970E-01   3.4349836261672073E-01   3.4155373000809669E-01   3.3962010340826249E-01
   3.3769742043003914E-01   3.3578561903707621E-01   3.3388463754180364E-01   3.3199441460339707E-01   3.3011488922574661E-01
   3.2824600075544458E-01   3.2638768887977482E-01   3.2453989362471802E-01   3.2270255535296077E-01   3.2087561476192183E-01
   3.1905901288178018E-01   3.1725269107351795E-01   3.1545659102697143E-01   3.1367065475888745E-01   3.1189482461099727E-01
   3.1012904324809049E-01   3.0837325365610485E-01   3.0662739914021958E-01   3.0489142332296393E-01   3.0316527014232730E-01
   3.0144888384988361E-01   2.9974220900892151E-01   2.9804519049258388E-01   2.9635777348201681E-01   2.9467990346452339E-01
   2.9301152623173027E-01   2.9135258787775897E-01   2.8970303479740772E-01   2.8806281368433861E-01   2.8643187152927518E-01
   2.8481015561820572E-01   2.8319761353059603E-01   2.8159419313760931E-01   2.7999984260033189E-01   2.7841451036800913E-01
   2.7683814517628591E-01   2.7527069604545779E-01   2.7371211227872533E-01   2.7216234346045814E-01   2.7062133945446554E-01
   2.6908905040227310E-01   2.6756542672140798E-01   2.6605041910368799E-01   2.6454397851351957E-01   2.6304605618620203E-01
   2.6155660362623789E-01   2.6007557260564840E-01   2.5860291516229733E-01   2.5713858359822006E-01   2.5568253047795719E-01
   2.5423470862689845E-01   2.5279507112962535E-01   2.5136357132826814E-01   2.4994016282086068E-01   2.4852479945970696E-01
   2.4711743534974739E-01   2.4571802484693700E-01   2.4432652255662274E-01   2.4294288333192951E-01   2.4156706227215169E-01
   2.4019901472114533E-01   2.3883869626573218E-01   2.3748606273410128E-01   2.3614107019422143E-01   2.3480367495225227E-01
   2.3347383355096632E-01   2.3215150276817004E-01   2.3083663961513187E-01   2.2952920133501378E-01   2.2822914540130707E-01
   2.2693642951627285E-01   2.2565101160938392E-01   2.2437284983577394E-01   2.2310190257468723E-01   2.2183812842793504E-01
   2.2058148621835208E-01   2.1933193498825876E-01   2.1808943399792632E-01   2.1685394272404437E-01   2.1562542085819283E-01
   2.1440382830531446E-01   2.1318912518219391E-01   2.1198127181593457E-01   2.1078022874244332E-01   2.0958595670491506E-01
   2.0839841665231842E-01   2.0721756973788766E-01   2.0604337731761191E-01   2.0487580094873123E-01   2.0371480238823239E-01
   2.0256034359134523E-01   2.0141238671004430E-01   2.0027089409154886E-01   1.9913582827682541E-01   1.9800715199909441E-01
   1.9688482818233349E-01   1.9576881993978565E-01   1.9465909057246819E-01   1.9355560356767917E-01   1.9245832259751203E-01
   1.9136721151736158E-01   1.9028223436443908E-01   1.8920335535628366E-01   1.8813053888927483E-01   1.8706374953714486E-01
   1.8600295204949441E-01   1.8494811135030384E-01   1.8389919253644901E-01   1.8285616087621273E-01   1.8181898180779962E-01
   1.8078762093785017E-01   1.7976204403995086E-01   1.7874221705314980E-01   1.7772810608046638E-01   1.7671967738740332E-01
   1.7571689740045757E-01   1.7471973270562821E-01   1.7372815004692674E-01   1.7274211632488432E-01   1.7176159859505680E-01
   1.7078656406653162E-01   1.6981698010043009E-01   1.6885281420840945E-01   1.6789403405116515E-01   1.6694060743692815E-01
   1.6599250231996335E-01   1.6504968679906426E-01   1.6411212911604584E-01   1.6317979765423873E-01   1.6225266093697527E-01
   1.6133068762607838E-01   1.6041384652034729E-01   1.5950210655403840E-01   1.5859543679534718E-01   1.5769380644488429E-01
   1.5679718483415209E-01   1.5590554142401736E-01   1.5501884580318009E-01   1.5413706768664218E-01   1.5326017691417052E-01
   1.5238814344875926E-01   1.5152093737508907E-01   1.5065852889798217E-01   1.4980088834085561E-01   1.4894798614417160E-01
   1.4809979286388270E-01   1.4725627916987891E-01   1.4641741584442483E-01   1.4558317378059973E-01   1.4475352398073238E-01
   1.4392843755483115E-01   1.4310788571901348E-01   1.4229183979393212E-01   1.4148027120319651E-01   1.4067315147179332E-01
   1.3987045222450237E-01   1.3907214518431071E-01   1.3827820217082423E-01   1.3748859509867412E-01   1.3670329597592473E-01
   1.3592227690247463E-01   1.3514551006845751E-01   1.3437296775264143E-01   1.3360462232082240E-01   1.3284044622421995E-01
   1.3208041199786832E-01   1.3132449225900589E-01   1.3057265970546414E-01   1.2982488711405393E-01   1.2908114733895071E-01
   1.2834141331008062E-01   1.2760565803150253E-01   1.2687385457979250E-01   1.2614597610242598E-01   1.2542199581616092E-01
   1.2470188700542227E-01   1.2398562302068417E-01   1.2327317727685663E-01   1.2256452325167157E-01   1.2185963448407081E-01
   1.2115848457259733E-01   1.2046104717378756E-01   1.1976729600056869E-01   1.1907720482065855E-01   1.1839074745496943E-01
   1.1770789777601712E-01   1.1702862970633615E-01   1.1635291721689825E-01   1.1568073432554099E-01   1.1501205509540063E-01
   1.1434685363335459E-01   1.1368510408847256E-01   1.1302678065047565E-01   1.1237185754820915E-01   1.1172030904812166E-01
   1.1107210945276129E-01   1.1042723309928175E-01   1.0978565435796356E-01   1.0914734763074969E-01   1.0851228734979917E-01
   1.0788044797605534E-01   1.0725180399783529E-01   1.0662632992943628E-01   1.0600400030976560E-01   1.0538478970099203E-01
   1.0476867268721911E-01   1.0415562387318725E-01   1.0354561788299914E-01   1.0293862935887527E-01   1.0233463295993926E-01
   1.0173360336103331E-01   1.0113551525156914E-01   1.0054034333441313E-01   9.9948062324807560E-02   9.9358646949333024E-02
   9.8772071944910111E-02   9.8188312057844909E-02   9.7607342042921028E-02   9.7029136662537402E-02   9.6453670685897913E-02
   9.5880918888252231E-02   9.5310856050192544E-02   9.4743456957007935E-02   9.4178696398098033E-02   9.3616549166451277E-02
   9.3056990058188613E-02   9.2499993872175418E-02   9.1945535409706819E-02   9.1393589474266609E-02   9.0844130871366377E-02
   9.0297134408465263E-02   8.9752574894974971E-02   8.9210427142353929E-02   8.8670665964294251E-02   8.8133266177003303E-02
   8.7598202599587671E-02   8.7065450054538737E-02   8.6534983368327767E-02   8.6006777372112944E-02   8.5480806902561879E-02
   8.4957046802796546E-02   8.4435471923461194E-02   8.3916057123922486E-02   8.3398777273602523E-02   8.2883607253451078E-02
   8.2370521957562073E-02   8.1859496294939799E-02   8.1350505191417399E-02   8.0843523591736119E-02   8.0338526461787435E-02
   7.9835488791025463E-02   7.9334385595054693E-02   7.8835191918395955E-02   7.8337882837441433E-02   7.7842433463597441E-02
   7.7348818946626680E-02   7.6857014478192237E-02   7.6366995295608878E-02   7.5878736685809370E-02   7.5392213989530679E-02
   7.4907402605723927E-02   7.4424277996197316E-02   7.3942815690494490E-02   7.3462991291015745E-02   7.2984780478388606E-02
   7.2508159017090068E-02   7.2033102761330278E-02   7.1559587661199422E-02   7.1087589769085718E-02   7.0617085246369227E-02
   7.0148050370394469E-02   6.9680461541730923E-02   6.9214295291722475E-02   6.8749528290331735E-02   6.8286137354284890E-02
   6.7824099455518372E-02   6.7363391729934594E-02   6.6903991486468153E-02   6.6445876216465388E-02   6.5989023603382324E-02
   6.5533411532802399E-02   6.5079018102774555E-02   6.4625821634477401E-02   6.4173800683205995E-02   6.3722934049685459E-02
   6.3273200791710518E-02   6.2824580236109387E-02   6.2377051991033806E-02   6.1930595958569867E-02   6.1485192347671504E-02
   6.1040821687410339E-02   6.0597464840539260E-02   6.0155103017365180E-02   5.9713717789926693E-02   5.9273291106467313E-02
   5.8833805306200769E-02   5.8395243134356706E-02   5.7957587757500713E-02   5.7520822779116680E-02   5.7084932255439466E-02
   5.6649900711528756E-02   5.6215713157566349E-02   5.5782355105365451E-02   5.5349812585074640E-02   5.4918072162059052E-02
   5.4487120953940857E-02   5.4056946647780241E-02   5.3627537517372509E-02   5.3198882440643455E-02   5.2770970917114593E-02
   5.2343793085416021E-02   5.1917339740820086E-02   5.1491602352765162E-02   5.1066573082343761E-02   5.0642244799720654E-02
   5.0218611101451163E-02   4.9795666327664884E-02   4.9373405579078621E-02   4.8951824733804522E-02   4.8530920463913663E-02
   4.8110690251715618E-02   4.7691132405715785E-02   4.7272246076206302E-02   4.6854031270449209E-02   4.6436488867408629E-02
   4.6019620631984406E-02   4.5603429228704452E-02   4.5187918234827373E-02   4.4773092152807503E-02   4.4358956422076615E-02
   4.3945517430090328E-02   4.3532782522593169E-02   4.3120760013051394E-02   4.2709459191203995E-02   4.2298890330683847E-02
   4.1889064695657348E-02   4.1479994546436576E-02   4.1071693144013037E-02   4.0664174753465968E-02   4.0257454646198620E-02
   3.9851549100957250E-02   3.9446475403585812E-02   3.9042251845476439E-02   3.8638897720671236E-02   3.8236433321577931E-02
   3.7834879933260922E-02   3.7434259826271438E-02   3.7034596247987078E-02   3.6635913412426460E-02   3.6238236488515610E-02
   3.5841591586780214E-02   3.5446005744442691E-02   3.5051506908908230E-02   3.4658123919626221E-02   3.4265886488315682E-02
   3.3874825177552165E-02   3.3484971377712239E-02   3.3096357282280192E-02   3.2709015861525234E-02   3.2322980834558986E-02
   3.1938286639793277E-02   3.1554968403818752E-02   3.1173061908730447E-02   3.0792603557934436E-02   3.0413630340469219E-02
   3.0036179793887043E-02   2.9660289965739443E-02   2.9285999373719430E-02   2.8913346964518187E-02   2.8542372071455845E-02
   2.8173114370953937E-02   2.7805613837920788E-02   2.7439910700122801E-02   2.7076045391623747E-02   2.6714058505374689E-02
   2.6353990745040558E-02   2.5995882876157672E-02   2.5639775676712797E-02   2.5285709887243907E-02   2.4933726160561862E-02
   2.4583865011194743E-02   2.4236166764661421E-02   2.3890671506678042E-02   2.3547419032408114E-02   2.3206448795862516E-02
   2.2867799859559459E-02   2.2531510844553914E-02   2.2197619880946873E-02   2.1866164558979422E-02   2.1537181880824534E-02
   2.1210708213177564E-02   2.0886779240753401E-02   2.0565429920790974E-02   2.0246694438663816E-02   1.9930606164695778E-02
   1.9617197612272021E-02   1.9306500397337157E-02   1.8998545199365273E-02   1.8693361723882501E-02   1.8390978666619540E-02
   1.8091423679366204E-02   1.7794723337592730E-02   1.7500903109901714E-02   1.7209987329364077E-02   1.6921999166790366E-02
   1.6636960605982333E-02   1.6354892420999911E-02   1.6075814155479807E-02   1.5799744104029158E-02   1.5526699295714616E-02
   1.5256695479661618E-02   1.4989747112770298E-02   1.4725867349551097E-02   1.4465068034075084E-02   1.4207359694028398E-02
   1.3952751536856231E-02   1.3701251447973628E-02   1.3452865991017407E-02   1.3207600410106898E-02   1.2965458634075878E-02
   1.2726443282634619E-02   1.2490555674416469E-02   1.2257795836856577E-02   1.2028162517850905E-02   1.1801653199135179E-02
   1.1578264111323459E-02   1.1357990250542176E-02   1.1140825396590958E-02   1.0926762132561798E-02   1.0715791865843507E-02
   1.0507904850438695E-02   1.0303090210517256E-02   1.0101335965129585E-02   9.9026290540023092E-03   9.7069553643389078E-03
   9.5142997585448853E-03   9.3246461028011502E-03   9.1379772964050188E-03   8.9542753018018156E-03   8.7735211752299966E-03
   8.5956950979018554E-03   8.4207764076463069E-03   8.2487436309381032E-03   8.0795745152415291E-03   7.9132460615983155E-03
   7.7497345573896573E-03   7.5890156092059723E-03   7.4310641757599971E-03   7.2758546007793039E-03   7.1233606458196447E-03
   6.9735555229399537E-03   6.8264119271843858E-03   6.6819020688192168E-03   6.5399977052732101E-03   6.4006701727358324E-03
   6.2638904173673493E-03   6.1296290260793723E-03   5.9978562568472294E-03   5.8685420685165076E-03   5.7416561500713541E-03
   5.6171679493324791E-03   5.4950467010565799E-03   5.3752614544120923E-03   5.2577810998068490E-03   5.1425743950474900E-03
   5.0296099908125327E-03   4.9188564554220318E-03   4.8102822988913491E-03   4.7038559962565485E-03   4.5995460101622924E-03
   4.4973208127054264E-03   4.3971489065277453E-03   4.2989988451556842E-03   4.2028392525842164E-03   4.1086388421052878E-03
   4.0163664343826943E-03   3.9259909747756628E-03   3.8374815499166107E-03   3.7508074035481260E-03   3.6659379516265989E-03
   3.5828427967007923E-03   3.5014917415748434E-03   3.4218548022650914E-03   3.3439022202634157E-03   3.2676044741177103E-03
   3.1929322903433465E-03   3.1198566536784354E-03   3.0483488166971676E-03   2.9783803087960370E-03   2.9099229445677874E-03
   2.8429488315785210E-03   2.7774303775640308E-03   2.7133402970611529E-03   2.6506516174907764E-03   2.5893376847088466E-03
   2.5293721680418727E-03   2.4707290648239119E-03   2.4133827044514971E-03   2.3573077519734543E-03   2.3024792112323325E-03
   2.2488724275735311E-03   2.1964630901393947E-03   2.1452272337640866E-03   2.0951412404854727E-03   2.0461818406901674E-03
   1.9983261139072581E-03   1.9515514892664418E-03   1.9058357456356631E-03   1.8611570114531655E-03   1.8174937642687729E-03
   1.7748248300085748E-03   1.7331293819771944E-03   1.6923869396112993E-03   1.6525773669975659E-03   1.6136808711682384E-03
   1.5756780001870429E-03   1.5385496410373648E-03   1.5022770173252088E-03   1.4668416868077933E-03   1.4322255387596852E-03
   1.3984107911868848E-03   1.3653799878994299E-03   1.3331159954527323E-03   1.3016019999672755E-03   1.2708215038362140E-03
   1.2407583223298529E-03   1.2113965801056710E-03   1.1827207076323101E-03   1.1547154375356329E-03   1.1273658008743147E-03
   1.1006571233526422E-03   1.0745750214773025E-03   1.0491053986650381E-03   1.0242344413076618E-03   9.9994861480036498E-04
   9.7623465953942999E-04   9.5307958689470364E-04   9.3047067516220140E-04   9.0839546550195468E-04   8.8684175786571124E-04
   8.6579760691909557E-04   8.4525131796257173E-04   8.2519144285505294E-04   8.0560677594420467E-04   7.8648635000683556E-04
   7.6781943220285271E-04   7.4959552004600759E-04   7.3180433739422775E-04   7.1443583046256105E-04   6.9748016386114210E-04
   6.8092771666068913E-04   6.6476907848785137E-04   6.4899504565235882E-04   6.3359661730809575E-04   6.1856499164975151E-04
   6.0389156214675987E-04   5.8956791381609326E-04   5.7558581953520704E-04   5.6193723639645101E-04   5.4861430210413847E-04
   5.3560933141518830E-04   5.2291481262441055E-04   5.1052340409514908E-04   4.9842793083604406E-04   4.8662138112461745E-04
   4.7509690317809014E-04   4.6384780187205365E-04   4.5286753550727115E-04   4.4214971262495376E-04   4.3168808887080709E-04
   4.2147656390792307E-04   4.1150917837875134E-04   4.0178011091610651E-04   3.9228367520325680E-04   3.8301431708306888E-04
   3.7396661171605437E-04   3.6513526078719804E-04   3.5651508976141717E-04   3.4810104518734309E-04   3.3988819204925274E-04
   3.3187171116678152E-04   3.2404689664211123E-04   3.1640915335429012E-04   3.0895399450027748E-04   3.0167703918229004E-04
   2.9457401004104317E-04   2.8764073093439767E-04   2.8087312466096277E-04   2.7426721072814963E-04   2.6781910316414696E-04
   2.6152500837332436E-04   2.5538122303449268E-04   2.4938413204151033E-04   2.4353020648563438E-04   2.3781600167906445E-04
   2.3223815521911657E-04   2.2679338509242554E-04   2.2147848781858066E-04   2.1629033663262730E-04   2.1122587970580334E-04
   2.0628213840394609E-04   2.0145620558294387E-04   1.9674524392062902E-04   1.9214648428452554E-04   1.8765722413482909E-04
   1.8327482596203554E-04   1.7899671575861035E-04   1.7482038152409239E-04   1.7074337180304533E-04   1.6676329425527518E-04
   1.6287781425770024E-04   1.5908465353731249E-04   1.5538158883463289E-04   1.5176645059710234E-04   1.4823712170182818E-04
   1.4479153620711865E-04   1.4142767813225072E-04   1.3814358026493205E-04   1.3493732299587762E-04   1.3180703318000020E-04
   1.2875088302364898E-04   1.2576708899738335E-04   1.2285391077377167E-04   1.2000965018967294E-04   1.1723265023253293E-04
   1.1452129405016319E-04   1.1187400398352832E-04   1.0928924062206236E-04   1.0676550188101690E-04   1.0430132210039845E-04
   1.0189527116501160E-04   9.9545953645161791E-05   9.7252007957580311E-05   9.5012105546115946E-05   9.2824950081769989E-05
   9.0689276681658513E-05   8.8603851146468822E-05   8.6567469216014580E-05   8.4578955842479537E-05   8.2637164480962814E-05
   8.0740976396935027E-05   7.8889299990222533E-05   7.7081070135150023E-05   7.5315247536483491E-05   7.3590818100797208E-05
   7.1906792322935789E-05   7.0262204687207517E-05   6.8656113082980332E-05   6.7087598234355543E-05   6.5555763143577647E-05
   6.4059732547884336E-05   6.2598652389467954E-05   6.1171689298250844E-05   5.9778030087181955E-05   5.8416881259751707E-05
   5.7087468529444277E-05   5.5789036350853863E-05   5.4520847462176931E-05   5.3282182438828078E-05   5.2072339257905221E-05
   5.0890632873252132E-05   4.9736394800872312E-05   4.8608972714437005E-05   4.7507730050661076E-05   4.6432045624300716E-05
   4.5381313252548187E-05   4.4354941388602802E-05   4.3352352764189043E-05   4.2372984040818930E-05   4.1416285469579254E-05
   4.0481720559243011E-05   3.9568765752507544E-05   3.8676910110157465E-05   3.7805655002964371E-05   3.6954513811139786E-05
   3.6123011631150307E-05   3.5310684989727062E-05   3.4517081564886106E-05   3.3741759913793859E-05   3.2984289207314097E-05
   3.2244248971065923E-05   3.1521228832844287E-05   3.0814828276239879E-05   3.0124656400310670E-05   2.9450331685160011E-05
   2.8791481763270444E-05   2.8147743196460387E-05   2.7518761258319738E-05   2.6904189721993282E-05   2.6303690653181302E-05
   2.5716934208230061E-05   2.5143598437181719E-05   2.4583369091671914E-05   2.4035939437545902E-05   2.3501010072085341E-05
   2.2978288745726926E-05   2.2467490188164687E-05   2.1968335938728658E-05   2.1480554180934145E-05   2.1003879581097385E-05
   2.0538053130919913E-05   2.0082821993941550E-05   1.9637939355768892E-05   1.9203164277984691E-05   1.8778261555647009E-05
   1.8363001578291070E-05   1.7957160194345457E-05   1.7560518578880363E-05   1.7172863104605264E-05   1.6793985216032227E-05
   1.6423681306732566E-05   1.6061752599606212E-05   1.5708005030089974E-05   1.5362249132233218E-05   1.5024299927568616E-05
   1.4693976816710348E-05   1.4371103473611388E-05   1.4055507742413676E-05   1.3747021536828214E-05   1.3445480741981242E-05
   1.3150725118666734E-05   1.2862598209944991E-05   1.2580947250028920E-05   1.2305623075401644E-05   1.2036480038111603E-05
   1.1773375921188105E-05   1.1516171856129236E-05   1.1264732242405669E-05   1.1018924668935306E-05   1.0778619837477334E-05
   1.0543691487898366E-05   1.0314016325265211E-05   1.0089473948718214E-05   9.8699467820820553E-06   9.6553200061703879E-06
   9.4454814927423310E-06   9.2403217400700767E-06   9.0397338100787237E-06   8.8436132670174585E-06   8.6518581176265703E-06
   8.4643687527614267E-06   8.2810478904381912E-06   8.1018005202667987E-06   7.9265338492352411E-06   7.7551572488138028E-06
   7.5875822033449753E-06   7.4237222596880154E-06   7.2634929780876880E-06   7.1068118842358968E-06   6.9535984224973424E-06
   6.8037739102710366E-06   6.6572614934582336E-06   6.5139861030112883E-06   6.3738744125352105E-06   6.2368547969167170E-06
   6.1028572919559722E-06   5.9718135549748417E-06   5.8436568263794161E-06   5.7183218921518715E-06   5.5957450472493166E-06
   5.4758640598879079E-06   5.3586181366891439E-06   5.2439478886686139E-06   5.1317952980453207E-06   5.0221036858519105E-06
   4.9148176803264665E-06   4.8098831860659501E-06   4.7072473539229861E-06   4.6068585516280969E-06   4.5086663351186669E-06
   4.4126214205584303E-06   4.3186756570296131E-06   4.2267819998816465E-06   4.1368944847206896E-06   4.0489682020234283E-06
   3.9629592723608721E-06   3.8788248222163988E-06   3.7965229603838498E-06   3.7160127549318095E-06   3.6372542107194075E-06
   3.5602082474512028E-06   3.4848366782570710E-06   3.4111021887847194E-06   3.3389683167925344E-06   3.2683994322299817E-06
   3.1993607177940230E-06   3.1318181499501904E-06   3.0657384804062573E-06   3.0010892180283985E-06   2.9378386111883209E-06
