DATE: 2024-04-03 UNITS: metal CONTRIBUTOR: Xiaowang Zhou xzhou@sandia.gov, Lucas Hale lucas.hale@nist.gov, and Germain Clavier g.m.g.c.clavier@tue.nl/germain.clavier@gmail.com
 CITATION: X. W. Zhou, R. A. Johnson, H. N. G. Wadley, Phys. Rev. B, 69, 144113(2004)
Generated by create_eam.py
1     Cu                      
2000  5.0025012506253123e-02   2000  2.8593056495756970e-03   5.7157519935018186e+00  
   29        63.54600         3.61496      fcc
   0.0000000000000000E+00  -1.3575272078492628E-02  -2.7095936009703281E-02  -4.0562097104869688E-02  -5.3973860675230689E-02
  -6.7331332032023572E-02  -8.0634616486487065E-02  -9.3883819349859898E-02  -1.0707904593337936E-01  -1.2022040154828517E-01
  -1.3330799150581374E-01  -1.4634192111720445E-01  -1.5932229569369616E-01  -1.7224922054652547E-01  -1.8512280098693201E-01
  -1.9794314232615351E-01  -2.1071034987542780E-01  -2.2342452894599418E-01  -2.3608578484909026E-01  -2.4869422289595400E-01
  -2.6124994839782478E-01  -2.7375306666593924E-01  -2.8620368301153720E-01  -2.9860190274585585E-01  -3.1094783118013369E-01
  -3.2324157362560968E-01  -3.3548323539352110E-01  -3.4767292179510700E-01  -3.5981073814160491E-01  -3.7189678974425322E-01
  -3.8393118191429121E-01  -3.9591401996295594E-01  -4.0784540920148626E-01  -4.1972545494111946E-01  -4.3155426249309548E-01
  -4.4333193716865160E-01  -4.5505858427902568E-01  -4.6673430913545710E-01  -4.7835921704918283E-01  -4.8993341333144214E-01
  -5.0145700329347309E-01  -5.1293009224651331E-01  -5.2435278550180153E-01  -5.3572518837057681E-01  -5.4704740616407577E-01
  -5.5831954419353824E-01  -5.6954170777020119E-01  -5.8071400220530378E-01  -5.9183653281008375E-01  -6.0290940489577938E-01
  -6.1393272377362929E-01  -6.2490659475487154E-01  -6.3583112315074419E-01  -6.4670641427248621E-01  -6.5753257343133475E-01
  -6.6830970593852934E-01  -6.7903791710530670E-01  -6.8971731224290700E-01  -7.0034799666256653E-01  -7.1093007567552480E-01
  -7.2146365459301975E-01  -7.3194883872628946E-01  -7.4238573338657265E-01  -7.5277444388510739E-01  -7.6311507553313129E-01
  -7.7340773364188342E-01  -7.8365252352260217E-01  -7.9384955048652506E-01  -8.0399891984489080E-01  -8.1410073690893725E-01
  -8.2415510698990335E-01  -8.3416213539902673E-01  -8.4412192744754588E-01  -8.5403458844669966E-01  -8.6390022370772501E-01
  -8.7371893854186100E-01  -8.8349083826034636E-01  -8.9321602817441870E-01  -9.0289461359531575E-01  -9.1252669983427659E-01
  -9.2211239220253949E-01  -9.3165179601134263E-01  -9.4114501657192395E-01  -9.5059215919552198E-01  -9.5999332919337521E-01
  -9.6934863187672082E-01  -9.7865817255679843E-01  -9.8792205654484588E-01  -9.9714038915210068E-01  -1.0063132756898021E+00
  -1.0154408214691879E+00  -1.0245231318014965E+00  -1.0335603119979657E+00  -1.0425524673698345E+00  -1.0514997032283406E+00
  -1.0604021248847224E+00  -1.0692598376502187E+00  -1.0780729468360670E+00  -1.0868415577535051E+00  -1.0955657757137729E+00
  -1.1042457060281077E+00  -1.1128814540077474E+00  -1.1214731249639309E+00  -1.1300208242078962E+00  -1.1385246570508814E+00
  -1.1469847288041248E+00  -1.1554011447788655E+00  -1.1637740102863408E+00  -1.1721034306377889E+00  -1.1803895111444482E+00
  -1.1886323571175579E+00  -1.1968320738683551E+00  -1.2049887667080783E+00  -1.2131025409479665E+00  -1.2211735018992564E+00
  -1.2292017548731879E+00  -1.2371874051809986E+00  -1.2451305581339267E+00  -1.2530313190432103E+00  -1.2608897932200882E+00
  -1.2687060859757981E+00  -1.2764803026215787E+00  -1.2842125484686677E+00  -1.2919029288283039E+00  -1.2995515490117255E+00
  -1.3071585143301705E+00  -1.3147239300948774E+00  -1.3222479016170845E+00  -1.3297305342080294E+00  -1.3371719331789509E+00
  -1.3445722038410877E+00  -1.3519314515056773E+00  -1.3592497814839581E+00  -1.3665272990871689E+00  -1.3737641096265476E+00
  -1.3809603184133319E+00  -1.3881160307587610E+00  -1.3952313519740729E+00  -1.4023063873705048E+00  -1.4093412422592968E+00
  -1.4163360219516861E+00  -1.4232908317589106E+00  -1.4302057769922094E+00  -1.4370809629628205E+00  -1.4439164949819818E+00
  -1.4507124783609320E+00  -1.4574690184109094E+00  -1.4641862204431513E+00  -1.4708641897688972E+00  -1.4775030316993849E+00
  -1.4841028515458523E+00  -1.4906637546195380E+00  -1.4971858462316809E+00  -1.5036692316935181E+00  -1.5101140163162881E+00
  -1.5165203054112297E+00  -1.5228882042895810E+00  -1.5292178182625797E+00  -1.5355092526414649E+00  -1.5417626127374746E+00
  -1.5479780038618458E+00  -1.5541555313258193E+00  -1.5602953004406312E+00  -1.5663974165175205E+00  -1.5724619848677255E+00
  -1.5784891108024846E+00  -1.5844788996330355E+00  -1.5904314566706172E+00  -1.5963468872264674E+00  -1.6022252966118244E+00
  -1.6080667901379269E+00  -1.6138714731160129E+00  -1.6196394508573200E+00  -1.6253708286730877E+00  -1.6310657118745533E+00
  -1.6367242057729559E+00  -1.6423464156795324E+00  -1.6479324469055228E+00  -1.6534824047621641E+00  -1.6589963945606949E+00
  -1.6644745216123535E+00  -1.6699168912283784E+00  -1.6753236087200072E+00  -1.6806947793984790E+00  -1.6860305085750313E+00
  -1.6913309015609026E+00  -1.6965960636673314E+00  -1.7018261002055561E+00  -1.7070211164868141E+00  -1.7121812178223448E+00
  -1.7173065095233857E+00  -1.7223970969011750E+00  -1.7274530852669514E+00  -1.7324745799319532E+00  -1.7374616862074179E+00
  -1.7424145094045846E+00  -1.7473331548346915E+00  -1.7522177278089761E+00  -1.7570683336386774E+00  -1.7618850776350334E+00
  -1.7666680651092823E+00  -1.7714174013726627E+00  -1.7761331917364125E+00  -1.7808155415117697E+00  -1.7854645560099733E+00
  -1.7900803405422614E+00  -1.7946630004198714E+00  -1.7992126409540425E+00  -1.8037293674560131E+00  -1.8082132852370207E+00
  -1.8126644996083034E+00  -1.8170831158811005E+00  -1.8214692393666496E+00  -1.8258229753761885E+00  -1.8301444292209570E+00
  -1.8344337062121918E+00  -1.8386909116611314E+00  -1.8429161508790151E+00  -1.8471095291770803E+00  -1.8512711518665645E+00
  -1.8554011242587081E+00  -1.8594995516647477E+00  -1.8635665393959218E+00  -1.8676021927634687E+00  -1.8716066170786274E+00
  -1.8755799176526351E+00  -1.8795221997967309E+00  -1.8834335688221524E+00  -1.8873141300401379E+00  -1.8911639887619263E+00
  -1.8949832502987554E+00  -1.8987720199618632E+00  -1.9025304030624888E+00  -1.9062585049118697E+00  -1.9099564308212447E+00
  -1.9136242861018509E+00  -1.9172621760649282E+00  -1.9208702060217142E+00  -1.9244484812834461E+00  -1.9279971071613640E+00
  -1.9315161889667050E+00  -1.9350058320107073E+00  -1.9384661416046101E+00  -1.9418972230596505E+00  -1.9452991816870673E+00
  -1.9486721227980990E+00  -1.9520161517039836E+00  -1.9553313737159590E+00  -1.9586178941452641E+00  -1.9618758183031373E+00
  -1.9651052515008156E+00  -1.9683062990495388E+00  -1.9714790662605444E+00  -1.9746236584450703E+00  -1.9777401809143556E+00
  -1.9808287389796380E+00  -1.9838894379521557E+00  -1.9869223831431473E+00  -1.9899276798638512E+00  -1.9929054334255052E+00
  -1.9958557491393476E+00  -1.9987787323166173E+00  -2.0016744882685513E+00  -2.0045431223063890E+00  -2.0073847397413682E+00
  -2.0101994458847274E+00  -2.0129873460477046E+00  -2.0157485455415385E+00  -2.0184831496774667E+00  -2.0211912637667271E+00
  -2.0238729931205595E+00  -2.0265284430502017E+00  -2.0291577188668906E+00  -2.0317609258818656E+00  -2.0343381694063654E+00
  -2.0368895547516268E+00  -2.0394151872288893E+00  -2.0419151721493911E+00  -2.0443896148243694E+00  -2.0468386205650635E+00
  -2.0492622946827117E+00  -2.0516607424885511E+00  -2.0540340692938215E+00  -2.0563823804097598E+00  -2.0587057811476051E+00
  -2.0610043768185955E+00  -2.0632782727339696E+00  -2.0655275742049644E+00  -2.0677523865428191E+00  -2.0699528150587727E+00
  -2.0721289650640622E+00  -2.0742809418699260E+00  -2.0764088507876028E+00  -2.0785127971283308E+00  -2.0805928862033478E+00
  -2.0826492233238927E+00  -2.0846819138012038E+00  -2.0866910629465183E+00  -2.0886767760710758E+00  -2.0906391584861139E+00
  -2.0925783155028705E+00  -2.0944943524325850E+00  -2.0963873745864947E+00  -2.0982574872758373E+00  -2.1001047958118524E+00
  -2.1019294055057780E+00  -2.1037314216688516E+00  -2.1055109496123126E+00  -2.1072680946473978E+00  -2.1090029620853463E+00
  -2.1107156572373973E+00  -2.1124062854147874E+00  -2.1140749519287554E+00  -2.1157217620905397E+00  -2.1173468212113788E+00
  -2.1189502346025102E+00  -2.1205321075751731E+00  -2.1220925454406054E+00  -2.1236316535100448E+00  -2.1251495370947304E+00
  -2.1266463015059007E+00  -2.1281220520547928E+00  -2.1295768940526449E+00  -2.1310109328106970E+00  -2.1324242736401855E+00
  -2.1338170218523493E+00  -2.1351892827584273E+00  -2.1365411616696570E+00  -2.1378727638972763E+00  -2.1391841947525250E+00
  -2.1404755595466400E+00  -2.1417469635908595E+00  -2.1429985121964230E+00  -2.1442303106745677E+00  -2.1454424643365320E+00
  -2.1466350784935542E+00  -2.1478082584568732E+00  -2.1489621095377256E+00  -2.1500967370473516E+00  -2.1512122462969892E+00
  -2.1523087425978749E+00  -2.1533863312612489E+00  -2.1544451175983483E+00  -2.1554852069204116E+00  -2.1565067045386779E+00
  -2.1575097157643848E+00  -2.1584943459087698E+00  -2.1594607002830726E+00  -2.1604088841985303E+00  -2.1613390029663822E+00
  -2.1622511618978653E+00  -2.1631454663042189E+00  -2.1640220214966810E+00  -2.1648809327864895E+00  -2.1657223054848829E+00
  -2.1665462449030999E+00  -2.1673528563523776E+00  -2.1681422451439554E+00  -2.1689145165890715E+00  -2.1696697759989632E+00
  -2.1704084457819008E+00  -2.1711300148833281E+00  -2.1718349603050000E+00  -2.1725234482087776E+00  -2.1731956447565222E+00
  -2.1738517161100934E+00  -2.1744918284313535E+00  -2.1751161478821626E+00  -2.1757248406243828E+00  -2.1763180728198734E+00
  -2.1768960106304971E+00  -2.1774588202181135E+00  -2.1780066677445840E+00  -2.1785397193717699E+00  -2.1790581412615317E+00
  -2.1795620995757305E+00  -2.1800517604762275E+00  -2.1805272901248829E+00  -2.1809888546835587E+00  -2.1814366203141153E+00
  -2.1818707531784129E+00  -2.1822914194383141E+00  -2.1826987852556785E+00  -2.1830930167923674E+00  -2.1834742802102420E+00
  -2.1838427416711634E+00  -2.1841985673369924E+00  -2.1845419233695895E+00  -2.1848729759308152E+00  -2.1851918911825323E+00
  -2.1854988352866003E+00  -2.1857939744048807E+00  -2.1860774746992337E+00  -2.1863495023315216E+00  -2.1866102234636040E+00
  -2.1868598042573422E+00  -2.1870984108745981E+00  -2.1873262094772317E+00  -2.1875433662271040E+00  -2.1877500472860762E+00
  -2.1879464188160092E+00  -2.1881326469787634E+00  -2.1883088979362006E+00  -2.1884753378501820E+00  -2.1886321328825677E+00
  -2.1887794491952186E+00  -2.1889174529499957E+00  -2.1890463103087612E+00  -2.1891661874333743E+00  -2.1892772504856968E+00
  -2.1893796656275897E+00  -2.1894735990209138E+00  -2.1895592168275302E+00  -2.1896366852092997E+00  -2.1897061703280833E+00
  -2.1897678383457420E+00  -2.1898218554241367E+00  -2.1898683877251282E+00  -2.1899076014105776E+00  -2.1899396626423457E+00
  -2.1899647375822937E+00  -2.1899829923922827E+00  -2.1899945932341729E+00  -2.1899997062698260E+00  -2.1899984976611027E+00
  -2.1899911335698641E+00  -2.1899777801579705E+00  -2.1899586035872836E+00  -2.1899337700196639E+00  -2.1899034456169733E+00
  -2.1898677965410709E+00  -2.1898269889538198E+00  -2.1897811890170789E+00  -2.1897305628927106E+00  -2.1896752767425758E+00
  -2.1896154967285346E+00  -2.1895513890124483E+00  -2.1894831197561784E+00  -2.1894108551215852E+00  -2.1893347612705290E+00
  -2.1892550043648726E+00  -2.1891717505664761E+00  -2.1890851660371995E+00  -2.1889954169389050E+00  -2.1889026694334528E+00
  -2.1888070896827050E+00  -2.1887088438485209E+00  -2.1886080980927622E+00  -2.1885050185772901E+00  -2.1883997714639656E+00
  -2.1882925229146490E+00  -2.1881834390912021E+00  -2.1880726861554853E+00  -2.1879604302693596E+00  -2.1878468375946856E+00
  -2.1877320742933253E+00  -2.1876163065271381E+00  -2.1874997004579870E+00  -2.1873824222477309E+00  -2.1872646380582323E+00
  -2.1871465140513511E+00  -2.1870282163889487E+00  -2.1869099112328860E+00  -2.1867917647450241E+00  -2.1866739430872242E+00
  -2.1865566124213465E+00  -2.1864399389092521E+00  -2.1863240887128024E+00  -2.1862092279938583E+00  -2.1860955229142798E+00
  -2.1859831396359297E+00  -2.1858722443206671E+00  -2.1857630031303539E+00  -2.1856555822268509E+00  -2.1855501477720187E+00
  -2.1854468659277191E+00  -2.1853459028558122E+00  -2.1852474247181597E+00  -2.1851515976766218E+00  -2.1850585878930593E+00
  -2.1849685615293346E+00  -2.1848816847473067E+00  -2.1847981237088385E+00  -2.1847180445757890E+00  -2.1846416135100206E+00
  -2.1845689966733937E+00  -2.1845003602277693E+00  -2.1844354426691042E+00  -2.1843716434044866E+00  -2.1843070097494097E+00
  -2.1842415458859858E+00  -2.1841752559689063E+00  -2.1841081441256787E+00  -2.1840402144568483E+00  -2.1839714710362292E+00
  -2.1839019179111214E+00  -2.1838315591025399E+00  -2.1837603986054259E+00  -2.1836884403888677E+00  -2.1836156883963138E+00
  -2.1835421465457854E+00  -2.1834678187300849E+00  -2.1833927088170069E+00  -2.1833168206495399E+00  -2.1832401580460736E+00
  -2.1831627248005971E+00  -2.1830845246829043E+00  -2.1830055614387822E+00  -2.1829258387902164E+00  -2.1828453604355782E+00
  -2.1827641300498195E+00  -2.1826821512846593E+00  -2.1825994277687766E+00  -2.1825159631079911E+00  -2.1824317608854518E+00
  -2.1823468246618170E+00  -2.1822611579754354E+00  -2.1821747643425238E+00  -2.1820876472573483E+00  -2.1819998101923930E+00
  -2.1819112565985401E+00  -2.1818219899052367E+00  -2.1817320135206675E+00  -2.1816413308319262E+00  -2.1815499452051745E+00
  -2.1814578599858145E+00  -2.1813650784986511E+00  -2.1812716040480518E+00  -2.1811774399181081E+00  -2.1810825893727959E+00
  -2.1809870556561304E+00  -2.1808908419923250E+00  -2.1807939515859456E+00  -2.1806963876220591E+00  -2.1805981532663909E+00
  -2.1804992516654704E+00  -2.1803996859467838E+00  -2.1802994592189160E+00  -2.1801985745717021E+00  -2.1800970350763684E+00
  -2.1799948437856753E+00  -2.1798920037340612E+00  -2.1797885179377814E+00  -2.1796843893950482E+00  -2.1795796210861669E+00
  -2.1794742159736740E+00  -2.1793681770024715E+00  -2.1792615070999628E+00  -2.1791542091761813E+00  -2.1790462861239268E+00
  -2.1789377408188919E+00  -2.1788285761197921E+00  -2.1787187948684958E+00  -2.1786083998901473E+00  -2.1784973939932963E+00
  -2.1783857799700179E+00  -2.1782735605960397E+00  -2.1781607386308619E+00  -2.1780473168178776E+00  -2.1779332978844961E+00
  -2.1778186845422560E+00  -2.1777034794869490E+00  -2.1775876853987315E+00  -2.1774713049422441E+00  -2.1773543407667231E+00
  -2.1772367955061145E+00  -2.1771186717791897E+00  -2.1769999721896514E+00  -2.1768806993262486E+00  -2.1767608557628839E+00
  -2.1766404440587226E+00  -2.1765194667583003E+00  -2.1763979263916289E+00  -2.1762758254743022E+00  -2.1761531665076004E+00
  -2.1760299519785957E+00  -2.1759061843602518E+00  -2.1757818661115289E+00  -2.1756569996774822E+00  -2.1755315874893641E+00
  -2.1754056319647210E+00  -2.1752791355074952E+00  -2.1751521005081171E+00  -2.1750245293436081E+00  -2.1748964243776707E+00
  -2.1747677879607865E+00  -2.1746386224303103E+00  -2.1745089301105618E+00  -2.1743787133129193E+00  -2.1742479743359113E+00
  -2.1741167154653067E+00  -2.1739849389742063E+00  -2.1738526471231276E+00  -2.1737198421601018E+00  -2.1735865263207521E+00
  -2.1734527018283880E+00  -2.1733183708940875E+00  -2.1731835357167837E+00  -2.1730481984833503E+00  -2.1729123613686849E+00
  -2.1727760265357912E+00  -2.1726391961358651E+00  -2.1725018723083731E+00  -2.1723640571811362E+00  -2.1722257528704065E+00
  -2.1720869614809524E+00  -2.1719476851061339E+00  -2.1718079258279825E+00  -2.1716676857172792E+00  -2.1715269668336314E+00
  -2.1713857712255482E+00  -2.1712441009305197E+00  -2.1711019579750888E+00  -2.1709593443749267E+00  -2.1708162621349087E+00
  -2.1706727132491865E+00  -2.1705286997012583E+00  -2.1703842234640471E+00  -2.1702392864999664E+00  -2.1700938907609943E+00
  -2.1699480381887430E+00  -2.1698017307145290E+00  -2.1696549702594408E+00  -2.1695077587344112E+00  -2.1693600980402810E+00
  -2.1692119900678715E+00  -2.1690634366980457E+00  -2.1689144398017794E+00  -2.1687650012402244E+00  -2.1686151228647770E+00
  -2.1684648065171390E+00  -2.1683140540293850E+00  -2.1681628672240243E+00  -2.1680112479140656E+00  -2.1678591979030779E+00
  -2.1677067189852561E+00  -2.1675538129454797E+00  -2.1674004815593739E+00  -2.1672467265933726E+00  -2.1670925498047779E+00
  -2.1669379529418196E+00  -2.1667829377437129E+00  -2.1666275059407210E+00  -2.1664716592542099E+00  -2.1663153993967081E+00
  -2.1661587280719652E+00  -2.1660016469750047E+00  -2.1658441577921854E+00  -2.1656862622012536E+00  -2.1655279618714025E+00
  -2.1653692584633246E+00  -2.1652101536292658E+00  -2.1650506490130836E+00  -2.1648907462502973E+00  -2.1647304469681434E+00
  -2.1645697527856274E+00  -2.1644086653135775E+00  -2.1642471861546970E+00  -2.1640853169036154E+00  -2.1639230591469394E+00
  -2.1637604144633058E+00  -2.1635973844234302E+00  -2.1634339705901589E+00  -2.1632701745185154E+00  -2.1631059977557556E+00
  -2.1629414418414123E+00  -2.1627765083073442E+00  -2.1626111986777867E+00  -2.1624455144693981E+00  -2.1622794571913060E+00
  -2.1621130283451588E+00  -2.1619462294251681E+00  -2.1617790619181569E+00  -2.1616115273036058E+00  -2.1614436270537003E+00
  -2.1612753626333721E+00  -2.1611067355003484E+00  -2.1609377471051952E+00  -2.1607683988913609E+00  -2.1605986922952218E+00
  -2.1604286287461250E+00  -2.1602582096664316E+00  -2.1600874364715601E+00  -2.1599163105700296E+00  -2.1597448333635016E+00
  -2.1595730062468230E+00  -2.1594008306080670E+00  -2.1592283078285743E+00  -2.1590554392829957E+00  -2.1588822263393319E+00
  -2.1587086703589744E+00  -2.1585347726967457E+00  -2.1583605347009391E+00  -2.1581859577133593E+00  -2.1580110430693602E+00
  -2.1578357920978859E+00  -2.1576602061215069E+00  -2.1574842864564623E+00  -2.1573080344126940E+00  -2.1571314512938873E+00
  -2.1569545383975095E+00  -2.1567772970148420E+00  -2.1565997284310234E+00  -2.1564218339250849E+00  -2.1562436147699833E+00
  -2.1560650722326429E+00  -2.1558862075739862E+00  -2.1557070220489738E+00  -2.1555275169066368E+00  -2.1553476933901146E+00
  -2.1551675527366885E+00  -2.1549870961778175E+00  -2.1548063249391705E+00  -2.1546252402406632E+00  -2.1544438432964914E+00
  -2.1542621353151623E+00  -2.1540801174995332E+00  -2.1538977910468398E+00  -2.1537151571487310E+00  -2.1535322169913025E+00
  -2.1533489717551291E+00  -2.1531654226152948E+00  -2.1529815707414288E+00  -2.1527974172977347E+00  -2.1526129634430218E+00
  -2.1524282103307386E+00  -2.1522431591090028E+00  -2.1520578109206321E+00  -2.1518721669031740E+00  -2.1516862281889404E+00
  -2.1514999959050325E+00  -2.1513134711733741E+00  -2.1511266551107422E+00  -2.1509395488287932E+00  -2.1507521534340968E+00
  -2.1505644700281610E+00  -2.1503764997074652E+00  -2.1501882435634849E+00  -2.1499997026827242E+00  -2.1498108781467424E+00
  -2.1496217710321810E+00  -2.1494323824107950E+00  -2.1492427133494774E+00  -2.1490527649102900E+00  -2.1488625381504884E+00
  -2.1486720341225505E+00  -2.1484812538742029E+00  -2.1482901984484490E+00  -2.1480988688835945E+00  -2.1479072662132750E+00
  -2.1477153914664804E+00  -2.1475232456675837E+00  -2.1473308298363660E+00  -2.1471381449880402E+00  -2.1469451921332827E+00
  -2.1467519722782491E+00  -2.1465584864246097E+00  -2.1463647355695685E+00  -2.1461707207058884E+00  -2.1459764428219197E+00
  -2.1457819029016201E+00  -2.1455871019245834E+00  -2.1453920408660601E+00  -2.1451967206969833E+00  -2.1450011423839945E+00
  -2.1448053068894621E+00  -2.1446092151715117E+00  -2.1444128681840442E+00  -2.1442162668767617E+00  -2.1440194121951901E+00
  -2.1438223050807013E+00  -2.1436249464705384E+00  -2.1434273372978354E+00  -2.1432294784916421E+00  -2.1430313709769466E+00
  -2.1428330156746931E+00  -2.1426344135018103E+00  -2.1424355653712306E+00  -2.1422364721919096E+00  -2.1420371348688523E+00
  -2.1418375543031312E+00  -2.1416377313919082E+00  -2.1414376670284567E+00  -2.1412373621021827E+00  -2.1410368174986463E+00
  -2.1408360340995793E+00  -2.1406350127829090E+00  -2.1404337544227796E+00  -2.1402322598895696E+00  -2.1400305300499127E+00
  -2.1398285657667198E+00  -2.1396263678991971E+00  -2.1394239373028681E+00  -2.1392212748295898E+00  -2.1390183813275763E+00
  -2.1388152576414150E+00  -2.1386119046120897E+00  -2.1384083230769946E+00  -2.1382045138699590E+00  -2.1380004778212620E+00
  -2.1377962157576542E+00  -2.1375917285023744E+00  -2.1373870168751687E+00  -2.1371820816923117E+00  -2.1369769237666199E+00
  -2.1367715439074733E+00  -2.1365659429208348E+00  -2.1363601216092643E+00  -2.1361540807719388E+00  -2.1359478212046703E+00
  -2.1357413436999253E+00  -2.1355346490468365E+00  -2.1353277380312266E+00  -2.1351206114356232E+00  -2.1349132700392746E+00
  -2.1347057146181694E+00  -2.1344979459450517E+00  -2.1342899647894384E+00  -2.1340817719176388E+00  -2.1338733680927655E+00
  -2.1336647540747564E+00  -2.1334559306203884E+00  -2.1332468984832946E+00  -2.1330376584139805E+00  -2.1328282111598402E+00
  -2.1326185574651721E+00  -2.1324086980711963E+00  -2.1321986337160679E+00  -2.1319883651348945E+00  -2.1317778930597533E+00
  -2.1315672182197032E+00  -2.1313563413408025E+00  -2.1311452631461245E+00  -2.1309339843557722E+00  -2.1307225056868915E+00
  -2.1305108278536919E+00  -2.1302989515674544E+00  -2.1300868775365518E+00  -2.1298746064664611E+00  -2.1296621390597790E+00
  -2.1294494760162359E+00  -2.1292366180327109E+00  -2.1290235658032466E+00  -2.1288103200190625E+00  -2.1285968813685701E+00
  -2.1283832505373881E+00  -2.1281694282083525E+00  -2.1279554150615350E+00  -2.1277412117742558E+00  -2.1275268190210963E+00
  -2.1273122374739133E+00  -2.1270974678018533E+00  -2.1268825106713658E+00  -2.1266673667462155E+00  -2.1264520366874993E+00
  -2.1262365211536545E+00  -2.1260208208004774E+00  -2.1258049362811318E+00  -2.1255888682461661E+00  -2.1253726173435230E+00
  -2.1251561842185547E+00  -2.1249395695140350E+00  -2.1247227738701713E+00  -2.1245057979246202E+00  -2.1242886423124951E+00
  -2.1240713076663846E+00  -2.1238537946163598E+00  -2.1236361037899902E+00  -2.1234182358123541E+00  -2.1232001913060543E+00
  -2.1229819708912232E+00  -2.1227635751855432E+00  -2.1225450048042527E+00  -2.1223262603601607E+00  -2.1221073424636594E+00
  -2.1218882517227340E+00  -2.1216689887429756E+00  -2.1214495541275915E+00  -2.1212299484774197E+00  -2.1210101723909380E+00
  -2.1207902264642775E+00  -2.1205701112912294E+00  -2.1203498274632637E+00  -2.1201293755695345E+00  -2.1199087561968928E+00
  -2.1196879699298989E+00  -2.1194670173508330E+00  -2.1192458990397052E+00  -2.1190246155742676E+00  -2.1188031675300243E+00
  -2.1185815554802425E+00  -2.1183597799959641E+00  -2.1181378416460159E+00  -2.1179157409970193E+00  -2.1176934786134014E+00
  -2.1174710550574076E+00  -2.1172484708891086E+00  -2.1170257266664123E+00  -2.1168028229450755E+00  -2.1165797602787118E+00
  -2.1163565392188044E+00  -2.1161331603147131E+00  -2.1159096241136868E+00  -2.1156859311608738E+00  -2.1154620819993295E+00
  -2.1152380771700283E+00  -2.1150139172118734E+00  -2.1147896026617041E+00  -2.1145651340543097E+00  -2.1143405119224368E+00
  -2.1141157367967964E+00  -2.1138908092060809E+00  -2.1136657296769648E+00  -2.1134404987341204E+00  -2.1132151169002249E+00
  -2.1129895846959696E+00  -2.1127639026400704E+00  -2.1125380712492756E+00  -2.1123120910383766E+00  -2.1120859625202151E+00
  -2.1118596862056949E+00  -2.1116332626037884E+00  -2.1114066922215478E+00  -2.1111799755641112E+00  -2.1109531131347152E+00
  -2.1107261054347002E+00  -2.1104989529635212E+00  -2.1102716562187571E+00  -2.1100442156961177E+00  -2.1098166318894531E+00
  -2.1095889052907615E+00  -2.1093610363902009E+00  -2.1091330256760932E+00  -2.1089048736349358E+00  -2.1086765807514083E+00
  -2.1084481475083821E+00  -2.1082195743869270E+00  -2.1079908618663237E+00  -2.1077620104240644E+00  -2.1075330205358704E+00
  -2.1073038926756911E+00  -2.1070746273157197E+00  -2.1068452249263960E+00  -2.1066156859764167E+00  -2.1063860109327441E+00
  -2.1061562002606116E+00  -2.1059262544235327E+00  -2.1056961738833118E+00  -2.1054659591000449E+00  -2.1052356105321350E+00
  -2.1050051286362956E+00  -2.1047745138675582E+00  -2.1045437666792828E+00  -2.1043128875231618E+00  -2.1040818768492309E+00
  -2.1038507351058735E+00  -2.1036194627398310E+00  -2.1033880601962078E+00  -2.1031565279184807E+00  -2.1029248663485047E+00
  -2.1026930759265219E+00  -2.1024611570911662E+00  -2.1022291102794739E+00  -2.1019969359268855E+00  -2.1017646344672625E+00
  -2.1015322063328821E+00  -2.1012996519544536E+00  -2.1010669717611217E+00  -2.1008341661804750E+00  -2.1006012356385511E+00
  -2.1003681805598444E+00  -2.1001350013673132E+00  -2.0999016984823871E+00  -2.0996682723249713E+00  -2.0994347233134567E+00
  -2.0992010518647253E+00  -2.0989672583941545E+00  -2.0987333433156286E+00  -2.0984993070415405E+00  -2.0982651499828009E+00
  -2.0980308725488452E+00  -2.0977964751476392E+00  -2.0975619581856848E+00  -2.0973273220680269E+00  -2.0970925671982621E+00
  -2.0968576939785404E+00  -2.0966227028095763E+00  -2.0963875940906527E+00  -2.0961523682196264E+00  -2.0959170255929367E+00
  -2.0956815666056103E+00  -2.0954459916512662E+00  -2.0952103011221235E+00  -2.0949744954090095E+00  -2.0947385749013607E+00
  -2.0945025399872326E+00  -2.0942663910533046E+00  -2.0940301284848855E+00  -2.0937937526659218E+00  -2.0935572639790005E+00
  -2.0933206628053553E+00  -2.0930839495248756E+00  -2.0928471245161098E+00  -2.0926101881562693E+00  -2.0923731408212394E+00
  -2.0921359828855803E+00  -2.0918987147225350E+00  -2.0916613367040351E+00  -2.0914238492007056E+00  -2.0911862525818696E+00
  -2.0909485472155573E+00  -2.0907107334685078E+00  -2.0904728117061770E+00  -2.0902347822927414E+00  -2.0899966455911052E+00
  -2.0897584019629054E+00  -2.0895200517685155E+00  -2.0892815953670532E+00  -2.0890430331163850E+00  -2.0888043653731301E+00
  -2.0885655924926683E+00  -2.0883267148291424E+00  -2.0880877327354668E+00  -2.0878486465633292E+00  -2.0876094566631984E+00
  -2.0873701633843273E+00  -2.0871307670747612E+00  -2.0868912680813394E+00  -2.0866516667497028E+00  -2.0864119634242968E+00
  -2.0861721584483792E+00  -2.0859322521640222E+00  -2.0856922449121198E+00  -2.0854521370323909E+00  -2.0852119288633864E+00
  -2.0849716207424902E+00  -2.0847312130059290E+00  -2.0844907059887747E+00  -2.0842501000249487E+00  -2.0840093954472270E+00
  -2.0837685925872460E+00  -2.0835276917755068E+00  -2.0832866933413796E+00  -2.0830455976131073E+00  -2.0828044049178143E+00
  -2.0825631155815061E+00  -2.0823217299290766E+00  -2.0820802482843126E+00  -2.0818386709698986E+00  -2.0815969983074192E+00
  -2.0813552306173686E+00  -2.0811133682191474E+00  -2.0808714114310765E+00  -2.0806293605703923E+00  -2.0803872159532588E+00
  -2.0801449778947663E+00  -2.0799026467089408E+00  -2.0796602227087435E+00  -2.0794177062060792E+00  -2.0791750975117984E+00
  -2.0789323969357025E+00  -2.0786896047865477E+00  -2.0784467213720497E+00  -2.0782037469988865E+00  -2.0779606819727068E+00
  -2.0777175265981280E+00  -2.0774742811787452E+00  -2.0772309460171350E+00  -2.0769875214148565E+00  -2.0767440076724588E+00
  -2.0765004050894831E+00  -2.0762567139644679E+00  -2.0760129345949538E+00  -2.0757690672774838E+00  -2.0755251123076128E+00
  -2.0752810699799071E+00  -2.0750369405879505E+00  -2.0747927244243494E+00  -2.0745484217807322E+00  -2.0743040329477589E+00
  -2.0740595582151227E+00  -2.0738149978715517E+00  -2.0735703522048157E+00  -2.0733256215017297E+00  -2.0730808060481558E+00
  -2.0728359061290105E+00  -2.0725909220282643E+00  -2.0723458540289497E+00  -2.0721007024131595E+00  -2.0718554674620586E+00
  -2.0716101494558790E+00  -2.0713647486739299E+00  -2.0711192653945982E+00  -2.0708736998953543E+00  -2.0706280524527525E+00
  -2.0703823233424385E+00  -2.0701365128391500E+00  -2.0698906212167230E+00  -2.0696446487480920E+00  -2.0693985957052985E+00
  -2.0691524623594884E+00  -2.0689062489809200E+00  -2.0686599558389669E+00  -2.0684135832021209E+00  -2.0681671313379946E+00
  -2.0679206005133257E+00  -2.0676739909939821E+00  -2.0674273030449619E+00  -2.0671805369303993E+00  -2.0669336929135689E+00
  -2.0666867712568848E+00  -2.0664397722219094E+00  -2.0661926960693533E+00  -2.0659455430590787E+00  -2.0656983134501044E+00
  -2.0654510075006081E+00  -2.0652036254679298E+00  -2.0649561676085755E+00  -2.0647086341782197E+00  -2.0644610254317088E+00
  -2.0642133416230650E+00  -2.0639655830054902E+00  -2.0637177498313659E+00  -2.0634698423522608E+00  -2.0632218608189308E+00
  -2.0629738054813225E+00  -2.0627256765885789E+00  -2.0624774743890391E+00  -2.0622291991302433E+00  -2.0619808510589359E+00
  -2.0617324304210687E+00  -2.0614839374618028E+00  -2.0612353724255130E+00  -2.0609867355557903E+00  -2.0607380270954434E+00
  -2.0604892472865060E+00  -2.0602403963702343E+00  -2.0599914745871142E+00  -2.0597424821768633E+00  -2.0594934193784327E+00
  -2.0592442864300096E+00  -2.0589950835690232E+00  -2.0587458110321442E+00  -2.0584964690552900E+00  -2.0582470578736261E+00
  -2.0579975777215713E+00  -2.0577480288327967E+00  -2.0574984114402315E+00  -2.0572487257760668E+00  -2.0569989720717552E+00
  -2.0567491505580153E+00  -2.0564992614648339E+00  -2.0562493050214710E+00  -2.0559992814564598E+00  -2.0557491909976102E+00
  -2.0554990338720120E+00  -2.0552488103060389E+00  -2.0549985205253476E+00  -2.0547481647548849E+00  -2.0544977432188873E+00
  -2.0542472561408842E+00  -2.0539967037437017E+00  -2.0537460862494643E+00  -2.0534954038795985E+00  -2.0532446568548344E+00
  -2.0529938453952079E+00  -2.0527429697200659E+00  -2.0524920300480662E+00  -2.0522410265971800E+00  -2.0519899595846982E+00
  -2.0517388292272281E+00  -2.0514876357407026E+00  -2.0512363793403758E+00  -2.0509850602408322E+00  -2.0507336786559840E+00
  -2.0504822347990763E+00  -2.0502307288826898E+00  -2.0499791611187410E+00  -2.0497275317184873E+00  -2.0494758408925282E+00
  -2.0492240888508078E+00  -2.0489722758026172E+00  -2.0487204019565959E+00  -2.0484684675207387E+00  -2.0482164727023919E+00
  -2.0479644177082594E+00  -2.0477123027444049E+00  -2.0474601280162523E+00  -2.0472078937285909E+00  -2.0469556000855760E+00
  -2.0467032472907314E+00  -2.0464508355469522E+00  -2.0461983650565059E+00  -2.0459458360210370E+00  -2.0456932486415678E+00
  -2.0454406031184993E+00  -2.0451878996516171E+00  -2.0449351384400902E+00  -2.0446823196824759E+00  -2.0444294435767194E+00
  -2.0441765103201592E+00  -2.0439235201095260E+00  -2.0436704731409487E+00  -2.0434173696099522E+00  -2.0431642097114633E+00
  -2.0429109936398113E+00  -2.0426577215887303E+00  -2.0424043937513616E+00  -2.0421510103202545E+00  -2.0418975714873722E+00
  -2.0416440774440896E+00  -2.0413905283811982E+00  -2.0411369244889057E+00  -2.0408832659568432E+00  -2.0406295529740599E+00
  -2.0403757857290312E+00  -2.0401219644096598E+00  -2.0398680892032743E+00  -2.0396141602966353E+00  -2.0393601778759360E+00
  -2.0391061421268035E+00  -2.0388520532343017E+00  -2.0385979113829338E+00  -2.0383437167566427E+00  -2.0380894695388139E+00
  -2.0378351699122801E+00  -2.0375808180593165E+00  -2.0373264141616514E+00  -2.0370719584004604E+00  -2.0368174509563737E+00
  -2.0365628920094765E+00  -2.0363082817393088E+00  -2.0360536203248705E+00  -2.0357989079446219E+00  -2.0355441447764866E+00
  -2.0352893309978506E+00  -2.0350344667855675E+00  -2.0347795523159591E+00  -2.0345245877648175E+00  -2.0342695733074061E+00
  -2.0340145091184629E+00  -2.0337593953722024E+00  -2.0335042322423149E+00  -2.0332490199019717E+00  -2.0329937585238249E+00
  -2.0327384482800106E+00  -2.0324830893421484E+00  -2.0322276818813472E+00  -2.0319722260682025E+00  -2.0317167220728019E+00
  -2.0314611700647238E+00  -2.0312055702130434E+00  -2.0309499226863283E+00  -2.0306942276526470E+00  -2.0304384852795661E+00
  -2.0301826957341538E+00  -2.0299268591829809E+00  -2.0296709757921239E+00  -2.0294150457271654E+00  -2.0291590691531960E+00
  -2.0289030462348183E+00  -2.0286469771361437E+00  -2.0283908620207987E+00  -2.0281347010519255E+00  -2.0278784943921826E+00
  -2.0276222422037464E+00  -2.0273659446483161E+00  -2.0271096018871093E+00  -2.0268532140808708E+00  -2.0265967813898675E+00
  -2.0263403039738970E+00  -2.0260837819922819E+00  -2.0258272156038779E+00  -2.0255706049670708E+00  -2.0253139502397808E+00
  -2.0250572515794629E+00  -2.0248005091431112E+00  -2.0245437230872545E+00  -2.0242868935679645E+00  -2.0240300207408528E+00
  -2.0237731047610756E+00  -2.0235161457833342E+00  -2.0232591439618748E+00  -2.0230020994504914E+00  -2.0227450124025306E+00
  -2.0224878829708874E+00  -2.0222307113080102E+00  -2.0219734975659014E+00  -2.0217162418961196E+00  -2.0214589444497819E+00
  -2.0212016053775606E+00  -2.0209442248296927E+00  -2.0206868029559746E+00  -2.0204293399057667E+00  -2.0201718358279943E+00
  -2.0199142908711489E+00  -2.0196567051832899E+00  -2.0193990789120475E+00  -2.0191414122046205E+00  -2.0188837052077813E+00
  -2.0186259580678758E+00  -2.0183681709308265E+00  -2.0181103439421308E+00  -2.0178524772468642E+00  -2.0175945709896830E+00
  -2.0173366253148250E+00  -2.0170786403661092E+00  -2.0168206162869384E+00  -2.0165625532203024E+00  -2.0163044513087760E+00
  -2.0160463106945232E+00  -2.0157881315192969E+00  -2.0155299139244414E+00  -2.0152716580508936E+00  -2.0150133640391834E+00
  -2.0147550320294374E+00  -2.0144966621613762E+00  -2.0142382545743209E+00  -2.0139798094071901E+00  -2.0137213267985032E+00
  -2.0134628068863827E+00  -2.0132042498085525E+00  -2.0129456557023433E+00  -2.0126870247046904E+00  -2.0124283569521366E+00
  -2.0121696525808339E+00  -2.0119109117265430E+00  -2.0116521345246379E+00  -2.0113933211101029E+00  -2.0111344716175381E+00
  -2.0108755861811578E+00  -2.0106166649347932E+00  -2.0103577080118931E+00  -2.0100987155455234E+00  -2.0098396876683755E+00
  -2.0095806245127572E+00  -2.0093215262106021E+00  -2.0090623928934663E+00  -2.0088032246925320E+00  -2.0085440217386084E+00
  -2.0082847841621323E+00  -2.0080255120931696E+00  -2.0077662056614174E+00  -2.0075068649962020E+00  -2.0072474902264856E+00
  -2.0069880814808627E+00  -2.0067286388875631E+00  -2.0064691625744544E+00  -2.0062096526690398E+00  -2.0059501092984640E+00
  -2.0056905325895094E+00  -2.0054309226686016E+00  -2.0051712796618069E+00  -2.0049116036948371E+00  -2.0046518948930476E+00
  -2.0043921533814415E+00  -2.0041323792846661E+00  -2.0038725727270204E+00  -2.0036127338324508E+00  -2.0033528627245554E+00
  -2.0030929595265845E+00  -2.0028330243614394E+00  -2.0025730573516776E+00  -2.0023130586195119E+00  -2.0020530282868099E+00
  -2.0017929664750991E+00  -2.0015328733055626E+00  -2.0012727488990465E+00  -2.0010125933760561E+00  -2.0007524068567588E+00
  -2.0004921894609851E+00  -2.0002319413082303E+00  -1.9999716625176558E+00  -1.9997113532080870E+00  -1.9994510134980192E+00
  -1.9991906435056155E+00  -1.9989302433487084E+00  -1.9986698131448020E+00  -1.9984093530110709E+00  -1.9981488630643645E+00
  -1.9978883434212038E+00  -1.9976277941977885E+00  -1.9973672155099904E+00  -1.9971066074733612E+00  -1.9968459702031294E+00
  -1.9965853038142034E+00  -1.9963246084211730E+00  -1.9960638841383069E+00  -1.9958031310795579E+00  -1.9955423493585618E+00
  -1.9952815390886391E+00  -1.9950207003827960E+00  -1.9947598333537233E+00  -1.9944989381138027E+00  -1.9942380147751013E+00
  -1.9939770634493774E+00  -1.9937160842480792E+00  -1.9934550772823467E+00  -1.9931940426630119E+00  -1.9929329805006009E+00
  -1.9926718909053347E+00  -1.9924107739871291E+00  -1.9921496298555956E+00  -1.9918884586200449E+00  -1.9916272603894849E+00
  -1.9913660352726232E+00  -1.9911047833778670E+00  -1.9908435048133277E+00  -1.9905821996868147E+00  -1.9903208681058431E+00
  -1.9900595101776328E+00  -1.9897981260091067E+00  -1.9895367157068957E+00  -1.9892752793773369E+00  -1.9890138171264746E+00
  -1.9887523290600631E+00  -1.9884908152835663E+00  -1.9882292759021580E+00  -1.9879677110207252E+00  -1.9877061207438658E+00
  -1.9874445051758913E+00  -1.9871828644208298E+00  -1.9869211985824213E+00  -1.9866595077641251E+00  -1.9863977920691158E+00
  -1.9861360516002864E+00  -1.9858742864602490E+00  -1.9856124967513349E+00  -1.9853506825755969E+00  -1.9850888440348089E+00
  -1.9848269812304680E+00  -1.9845650942637925E+00  -1.9843031832357274E+00  -1.9840412482469416E+00  -1.9837792893978292E+00
  -1.9835173067885130E+00  -1.9832553005188418E+00  -1.9829932706883933E+00  -1.9827312173964751E+00  -1.9824691407421242E+00
  -1.9822070408241093E+00  -1.9819449177409316E+00  -1.9816827715908232E+00  -1.9814206024717513E+00  -1.9811584104814175E+00
  -1.9808961957172584E+00  -1.9806339582764452E+00  -1.9803716982558885E+00  -1.9801094157522356E+00  -1.9798471108618727E+00
  -1.9795847836809233E+00  -1.9793224343052545E+00  -1.9790600628304724E+00  -1.9787976693519240E+00  -1.9785352539647014E+00
  -1.9782728167636383E+00  -1.9780103578433146E+00  -1.9777478772980512E+00  -1.9774853752219199E+00  -1.9772228517087349E+00
  -1.9769603068520603E+00  -1.9766977407452075E+00  -1.9764351534812379E+00  -1.9761725451529597E+00  -1.9759099158529350E+00
  -1.9756472656734754E+00  -1.9753845947066457E+00  -1.9751219030442619E+00  -1.9748591907778945E+00  -1.9745964579988695E+00
  -1.9743337047982652E+00  -1.9740709312669189E+00  -1.9738081374954217E+00  -1.9735453235741247E+00  -1.9732824895931351E+00
  -1.9730196356423206E+00  -1.9727567618113064E+00  -1.9724938681894808E+00  -1.9722309548659900E+00  -1.9719680219297449E+00
  -1.9717050694694169E+00  -1.9714420975734424E+00  -1.9711791063300210E+00  -1.9709160958271166E+00  -1.9706530661524588E+00
  -1.9703900173935440E+00  -1.9701269496376348E+00  -1.9698638629717620E+00  -1.9696007574827239E+00  -1.9693376332570884E+00
  -1.9690744903811932E+00  -1.9688113289411464E+00  -1.9685481490228269E+00  -1.9682849507118858E+00  -1.9680217340937463E+00
  -1.9677584992536055E+00  -1.9674952462764335E+00  -1.9672319752469765E+00  -1.9669686862497542E+00  -1.9667053793690630E+00
  -1.9664420546889771E+00  -1.9661787122933454E+00  -1.9659153522657977E+00  -1.9656519746897407E+00  -1.9653885796483606E+00
  -1.9651251672246248E+00  -1.9648617375012798E+00  -1.9645982905608550E+00  -1.9643348264856604E+00  -1.9640713453577889E+00
  -1.9638078472591187E+00  -1.9635443322713084E+00  -1.9632808004758047E+00  -1.9630172519538376E+00  -1.9627536867864241E+00
  -1.9624901050543662E+00  -1.9622265068382554E+00  -1.9619628922184684E+00  -1.9616992612751738E+00  -1.9614356140883256E+00
  -1.9611719507376710E+00  -1.9609082713027444E+00  -1.9606445758628739E+00  -1.9603808644971772E+00  -1.9601171372845660E+00
  -1.9598533943037444E+00  -1.9595896356332092E+00  -1.9593258613512521E+00  -1.9590620715359597E+00  -1.9587982662652130E+00
  -1.9585344456166909E+00  -1.9582706096678666E+00  -1.9580067584960115E+00  -1.9577428921781961E+00  -1.9574790107912867E+00
  -1.9572151144119514E+00  -1.9569512031166549E+00  -1.9566872769816657E+00  -1.9564233360830494E+00  -1.9561593804966759E+00
  -1.9558954102982162E+00  -1.9556314255631422E+00  -1.9553674263667316E+00  -1.9551034127840645E+00  -1.9548393848900252E+00
  -1.9545753427593033E+00  -1.9543112864663941E+00  -1.9540472160855982E+00  -1.9537831316910239E+00  -1.9535190333565851E+00
  -1.9532549211560060E+00  -1.9529907951628165E+00  -1.9527266554503564E+00  -1.9524625020917761E+00  -1.9521983351600347E+00
  -1.9519341547279030E+00  -1.9516699608679609E+00  -1.9514057536526022E+00  -1.9511415331540320E+00  -1.9508772994442689E+00
  -1.9506130525951435E+00  -1.9503487926783023E+00  -1.9500845197652039E+00  -1.9498202339271240E+00  -1.9495559352351535E+00
  -1.9492916237601980E+00  -1.9490272995729809E+00  -1.9487629627440435E+00  -1.9484986133437427E+00  -1.9482342514422557E+00
  -1.9479698771095773E+00  -1.9477054904155220E+00  -1.9474410914297238E+00  -1.9471766802216381E+00  -1.9469122568605399E+00
  -1.9466478214155269E+00  -1.9463833739555172E+00  -1.9461189145492519E+00  -1.9458544432652967E+00  -1.9455899601720381E+00
  -1.9453254653376886E+00  -1.9450609588302841E+00  -1.9447964407176865E+00  -1.9445319110675823E+00  -1.9442673699474846E+00
  -1.9440028174247328E+00  -1.9437382535664935E+00  -1.9434736784397608E+00  -1.9432090921113574E+00  -1.9429444946479331E+00
  -1.9426798861159671E+00  -1.9424152665817709E+00  -1.9421506361114820E+00  -1.9418859947710703E+00  -1.9416213426263373E+00
  -1.9413566797429149E+00  -1.9410920061862682E+00  -1.9408273220216932E+00  -1.9405626273143195E+00  -1.9402979221291115E+00
  -1.9400332065308645E+00  -1.9397684805842121E+00  -1.9395037443536198E+00  -1.9392389979033888E+00  -1.9389742412976576E+00
  -1.9387094746003997E+00  -1.9384446978754255E+00  -1.9381799111863836E+00  -1.9379151145967586E+00  -1.9376503081698746E+00
  -1.9373854919688951E+00  -1.9371206660568203E+00  -1.9368558304964909E+00  -1.9365909853505894E+00  -1.9363261306816364E+00
  -1.9360612665519941E+00  -1.9357963930238673E+00  -1.9355315101593014E+00  -1.9352666180201830E+00  -1.9350017166682454E+00
  -1.9347368061650598E+00  -1.9344718865720452E+00  -1.9342069579504630E+00  -1.9339420203614193E+00  -1.9336770738658653E+00
  -1.9334121185245967E+00  -1.9331471543982570E+00  -1.9328821815473345E+00  -1.9326172000321635E+00  -1.9323522099129284E+00
  -1.9320872112496577E+00  -1.9318222041022304E+00  -1.9315571885303719E+00  -1.9312921645936596E+00  -1.9310271323515169E+00
  -1.9307620918632185E+00  -1.9304970431878892E+00  -1.9302319863845052E+00  -1.9299669215118909E+00  -1.9297018486287250E+00
  -1.9294367677935373E+00  -1.9291716790647098E+00  -1.9289065825004765E+00  -1.9286414781589249E+00  -1.9283763660979965E+00
  -1.9281112463754866E+00  -1.9278461190490437E+00  -1.9275809841761731E+00  -1.9273158418142333E+00  -1.9270506920204398E+00
  -1.9267855348518625E+00  -1.9265203703654299E+00  -1.9262551986179250E+00  -1.9259900196659896E+00  -1.9257248335661228E+00
  -1.9254596403746800E+00  -1.9251944401478776E+00  -1.9249292329417891E+00  -1.9246640188123476E+00  -1.9243987978153456E+00
  -1.9241335700064364E+00  -1.9238683354411321E+00  -1.9236030941748068E+00  -1.9233378462626953E+00  -1.9230725917598939E+00
  -1.9228073307213607E+00  -1.9225420632019175E+00  -1.9222767892562462E+00  -1.9220115089388936E+00  -1.9217462223042689E+00
  -1.9214809294066464E+00  -1.9212156303001628E+00  -1.9209503250388216E+00  -1.9206850136764897E+00  -1.9204196962668989E+00
  -1.9201543728636488E+00  -1.9198890435202032E+00  -1.9196237082898917E+00  -1.9193583672259136E+00  -1.9190930203813334E+00
  -1.9188276678090830E+00  -1.9185623095619626E+00  -1.9182969456926418E+00  -1.9180315762536555E+00  -1.9177662012974128E+00
  -1.9175008208761875E+00  -1.9172354350421250E+00  -1.9169700438472415E+00  -1.9167046473434222E+00  -1.9164392455824237E+00
  -1.9161738386158746E+00  -1.9159084264952733E+00  -1.9156430092719923E+00  -1.9153775869972745E+00  -1.9151121597222347E+00
  -1.9148467274978640E+00  -1.9145812903750230E+00  -1.9143158484044489E+00  -1.9140504016367501E+00  -1.9137849501224118E+00
  -1.9135194939117930E+00  -1.9132540330551271E+00  -1.9129885676025229E+00  -1.9127230976039666E+00  -1.9124576231093176E+00
  -1.9121921441683143E+00  -1.9119266608305705E+00  -1.9116611731455773E+00  -1.9113956811627026E+00  -1.9111301849311935E+00
  -1.9108646845001733E+00  -1.9105991799186457E+00  -1.9103336712354912E+00  -1.9100681584994710E+00  -1.9098026417592231E+00
  -1.9095371210632688E+00  -1.9092715964600069E+00  -1.9090060679977177E+00  -1.9087405357245610E+00  -1.9084749996885790E+00
  -1.9082094599376953E+00  -1.9079439165197127E+00  -1.9076783694823189E+00  -1.9074128188730832E+00  -1.9071472647394558E+00
  -1.9068817071287716E+00  -1.9066161460882491E+00  -1.9063505816649888E+00  -1.9060850139059760E+00  -1.9058194428580801E+00
  -1.9055538685680546E+00  -1.9052882910825384E+00  -1.9050227104480562E+00  -1.9047571267110155E+00  -1.9044915399177131E+00
  -1.9042259501143295E+00  -1.9039603573469308E+00  -1.9036947616614732E+00  -1.9034291631037976E+00  -1.9031635617196312E+00
  -1.9028979575545912E+00  -1.9026323506541805E+00  -1.9023667410637921E+00  -1.9021011288287066E+00  -1.9018355139940928E+00
  -1.9015698966050101E+00  -1.9013042767064063E+00  -1.9010386543431179E+00  -1.9007730295598739E+00  -1.9005074024012920E+00
  -1.9002417729118799E+00  -1.8999761411360376E+00  -1.8997105071180562E+00  -1.8994448709021161E+00  -1.8991792325322925E+00
  -1.8989135920525506E+00  -1.8986479495067488E+00  -1.8983823049386370E+00  -1.8981166583918596E+00  -1.8978510099099544E+00
  -1.8975853595363490E+00  -1.8973197073143699E+00  -1.8970540532872344E+00  -1.8967883974980551E+00  -1.8965227399898377E+00
  -1.8962570808054864E+00  -1.8959914199877965E+00  -1.8957257575794613E+00  -1.8954600936230686E+00  -1.8951944281611026E+00
  -1.8949287612359449E+00  -1.8946630928898713E+00  -1.8943974231650560E+00  -1.8941317521035708E+00  -1.8938660797473832E+00
  -1.8936004061383598E+00  -1.8933347313182638E+00  -1.8930690553287584E+00  -1.8928033782114031E+00  -1.8925377000076578E+00
  -1.8922720207588806E+00  -1.8920063405063301E+00  -1.8917406592911616E+00  -1.8914749771544330E+00  -1.8912092941371017E+00
  -1.8909436102800239E+00  -1.8906779256239590E+00  -1.8904122402095640E+00  -1.8901465540773998E+00  -1.8898808672679273E+00
  -1.8896151798215095E+00  -1.8893494917784106E+00  -1.8890838031787984E+00  -1.8888181140627420E+00  -1.8885524244702121E+00
  -1.8882867344410850E+00  -1.8880210440151377E+00  -1.8877553532320526E+00  -1.8874896621314143E+00  -1.8872239707527119E+00
  -1.8869582791353392E+00  -1.8866925873185929E+00  -1.8864268953416767E+00  -1.8861612032436965E+00  -1.8858955110636659E+00
  -1.8856298188405025E+00  -1.8853641266130297E+00  -1.8850984344199775E+00  -1.8848327422999813E+00  -1.8845670502915834E+00
  -1.8843013584332327E+00  -1.8840356667632847E+00  -1.8837699753200028E+00  -1.8835042841415564E+00  -1.8832385932660243E+00
  -1.8829729027313920E+00  -1.8827072125755535E+00  -1.8824415228363112E+00  -1.8821758335513752E+00  -1.8819101447583657E+00
  -1.8816444564948116E+00  -1.8813787687981514E+00  -1.8811130817057315E+00  -1.8808473952548102E+00  -1.8805817094825548E+00
  -1.8803160244260431E+00  -1.8800503401222630E+00  -1.8797846566081124E+00  -1.8795189739204032E+00  -1.8792532920958547E+00
  -1.8789876111711004E+00  -1.8787219311826826E+00  -1.8784562521670587E+00  -1.8781905741605958E+00  -1.8779248971995748E+00
  -1.8776592213201881E+00  -1.8773935465585418E+00  -1.8771278729506535E+00  -1.8768622005324558E+00  -1.8765965293397933E+00
  -1.8763308594084256E+00  -1.8760651907740251E+00  -1.8757995234721785E+00  -1.8755338575383877E+00  -1.8752681930080675E+00
  -1.8750025299165489E+00  -1.8747368682990779E+00  -1.8744712081908148E+00  -1.8742055496268362E+00  -1.8739398926421329E+00
  -1.8736742372716140E+00  -1.8734085835501015E+00  -1.8731429315123371E+00  -1.8728772811929773E+00  -1.8726116326265947E+00
  -1.8723459858476796E+00  -1.8720803408906392E+00  -1.8718146977897994E+00  -1.8715490565794013E+00  -1.8712834172936053E+00
  -1.8710177799664889E+00  -1.8707521446320505E+00  -1.8704865113242028E+00  -1.8702208800767799E+00  -1.8699552509235340E+00
  -1.8696896238981355E+00  -1.8694239990341763E+00  -1.8691583763651654E+00  -1.8688927559245325E+00  -1.8686271377456269E+00
  -1.8683615218617180E+00  -1.8680959083059965E+00  -1.8678302971115712E+00  -1.8675646883114740E+00  -1.8672990819386566E+00
  -1.8670334780259910E+00  -1.8667678766062732E+00  -1.8665022777122169E+00  -1.8662366813764595E+00  -1.8659710876315614E+00
  -1.8657054965100031E+00  -1.8654399080441881E+00  -1.8651743222664430E+00  -1.8649087392090151E+00  -1.8646431589040773E+00
  -1.8643775813837233E+00  -1.8641120066799717E+00  -1.8638464348247630E+00  -1.8635808658499624E+00  -1.8633152997873583E+00
  -1.8630497366686640E+00  -1.8627841765255162E+00  -1.8625186193894763E+00  -1.8622530652920304E+00  -1.8619875142645892E+00
  -1.8617219663384883E+00  -1.8614564215449891E+00  -1.8611908799152772E+00  -1.8609253414804647E+00  -1.8606598062715898E+00
  -1.8603942743196149E+00  -1.8601287456554312E+00  -1.8598632203098517E+00  -1.8595976983136218E+00  -1.8593321796974089E+00
  -1.8590666644918095E+00  -1.8588011527273458E+00  -1.8585356444344692E+00  -1.8582701396435553E+00  -1.8580046383849107E+00
  -1.8577391406887678E+00  -1.8574736465852872E+00  -1.8572081561045586E+00  -1.8569426692765976E+00  -1.8566771861313518E+00
  -1.8564117066986945E+00  -1.8561462310084287E+00  -1.8558807590902873E+00  -1.8556152909739312E+00  -1.8553498266889517E+00
  -1.8550843662648686E+00  -1.8548189097311321E+00  -1.8545534571171225E+00  -1.8542880084521494E+00  -1.8540225637654533E+00
  -1.8537571230862042E+00  -1.8534916864435047E+00  -1.8532262538663862E+00  -1.8529608253838115E+00  -1.8526954010246748E+00
  -1.8524299808178015E+00  -1.8521645647919494E+00  -1.8518991529758051E+00  -1.8516337453979905E+00  -1.8513683420870570E+00
  -1.8511029430714896E+00  -1.8508375483797048E+00  -1.8505721580400520E+00  -1.8503067720808122E+00  -1.8500413905302004E+00
  -1.8497760134163641E+00  -1.8495106407673843E+00  -1.8492452726112749E+00  -1.8489799089759840E+00  -1.8487145498893915E+00
  -1.8484491953793127E+00  -1.8481838454734967E+00  -1.8479185001996268E+00  -1.8476531595853201E+00  -1.8473878236581285E+00
  -1.8471224924455372E+00  -1.8468571659749691E+00  -1.8465918442737788E+00  -1.8463265273692591E+00  -1.8460612152886349E+00
  -1.8457959080590687E+00  -1.8455306057076577E+00  -1.8452653082614350E+00  -1.8450000157473700E+00  -1.8447347281923681E+00
  -1.8444694456232693E+00  -1.8442041680668524E+00  -1.8439388955498310E+00  -1.8436736280988559E+00  -1.8434083657405160E+00
  -1.8431431085013341E+00  -1.8428778564077735E+00  -1.8426126094862325E+00  -1.8423473677630482E+00  -1.8420821312644939E+00
  -1.8418169000167826E+00  -1.8415516740460633E+00  -1.8412864533784243E+00  -1.8410212380398918E+00  -1.8407560280564297E+00
  -1.8404908234539414E+00  -1.8402256242582689E+00  -1.8399604304951915E+00  -1.8396952421904296E+00  -1.8394300593696413E+00
  -1.8391648820584252E+00  -1.8388997102823170E+00  -1.8386345440667951E+00  -1.8383693834372747E+00  -1.8381042284191125E+00
  -1.8378390790376056E+00  -1.8375739353179892E+00  -1.8373087972854407E+00  -1.8370436649650774E+00  -1.8367785383819566E+00
  -1.8365134175610771E+00  -1.8362483025273786E+00  -1.8359831933057411E+00  -1.8357180899209864E+00  -1.8354529923978764E+00
  -1.8351879007611167E+00  -1.8349228150353525E+00  -1.8346577352451716E+00  -1.8343926614151029E+00  -1.8341275935696177E+00
   5.0803612526640507E+01   5.0803612526640507E+01   5.0803612526640507E+01   5.0803612526640507E+01   5.0803612526640507E+01
   5.0803612526640507E+01   5.0803612526640507E+01   5.0803612526640507E+01   5.0803612526640507E+01   5.0803612526640507E+01
   5.0803612526640507E+01   5.0803612526640507E+01   5.0803612526640507E+01   5.0803612526640507E+01   5.0803612526640507E+01
   5.0803612526640507E+01   5.0803612526640507E+01   5.0803612526640507E+01   5.0803612526640507E+01   5.0803612526640507E+01
   5.0803612526640507E+01   5.0803612526640507E+01   5.0803612526640507E+01   5.0803612526640507E+01   5.0803612526640507E+01
   5.0803612526640507E+01   5.0803612526640507E+01   5.0803612526640507E+01   5.0803612526640507E+01   5.0803612526640507E+01
   5.0803612526640507E+01   5.0803612526640507E+01   5.0803612526640507E+01   5.0803612526640507E+01   5.0803612526640507E+01
   5.0803612526640507E+01   5.0803612526640507E+01   5.0803612526640507E+01   5.0803612526640507E+01   5.0803612526640507E+01
   5.0803612526640507E+01   5.0803612526640507E+01   5.0803612526640507E+01   5.0803612526640507E+01   5.0803612526640507E+01
   5.0803612526640507E+01   5.0803612526640507E+01   5.0803612526640507E+01   5.0803612526640507E+01   5.0803612526640507E+01
   5.0803612526640507E+01   5.0803612526640507E+01   5.0803612526640507E+01   5.0803612526640507E+01   5.0803612526640507E+01
   5.0803612526640507E+01   5.0803612526640507E+01   5.0803612526640507E+01   5.0803612526640507E+01   5.0803612526640507E+01
   5.0803612526640507E+01   5.0803612526640507E+01   5.0803612526640507E+01   5.0803612526640507E+01   5.0803612526640507E+01
   5.0803612526640507E+01   5.0803612526640507E+01   5.0803612526640507E+01   5.0803612526640507E+01   5.0803612526640507E+01
   5.0803612526640507E+01   5.0803612526640507E+01   5.0803612526640507E+01   5.0803612526640507E+01   5.0803612526640507E+01
   5.0803612526640507E+01   5.0803612526640507E+01   5.0803612526640507E+01   5.0803612526640507E+01   5.0803612526640507E+01
   5.0803612526640507E+01   5.0803612526640507E+01   5.0803612526640507E+01   5.0803612526640507E+01   5.0803612526640507E+01
   5.0803612526640507E+01   5.0803612526640507E+01   5.0803612526640507E+01   5.0803612526640507E+01   5.0803612526640507E+01
   5.0803612526640507E+01   5.0803612526640507E+01   5.0803612526640507E+01   5.0803612526640507E+01   5.0803612526640507E+01
   5.0803612526640507E+01   5.0803612526640507E+01   5.0803612526640507E+01   5.0803612526640507E+01   5.0803612526640507E+01
   5.0803612526640507E+01   5.0803612526640507E+01   5.0803612526640507E+01   5.0803612526640507E+01   5.0803612526640507E+01
   5.0803612526640507E+01   5.0803612526640507E+01   5.0803612526640507E+01   5.0803612526640507E+01   5.0803612526640507E+01
   5.0803612526640507E+01   5.0803612526640507E+01   5.0803612526640507E+01   5.0803612526640507E+01   5.0803612526640507E+01
   5.0803612526640507E+01   5.0803612526640507E+01   5.0803612526640507E+01   5.0803612526640507E+01   5.0803612526640507E+01
   5.0803612526640507E+01   5.0803612526640507E+01   5.0803612526640507E+01   5.0803612526640507E+01   5.0803612526640507E+01
   5.0803612526640507E+01   5.0803612526640507E+01   5.0803612526640507E+01   5.0803612526640507E+01   5.0803612526640507E+01
   5.0803612526640507E+01   5.0803612526640507E+01   5.0803612526640507E+01   5.0803612526640507E+01   5.0803612526640507E+01
   5.0803612526640507E+01   5.0803612526640507E+01   5.0803612526640507E+01   5.0803612526640507E+01   5.0803612526640507E+01
   5.0803612526640507E+01   5.0803612526640507E+01   5.0803612526640507E+01   5.0803612526640507E+01   5.0803612526640507E+01
   5.0803612526640507E+01   5.0803612526640507E+01   5.0803612526640507E+01   5.0803612526640507E+01   5.0803612526640507E+01
   5.0803612526640507E+01   5.0803612526640507E+01   5.0803612526640507E+01   5.0803612526640507E+01   5.0803612526640507E+01
   5.0803612526640507E+01   5.0803612526640507E+01   5.0803612526640507E+01   5.0803612526640507E+01   5.0803612526640507E+01
   5.0803612526640507E+01   5.0803612526640507E+01   5.0803612526640507E+01   5.0803612526640507E+01   5.0803612526640507E+01
   5.0803612526640507E+01   5.0803612526640507E+01   5.0803612526640507E+01   5.0803612526640507E+01   5.0803612526640507E+01
   5.0803612526640507E+01   5.0803612526640507E+01   5.0803612526640507E+01   5.0803612526640507E+01   5.0803612526640507E+01
   5.0771017747452532E+01   5.0525453755586554E+01   5.0281076788797087E+01   5.0037881136918671E+01   4.9795861116188320E+01
   4.9555011069162845E+01   4.9315325364635214E+01   4.9076798397549148E+01   4.8839424588913317E+01   4.8603198385714109E+01
   4.8368114260827539E+01   4.8134166712930380E+01   4.7901350266410113E+01   4.7669659471274464E+01   4.7439088903059840E+01
   4.7209633162739145E+01   4.6981286876629127E+01   4.6754044696296660E+01   4.6527901298464883E+01   4.6302851384918370E+01
   4.6078889682408182E+01   4.5856010942556061E+01   4.5634209941758364E+01   4.5413481481089732E+01   4.5193820386205928E+01
   4.4975221507246900E+01   4.4757679718738878E+01   4.4541189919496894E+01   4.4325747032526337E+01   4.4111346004924812E+01
   4.3897981807783466E+01   4.3685649436088354E+01   4.3474343908621364E+01   4.3264060267861247E+01   4.3054793579884496E+01
   4.2846538934266064E+01   4.2639291443979900E+01   4.2433046245299799E+01   4.2227798497699716E+01   4.2023543383754593E+01
   4.1820276109040641E+01   4.1617991902036209E+01   4.1416686014022154E+01   4.1216353718982639E+01   4.1016990313505900E+01
   4.0818591116684964E+01   4.0621151470018617E+01   4.0424666737312378E+01   4.0229132304579764E+01   4.0034543579943353E+01
   3.9840895993536485E+01   3.9648184997404520E+01   3.9456406065406902E+01   3.9265554693118787E+01   3.9075626397733423E+01
   3.8886616717964294E+01   3.8698521213947664E+01   3.8511335467145308E+01   3.8325055080247580E+01   3.8139675677076440E+01
   3.7955192902488974E+01   3.7771602422281084E+01   3.7588899923091311E+01   3.7407081112305221E+01   3.7226141717959685E+01
   3.7046077488647711E+01   3.6866884193423353E+01   3.6688557621707176E+01   3.6511093583191645E+01   3.6334487907747246E+01
   3.6158736445328344E+01   3.5983835065879965E+01   3.5809779659244413E+01   3.5636566135068520E+01   3.5464190422710836E+01
   3.5292648471149604E+01   3.5121936248890648E+01   3.4952049743875904E+01   3.4782984963391996E+01   3.4614737933979391E+01
   3.4447304701341736E+01   3.4280681330255490E+01   3.4114863904480210E+01   3.3949848526668710E+01   3.3785631318277908E+01
   3.3622208419479868E+01   3.3459575989073329E+01   3.3297730204395371E+01   3.3136667261233605E+01   3.2976383373738607E+01
   3.2816874774336810E+01   3.2658137713643661E+01   3.2500168460377161E+01   3.2342963301271730E+01   3.2186518540992537E+01
   3.2030830502050001E+01   3.1875895524714828E+01   3.1721709966933371E+01   3.1568270204243174E+01   3.1415572629689144E+01
   3.1263613653739863E+01   3.1112389704204453E+01   3.0961897226149492E+01   3.0812132681816717E+01   3.0663092550540700E+01
   3.0514773328667086E+01   3.0367171529471157E+01   3.0220283683076786E+01   3.0074106336375543E+01   2.9928636052946484E+01
   2.9783869412976056E+01   2.9639803013178504E+01   2.9496433466716425E+01   2.9353757403121921E+01   2.9211771468218064E+01
   2.9070472324040544E+01   2.8929856648759788E+01   2.8789921136603486E+01   2.8650662497779400E+01   2.8512077458398501E+01
   2.8374162760398558E+01   2.8236915161467934E+01   2.8100331434969853E+01   2.7964408369866927E+01   2.7829142770646197E+01
   2.7694531457244228E+01   2.7560571264972872E+01   2.7427259044445059E+01   2.7294591661501297E+01   2.7162565997136152E+01
   2.7031178947425314E+01   2.6900427423452854E+01   2.6770308351238956E+01   2.6640818671667876E+01   2.6511955340416300E+01
   2.6383715327882044E+01   2.6256095619112941E+01   2.6129093213736351E+01   2.6002705125888713E+01   2.5876928384145625E+01
   2.5751760031452111E+01   2.5627197125053332E+01   2.5503236736425571E+01   2.5379875951207556E+01   2.5257111869132075E+01
   2.5134941603957973E+01   2.5013362283402433E+01   2.4892371049073539E+01   2.4771965056403321E+01   2.4652141474580915E+01
   2.4532897486486117E+01   2.4414230288623290E+01   2.4296137091055638E+01   2.4178615117339579E+01   2.4061661604459680E+01
   2.3945273802763701E+01   2.3829448975898153E+01   2.3714184400743910E+01   2.3599477367352428E+01   2.3485325178881929E+01
   2.3371725151534232E+01   2.3258674614491618E+01   2.3146170909854181E+01   2.3034211392577330E+01   2.2922793430409740E+01
   2.2811914403831416E+01   2.2701571705992286E+01   2.2591762742650889E+01   2.2482484932113422E+01   2.2373735705173136E+01
   2.2265512505049930E+01   2.2157812787330347E+01   2.2050634019907712E+01   2.1943973682922721E+01   2.1837829268704127E+01
   2.1732198281709923E+01   2.1627078238468659E+01   2.1522466667521083E+01   2.1418361109362056E+01   2.1314759116382771E+01
   2.1211658252813237E+01   2.1109056094665021E+01   2.1006950229674288E+01   2.0905338257245127E+01   2.0804217788393082E+01
   2.0703586445689073E+01   2.0603441863203496E+01   2.0503781686450569E+01   2.0404603572333063E+01   2.0305905189087177E+01
   2.0207684216227758E+01   2.0109938344493784E+01   2.0012665275794042E+01   1.9915862723153086E+01   1.9819528410657561E+01
   1.9723660073402673E+01   1.9628255457438925E+01   1.9533312319719141E+01   1.9438828428045767E+01   1.9344801561018389E+01
   1.9251229507981506E+01   1.9158110068972572E+01   1.9065441054670252E+01   1.8973220286343032E+01   1.8881445595797906E+01
   1.8790114825329482E+01   1.8699225827669210E+01   1.8608776465934948E+01   1.8518764613580682E+01   1.8429188154346562E+01
   1.8340044982209161E+01   1.8251333001331933E+01   1.8163050126015964E+01   1.8075194280650926E+01   1.7987763399666331E+01
   1.7900755427482899E+01   1.7814168318464247E+01   1.7728000036868874E+01   1.7642248556802159E+01   1.7556911862168942E+01
   1.7471987946625902E+01   1.7387474813534514E+01   1.7303370475914086E+01   1.7219672956395087E+01   1.7136380287172564E+01
   1.7053490509959953E+01   1.6971001675943015E+01   1.6888911845734043E+01   1.6807219089326221E+01   1.6725921486048293E+01
   1.6645017124519402E+01   1.6564504102604097E+01   1.6484380527367726E+01   1.6404644515031805E+01   1.6325294190929839E+01
   1.6246327689463151E+01   1.6167743154057128E+01   1.6089538737117458E+01   1.6011712599986787E+01   1.5934262912901444E+01
   1.5857187854948402E+01   1.5780485614022535E+01   1.5704154386783971E+01   1.5628192378615696E+01   1.5552597803581339E+01
   1.5477368884383260E+01   1.5402503852320644E+01   1.5328000947248082E+01   1.5253858417534016E+01   1.5180074520019684E+01
   1.5106647519978033E+01   1.5033575691073079E+01   1.4960857315319151E+01   1.4888490683040628E+01   1.4816474092831651E+01
   1.4744805851516231E+01   1.4673484274108315E+01   1.4602507683772277E+01   1.4531874411783422E+01   1.4461582797488777E+01
   1.4391631188268088E+01   1.4322017939494886E+01   1.4252741414497903E+01   1.4183799984522516E+01   1.4115192028692524E+01
   1.4046915933971972E+01   1.3978970095127307E+01   1.3911352914689550E+01   1.3844062802916806E+01   1.3777098177756836E+01
   1.3710457464809936E+01   1.3644139097291827E+01   1.3578141515996892E+01   1.3512463169261466E+01   1.3447102512927415E+01
   1.3382058010305775E+01   1.3317328132140632E+01   1.3252911356573220E+01   1.3188806169106053E+01   1.3125011062567417E+01
   1.3061524537075831E+01   1.2998345100004892E+01   1.2935471265948076E+01   1.2872901556683907E+01   1.2810634501141129E+01
   1.2748668635364170E+01   1.2687002502478704E+01   1.2625634652657396E+01   1.2564563643085817E+01   1.2503788037928530E+01
   1.2443306408295319E+01   1.2383117332207613E+01   1.2323219394565037E+01   1.2263611187112133E+01   1.2204291308405299E+01
   1.2145258363779764E+01   1.2086510965316890E+01   1.2028047731811439E+01   1.1969867288739181E+01   1.1911968268224548E+01
   1.1854349309008475E+01   1.1797009056416373E+01   1.1739946162326332E+01   1.1683159285137373E+01   1.1626647089737936E+01
   1.1570408247474480E+01   1.1514441436120251E+01   1.1458745339844183E+01   1.1403318649179967E+01   1.1348160060995291E+01
   1.1293268278461145E+01   1.1238642011021390E+01   1.1184279974362381E+01   1.1130180890382771E+01   1.1076343487163490E+01
   1.1022766498937806E+01   1.0969448666061602E+01   1.0916388734983718E+01   1.0863585458216525E+01   1.0811037594306541E+01
   1.0758743907805318E+01   1.0706703169240303E+01   1.0654914155086022E+01   1.0603375647735247E+01   1.0552086435470414E+01
   1.0501045312435098E+01   1.0450251078605687E+01   1.0399702539763158E+01   1.0349398507465008E+01   1.0299337799017300E+01
   1.0249519237446867E+01   1.0199941651473644E+01   1.0150603875483110E+01   1.0101504749498908E+01   1.0052643119155549E+01
   1.0004017835671307E+01   9.9556277558211548E+00   9.9074717419099496E+00   9.8595486617456363E+00   9.8118573886126423E+00
   9.7643968012454128E+00   9.7171657838019954E+00   9.6701632258378662E+00   9.6233880222797747E+00   9.5768390733997926E+00
   9.5305152847894377E+00   9.4844155673339561E+00   9.4385388371867123E+00   9.3928840157437090E+00   9.3474500296182157E+00
   9.3022358106155600E+00   9.2572402957079873E+00   9.2124624270096636E+00   9.1679011517518418E+00   9.1235554222580717E+00
   9.0794241959195734E+00   9.0355064351707544E+00   8.9918011074647790E+00   8.9483071852493019E+00   8.9050236459423360E+00
   8.8619494719081651E+00   8.8190836504334609E+00   8.7764251737034460E+00   8.7339730387782097E+00   8.6917262475691288E+00
   8.6496838068153910E+00   8.6078447280606625E+00   8.5662080276298287E+00   8.5247727266058781E+00   8.4835378508068793E+00
   8.4425024307630920E+00   8.4016655016941488E+00   8.3610261034864077E+00   8.3205832806703288E+00   8.2803360823980725E+00
   8.2402835624210855E+00   8.2004247790678999E+00   8.1607587952219554E+00   8.1212846782996024E+00   8.0820015002281451E+00
   8.0429083374240395E+00   8.0040042707711727E+00   7.9652883855992664E+00   7.9267597716623479E+00   7.8884175231173677E+00
   7.8502607385029037E+00   7.8122885207179484E+00   7.7744999770008452E+00   7.7368942189082661E+00   7.6994703622943614E+00
   7.6622275272899252E+00   7.6251648382817674E+00   7.5882814238920684E+00   7.5515764169579267E+00   7.5150489545109771E+00
   7.4786981777570700E+00   7.4425232320561099E+00   7.4065232669019450E+00   7.3706974359023807E+00   7.3350448967592712E+00
   7.2995648112487279E+00   7.2642563452013960E+00   7.2291186684828634E+00   7.1941509549741189E+00   7.1593523825521554E+00
   7.1247221330706161E+00   7.0902593923405757E+00   7.0559633501113970E+00   7.0218332000516748E+00   6.9878681397302724E+00
   6.9540673705974791E+00   6.9204300979662117E+00   6.8869555309933395E+00   6.8536428826610960E+00   6.8204913697585665E+00
   6.7875002128632804E+00   6.7546686363228767E+00   6.7219958682368901E+00   6.6894811404385734E+00   6.6571236884768537E+00
   6.6249227515983664E+00   6.5928775727295461E+00   6.5609873984588569E+00   6.5292514790190470E+00   6.4976690682695537E+00
   6.4662394236789265E+00   6.4349618063074052E+00   6.4038354807895130E+00   6.3728597153167961E+00   6.3420337816205965E+00
   6.3113569549549462E+00   6.2808285140795110E+00   6.2504477412426525E+00   6.2202139221645378E+00   6.1901263460203513E+00
   6.1601843054235825E+00   6.1303870964094029E+00   6.1007340184180965E+00   6.0712243742786027E+00   6.0418574701921308E+00
   6.0126326157158259E+00   5.9835491237465641E+00   5.9546063105047695E+00   5.9258034955183669E+00   5.8971400016067497E+00
   5.8686151548649006E+00   5.8402282846475053E+00   5.8119787235532092E+00   5.7838658074089286E+00   5.7558888752542181E+00
   5.7280472693257485E+00   5.7003403350418260E+00   5.6727674209870216E+00   5.6453278788968309E+00   5.6180210636424617E+00
   5.5908463332156382E+00   5.5638030487135302E+00   5.5368905743237127E+00   5.5101082773092367E+00   5.4834555279937343E+00
   5.4569316997466224E+00   5.4305361689683798E+00   5.4042683150758677E+00   5.3781275204877481E+00   5.3521131706099689E+00
   5.3262246538213063E+00   5.3004613614589857E+00   5.2748226878043800E+00   5.2493080300687529E+00   5.2239167883791069E+00
   5.1986483657640585E+00   5.1735021681398230E+00   5.1484776042962288E+00   5.1235740858828285E+00   5.0987910273950696E+00
   5.0741278461605122E+00   5.0495839623251539E+00   5.0251587988397697E+00   5.0008517814463707E+00   4.9766623386646804E+00
   4.9525899017787216E+00   4.9286339048234185E+00   4.9047937845713179E+00   4.8810689805193253E+00   4.8574589348755417E+00
   4.8339630925461385E+00   4.8105809011223180E+00   4.7873118108673127E+00   4.7641552747034694E+00   4.7411107481993904E+00
   4.7181776895571197E+00   4.6953555595994168E+00   4.6726438217570747E+00   4.6500419420563119E+00   4.6275493891062025E+00
   4.6051656340862044E+00   4.5828901507337036E+00   4.5607224153316626E+00   4.5386619066962863E+00   4.5167081061647893E+00
   4.4948604975831854E+00   4.4731185672941578E+00   4.4514818041249899E+00   4.4299496993755323E+00   4.4085217468062590E+00
   4.3871974426263494E+00   4.3659762854818593E+00   4.3448577764439182E+00   4.3238414189970147E+00   4.3029267190273073E+00
   4.2821131848110214E+00   4.2614003270028773E+00   4.2407876586245941E+00   4.2202746950534333E+00   4.1998609540108065E+00
   4.1795459555509424E+00   4.1593292220495961E+00   4.1392102781928202E+00   4.1191886509657962E+00   4.0992638696417041E+00
   4.0794354657706613E+00   4.0597029731687098E+00   4.0400659279068485E+00   4.0205238683001383E+00   4.0010763348968315E+00
   3.9817228704675864E+00   3.9624630199947006E+00   3.9432963306614321E+00   3.9242223518413288E+00   3.9052406350876607E+00
   3.8863507341228565E+00   3.8675522048280269E+00   3.8488446052324976E+00   3.8302274955034505E+00   3.8117004379355617E+00
   3.7932629969407201E+00   3.7749147390377713E+00   3.7566552328423484E+00   3.7384840490567166E+00   3.7204007604596785E+00
   3.7024049418965324E+00   3.6844961702690830E+00   3.6666740245256850E+00   3.6489380856513436E+00   3.6312879366578743E+00
   3.6137231625740842E+00   3.5962433504360289E+00   3.5788480892772916E+00   3.5615369701193278E+00   3.5443095859618521E+00
   3.5271655317732660E+00   3.5101044044811265E+00   3.4931258029626875E+00   3.4762293280354597E+00   3.4594145824478137E+00
   3.4426811708696636E+00   3.4260286998831577E+00   3.4094567779734333E+00   3.3929650155194024E+00   3.3765530247846067E+00
   3.3602204199080941E+00   3.3439668168953474E+00   3.3277918336092474E+00   3.3116950897611059E+00   3.2956762069017116E+00
   3.2797348084124422E+00   3.2638705194963920E+00   3.2480829671695846E+00   3.2323717802521830E+00   3.2167365893597739E+00
   3.2011770268946824E+00   3.1856927270373228E+00   3.1702833257376062E+00   3.1549484607063762E+00   3.1396877714068898E+00
   3.1245008990463465E+00   3.1093874865674542E+00   3.0943471786400170E+00   3.0793796216526057E+00   3.0644844637042281E+00
   3.0496613545960640E+00   3.0349099458232178E+00   3.0202298905665432E+00   3.0056208436844809E+00   2.9910824617049352E+00
   2.9766144028172148E+00   2.9622163268639867E+00   2.9478878953332832E+00   2.9336287713505333E+00   2.9194386196706570E+00
   2.9053171066701751E+00   2.8912639003393683E+00   2.8772786702744622E+00   2.8633610876698739E+00   2.8495108253104759E+00
   2.8357275575638927E+00   2.8220109603728609E+00   2.8083607112476030E+00   2.7947764892582407E+00   2.7812579750272586E+00
   2.7678048507219866E+00   2.7544168000471352E+00   2.7410935082373582E+00   2.7278346620498408E+00   2.7146399497569522E+00
   2.7015090611389052E+00   2.6884416874764678E+00   2.6754375215436972E+00   2.6624962576007274E+00   2.6496175913865780E+00
   2.6368012201119897E+00   2.6240468424523216E+00   2.6113541585404594E+00   2.5987228699597642E+00   2.5861526797370540E+00
   2.5736432923356301E+00   2.5611944136483227E+00   2.5488057509905784E+00   2.5364770130935725E+00   2.5242079100973718E+00
   2.5119981535441158E+00   2.4998474563712247E+00   2.4877555329046679E+00   2.4757220988522355E+00   2.4637468712968560E+00
   2.4518295686899458E+00   2.4399699108447934E+00   2.4281676189299639E+00   2.4164224154627529E+00   2.4047340243026540E+00
   2.3931021706448696E+00   2.3815265810138553E+00   2.3700069832568835E+00   2.3585431065376428E+00   2.3471346813298792E+00
   2.3357814394110563E+00   2.3244831138560396E+00   2.3132394390308355E+00   2.3020501505863376E+00   2.2909149854521145E+00
   2.2798336818302181E+00   2.2688059791890391E+00   2.2578316182571747E+00   2.2469103410173372E+00   2.2360418907002777E+00
   2.2252260117787648E+00   2.2144624499615664E+00   2.2037509521874719E+00   2.1930912666193429E+00   2.1824831426381994E+00
   2.1719263308373153E+00   2.1614205830163633E+00   2.1509656521755782E+00   2.1405612925099469E+00   2.1302072594034329E+00
   2.1199033094232216E+00   2.1096492003139975E+00   2.0994446909922524E+00   2.0892895415406163E+00   2.0791835132022070E+00
   2.0691263683750329E+00   2.0591178706063964E+00   2.0491577845873339E+00   2.0392458761470893E+00   2.0293819122476049E+00
   2.0195656609780452E+00   2.0097968915493367E+00   2.0000753742887527E+00   1.9904008806345064E+00   1.9807731831303823E+00
   1.9711920554203772E+00   1.9616572722433949E+00   1.9521686094279382E+00   1.9427258438868433E+00   1.9333287536120292E+00
   1.9239771176692873E+00   1.9146707161930814E+00   1.9054093303813744E+00   1.8961927424904947E+00   1.8870207358300066E+00
   1.8778930947576240E+00   1.8688096046741332E+00   1.8597700520183502E+00   1.8507742242621033E+00   1.8418219099052333E+00
   1.8329128984706162E+00   1.8240469804992239E+00   1.8152239475451935E+00   1.8064435921709314E+00   1.7977057079422256E+00
   1.7890100894234067E+00   1.7803565321725101E+00   1.7717448327364647E+00   1.7631747886463207E+00   1.7546461984124819E+00
   1.7461588615199717E+00   1.7377125784237129E+00   1.7293071505438451E+00   1.7209423802610497E+00   1.7126180709119077E+00
   1.7043340267842690E+00   1.6960900531126599E+00   1.6878859560737007E+00   1.6797215427815420E+00   1.6715966212833417E+00
   1.6635110005547442E+00   1.6554644904953904E+00   1.6474569019244472E+00   1.6394880465761656E+00   1.6315577370954462E+00
   1.6236657870334423E+00   1.6158120108431673E+00   1.6079962238751404E+00   1.6002182423730422E+00   1.5924778834693964E+00
   1.5847749651812617E+00   1.5771093064059671E+00   1.5694807269168449E+00   1.5618890473589921E+00   1.5543340892450617E+00
   1.5468156749510571E+00   1.5393336277121648E+00   1.5318877716185912E+00   1.5244779316114301E+00   1.5171039334785450E+00
   1.5097656038504814E+00   1.5024627701963724E+00   1.4951952608199051E+00   1.4879629048552672E+00   1.4807655322631359E+00
   1.4736029738266785E+00   1.4664750611475794E+00   1.4593816266420716E+00   1.4523225035370033E+00   1.4452975258659138E+00
   1.4383065284651375E+00   1.4313493469699108E+00   1.4244258178105142E+00   1.4175357782084257E+00   1.4106790661724957E+00
   1.4038555204951328E+00   1.3970649807485185E+00   1.3903072872808324E+00   1.3835822812125051E+00   1.3768898044324687E+00
   1.3702296995944585E+00   1.3636018101132970E+00   1.3570059801612218E+00   1.3504420546642184E+00   1.3439098792983739E+00
   1.3374093004862544E+00   1.3309401653932851E+00   1.3245023219241632E+00   1.3180956187192789E+00   1.3117199051511634E+00
   1.3053750313209367E+00   1.2990608480547916E+00   1.2927772069004821E+00   1.2865239601238405E+00   1.2803009607052886E+00
   1.2741080623364012E+00   1.2679451194164482E+00   1.2618119870489863E+00   1.2557085210384369E+00   1.2496345778867122E+00
   1.2435900147898269E+00   1.2375746896345539E+00   1.2315884609950682E+00   1.2256311881296376E+00   1.2197027309773021E+00
   1.2138029501545853E+00   1.2079317069522164E+00   1.2020888633318729E+00   1.1962742819229282E+00   1.1904878260192266E+00
   1.1847293595758681E+00   1.1789987472060084E+00   1.1732958541776803E+00   1.1676205464106200E+00   1.1619726904731178E+00
   1.1563521535788801E+00   1.1507588035839127E+00   1.1451925089834005E+00   1.1396531389086324E+00   1.1341405631239119E+00
   1.1286546520235006E+00   1.1231952766285682E+00   1.1177623085841661E+00   1.1123556201562006E+00   1.1069750842284363E+00
   1.1016205742995029E+00   1.0962919644799280E+00   1.0909891294891683E+00   1.0857119446526702E+00   1.0804602858989345E+00
   1.0752340297566052E+00   1.0700330533515598E+00   1.0648572344040230E+00   1.0597064512256928E+00   1.0545805827168779E+00
   1.0494795083636499E+00   1.0444031082350136E+00   1.0393512629800812E+00   1.0343238538252701E+00   1.0293207625715100E+00
   1.0243418715914612E+00   1.0193870638267546E+00   1.0144562227852314E+00   1.0095492325382107E+00   1.0046659777177582E+00
   9.9980634351398356E-01   9.9497021567232380E-01   9.9015748049087593E-01   9.8536802481770913E-01   9.8060173604821410E-01
   9.7585850212244485E-01   9.7113821152249580E-01   9.6644075326986945E-01   9.6176601692287522E-01   9.5711389257402202E-01
   9.5248427084744736E-01   9.4787704289633290E-01   9.4329210040035605E-01   9.3872933556313032E-01   9.3418864110968403E-01
   9.2966991028392820E-01   9.2517303684615015E-01   9.2069791507051424E-01   9.1624443974257563E-01   9.1181250615680853E-01
   9.0740201011414012E-01   9.0301284791950254E-01   8.9864491637939337E-01   8.9429811279945270E-01   8.8997233498203954E-01
   8.8566748122383898E-01   8.8138345031346299E-01   8.7712014152907303E-01   8.7287745463601074E-01   8.6865528988444207E-01
   8.6445354800700913E-01   8.6027213021649651E-01   8.5611093820350792E-01   8.5196987413415681E-01   8.4784884064775967E-01
   8.4374774085455051E-01   8.3966647833340036E-01   8.3560495712955229E-01   8.3156308175235871E-01   8.2754075717304110E-01
   8.2353788882245005E-01   8.1955438258884783E-01   8.1559014481568315E-01   8.1164508229940135E-01   8.0771910228724186E-01
   8.0381211247506068E-01   7.9992402100515869E-01   7.9605473646411917E-01   7.9220416788066006E-01   7.8837222472349100E-01
   7.8455881689918372E-01   7.8076385475005339E-01   7.7698724905205052E-01   7.7322891101265734E-01   7.6948875226880242E-01
   7.6576668488477906E-01   7.6206262135018010E-01   7.5837647457783020E-01   7.5470815790174794E-01   7.5105758507509535E-01
   7.4742467026815695E-01   7.4380932806631084E-01   7.4021147346802807E-01   7.3663102188286333E-01   7.3306788912947130E-01
   7.2952199143361596E-01   7.2599324542620891E-01   7.2248156814133813E-01   7.1898687701431985E-01   7.1550908987975081E-01
   7.1204812496957892E-01   7.0860390091117176E-01   7.0517633672540381E-01   7.0176535182474942E-01   6.9837086601138254E-01
   6.9499279947529247E-01   6.9163107279239833E-01   6.8828560692268115E-01   6.8495632320832134E-01   6.8164314337184795E-01
   6.7834598951428771E-01   6.7506478411333770E-01   6.7179945002153230E-01   6.6854991046442791E-01   6.6531608903879158E-01
   6.6209790971080362E-01   6.5889529681426073E-01   6.5570817504879420E-01   6.5253646947809407E-01   6.4938010552814396E-01
   6.4623900898545850E-01   6.4311310599533555E-01   6.4000232306011295E-01   6.3690658703743741E-01   6.3382582513853170E-01
   6.3075996492648623E-01   6.2770893431454167E-01   6.2467266156439127E-01   6.2165107528448627E-01   6.1864410442835138E-01
   6.1565167829290457E-01   6.1267372651678909E-01   6.0971017907871095E-01   6.0676096629578335E-01   6.0382601882188347E-01
   6.0090526764600860E-01   5.9799864409064851E-01   5.9510607981015928E-01   5.9222750678915104E-01   5.8936285734087135E-01
   5.8651206410561363E-01   5.8367506004911507E-01   5.8085177846097635E-01   5.7804215295307526E-01   5.7524611745800258E-01
   5.7246360622749071E-01   5.6969455383086121E-01   5.6693889515346785E-01   5.6419656539516150E-01   5.6146750006874513E-01
   5.5875163499845248E-01   5.5604890631841697E-01   5.5335925047116430E-01   5.5068260420609816E-01   5.4801890457800040E-01
   5.4536808894553557E-01   5.4273009496976155E-01   5.4010486061265051E-01   5.3749232413560954E-01   5.3489242409801507E-01
   5.3230509935574921E-01   5.2973028905974673E-01   5.2716793265453987E-01   5.2461796987682330E-01   5.2208034075401244E-01
   5.1955498560281388E-01   5.1704184502780237E-01   5.1454085992000465E-01   5.1205197145548409E-01   5.0957512109393799E-01
   5.0711025057729653E-01   5.0465730192833225E-01   5.0221621744926848E-01   4.9978693972040078E-01   4.9736941159871950E-01
   4.9496357621654236E-01   4.9256937698014719E-01   4.9018675756841551E-01   4.8781566193147918E-01   4.8545603428937506E-01
   4.8310781913069895E-01   4.8077096121127566E-01   4.7844540555282405E-01   4.7613109744163284E-01   4.7382798242724172E-01
   4.7153600632112769E-01   4.6925511519539326E-01   4.6698525538146474E-01   4.6472637346879264E-01   4.6247841630355796E-01
   4.6024133098738484E-01   4.5801506487605465E-01   4.5579956557822959E-01   4.5359478095417738E-01   4.5140065911450467E-01
   4.4921714841888860E-01   4.4704419747482327E-01   4.4488175513636014E-01   4.4272977050286205E-01   4.4058819291775236E-01
   4.3845697196728128E-01   4.3633605747928295E-01   4.3422539952194816E-01   4.3212494840259169E-01   4.3003465466643487E-01
   4.2795446909538193E-01   4.2588434270680642E-01   4.2382422675234060E-01   4.2177407271666917E-01   4.1973383231632522E-01
   4.1770345749849197E-01   4.1568290043980793E-01   4.1367211354517586E-01   4.1167104944657557E-01   4.0967966100187919E-01
   4.0769790129367228E-01   4.0572572362807652E-01   4.0376308153357837E-01   4.0180992875985605E-01   3.9986621927661820E-01
   3.9793190727243682E-01   3.9600694715358981E-01   3.9409129354290418E-01   3.9218490127860317E-01   3.9028772541315504E-01
   3.8839972121212601E-01   3.8652084415303650E-01   3.8465104992421978E-01   3.8279029442368212E-01   3.8093853375796716E-01
   3.7909572424102256E-01   3.7726182239307060E-01   3.7543678493947569E-01   3.7362056880962330E-01   3.7181313113579295E-01
   3.7001442925203770E-01   3.6822442069306482E-01   3.6644306319311981E-01   3.6467031468486921E-01   3.6290613329828836E-01
   3.6115047735955069E-01   3.5940330538991666E-01   3.5766457610462837E-01   3.5593424841180027E-01   3.5421228141131667E-01
   3.5249863439372725E-01   3.5079326683914686E-01   3.4909613841615189E-01   3.4740720898068467E-01   3.4572643857495167E-01
   3.4405378742632930E-01   3.4238921594626393E-01   3.4073268472918061E-01   3.3908415455138435E-01   3.3744358636996985E-01
   3.3581094132172290E-01   3.3418618072203332E-01   3.3256926606379683E-01   3.3096015901632708E-01   3.2935882142425882E-01
   3.2776521530646002E-01   3.2617930285493690E-01   3.2460104643374266E-01   3.2303040857788445E-01   3.2146735199223070E-01
   3.1991183955041852E-01   3.1836383429375820E-01   3.1682329943014004E-01   3.1529019833293809E-01   3.1376449453991601E-01
   3.1224615175212628E-01   3.1073513383281648E-01   3.0923140480632660E-01   3.0773492885698955E-01   3.0624567032802885E-01
   3.0476359372045586E-01   3.0328866369196311E-01   3.0182084505581763E-01   3.0036010277975256E-01   2.9890640198485607E-01
   2.9745970794445742E-01   2.9601998608301228E-01   2.9458720197498439E-01   2.9316132134372669E-01   2.9174231006035622E-01
   2.9033013414263004E-01   2.8892475975381582E-01   2.8752615320156150E-01   2.8613428093675758E-01   2.8474910955240296E-01
   2.8337060578246015E-01   2.8199873650071183E-01   2.8063346871961098E-01   2.7927476958913028E-01   2.7792260639560268E-01
   2.7657694656056236E-01   2.7523775763957947E-01   2.7390500732109013E-01   2.7257866342522352E-01   2.7125869390262153E-01
   2.6994506683325659E-01   2.6863775042524191E-01   2.6733671301363948E-01   2.6604192305925800E-01   2.6475334914745197E-01
   2.6347095998690856E-01   2.6219472440843400E-01   2.6092461136372891E-01   2.5966058992416396E-01   2.5840262927954255E-01
   2.5715069873686230E-01   2.5590476771906601E-01   2.5466480576379003E-01   2.5343078252210177E-01   2.5220266775723255E-01
   2.5098043134330233E-01   2.4976404326403820E-01   2.4855347361148294E-01   2.4734869258469847E-01   2.4614967048846007E-01
   2.4495637773194215E-01   2.4376878482739828E-01   2.4258686238882859E-01   2.4141058113064273E-01   2.4023991186631166E-01
   2.3907482550701251E-01   2.3791529306026044E-01   2.3676128562853810E-01   2.3561277440790768E-01   2.3446973068661969E-01
   2.3333212584370891E-01   2.3219993134758163E-01   2.3107311875459149E-01   2.2995165970760686E-01   2.2883552593456621E-01
   2.2772468924702469E-01   2.2661912153868757E-01   2.2551879478393497E-01   2.2442368103633453E-01   2.2333375242714376E-01
   2.2224898116379810E-01   2.2116933952839268E-01   2.2009479987614708E-01   2.1902533463386142E-01   2.1796091629835926E-01
   2.1690151743491981E-01   2.1584711067569509E-01   2.1479766871811751E-01   2.1375316432329344E-01   2.1271357031438437E-01
   2.1167885957497595E-01   2.1064900504743231E-01   2.0962397973123936E-01   2.0860375668133388E-01   2.0758830900642022E-01
   2.0657760986727092E-01   2.0557163247501861E-01   2.0457035008942973E-01   2.0357373601716763E-01   2.0258176361003982E-01
   2.0159440626323380E-01   2.0061163741353688E-01   1.9963343053754373E-01   1.9865975914984818E-01   1.9769059680122369E-01
   1.9672591707678727E-01   1.9576569359415147E-01   1.9480990000156020E-01   1.9385850997601331E-01   1.9291149722137516E-01
   1.9196883546646978E-01   1.9103049846316267E-01   1.9009645998442942E-01   1.8916669382240847E-01   1.8824117378644245E-01
   1.8731987370110556E-01   1.8640276740421732E-01   1.8548982874484374E-01   1.8458103158128408E-01   1.8367634977904768E-01
   1.8277575720881550E-01   1.8187922774439066E-01   1.8098673526063722E-01   1.8009825363140694E-01   1.7921375672745440E-01
   1.7833321841434141E-01   1.7745661255033110E-01   1.7658391298427153E-01   1.7571509355346929E-01   1.7485012808155395E-01
   1.7398899037633409E-01   1.7313165422764548E-01   1.7227809340518976E-01   1.7142828165636856E-01   1.7058219270410915E-01
   1.6973980024468704E-01   1.6890107794553966E-01   1.6806599944308137E-01   1.6723453834050978E-01   1.6640666820561398E-01
   1.6558236256857867E-01   1.6476159491979014E-01   1.6394433870764050E-01   1.6313056733633591E-01   1.6232025416370652E-01
   1.6151337249902104E-01   1.6070989560080773E-01   1.5990979667467947E-01   1.5911304887117161E-01   1.5831962528358492E-01
   1.5752949894584473E-01   1.5674264283036790E-01   1.5595902984595064E-01   1.5517863283566771E-01   1.5440142457479419E-01
   1.5362737776874433E-01   1.5285646505103739E-01   1.5208865898128412E-01   1.5132393204320413E-01   1.5056225664266906E-01
   1.4980360510578272E-01   1.4904794967699092E-01   1.4829526251723238E-01   1.4754551570212782E-01   1.4679868122021428E-01
   1.4605473097122298E-01   1.4531363676440903E-01   1.4457537031693327E-01   1.4383990325229934E-01   1.4310720709885280E-01
   1.4237725328834080E-01   1.4165001315454223E-01   1.4092545793196676E-01   1.4020355875463203E-01   1.3948428665491741E-01
   1.3876761256250608E-01   1.3805350730341268E-01   1.3734194159910695E-01   1.3663288606573484E-01   1.3592631121344495E-01
   1.3522218744582185E-01   1.3452048505943673E-01   1.3382117424351594E-01   1.3312422507973817E-01   1.3242960754216088E-01
   1.3173729149728730E-01   1.3104724670427745E-01   1.3035944281531078E-01   1.2967384937610571E-01   1.2899043582660585E-01
   1.2830917150183699E-01   1.2763002563294532E-01   1.2695296734842085E-01   1.2627796567551713E-01   1.2560498954187307E-01
   1.2493400777734556E-01   1.2426498911606260E-01   1.2359790219870236E-01   1.2293271557500961E-01   1.2226939770655894E-01
   1.2160791696976982E-01   1.2094824165918712E-01   1.2029033999103513E-01   1.1963418010705272E-01   1.1897973007862338E-01
   1.1832695791120505E-01   1.1767583154907534E-01   1.1702631888039768E-01   1.1637838774262158E-01   1.1573200592822576E-01
   1.1508714119081652E-01   1.1444376125158991E-01   1.1380183380617041E-01   1.1316132653183536E-01   1.1252220709513780E-01
   1.1188444315993577E-01   1.1124800239584261E-01   1.1061285248710559E-01   1.0997896114192612E-01   1.0934629610223229E-01
   1.0871482515391137E-01   1.0808451613751779E-01   1.0745533695946349E-01   1.0682725560370041E-01   1.0620024014390869E-01
   1.0557425875619733E-01   1.0494927973232737E-01   1.0432527149346817E-01   1.0370220260449345E-01   1.0308004178882810E-01
   1.0245875794385143E-01   1.0183832015686582E-01   1.0121869772163671E-01   1.0059986015551137E-01   9.9981777217121176E-02
   9.9364418924672557E-02   9.8747755574831994E-02   9.8131757762206978E-02   9.7516396399425220E-02   9.6901642737816415E-02
   9.6287468388693218E-02   9.5673845345234557E-02   9.5060746004966598E-02   9.4448143192841963E-02   9.3836010184908364E-02
   9.3224320732566548E-02   9.2613049087405655E-02   9.2002170026611416E-02   9.1391658878935286E-02   9.0781491551212609E-02
   9.0171644555417360E-02   8.9562095036239395E-02   8.8952820799163446E-02   8.8343800339035300E-02   8.7735012869091869E-02
   8.7126438350431670E-02   8.6518057521902766E-02   8.5909851930378006E-02   8.5301803961391143E-02   8.4693896870098553E-02
   8.4086114812535445E-02   8.3478442877126344E-02   8.2870867116414962E-02   8.2263374578966944E-02   8.1655953341406351E-02
   8.1048592540533065E-02   8.0441282405479722E-02   7.9834014289847210E-02   7.9226780703772190E-02   7.8619575345863502E-02
   7.8012393134952437E-02   7.7405230241592016E-02   7.6798084119240093E-02   7.6190953535062736E-02   7.5583838600284503E-02
   7.4976740800015609E-02   7.4369663022482074E-02   7.3762609587583530E-02   7.3155586274697440E-02   7.2548600349655115E-02
   7.1941660590801426E-02   7.1334777314061917E-02   7.0727962396926775E-02   7.0121229301270349E-02   6.9514593094915728E-02
   6.8908070471861191E-02   6.8301679771076235E-02   6.7695440993781761E-02   6.7089375819126010E-02   6.6483507618167029E-02
   6.5877861466074134E-02   6.5272464152464779E-02   6.4667344189787146E-02   6.4062531819669075E-02   6.3458059017147878E-02
   6.2853959492703518E-02   6.2250268692018149E-02   6.1647023793386657E-02   6.1044263702707692E-02   6.0442029045989727E-02
   5.9840362159306708E-02   5.9239307076146851E-02   5.8638909512099054E-02   5.8039216846830832E-02   5.7440278103311357E-02
   5.6842143924245386E-02   5.6244866545686729E-02   5.5648499767804865E-02   5.5053098922791192E-02   5.4458720839889764E-02
   5.3865423807555324E-02   5.3273267532738929E-02   5.2682313097317024E-02   5.2092622911683123E-02   5.1504260665533985E-02
   5.0917291275885068E-02   5.0331780832365301E-02   4.9747796539841932E-02   4.9165406658445529E-02   4.8584680441060520E-02
   4.8005688068368586E-02   4.7428500581530801E-02   4.6853189812609691E-02   4.6279828312835440E-02   4.5708489278832441E-02
   4.5139246476929351E-02   4.4572174165681676E-02   4.4007347016744115E-02   4.3444840034239825E-02   4.2884728472773810E-02
   4.2327087754250939E-02   4.1771993383659514E-02   4.1219520863987245E-02   4.0669745610445229E-02   4.0122742864172597E-02
   3.9578587605604024E-02   3.9037354467680835E-02   3.8499117649092446E-02   3.7963950827731609E-02   3.7431927074552347E-02
   3.6903118768017169E-02   3.6377597509319556E-02   3.5855434038566274E-02   3.5336698152105009E-02   3.4821458621174965E-02
   3.4309783112060642E-02   3.3801738107919498E-02   3.3297388832453839E-02   3.2796799175590537E-02   3.2300031621325304E-02
   3.1807147177882501E-02   3.1318205310336966E-02   3.0833263875831560E-02   3.0352379061522397E-02   2.9875605325369561E-02
   2.9402995339888157E-02   2.8934599938958531E-02   2.8470468067792975E-02   2.8010646736138966E-02   2.7555180974795323E-02
   2.7104113795503457E-02   2.6657486154267135E-02   2.6215336918144386E-02   2.5777702835545434E-02   2.5344618510056521E-02
   2.4916116377805095E-02   2.4492226688367487E-02   2.4072977489210633E-02   2.3658394613653103E-02   2.3248501672314990E-02
   2.2843320048025872E-02   2.2442868894140107E-02   2.2047165136211289E-02   2.1656223476960338E-02   2.1270056404471129E-02
   2.0888674203533988E-02   2.0512084970055470E-02   2.0140294628443755E-02   1.9773306951873244E-02   1.9411123585326411E-02
   1.9053744071308006E-02   1.8701165878118212E-02   1.8353384430571756E-02   1.8010393143043587E-02   1.7672183454718743E-02
   1.7338744866924726E-02   1.7010064982418419E-02   1.6686129546500780E-02   1.6366922489831483E-02   1.6052425972814335E-02
   1.5742620431423684E-02   1.5437484624344237E-02   1.5136995681296433E-02   1.4841129152419077E-02   1.4549859058585848E-02
   1.4263157942531503E-02   1.3980996920665952E-02   1.3703345735459138E-02   1.3430172808278951E-02   1.3161445292570679E-02
   1.2897129127268139E-02   1.2637189090329952E-02   1.2381588852298618E-02   1.2130291029784584E-02   1.1883257238779508E-02
   1.1640448147709308E-02   1.1401823530139792E-02   1.1167342317053974E-02   1.0936962648621755E-02   1.0710641925390464E-02
   1.0488336858825772E-02   1.0270003521139531E-02   1.0055597394344015E-02   9.8450734184763033E-03   9.6383860389419301E-03
   9.4354892529306851E-03   9.2363366548603356E-03   9.0408814808106055E-03   8.8490766519118171E-03   8.6608748166567204E-03
   8.4762283921093005E-03   8.2950896039854487E-03   8.1174105255870689E-03   7.9431431155715538E-03   7.7722392545442141E-03
   7.6046507804627649E-03   7.4403295228474805E-03   7.2792273357918042E-03   7.1212961297726293E-03   6.9664879022606277E-03
   6.8147547671348410E-03   6.6660489829061826E-03   6.5203229797590363E-03   6.3775293854198105E-03   6.2376210498649876E-03
   6.1005510688820746E-03   5.9662728064981026E-03   5.8347399162933600E-03   5.7059063616175338E-03   5.5797264347276949E-03
   5.4561547748688422E-03   5.3351463853181366E-03   5.2166566494148969E-03   5.1006413455999787E-03   4.9870566614874977E-03
   4.8758592069940866E-03   4.7670060265497284E-03   4.6604546104159388E-03   4.5561629051363564E-03   4.4540893231460937E-03
   4.3541927515651909E-03   4.2564325602026179E-03   4.1607686087968701E-03   4.0671612535190275E-03   3.9755713527642022E-03
   3.8859602722575810E-03   3.7982898895000988E-03   3.7125225975796843E-03   3.6286213083727126E-03   3.5465494551609575E-03
   3.4662709946878373E-03   3.3877504086787017E-03   3.3109527048481861E-03   3.2358434174182965E-03   3.1623886071697571E-03
   3.0905548610488144E-03   3.0203092913514027E-03   2.9516195345060457E-03   2.8844537494757800E-03   2.8187806157997908E-03
   2.7545693312941962E-03   2.6917896094309441E-03   2.6304116764137649E-03   2.5704062679686684E-03   2.5117446258669796E-03
   2.4543984941973037E-03   2.3983401154031186E-03   2.3435422261014653E-03   2.2899780526983021E-03   2.2376213068148487E-03
   2.1864461805394439E-03   2.1364273415180731E-03   2.0875399278973009E-03   2.0397595431314581E-03   1.9930622506667875E-03
   1.9474245685136865E-03   1.9028234637184795E-03   1.8592363467450435E-03   1.8166410657766397E-03   1.7750159009476221E-03
   1.7343395585141998E-03   1.6945911649730977E-03   1.6557502611365951E-03   1.6177967961719002E-03   1.5807111216123591E-03
   1.5444739853479291E-03   1.5090665256014813E-03   1.4744702648977139E-03   1.4406671040305325E-03   1.4076393160348975E-03
   1.3753695401684232E-03   1.3438407759080830E-03   1.3130363769666531E-03   1.2829400453335988E-03   1.2535358253446492E-03
   1.2248080977840022E-03   1.1967415740229165E-03   1.1693212901982639E-03   1.1425326014341370E-03   1.1163611761097112E-03
   1.0907929901759774E-03   1.0658143215240569E-03   1.0414117444074542E-03   1.0175721239204119E-03   9.9428261053434767E-04
   9.7153063469431248E-04   9.4930390147697497E-04   9.2759038531178340E-04   9.0637832476651891E-04   8.8565621739857730E-04
   8.6541281467288447E-04   8.4563711694752349E-04   8.2631836852781269E-04   8.0744605278949421E-04   7.8900988737170728E-04
   7.7099981944009214E-04   7.5340602102053696E-04   7.3621888440371299E-04   7.1942901762069153E-04   7.0302723998965885E-04
   6.8700457773384759E-04   6.7135225967053438E-04   6.5606171297110055E-04   6.4112455899182133E-04   6.2653260917534240E-04
   6.1227786102231241E-04   5.9835249413301296E-04   5.8474886631843849E-04   5.7145950978048309E-04   5.5847712736064562E-04
   5.4579458885678663E-04   5.3340492740734592E-04   5.2130133594240221E-04   5.0947716370093891E-04   4.9792591281368843E-04
   4.8664123495080681E-04   4.7561692803371324E-04   4.6484693301034833E-04   4.5432533069305123E-04   4.4404633865836700E-04
   4.3400430820792325E-04   4.2419372138959970E-04   4.1460918807819221E-04   4.0524544311473760E-04   3.9609734350364863E-04
   3.8715986566685096E-04   3.7842810275406761E-04   3.6989726200839138E-04   3.6156266218628769E-04   3.5341973103121007E-04
   3.4546400279991652E-04   3.3769111584068708E-04   3.3009681022253456E-04   3.2267692541459336E-04   3.1542739801482196E-04
   3.0834425952716376E-04   3.0142363418632123E-04   2.9466173682932541E-04   2.8805487081303137E-04   2.8159942597674243E-04
   2.7529187664911614E-04   2.6912877969856227E-04   2.6310677262628515E-04   2.5722257170121413E-04   2.5147297013598460E-04
   2.4585483630323185E-04   2.4036511199137319E-04   2.3500081069914599E-04   2.2975901596812204E-04   2.2463687975246604E-04
   2.1963162082519054E-04   2.1474052322017115E-04   2.0996093470920441E-04   2.0529026531342174E-04   2.0072598584832142E-04
   1.9626562650175308E-04   1.9190677544417525E-04   1.8764707747051447E-04   1.8348423267295545E-04   1.7941599514403482E-04
   1.7544017170937986E-04   1.7155462068949441E-04   1.6775725068993229E-04   1.6404601941930335E-04   1.6041893253446421E-04
   1.5687404251235623E-04   1.5340944754787858E-04   1.5002329047725325E-04   1.4671375772631347E-04   1.4347907828319195E-04
   1.4031752269484074E-04   1.3722740208689920E-04   1.3420706720635293E-04   1.3125490748651879E-04   1.2836935013382997E-04
   1.2554885923594708E-04   1.2279193489073118E-04   1.2009711235558211E-04   1.1746296121672143E-04   1.1488808457793423E-04
   1.1237111826836435E-04   1.0991073006890512E-04   1.0750561895678166E-04   1.0515451436789862E-04   1.0285617547656552E-04
   1.0060939049217858E-04   9.8412975972500441E-05   9.6265776153127230E-05   9.4166662292799683E-05   9.2114532034171621E-05
   9.0108308779692962E-05   8.8146941082250355E-05   8.6229402050231382E-05   8.4354688766675461E-05   8.2521821722179915E-05
   8.0729844261246070E-05   7.8977822041757947E-05   7.7264842507276398E-05   7.5590014371855024E-05   7.3952467117092225E-05
   7.2351350501116994E-05   7.0785834079248886E-05   6.9255106736038058E-05   6.7758376228437318E-05   6.6294868739829503E-05
   6.4863828444663963E-05   6.3464517083446794E-05   6.2096213547845636E-05   6.0758213475668664E-05   5.9449828855480926E-05
   5.8170387640633413E-05   5.6919233372486051E-05   5.5695724812598363E-05   5.4499235583682324E-05   5.3329153819104945E-05
   5.2184881820742139E-05   5.1065835724983418E-05   4.9971445176691578E-05   4.8901153010929873E-05   4.7854414942276421E-05
   4.6830699261536692E-05   4.5829486539683174E-05   4.4850269338850186E-05   4.3892551930214835E-05   4.2955850018597201E-05
   4.2039690473623645E-05   4.1143611067292275E-05   4.0267160217793696E-05   3.9409896739430211E-05   3.8571389598491916E-05
   3.7751217674947652E-05   3.6948969529810940E-05   3.6164243178043066E-05   3.5396645866862492E-05   3.4645793859333967E-05
   3.3911312223104780E-05   3.3192834624170547E-05   3.2490003125544212E-05   3.1802467990720197E-05   3.1129887491806851E-05
   3.0471927722224461E-05   2.9828262413854097E-05   2.9198572758535384E-05   2.8582547233803585E-05   2.7979881432767233E-05
   2.7390277898027473E-05   2.6813445959541440E-05   2.6249101576333549E-05   2.5696967181964965E-05   2.5156771533668507E-05
   2.4628249565064668E-05   2.4111142242368434E-05   2.3605196424005691E-05   2.3110164723557633E-05   2.2625805375952910E-05
   2.2151882106828389E-05   2.1688164004983412E-05   2.1234425397855203E-05   2.0790445729939455E-05   2.0356009444087252E-05
   1.9930905865611012E-05   1.9514929089127952E-05   1.9107877868080240E-05   1.8709555506863718E-05   1.8319769755504236E-05
   1.7938332706822077E-05   1.7565060696021758E-05   1.7199774202651009E-05   1.6842297754872268E-05   1.6492459835991035E-05
   1.6150092793186044E-05   1.5815032748390151E-05   1.5487119511268800E-05   1.5166196494248368E-05   1.4852110629541611E-05
   1.4544712288126632E-05   1.4243855200628740E-05   1.3949396380063158E-05   1.3661196046391433E-05   1.3379117552849187E-05
   1.3103027314004092E-05   1.2832794735500472E-05   1.2568292145451528E-05   1.2309394727440673E-05   1.2055980455091229E-05
   1.1807930028169852E-05   1.1565126810184803E-05   1.1327456767444333E-05   1.1094808409541392E-05   1.0867072731228208E-05
   1.0644143155650635E-05   1.0425915478906835E-05   1.0212287815901749E-05   1.0003160547463970E-05   9.7984362686966904E-06
   9.5980197385322150E-06   9.4018178304629501E-06   9.2097394844186907E-06   9.0216956597654721E-06   8.8375992893969791E-06
   8.6573652348947694E-06   8.4809102427301637E-06   8.3081529014838537E-06   8.1390136000597918E-06   7.9734144868680317E-06
