DATE: 2024-05-13 UNITS: metal CONTRIBUTOR: Xiaowang Zhou xzhou@sandia.gov, Lucas Hale lucas.hale@nist.gov, and Germain Clavier g.m.g.c.clavier@tue.nl/germain.clavier@gmail.com
 CITATION: X. W. Zhou, R. A. Johnson, H. N. G. Wadley, Phys. Rev. B, 69, 144113(2004)
Generated by create_eam.py
2     Cu Ag                   
2000  5.0025012506253123e-02   2000  3.2347637230042913e-03   6.4662926822855784e+00  
   29        63.54600         3.61496      fcc
   0.0000000000000000E+00  -1.3575272078492628E-02  -2.7095936009703281E-02  -4.0562097104869688E-02  -5.3973860675230689E-02
  -6.7331332032023572E-02  -8.0634616486487065E-02  -9.3883819349859898E-02  -1.0707904593337936E-01  -1.2022040154828517E-01
  -1.3330799150581374E-01  -1.4634192111720445E-01  -1.5932229569369616E-01  -1.7224922054652547E-01  -1.8512280098693201E-01
  -1.9794314232615351E-01  -2.1071034987542780E-01  -2.2342452894599418E-01  -2.3608578484909026E-01  -2.4869422289595400E-01
  -2.6124994839782478E-01  -2.7375306666593924E-01  -2.8620368301153720E-01  -2.9860190274585585E-01  -3.1094783118013369E-01
  -3.2324157362560968E-01  -3.3548323539352110E-01  -3.4767292179510700E-01  -3.5981073814160491E-01  -3.7189678974425322E-01
  -3.8393118191429121E-01  -3.9591401996295594E-01  -4.0784540920148626E-01  -4.1972545494111946E-01  -4.3155426249309548E-01
  -4.4333193716865160E-01  -4.5505858427902568E-01  -4.6673430913545710E-01  -4.7835921704918283E-01  -4.8993341333144214E-01
  -5.0145700329347309E-01  -5.1293009224651331E-01  -5.2435278550180153E-01  -5.3572518837057681E-01  -5.4704740616407577E-01
  -5.5831954419353824E-01  -5.6954170777020119E-01  -5.8071400220530378E-01  -5.9183653281008375E-01  -6.0290940489577938E-01
  -6.1393272377362929E-01  -6.2490659475487154E-01  -6.3583112315074419E-01  -6.4670641427248621E-01  -6.5753257343133475E-01
  -6.6830970593852934E-01  -6.7903791710530670E-01  -6.8971731224290700E-01  -7.0034799666256653E-01  -7.1093007567552480E-01
  -7.2146365459301975E-01  -7.3194883872628946E-01  -7.4238573338657265E-01  -7.5277444388510739E-01  -7.6311507553313129E-01
  -7.7340773364188342E-01  -7.8365252352260217E-01  -7.9384955048652506E-01  -8.0399891984489080E-01  -8.1410073690893725E-01
  -8.2415510698990335E-01  -8.3416213539902673E-01  -8.4412192744754588E-01  -8.5403458844669966E-01  -8.6390022370772501E-01
  -8.7371893854186100E-01  -8.8349083826034636E-01  -8.9321602817441870E-01  -9.0289461359531575E-01  -9.1252669983427659E-01
  -9.2211239220253949E-01  -9.3165179601134263E-01  -9.4114501657192395E-01  -9.5059215919552198E-01  -9.5999332919337521E-01
  -9.6934863187672082E-01  -9.7865817255679843E-01  -9.8792205654484588E-01  -9.9714038915210068E-01  -1.0063132756898021E+00
  -1.0154408214691879E+00  -1.0245231318014965E+00  -1.0335603119979657E+00  -1.0425524673698345E+00  -1.0514997032283406E+00
  -1.0604021248847224E+00  -1.0692598376502187E+00  -1.0780729468360670E+00  -1.0868415577535051E+00  -1.0955657757137729E+00
  -1.1042457060281077E+00  -1.1128814540077474E+00  -1.1214731249639309E+00  -1.1300208242078962E+00  -1.1385246570508814E+00
  -1.1469847288041248E+00  -1.1554011447788655E+00  -1.1637740102863408E+00  -1.1721034306377889E+00  -1.1803895111444482E+00
  -1.1886323571175579E+00  -1.1968320738683551E+00  -1.2049887667080783E+00  -1.2131025409479665E+00  -1.2211735018992564E+00
  -1.2292017548731879E+00  -1.2371874051809986E+00  -1.2451305581339267E+00  -1.2530313190432103E+00  -1.2608897932200882E+00
  -1.2687060859757981E+00  -1.2764803026215787E+00  -1.2842125484686677E+00  -1.2919029288283039E+00  -1.2995515490117255E+00
  -1.3071585143301705E+00  -1.3147239300948774E+00  -1.3222479016170845E+00  -1.3297305342080294E+00  -1.3371719331789509E+00
  -1.3445722038410877E+00  -1.3519314515056773E+00  -1.3592497814839581E+00  -1.3665272990871689E+00  -1.3737641096265476E+00
  -1.3809603184133319E+00  -1.3881160307587610E+00  -1.3952313519740729E+00  -1.4023063873705048E+00  -1.4093412422592968E+00
  -1.4163360219516861E+00  -1.4232908317589106E+00  -1.4302057769922094E+00  -1.4370809629628205E+00  -1.4439164949819818E+00
  -1.4507124783609320E+00  -1.4574690184109094E+00  -1.4641862204431513E+00  -1.4708641897688972E+00  -1.4775030316993849E+00
  -1.4841028515458523E+00  -1.4906637546195380E+00  -1.4971858462316809E+00  -1.5036692316935181E+00  -1.5101140163162881E+00
  -1.5165203054112297E+00  -1.5228882042895810E+00  -1.5292178182625797E+00  -1.5355092526414649E+00  -1.5417626127374746E+00
  -1.5479780038618458E+00  -1.5541555313258193E+00  -1.5602953004406312E+00  -1.5663974165175205E+00  -1.5724619848677255E+00
  -1.5784891108024846E+00  -1.5844788996330355E+00  -1.5904314566706172E+00  -1.5963468872264674E+00  -1.6022252966118244E+00
  -1.6080667901379269E+00  -1.6138714731160129E+00  -1.6196394508573200E+00  -1.6253708286730877E+00  -1.6310657118745533E+00
  -1.6367242057729559E+00  -1.6423464156795324E+00  -1.6479324469055228E+00  -1.6534824047621641E+00  -1.6589963945606949E+00
  -1.6644745216123535E+00  -1.6699168912283784E+00  -1.6753236087200072E+00  -1.6806947793984790E+00  -1.6860305085750313E+00
  -1.6913309015609026E+00  -1.6965960636673314E+00  -1.7018261002055561E+00  -1.7070211164868141E+00  -1.7121812178223448E+00
  -1.7173065095233857E+00  -1.7223970969011750E+00  -1.7274530852669514E+00  -1.7324745799319532E+00  -1.7374616862074179E+00
  -1.7424145094045846E+00  -1.7473331548346915E+00  -1.7522177278089761E+00  -1.7570683336386774E+00  -1.7618850776350334E+00
  -1.7666680651092823E+00  -1.7714174013726627E+00  -1.7761331917364125E+00  -1.7808155415117697E+00  -1.7854645560099733E+00
  -1.7900803405422614E+00  -1.7946630004198714E+00  -1.7992126409540425E+00  -1.8037293674560131E+00  -1.8082132852370207E+00
  -1.8126644996083034E+00  -1.8170831158811005E+00  -1.8214692393666496E+00  -1.8258229753761885E+00  -1.8301444292209570E+00
  -1.8344337062121918E+00  -1.8386909116611314E+00  -1.8429161508790151E+00  -1.8471095291770803E+00  -1.8512711518665645E+00
  -1.8554011242587081E+00  -1.8594995516647477E+00  -1.8635665393959218E+00  -1.8676021927634687E+00  -1.8716066170786274E+00
  -1.8755799176526351E+00  -1.8795221997967309E+00  -1.8834335688221524E+00  -1.8873141300401379E+00  -1.8911639887619263E+00
  -1.8949832502987554E+00  -1.8987720199618632E+00  -1.9025304030624888E+00  -1.9062585049118697E+00  -1.9099564308212447E+00
  -1.9136242861018509E+00  -1.9172621760649282E+00  -1.9208702060217142E+00  -1.9244484812834461E+00  -1.9279971071613640E+00
  -1.9315161889667050E+00  -1.9350058320107073E+00  -1.9384661416046101E+00  -1.9418972230596505E+00  -1.9452991816870673E+00
  -1.9486721227980990E+00  -1.9520161517039836E+00  -1.9553313737159590E+00  -1.9586178941452641E+00  -1.9618758183031373E+00
  -1.9651052515008156E+00  -1.9683062990495388E+00  -1.9714790662605444E+00  -1.9746236584450703E+00  -1.9777401809143556E+00
  -1.9808287389796380E+00  -1.9838894379521557E+00  -1.9869223831431473E+00  -1.9899276798638512E+00  -1.9929054334255052E+00
  -1.9958557491393476E+00  -1.9987787323166173E+00  -2.0016744882685513E+00  -2.0045431223063890E+00  -2.0073847397413682E+00
  -2.0101994458847274E+00  -2.0129873460477046E+00  -2.0157485455415385E+00  -2.0184831496774667E+00  -2.0211912637667271E+00
  -2.0238729931205595E+00  -2.0265284430502017E+00  -2.0291577188668906E+00  -2.0317609258818656E+00  -2.0343381694063654E+00
  -2.0368895547516268E+00  -2.0394151872288893E+00  -2.0419151721493911E+00  -2.0443896148243694E+00  -2.0468386205650635E+00
  -2.0492622946827117E+00  -2.0516607424885511E+00  -2.0540340692938215E+00  -2.0563823804097598E+00  -2.0587057811476051E+00
  -2.0610043768185955E+00  -2.0632782727339696E+00  -2.0655275742049644E+00  -2.0677523865428191E+00  -2.0699528150587727E+00
  -2.0721289650640622E+00  -2.0742809418699260E+00  -2.0764088507876028E+00  -2.0785127971283308E+00  -2.0805928862033478E+00
  -2.0826492233238927E+00  -2.0846819138012038E+00  -2.0866910629465183E+00  -2.0886767760710758E+00  -2.0906391584861139E+00
  -2.0925783155028705E+00  -2.0944943524325850E+00  -2.0963873745864947E+00  -2.0982574872758373E+00  -2.1001047958118524E+00
  -2.1019294055057780E+00  -2.1037314216688516E+00  -2.1055109496123126E+00  -2.1072680946473978E+00  -2.1090029620853463E+00
  -2.1107156572373973E+00  -2.1124062854147874E+00  -2.1140749519287554E+00  -2.1157217620905397E+00  -2.1173468212113788E+00
  -2.1189502346025102E+00  -2.1205321075751731E+00  -2.1220925454406054E+00  -2.1236316535100448E+00  -2.1251495370947304E+00
  -2.1266463015059007E+00  -2.1281220520547928E+00  -2.1295768940526449E+00  -2.1310109328106970E+00  -2.1324242736401855E+00
  -2.1338170218523493E+00  -2.1351892827584273E+00  -2.1365411616696570E+00  -2.1378727638972763E+00  -2.1391841947525250E+00
  -2.1404755595466400E+00  -2.1417469635908595E+00  -2.1429985121964230E+00  -2.1442303106745677E+00  -2.1454424643365320E+00
  -2.1466350784935542E+00  -2.1478082584568732E+00  -2.1489621095377256E+00  -2.1500967370473516E+00  -2.1512122462969892E+00
  -2.1523087425978749E+00  -2.1533863312612489E+00  -2.1544451175983483E+00  -2.1554852069204116E+00  -2.1565067045386779E+00
  -2.1575097157643848E+00  -2.1584943459087698E+00  -2.1594607002830726E+00  -2.1604088841985303E+00  -2.1613390029663822E+00
  -2.1622511618978653E+00  -2.1631454663042189E+00  -2.1640220214966810E+00  -2.1648809327864895E+00  -2.1657223054848829E+00
  -2.1665462449030999E+00  -2.1673528563523776E+00  -2.1681422451439554E+00  -2.1689145165890715E+00  -2.1696697759989632E+00
  -2.1704084457819008E+00  -2.1711300148833281E+00  -2.1718349603050000E+00  -2.1725234482087776E+00  -2.1731956447565222E+00
  -2.1738517161100934E+00  -2.1744918284313535E+00  -2.1751161478821626E+00  -2.1757248406243828E+00  -2.1763180728198734E+00
  -2.1768960106304971E+00  -2.1774588202181135E+00  -2.1780066677445840E+00  -2.1785397193717699E+00  -2.1790581412615317E+00
  -2.1795620995757305E+00  -2.1800517604762275E+00  -2.1805272901248829E+00  -2.1809888546835587E+00  -2.1814366203141153E+00
  -2.1818707531784129E+00  -2.1822914194383141E+00  -2.1826987852556785E+00  -2.1830930167923674E+00  -2.1834742802102420E+00
  -2.1838427416711634E+00  -2.1841985673369924E+00  -2.1845419233695895E+00  -2.1848729759308152E+00  -2.1851918911825323E+00
  -2.1854988352866003E+00  -2.1857939744048807E+00  -2.1860774746992337E+00  -2.1863495023315216E+00  -2.1866102234636040E+00
  -2.1868598042573422E+00  -2.1870984108745981E+00  -2.1873262094772317E+00  -2.1875433662271040E+00  -2.1877500472860762E+00
  -2.1879464188160092E+00  -2.1881326469787634E+00  -2.1883088979362006E+00  -2.1884753378501820E+00  -2.1886321328825677E+00
  -2.1887794491952186E+00  -2.1889174529499957E+00  -2.1890463103087612E+00  -2.1891661874333743E+00  -2.1892772504856968E+00
  -2.1893796656275897E+00  -2.1894735990209138E+00  -2.1895592168275302E+00  -2.1896366852092997E+00  -2.1897061703280833E+00
  -2.1897678383457420E+00  -2.1898218554241367E+00  -2.1898683877251282E+00  -2.1899076014105776E+00  -2.1899396626423457E+00
  -2.1899647375822937E+00  -2.1899829923922827E+00  -2.1899945932341729E+00  -2.1899997062698260E+00  -2.1899984976611027E+00
  -2.1899911335698641E+00  -2.1899777801579705E+00  -2.1899586035872836E+00  -2.1899337700196639E+00  -2.1899034456169733E+00
  -2.1898677965410709E+00  -2.1898269889538198E+00  -2.1897811890170789E+00  -2.1897305628927106E+00  -2.1896752767425758E+00
  -2.1896154967285346E+00  -2.1895513890124483E+00  -2.1894831197561784E+00  -2.1894108551215852E+00  -2.1893347612705290E+00
  -2.1892550043648726E+00  -2.1891717505664761E+00  -2.1890851660371995E+00  -2.1889954169389050E+00  -2.1889026694334528E+00
  -2.1888070896827050E+00  -2.1887088438485209E+00  -2.1886080980927622E+00  -2.1885050185772901E+00  -2.1883997714639656E+00
  -2.1882925229146490E+00  -2.1881834390912021E+00  -2.1880726861554853E+00  -2.1879604302693596E+00  -2.1878468375946856E+00
  -2.1877320742933253E+00  -2.1876163065271381E+00  -2.1874997004579870E+00  -2.1873824222477309E+00  -2.1872646380582323E+00
  -2.1871465140513511E+00  -2.1870282163889487E+00  -2.1869099112328860E+00  -2.1867917647450241E+00  -2.1866739430872242E+00
  -2.1865566124213465E+00  -2.1864399389092521E+00  -2.1863240887128024E+00  -2.1862092279938583E+00  -2.1860955229142798E+00
  -2.1859831396359297E+00  -2.1858722443206671E+00  -2.1857630031303539E+00  -2.1856555822268509E+00  -2.1855501477720187E+00
  -2.1854468659277191E+00  -2.1853459028558122E+00  -2.1852474247181597E+00  -2.1851515976766218E+00  -2.1850585878930593E+00
  -2.1849685615293346E+00  -2.1848816847473067E+00  -2.1847981237088385E+00  -2.1847180445757890E+00  -2.1846416135100206E+00
  -2.1845689966733937E+00  -2.1845003602277693E+00  -2.1844354426691042E+00  -2.1843716434044866E+00  -2.1843070097494097E+00
  -2.1842415458859858E+00  -2.1841752559689063E+00  -2.1841081441256787E+00  -2.1840402144568483E+00  -2.1839714710362292E+00
  -2.1839019179111214E+00  -2.1838315591025399E+00  -2.1837603986054259E+00  -2.1836884403888677E+00  -2.1836156883963138E+00
  -2.1835421465457854E+00  -2.1834678187300849E+00  -2.1833927088170069E+00  -2.1833168206495399E+00  -2.1832401580460736E+00
  -2.1831627248005971E+00  -2.1830845246829043E+00  -2.1830055614387822E+00  -2.1829258387902164E+00  -2.1828453604355782E+00
  -2.1827641300498195E+00  -2.1826821512846593E+00  -2.1825994277687766E+00  -2.1825159631079911E+00  -2.1824317608854518E+00
  -2.1823468246618170E+00  -2.1822611579754354E+00  -2.1821747643425238E+00  -2.1820876472573483E+00  -2.1819998101923930E+00
  -2.1819112565985401E+00  -2.1818219899052367E+00  -2.1817320135206675E+00  -2.1816413308319262E+00  -2.1815499452051745E+00
  -2.1814578599858145E+00  -2.1813650784986511E+00  -2.1812716040480518E+00  -2.1811774399181081E+00  -2.1810825893727959E+00
  -2.1809870556561304E+00  -2.1808908419923250E+00  -2.1807939515859456E+00  -2.1806963876220591E+00  -2.1805981532663909E+00
  -2.1804992516654704E+00  -2.1803996859467838E+00  -2.1802994592189160E+00  -2.1801985745717021E+00  -2.1800970350763684E+00
  -2.1799948437856753E+00  -2.1798920037340612E+00  -2.1797885179377814E+00  -2.1796843893950482E+00  -2.1795796210861669E+00
  -2.1794742159736740E+00  -2.1793681770024715E+00  -2.1792615070999628E+00  -2.1791542091761813E+00  -2.1790462861239268E+00
  -2.1789377408188919E+00  -2.1788285761197921E+00  -2.1787187948684958E+00  -2.1786083998901473E+00  -2.1784973939932963E+00
  -2.1783857799700179E+00  -2.1782735605960397E+00  -2.1781607386308619E+00  -2.1780473168178776E+00  -2.1779332978844961E+00
  -2.1778186845422560E+00  -2.1777034794869490E+00  -2.1775876853987315E+00  -2.1774713049422441E+00  -2.1773543407667231E+00
  -2.1772367955061145E+00  -2.1771186717791897E+00  -2.1769999721896514E+00  -2.1768806993262486E+00  -2.1767608557628839E+00
  -2.1766404440587226E+00  -2.1765194667583003E+00  -2.1763979263916289E+00  -2.1762758254743022E+00  -2.1761531665076004E+00
  -2.1760299519785957E+00  -2.1759061843602518E+00  -2.1757818661115289E+00  -2.1756569996774822E+00  -2.1755315874893641E+00
  -2.1754056319647210E+00  -2.1752791355074952E+00  -2.1751521005081171E+00  -2.1750245293436081E+00  -2.1748964243776707E+00
  -2.1747677879607865E+00  -2.1746386224303103E+00  -2.1745089301105618E+00  -2.1743787133129193E+00  -2.1742479743359113E+00
  -2.1741167154653067E+00  -2.1739849389742063E+00  -2.1738526471231276E+00  -2.1737198421601018E+00  -2.1735865263207521E+00
  -2.1734527018283880E+00  -2.1733183708940875E+00  -2.1731835357167837E+00  -2.1730481984833503E+00  -2.1729123613686849E+00
  -2.1727760265357912E+00  -2.1726391961358651E+00  -2.1725018723083731E+00  -2.1723640571811362E+00  -2.1722257528704065E+00
  -2.1720869614809524E+00  -2.1719476851061339E+00  -2.1718079258279825E+00  -2.1716676857172792E+00  -2.1715269668336314E+00
  -2.1713857712255482E+00  -2.1712441009305197E+00  -2.1711019579750888E+00  -2.1709593443749267E+00  -2.1708162621349087E+00
  -2.1706727132491865E+00  -2.1705286997012583E+00  -2.1703842234640471E+00  -2.1702392864999664E+00  -2.1700938907609943E+00
  -2.1699480381887430E+00  -2.1698017307145290E+00  -2.1696549702594408E+00  -2.1695077587344112E+00  -2.1693600980402810E+00
  -2.1692119900678715E+00  -2.1690634366980457E+00  -2.1689144398017794E+00  -2.1687650012402244E+00  -2.1686151228647770E+00
  -2.1684648065171390E+00  -2.1683140540293850E+00  -2.1681628672240243E+00  -2.1680112479140656E+00  -2.1678591979030779E+00
  -2.1677067189852561E+00  -2.1675538129454797E+00  -2.1674004815593739E+00  -2.1672467265933726E+00  -2.1670925498047779E+00
  -2.1669379529418196E+00  -2.1667829377437129E+00  -2.1666275059407210E+00  -2.1664716592542099E+00  -2.1663153993967081E+00
  -2.1661587280719652E+00  -2.1660016469750047E+00  -2.1658441577921854E+00  -2.1656862622012536E+00  -2.1655279618714025E+00
  -2.1653692584633246E+00  -2.1652101536292658E+00  -2.1650506490130836E+00  -2.1648907462502973E+00  -2.1647304469681434E+00
  -2.1645697527856274E+00  -2.1644086653135775E+00  -2.1642471861546970E+00  -2.1640853169036154E+00  -2.1639230591469394E+00
  -2.1637604144633058E+00  -2.1635973844234302E+00  -2.1634339705901589E+00  -2.1632701745185154E+00  -2.1631059977557556E+00
  -2.1629414418414123E+00  -2.1627765083073442E+00  -2.1626111986777867E+00  -2.1624455144693981E+00  -2.1622794571913060E+00
  -2.1621130283451588E+00  -2.1619462294251681E+00  -2.1617790619181569E+00  -2.1616115273036058E+00  -2.1614436270537003E+00
  -2.1612753626333721E+00  -2.1611067355003484E+00  -2.1609377471051952E+00  -2.1607683988913609E+00  -2.1605986922952218E+00
  -2.1604286287461250E+00  -2.1602582096664316E+00  -2.1600874364715601E+00  -2.1599163105700296E+00  -2.1597448333635016E+00
  -2.1595730062468230E+00  -2.1594008306080670E+00  -2.1592283078285743E+00  -2.1590554392829957E+00  -2.1588822263393319E+00
  -2.1587086703589744E+00  -2.1585347726967457E+00  -2.1583605347009391E+00  -2.1581859577133593E+00  -2.1580110430693602E+00
  -2.1578357920978859E+00  -2.1576602061215069E+00  -2.1574842864564623E+00  -2.1573080344126940E+00  -2.1571314512938873E+00
  -2.1569545383975095E+00  -2.1567772970148420E+00  -2.1565997284310234E+00  -2.1564218339250849E+00  -2.1562436147699833E+00
  -2.1560650722326429E+00  -2.1558862075739862E+00  -2.1557070220489738E+00  -2.1555275169066368E+00  -2.1553476933901146E+00
  -2.1551675527366885E+00  -2.1549870961778175E+00  -2.1548063249391705E+00  -2.1546252402406632E+00  -2.1544438432964914E+00
  -2.1542621353151623E+00  -2.1540801174995332E+00  -2.1538977910468398E+00  -2.1537151571487310E+00  -2.1535322169913025E+00
  -2.1533489717551291E+00  -2.1531654226152948E+00  -2.1529815707414288E+00  -2.1527974172977347E+00  -2.1526129634430218E+00
  -2.1524282103307386E+00  -2.1522431591090028E+00  -2.1520578109206321E+00  -2.1518721669031740E+00  -2.1516862281889404E+00
  -2.1514999959050325E+00  -2.1513134711733741E+00  -2.1511266551107422E+00  -2.1509395488287932E+00  -2.1507521534340968E+00
  -2.1505644700281610E+00  -2.1503764997074652E+00  -2.1501882435634849E+00  -2.1499997026827242E+00  -2.1498108781467424E+00
  -2.1496217710321810E+00  -2.1494323824107950E+00  -2.1492427133494774E+00  -2.1490527649102900E+00  -2.1488625381504884E+00
  -2.1486720341225505E+00  -2.1484812538742029E+00  -2.1482901984484490E+00  -2.1480988688835945E+00  -2.1479072662132750E+00
  -2.1477153914664804E+00  -2.1475232456675837E+00  -2.1473308298363660E+00  -2.1471381449880402E+00  -2.1469451921332827E+00
  -2.1467519722782491E+00  -2.1465584864246097E+00  -2.1463647355695685E+00  -2.1461707207058884E+00  -2.1459764428219197E+00
  -2.1457819029016201E+00  -2.1455871019245834E+00  -2.1453920408660601E+00  -2.1451967206969833E+00  -2.1450011423839945E+00
  -2.1448053068894621E+00  -2.1446092151715117E+00  -2.1444128681840442E+00  -2.1442162668767617E+00  -2.1440194121951901E+00
  -2.1438223050807013E+00  -2.1436249464705384E+00  -2.1434273372978354E+00  -2.1432294784916421E+00  -2.1430313709769466E+00
  -2.1428330156746931E+00  -2.1426344135018103E+00  -2.1424355653712306E+00  -2.1422364721919096E+00  -2.1420371348688523E+00
  -2.1418375543031312E+00  -2.1416377313919082E+00  -2.1414376670284567E+00  -2.1412373621021827E+00  -2.1410368174986463E+00
  -2.1408360340995793E+00  -2.1406350127829090E+00  -2.1404337544227796E+00  -2.1402322598895696E+00  -2.1400305300499127E+00
  -2.1398285657667198E+00  -2.1396263678991971E+00  -2.1394239373028681E+00  -2.1392212748295898E+00  -2.1390183813275763E+00
  -2.1388152576414150E+00  -2.1386119046120897E+00  -2.1384083230769946E+00  -2.1382045138699590E+00  -2.1380004778212620E+00
  -2.1377962157576542E+00  -2.1375917285023744E+00  -2.1373870168751687E+00  -2.1371820816923117E+00  -2.1369769237666199E+00
  -2.1367715439074733E+00  -2.1365659429208348E+00  -2.1363601216092643E+00  -2.1361540807719388E+00  -2.1359478212046703E+00
  -2.1357413436999253E+00  -2.1355346490468365E+00  -2.1353277380312266E+00  -2.1351206114356232E+00  -2.1349132700392746E+00
  -2.1347057146181694E+00  -2.1344979459450517E+00  -2.1342899647894384E+00  -2.1340817719176388E+00  -2.1338733680927655E+00
  -2.1336647540747564E+00  -2.1334559306203884E+00  -2.1332468984832946E+00  -2.1330376584139805E+00  -2.1328282111598402E+00
  -2.1326185574651721E+00  -2.1324086980711963E+00  -2.1321986337160679E+00  -2.1319883651348945E+00  -2.1317778930597533E+00
  -2.1315672182197032E+00  -2.1313563413408025E+00  -2.1311452631461245E+00  -2.1309339843557722E+00  -2.1307225056868915E+00
  -2.1305108278536919E+00  -2.1302989515674544E+00  -2.1300868775365518E+00  -2.1298746064664611E+00  -2.1296621390597790E+00
  -2.1294494760162359E+00  -2.1292366180327109E+00  -2.1290235658032466E+00  -2.1288103200190625E+00  -2.1285968813685701E+00
  -2.1283832505373881E+00  -2.1281694282083525E+00  -2.1279554150615350E+00  -2.1277412117742558E+00  -2.1275268190210963E+00
  -2.1273122374739133E+00  -2.1270974678018533E+00  -2.1268825106713658E+00  -2.1266673667462155E+00  -2.1264520366874993E+00
  -2.1262365211536545E+00  -2.1260208208004774E+00  -2.1258049362811318E+00  -2.1255888682461661E+00  -2.1253726173435230E+00
  -2.1251561842185547E+00  -2.1249395695140350E+00  -2.1247227738701713E+00  -2.1245057979246202E+00  -2.1242886423124951E+00
  -2.1240713076663846E+00  -2.1238537946163598E+00  -2.1236361037899902E+00  -2.1234182358123541E+00  -2.1232001913060543E+00
  -2.1229819708912232E+00  -2.1227635751855432E+00  -2.1225450048042527E+00  -2.1223262603601607E+00  -2.1221073424636594E+00
  -2.1218882517227340E+00  -2.1216689887429756E+00  -2.1214495541275915E+00  -2.1212299484774197E+00  -2.1210101723909380E+00
  -2.1207902264642775E+00  -2.1205701112912294E+00  -2.1203498274632637E+00  -2.1201293755695345E+00  -2.1199087561968928E+00
  -2.1196879699298989E+00  -2.1194670173508330E+00  -2.1192458990397052E+00  -2.1190246155742676E+00  -2.1188031675300243E+00
  -2.1185815554802425E+00  -2.1183597799959641E+00  -2.1181378416460159E+00  -2.1179157409970193E+00  -2.1176934786134014E+00
  -2.1174710550574076E+00  -2.1172484708891086E+00  -2.1170257266664123E+00  -2.1168028229450755E+00  -2.1165797602787118E+00
  -2.1163565392188044E+00  -2.1161331603147131E+00  -2.1159096241136868E+00  -2.1156859311608738E+00  -2.1154620819993295E+00
  -2.1152380771700283E+00  -2.1150139172118734E+00  -2.1147896026617041E+00  -2.1145651340543097E+00  -2.1143405119224368E+00
  -2.1141157367967964E+00  -2.1138908092060809E+00  -2.1136657296769648E+00  -2.1134404987341204E+00  -2.1132151169002249E+00
  -2.1129895846959696E+00  -2.1127639026400704E+00  -2.1125380712492756E+00  -2.1123120910383766E+00  -2.1120859625202151E+00
  -2.1118596862056949E+00  -2.1116332626037884E+00  -2.1114066922215478E+00  -2.1111799755641112E+00  -2.1109531131347152E+00
  -2.1107261054347002E+00  -2.1104989529635212E+00  -2.1102716562187571E+00  -2.1100442156961177E+00  -2.1098166318894531E+00
  -2.1095889052907615E+00  -2.1093610363902009E+00  -2.1091330256760932E+00  -2.1089048736349358E+00  -2.1086765807514083E+00
  -2.1084481475083821E+00  -2.1082195743869270E+00  -2.1079908618663237E+00  -2.1077620104240644E+00  -2.1075330205358704E+00
  -2.1073038926756911E+00  -2.1070746273157197E+00  -2.1068452249263960E+00  -2.1066156859764167E+00  -2.1063860109327441E+00
  -2.1061562002606116E+00  -2.1059262544235327E+00  -2.1056961738833118E+00  -2.1054659591000449E+00  -2.1052356105321350E+00
  -2.1050051286362956E+00  -2.1047745138675582E+00  -2.1045437666792828E+00  -2.1043128875231618E+00  -2.1040818768492309E+00
  -2.1038507351058735E+00  -2.1036194627398310E+00  -2.1033880601962078E+00  -2.1031565279184807E+00  -2.1029248663485047E+00
  -2.1026930759265219E+00  -2.1024611570911662E+00  -2.1022291102794739E+00  -2.1019969359268855E+00  -2.1017646344672625E+00
  -2.1015322063328821E+00  -2.1012996519544536E+00  -2.1010669717611217E+00  -2.1008341661804750E+00  -2.1006012356385511E+00
  -2.1003681805598444E+00  -2.1001350013673132E+00  -2.0999016984823871E+00  -2.0996682723249713E+00  -2.0994347233134567E+00
  -2.0992010518647253E+00  -2.0989672583941545E+00  -2.0987333433156286E+00  -2.0984993070415405E+00  -2.0982651499828009E+00
  -2.0980308725488452E+00  -2.0977964751476392E+00  -2.0975619581856848E+00  -2.0973273220680269E+00  -2.0970925671982621E+00
  -2.0968576939785404E+00  -2.0966227028095763E+00  -2.0963875940906527E+00  -2.0961523682196264E+00  -2.0959170255929367E+00
  -2.0956815666056103E+00  -2.0954459916512662E+00  -2.0952103011221235E+00  -2.0949744954090095E+00  -2.0947385749013607E+00
  -2.0945025399872326E+00  -2.0942663910533046E+00  -2.0940301284848855E+00  -2.0937937526659218E+00  -2.0935572639790005E+00
  -2.0933206628053553E+00  -2.0930839495248756E+00  -2.0928471245161098E+00  -2.0926101881562693E+00  -2.0923731408212394E+00
  -2.0921359828855803E+00  -2.0918987147225350E+00  -2.0916613367040351E+00  -2.0914238492007056E+00  -2.0911862525818696E+00
  -2.0909485472155573E+00  -2.0907107334685078E+00  -2.0904728117061770E+00  -2.0902347822927414E+00  -2.0899966455911052E+00
  -2.0897584019629054E+00  -2.0895200517685155E+00  -2.0892815953670532E+00  -2.0890430331163850E+00  -2.0888043653731301E+00
  -2.0885655924926683E+00  -2.0883267148291424E+00  -2.0880877327354668E+00  -2.0878486465633292E+00  -2.0876094566631984E+00
  -2.0873701633843273E+00  -2.0871307670747612E+00  -2.0868912680813394E+00  -2.0866516667497028E+00  -2.0864119634242968E+00
  -2.0861721584483792E+00  -2.0859322521640222E+00  -2.0856922449121198E+00  -2.0854521370323909E+00  -2.0852119288633864E+00
  -2.0849716207424902E+00  -2.0847312130059290E+00  -2.0844907059887747E+00  -2.0842501000249487E+00  -2.0840093954472270E+00
  -2.0837685925872460E+00  -2.0835276917755068E+00  -2.0832866933413796E+00  -2.0830455976131073E+00  -2.0828044049178143E+00
  -2.0825631155815061E+00  -2.0823217299290766E+00  -2.0820802482843126E+00  -2.0818386709698986E+00  -2.0815969983074192E+00
  -2.0813552306173686E+00  -2.0811133682191474E+00  -2.0808714114310765E+00  -2.0806293605703923E+00  -2.0803872159532588E+00
  -2.0801449778947663E+00  -2.0799026467089408E+00  -2.0796602227087435E+00  -2.0794177062060792E+00  -2.0791750975117984E+00
  -2.0789323969357025E+00  -2.0786896047865477E+00  -2.0784467213720497E+00  -2.0782037469988865E+00  -2.0779606819727068E+00
  -2.0777175265981280E+00  -2.0774742811787452E+00  -2.0772309460171350E+00  -2.0769875214148565E+00  -2.0767440076724588E+00
  -2.0765004050894831E+00  -2.0762567139644679E+00  -2.0760129345949538E+00  -2.0757690672774838E+00  -2.0755251123076128E+00
  -2.0752810699799071E+00  -2.0750369405879505E+00  -2.0747927244243494E+00  -2.0745484217807322E+00  -2.0743040329477589E+00
  -2.0740595582151227E+00  -2.0738149978715517E+00  -2.0735703522048157E+00  -2.0733256215017297E+00  -2.0730808060481558E+00
  -2.0728359061290105E+00  -2.0725909220282643E+00  -2.0723458540289497E+00  -2.0721007024131595E+00  -2.0718554674620586E+00
  -2.0716101494558790E+00  -2.0713647486739299E+00  -2.0711192653945982E+00  -2.0708736998953543E+00  -2.0706280524527525E+00
  -2.0703823233424385E+00  -2.0701365128391500E+00  -2.0698906212167230E+00  -2.0696446487480920E+00  -2.0693985957052985E+00
  -2.0691524623594884E+00  -2.0689062489809200E+00  -2.0686599558389669E+00  -2.0684135832021209E+00  -2.0681671313379946E+00
  -2.0679206005133257E+00  -2.0676739909939821E+00  -2.0674273030449619E+00  -2.0671805369303993E+00  -2.0669336929135689E+00
  -2.0666867712568848E+00  -2.0664397722219094E+00  -2.0661926960693533E+00  -2.0659455430590787E+00  -2.0656983134501044E+00
  -2.0654510075006081E+00  -2.0652036254679298E+00  -2.0649561676085755E+00  -2.0647086341782197E+00  -2.0644610254317088E+00
  -2.0642133416230650E+00  -2.0639655830054902E+00  -2.0637177498313659E+00  -2.0634698423522608E+00  -2.0632218608189308E+00
  -2.0629738054813225E+00  -2.0627256765885789E+00  -2.0624774743890391E+00  -2.0622291991302433E+00  -2.0619808510589359E+00
  -2.0617324304210687E+00  -2.0614839374618028E+00  -2.0612353724255130E+00  -2.0609867355557903E+00  -2.0607380270954434E+00
  -2.0604892472865060E+00  -2.0602403963702343E+00  -2.0599914745871142E+00  -2.0597424821768633E+00  -2.0594934193784327E+00
  -2.0592442864300096E+00  -2.0589950835690232E+00  -2.0587458110321442E+00  -2.0584964690552900E+00  -2.0582470578736261E+00
  -2.0579975777215713E+00  -2.0577480288327967E+00  -2.0574984114402315E+00  -2.0572487257760668E+00  -2.0569989720717552E+00
  -2.0567491505580153E+00  -2.0564992614648339E+00  -2.0562493050214710E+00  -2.0559992814564598E+00  -2.0557491909976102E+00
  -2.0554990338720120E+00  -2.0552488103060389E+00  -2.0549985205253476E+00  -2.0547481647548849E+00  -2.0544977432188873E+00
  -2.0542472561408842E+00  -2.0539967037437017E+00  -2.0537460862494643E+00  -2.0534954038795985E+00  -2.0532446568548344E+00
  -2.0529938453952079E+00  -2.0527429697200659E+00  -2.0524920300480662E+00  -2.0522410265971800E+00  -2.0519899595846982E+00
  -2.0517388292272281E+00  -2.0514876357407026E+00  -2.0512363793403758E+00  -2.0509850602408322E+00  -2.0507336786559840E+00
  -2.0504822347990763E+00  -2.0502307288826898E+00  -2.0499791611187410E+00  -2.0497275317184873E+00  -2.0494758408925282E+00
  -2.0492240888508078E+00  -2.0489722758026172E+00  -2.0487204019565959E+00  -2.0484684675207387E+00  -2.0482164727023919E+00
  -2.0479644177082594E+00  -2.0477123027444049E+00  -2.0474601280162523E+00  -2.0472078937285909E+00  -2.0469556000855760E+00
  -2.0467032472907314E+00  -2.0464508355469522E+00  -2.0461983650565059E+00  -2.0459458360210370E+00  -2.0456932486415678E+00
  -2.0454406031184993E+00  -2.0451878996516171E+00  -2.0449351384400902E+00  -2.0446823196824759E+00  -2.0444294435767194E+00
  -2.0441765103201592E+00  -2.0439235201095260E+00  -2.0436704731409487E+00  -2.0434173696099522E+00  -2.0431642097114633E+00
  -2.0429109936398113E+00  -2.0426577215887303E+00  -2.0424043937513616E+00  -2.0421510103202545E+00  -2.0418975714873722E+00
  -2.0416440774440896E+00  -2.0413905283811982E+00  -2.0411369244889057E+00  -2.0408832659568432E+00  -2.0406295529740599E+00
  -2.0403757857290312E+00  -2.0401219644096598E+00  -2.0398680892032743E+00  -2.0396141602966353E+00  -2.0393601778759360E+00
  -2.0391061421268035E+00  -2.0388520532343017E+00  -2.0385979113829338E+00  -2.0383437167566427E+00  -2.0380894695388139E+00
  -2.0378351699122801E+00  -2.0375808180593165E+00  -2.0373264141616514E+00  -2.0370719584004604E+00  -2.0368174509563737E+00
  -2.0365628920094765E+00  -2.0363082817393088E+00  -2.0360536203248705E+00  -2.0357989079446219E+00  -2.0355441447764866E+00
  -2.0352893309978506E+00  -2.0350344667855675E+00  -2.0347795523159591E+00  -2.0345245877648175E+00  -2.0342695733074061E+00
  -2.0340145091184629E+00  -2.0337593953722024E+00  -2.0335042322423149E+00  -2.0332490199019717E+00  -2.0329937585238249E+00
  -2.0327384482800106E+00  -2.0324830893421484E+00  -2.0322276818813472E+00  -2.0319722260682025E+00  -2.0317167220728019E+00
  -2.0314611700647238E+00  -2.0312055702130434E+00  -2.0309499226863283E+00  -2.0306942276526470E+00  -2.0304384852795661E+00
  -2.0301826957341538E+00  -2.0299268591829809E+00  -2.0296709757921239E+00  -2.0294150457271654E+00  -2.0291590691531960E+00
  -2.0289030462348183E+00  -2.0286469771361437E+00  -2.0283908620207987E+00  -2.0281347010519255E+00  -2.0278784943921826E+00
  -2.0276222422037464E+00  -2.0273659446483161E+00  -2.0271096018871093E+00  -2.0268532140808708E+00  -2.0265967813898675E+00
  -2.0263403039738970E+00  -2.0260837819922819E+00  -2.0258272156038779E+00  -2.0255706049670708E+00  -2.0253139502397808E+00
  -2.0250572515794629E+00  -2.0248005091431112E+00  -2.0245437230872545E+00  -2.0242868935679645E+00  -2.0240300207408528E+00
  -2.0237731047610756E+00  -2.0235161457833342E+00  -2.0232591439618748E+00  -2.0230020994504914E+00  -2.0227450124025306E+00
  -2.0224878829708874E+00  -2.0222307113080102E+00  -2.0219734975659014E+00  -2.0217162418961196E+00  -2.0214589444497819E+00
  -2.0212016053775606E+00  -2.0209442248296927E+00  -2.0206868029559746E+00  -2.0204293399057667E+00  -2.0201718358279943E+00
  -2.0199142908711489E+00  -2.0196567051832899E+00  -2.0193990789120475E+00  -2.0191414122046205E+00  -2.0188837052077813E+00
  -2.0186259580678758E+00  -2.0183681709308265E+00  -2.0181103439421308E+00  -2.0178524772468642E+00  -2.0175945709896830E+00
  -2.0173366253148250E+00  -2.0170786403661092E+00  -2.0168206162869384E+00  -2.0165625532203024E+00  -2.0163044513087760E+00
  -2.0160463106945232E+00  -2.0157881315192969E+00  -2.0155299139244414E+00  -2.0152716580508936E+00  -2.0150133640391834E+00
  -2.0147550320294374E+00  -2.0144966621613762E+00  -2.0142382545743209E+00  -2.0139798094071901E+00  -2.0137213267985032E+00
  -2.0134628068863827E+00  -2.0132042498085525E+00  -2.0129456557023433E+00  -2.0126870247046904E+00  -2.0124283569521366E+00
  -2.0121696525808339E+00  -2.0119109117265430E+00  -2.0116521345246379E+00  -2.0113933211101029E+00  -2.0111344716175381E+00
  -2.0108755861811578E+00  -2.0106166649347932E+00  -2.0103577080118931E+00  -2.0100987155455234E+00  -2.0098396876683755E+00
  -2.0095806245127572E+00  -2.0093215262106021E+00  -2.0090623928934663E+00  -2.0088032246925320E+00  -2.0085440217386084E+00
  -2.0082847841621323E+00  -2.0080255120931696E+00  -2.0077662056614174E+00  -2.0075068649962020E+00  -2.0072474902264856E+00
  -2.0069880814808627E+00  -2.0067286388875631E+00  -2.0064691625744544E+00  -2.0062096526690398E+00  -2.0059501092984640E+00
  -2.0056905325895094E+00  -2.0054309226686016E+00  -2.0051712796618069E+00  -2.0049116036948371E+00  -2.0046518948930476E+00
  -2.0043921533814415E+00  -2.0041323792846661E+00  -2.0038725727270204E+00  -2.0036127338324508E+00  -2.0033528627245554E+00
  -2.0030929595265845E+00  -2.0028330243614394E+00  -2.0025730573516776E+00  -2.0023130586195119E+00  -2.0020530282868099E+00
  -2.0017929664750991E+00  -2.0015328733055626E+00  -2.0012727488990465E+00  -2.0010125933760561E+00  -2.0007524068567588E+00
  -2.0004921894609851E+00  -2.0002319413082303E+00  -1.9999716625176558E+00  -1.9997113532080870E+00  -1.9994510134980192E+00
  -1.9991906435056155E+00  -1.9989302433487084E+00  -1.9986698131448020E+00  -1.9984093530110709E+00  -1.9981488630643645E+00
  -1.9978883434212038E+00  -1.9976277941977885E+00  -1.9973672155099904E+00  -1.9971066074733612E+00  -1.9968459702031294E+00
  -1.9965853038142034E+00  -1.9963246084211730E+00  -1.9960638841383069E+00  -1.9958031310795579E+00  -1.9955423493585618E+00
  -1.9952815390886391E+00  -1.9950207003827960E+00  -1.9947598333537233E+00  -1.9944989381138027E+00  -1.9942380147751013E+00
  -1.9939770634493774E+00  -1.9937160842480792E+00  -1.9934550772823467E+00  -1.9931940426630119E+00  -1.9929329805006009E+00
  -1.9926718909053347E+00  -1.9924107739871291E+00  -1.9921496298555956E+00  -1.9918884586200449E+00  -1.9916272603894849E+00
  -1.9913660352726232E+00  -1.9911047833778670E+00  -1.9908435048133277E+00  -1.9905821996868147E+00  -1.9903208681058431E+00
  -1.9900595101776328E+00  -1.9897981260091067E+00  -1.9895367157068957E+00  -1.9892752793773369E+00  -1.9890138171264746E+00
  -1.9887523290600631E+00  -1.9884908152835663E+00  -1.9882292759021580E+00  -1.9879677110207252E+00  -1.9877061207438658E+00
  -1.9874445051758913E+00  -1.9871828644208298E+00  -1.9869211985824213E+00  -1.9866595077641251E+00  -1.9863977920691158E+00
  -1.9861360516002864E+00  -1.9858742864602490E+00  -1.9856124967513349E+00  -1.9853506825755969E+00  -1.9850888440348089E+00
  -1.9848269812304680E+00  -1.9845650942637925E+00  -1.9843031832357274E+00  -1.9840412482469416E+00  -1.9837792893978292E+00
  -1.9835173067885130E+00  -1.9832553005188418E+00  -1.9829932706883933E+00  -1.9827312173964751E+00  -1.9824691407421242E+00
  -1.9822070408241093E+00  -1.9819449177409316E+00  -1.9816827715908232E+00  -1.9814206024717513E+00  -1.9811584104814175E+00
  -1.9808961957172584E+00  -1.9806339582764452E+00  -1.9803716982558885E+00  -1.9801094157522356E+00  -1.9798471108618727E+00
  -1.9795847836809233E+00  -1.9793224343052545E+00  -1.9790600628304724E+00  -1.9787976693519240E+00  -1.9785352539647014E+00
  -1.9782728167636383E+00  -1.9780103578433146E+00  -1.9777478772980512E+00  -1.9774853752219199E+00  -1.9772228517087349E+00
  -1.9769603068520603E+00  -1.9766977407452075E+00  -1.9764351534812379E+00  -1.9761725451529597E+00  -1.9759099158529350E+00
  -1.9756472656734754E+00  -1.9753845947066457E+00  -1.9751219030442619E+00  -1.9748591907778945E+00  -1.9745964579988695E+00
  -1.9743337047982652E+00  -1.9740709312669189E+00  -1.9738081374954217E+00  -1.9735453235741247E+00  -1.9732824895931351E+00
  -1.9730196356423206E+00  -1.9727567618113064E+00  -1.9724938681894808E+00  -1.9722309548659900E+00  -1.9719680219297449E+00
  -1.9717050694694169E+00  -1.9714420975734424E+00  -1.9711791063300210E+00  -1.9709160958271166E+00  -1.9706530661524588E+00
  -1.9703900173935440E+00  -1.9701269496376348E+00  -1.9698638629717620E+00  -1.9696007574827239E+00  -1.9693376332570884E+00
  -1.9690744903811932E+00  -1.9688113289411464E+00  -1.9685481490228269E+00  -1.9682849507118858E+00  -1.9680217340937463E+00
  -1.9677584992536055E+00  -1.9674952462764335E+00  -1.9672319752469765E+00  -1.9669686862497542E+00  -1.9667053793690630E+00
  -1.9664420546889771E+00  -1.9661787122933454E+00  -1.9659153522657977E+00  -1.9656519746897407E+00  -1.9653885796483606E+00
  -1.9651251672246248E+00  -1.9648617375012798E+00  -1.9645982905608550E+00  -1.9643348264856604E+00  -1.9640713453577889E+00
  -1.9638078472591187E+00  -1.9635443322713084E+00  -1.9632808004758047E+00  -1.9630172519538376E+00  -1.9627536867864241E+00
  -1.9624901050543662E+00  -1.9622265068382554E+00  -1.9619628922184684E+00  -1.9616992612751738E+00  -1.9614356140883256E+00
  -1.9611719507376710E+00  -1.9609082713027444E+00  -1.9606445758628739E+00  -1.9603808644971772E+00  -1.9601171372845660E+00
  -1.9598533943037444E+00  -1.9595896356332092E+00  -1.9593258613512521E+00  -1.9590620715359597E+00  -1.9587982662652130E+00
  -1.9585344456166909E+00  -1.9582706096678666E+00  -1.9580067584960115E+00  -1.9577428921781961E+00  -1.9574790107912867E+00
  -1.9572151144119514E+00  -1.9569512031166549E+00  -1.9566872769816657E+00  -1.9564233360830494E+00  -1.9561593804966759E+00
  -1.9558954102982162E+00  -1.9556314255631422E+00  -1.9553674263667316E+00  -1.9551034127840645E+00  -1.9548393848900252E+00
  -1.9545753427593033E+00  -1.9543112864663941E+00  -1.9540472160855982E+00  -1.9537831316910239E+00  -1.9535190333565851E+00
  -1.9532549211560060E+00  -1.9529907951628165E+00  -1.9527266554503564E+00  -1.9524625020917761E+00  -1.9521983351600347E+00
  -1.9519341547279030E+00  -1.9516699608679609E+00  -1.9514057536526022E+00  -1.9511415331540320E+00  -1.9508772994442689E+00
  -1.9506130525951435E+00  -1.9503487926783023E+00  -1.9500845197652039E+00  -1.9498202339271240E+00  -1.9495559352351535E+00
  -1.9492916237601980E+00  -1.9490272995729809E+00  -1.9487629627440435E+00  -1.9484986133437427E+00  -1.9482342514422557E+00
  -1.9479698771095773E+00  -1.9477054904155220E+00  -1.9474410914297238E+00  -1.9471766802216381E+00  -1.9469122568605399E+00
  -1.9466478214155269E+00  -1.9463833739555172E+00  -1.9461189145492519E+00  -1.9458544432652967E+00  -1.9455899601720381E+00
  -1.9453254653376886E+00  -1.9450609588302841E+00  -1.9447964407176865E+00  -1.9445319110675823E+00  -1.9442673699474846E+00
  -1.9440028174247328E+00  -1.9437382535664935E+00  -1.9434736784397608E+00  -1.9432090921113574E+00  -1.9429444946479331E+00
  -1.9426798861159671E+00  -1.9424152665817709E+00  -1.9421506361114820E+00  -1.9418859947710703E+00  -1.9416213426263373E+00
  -1.9413566797429149E+00  -1.9410920061862682E+00  -1.9408273220216932E+00  -1.9405626273143195E+00  -1.9402979221291115E+00
  -1.9400332065308645E+00  -1.9397684805842121E+00  -1.9395037443536198E+00  -1.9392389979033888E+00  -1.9389742412976576E+00
  -1.9387094746003997E+00  -1.9384446978754255E+00  -1.9381799111863836E+00  -1.9379151145967586E+00  -1.9376503081698746E+00
  -1.9373854919688951E+00  -1.9371206660568203E+00  -1.9368558304964909E+00  -1.9365909853505894E+00  -1.9363261306816364E+00
  -1.9360612665519941E+00  -1.9357963930238673E+00  -1.9355315101593014E+00  -1.9352666180201830E+00  -1.9350017166682454E+00
  -1.9347368061650598E+00  -1.9344718865720452E+00  -1.9342069579504630E+00  -1.9339420203614193E+00  -1.9336770738658653E+00
  -1.9334121185245967E+00  -1.9331471543982570E+00  -1.9328821815473345E+00  -1.9326172000321635E+00  -1.9323522099129284E+00
  -1.9320872112496577E+00  -1.9318222041022304E+00  -1.9315571885303719E+00  -1.9312921645936596E+00  -1.9310271323515169E+00
  -1.9307620918632185E+00  -1.9304970431878892E+00  -1.9302319863845052E+00  -1.9299669215118909E+00  -1.9297018486287250E+00
  -1.9294367677935373E+00  -1.9291716790647098E+00  -1.9289065825004765E+00  -1.9286414781589249E+00  -1.9283763660979965E+00
  -1.9281112463754866E+00  -1.9278461190490437E+00  -1.9275809841761731E+00  -1.9273158418142333E+00  -1.9270506920204398E+00
  -1.9267855348518625E+00  -1.9265203703654299E+00  -1.9262551986179250E+00  -1.9259900196659896E+00  -1.9257248335661228E+00
  -1.9254596403746800E+00  -1.9251944401478776E+00  -1.9249292329417891E+00  -1.9246640188123476E+00  -1.9243987978153456E+00
  -1.9241335700064364E+00  -1.9238683354411321E+00  -1.9236030941748068E+00  -1.9233378462626953E+00  -1.9230725917598939E+00
  -1.9228073307213607E+00  -1.9225420632019175E+00  -1.9222767892562462E+00  -1.9220115089388936E+00  -1.9217462223042689E+00
  -1.9214809294066464E+00  -1.9212156303001628E+00  -1.9209503250388216E+00  -1.9206850136764897E+00  -1.9204196962668989E+00
  -1.9201543728636488E+00  -1.9198890435202032E+00  -1.9196237082898917E+00  -1.9193583672259136E+00  -1.9190930203813334E+00
  -1.9188276678090830E+00  -1.9185623095619626E+00  -1.9182969456926418E+00  -1.9180315762536555E+00  -1.9177662012974128E+00
  -1.9175008208761875E+00  -1.9172354350421250E+00  -1.9169700438472415E+00  -1.9167046473434222E+00  -1.9164392455824237E+00
  -1.9161738386158746E+00  -1.9159084264952733E+00  -1.9156430092719923E+00  -1.9153775869972745E+00  -1.9151121597222347E+00
  -1.9148467274978640E+00  -1.9145812903750230E+00  -1.9143158484044489E+00  -1.9140504016367501E+00  -1.9137849501224118E+00
  -1.9135194939117930E+00  -1.9132540330551271E+00  -1.9129885676025229E+00  -1.9127230976039666E+00  -1.9124576231093176E+00
  -1.9121921441683143E+00  -1.9119266608305705E+00  -1.9116611731455773E+00  -1.9113956811627026E+00  -1.9111301849311935E+00
  -1.9108646845001733E+00  -1.9105991799186457E+00  -1.9103336712354912E+00  -1.9100681584994710E+00  -1.9098026417592231E+00
  -1.9095371210632688E+00  -1.9092715964600069E+00  -1.9090060679977177E+00  -1.9087405357245610E+00  -1.9084749996885790E+00
  -1.9082094599376953E+00  -1.9079439165197127E+00  -1.9076783694823189E+00  -1.9074128188730832E+00  -1.9071472647394558E+00
  -1.9068817071287716E+00  -1.9066161460882491E+00  -1.9063505816649888E+00  -1.9060850139059760E+00  -1.9058194428580801E+00
  -1.9055538685680546E+00  -1.9052882910825384E+00  -1.9050227104480562E+00  -1.9047571267110155E+00  -1.9044915399177131E+00
  -1.9042259501143295E+00  -1.9039603573469308E+00  -1.9036947616614732E+00  -1.9034291631037976E+00  -1.9031635617196312E+00
  -1.9028979575545912E+00  -1.9026323506541805E+00  -1.9023667410637921E+00  -1.9021011288287066E+00  -1.9018355139940928E+00
  -1.9015698966050101E+00  -1.9013042767064063E+00  -1.9010386543431179E+00  -1.9007730295598739E+00  -1.9005074024012920E+00
  -1.9002417729118799E+00  -1.8999761411360376E+00  -1.8997105071180562E+00  -1.8994448709021161E+00  -1.8991792325322925E+00
  -1.8989135920525506E+00  -1.8986479495067488E+00  -1.8983823049386370E+00  -1.8981166583918596E+00  -1.8978510099099544E+00
  -1.8975853595363490E+00  -1.8973197073143699E+00  -1.8970540532872344E+00  -1.8967883974980551E+00  -1.8965227399898377E+00
  -1.8962570808054864E+00  -1.8959914199877965E+00  -1.8957257575794613E+00  -1.8954600936230686E+00  -1.8951944281611026E+00
  -1.8949287612359449E+00  -1.8946630928898713E+00  -1.8943974231650560E+00  -1.8941317521035708E+00  -1.8938660797473832E+00
  -1.8936004061383598E+00  -1.8933347313182638E+00  -1.8930690553287584E+00  -1.8928033782114031E+00  -1.8925377000076578E+00
  -1.8922720207588806E+00  -1.8920063405063301E+00  -1.8917406592911616E+00  -1.8914749771544330E+00  -1.8912092941371017E+00
  -1.8909436102800239E+00  -1.8906779256239590E+00  -1.8904122402095640E+00  -1.8901465540773998E+00  -1.8898808672679273E+00
  -1.8896151798215095E+00  -1.8893494917784106E+00  -1.8890838031787984E+00  -1.8888181140627420E+00  -1.8885524244702121E+00
  -1.8882867344410850E+00  -1.8880210440151377E+00  -1.8877553532320526E+00  -1.8874896621314143E+00  -1.8872239707527119E+00
  -1.8869582791353392E+00  -1.8866925873185929E+00  -1.8864268953416767E+00  -1.8861612032436965E+00  -1.8858955110636659E+00
  -1.8856298188405025E+00  -1.8853641266130297E+00  -1.8850984344199775E+00  -1.8848327422999813E+00  -1.8845670502915834E+00
  -1.8843013584332327E+00  -1.8840356667632847E+00  -1.8837699753200028E+00  -1.8835042841415564E+00  -1.8832385932660243E+00
  -1.8829729027313920E+00  -1.8827072125755535E+00  -1.8824415228363112E+00  -1.8821758335513752E+00  -1.8819101447583657E+00
  -1.8816444564948116E+00  -1.8813787687981514E+00  -1.8811130817057315E+00  -1.8808473952548102E+00  -1.8805817094825548E+00
  -1.8803160244260431E+00  -1.8800503401222630E+00  -1.8797846566081124E+00  -1.8795189739204032E+00  -1.8792532920958547E+00
  -1.8789876111711004E+00  -1.8787219311826826E+00  -1.8784562521670587E+00  -1.8781905741605958E+00  -1.8779248971995748E+00
  -1.8776592213201881E+00  -1.8773935465585418E+00  -1.8771278729506535E+00  -1.8768622005324558E+00  -1.8765965293397933E+00
  -1.8763308594084256E+00  -1.8760651907740251E+00  -1.8757995234721785E+00  -1.8755338575383877E+00  -1.8752681930080675E+00
  -1.8750025299165489E+00  -1.8747368682990779E+00  -1.8744712081908148E+00  -1.8742055496268362E+00  -1.8739398926421329E+00
  -1.8736742372716140E+00  -1.8734085835501015E+00  -1.8731429315123371E+00  -1.8728772811929773E+00  -1.8726116326265947E+00
  -1.8723459858476796E+00  -1.8720803408906392E+00  -1.8718146977897994E+00  -1.8715490565794013E+00  -1.8712834172936053E+00
  -1.8710177799664889E+00  -1.8707521446320505E+00  -1.8704865113242028E+00  -1.8702208800767799E+00  -1.8699552509235340E+00
  -1.8696896238981355E+00  -1.8694239990341763E+00  -1.8691583763651654E+00  -1.8688927559245325E+00  -1.8686271377456269E+00
  -1.8683615218617180E+00  -1.8680959083059965E+00  -1.8678302971115712E+00  -1.8675646883114740E+00  -1.8672990819386566E+00
  -1.8670334780259910E+00  -1.8667678766062732E+00  -1.8665022777122169E+00  -1.8662366813764595E+00  -1.8659710876315614E+00
  -1.8657054965100031E+00  -1.8654399080441881E+00  -1.8651743222664430E+00  -1.8649087392090151E+00  -1.8646431589040773E+00
  -1.8643775813837233E+00  -1.8641120066799717E+00  -1.8638464348247630E+00  -1.8635808658499624E+00  -1.8633152997873583E+00
  -1.8630497366686640E+00  -1.8627841765255162E+00  -1.8625186193894763E+00  -1.8622530652920304E+00  -1.8619875142645892E+00
  -1.8617219663384883E+00  -1.8614564215449891E+00  -1.8611908799152772E+00  -1.8609253414804647E+00  -1.8606598062715898E+00
  -1.8603942743196149E+00  -1.8601287456554312E+00  -1.8598632203098517E+00  -1.8595976983136218E+00  -1.8593321796974089E+00
  -1.8590666644918095E+00  -1.8588011527273458E+00  -1.8585356444344692E+00  -1.8582701396435553E+00  -1.8580046383849107E+00
  -1.8577391406887678E+00  -1.8574736465852872E+00  -1.8572081561045586E+00  -1.8569426692765976E+00  -1.8566771861313518E+00
  -1.8564117066986945E+00  -1.8561462310084287E+00  -1.8558807590902873E+00  -1.8556152909739312E+00  -1.8553498266889517E+00
  -1.8550843662648686E+00  -1.8548189097311321E+00  -1.8545534571171225E+00  -1.8542880084521494E+00  -1.8540225637654533E+00
  -1.8537571230862042E+00  -1.8534916864435047E+00  -1.8532262538663862E+00  -1.8529608253838115E+00  -1.8526954010246748E+00
  -1.8524299808178015E+00  -1.8521645647919494E+00  -1.8518991529758051E+00  -1.8516337453979905E+00  -1.8513683420870570E+00
  -1.8511029430714896E+00  -1.8508375483797048E+00  -1.8505721580400520E+00  -1.8503067720808122E+00  -1.8500413905302004E+00
  -1.8497760134163641E+00  -1.8495106407673843E+00  -1.8492452726112749E+00  -1.8489799089759840E+00  -1.8487145498893915E+00
  -1.8484491953793127E+00  -1.8481838454734967E+00  -1.8479185001996268E+00  -1.8476531595853201E+00  -1.8473878236581285E+00
  -1.8471224924455372E+00  -1.8468571659749691E+00  -1.8465918442737788E+00  -1.8463265273692591E+00  -1.8460612152886349E+00
  -1.8457959080590687E+00  -1.8455306057076577E+00  -1.8452653082614350E+00  -1.8450000157473700E+00  -1.8447347281923681E+00
  -1.8444694456232693E+00  -1.8442041680668524E+00  -1.8439388955498310E+00  -1.8436736280988559E+00  -1.8434083657405160E+00
  -1.8431431085013341E+00  -1.8428778564077735E+00  -1.8426126094862325E+00  -1.8423473677630482E+00  -1.8420821312644939E+00
  -1.8418169000167826E+00  -1.8415516740460633E+00  -1.8412864533784243E+00  -1.8410212380398918E+00  -1.8407560280564297E+00
  -1.8404908234539414E+00  -1.8402256242582689E+00  -1.8399604304951915E+00  -1.8396952421904296E+00  -1.8394300593696413E+00
  -1.8391648820584252E+00  -1.8388997102823170E+00  -1.8386345440667951E+00  -1.8383693834372747E+00  -1.8381042284191125E+00
  -1.8378390790376056E+00  -1.8375739353179892E+00  -1.8373087972854407E+00  -1.8370436649650774E+00  -1.8367785383819566E+00
  -1.8365134175610771E+00  -1.8362483025273786E+00  -1.8359831933057411E+00  -1.8357180899209864E+00  -1.8354529923978764E+00
  -1.8351879007611167E+00  -1.8349228150353525E+00  -1.8346577352451716E+00  -1.8343926614151029E+00  -1.8341275935696177E+00
   5.0803612526640507E+01   5.0803612526640507E+01   5.0803612526640507E+01   5.0803612526640507E+01   5.0803612526640507E+01
   5.0803612526640507E+01   5.0803612526640507E+01   5.0803612526640507E+01   5.0803612526640507E+01   5.0803612526640507E+01
   5.0803612526640507E+01   5.0803612526640507E+01   5.0803612526640507E+01   5.0803612526640507E+01   5.0803612526640507E+01
   5.0803612526640507E+01   5.0803612526640507E+01   5.0803612526640507E+01   5.0803612526640507E+01   5.0803612526640507E+01
   5.0803612526640507E+01   5.0803612526640507E+01   5.0803612526640507E+01   5.0803612526640507E+01   5.0803612526640507E+01
   5.0803612526640507E+01   5.0803612526640507E+01   5.0803612526640507E+01   5.0803612526640507E+01   5.0803612526640507E+01
   5.0803612526640507E+01   5.0803612526640507E+01   5.0803612526640507E+01   5.0803612526640507E+01   5.0803612526640507E+01
   5.0803612526640507E+01   5.0803612526640507E+01   5.0803612526640507E+01   5.0803612526640507E+01   5.0803612526640507E+01
   5.0803612526640507E+01   5.0803612526640507E+01   5.0803612526640507E+01   5.0803612526640507E+01   5.0803612526640507E+01
   5.0803612526640507E+01   5.0803612526640507E+01   5.0803612526640507E+01   5.0803612526640507E+01   5.0803612526640507E+01
   5.0803612526640507E+01   5.0803612526640507E+01   5.0803612526640507E+01   5.0803612526640507E+01   5.0803612526640507E+01
   5.0803612526640507E+01   5.0803612526640507E+01   5.0803612526640507E+01   5.0803612526640507E+01   5.0803612526640507E+01
   5.0803612526640507E+01   5.0803612526640507E+01   5.0803612526640507E+01   5.0803612526640507E+01   5.0803612526640507E+01
   5.0803612526640507E+01   5.0803612526640507E+01   5.0803612526640507E+01   5.0803612526640507E+01   5.0803612526640507E+01
   5.0803612526640507E+01   5.0803612526640507E+01   5.0803612526640507E+01   5.0803612526640507E+01   5.0803612526640507E+01
   5.0803612526640507E+01   5.0803612526640507E+01   5.0803612526640507E+01   5.0803612526640507E+01   5.0803612526640507E+01
   5.0803612526640507E+01   5.0803612526640507E+01   5.0803612526640507E+01   5.0803612526640507E+01   5.0803612526640507E+01
   5.0803612526640507E+01   5.0803612526640507E+01   5.0803612526640507E+01   5.0803612526640507E+01   5.0803612526640507E+01
   5.0803612526640507E+01   5.0803612526640507E+01   5.0803612526640507E+01   5.0803612526640507E+01   5.0803612526640507E+01
   5.0803612526640507E+01   5.0803612526640507E+01   5.0803612526640507E+01   5.0803612526640507E+01   5.0803612526640507E+01
   5.0803612526640507E+01   5.0803612526640507E+01   5.0803612526640507E+01   5.0803612526640507E+01   5.0803612526640507E+01
   5.0803612526640507E+01   5.0803612526640507E+01   5.0803612526640507E+01   5.0803612526640507E+01   5.0803612526640507E+01
   5.0803612526640507E+01   5.0803612526640507E+01   5.0803612526640507E+01   5.0803612526640507E+01   5.0803612526640507E+01
   5.0803612526640507E+01   5.0803612526640507E+01   5.0803612526640507E+01   5.0803612526640507E+01   5.0803612526640507E+01
   5.0803612526640507E+01   5.0803612526640507E+01   5.0803612526640507E+01   5.0803612526640507E+01   5.0803612526640507E+01
   5.0803612526640507E+01   5.0803612526640507E+01   5.0803612526640507E+01   5.0803612526640507E+01   5.0803612526640507E+01
   5.0803612526640507E+01   5.0803612526640507E+01   5.0803612526640507E+01   5.0803612526640507E+01   5.0803612526640507E+01
   5.0803612526640507E+01   5.0803612526640507E+01   5.0803612526640507E+01   5.0803612526640507E+01   5.0803612526640507E+01
   5.0803612526640507E+01   5.0803612526640507E+01   5.0803612526640507E+01   5.0803612526640507E+01   5.0803612526640507E+01
   5.0803612526640507E+01   5.0803612526640507E+01   5.0803612526640507E+01   5.0803612526640507E+01   5.0803612526640507E+01
   5.0803612526640507E+01   5.0803612526640507E+01   5.0803612526640507E+01   5.0803612526640507E+01   5.0803612526640507E+01
   5.0684150176987565E+01   5.0406904132542486E+01   5.0131173774937722E+01   4.9856950857326808E+01   4.9584227176028712E+01
   4.9312994570373156E+01   4.9043244922543430E+01   4.8774970157416917E+01   4.8508162242403692E+01   4.8242813187282728E+01
   4.7978915044036611E+01   4.7716459906684250E+01   4.7455439911111931E+01   4.7195847234903049E+01   4.6937674097166109E+01
   4.6680912758361536E+01   4.6425555520127297E+01   4.6171594725103077E+01   4.5919022756753861E+01   4.5667832039192028E+01
   4.5418015036998931E+01   4.5169564255045508E+01   4.4922472238311968E+01   4.4676731571707222E+01   4.4432334879887236E+01
   4.4189274827073234E+01   4.3947544116869182E+01   4.3707135492078919E+01   4.3468041734523034E+01   4.3230255664855221E+01
   4.2993770142378622E+01   4.2758578064861823E+01   4.2524672368354729E+01   4.2292046027004488E+01   4.2060692052870976E+01
   4.1830603495742793E+01   4.1601773442952812E+01   4.1374195019194183E+01   4.1147861386336054E+01   4.0922765743239857E+01
   4.0698901325575406E+01   4.0476261405637352E+01   4.0254839292162025E+01   4.0034628330144194E+01   3.9815621900654548E+01
   3.9597813420657076E+01   3.9381196342827181E+01   3.9165764155369892E+01   3.8951510381838659E+01   3.8738428580954448E+01
   3.8526512346425328E+01   3.8315755306766562E+01   3.8106151125121066E+01   3.7897693499080546E+01   3.7690376160506943E+01
   3.7484192875354665E+01   3.7279137443493084E+01   3.7075203698529769E+01   3.6872385507634370E+01   3.6670676771362906E+01
   3.6470071423482764E+01   3.6270563430798376E+01   3.6072146792977286E+01   3.5874815542377206E+01   3.5678563743873383E+01
   3.5483385494686878E+01   3.5289274924213380E+01   3.5096226193852672E+01   3.4904233496838913E+01   3.4713291058071420E+01
   3.4523393133946335E+01   3.4334534012188939E+01   3.4146708011686556E+01   3.3959909482322281E+01   3.3774132804809426E+01
   3.3589372390526691E+01   3.3405622681353925E+01   3.3222878149508944E+01   3.3041133297384611E+01   3.2860382657387099E+01
   3.2680620791774615E+01   3.2501842292496953E+01   3.2324041781035831E+01   3.2147213908245902E+01   3.1971353354196619E+01
   3.1796454828014660E+01   3.1622513067727244E+01   3.1449522840106283E+01   3.1277478940513035E+01   3.1106376192743717E+01
   3.0936209448875825E+01   3.0766973589115107E+01   3.0598663521643445E+01   3.0431274182467327E+01   3.0264800535267213E+01
   3.0099237571247649E+01   2.9934580308987897E+01   2.9770823794293651E+01   2.9607963100049247E+01   2.9445993326070827E+01
   2.9284909598959974E+01   2.9124707071958415E+01   2.8965380924803224E+01   2.8806926363582811E+01   2.8649338620593802E+01
   2.8492612954198428E+01   2.8336744648682867E+01   2.8181729014116151E+01   2.8027561386209889E+01   2.7874237126178723E+01
   2.7721751620601445E+01   2.7570100281282979E+01   2.7419278545116857E+01   2.7269281873948714E+01   2.7120105754440196E+01
   2.6971745697933830E+01   2.6824197240318444E+01   2.6677455941895381E+01   2.6531517387245412E+01   2.6386377185096311E+01
   2.6242030968191187E+01   2.6098474393157485E+01   2.5955703140376638E+01   2.5813712913854602E+01   2.5672499441092789E+01
   2.5532058472959932E+01   2.5392385783564499E+01   2.5253477170127894E+01   2.5115328452858268E+01   2.4977935474824950E+01
   2.4841294101833750E+01   2.4705400222302625E+01   2.4570249747138398E+01   2.4435838609613743E+01   2.4302162765245150E+01
   2.4169218191671419E+01   2.4037000888532695E+01   2.3905506877350390E+01   2.3774732201407545E+01   2.3644672925630044E+01
   2.3515325136468228E+01   2.3386684941779340E+01   2.3258748470710543E+01   2.3131511873582518E+01   2.3004971321773819E+01
   2.2879123007605703E+01   2.2753963144227736E+01   2.2629487965503895E+01   2.2505693725899313E+01   2.2382576700367746E+01
   2.2260133184239443E+01   2.2138359493109920E+01   2.2017251962729009E+01   2.1896806948890735E+01   2.1777020827323756E+01
   2.1657889993582277E+01   2.1539410862937796E+01   2.1421579870271099E+01   2.1304393469965220E+01   2.1187848135798713E+01
   2.1071940360839555E+01   2.0956666657339763E+01   2.0842023556630359E+01   2.0728007609017229E+01   2.0614615383677098E+01
   2.0501843468554569E+01   2.0389688470259319E+01   2.0278147013964134E+01   2.0167215743303267E+01   2.0056891320271585E+01
   1.9947170425124121E+01   1.9838049756276146E+01   1.9729526030203886E+01   1.9621595981345759E+01   1.9514256362004105E+01
   1.9407503942247484E+01   1.9301335509813502E+01   1.9195747870012177E+01   1.9090737845629814E+01   1.8986302276833388E+01
   1.8882438021075568E+01   1.8779141953000050E+01   1.8676410964347607E+01   1.8574241963862526E+01   1.8472631877199625E+01
   1.8371577646831767E+01   1.8271076231957800E+01   1.8171124608411159E+01   1.8071719768568784E+01   1.7972858721260703E+01
   1.7874538491679964E+01   1.7776756121293186E+01   1.7679508667751527E+01   1.7582793204802091E+01   1.7486606822199981E+01
   1.7390946625620643E+01   1.7295809736572863E+01   1.7201193292312048E+01   1.7107094445754207E+01   1.7013510365390204E+01
   1.6920438235200560E+01   1.6827875254570777E+01   1.6735818638206993E+01   1.6644265616052273E+01   1.6553213433203140E+01
   1.6462659349826769E+01   1.6372600641078503E+01   1.6283034597019899E+01   1.6193958522537116E+01   1.6105369737259913E+01
   1.6017265575480934E+01   1.5929643386075503E+01   1.5842500532421857E+01   1.5755834392321820E+01   1.5669642357921894E+01
   1.5583921835634765E+01   1.5498670246061325E+01   1.5413885023912965E+01   1.5329563617934465E+01   1.5245703490827173E+01
   1.5162302119172692E+01   1.5079356993356946E+01   1.4996865617494620E+01   1.4914825509354118E+01   1.4833234200282817E+01
   1.4752089235132855E+01   1.4671388172187150E+01   1.4591128583086043E+01   1.4511308052754147E+01   1.4431924179327693E+01
   1.4352974574082273E+01   1.4274456861360949E+01   1.4196368678502800E+01   1.4118707675771732E+01   1.4041471516285906E+01
   1.3964657875947328E+01   1.3888264443371947E+01   1.3812288919820077E+01   1.3736729019127280E+01   1.3661582467635517E+01
   1.3586847004124779E+01   1.3512520379744982E+01   1.3438600357948390E+01   1.3365084714422219E+01   1.3291971237021770E+01
   1.3219257725703846E+01   1.3146941992460539E+01   1.3075021861253427E+01   1.3003495167948026E+01   1.2932359760248747E+01
   1.2861613497634094E+01   1.2791254251292242E+01   1.2721279904057013E+01   1.2651688350344143E+01   1.2582477496087932E+01
   1.2513645258678228E+01   1.2445189566897776E+01   1.2377108360859864E+01   1.2309399591946381E+01   1.2242061222746111E+01
   1.2175091226993485E+01   1.2108487589507607E+01   1.2042248306131540E+01   1.1976371383672099E+01   1.1910854839839832E+01
   1.1845696703189333E+01   1.1780895013059991E+01   1.1716447819516922E+01   1.1652353183292368E+01   1.1588609175727282E+01
   1.1525213878713298E+01   1.1462165384635075E+01   1.1399461796312812E+01   1.1337101226945197E+01   1.1275081800052678E+01
   1.1213401649420897E+01   1.1152058919044636E+01   1.1091051763071897E+01   1.1030378345748389E+01   1.0970036841362294E+01
   1.0910025434189318E+01   1.0850342318438047E+01   1.0790985698195634E+01   1.0731953787373735E+01   1.0673244809654765E+01
   1.0614856998438478E+01   1.0556788596788760E+01   1.0499037857380813E+01   1.0441603042448534E+01   1.0384482423732237E+01
   1.0327674282426667E+01   1.0271176909129258E+01   1.0214988603788690E+01   1.0159107675653782E+01   1.0103532443222539E+01
   1.0048261234191616E+01   9.9932923854059741E+00   9.9386242428088334E+00   9.8842551613919181E+00   9.8301835051459090E+00
   9.7764076470112897E+00   9.7229259688293279E+00   9.6697368612933889E+00   9.6168387239005497E+00   9.5642299649033955E+00
   9.5119090012621506E+00   9.4598742585970204E+00   9.4081241711408339E+00   9.3566571816919275E+00   9.3054717415672812E+00
   9.2545663105559157E+00   9.2039393568725618E+00   9.1535893571115476E+00   9.1035147962009653E+00   9.0537141673570929E+00
   9.0041859720390356E+00   8.9549287199036485E+00   8.9059409287606748E+00   8.8572211245281647E+00   8.8087678411881072E+00
   8.7605796207423197E+00   8.7126550131685647E+00   8.6649925763769442E+00   8.6175908761664797E+00   8.5704484861819612E+00
   8.5235639878710483E+00   8.4769359704415450E+00   8.4305630308189965E+00   8.3844437736044206E+00   8.3385768110323522E+00
   8.2929607629290825E+00   8.2475942566711087E+00   8.2024759271438406E+00   8.1576044167005399E+00   8.1129783751214379E+00
   8.0685964595731239E+00   8.0244573345681474E+00   7.9805596719248006E+00   7.9369021507271924E+00   7.8934834572854644E+00
   7.8503022850962800E+00   7.8073573348035223E+00   7.7646473141591512E+00   7.7221709379843801E+00   7.6799269281309588E+00
   7.6379140134427201E+00   7.5961309297173454E+00   7.5545764196683027E+00   7.5132492328870413E+00   7.4721481258053402E+00
   7.4312718616578959E+00   7.3906192104451138E+00   7.3501889488960996E+00   7.3099798604318194E+00   7.2699907351285384E+00
   7.2302203696813772E+00   7.1906675673681271E+00   7.1513311380132141E+00   7.1122098979519066E+00   7.0733026699946988E+00
   7.0346082833918704E+00   6.9961255737982677E+00   6.9578533832382838E+00   6.9197905600709815E+00   6.8819359589554594E+00
   6.8442884408163929E+00   6.8068468728097393E+00   6.7696101282886758E+00   6.7325770867696670E+00   6.6957466338987706E+00
   6.6591176614181027E+00   6.6226890671324838E+00   6.5864597548762651E+00   6.5504286344803742E+00   6.5145946217394775E+00
   6.4789566383793638E+00   6.4435136120245193E+00   6.4082644761658312E+00   6.3732081701285077E+00   6.3383436390401684E+00
   6.3036698337990877E+00   6.2691857110426419E+00   6.2348902331158911E+00   6.2007823680403842E+00   6.1668610894830884E+00
   6.1331253767255030E+00   6.0995742146329563E+00   6.0662065936240497E+00   6.0330215096402915E+00   6.0000179641158677E+00
   5.9671949639476018E+00   5.9345515214650764E+00   5.9020866544009154E+00   5.8697993858612003E+00   5.8376887442961154E+00
   5.8057537634706788E+00   5.7739934824356922E+00   5.7424069454988036E+00   5.7109932021957635E+00   5.6797513072618289E+00
   5.6486803206033054E+00   5.6177793072692621E+00   5.5870473374234129E+00   5.5564834863161154E+00   5.5260868342565574E+00
   5.4958564665850886E+00   5.4657914736456767E+00   5.4358909507585587E+00   5.4061539981930009E+00   5.3765797211402306E+00
   5.3471672296865194E+00   5.3179156387863920E+00   5.2888240682359973E+00   5.2598916426466342E+00   5.2311174914183924E+00
   5.2025007487139652E+00   5.1740405534325999E+00   5.1457360491841788E+00   5.1175863842634488E+00   5.0895907116244024E+00
   5.0617481888547777E+00   5.0340579781507255E+00   5.0065192462915693E+00   4.9791311646147722E+00   4.9518929089909758E+00
   4.9248036597992053E+00   4.8978626019022080E+00   4.8710689246219339E+00   4.8444218217151267E+00   4.8179204913490734E+00
   4.7915641360774677E+00   4.7653519628164336E+00   4.7392831828206390E+00   4.7133570116595669E+00   4.6875726691939210E+00
   4.6619293795521397E+00   4.6364263711070608E+00   4.6110628764526886E+00   4.5858381323811104E+00   4.5607513798595365E+00
   4.5358018640074462E+00   4.5109888340738804E+00   4.4863115434148577E+00   4.4617692494708949E+00   4.4373612137446674E+00
   4.4130867017787940E+00   4.3889449831337251E+00   4.3649353313657677E+00   4.3410570240052335E+00   4.3173093425346885E+00
   4.2936915723673383E+00   4.2702030028255216E+00   4.2468429271193271E+00   4.2236106423253323E+00   4.2005054493654388E+00
   4.1775266529858444E+00   4.1546735617361277E+00   4.1319454879484283E+00   4.1093417477167637E+00   4.0868616608764512E+00
   4.0645045509836324E+00   4.0422697452949308E+00   4.0201565747471921E+00   3.9981643739373682E+00   3.9762924811024893E+00
   3.9545402380997410E+00   3.9329069903866793E+00   3.9113920870015111E+00   3.8899948805435258E+00   3.8687147271536118E+00
   3.8475509864948703E+00   3.8265030217333611E+00   3.8055701995189328E+00   3.7847518899661603E+00   3.7640474666354060E+00
   3.7434563065139490E+00   3.7229777899972563E+00   3.7026113008703305E+00   3.6823562262891665E+00   3.6622119567623139E+00
   3.6421778861325378E+00   3.6222534115585718E+00   3.6024379334969812E+00   3.5827308556841309E+00   3.5631315851182297E+00
   3.5436395320415000E+00   3.5242541099224156E+00   3.5049747354380689E+00   3.4858008284566115E+00   3.4667318120197876E+00
   3.4477671123255882E+00   3.4289061587109817E+00   3.4101483836347319E+00   3.3914932226603365E+00   3.3729401144390256E+00
   3.3544885006928853E+00   3.3361378261980463E+00   3.3178875387679825E+00   3.2997370892369005E+00   3.2816859314432074E+00
   3.2637335222130752E+00   3.2458793213441028E+00   3.2281227915890538E+00   3.2104633986397011E+00   3.1929006111107343E+00
   3.1754339005237795E+00   3.1580627412914968E+00   3.1407866107017655E+00   3.1236049889019477E+00   3.1065173588832558E+00
   3.0895232064651879E+00   3.0726220202800545E+00   3.0558132917576013E+00   3.0390965151096956E+00   3.0224711873151104E+00
   3.0059368081043920E+00   2.9894928799447960E+00   2.9731389080253301E+00   2.9568744002418494E+00   2.9406988671822609E+00
   2.9246118221117952E+00   2.9086127809583520E+00   2.8927012622979444E+00   2.8768767873402035E+00   2.8611388799139768E+00
   2.8454870664530030E+00   2.8299208759816481E+00   2.8144398401007478E+00   2.7990434929735093E+00   2.7837313713114882E+00
   2.7685030143606566E+00   2.7533579638875296E+00   2.7382957641653860E+00   2.7233159619605418E+00   2.7084181065187316E+00
   2.6936017495515236E+00   2.6788664452228490E+00   2.6642117501355704E+00   2.6496372233181531E+00   2.6351424262113889E+00
   2.6207269226551944E+00   2.6063902788755011E+00   2.5921320634711913E+00   2.5779518474011183E+00   2.5638492039712011E+00
   2.5498237088215787E+00   2.5358749399138478E+00   2.5220024775183538E+00   2.5082059042015685E+00   2.4944848048135291E+00
   2.4808387664753440E+00   2.4672673785667647E+00   2.4537702327138384E+00   2.4403469227766119E+00   2.4269970448369196E+00
   2.4137201971862146E+00   2.4005159803134966E+00   2.3873839968932837E+00   2.3743238517736529E+00   2.3613351519643571E+00
   2.3484175066249944E+00   2.3355705270532492E+00   2.3227938266731925E+00   2.3100870210236581E+00   2.2974497277466632E+00
   2.2848815665759128E+00   2.2723821593253484E+00   2.2599511298777735E+00   2.2475881041735382E+00   2.2352927101992717E+00
   2.2230645779767033E+00   2.2109033395515212E+00   2.1988086289822983E+00   2.1867800823294883E+00   2.1748173376444666E+00
   2.1629200349586468E+00   2.1510878162726388E+00   2.1393203255454889E+00   2.1276172086839544E+00   2.1159781135318578E+00
   2.1044026898594819E+00   2.0928905893530412E+00   2.0814414656041884E+00   2.0700549740996053E+00   2.0587307722106201E+00
   2.0474685191829085E+00   2.0362678761262396E+00   2.0251285060042750E+00   2.0140500736244249E+00   2.0030322456277698E+00
   1.9920746904790227E+00   1.9811770784565506E+00   1.9703390816424649E+00   1.9595603739127414E+00   1.9488406309274136E+00
   1.9381795301208122E+00   1.9275767506918566E+00   1.9170319735944052E+00   1.9065448815276504E+00   1.8961151589265748E+00
   1.8857424919524557E+00   1.8754265684834168E+00   1.8651670781050422E+00   1.8549637121010343E+00   1.8448161634439193E+00
   1.8347241267858116E+00   1.8246872984492306E+00   1.8147053764179546E+00   1.8047780603279395E+00   1.7949050514582749E+00
   1.7850860527222017E+00   1.7753207686581647E+00   1.7656089054209319E+00   1.7559501707727405E+00   1.7463442740745150E+00
   1.7367909262771120E+00   1.7272898399126297E+00   1.7178407290857540E+00   1.7084433094651559E+00   1.6990972982749375E+00
   1.6898024142861174E+00   1.6805583778081790E+00   1.6713649106806450E+00   1.6622217362647103E+00   1.6531285794349175E+00
   1.6440851665708800E+00   1.6350912255490468E+00   1.6261464857345129E+00   1.6172506779728768E+00   1.6084035345821439E+00
   1.5996047893446690E+00   1.5908541774991445E+00   1.5821514357326378E+00   1.5734963021726631E+00   1.5648885163793032E+00
   1.5563278193373762E+00   1.5478139534486357E+00   1.5393466625240217E+00   1.5309256917759573E+00   1.5225507878106705E+00
   1.5142216986205781E+00   1.5059381735767043E+00   1.4976999634211272E+00   1.4895068202594897E+00   1.4813584975535399E+00
   1.4732547501137052E+00   1.4651953340917185E+00   1.4571800069732841E+00   1.4492085275707745E+00   1.4412806560159703E+00
   1.4333961537528563E+00   1.4255547835304276E+00   1.4177563093955581E+00   1.4100004966858988E+00   1.4022871120228204E+00
   1.3946159233043838E+00   1.3869866996983600E+00   1.3793992116352845E+00   1.3718532308015490E+00   1.3643485301325275E+00
   1.3568848838057528E+00   1.3494620672341113E+00   1.3420798570590902E+00   1.3347380311440553E+00   1.3274363685675667E+00
   1.3201746496167301E+00   1.3129526557805911E+00   1.3057701697435504E+00   1.2986269753788313E+00   1.2915228577419740E+00
   1.2844576030643722E+00   1.2774309987468304E+00   1.2704428333531752E+00   1.2634928966038939E+00   1.2565809793697997E+00
   1.2497068736657435E+00   1.2428703726443577E+00   1.2360712705898260E+00   1.2293093629116938E+00   1.2225844461387205E+00
   1.2158963179127460E+00   1.2092447769826060E+00   1.2026296231980802E+00   1.1960506575038605E+00   1.1895076819335695E+00
   1.1830004996037982E+00   1.1765289147081845E+00   1.1700927325115207E+00   1.1636917593438905E+00   1.1573258025948479E+00
   1.1509946707076140E+00   1.1446981731733163E+00   1.1384361205252593E+00   1.1322083243332137E+00   1.1260145971977551E+00
   1.1198547527446245E+00   1.1137286056191136E+00   1.1076359714804920E+00   1.1015766669964588E+00   1.0955505098376299E+00
   1.0895573186720402E+00   1.0835969131597016E+00   1.0776691139471652E+00   1.0717737426621288E+00   1.0659106219080678E+00
   1.0600795752589001E+00   1.0542804272536734E+00   1.0485130033912828E+00   1.0427771301252302E+00   1.0370726348583903E+00
   1.0313993459378215E+00   1.0257570926496031E+00   1.0201457052136929E+00   1.0145650147788210E+00   1.0090148534174084E+00
   1.0034950541205130E+00   9.9800545079280356E-01   9.9254587824756102E-01   9.8711617220171177E-01   9.8171616927087668E-01
   9.7634570696445711E-01   9.7100462368075136E-01   9.6569275870207794E-01   9.6040995218995096E-01   9.5515604518026720E-01
   9.4993087957851730E-01   9.4473429815503140E-01   9.3956614454025056E-01   9.3442626322001443E-01   9.2931449953088241E-01
   9.2423069965548443E-01   9.1917471061788636E-01   9.1414638027898609E-01   9.0914555733193636E-01   9.0417209129759324E-01
   8.9922583251998134E-01   8.9430663216179362E-01   8.8941434219991189E-01   8.8454881542094921E-01   8.7970990541682059E-01
   8.7489746658033807E-01   8.7011135410082385E-01   8.6535142395975417E-01   8.6061753292642484E-01   8.5590953855363883E-01
   8.5122729917341711E-01   8.4657067389273943E-01   8.4193952258929716E-01   8.3733370590727763E-01   8.3275308525316882E-01
   8.2819752279159198E-01   8.2366688144114131E-01   8.1916102487026698E-01   8.1467981749316953E-01   8.1022312446571210E-01
   8.0579081168136568E-01   8.0138274576717239E-01   7.9699879407972540E-01   7.9263882470117630E-01   7.8830270643526767E-01
   7.8399030880337661E-01   7.7970150204058797E-01   7.7543615709178937E-01   7.7119414560778021E-01   7.6697533994140921E-01
   7.6277961314373022E-01   7.5860683896017733E-01   7.5445689182676412E-01   7.5032964686629933E-01   7.4622497988462921E-01
   7.4214276736689211E-01   7.3808288647379972E-01   7.3404521503793752E-01   7.3002963156008216E-01   7.2603601520554195E-01
   7.2206424580051709E-01   7.1811420382847635E-01   7.1418577042655718E-01   7.1027882738198200E-01   7.0639325712849976E-01
   7.0252894274283484E-01   6.9868576794117199E-01   6.9486361707564381E-01   6.9106237513084734E-01   6.8728192772037600E-01
   6.8352216108337238E-01   6.7978296208109545E-01   6.7606421819350693E-01   6.7236581751588520E-01   6.6868764875544162E-01
   6.6502960122796739E-01   6.6139156485449568E-01   6.5777343015797662E-01   6.5417508825997628E-01   6.5059643087739027E-01
   6.4703735031917531E-01   6.4349773948309852E-01   6.3997749185250508E-01   6.3647650149310009E-01   6.3299466304975061E-01
   6.2953187174330272E-01   6.2608802336741964E-01   6.2266301428542770E-01   6.1925674142718923E-01   6.1586910228598779E-01
   6.1249999491542573E-01   6.0914931792634530E-01   6.0581697048376271E-01   6.0250285230381717E-01   5.9920686365073483E-01
   5.9592890533381804E-01   5.9266887870443663E-01   5.8942668565304424E-01   5.8620222860620819E-01   5.8299541052365533E-01
   5.7980613489532928E-01   5.7663430573846863E-01   5.7347982759469707E-01   5.7034260552712923E-01   5.6722254511749204E-01
   5.6411955246326040E-01   5.6103353417480761E-01   5.5796439737256931E-01   5.5491204968422636E-01   5.5187639924189558E-01
   5.4885735467934027E-01   5.4585482512919348E-01   5.4286872022019272E-01   5.3989895007443223E-01   5.3694542530462697E-01
   5.3400805701139387E-01   5.3108675678053829E-01   5.2818143668036688E-01   5.2529200925900077E-01   5.2241838754171166E-01
   5.1956048502826579E-01   5.1671821569028531E-01   5.1389149396861733E-01   5.1108023477071862E-01   5.0828435346805745E-01
   5.0550376589351897E-01   5.0273838833882989E-01   4.9998813755199628E-01   4.9725293073474619E-01   4.9453268553999330E-01
   4.9182732006930752E-01   4.8913675287039904E-01   4.8646090293461453E-01   4.8379968969444320E-01   4.8115303302103918E-01
   4.7852085322174803E-01   4.7590307103765223E-01   4.7329960764112228E-01   4.7071038463338294E-01   4.6813532404208696E-01
   4.6557434831890454E-01   4.6302738033711704E-01   4.6049434338922651E-01   4.5797516118457532E-01   4.5546975784697380E-01
   4.5297805791233725E-01   4.5049998632634097E-01   4.4803546844207415E-01   4.4558443001771220E-01   4.4314679721419370E-01
   4.4072249659291252E-01   4.3831145511341268E-01   4.3591360013109609E-01   4.3352885939494290E-01   4.3115716104523383E-01
   4.2879843361128656E-01   4.2645260600920004E-01   4.2411960753960665E-01   4.2179936788543226E-01   4.1949181710966760E-01
   4.1719688565314450E-01   4.1491450433232258E-01   4.1264460433708372E-01   4.1038711722853261E-01   4.0814197493680704E-01
   4.0590910975889472E-01   4.0368845435645778E-01   4.0147994175366425E-01   3.9928350533502704E-01   3.9709907884325046E-01
   3.9492659637708089E-01   3.9276599238916698E-01   3.9061720168392622E-01   3.8848015941541514E-01   3.8635480108520681E-01
   3.8424106254027834E-01   3.8213887997089691E-01   3.8004818990851680E-01   3.7796892922368103E-01   3.7590103512392586E-01
   3.7384444515169324E-01   3.7179909718224696E-01   3.6976492942159322E-01   3.6774188040440720E-01   3.6572988899196135E-01
   3.6372889437006206E-01   3.6173883604698548E-01   3.5975965385142106E-01   3.5779128793041648E-01   3.5583367874732769E-01
   3.5388676707977007E-01   3.5195049401757628E-01   3.5002480096075117E-01   3.4810962961743563E-01   3.4620492200186875E-01
   3.4431062043235350E-01   3.4242666752922496E-01   3.4055300621281981E-01   3.3868957970144647E-01   3.3683633150935843E-01
   3.3499320544472755E-01   3.3316014560761942E-01   3.3133709638796760E-01   3.2952400246354846E-01   3.2772080879796028E-01
   3.2592746063859612E-01   3.2414390351462041E-01   3.2237008323494615E-01   3.2060594588620606E-01   3.1885143783072856E-01
   3.1710650570450927E-01   3.1537109641518213E-01   3.1364515713998831E-01   3.1192863532374304E-01   3.1022147867680189E-01
   3.0852363517302117E-01   3.0683505304771863E-01   3.0515568079562982E-01   3.0348546716886093E-01   3.0182436117483846E-01
   3.0017231207425554E-01   2.9852926937901220E-01   2.9689518285015237E-01   2.9527000249579777E-01   2.9365367856907221E-01
   2.9204616156602503E-01   2.9044740222354820E-01   2.8885735151728392E-01   2.8727596065952948E-01   2.8570318109713455E-01
   2.8413896450939186E-01   2.8258326280591872E-01   2.8103602812453382E-01   2.7949721282912365E-01   2.7796676950750276E-01
   2.7644465096926341E-01   2.7493081024361832E-01   2.7342520057723246E-01   2.7192777543204621E-01   2.7043848848308832E-01
   2.6895729361627879E-01   2.6748414492622030E-01   2.6601899671398055E-01   2.6456180348486019E-01   2.6311251994615176E-01
   2.6167110100488528E-01   2.6023750176556176E-01   2.5881167752787332E-01   2.5739358378441041E-01   2.5598317621835620E-01
   2.5458041070116527E-01   2.5318524329022901E-01   2.5179763022652729E-01   2.5041752793226263E-01   2.4904489300847929E-01
   2.4767968223266981E-01   2.4632185255636022E-01   2.4497136110268145E-01   2.4362816516392422E-01   2.4229222219907348E-01
   2.4096348983132757E-01   2.3964192584559837E-01   2.3832748818599225E-01   2.3702013495327215E-01   2.3571982440230002E-01
   2.3442651493946054E-01   2.3314016512006175E-01   2.3186073364571791E-01   2.3058817936170961E-01   2.2932246125432276E-01
   2.2806353844816549E-01   2.2681137020346367E-01   2.2556591591333192E-01   2.2432713510102331E-01   2.2309498741715461E-01
   2.2186943263690828E-01   2.2065043065720963E-01   2.1943794149388077E-01   2.1823192527876720E-01   2.1703234225684173E-01
   2.1583915278328097E-01   2.1465231732051768E-01   2.1347179643526465E-01   2.1229755079551271E-01   2.1112954116750454E-01
   2.0996772841267680E-01   2.0881207348457759E-01   2.0766253742575688E-01   2.0651908136462610E-01   2.0538166651229248E-01
   2.0425025415936296E-01   2.0312480567272134E-01   2.0200528249227434E-01   2.0089164612767160E-01   1.9978385815499403E-01
   1.9868188021341404E-01   1.9758567400182767E-01   1.9649520127545544E-01   1.9541042384241553E-01   1.9433130356026632E-01
   1.9325780233252193E-01   1.9218988210513552E-01   1.9112750486295557E-01   1.9007063262615442E-01   1.8901922744662414E-01
   1.8797325140434845E-01   1.8693266660374450E-01   1.8589743516997548E-01   1.8486751924523892E-01   1.8384288098502524E-01
   1.8282348255435243E-01   1.8180928612397224E-01   1.8080025386655282E-01   1.7979634795283711E-01   1.7879753054777600E-01
   1.7780376380663979E-01   1.7681500987110804E-01   1.7583123086533639E-01   1.7485238889200624E-01   1.7387844602835353E-01
   1.7290936432218182E-01   1.7194510578785788E-01   1.7098563240229470E-01   1.7003090610091939E-01   1.6908088877363125E-01
   1.6813554226075056E-01   1.6719482834895957E-01   1.6625870876723822E-01   1.6532714518279742E-01   1.6440009919701046E-01
   1.6347753234134793E-01   1.6255940607331543E-01   1.6164568177240102E-01   1.6073632073602984E-01   1.5983128417553577E-01
   1.5893053321214828E-01   1.5803402887299994E-01   1.5714173208715856E-01   1.5625360368168828E-01   1.5536960437774230E-01
   1.5448969478669294E-01   1.5361383540630411E-01   1.5274198661694943E-01   1.5187410867788220E-01   1.5101016172356346E-01
   1.5015010576005203E-01   1.4929390066146364E-01   1.4844150616650503E-01   1.4759288187509065E-01   1.4674798724504681E-01
   1.4590678158891185E-01   1.4506922407084080E-01   1.4423527370361913E-01   1.4340488934579768E-01   1.4257802969895572E-01
   1.4175465330509840E-01   1.4093471854420439E-01   1.4011818363192677E-01   1.3930500661746101E-01   1.3849514538158983E-01
   1.3768855763491578E-01   1.3688520091629383E-01   1.3608503259147270E-01   1.3528800985196274E-01   1.3449408971413834E-01
   1.3370322901858958E-01   1.3291538442973802E-01   1.3213051243573040E-01   1.3134856934862268E-01   1.3056951130487443E-01
   1.2979329426616390E-01   1.2901987402054513E-01   1.2824920618395877E-01   1.2748124620211931E-01   1.2671594935279296E-01
   1.2595327074848398E-01   1.2519316533955271E-01   1.2443558791777969E-01   1.2368049312039953E-01   1.2292783543462150E-01
   1.2217756920266364E-01   1.2142964862731291E-01   1.2068402777804320E-01   1.1994066059770643E-01   1.1919950090982179E-01
   1.1846050242648916E-01   1.1772361875694465E-01   1.1698880341678922E-01   1.1625600983790779E-01   1.1552519137911060E-01
   1.1479630133751648E-01   1.1406929296070491E-01   1.1334411945966553E-01   1.1262073402256445E-01   1.1189908982936053E-01
   1.1117914006729010E-01   1.1046083794725282E-01   1.0974413672111938E-01   1.0902898969998769E-01   1.0831535027341672E-01
   1.0760317192965489E-01   1.0689240827689768E-01   1.0618301306558946E-01   1.0547494021179843E-01   1.0476814382168667E-01
   1.0406257821709371E-01   1.0335819796226017E-01   1.0265495789170473E-01   1.0195281313928022E-01   1.0125171916841849E-01
   1.0055163180358537E-01   9.9852507262957815E-02   9.9154302192333052E-02   9.8456973700284403E-02   9.7760479394565489E-02
   9.7064777419776274E-02   9.6369826496283423E-02   9.5675585960405554E-02   9.4982015805853123E-02   9.4289076726418244E-02
   9.3596730159908589E-02   9.2904938333305820E-02   9.2213664309137952E-02   9.1522872033038299E-02   9.0832526382471426E-02
   9.0142593216592223E-02   8.9453039427202952E-02   8.8763832990773645E-02   8.8074943021473659E-02   8.7386339825171327E-02
   8.6697994954339677E-02   8.6009881263811844E-02   8.5321972967315501E-02   8.4634245694711729E-02   8.3946676549863444E-02
   8.3259244169038404E-02   8.2571928779763451E-02   8.1884712260021322E-02   8.1197578197689593E-02   8.0510511950104280E-02
   7.9823500703630465E-02   7.9136533533111245E-02   7.8449601461058921E-02   7.7762697516452456E-02   7.7075816792986848E-02
   7.6388956506625208E-02   7.5702116052288382E-02   7.5015297059518496E-02   7.4328503446940572E-02   7.3641741475342137E-02
   7.2955019799191209E-02   7.2268349516396546E-02   7.1581744216121748E-02   7.0895220024451505E-02   7.0208795647709696E-02
   6.9522492413226153E-02   6.8836334307341346E-02   6.8150348010445450E-02   6.7464562928837984E-02   6.6779011223203455E-02
   6.6093727833490240E-02   6.5408750499988566E-02   6.4724119780404973E-02   6.4039879062728636E-02   6.3356074573699378E-02
   6.2672755382682799E-02   6.1989973400774660E-02   6.1307783374954294E-02   6.0626242877124994E-02   5.9945412287886586E-02
   5.9265354774889610E-02   5.8586136265648826E-02   5.7907825414689217E-02   5.7230493564927327E-02   5.6554214703195570E-02
   5.5879065409843422E-02   5.5205124802358903E-02   5.4532474472976822E-02   5.3861198420262248E-02   5.3191382974670451E-02
   5.2523116718115173E-02   5.1856490397589612E-02   5.1191596832916374E-02   5.0528530818716610E-02   4.9867389020716073E-02
   4.9208269866531852E-02   4.8551273431098593E-02   4.7896501316926215E-02   4.7244056529395333E-02   4.6594043347327342E-02
   4.5946567189080197E-02   4.5301734474451572E-02   4.4659652482683901E-02   4.4020429206889450E-02   4.3384173205235931E-02
   4.2750993449241798E-02   4.2120999169558124E-02   4.1494299699618042E-02   4.0871004317558628E-02   4.0251222086823288E-02
   3.9635061695866440E-02   3.9022631297394361E-02   3.8414038347572725E-02   3.7809389445647199E-02   3.7208790174415758E-02
   3.6612344941998450E-02   3.6020156825346775E-02   3.5432327415926716E-02   3.4848956668011861E-02   3.4270142750005152E-02
   3.3695981899208138E-02   3.3126568280433907E-02   3.2561993848854380E-02   3.2002348217454110E-02   3.1447718529441351E-02
   3.0898189335956103E-02   3.0353842479384857E-02   2.9814756982579814E-02   2.9281008944246525E-02   2.8752671440748463E-02
   2.8229814434548122E-02   2.7712504689475483E-02   2.7200805692994691E-02   2.6694777585605369E-02   2.6194477097494156E-02
   2.5699957492518109E-02   2.5211268519580769E-02   2.4728456371428585E-02   2.4251563650870514E-02   2.3780629344400353E-02
   2.3315688803168103E-02   2.2856773731229980E-02   2.2403912180974896E-02   2.1957128555608559E-02   2.1516443618548979E-02
   2.1081874509568211E-02   2.0653434767498410E-02   2.0231134359295234E-02   1.9814979715242508E-02   1.9404973770060212E-02
   1.9001116009668015E-02   1.8603402523343398E-02   1.8211826060999768E-02   1.7826376095305789E-02   1.7447038888353826E-02
   1.7073797562584866E-02   1.6706632175666369E-02   1.6345519799022507E-02   1.5990434599708610E-02   1.5641347925326596E-02
   1.5298228391674339E-02   1.4961041972826189E-02   1.4629752093346682E-02   1.4304319722339474E-02   1.3984703469044095E-02
   1.3670859679694704E-02   1.3362742535366906E-02   1.3060304150542530E-02   1.2763494672133500E-02   1.2472262378715602E-02
   1.2186553779730313E-02   1.1906313714427519E-02   1.1631485450327722E-02   1.1362010780997992E-02   1.1097830122945299E-02
   1.0838882611441428E-02   1.0585106195108463E-02   1.0336437729101890E-02   1.0092813066744210E-02   9.8541671494692187E-03
   9.6204340949526141E-03   9.3915472833141656E-03   9.1674394412871972E-03   8.9480427242645318E-03   8.7332887961377153E-03
   8.5231089068604476E-03   8.3174339676723250E-03   8.1161946239343453E-03   7.9193213255322036E-03   7.7267443948144674E-03
   7.5383940920421286E-03   7.3542006783312262E-03   7.1740944760813122E-03   6.9980059268865847E-03   6.8258656469362324E-03
   6.6576044799144390E-03   6.4931535474175173E-03   6.3324442969120579E-03   6.1754085472605792E-03   6.0219785318487672E-03
   5.8720869393499575E-03   5.7256669521688159E-03   5.5826522826076426E-03   5.4429772068028837E-03   5.3065765964825408E-03
   5.1733859485961634E-03   5.0433414128733560E-03   4.9163798173660371E-03   4.7924386920336496E-03   4.6714562904296352E-03
   4.5533716095502970E-03   4.4381244079064221E-03   4.3256552218791057E-03   4.2159053804222482E-03   4.1088170181725146E-03
   4.0043330870294328E-03   3.9023973662662800E-03   3.8029544712334714E-03   3.7059498607143961E-03   3.6113298429933456E-03
   3.5190415806951435E-03   3.4290330944532045E-03   3.3412532654642810E-03   3.2556518369845607E-03   3.1721794148223165E-03
   3.0907874668804464E-03   3.0114283218004587E-03   2.9340551667591760E-03   2.8586220444667982E-03   2.7850838494147940E-03
   2.7133963234193480E-03   2.6435160505056572E-03   2.5754004511765118E-03   2.5090077761066708E-03   2.4442970993039724E-03
   2.3812283107755984E-03   2.3197621087375320E-03   2.2598599914024240E-03   2.2014842483811803E-03   2.1445979517308359E-03
   2.0891649466804555E-03   2.0351498420656641E-03   1.9825180005002565E-03   1.9312355283129068E-03   1.8812692652748766E-03
   1.8325867741440874E-03   1.7851563300490666E-03   1.7389469097353165E-03   1.6939281806957682E-03   1.6500704902051642E-03
   1.6073448542778754E-03   1.5657229465669070E-03   1.5251770872214288E-03   1.4856802317186673E-03   1.4472059596852198E-03
   1.4097284637222328E-03   1.3732225382472386E-03   1.3376635683655862E-03   1.3030275187826054E-03   1.2692909227675641E-03
   1.2364308711794486E-03   1.2044250015637113E-03   1.1732514873288706E-03   1.1428890270106760E-03   1.1133168336314684E-03
   1.0845146241611732E-03   1.0564626090863699E-03   1.0291414820928456E-03   1.0025324098669373E-03   9.7661702202016124E-04
   9.5137740114126712E-04   9.2679607297959906E-04   9.0285599676283702E-04   8.7954055565222275E-04   8.5683354733766498E-04
   8.3471917477497134E-04   8.1318203706708613E-04   7.9220712049075535E-04   7.7177978967001362E-04   7.5188577889731870E-04
   7.3251118360320288E-04   7.1364245197474421E-04   6.9526637672322081E-04   6.7737008700097798E-04   6.5994104046724472E-04
   6.4296701550269270E-04   6.2643610357208653E-04   6.1033670173449078E-04   5.9465750530007897E-04   5.7938750063267377E-04
   5.6451595809696214E-04   5.5003242514905777E-04   5.3592671956931065E-04   5.2218892283578829E-04   5.0880937363708344E-04
   4.9577866152278696E-04   4.8308762069009334E-04   4.7072732390477333E-04   4.5868907655477291E-04   4.4696441083469851E-04
   4.3554508005924593E-04   4.2442305310378461E-04   4.1359050897009006E-04   4.0303983147536610E-04   3.9276360406251888E-04
   3.8275460472970106E-04   3.7300580107717588E-04   3.6351034546939972E-04   3.5426157031037561E-04   3.4525298343018857E-04
   3.3647826358072704E-04   3.2793125603856232E-04   3.1960596831292115E-04   3.1149656595678781E-04   3.0359736847906628E-04
   2.9590284535587012E-04   2.8840761213888219E-04   2.8110642665886464E-04   2.7399418532235420E-04   2.6706591949957428E-04
   2.6031679200169423E-04   2.5374209364548394E-04   2.4733723990355626E-04   2.4109776763824828E-04   2.3501933191742838E-04
   2.2909770291030558E-04   2.2332876286154866E-04   2.1770850314191512E-04   2.1223302137367208E-04   2.0689851862910685E-04
   2.0170129670044797E-04   1.9663775543956263E-04   1.9170439016577025E-04   1.8689778914024029E-04   1.8221463110535899E-04
   1.7765168288752758E-04   1.7320579706193987E-04   1.6887390967777505E-04   1.6465303804242182E-04   1.6054027856327198E-04
   1.5653280464569670E-04   1.5262786464583680E-04   1.4882277987686001E-04   1.4511494266738283E-04   1.4150181447073813E-04
   1.3798092402388335E-04   1.3454986555464971E-04   1.3120629703617019E-04   1.2794793848730092E-04   1.2477257031784703E-04
   1.2167803171750420E-04   1.1866221908738298E-04   1.1572308451304549E-04   1.1285863427799607E-04   1.1006692741659308E-04
   1.0734607430537470E-04   1.0469423529181020E-04   1.0210961935952204E-04   9.9590482829018005E-05   9.7135128093053211E-05
   9.4741902385679641E-05   9.2409196584146072E-05   9.0135444042774477E-05   8.7919119457984991E-05   8.5758737763657120E-05
   8.3652853056030997E-05   8.1600057547380806E-05   7.9598980547690196E-05   7.7648287473616729E-05   7.5746678884008379E-05
   7.3892889541270345E-05   7.2085687497922346E-05   7.0323873207648371E-05   6.8606278660216159E-05   6.6931766539620190E-05
   6.5299229404835107E-05   6.3707588892578573E-05   6.2155794941496937E-05   6.0642825037206766E-05   5.9167683477624856E-05
   5.7729400658065660E-05   5.6327032375552683E-05   5.4959659151850913E-05   5.3626385574707285E-05   5.2326339656816196E-05
   5.1058672212032557E-05   4.9822556248371079E-05   4.8617186377339904E-05   4.7441778239170192E-05   4.6295567943515984E-05
   4.5177811525200614E-05   4.4087784414617516E-05   4.3024780922379496E-05   4.1988113737833047E-05   4.0977113441075372E-05
   3.9991128028092451E-05   3.9029522448678973E-05   3.8091678156786428E-05   3.7176992672967044E-05   3.6284879158585525E-05
   3.5414766001480673E-05   3.4566096412769174E-05   3.3738328034483638E-05   3.2930932557764136E-05   3.2143395351302735E-05
   3.1375215099774001E-05   3.0625903451980117E-05   2.9894984678440462E-05   2.9181995338178618E-05   2.8486483954452222E-05
   2.7808010699185396E-05   2.7146147085867375E-05   2.6500475670688151E-05   2.5870589761689068E-05   2.5256093135706606E-05
   2.4656599762906995E-05   2.4071733538695128E-05   2.3501128022806878E-05   2.2944426185385217E-05   2.2401280159852563E-05
   2.1871351002394970E-05   2.1354308457878800E-05   2.0849830732026016E-05   2.0357604269677903E-05   1.9877323538983829E-05
   1.9408690821350771E-05   1.8951416007003600E-05   1.8505216395999128E-05   1.8069816504546567E-05   1.7644947876495836E-05
   1.7230348899846310E-05   1.6825764628146626E-05   1.6430946606649399E-05   1.6045652703094538E-05   1.5669646942992933E-05
   1.5302699349293269E-05   1.4944585786310006E-05   1.4595087807797048E-05   1.4253992509059550E-05   1.3921092382988686E-05
   1.3596185179918334E-05   1.3279073771198156E-05   1.2969566016383268E-05   1.2667474633943062E-05   1.2372617075394164E-05
   1.2084815402765319E-05   1.1803896169304157E-05   1.1529690303339193E-05   1.1262032995210730E-05   1.1000763587189189E-05
   1.0745725466301195E-05   1.0496765959982284E-05   1.0253736234483531E-05   1.0016491195956029E-05   9.7848893941419131E-06
   9.5587929286019292E-06   9.3380673574112502E-06   9.1225816082574420E-06   8.9122078918759675E-06   8.7068216177611491E-06
   8.5063013120898836E-06   8.3105285378018039E-06   8.1193878167746908E-06   7.9327665540413777E-06   7.7505549639934546E-06
   7.5726459985167235E-06   7.3989352770090492E-06   7.2293210182288287E-06   7.0637039739260710E-06   6.9019873642071695E-06
   6.7440768145891524E-06   6.5898802946965797E-06   6.4393080585574456E-06   6.2922725864571405E-06   6.1486885283065175E-06
   6.0084726484857675E-06   5.8715437721237926E-06   5.7378227327751980E-06   5.6072323214577206E-06   5.4796972370139712E-06
   5.3551440377622731E-06   5.2335010944023710E-06   5.1146985441430140E-06   4.9986682460181150E-06   4.8853437373614512E-06
   4.7746601914079365E-06   4.6665543759919871E-06   4.5609646133143859E-06   4.4578307407489237E-06   4.3570940726614665E-06
   4.2586973632147299E-06   4.1625847701328971E-06   4.0687018194000846E-06   3.9769953708691771E-06   3.8874135847560442E-06
   3.7999058889958613E-06   3.7144229474398637E-06   3.6309166288688991E-06   3.5493399768035918E-06   3.4696471800894397E-06
   3.3917935442367730E-06   3.3157354634956531E-06   3.2414303936464784E-06   3.1688368254876247E-06   3.0979142590013516E-06
   3.0286231781812038E-06   2.9609250265023857E-06   2.8947821830191151E-06   2.8301579390725340E-06   2.7670164755925496E-06
   2.7053228409788957E-06   2.6450429295457919E-06   2.5861434605156891E-06   2.5285919575477188E-06   2.4723567287869364E-06
   2.4174068474207940E-06   2.3637121327296053E-06   2.3112431316183115E-06   2.2599711006165893E-06   2.2098679883359097E-06
   2.1609064183707765E-06   2.1130596726333223E-06   2.0663016751096749E-06   2.0206069760272491E-06   1.9759507364223118E-06
   1.9323087130974408E-06   1.8896572439589081E-06   1.8479732337238235E-06   1.8072341399880054E-06   1.7674179596448382E-06
   1.7285032156460549E-06   1.6904689440961003E-06   1.6532946816707853E-06   1.6169604533524474E-06   1.5814467604731653E-06
   1.5467345690581925E-06   1.5128052984618810E-06   1.4796408102885579E-06   1.4472233975911159E-06   1.4155357743399412E-06
   1.3845610651557092E-06   1.3542827952987100E-06   1.3246848809085942E-06   1.2957516194878830E-06   1.2674676806230783E-06
   1.2398180969372786E-06   1.2127882552683986E-06   1.1863638880672102E-06   1.1605310650095955E-06   1.1352761848176019E-06
   1.1105859672837944E-06   1.0864474454940217E-06   1.0628479582432906E-06   1.0397751426398354E-06   1.0172169268928817E-06
   9.9516152327901804E-07   9.7359742128298370E-07   9.5251338090825800E-07   9.3189842615320733E-07   9.1174183864857041E-07
   8.9203315145220407E-07   8.7276214299713526E-07   8.5391883118890201E-07   8.3549346764867933E-07   8.1747653209817165E-07
   7.9985872688293227E-07   7.8263097163058039E-07   7.6578439804035687E-07   7.4931034480090629E-07   7.3320035263293471E-07
   7.1744615945362558E-07   7.0203969565975810E-07   6.8697307952652660E-07   6.7223861271919067E-07   6.5782877591461470E-07
   6.4373622453013344E-07   6.2995378455681020E-07   6.1647444849466809E-07   6.0329137138722921E-07   5.9039786695291533E-07
   5.7778740381087135E-07   5.6545360179885536E-07   5.5339022838089090E-07   5.4159119514243925E-07   5.3005055437092580E-07
   5.1876249571941581E-07   5.0772134295149376E-07   4.9692155076521644E-07   4.8635770169416414E-07   4.7602450308380324E-07
   4.6591678414109871E-07   4.5602949305570999E-07   4.4635769419090834E-07   4.3689656534251559E-07   4.2764139506416451E-07
   4.1858758005723899E-07   4.0973062262391005E-07   4.0106612818163681E-07   3.9258980283773821E-07   3.8429745102239543E-07
   3.7618497317876430E-07   3.6824836350872145E-07   3.6048370777288973E-07   3.5288718114360392E-07   3.4545504610950574E-07
   3.3818365043049971E-07   3.3106942514182396E-07   3.2410888260604554E-07   3.1729861461176210E-07   3.1063529051789653E-07
   3.0411565544247684E-07   2.9773652849473984E-07   2.9149480104957808E-07   2.8538743506323821E-07   2.7941146142927835E-07
   2.7356397837379601E-07   2.6784214988896373E-07   2.6224320420393671E-07   2.5676443229221585E-07   2.5140318641458753E-07
   2.4615687869673164E-07   2.4102297974072796E-07   2.3599901726954201E-07   2.3108257480375022E-07   2.2627129036971529E-07
   2.2156285523839775E-07   2.1695501269411829E-07   2.1244555683250223E-07   2.0803233138692153E-07   2.0371322858270824E-07
   1.9948618801851544E-07   1.9534919557412746E-07   1.9130028234407406E-07   1.8733752359647438E-07   1.8345903775642946E-07
   1.7966298541342565E-07   1.7594756835214050E-07   1.7231102860609160E-07   1.6875164753357731E-07   1.6526774491537111E-07
   1.6185767807364328E-07   1.5851984101159953E-07   1.5525266357334084E-07   1.5205461062344463E-07   1.4892418124580471E-07
   1.4585990796127622E-07   1.4286035596363811E-07   1.3992412237347344E-07   1.3704983550951217E-07   1.3423615417702559E-07
   1.3148176697286298E-07   1.2878539160673540E-07   1.2614577423833982E-07   1.2356168882997554E-07   1.2103193651425549E-07
   1.1855534497655276E-07   1.1613076785185788E-07   1.1375708413566177E-07   1.1143319760856411E-07   1.0915803627426059E-07
   1.0693055181059766E-07   1.0474971903338031E-07   1.0261453537263028E-07   1.0052402036100265E-07   9.8477215134055750E-08
   9.6473181942122892E-08   9.4511003673474218E-08   9.2589783388525639E-08   9.0708643864830907E-08   8.8866727152583840E-08
   8.7063194140402202E-08   8.5297224131137566E-08   8.3568014427477804E-08   8.1874779927109327E-08   8.0216752727214522E-08
   7.8593181738082331E-08   7.7003332305616718E-08   7.5446485842536842E-08   7.3921939468054732E-08   7.2429005655842826E-08
   7.0967011890086497E-08   6.9535300329435409E-08   6.8133227478667101E-08   6.6760163867881094E-08   6.5415493739047147E-08
   6.4098614739733778E-08   6.2808937623852074E-08   6.1545885959240534E-08   6.0308895841946254E-08   5.9097415617031963E-08
