DATE: 2024-03-16 UNITS: metal CONTRIBUTOR: Xiaowang Zhou xzhou@sandia.gov, Lucas Hale lucas.hale@nist.gov, and Germain Clavier g.m.g.c.clavier@tue.nl/germain.clavier@gmail.com
 CITATION: X. W. Zhou, R. A. Johnson, H. N. G. Wadley, Phys. Rev. B, 69, 144113(2004)
Generated by create_eam.py
2     Cu Au                   
2000  5.0785667922446286e-02   2000  3.2271796605293293e-03   6.4511321413981291e+00  
   29        63.54600         3.61496      fcc
   0.0000000000000000E+00  -1.3781269150242137E-02  -2.7506258489218727E-02  -4.1175078205514137E-02  -5.4787838487714624E-02
  -6.8344649524404111E-02  -8.1845621504168853E-02  -9.5290864615594550E-02  -1.0868048904726568E-01  -1.2201460498776850E-01
  -1.3529332262568705E-01  -1.4851675214960758E-01  -1.6168500374811579E-01  -1.7479818760979571E-01  -1.8785641392323393E-01
  -2.0085979287701494E-01  -2.1380843465972443E-01  -2.2670244945994811E-01  -2.3954194746627033E-01  -2.5232703886727736E-01
  -2.6505783385155390E-01  -2.7773444260768554E-01  -2.9035697532425797E-01  -3.0292554218985546E-01  -3.1544025339306470E-01
  -3.2790121912246994E-01  -3.4030854956665701E-01  -3.5266235491421150E-01  -3.6496274535371764E-01  -3.7720983107376238E-01
  -3.8940372226292941E-01  -4.0154452910980487E-01  -4.1363236180297447E-01  -4.2566733053102290E-01  -4.3764954548253587E-01
  -4.4957911684609830E-01  -4.6145615481029534E-01  -4.7328076956371379E-01  -4.8505307129493691E-01  -4.9677317019255196E-01
  -5.0844117644514275E-01  -5.2005720024129487E-01  -5.3162135176959491E-01  -5.4313374121862679E-01  -5.5459447877697676E-01
  -5.6600367463322898E-01  -5.7736143897596948E-01  -5.8866788199378439E-01  -5.9992311387525787E-01  -6.1112724480897596E-01
  -6.2228038498352312E-01  -6.3338264458748539E-01  -6.4443413380944836E-01  -6.5543496283799652E-01  -6.6638524186171610E-01
  -6.7728508106919150E-01  -6.8813459064900862E-01  -6.9893388078975283E-01  -7.0968306168000894E-01  -7.2038224350836333E-01
  -7.3103153646340002E-01  -7.4163105073370494E-01  -7.5218089650786402E-01  -7.6268118397446139E-01  -7.7313202332208353E-01
  -7.8353352473931492E-01  -7.9388579841474116E-01  -8.0418895453694783E-01  -8.1444310329451997E-01  -8.2464835487604327E-01
  -8.3480481947010243E-01  -8.4491260726528328E-01  -8.5497182845017083E-01  -8.6498259321335058E-01  -8.7494501174340855E-01
  -8.8485919422892867E-01  -8.9472525085849708E-01  -9.0454329182069904E-01  -9.1431342730412002E-01  -9.2403576749734539E-01
  -9.3371042258895987E-01  -9.4333750276754902E-01  -9.5291711822169844E-01  -9.6244937913999395E-01  -9.7193439571102003E-01
  -9.8137227812336170E-01  -9.9076313656560533E-01  -1.0001070812263360E+00  -1.0094042222941384E+00  -1.0186546699575987E+00
  -1.0278585344053011E+00  -1.0370159258258320E+00  -1.0461269544077760E+00  -1.0551917303397198E+00  -1.0642103638102469E+00
  -1.0731829650079434E+00  -1.0821096441213951E+00  -1.0909905113391869E+00  -1.0998256768499042E+00  -1.1086152508421319E+00
  -1.1173593435044555E+00  -1.1260580650254612E+00  -1.1347115255937337E+00  -1.1433198353978573E+00  -1.1518831046264191E+00
  -1.1604014434680034E+00  -1.1688749621111960E+00  -1.1773037707445815E+00  -1.1856879795567461E+00  -1.1940276987362750E+00
  -1.2023230384717531E+00  -1.2105741089517659E+00  -1.2187810203648988E+00  -1.2269438828997368E+00  -1.2350628067448657E+00
  -1.2431379020888706E+00  -1.2511692791203370E+00  -1.2591570480278498E+00  -1.2671013189999949E+00  -1.2750022022253573E+00
  -1.2828598078925222E+00  -1.2906742461900751E+00  -1.2984456273066016E+00  -1.3061740614306865E+00  -1.3138596587509159E+00
  -1.3215025294558742E+00  -1.3291027837341471E+00  -1.3366605317743194E+00  -1.3441758837649782E+00  -1.3516489498947073E+00
  -1.3590798403520923E+00  -1.3664686653257183E+00  -1.3738155350041712E+00  -1.3811205595760363E+00  -1.3883838492298985E+00
  -1.3956055141543433E+00  -1.4027856645379559E+00  -1.4099244105693214E+00  -1.4170218624370263E+00  -1.4240781303296550E+00
  -1.4310933244357926E+00  -1.4380675549440252E+00  -1.4450009320429371E+00  -1.4518935659211150E+00  -1.4587455667671434E+00
  -1.4655570447696074E+00  -1.4723281101170920E+00  -1.4790588729981842E+00  -1.4857494436014680E+00  -1.4923999321155292E+00
  -1.4990104487289526E+00  -1.5055811036303242E+00  -1.5121120070082286E+00  -1.5186032690512519E+00  -1.5250549999479786E+00
  -1.5314673098869951E+00  -1.5378403090568860E+00  -1.5441741076462367E+00  -1.5504688158436326E+00  -1.5567245438376593E+00
  -1.5629414018169012E+00  -1.5691194999699447E+00  -1.5752589484853747E+00  -1.5813598575517762E+00  -1.5874223373577352E+00
  -1.5934464980918366E+00  -1.5994324499426660E+00  -1.6053803030988083E+00  -1.6112901677488494E+00  -1.6171621540813741E+00
  -1.6229963722849678E+00  -1.6287929325482162E+00  -1.6345519450597039E+00  -1.6402735200080172E+00  -1.6459577675817414E+00
  -1.6516047979694608E+00  -1.6572147213597614E+00  -1.6627876479412285E+00  -1.6683236879024474E+00  -1.6738229514320038E+00
  -1.6792855487184819E+00  -1.6847115899504677E+00  -1.6901011853165471E+00  -1.6954544450053046E+00  -1.7007714792053261E+00
  -1.7060523981051967E+00  -1.7112973118935018E+00  -1.7165063307588262E+00  -1.7216795648897565E+00  -1.7268171244748765E+00
  -1.7319191197027719E+00  -1.7369856607620289E+00  -1.7420168578412323E+00  -1.7470128211289673E+00  -1.7519736608138192E+00
  -1.7568994870843737E+00  -1.7617904101292159E+00  -1.7666465401369313E+00  -1.7714679872961048E+00  -1.7762548617953218E+00
  -1.7810072738231679E+00  -1.7857253335682286E+00  -1.7904091512190889E+00  -1.7950588369643343E+00  -1.7996745009925501E+00
  -1.8042562534923214E+00  -1.8088042046522337E+00  -1.8133184646608724E+00  -1.8177991437068222E+00  -1.8222463519786694E+00
  -1.8266601996649989E+00  -1.8310407969543963E+00  -1.8353882540354465E+00  -1.8397026810967352E+00  -1.8439841883268471E+00
  -1.8482328859143682E+00  -1.8524488840478832E+00  -1.8566322929159780E+00  -1.8607832227072381E+00  -1.8649017836102484E+00
  -1.8689880858135941E+00  -1.8730422395058610E+00  -1.8770643548756341E+00  -1.8810545421114986E+00  -1.8850129114020404E+00
  -1.8889395729358440E+00  -1.8928346369014950E+00  -1.8966982134875794E+00  -1.9005304128826819E+00  -1.9043313452753881E+00
  -1.9081011208542831E+00  -1.9118398498079521E+00  -1.9155476423249809E+00  -1.9192246085939546E+00  -1.9228708588034580E+00
  -1.9264865031420775E+00  -1.9300716517983976E+00  -1.9336264149610041E+00  -1.9371509028184823E+00  -1.9406452255594171E+00
  -1.9441094933723941E+00  -1.9475438164459988E+00  -1.9509483049688163E+00  -1.9543230691294315E+00  -1.9576682191164307E+00
  -1.9609838651183984E+00  -1.9642701173239205E+00  -1.9675270859215823E+00  -1.9707548810999687E+00  -1.9739536130476654E+00
  -1.9771233919532574E+00  -1.9802643280053303E+00  -1.9833765313924696E+00  -1.9864601123032595E+00  -1.9895151809262865E+00
  -1.9925418474501362E+00  -1.9955402220633931E+00  -1.9985104149546427E+00  -2.0014525363124704E+00  -2.0043666963254618E+00
  -2.0072530051822017E+00  -2.0101115730712755E+00  -2.0129425101812690E+00  -2.0157459267007671E+00  -2.0185219328183557E+00
  -2.0212706387226196E+00  -2.0239921546021442E+00  -2.0266865906455149E+00  -2.0293540570413167E+00  -2.0319946639781357E+00
  -2.0346085216445560E+00  -2.0371957402291638E+00  -2.0397564299205451E+00  -2.0422907009072846E+00  -2.0447986633779665E+00
  -2.0472804275211778E+00  -2.0497361035255031E+00  -2.0521658015795272E+00  -2.0545696318718369E+00  -2.0569477045910154E+00
  -2.0593001299256501E+00  -2.0616270180643257E+00  -2.0639284791956269E+00  -2.0662046235081397E+00  -2.0684555611904489E+00
  -2.0706814024311404E+00  -2.0728822574187991E+00  -2.0750582363420103E+00  -2.0772094493893594E+00  -2.0793360067494322E+00
  -2.0814380186108137E+00  -2.0835155951620887E+00  -2.0855688465918432E+00  -2.0875978830886628E+00  -2.0896028148411321E+00
  -2.0915837520378364E+00  -2.0935408048673616E+00  -2.0954740835182921E+00  -2.0973836981792147E+00  -2.0992697590387137E+00
  -2.1011323762853746E+00  -2.1029716601077828E+00  -2.1047877206945236E+00  -2.1065806682341823E+00  -2.1083506129153444E+00
  -2.1100976649265952E+00  -2.1118219344565192E+00  -2.1135235316937031E+00  -2.1152025668267314E+00  -2.1168591500441898E+00
  -2.1184933915346633E+00  -2.1201054014867373E+00  -2.1216952900889976E+00  -2.1232631675300282E+00  -2.1248091439984162E+00
  -2.1263333296827454E+00  -2.1278358347716018E+00  -2.1293167694535713E+00  -2.1307762439172389E+00  -2.1322143683511889E+00
  -2.1336312529440082E+00  -2.1350270078842808E+00  -2.1364017433605933E+00  -2.1377555695615298E+00  -2.1390885966756756E+00
  -2.1404009348916171E+00  -2.1416926943979395E+00  -2.1429639853832270E+00  -2.1442149180360661E+00  -2.1454456025450415E+00
  -2.1466561490987388E+00  -2.1478466678857435E+00  -2.1490172690946401E+00  -2.1501680629140147E+00  -2.1512991595324529E+00
  -2.1524106691385394E+00  -2.1535027019208597E+00  -2.1545753680679987E+00  -2.1556287777685426E+00  -2.1566630412110763E+00
  -2.1576782685841849E+00  -2.1586745700764540E+00  -2.1596520558764687E+00  -2.1606108361728147E+00  -2.1615510211540769E+00
  -2.1624727210088412E+00  -2.1633760459256925E+00  -2.1642611060932162E+00  -2.1651280116999980E+00  -2.1659768729346225E+00
  -2.1668077999856750E+00  -2.1676209030417413E+00  -2.1684162922914072E+00  -2.1691940779232572E+00  -2.1699543701258772E+00
  -2.1706975984967660E+00  -2.1714232749561049E+00  -2.1721318891042203E+00  -2.1728236147985340E+00  -2.1734986258964684E+00
  -2.1741570962554455E+00  -2.1747991997328873E+00  -2.1754251101862150E+00  -2.1760350014728522E+00  -2.1766290474502195E+00
  -2.1772074219757398E+00  -2.1777702989068346E+00  -2.1783178521009265E+00  -2.1788502554154370E+00  -2.1793676827077877E+00
  -2.1798703078354023E+00  -2.1803583046557007E+00  -2.1808318470261066E+00  -2.1812911088040412E+00  -2.1817362638469264E+00
  -2.1821674860121849E+00  -2.1825849491572380E+00  -2.1829888271395088E+00  -2.1833792938164178E+00  -2.1837565230453881E+00
  -2.1841206886838411E+00  -2.1844719645891995E+00  -2.1848105246188854E+00  -2.1851365426303198E+00  -2.1854501924809253E+00
  -2.1857516480281243E+00  -2.1860410831293384E+00  -2.1863186716419896E+00  -2.1865845874234999E+00  -2.1868390043312917E+00
  -2.1870820962227868E+00  -2.1873140369554069E+00  -2.1875350003865743E+00  -2.1877451603737113E+00  -2.1879446907742395E+00
  -2.1881337654455812E+00  -2.1883125582451579E+00  -2.1884812430303926E+00  -2.1886399936587067E+00  -2.1887889839875219E+00
  -2.1889283878742609E+00  -2.1890583791763452E+00  -2.1891791317511968E+00  -2.1892908194562386E+00  -2.1893936161488914E+00
  -2.1894876956865783E+00  -2.1895732319267207E+00  -2.1896503987267408E+00  -2.1897193699440605E+00  -2.1897803194361019E+00
  -2.1898334210602868E+00  -2.1898788486740379E+00  -2.1899167761347766E+00  -2.1899473772999252E+00  -2.1899708260269048E+00
  -2.1899872961731393E+00  -2.1899969615960493E+00  -2.1899999961530572E+00  -2.1899965737015847E+00  -2.1899868680990546E+00
  -2.1899710532028882E+00  -2.1899493028705077E+00  -2.1899217909593354E+00  -2.1898886913267934E+00  -2.1898501778303028E+00
  -2.1898064243272870E+00  -2.1897576046751666E+00  -2.1897038927313646E+00  -2.1896454623533028E+00  -2.1895824873984031E+00
  -2.1895151417240877E+00  -2.1894435991877783E+00  -2.1893680336468972E+00  -2.1892886189588663E+00  -2.1892055289811081E+00
  -2.1891189375710440E+00  -2.1890290185860959E+00  -2.1889359458836863E+00  -2.1888398933212372E+00  -2.1887410347561707E+00
  -2.1886395440459081E+00  -2.1885355950478722E+00  -2.1884293616194848E+00  -2.1883210176181680E+00  -2.1882107369013437E+00
  -2.1880986933264333E+00  -2.1879850607508602E+00  -2.1878700130320459E+00  -2.1877537240274112E+00  -2.1876363675943797E+00
  -2.1875181175903728E+00  -2.1873991478728128E+00  -2.1872796322991213E+00  -2.1871597447267206E+00  -2.1870396590130321E+00
  -2.1869195490154789E+00  -2.1867995885914828E+00  -2.1866799515984652E+00  -2.1865608118938482E+00  -2.1864423433350542E+00
  -2.1863247197795053E+00  -2.1862081150846229E+00  -2.1860927031078297E+00  -2.1859786577065470E+00  -2.1858661527381980E+00
  -2.1857553620602035E+00  -2.1856464595299867E+00  -2.1855396190049681E+00  -2.1854350143425707E+00  -2.1853328194002164E+00
  -2.1852332080353274E+00  -2.1851363541053255E+00  -2.1850424314676333E+00  -2.1849516139796719E+00  -2.1848640754988629E+00
  -2.1847799898826303E+00  -2.1846995309883939E+00  -2.1846228726735775E+00  -2.1845501887956020E+00  -2.1844816532118903E+00
  -2.1844164772354335E+00  -2.1843514480115833E+00  -2.1842855601854496E+00  -2.1842188181235858E+00  -2.1841512261635008E+00
  -2.1840827886139089E+00  -2.1840135097549749E+00  -2.1839433938385526E+00  -2.1838724450884315E+00  -2.1838006677005670E+00
  -2.1837280658433200E+00  -2.1836546436576896E+00  -2.1835804052575374E+00  -2.1835053547298244E+00  -2.1834294961348273E+00
  -2.1833528335063686E+00  -2.1832753708520314E+00  -2.1831971121533837E+00  -2.1831180613661889E+00  -2.1830382224206262E+00
  -2.1829575992214956E+00  -2.1828761956484346E+00  -2.1827940155561172E+00  -2.1827110627744699E+00  -2.1826273411088652E+00
  -2.1825428543403302E+00  -2.1824576062257424E+00  -2.1823716004980254E+00  -2.1822848408663509E+00  -2.1821973310163250E+00
  -2.1821090746101808E+00  -2.1820200752869736E+00  -2.1819303366627611E+00  -2.1818398623307949E+00  -2.1817486558617003E+00
  -2.1816567208036619E+00  -2.1815640606826014E+00  -2.1814706790023575E+00  -2.1813765792448612E+00  -2.1812817648703140E+00
  -2.1811862393173573E+00  -2.1810900060032470E+00  -2.1809930683240220E+00  -2.1808954296546736E+00  -2.1807970933493097E+00
  -2.1806980627413242E+00  -2.1805983411435563E+00  -2.1804979318484548E+00  -2.1803968381282361E+00  -2.1802950632350462E+00
  -2.1801926104011153E+00  -2.1800894828389157E+00  -2.1799856837413119E+00  -2.1798812162817205E+00  -2.1797760836142532E+00
  -2.1796702888738739E+00  -2.1795638351765412E+00  -2.1794567256193589E+00  -2.1793489632807224E+00  -2.1792405512204591E+00
  -2.1791314924799754E+00  -2.1790217900823960E+00  -2.1789114470327031E+00  -2.1788004663178797E+00  -2.1786888509070397E+00
  -2.1785766037515728E+00  -2.1784637277852732E+00  -2.1783502259244756E+00  -2.1782361010681885E+00  -2.1781213560982238E+00
  -2.1780059938793275E+00  -2.1778900172593092E+00  -2.1777734290691693E+00  -2.1776562321232245E+00  -2.1775384292192346E+00
  -2.1774200231385268E+00  -2.1773010166461164E+00  -2.1771814124908313E+00  -2.1770612134054308E+00  -2.1769404221067283E+00
  -2.1768190412957051E+00  -2.1766970736576323E+00  -2.1765745218621846E+00  -2.1764513885635566E+00  -2.1763276764005779E+00
  -2.1762033879968250E+00  -2.1760785259607331E+00  -2.1759530928857105E+00  -2.1758270913502442E+00  -2.1757005239180138E+00
  -2.1755733931379964E+00  -2.1754457015445756E+00  -2.1753174516576479E+00  -2.1751886459827263E+00  -2.1750592870110470E+00
  -2.1749293772196721E+00  -2.1747989190715904E+00  -2.1746679150158239E+00  -2.1745363674875224E+00  -2.1744042789080691E+00
  -2.1742716516851743E+00  -2.1741384882129786E+00  -2.1740047908721469E+00  -2.1738705620299656E+00  -2.1737358040404393E+00
  -2.1736005192443844E+00  -2.1734647099695215E+00  -2.1733283785305733E+00  -2.1731915272293518E+00  -2.1730541583548524E+00
  -2.1729162741833448E+00  -2.1727778769784618E+00  -2.1726389689912877E+00  -2.1724995524604496E+00  -2.1723596296122021E+00
  -2.1722192026605169E+00  -2.1720782738071645E+00  -2.1719368452418042E+00  -2.1717949191420685E+00  -2.1716524976736413E+00
  -2.1715095829903488E+00  -2.1713661772342374E+00  -2.1712222825356555E+00  -2.1710779010133368E+00  -2.1709330347744782E+00
  -2.1707876859148230E+00  -2.1706418565187349E+00  -2.1704955486592814E+00  -2.1703487643983097E+00  -2.1702015057865207E+00
  -2.1700537748635504E+00  -2.1699055736580428E+00  -2.1697569041877260E+00  -2.1696077684594854E+00  -2.1694581684694407E+00
  -2.1693081062030135E+00  -2.1691575836350072E+00  -2.1690066027296728E+00  -2.1688551654407839E+00  -2.1687032737117073E+00
  -2.1685509294754706E+00  -2.1683981346548360E+00  -2.1682448911623657E+00  -2.1680912009004931E+00  -2.1679370657615897E+00
  -2.1677824876280316E+00  -2.1676274683722685E+00  -2.1674720098568883E+00  -2.1673161139346839E+00  -2.1671597824487185E+00
  -2.1670030172323882E+00  -2.1668458201094896E+00  -2.1666881928942812E+00  -2.1665301373915464E+00  -2.1663716553966590E+00
  -2.1662127486956408E+00  -2.1660534190652272E+00  -2.1658936682729264E+00  -2.1657334980770804E+00  -2.1655729102269254E+00
  -2.1654119064626509E+00  -2.1652504885154604E+00  -2.1650886581076279E+00  -2.1649264169525577E+00  -2.1647637667548429E+00
  -2.1646007092103194E+00  -2.1644372460061274E+00  -2.1642733788207642E+00  -2.1641091093241416E+00  -2.1639444391776417E+00
  -2.1637793700341712E+00  -2.1636139035382160E+00  -2.1634480413258985E+00  -2.1632817850250250E+00  -2.1631151362551457E+00
  -2.1629480966276033E+00  -2.1627806677455879E+00  -2.1626128512041896E+00  -2.1624446485904456E+00  -2.1622760614833978E+00
  -2.1621070914541409E+00  -2.1619377400658708E+00  -2.1617680088739384E+00  -2.1615978994258982E+00  -2.1614274132615554E+00
  -2.1612565519130178E+00  -2.1610853169047437E+00  -2.1609137097535900E+00  -2.1607417319688587E+00  -2.1605693850523453E+00
  -2.1603966704983879E+00  -2.1602235897939113E+00  -2.1600501444184736E+00  -2.1598763358443143E+00  -2.1597021655363977E+00
  -2.1595276349524593E+00  -2.1593527455430515E+00  -2.1591774987515868E+00  -2.1590018960143831E+00  -2.1588259387607072E+00
  -2.1586496284128187E+00  -2.1584729663860140E+00  -2.1582959540886679E+00  -2.1581185929222775E+00  -2.1579408842815027E+00
  -2.1577628295542115E+00  -2.1575844301215188E+00  -2.1574056873578291E+00  -2.1572266026308768E+00  -2.1570471773017679E+00
  -2.1568674127250205E+00  -2.1566873102486035E+00  -2.1565068712139790E+00  -2.1563260969561386E+00  -2.1561449888036468E+00
  -2.1559635480786761E+00  -2.1557817760970477E+00  -2.1555996741682697E+00  -2.1554172435955761E+00  -2.1552344856759618E+00
  -2.1550514017002236E+00  -2.1548679929529957E+00  -2.1546842607127856E+00  -2.1545002062520164E+00  -2.1543158308370538E+00
  -2.1541311357282518E+00  -2.1539461221799834E+00  -2.1537607914406753E+00  -2.1535751447528502E+00  -2.1533891833531524E+00
  -2.1532029084723909E+00  -2.1530163213355706E+00  -2.1528294231619252E+00  -2.1526422151649540E+00  -2.1524546985524560E+00
  -2.1522668745265614E+00  -2.1520787442837661E+00  -2.1518903090149659E+00  -2.1517015699054873E+00  -2.1515125281351226E+00
  -2.1513231848781609E+00  -2.1511335413034200E+00  -2.1509435985742811E+00  -2.1507533578487159E+00  -2.1505628202793234E+00
  -2.1503719870133575E+00  -2.1501808591927594E+00  -2.1499894379541891E+00  -2.1497977244290549E+00  -2.1496057197435454E+00
  -2.1494134250186572E+00  -2.1492208413702270E+00  -2.1490279699089627E+00  -2.1488348117404694E+00  -2.1486413679652818E+00
  -2.1484476396788912E+00  -2.1482536279717759E+00  -2.1480593339294307E+00  -2.1478647586323936E+00  -2.1476699031562752E+00
  -2.1474747685717865E+00  -2.1472793559447672E+00  -2.1470836663362149E+00  -2.1468877008023095E+00  -2.1466914603944423E+00
  -2.1464949461592449E+00  -2.1462981591386137E+00  -2.1461011003697372E+00  -2.1459037708851243E+00  -2.1457061717126282E+00
  -2.1455083038754768E+00  -2.1453101683922933E+00  -2.1451117662771253E+00  -2.1449130985394733E+00  -2.1447141661843094E+00
  -2.1445149702121094E+00  -2.1443155116188732E+00  -2.1441157913961533E+00  -2.1439158105310772E+00  -2.1437155700063739E+00
  -2.1435150708003983E+00  -2.1433143138871533E+00  -2.1431133002363172E+00  -2.1429120308132656E+00  -2.1427105065790975E+00
  -2.1425087284906539E+00  -2.1423066975005494E+00  -2.1421044145571879E+00  -2.1419018806047920E+00  -2.1416990965834204E+00
  -2.1414960634289959E+00  -2.1412927820733252E+00  -2.1410892534441213E+00  -2.1408854784650297E+00  -2.1406814580556457E+00
  -2.1404771931315403E+00  -2.1402726846042794E+00  -2.1400679333814492E+00  -2.1398629403666738E+00  -2.1396577064596416E+00
  -2.1394522325561209E+00  -2.1392465195479877E+00  -2.1390405683232405E+00  -2.1388343797660272E+00  -2.1386279547566609E+00
  -2.1384212941716441E+00  -2.1382143988836892E+00  -2.1380072697617361E+00  -2.1377999076709755E+00  -2.1375923134728674E+00
  -2.1373844880251633E+00  -2.1371764321819224E+00  -2.1369681467935360E+00  -2.1367596327067435E+00  -2.1365508907646538E+00
  -2.1363419218067645E+00  -2.1361327266689805E+00  -2.1359233061836349E+00  -2.1357136611795053E+00  -2.1355037924818352E+00
  -2.1352937009123520E+00  -2.1350833872892858E+00  -2.1348728524273866E+00  -2.1346620971379444E+00  -2.1344511222288087E+00
  -2.1342399285044036E+00  -2.1340285167657473E+00  -2.1338168878104704E+00  -2.1336050424328339E+00  -2.1333929814237460E+00
  -2.1331807055707812E+00  -2.1329682156581962E+00  -2.1327555124669479E+00  -2.1325425967747118E+00  -2.1323294693558972E+00
  -2.1321161309816663E+00  -2.1319025824199498E+00  -2.1316888244354644E+00  -2.1314748577897280E+00  -2.1312606832410799E+00
  -2.1310463015446941E+00  -2.1308317134525954E+00  -2.1306169197136802E+00  -2.1304019210737271E+00  -2.1301867182754162E+00
  -2.1299713120583448E+00  -2.1297557031590433E+00  -2.1295398923109912E+00  -2.1293238802446304E+00  -2.1291076676873844E+00
  -2.1288912553636732E+00  -2.1286746439949251E+00  -2.1284578342995979E+00  -2.1282408269931885E+00  -2.1280236227882519E+00
  -2.1278062223944145E+00  -2.1275886265183899E+00  -2.1273708358639931E+00  -2.1271528511321547E+00  -2.1269346730209389E+00
  -2.1267163022255522E+00  -2.1264977394383635E+00  -2.1262789853489168E+00  -2.1260600406439440E+00  -2.1258409060073800E+00
  -2.1256215821203779E+00  -2.1254020696613218E+00  -2.1251823693058411E+00  -2.1249624817268256E+00  -2.1247424075944363E+00
  -2.1245221475761231E+00  -2.1243017023366342E+00  -2.1240810725380337E+00  -2.1238602588397120E+00  -2.1236392618984024E+00
  -2.1234180823681892E+00  -2.1231967209005274E+00  -2.1229751781442499E+00  -2.1227534547455851E+00  -2.1225315513481675E+00
  -2.1223094685930510E+00  -2.1220872071187222E+00  -2.1218647675611124E+00  -2.1216421505536109E+00  -2.1214193567270785E+00
  -2.1211963867098569E+00  -2.1209732411277855E+00  -2.1207499206042097E+00  -2.1205264257599956E+00  -2.1203027572135422E+00
  -2.1200789155807929E+00  -2.1198549014752461E+00  -2.1196307155079714E+00  -2.1194063582876166E+00  -2.1191818304204233E+00
  -2.1189571325102365E+00  -2.1187322651585183E+00  -2.1185072289643565E+00  -2.1182820245244804E+00  -2.1180566524332671E+00
  -2.1178311132827594E+00  -2.1176054076626709E+00  -2.1173795361604006E+00  -2.1171534993610446E+00  -2.1169272978474054E+00
  -2.1167009322000037E+00  -2.1164744029970906E+00  -2.1162477108146569E+00  -2.1160208562264455E+00  -2.1157938398039602E+00
  -2.1155666621164793E+00  -2.1153393237310647E+00  -2.1151118252125714E+00  -2.1148841671236616E+00  -2.1146563500248106E+00
  -2.1144283744743220E+00  -2.1142002410283345E+00  -2.1139719502408343E+00  -2.1137435026636648E+00  -2.1135148988465362E+00
  -2.1132861393370370E+00  -2.1130572246806434E+00  -2.1128281554207287E+00  -2.1125989320985750E+00  -2.1123695552533817E+00
  -2.1121400254222755E+00  -2.1119103431403210E+00  -2.1116805089405299E+00  -2.1114505233538705E+00  -2.1112203869092792E+00
  -2.1109901001336673E+00  -2.1107596635519323E+00  -2.1105290776869672E+00  -2.1102983430596693E+00  -2.1100674601889504E+00
  -2.1098364295917467E+00  -2.1096052517830257E+00  -2.1093739272757981E+00  -2.1091424565811248E+00  -2.1089108402081278E+00
  -2.1086790786639984E+00  -2.1084471724540070E+00  -2.1082151220815097E+00  -2.1079829280479609E+00  -2.1077505908529197E+00
  -2.1075181109940577E+00  -2.1072854889671717E+00  -2.1070527252661884E+00  -2.1068198203831763E+00  -2.1065867748083504E+00
  -2.1063535890300860E+00  -2.1061202635349225E+00  -2.1058867988075733E+00  -2.1056531953309383E+00  -2.1054194535861033E+00
  -2.1051855740523577E+00  -2.1049515572071975E+00  -2.1047174035263354E+00  -2.1044831134837083E+00  -2.1042486875514852E+00
  -2.1040141262000751E+00  -2.1037794298981387E+00  -2.1035445991125901E+00  -2.1033096343086091E+00  -2.1030745359496499E+00
  -2.1028393044974454E+00  -2.1026039404120169E+00  -2.1023684441516832E+00  -2.1021328161730661E+00  -2.1018970569310986E+00
  -2.1016611668790346E+00  -2.1014251464684532E+00  -2.1011889961492707E+00  -2.1009527163697421E+00  -2.1007163075764748E+00
  -2.1004797702144313E+00  -2.1002431047269403E+00  -2.1000063115557026E+00  -2.0997693911407955E+00  -2.0995323439206866E+00
  -2.0992951703322342E+00  -2.0990578708107006E+00  -2.0988204457897530E+00  -2.0985828957014765E+00  -2.0983452209763778E+00
  -2.0981074220433937E+00  -2.0978694993298967E+00  -2.0976314532617035E+00  -2.0973932842630818E+00  -2.0971549927567552E+00
  -2.0969165791639144E+00  -2.0966780439042183E+00  -2.0964393873958045E+00  -2.0962006100552975E+00  -2.0959617122978105E+00
  -2.0957226945369576E+00  -2.0954835571848558E+00  -2.0952443006521331E+00  -2.0950049253479377E+00  -2.0947654316799418E+00
  -2.0945258200543466E+00  -2.0942860908758942E+00  -2.0940462445478696E+00  -2.0938062814721072E+00  -2.0935662020489985E+00
  -2.0933260066775006E+00  -2.0930856957551369E+00  -2.0928452696780089E+00  -2.0926047288407990E+00  -2.0923640736367797E+00
  -2.0921233044578149E+00  -2.0918824216943714E+00  -2.0916414257355229E+00  -2.0914003169689548E+00  -2.0911590957809718E+00
  -2.0909177625565039E+00  -2.0906763176791112E+00  -2.0904347615309922E+00  -2.0901930944929861E+00  -2.0899513169445822E+00
  -2.0897094292639236E+00  -2.0894674318278148E+00  -2.0892253250117254E+00  -2.0889831091897975E+00  -2.0887407847348505E+00
  -2.0884983520183882E+00  -2.0882558114106016E+00  -2.0880131632803791E+00  -2.0877704079953068E+00  -2.0875275459216787E+00
  -2.0872845774244988E+00  -2.0870415028674896E+00  -2.0867983226130948E+00  -2.0865550370224875E+00  -2.0863116464555733E+00
  -2.0860681512709975E+00  -2.0858245518261493E+00  -2.0855808484771670E+00  -2.0853370415789447E+00  -2.0850931314851371E+00
  -2.0848491185481635E+00  -2.0846050031192149E+00  -2.0843607855482582E+00  -2.0841164661840414E+00  -2.0838720453740995E+00
  -2.0836275234647585E+00  -2.0833829008011415E+00  -2.0831381777271734E+00  -2.0828933545855861E+00  -2.0826484317179239E+00
  -2.0824034094645465E+00  -2.0821582881646377E+00  -2.0819130681562066E+00  -2.0816677497760949E+00  -2.0814223333599822E+00
  -2.0811768192423874E+00  -2.0809312077566782E+00  -2.0806854992350723E+00  -2.0804396940086440E+00  -2.0801937924073295E+00
  -2.0799477947599296E+00  -2.0797017013941166E+00  -2.0794555126364371E+00  -2.0792092288123190E+00  -2.0789628502460733E+00
  -2.0787163772609012E+00  -2.0784698101788992E+00  -2.0782231493210590E+00  -2.0779763950072785E+00  -2.0777295475563622E+00
  -2.0774826072860257E+00  -2.0772355745129034E+00  -2.0769884495525499E+00  -2.0767412327194452E+00  -2.0764939243269991E+00
  -2.0762465246875581E+00  -2.0759990341124053E+00  -2.0757514529117675E+00  -2.0755037813948212E+00  -2.0752560198696925E+00
  -2.0750081686434645E+00  -2.0747602280221829E+00  -2.0745121983108552E+00  -2.0742640798134602E+00  -2.0740158728329492E+00
  -2.0737675776712523E+00  -2.0735191946292795E+00  -2.0732707240069286E+00  -2.0730221661030863E+00  -2.0727735212156344E+00
  -2.0725247896414527E+00  -2.0722759716764227E+00  -2.0720270676154340E+00  -2.0717780777523855E+00  -2.0715290023801911E+00
  -2.0712798417907829E+00  -2.0710305962751168E+00  -2.0707812661231730E+00  -2.0705318516239655E+00  -2.0702823530655388E+00
  -2.0700327707349788E+00  -2.0697831049184128E+00  -2.0695333559010138E+00  -2.0692835239670044E+00  -2.0690336093996620E+00
  -2.0687836124813210E+00  -2.0685335334933765E+00  -2.0682833727162913E+00  -2.0680331304295945E+00  -2.0677828069118882E+00
  -2.0675324024408526E+00  -2.0672819172932471E+00  -2.0670313517449128E+00  -2.0667807060707823E+00  -2.0665299805448765E+00
  -2.0662791754403114E+00  -2.0660282910293026E+00  -2.0657773275831657E+00  -2.0655262853723246E+00  -2.0652751646663092E+00
  -2.0650239657337646E+00  -2.0647726888424507E+00  -2.0645213342592479E+00  -2.0642699022501589E+00  -2.0640183930803144E+00
  -2.0637668070139741E+00  -2.0635151443145325E+00  -2.0632634052445198E+00  -2.0630115900656070E+00  -2.0627596990386103E+00
  -2.0625077324234908E+00  -2.0622556904793630E+00  -2.0620035734644930E+00  -2.0617513816363058E+00  -2.0614991152513853E+00
  -2.0612467745654808E+00  -2.0609943598335088E+00  -2.0607418713095558E+00  -2.0604893092468819E+00  -2.0602366738979239E+00
  -2.0599839655143009E+00  -2.0597311843468118E+00  -2.0594783306454461E+00  -2.0592254046593799E+00  -2.0589724066369843E+00
  -2.0587193368258250E+00  -2.0584661954726684E+00  -2.0582129828234819E+00  -2.0579596991234408E+00  -2.0577063446169248E+00
  -2.0574529195475293E+00  -2.0571994241580622E+00  -2.0569458586905509E+00  -2.0566922233862410E+00  -2.0564385184856047E+00
  -2.0561847442283394E+00  -2.0559309008533724E+00  -2.0556769885988646E+00  -2.0554230077022115E+00  -2.0551689584000492E+00
  -2.0549148409282529E+00  -2.0546606555219449E+00  -2.0544064024154935E+00  -2.0541520818425179E+00  -2.0538976940358897E+00
  -2.0536432392277391E+00  -2.0533887176494519E+00  -2.0531341295316783E+00  -2.0528794751043322E+00  -2.0526247545965948E+00
  -2.0523699682369192E+00  -2.0521151162530287E+00  -2.0518601988719256E+00  -2.0516052163198881E+00  -2.0513501688224780E+00
  -2.0510950566045398E+00  -2.0508398798902068E+00  -2.0505846389028979E+00  -2.0503293338653292E+00  -2.0500739649995081E+00
  -2.0498185325267420E+00  -2.0495630366676378E+00  -2.0493074776421034E+00  -2.0490518556693562E+00  -2.0487961709679188E+00
  -2.0485404237556253E+00  -2.0482846142496256E+00  -2.0480287426663817E+00  -2.0477728092216769E+00  -2.0475168141306161E+00
  -2.0472607576076265E+00  -2.0470046398664614E+00  -2.0467484611202043E+00  -2.0464922215812704E+00  -2.0462359214614070E+00
  -2.0459795609716989E+00  -2.0457231403225702E+00  -2.0454666597237865E+00  -2.0452101193844552E+00  -2.0449535195130322E+00
  -2.0446968603173223E+00  -2.0444401420044795E+00  -2.0441833647810133E+00  -2.0439265288527881E+00  -2.0436696344250276E+00
  -2.0434126817023159E+00  -2.0431556708886007E+00  -2.0428986021871949E+00  -2.0426414758007785E+00  -2.0423842919314041E+00
  -2.0421270507804947E+00  -2.0418697525488496E+00  -2.0416123974366451E+00  -2.0413549856434359E+00  -2.0410975173681614E+00
  -2.0408399928091416E+00  -2.0405824121640861E+00  -2.0403247756300917E+00  -2.0400670834036467E+00  -2.0398093356806317E+00
  -2.0395515326563238E+00  -2.0392936745253980E+00  -2.0390357614819283E+00  -2.0387777937193907E+00  -2.0385197714306673E+00
  -2.0382616948080448E+00  -2.0380035640432195E+00  -2.0377453793272977E+00  -2.0374871408508000E+00  -2.0372288488036618E+00
  -2.0369705033752359E+00  -2.0367121047542938E+00  -2.0364536531290289E+00  -2.0361951486870589E+00  -2.0359365916154268E+00
  -2.0356779821006028E+00  -2.0354193203284892E+00  -2.0351606064844181E+00  -2.0349018407531569E+00  -2.0346430233189094E+00
  -2.0343841543653163E+00  -2.0341252340754594E+00  -2.0338662626318640E+00  -2.0336072402164969E+00  -2.0333481670107743E+00
  -2.0330890431955591E+00  -2.0328298689511644E+00  -2.0325706444573557E+00  -2.0323113698933541E+00  -2.0320520454378359E+00
  -2.0317926712689349E+00  -2.0315332475642469E+00  -2.0312737745008289E+00  -2.0310142522552019E+00  -2.0307546810033519E+00
  -2.0304950609207357E+00  -2.0302353921822776E+00  -2.0299756749623739E+00  -2.0297159094348953E+00  -2.0294560957731882E+00
  -2.0291962341500747E+00  -2.0289363247378582E+00  -2.0286763677083228E+00  -2.0284163632327332E+00  -2.0281563114818435E+00
  -2.0278962126258908E+00  -2.0276360668346021E+00  -2.0273758742771943E+00  -2.0271156351223771E+00  -2.0268553495383541E+00
  -2.0265950176928236E+00  -2.0263346397529824E+00  -2.0260742158855272E+00  -2.0258137462566546E+00  -2.0255532310320650E+00
  -2.0252926703769627E+00  -2.0250320644560591E+00  -2.0247714134335735E+00  -2.0245107174732357E+00  -2.0242499767382856E+00
  -2.0239891913914785E+00  -2.0237283615950825E+00  -2.0234674875108851E+00  -2.0232065693001906E+00  -2.0229456071238232E+00
  -2.0226846011421307E+00  -2.0224235515149824E+00  -2.0221624584017750E+00  -2.0219013219614306E+00  -2.0216401423524002E+00
  -2.0213789197326655E+00  -2.0211176542597400E+00  -2.0208563460906692E+00  -2.0205949953820364E+00  -2.0203336022899596E+00
  -2.0200721669700972E+00  -2.0198106895776444E+00  -2.0195491702673420E+00  -2.0192876091934711E+00  -2.0190260065098586E+00
  -2.0187643623698777E+00  -2.0185026769264498E+00  -2.0182409503320460E+00  -2.0179791827386886E+00  -2.0177173742979515E+00
  -2.0174555251609649E+00  -2.0171936354784124E+00  -2.0169317054005362E+00  -2.0166697350771381E+00  -2.0164077246575789E+00
  -2.0161456742907817E+00  -2.0158835841252341E+00  -2.0156214543089868E+00  -2.0153592849896582E+00  -2.0150970763144351E+00
  -2.0148348284300726E+00  -2.0145725414828974E+00  -2.0143102156188077E+00  -2.0140478509832778E+00  -2.0137854477213546E+00
  -2.0135230059776634E+00  -2.0132605258964071E+00  -2.0129980076213689E+00  -2.0127354512959137E+00  -2.0124728570629875E+00
  -2.0122102250651213E+00  -2.0119475554444302E+00  -2.0116848483426182E+00  -2.0114221039009772E+00  -2.0111593222603870E+00
  -2.0108965035613204E+00  -2.0106336479438420E+00  -2.0103707555476098E+00  -2.0101078265118786E+00  -2.0098448609754982E+00
  -2.0095818590769161E+00  -2.0093188209541823E+00  -2.0090557467449441E+00  -2.0087926365864517E+00  -2.0085294906155600E+00
  -2.0082663089687287E+00  -2.0080030917820211E+00  -2.0077398391911112E+00  -2.0074765513312793E+00  -2.0072132283374189E+00
  -2.0069498703440307E+00  -2.0066864774852324E+00  -2.0064230498947531E+00  -2.0061595877059375E+00  -2.0058960910517487E+00
  -2.0056325600647655E+00  -2.0053689948771880E+00  -2.0051053956208356E+00  -2.0048417624271502E+00  -2.0045780954271954E+00
  -2.0043143947516620E+00  -2.0040506605308623E+00  -2.0037868928947407E+00  -2.0035230919728644E+00  -2.0032592578944333E+00
  -2.0029953907882785E+00  -2.0027314907828586E+00  -2.0024675580062712E+00  -2.0022035925862438E+00  -2.0019395946501413E+00
  -2.0016755643249651E+00  -2.0014115017373539E+00  -2.0011474070135873E+00  -2.0008832802795826E+00  -2.0006191216609008E+00
  -2.0003549312827458E+00  -2.0000907092699638E+00  -1.9998264557470486E+00  -1.9995621708381370E+00  -1.9992978546670166E+00
  -1.9990335073571213E+00  -1.9987691290315364E+00  -1.9985047198129975E+00  -1.9982402798238927E+00  -1.9979758091862625E+00
  -1.9977113080218034E+00  -1.9974467764518655E+00  -1.9971822145974576E+00  -1.9969176225792453E+00  -1.9966530005175538E+00
  -1.9963883485323675E+00  -1.9961236667433335E+00  -1.9958589552697596E+00  -1.9955942142306178E+00  -1.9953294437445459E+00
  -1.9950646439298456E+00  -1.9947998149044852E+00  -1.9945349567861030E+00  -1.9942700696920044E+00  -1.9940051537391659E+00
  -1.9937402090442342E+00  -1.9934752357235286E+00  -1.9932102338930429E+00  -1.9929452036684432E+00  -1.9926801451650722E+00
  -1.9924150584979485E+00  -1.9921499437817696E+00  -1.9918848011309094E+00  -1.9916196306594247E+00  -1.9913544324810490E+00
  -1.9910892067092003E+00  -1.9908239534569780E+00  -1.9905586728371667E+00  -1.9902933649622341E+00  -1.9900280299443358E+00
  -1.9897626678953124E+00  -1.9894972789266931E+00  -1.9892318631496961E+00  -1.9889664206752293E+00  -1.9887009516138914E+00
  -1.9884354560759738E+00  -1.9881699341714607E+00  -1.9879043860100287E+00  -1.9876388117010506E+00  -1.9873732113535951E+00
  -1.9871075850764275E+00  -1.9868419329780109E+00  -1.9865762551665078E+00  -1.9863105517497786E+00  -1.9860448228353873E+00
  -1.9857790685305974E+00  -1.9855132889423757E+00  -1.9852474841773933E+00  -1.9849816543420244E+00  -1.9847157995423512E+00
  -1.9844499198841596E+00  -1.9841840154729444E+00  -1.9839180864139085E+00  -1.9836521328119645E+00  -1.9833861547717342E+00
  -1.9831201523975521E+00  -1.9828541257934631E+00  -1.9825880750632261E+00  -1.9823220003103144E+00  -1.9820559016379140E+00
  -1.9817897791489287E+00  -1.9815236329459791E+00  -1.9812574631314015E+00  -1.9809912698072516E+00  -1.9807250530753053E+00
  -1.9804588130370575E+00  -1.9801925497937243E+00  -1.9799262634462453E+00  -1.9796599540952806E+00  -1.9793936218412163E+00
  -1.9791272667841613E+00  -1.9788608890239521E+00  -1.9785944886601488E+00  -1.9783280657920419E+00  -1.9780616205186479E+00
  -1.9777951529387126E+00  -1.9775286631507121E+00  -1.9772621512528525E+00  -1.9769956173430725E+00  -1.9767290615190425E+00
  -1.9764624838781668E+00  -1.9761958845175824E+00  -1.9759292635341612E+00  -1.9756626210245134E+00  -1.9753959570849831E+00
  -1.9751292718116527E+00  -1.9748625653003429E+00  -1.9745958376466142E+00  -1.9743290889457643E+00  -1.9740623192928353E+00
  -1.9737955287826083E+00  -1.9735287175096066E+00  -1.9732618855680986E+00  -1.9729950330520949E+00  -1.9727281600553503E+00
  -1.9724612666713677E+00  -1.9721943529933934E+00  -1.9719274191144234E+00  -1.9716604651271992E+00  -1.9713934911242121E+00
  -1.9711264971977036E+00  -1.9708594834396644E+00  -1.9705924499418366E+00  -1.9703253967957133E+00  -1.9700583240925413E+00
  -1.9697912319233208E+00  -1.9695241203788052E+00  -1.9692569895495031E+00  -1.9689898395256782E+00  -1.9687226703973526E+00
  -1.9684554822543030E+00  -1.9681882751860655E+00  -1.9679210492819343E+00  -1.9676538046309628E+00  -1.9673865413219653E+00
  -1.9671192594435165E+00  -1.9668519590839528E+00  -1.9665846403313729E+00  -1.9663173032736376E+00  -1.9660499479983742E+00
  -1.9657825745929713E+00  -1.9655151831445852E+00  -1.9652477737401364E+00  -1.9649803464663134E+00  -1.9647129014095714E+00
  -1.9644454386561345E+00  -1.9641779582919947E+00  -1.9639104604029149E+00  -1.9636429450744257E+00  -1.9633754123918321E+00
  -1.9631078624402079E+00  -1.9628402953044011E+00  -1.9625727110690312E+00  -1.9623051098184932E+00  -1.9620374916369550E+00
  -1.9617698566083601E+00  -1.9615022048164292E+00  -1.9612345363446573E+00  -1.9609668512763179E+00  -1.9606991496944626E+00
  -1.9604314316819200E+00  -1.9601636973212997E+00  -1.9598959466949912E+00  -1.9596281798851625E+00  -1.9593603969737650E+00
  -1.9590925980425309E+00  -1.9588247831729753E+00  -1.9585569524463964E+00  -1.9582891059438763E+00  -1.9580212437462821E+00
  -1.9577533659342656E+00  -1.9574854725882638E+00  -1.9572175637885014E+00  -1.9569496396149901E+00  -1.9566817001475285E+00
  -1.9564137454657038E+00  -1.9561457756488938E+00  -1.9558777907762634E+00  -1.9556097909267700E+00  -1.9553417761791607E+00
  -1.9550737466119754E+00  -1.9548057023035450E+00  -1.9545376433319932E+00  -1.9542695697752381E+00  -1.9540014817109919E+00
  -1.9537333792167599E+00  -1.9534652623698454E+00  -1.9531971312473453E+00  -1.9529289859261538E+00  -1.9526608264829628E+00
  -1.9523926529942608E+00  -1.9521244655363361E+00  -1.9518562641852750E+00  -1.9515880490169635E+00  -1.9513198201070880E+00
  -1.9510515775311359E+00  -1.9507833213643955E+00  -1.9505150516819565E+00  -1.9502467685587130E+00  -1.9499784720693607E+00
  -1.9497101622883997E+00  -1.9494418392901338E+00  -1.9491735031486721E+00  -1.9489051539379294E+00  -1.9486367917316265E+00
  -1.9483684166032906E+00  -1.9481000286262553E+00  -1.9478316278736640E+00  -1.9475632144184667E+00  -1.9472947883334233E+00
  -1.9470263496911029E+00  -1.9467578985638840E+00  -1.9464894350239570E+00  -1.9462209591433222E+00  -1.9459524709937925E+00
  -1.9456839706469926E+00  -1.9454154581743610E+00  -1.9451469336471476E+00  -1.9448783971364185E+00  -1.9446098487130534E+00
  -1.9443412884477462E+00  -1.9440727164110077E+00  -1.9438041326731643E+00  -1.9435355373043586E+00  -1.9432669303745518E+00
  -1.9429983119535215E+00  -1.9427296821108633E+00  -1.9424610409159937E+00  -1.9421923884381462E+00  -1.9419237247463759E+00
  -1.9416550499095573E+00  -1.9413863639963862E+00  -1.9411176670753802E+00  -1.9408489592148781E+00  -1.9405802404830419E+00
  -1.9403115109478561E+00  -1.9400427706771299E+00  -1.9397740197384949E+00  -1.9395052581994088E+00  -1.9392364861271529E+00
  -1.9389677035888357E+00  -1.9386989106513899E+00  -1.9384301073815775E+00  -1.9381612938459851E+00  -1.9378924701110276E+00
  -1.9376236362429493E+00  -1.9373547923078218E+00  -1.9370859383715457E+00  -1.9368170744998523E+00  -1.9365482007583024E+00
  -1.9362793172122872E+00  -1.9360104239270293E+00  -1.9357415209675835E+00  -1.9354726083988354E+00  -1.9352036862855040E+00
  -1.9349347546921412E+00  -1.9346658136831330E+00  -1.9343968633226978E+00  -1.9341279036748902E+00  -1.9338589348035993E+00
  -1.9335899567725492E+00  -1.9333209696453004E+00  -1.9330519734852492E+00  -1.9327829683556303E+00  -1.9325139543195140E+00
  -1.9322449314398085E+00  -1.9319758997792622E+00  -1.9317068594004603E+00  -1.9314378103658276E+00  -1.9311687527376291E+00
  -1.9308996865779702E+00  -1.9306306119487957E+00  -1.9303615289118923E+00  -1.9300924375288879E+00  -1.9298233378612528E+00
  -1.9295542299702999E+00  -1.9292851139171838E+00  -1.9290159897629033E+00  -1.9287468575683011E+00  -1.9284777173940633E+00
  -1.9282085693007218E+00  -1.9279394133486529E+00  -1.9276702495980784E+00  -1.9274010781090662E+00  -1.9271318989415314E+00
  -1.9268627121552342E+00  -1.9265935178097842E+00  -1.9263243159646368E+00  -1.9260551066790974E+00  -1.9257858900123186E+00
  -1.9255166660233025E+00  -1.9252474347709003E+00  -1.9249781963138148E+00  -1.9247089507105972E+00  -1.9244396980196501E+00
  -1.9241704382992268E+00  -1.9239011716074335E+00  -1.9236318980022269E+00  -1.9233626175414178E+00  -1.9230933302826678E+00
  -1.9228240362834932E+00  -1.9225547356012640E+00  -1.9222854282932036E+00  -1.9220161144163905E+00  -1.9217467940277582E+00
  -1.9214774671840937E+00  -1.9212081339420444E+00  -1.9209387943581073E+00  -1.9206694484886413E+00  -1.9204000963898598E+00
  -1.9201307381178339E+00  -1.9198613737284937E+00  -1.9195920032776255E+00  -1.9193226268208756E+00  -1.9190532444137482E+00
  -1.9187838561116084E+00  -1.9185144619696792E+00  -1.9182450620430453E+00  -1.9179756563866512E+00  -1.9177062450553020E+00
  -1.9174368281036656E+00  -1.9171674055862691E+00  -1.9168979775575044E+00  -1.9166285440716244E+00  -1.9163591051827447E+00
  -1.9160896609448452E+00  -1.9158202114117682E+00  -1.9155507566372214E+00  -1.9152812966747763E+00  -1.9150118315778684E+00
  -1.9147423613997983E+00  -1.9144728861937350E+00  -1.9142034060127098E+00  -1.9139339209096218E+00  -1.9136644309372370E+00
  -1.9133949361481877E+00  -1.9131254365949746E+00  -1.9128559323299656E+00  -1.9125864234053969E+00  -1.9123169098733719E+00
  -1.9120473917858645E+00  -1.9117778691947178E+00  -1.9115083421516439E+00  -1.9112388107082252E+00  -1.9109692749159133E+00
  -1.9106997348260319E+00  -1.9104301904897756E+00  -1.9101606419582093E+00  -1.9098910892822711E+00  -1.9096215325127697E+00
  -1.9093519717003875E+00  -1.9090824068956782E+00  -1.9088128381490710E+00  -1.9085432655108669E+00  -1.9082736890312411E+00
  -1.9080041087602431E+00  -1.9077345247477966E+00  -1.9074649370437002E+00  -1.9071953456976287E+00  -1.9069257507591317E+00
  -1.9066561522776346E+00  -1.9063865503024402E+00  -1.9061169448827262E+00  -1.9058473360675474E+00  -1.9055777239058387E+00
  -1.9053081084464092E+00  -1.9050384897379466E+00  -1.9047688678290189E+00  -1.9044992427680711E+00  -1.9042296146034274E+00
  -1.9039599833832910E+00  -1.9036903491557458E+00  -1.9034207119687541E+00  -1.9031510718701594E+00  -1.9028814289076872E+00
  -1.9026117831289415E+00  -1.9023421345814080E+00  -1.9020724833124556E+00  -1.9018028293693328E+00  -1.9015331727991724E+00
  -1.9012635136489893E+00  -1.9009938519656808E+00  -1.9007241877960266E+00  -1.9004545211866921E+00  -1.9001848521842246E+00
  -1.8999151808350556E+00  -1.8996455071855034E+00  -1.8993758312817675E+00  -1.8991061531699356E+00  -1.8988364728959788E+00
  -1.8985667905057557E+00  -1.8982971060450085E+00  -1.8980274195593678E+00  -1.8977577310943496E+00  -1.8974880406953589E+00
  -1.8972183484076843E+00  -1.8969486542765059E+00  -1.8966789583468890E+00  -1.8964092606637881E+00  -1.8961395612720460E+00
  -1.8958698602163944E+00  -1.8956001575414536E+00  -1.8953304532917337E+00  -1.8950607475116346E+00  -1.8947910402454464E+00
  -1.8945213315373475E+00  -1.8942516214314098E+00  -1.8939819099715944E+00  -1.8937121972017539E+00  -1.8934424831656309E+00
  -1.8931727679068626E+00  -1.8929030514689755E+00  -1.8926333338953907E+00  -1.8923636152294201E+00  -1.8920938955142688E+00
  -1.8918241747930364E+00  -1.8915544531087147E+00  -1.8912847305041889E+00  -1.8910150070222398E+00  -1.8907452827055413E+00
  -1.8904755575966621E+00  -1.8902058317380659E+00  -1.8899361051721126E+00  -1.8896663779410554E+00  -1.8893966500870445E+00
  -1.8891269216521267E+00  -1.8888571926782434E+00  -1.8885874632072337E+00  -1.8883177332808341E+00  -1.8880480029406770E+00
  -1.8877782722282925E+00  -1.8875085411851085E+00  -1.8872388098524515E+00  -1.8869690782715449E+00  -1.8866993464835120E+00
  -1.8864296145293731E+00  -1.8861598824500490E+00  -1.8858901502863599E+00  -1.8856204180790239E+00  -1.8853506858686602E+00
  -1.8850809536957882E+00  -1.8848112216008268E+00  -1.8845414896240971E+00  -1.8842717578058186E+00  -1.8840020261861146E+00
  -1.8837322948050079E+00  -1.8834625637024234E+00  -1.8831928329181884E+00  -1.8829231024920323E+00  -1.8826533724635863E+00
  -1.8823836428723852E+00  -1.8821139137578666E+00  -1.8818441851593701E+00  -1.8815744571161401E+00  -1.8813047296673249E+00
  -1.8810350028519753E+00  -1.8807652767090481E+00  -1.8804955512774031E+00  -1.8802258265958058E+00  -1.8799561027029261E+00
  -1.8796863796373398E+00  -1.8794166574375271E+00  -1.8791469361418753E+00  -1.8788772157886768E+00  -1.8786074964161306E+00
  -1.8783377780623409E+00  -1.8780680607653215E+00  -1.8777983445629900E+00  -1.8775286294931737E+00  -1.8772589155936055E+00
  -1.8769892029019268E+00  -1.8767194914556868E+00  -1.8764497812923437E+00  -1.8761800724492625E+00  -1.8759103649637185E+00
  -1.8756406588728955E+00  -1.8753709542138848E+00  -1.8751012510236891E+00  -1.8748315493392202E+00  -1.8745618491972997E+00
  -1.8742921506346579E+00  -1.8740224536879380E+00  -1.8737527583936915E+00  -1.8734830647883822E+00  -1.8732133729083849E+00
  -1.8729436827899830E+00  -1.8726739944693758E+00  -1.8724043079826704E+00  -1.8721346233658878E+00  -1.8718649406549608E+00
  -1.8715952598857346E+00  -1.8713255810939668E+00  -1.8710559043153288E+00  -1.8707862295854032E+00  -1.8705165569396878E+00
  -1.8702468864135924E+00  -1.8699772180424425E+00  -1.8697075518614754E+00  -1.8694378879058438E+00  -1.8691682262106148E+00
  -1.8688985668107696E+00  -1.8686289097412057E+00  -1.8683592550367327E+00  -1.8680896027320795E+00  -1.8678199528618868E+00
  -1.8675503054607137E+00  -1.8672806605630343E+00  -1.8670110182032382E+00  -1.8667413784156324E+00  -1.8664717412344392E+00
  -1.8662021066938002E+00  -1.8659324748277712E+00  -1.8656628456703277E+00  -1.8653932192553606E+00  -1.8651235956166796E+00
  -1.8648539747880126E+00  -1.8645843568030045E+00  -1.8643147416952188E+00  -1.8640451294981386E+00  -1.8637755202451647E+00
  -1.8635059139696171E+00  -1.8632363107047347E+00  -1.8629667104836758E+00  -1.8626971133395194E+00  -1.8624275193052617E+00
  -1.8621579284138230E+00  -1.8618883406980389E+00  -1.8616187561906685E+00  -1.8613491749243913E+00  -1.8610795969318061E+00
  -1.8608100222454349E+00  -1.8605404508977179E+00  -1.8602708829210206E+00  -1.8600013183476258E+00  -1.8597317572097412E+00
  -1.8594621995394960E+00  -1.8591926453689405E+00  -1.8589230947300477E+00  -1.8586535476547144E+00  -1.8583840041747577E+00
  -1.8581144643219216E+00  -1.8578449281278693E+00  -1.8575753956241894E+00  -1.8573058668423936E+00  -1.8570363418139180E+00
  -1.8567668205701215E+00  -1.8564973031422884E+00  -1.8562277895616259E+00  -1.8559582798592680E+00  -1.8556887740662706E+00
  -1.8554192722136165E+00  -1.8551497743322130E+00  -1.8548802804528928E+00  -1.8546107906064138E+00  -1.8543413048234603E+00
  -1.8540718231346422E+00  -1.8538023455704942E+00  -1.8535328721614788E+00  -1.8532634029379849E+00  -1.8529939379303271E+00
  -1.8527244771687474E+00  -1.8524550206834143E+00  -1.8521855685044242E+00  -1.8519161206618004E+00  -1.8516466771854936E+00
  -1.8513772381053824E+00  -1.8511078034512733E+00  -1.8508383732529012E+00  -1.8505689475399292E+00  -1.8502995263419477E+00
  -1.8500301096884773E+00  -1.8497606976089662E+00  -1.8494912901327936E+00  -1.8492218872892645E+00  -1.8489524891076166E+00
  -1.8486830956170144E+00  -1.8484137068465545E+00  -1.8481443228252619E+00  -1.8478749435820918E+00  -1.8476055691459292E+00
  -1.8473361995455915E+00  -1.8470668348098245E+00  -1.8467974749673053E+00  -1.8465281200466430E+00  -1.8462587700763760E+00
  -1.8459894250849751E+00  -1.8457200851008426E+00  -1.8454507501523127E+00  -1.8451814202676502E+00  -1.8449120954750524E+00
  -1.8446427758026498E+00  -1.8443734612785028E+00  -1.8441041519306065E+00  -1.8438348477868871E+00  -1.8435655488752059E+00
  -1.8432962552233538E+00  -1.8430269668590573E+00  -1.8427576838099764E+00  -1.8424884061037021E+00  -1.8422191337677623E+00
  -1.8419498668296150E+00  -1.8416806053166559E+00  -1.8414113492562125E+00  -1.8411420986755467E+00  -1.8408728536018559E+00
  -1.8406036140622715E+00  -1.8403343800838590E+00  -1.8400651516936211E+00  -1.8397959289184924E+00  -1.8395267117853451E+00
  -1.8392575003209866E+00  -1.8389882945521590E+00  -1.8387190945055403E+00  -1.8384499002077455E+00  -1.8381807116853239E+00
  -1.8379115289647627E+00  -1.8376423520724834E+00  -1.8373731810348477E+00  -1.8371040158781495E+00  -1.8368348566286226E+00
  -1.8365657033124370E+00  -1.8362965559556994E+00  -1.8360274145844542E+00  -1.8357582792246836E+00  -1.8354891499023067E+00
  -1.8352200266431815E+00  -1.8349509094731018E+00  -1.8346817984178021E+00  -1.8344126935029528E+00  -1.8341435947541647E+00
  -1.8338745021969862E+00  -1.8336054158569042E+00  -1.8333363357593442E+00  -1.8330672619296717E+00  -1.8327981943931904E+00
  -1.8325291331751437E+00  -1.8322600783007148E+00  -1.8319910297950259E+00  -1.8317219876831394E+00  -1.8314529519900569E+00
  -1.8311839227407207E+00  -1.8309148999600127E+00  -1.8306458836727557E+00  -1.8303768739037132E+00  -1.8301078706775875E+00
  -1.8298388740190248E+00  -1.8295698839526089E+00  -1.8293009005028666E+00  -1.8290319236942663E+00  -1.8287629535512155E+00
  -1.8284939900980661E+00  -1.8282250333591092E+00  -1.8279560833585791E+00  -1.8276871401206509E+00  -1.8274182036694429E+00
  -1.8271492740290143E+00  -1.8268803512233682E+00  -1.8266114352764491E+00  -1.8263425262121444E+00  -1.8260736240542841E+00
   5.0803612526640507E+01   5.0803612526640507E+01   5.0803612526640507E+01   5.0803612526640507E+01   5.0803612526640507E+01
   5.0803612526640507E+01   5.0803612526640507E+01   5.0803612526640507E+01   5.0803612526640507E+01   5.0803612526640507E+01
   5.0803612526640507E+01   5.0803612526640507E+01   5.0803612526640507E+01   5.0803612526640507E+01   5.0803612526640507E+01
   5.0803612526640507E+01   5.0803612526640507E+01   5.0803612526640507E+01   5.0803612526640507E+01   5.0803612526640507E+01
   5.0803612526640507E+01   5.0803612526640507E+01   5.0803612526640507E+01   5.0803612526640507E+01   5.0803612526640507E+01
   5.0803612526640507E+01   5.0803612526640507E+01   5.0803612526640507E+01   5.0803612526640507E+01   5.0803612526640507E+01
   5.0803612526640507E+01   5.0803612526640507E+01   5.0803612526640507E+01   5.0803612526640507E+01   5.0803612526640507E+01
   5.0803612526640507E+01   5.0803612526640507E+01   5.0803612526640507E+01   5.0803612526640507E+01   5.0803612526640507E+01
   5.0803612526640507E+01   5.0803612526640507E+01   5.0803612526640507E+01   5.0803612526640507E+01   5.0803612526640507E+01
   5.0803612526640507E+01   5.0803612526640507E+01   5.0803612526640507E+01   5.0803612526640507E+01   5.0803612526640507E+01
   5.0803612526640507E+01   5.0803612526640507E+01   5.0803612526640507E+01   5.0803612526640507E+01   5.0803612526640507E+01
   5.0803612526640507E+01   5.0803612526640507E+01   5.0803612526640507E+01   5.0803612526640507E+01   5.0803612526640507E+01
   5.0803612526640507E+01   5.0803612526640507E+01   5.0803612526640507E+01   5.0803612526640507E+01   5.0803612526640507E+01
   5.0803612526640507E+01   5.0803612526640507E+01   5.0803612526640507E+01   5.0803612526640507E+01   5.0803612526640507E+01
   5.0803612526640507E+01   5.0803612526640507E+01   5.0803612526640507E+01   5.0803612526640507E+01   5.0803612526640507E+01
   5.0803612526640507E+01   5.0803612526640507E+01   5.0803612526640507E+01   5.0803612526640507E+01   5.0803612526640507E+01
   5.0803612526640507E+01   5.0803612526640507E+01   5.0803612526640507E+01   5.0803612526640507E+01   5.0803612526640507E+01
   5.0803612526640507E+01   5.0803612526640507E+01   5.0803612526640507E+01   5.0803612526640507E+01   5.0803612526640507E+01
   5.0803612526640507E+01   5.0803612526640507E+01   5.0803612526640507E+01   5.0803612526640507E+01   5.0803612526640507E+01
   5.0803612526640507E+01   5.0803612526640507E+01   5.0803612526640507E+01   5.0803612526640507E+01   5.0803612526640507E+01
   5.0803612526640507E+01   5.0803612526640507E+01   5.0803612526640507E+01   5.0803612526640507E+01   5.0803612526640507E+01
   5.0803612526640507E+01   5.0803612526640507E+01   5.0803612526640507E+01   5.0803612526640507E+01   5.0803612526640507E+01
   5.0803612526640507E+01   5.0803612526640507E+01   5.0803612526640507E+01   5.0803612526640507E+01   5.0803612526640507E+01
   5.0803612526640507E+01   5.0803612526640507E+01   5.0803612526640507E+01   5.0803612526640507E+01   5.0803612526640507E+01
   5.0803612526640507E+01   5.0803612526640507E+01   5.0803612526640507E+01   5.0803612526640507E+01   5.0803612526640507E+01
   5.0803612526640507E+01   5.0803612526640507E+01   5.0803612526640507E+01   5.0803612526640507E+01   5.0803612526640507E+01
   5.0803612526640507E+01   5.0803612526640507E+01   5.0803612526640507E+01   5.0803612526640507E+01   5.0803612526640507E+01
   5.0803612526640507E+01   5.0803612526640507E+01   5.0803612526640507E+01   5.0803612526640507E+01   5.0803612526640507E+01
   5.0803612526640507E+01   5.0803612526640507E+01   5.0803612526640507E+01   5.0803612526640507E+01   5.0803612526640507E+01
   5.0803612526640507E+01   5.0803612526640507E+01   5.0803612526640507E+01   5.0803612526640507E+01   5.0803612526640507E+01
   5.0803612526640507E+01   5.0803612526640507E+01   5.0803612526640507E+01   5.0803612526640507E+01   5.0803612526640507E+01
   5.0785279911792777E+01   5.0508130541310912E+01   5.0232492771694446E+01   4.9958358398201135E+01   4.9685719258906730E+01
   4.9414567234552862E+01   4.9144894248392482E+01   4.8876692266033309E+01   4.8609953295278743E+01   4.8344669385967052E+01
   4.8080832629808512E+01   4.7818435160220723E+01   4.7557469152162462E+01   4.7297926821965689E+01   4.7039800427166305E+01
   4.6783082266333409E+01   4.6527764678897427E+01   4.6273840044976922E+01   4.6021300785204346E+01   4.5770139360550935E+01
   4.5520348272150514E+01   4.5271920061122465E+01   4.5024847308394129E+01   4.4779122634522153E+01   4.4534738699513653E+01
   4.4291688202646426E+01   4.4049963882288900E+01   4.3809558515719580E+01   4.3570464918946051E+01   4.3332675946523814E+01
   4.3096184491374714E+01   4.2860983484605221E+01   4.2627065895324534E+01   4.2394424730462532E+01   4.2163053034587733E+01
   4.1932943889725088E+01   4.1704090415173958E+01   4.1476485767326004E+01   4.1250123139483200E+01   4.1024995761676060E+01
   4.0801096900481809E+01   4.0578419858843013E+01   4.0356957975886232E+01   4.0136704626741000E+01   3.9917653222359149E+01
   3.9699797209334278E+01   3.9483130069721703E+01   3.9267645320858733E+01   3.9053336515185322E+01   3.8840197240065066E+01
   3.8628221117606707E+01   3.8417401804486168E+01   3.8207732991768736E+01   3.7999208404732151E+01   3.7791821802689903E+01
   3.7585566978815059E+01   3.7380437759964920E+01   3.7176428006505773E+01   3.6973531612138629E+01   3.6771742503725264E+01
   3.6571054641114934E+01   3.6371462016971854E+01   3.6172958656602887E+01   3.5975538617786427E+01   3.5779195990601259E+01
   3.5583924897256693E+01   3.5389719491922939E+01   3.5196573960562226E+01   3.5004482520760767E+01   3.4813439421561114E+01
   3.4623438943295490E+01   3.4434475397419533E+01   3.4246543126346964E+01   3.4059636503284814E+01   3.3873749932069451E+01
   3.3688877847003184E+01   3.3505014712691775E+01   3.3322155023882431E+01   3.3140293305302762E+01   3.2959424111500311E+01
   3.2779542026682805E+01   3.2600641664559255E+01   3.2422717668181591E+01   3.2245764709787345E+01   3.2069777490642664E+01
   3.1894750740886433E+01   3.1720679219374937E+01   3.1547557713527208E+01   3.1375381039171430E+01   3.1204144040391583E+01
   3.1033841589375356E+01   3.0864468586262412E+01   3.0696019958993570E+01   3.0528490663160788E+01   3.0361875681857601E+01
   3.0196170025530755E+01   3.0031368731832057E+01   2.9867466865471439E+01   2.9704459518070443E+01   2.9542341808016555E+01
   2.9381108880318369E+01   2.9220755906461228E+01   2.9061278084263908E+01   2.8902670637735820E+01   2.8744928816934980E+01
   2.8588047897826844E+01   2.8432023182143613E+01   2.8276849997244536E+01   2.8122523695976774E+01   2.7969039656536953E+01
   2.7816393282333678E+01   2.7664580001850371E+01   2.7513595268509231E+01   2.7363434560535620E+01   2.7214093380823279E+01
   2.7065567256800257E+01   2.6917851740295472E+01   2.6770942407406054E+01   2.6624834858365350E+01   2.6479524717411625E+01
   2.6335007632657476E+01   2.6191279275959872E+01   2.6048335342791006E+01   2.5906171552109733E+01   2.5764783646233674E+01
   2.5624167390712181E+01   2.5484318574199637E+01   2.5345233008329874E+01   2.5206906527590828E+01   2.5069334989200165E+01
   2.4932514272981503E+01   2.4796440281241125E+01   2.4661108938645683E+01   2.4526516192100182E+01   2.4392658010626924E+01
   2.4259530385244968E+01   2.4127129328850170E+01   2.3995450876096097E+01   2.3864491083275276E+01   2.3734246028201358E+01
   2.3604711810091779E+01   2.3475884549450988E+01   2.3347760387954583E+01   2.3220335488333646E+01   2.3093606034260166E+01
   2.2967568230232676E+01   2.2842218301462804E+01   2.2717552493762273E+01   2.2593567073430538E+01   2.2470258327143164E+01
   2.2347622561840534E+01   2.2225656104617464E+01   2.2104355302613218E+01   2.1983716522902142E+01   2.1863736152385052E+01
   2.1744410597680933E+01   2.1625736285019475E+01   2.1507709660134097E+01   2.1390327188155499E+01   2.1273585353505887E+01
   2.1157480659793713E+01   2.1042009629709010E+01   2.0927168804919305E+01   2.0812954745966021E+01   2.0699364032161622E+01
   2.0586393261487061E+01   2.0474039050490020E+01   2.0362298034183592E+01   2.0251166865945468E+01   2.0140642217417845E+01
   2.0030720778407659E+01   1.9921399256787552E+01   1.9812674378397229E+01   1.9704542886945475E+01   1.9597001543912626E+01
   1.9490047128453593E+01   1.9383676437301411E+01   1.9277886284671357E+01   1.9172673502165487E+01   1.9068034938677840E+01
   1.8963967460299980E+01   1.8860467950227250E+01   1.8757533308665355E+01   1.8655160452737583E+01   1.8553346316392471E+01
   1.8452087850311955E+01   1.8351382021820157E+01   1.8251225814792402E+01   1.8151616229565068E+01   1.8052550282845608E+01
   1.7954025007623315E+01   1.7856037453080404E+01   1.7758584684503649E+01   1.7661663783196541E+01   1.7565271846391834E+01
   1.7469405987164599E+01   1.7374063334345852E+01   1.7279241032436431E+01   1.7184936241521630E+01   1.7091146137186019E+01
   1.6997867910428933E+01   1.6905098767580341E+01   1.6812835930217116E+01   1.6721076635079935E+01   1.6629818133990398E+01
   1.6539057693768829E+01   1.6448792596152355E+01   1.6359020137713536E+01   1.6269737629779353E+01   1.6180942398350730E+01
   1.6092631784022441E+01   1.6004803141903452E+01   1.5917453841537675E+01   1.5830581266825311E+01   1.5744182815944312E+01
   1.5658255901272625E+01   1.5572797949310614E+01   1.5487806400603963E+01   1.5403278709667152E+01   1.5319212344907001E+01
   1.5235604788547109E+01   1.5152453536552187E+01   1.5069756098553295E+01   1.4987509997773108E+01   1.4905712770951771E+01
   1.4824361968273154E+01   1.4743455153291494E+01   1.4662989902858319E+01   1.4582963807050046E+01   1.4503374469095611E+01
   1.4424219505304876E+01   1.4345496544997086E+01   1.4267203230429956E+01   1.4189337216729029E+01   1.4111896171817410E+01
   1.4034877776346040E+01   1.3958279723624065E+01   1.3882099719549917E+01   1.3806335482542462E+01   1.3730984743472769E+01
   1.3656045245596113E+01   1.3581514744484357E+01   1.3507391007958800E+01   1.3433671816023272E+01   1.3360354960797629E+01
   1.3287438246451712E+01   1.3214919489139486E+01   1.3142796516933686E+01   1.3071067169760761E+01   1.2999729299336179E+01
   1.2928780769100088E+01   1.2858219454153298E+01   1.2788043241193709E+01   1.2718250028452919E+01   1.2648837725633388E+01
   1.2579804253845733E+01   1.2511147545546546E+01   1.2442865544476399E+01   1.2374956205598325E+01   1.2307417495036526E+01
   1.2240247390015483E+01   1.2173443878799347E+01   1.2107004960631730E+01   1.2040928645675741E+01   1.1975212954954406E+01
   1.1909855920291402E+01   1.1844855584252116E+01   1.1780210000085008E+01   1.1715917231663298E+01   1.1651975353427000E+01
   1.1588382450325254E+01   1.1525136617758944E+01   1.1462235961523668E+01   1.1399678597753036E+01   1.1337462652862182E+01
   1.1275586263491725E+01   1.1214047576451911E+01   1.1152844748667128E+01   1.1091975947120721E+01   1.1031439348800035E+01
   1.0971233140641914E+01   1.0911355519478295E+01   1.0851804691982284E+01   1.0792578874614401E+01   1.0733676293569186E+01
   1.0675095184722041E+01   1.0616833793576443E+01   1.0558890375211368E+01   1.0501263194229034E+01   1.0443950524702913E+01
   1.0386950650126066E+01   1.0330261863359729E+01   1.0273882466582172E+01   1.0217810771237829E+01   1.0162045097986800E+01
   1.0106583776654473E+01   1.0051425146181538E+01   9.9965675545742414E+00   9.9420093588549125E+00   9.8877489250127439E+00
   9.8337846279548344E+00   9.7801148514575864E+00   9.7267379881182112E+00   9.6736524393066485E+00   9.6208566151176793E+00
   9.5683489343232857E+00   9.5161278243253040E+00   9.4641917211083406E+00   9.4125390691929134E+00   9.3611683215888668E+00
   9.3100779397490356E+00   9.2592663935231840E+00   9.2087321611121720E+00   9.1584737290223526E+00   9.1084895920202751E+00
   9.0587782530875884E+00   9.0093382233762096E+00   8.9601680221637245E+00   8.9112661768090540E+00   8.8626312227083410E+00
   8.8142617032510859E+00   8.7661561697765098E+00   8.7183131815302080E+00   8.6707313056209401E+00   8.6234091169777649E+00
   8.5763451983073349E+00   8.5295381400514536E+00   8.4829865403448661E+00   8.4366890049732532E+00   8.3906441473315088E+00
   8.3448505883821760E+00   8.2993069566141742E+00   8.2540118880016848E+00   8.2089640259633612E+00   8.1641620213216246E+00
   8.1196045322623132E+00   8.0752902242944700E+00   8.0312177702103860E+00   7.9873858500458272E+00   7.9437931510405342E+00
   7.9004383675988876E+00   7.8573202012508050E+00   7.8144373606128550E+00   7.7717885613495827E+00   7.7293725261350428E+00
   7.6871879846145346E+00   7.6452336733665716E+00   7.6035083358650306E+00   7.5620107224415261E+00   7.5207395902479668E+00
   7.4796937032193638E+00   7.4388718320367735E+00   7.3982727540905060E+00   7.3578952534434983E+00   7.3177381207949033E+00
   7.2778001534438532E+00   7.2380801552534653E+00   7.1985769366149999E+00   7.1592893144122378E+00   7.1202161119860437E+00
   7.0813561590991201E+00   7.0427082919009818E+00   7.0042713528930642E+00   6.9660441908940856E+00   6.9280256610055524E+00
   6.8902146245774833E+00   6.8526099491742851E+00   6.8152105085408632E+00   6.7780151825688710E+00   6.7410228572631770E+00
   6.7042324247084739E+00   6.6676427830361451E+00   6.6312528363912060E+00   6.5950614948995305E+00   6.5590676746351821E+00
   6.5232702975879624E+00   6.4876682916311257E+00   6.4522605904892503E+00   6.4170461337063367E+00   6.3820238666140137E+00
   6.3471927402999810E+00   6.3125517115765577E+00   6.2780997429494887E+00   6.2438358025868190E+00   6.2097588642880295E+00
   6.1758679074532852E+00   6.1421619170528725E+00   6.1086398835967932E+00   6.0753008031045406E+00   6.0421436770750239E+00
   6.0091675124566652E+00   5.9763713216176564E+00   5.9437541223163803E+00   5.9113149376719951E+00   5.8790527961351682E+00
   5.8469667314589930E+00   5.8150557826700364E+00   5.7833189940395684E+00   5.7517554150549230E+00   5.7203641003910501E+00
   5.6891441098821920E+00   5.6580945084937246E+00   5.6272143662941492E+00   5.5965027584272669E+00   5.5659587650844378E+00
   5.5355814714770686E+00   5.5053699678091945E+00   5.4753233492502442E+00   5.4454407159079325E+00   5.4157211728012973E+00
   5.3861638298339303E+00   5.3567678017672771E+00   5.3275322081941505E+00   5.2984561735123563E+00   5.2695388268984686E+00
   5.2407793022817417E+00   5.2121767383181865E+00   5.1837302783647603E+00   5.1554390704537196E+00   5.1273022672670860E+00
   5.0993190261113055E+00   5.0714885088919628E+00   5.0438098820887198E+00   5.0162823167303294E+00   4.9889049883698195E+00
   4.9616770770597958E+00   4.9345977673278787E+00   4.9076662481522924E+00   4.8808817129375690E+00   4.8542433594903915E+00
   4.8277503899955603E+00   4.8014020109921169E+00   4.7751974333495601E+00   4.7491358722442261E+00   4.7232165471357748E+00
   4.6974386817438196E+00   4.6718015040246668E+00   4.6463042461482047E+00   4.6209461444749040E+00   4.5957264395329416E+00
   4.5706443759954611E+00   4.5456992026579464E+00   4.5208901724157293E+00   4.4962165422415996E+00   4.4716775731635714E+00
   4.4472725302427367E+00   4.4230006825512618E+00   4.3988613031504835E+00   4.3748536690691573E+00   4.3509770612817880E+00
   4.3272307646871031E+00   4.3036140680866284E+00   4.2801262641634024E+00   4.2567666494607712E+00   4.2335345243613371E+00
   4.2104291930660001E+00   4.1874499635731155E+00   4.1645961476577744E+00   4.1418670608511796E+00   4.1192620224201679E+00
   4.0967803553467954E+00   4.0744213863080834E+00   4.0521844456558371E+00   4.0300688673966034E+00   4.0080739891717068E+00
   3.9861991522374298E+00   3.9644437014452754E+00   3.9428069852223406E+00   3.9212883555518108E+00   3.8998871679535476E+00
   3.8786027814647914E+00   3.8574345586209580E+00   3.8363818654365383E+00   3.8154440713861382E+00   3.7946205493855691E+00
   3.7739106757730783E+00   3.7533138302906619E+00   3.7328293960654988E+00   3.7124567595914688E+00   3.6921953107107828E+00
   3.6720444425956980E+00   3.6520035517303584E+00   3.6320720378927076E+00   3.6122493041365225E+00   3.5925347567735204E+00
   3.5729278053555946E+00   3.5534278626571170E+00   3.5340343446573650E+00   3.5147466705230173E+00   3.4955642625907539E+00
   3.4764865463499746E+00   3.4575129504255817E+00   3.4386429065608661E+00   3.4198758496004786E+00   3.4012112174735298E+00
   3.3826484511767321E+00   3.3641869947576701E+00   3.3458262952981412E+00   3.3275658028976034E+00   3.3094049706567037E+00
   3.2913432546608976E+00   3.2733801139641572E+00   3.2555150105727728E+00   3.2377474094292400E+00   3.2200767783962325E+00
   3.2025025882406730E+00   3.1850243126178617E+00   3.1676414280557359E+00   3.1503534139391851E+00   3.1331597524944548E+00
   3.1160599287736286E+00   3.0990534306392359E+00   3.0821397487488840E+00   3.0653183765400200E+00   3.0485888102147438E+00
   3.0319505487247431E+00   3.0154030937562659E+00   2.9989459497152051E+00   2.9825786237122518E+00   2.9663006255481390E+00
   2.9501114676989553E+00   2.9340106653015448E+00   2.9179977361389868E+00   2.9020722006261508E+00   2.8862335817953357E+00
   2.8704814052819825E+00   2.8548151993104747E+00   2.8392344946799906E+00   2.8237388247504693E+00   2.8083277254286303E+00
   2.7930007351540711E+00   2.7777573948854344E+00   2.7625972480866827E+00   2.7475198407134056E+00   2.7325247211992281E+00
   2.7176114404422873E+00   2.7027795517917772E+00   2.6880286110345781E+00   2.6733581763819476E+00   2.6587678084562918E+00
   2.6442570702780013E+00   2.6298255272523714E+00   2.6154727471565797E+00   2.6011983001267449E+00   2.5870017586450467E+00
   2.5728826975269303E+00   2.5588406939083641E+00   2.5448753272331861E+00   2.5309861792404877E+00   2.5171728339521087E+00
   2.5034348776601707E+00   2.4897718989146824E+00   2.4761834885112224E+00   2.4626692394786773E+00   2.4492287470670622E+00
   2.4358616087353897E+00   2.4225674241396211E+00   2.4093457951206676E+00   2.3961963256924745E+00   2.3831186220301550E+00
   2.3701122924582010E+00   2.3571769474387438E+00   2.3443121995598966E+00   2.3315176635241470E+00   2.3187929561368184E+00
   2.3061376962945905E+00   2.2935515049740909E+00   2.2810340052205382E+00   2.2685848221364573E+00   2.2562035828704485E+00
   2.2438899166060127E+00   2.2316434545504631E+00   2.2194638299238663E+00   2.2073506779480621E+00   2.1953036358357334E+00
   2.1833223427795501E+00   2.1714064399413551E+00   2.1595555704414218E+00   2.1477693793477588E+00   2.1360475136654902E+00
   2.1243896223262744E+00   2.1127953561777937E+00   2.1012643679732985E+00   2.0897963123612011E+00   2.0783908458747398E+00
   2.0670476269216875E+00   2.0557663157741271E+00   2.0445465745582636E+00   2.0333880672443194E+00   2.0222904596364648E+00
   2.0112534193628075E+00   2.0002766158654337E+00   1.9893597203905202E+00   1.9785024059784784E+00   1.9677043474541651E+00
   1.9569652214171414E+00   1.9462847062319908E+00   1.9356624820186834E+00   1.9250982306429969E+00   1.9145916357069872E+00
   1.9041423825395116E+00   1.8937501581868090E+00   1.8834146514031209E+00   1.8731355526413762E+00   1.8629125540439115E+00
   1.8527453494332593E+00   1.8426336343029743E+00   1.8325771058085167E+00   1.8225754627581718E+00   1.8126284056040418E+00
   1.8027356364330713E+00   1.7928968589581198E+00   1.7831117785090882E+00   1.7733801020241027E+00   1.7637015380407270E+00
   1.7540757966872389E+00   1.7445025896739463E+00   1.7349816302845535E+00   1.7255126333675743E+00   1.7160953153277925E+00
   1.7067293941177686E+00   1.6974145892293864E+00   1.6881506216854631E+00   1.6789372140313830E+00   1.6697740903267970E+00
   1.6606609761373479E+00   1.6515975985264615E+00   1.6425836860471650E+00   1.6336189687339642E+00   1.6247031780947461E+00
   1.6158360471027506E+00   1.6070173101885681E+00   1.5982467032321817E+00   1.5895239635550640E+00   1.5808488299123027E+00
   1.5722210424847827E+00   1.5636403428714010E+00   1.5551064740813285E+00   1.5466191805263125E+00   1.5381782080130213E+00
   1.5297833037354351E+00   1.5214342162672738E+00   1.5131306955544546E+00   1.5048724929076234E+00   1.4966593609946930E+00
   1.4884910538334368E+00   1.4803673267841235E+00   1.4722879365421941E+00   1.4642526411309658E+00   1.4562611998943957E+00
   1.4483133734898632E+00   1.4404089238810058E+00   1.4325476143305949E+00   1.4247292093934347E+00   1.4169534749093231E+00
   1.4092201779960276E+00   1.4015290870423152E+00   1.3938799717010188E+00   1.3862726028821359E+00   1.3787067527459593E+00
   1.3711821946962683E+00   1.3636987033735328E+00   1.3562560546481626E+00   1.3488540256138020E+00   1.3414923945806452E+00
   1.3341709410688021E+00   1.3268894458016967E+00   1.3196476906994932E+00   1.3124454588725680E+00   1.3052825346150183E+00
   1.2981587033981918E+00   1.2910737518642719E+00   1.2840274678198802E+00   1.2770196402297227E+00   1.2700500592102739E+00
   1.2631185160234883E+00   1.2562248030705403E+00   1.2493687138856224E+00   1.2425500431297507E+00   1.2357685865846146E+00
   1.2290241411464684E+00   1.2223165048200386E+00   1.2156454767124800E+00   1.2090108570273610E+00   1.2024124470586723E+00
   1.1958500491848796E+00   1.1893234668630090E+00   1.1828325046227517E+00   1.1763769680606182E+00   1.1699566638341086E+00
   1.1635713996559256E+00   1.1572209842882184E+00   1.1509052275368481E+00   1.1446239402456950E+00   1.1383769342909962E+00
   1.1321640225757044E+00   1.1259850190238909E+00   1.1198397385751708E+00   1.1137279971791529E+00   1.1076496117899393E+00
   1.1016044003606367E+00   1.0955921818379031E+00   1.0896127761565246E+00   1.0836660042340296E+00   1.0777516879653140E+00
   1.0718696502173173E+00   1.0660197148237092E+00   1.0602017065796165E+00   1.0544154512363790E+00   1.0486607754963224E+00
   1.0429375070075764E+00   1.0372454743589061E+00   1.0315845070745802E+00   1.0259544356092665E+00   1.0203550913429544E+00
   1.0147863065758962E+00   1.0092479145235957E+00   1.0037397493118074E+00   9.9826164597156541E-01   9.9281344043424546E-01
   9.8739496952665240E-01   9.8200607096612802E-01   9.7664658335569499E-01   9.7131634617921880E-01   9.6601519979660022E-01
   9.6074298543899850E-01   9.5549954520406744E-01   9.5028472205123438E-01   9.4509835979698875E-01   9.3994030311020726E-01
   9.3481039750750328E-01   9.2970848934859462E-01   9.2463442583170352E-01   9.1958805498898122E-01   9.1456922568195198E-01
   9.0957778759699059E-01   9.0461359124081397E-01   8.9967648793600619E-01   8.9476632981656556E-01   8.8988296982347492E-01
   8.8502626170028975E-01   8.8019605998876715E-01   8.7539222002450223E-01   8.7061459793259188E-01   8.6586305062333246E-01
   8.6113743578792445E-01   8.5643761189421330E-01   8.5176343818245071E-01   8.4711477466107343E-01   8.4249148210251024E-01
   8.3789342203901462E-01   8.3332045675850741E-01   8.2877244930046090E-01   8.2424926345178595E-01   8.1975076374275557E-01
   8.1527681544294561E-01   8.1082728455719710E-01   8.0640203782159592E-01   8.0200094269948852E-01   7.9762386737750446E-01
   7.9327068076160490E-01   7.8894125247315861E-01   7.8463545284503089E-01   7.8035315291769725E-01   7.7609422443538245E-01
   7.7185853984221053E-01   7.6764597227838460E-01   7.6345639557638600E-01   7.5928968425718735E-01   7.5514571352649607E-01
   7.5102435927100974E-01   7.4692549805469566E-01   7.4284900711509305E-01   7.3879476435962854E-01   7.3476264836195615E-01
   7.3075253835831955E-01   7.2676431424392485E-01   7.2279785656934503E-01   7.1885304653693416E-01   7.1492976599726121E-01
   7.1102789744557415E-01   7.0714732401826974E-01   7.0328792948938801E-01   6.9944959826712627E-01   6.9563221539037357E-01
   6.9183566652525574E-01   6.8805983796171089E-01   6.8430461661007169E-01   6.8056988999767365E-01   6.7685554626548083E-01
   6.7316147416472416E-01   6.6948756305356616E-01   6.6583370289377519E-01   6.6219978424742287E-01   6.5858569827359892E-01
   6.5499133672514276E-01   6.5141659194538570E-01   6.4786135686492607E-01   6.4432552499840812E-01   6.4080899044132011E-01
   6.3731164786681460E-01   6.3383339252254411E-01   6.3037412022750750E-01   6.2693372736892305E-01   6.2351211089910841E-01
   6.2010916833238339E-01   6.1672479774198963E-01   6.1335889775701813E-01   6.1001136755936636E-01   6.0668210688069746E-01
   6.0337101599942577E-01   6.0007799573771381E-01   5.9680294745848672E-01   5.9354577306245604E-01   5.9030637498517213E-01
   5.8708465619407724E-01   5.8388052018558634E-01   5.8069387098217284E-01   5.7752461312947667E-01   5.7437265169342577E-01
   5.7123789225737076E-01   5.6812024091923219E-01   5.6501960428867171E-01   5.6193588948426709E-01   5.5886900413070717E-01
   5.5581885635600226E-01   5.5278535478870383E-01   5.4976840855514342E-01   5.4676792727668444E-01   5.4378382106698420E-01
   5.4081600052927492E-01   5.3786437675365606E-01   5.3492886131439887E-01   5.3200936626726858E-01   5.2910580414685460E-01
   5.2621808796391778E-01   5.2334613120275153E-01   5.2048984781855323E-01   5.1764915223480878E-01   5.1482395934069214E-01
   5.1201418448847691E-01   5.0921974349095878E-01   5.0644055261889409E-01   5.0367652859844592E-01   5.0092758860864661E-01
   4.9819365027887197E-01   4.9547463168632472E-01   4.9277045135353237E-01   4.9008102824585809E-01   4.8740628176901885E-01
   4.8474613176662096E-01   4.8210049851770131E-01   4.7946930273428440E-01   4.7685246555894945E-01   4.7424990856240828E-01
   4.7166155374109203E-01   4.6908732351475330E-01   4.6652714072407775E-01   4.6398092862830170E-01   4.6144861090284861E-01
   4.5893011163696751E-01   4.5642535533138778E-01   4.5393426689598299E-01   4.5145677164744075E-01   4.4899279530694813E-01
   4.4654226399788466E-01   4.4410510424352212E-01   4.4168124296473993E-01   4.3927060747774349E-01   4.3687312549179685E-01
   4.3448872510696263E-01   4.3211733481184922E-01   4.2975888348137142E-01   4.2741330037451430E-01   4.2508051513210943E-01
   4.2276045777462007E-01   4.2045305869993255E-01   4.1815824868115364E-01   4.1587595886442413E-01   4.1360612076673231E-01
   4.1134866627373795E-01   4.0910352763760438E-01   4.0687063747483981E-01   4.0464992876414069E-01   4.0244133484424882E-01
   4.0024478941181002E-01   3.9806022651924294E-01   3.9588758057261475E-01   3.9372678632951974E-01   3.9157777889697026E-01
   3.8944049372928791E-01   3.8731486662600473E-01   3.8520083372976999E-01   3.8309833152426209E-01   3.8100729683210266E-01
   3.7892766681278467E-01   3.7685937896059801E-01   3.7480237110256209E-01   3.7275658139636514E-01   3.7072194832830890E-01
   3.6869841071125287E-01   3.6668590768257009E-01   3.6468437870210058E-01   3.6269376355011296E-01   3.6071400232527029E-01
   3.5874503544259456E-01   3.5678680363144188E-01   3.5483924793347482E-01   3.5290230970064029E-01   3.5097593059315307E-01
   3.4906005257747541E-01   3.4715461792430563E-01   3.4525956920656692E-01   3.4337484929739465E-01   3.4150040136813314E-01
   3.3963616888632525E-01   3.3778209561371014E-01   3.3593812560422093E-01   3.3410420320198042E-01   3.3228027303930030E-01
   3.3046628003468026E-01   3.2866216939080845E-01   3.2686788659255933E-01   3.2508337740499504E-01   3.2330858787136296E-01
   3.2154346431109465E-01   3.1978795331780507E-01   3.1804200175728697E-01   3.1630555676550742E-01   3.1457856574660226E-01
   3.1286097637086607E-01   3.1115273657274445E-01   3.0945379454881938E-01   3.0776409875579508E-01   3.0608359790848044E-01
   3.0441224097776748E-01   3.0274997718860630E-01   3.0109675601797709E-01   2.9945252719285903E-01   2.9781724068819210E-01
   2.9619084672483748E-01   2.9457329576753055E-01   2.9296453852283033E-01   2.9136452593706397E-01   2.8977320919426286E-01
   2.8819053971409536E-01   2.8661646914979322E-01   2.8505094938606812E-01   2.8349393253702604E-01   2.8194537094406974E-01
   2.8040521717379691E-01   2.7887342401588949E-01   2.7734994448099282E-01   2.7583473179859008E-01   2.7432773941486360E-01
   2.7282892099054984E-01   2.7133823039878385E-01   2.6985562172293420E-01   2.6838104925442496E-01   2.6691446749055214E-01
   2.6545583113228499E-01   2.6400509508205627E-01   2.6256221444154282E-01   2.6112714450943358E-01   2.5969984077918262E-01
   2.5828025893675316E-01   2.5686835485834542E-01   2.5546408460811210E-01   2.5406740443586073E-01   2.5267827077473953E-01
   2.5129664023891146E-01   2.4992246962120987E-01   2.4855571589078129E-01   2.4719633619071199E-01   2.4584428783563747E-01
   2.4449952830933411E-01   2.4316201526229814E-01   2.4183170650930258E-01   2.4050856002693843E-01   2.3919253395113738E-01
   2.3788358657467676E-01   2.3658167634466354E-01   2.3528676186000141E-01   2.3399880186883518E-01   2.3271775526597785E-01
   2.3144358109031593E-01   2.3017623852219260E-01   2.2891568688077196E-01   2.2766188562137926E-01   2.2641479433282052E-01
   2.2517437273467925E-01   2.2394058067459044E-01   2.2271337812548930E-01   2.2149272518284085E-01   2.2027858206184142E-01
   2.1907090909459662E-01   2.1786966672727676E-01   2.1667481551724449E-01   2.1548631613015956E-01   2.1430412933705598E-01
   2.1312821601139378E-01   2.1195853712608492E-01   2.1079505375049298E-01   2.0963772704740385E-01   2.0848651826997244E-01
   2.0734138875863908E-01   2.0620229993801975E-01   2.0506921331376940E-01   2.0394209046941436E-01   2.0282089306315948E-01
   2.0170558282466544E-01   2.0059612155179715E-01   1.9949247110734511E-01   1.9839459341571580E-01   1.9730245045959510E-01
   1.9621600427658228E-01   1.9513521695579497E-01   1.9406005063444468E-01   1.9299046749438475E-01   1.9192642975862953E-01
   1.9086789968784293E-01   1.8981483957680201E-01   1.8876721175082883E-01   1.8772497856219650E-01   1.8668810238650801E-01
   1.8565654561904510E-01   1.8463027067109303E-01   1.8360923996623799E-01   1.8259341593663730E-01   1.8158276101926688E-01
   1.8057723765214095E-01   1.7957680827051017E-01   1.7858143530303552E-01   1.7759108116794023E-01   1.7660570826913902E-01
   1.7562527899234848E-01   1.7464975570117813E-01   1.7367910073320142E-01   1.7271327639601231E-01   1.7175224496326458E-01
   1.7079596867069788E-01   1.6984440971215226E-01   1.6889753023556989E-01   1.6795529233898987E-01   1.6701765806653593E-01
   1.6608458940439794E-01   1.6515604827681304E-01   1.6423199654204454E-01   1.6331239598836408E-01   1.6239720833003990E-01
   1.6148639520333019E-01   1.6057991816249037E-01   1.5967773867579207E-01   1.5877981812156064E-01   1.5788611778423364E-01
   1.5699659885044398E-01   1.5611122240513015E-01   1.5522994942768256E-01   1.5435274078812425E-01   1.5347955724333415E-01
   1.5261035943331802E-01   1.5174510787753059E-01   1.5088376297125428E-01   1.5002628498204251E-01   1.4917263404622988E-01
   1.4832277016551842E-01   1.4747665320364603E-01   1.4663424288314122E-01   1.4579549878217560E-01   1.4496038033151737E-01
   1.4412884681159674E-01   1.4330085734969017E-01   1.4247637091723137E-01   1.4165534632725799E-01   1.4083774223200618E-01
   1.4002351712065761E-01   1.3921262931725265E-01   1.3840503697877957E-01   1.3760069809345007E-01   1.3679957047917141E-01
   1.3600161178223011E-01   1.3520677947619522E-01   1.3441503086105719E-01   1.3362632306261435E-01   1.3284061303211916E-01
   1.3205785754620111E-01   1.3127801320707780E-01   1.3050103644307198E-01   1.2972688350944797E-01   1.2895551048958542E-01
   1.2818687329650444E-01   1.2742092767476307E-01   1.2665762920273915E-01   1.2589693329532115E-01   1.2513879520702245E-01
   1.2438317003553669E-01   1.2363001272576098E-01   1.2287927807429805E-01   1.2213092073446453E-01   1.2138489522182569E-01
   1.2064115592027373E-01   1.1989965708867724E-01   1.1916035286812293E-01   1.1842319728976859E-01   1.1768814428333708E-01
   1.1695514768626963E-01   1.1622416125356586E-01   1.1549513866833365E-01   1.1476803355307294E-01   1.1404279948171984E-01
   1.1331938999247569E-01   1.1259775860144473E-01   1.1187785881710906E-01   1.1115964415566243E-01   1.1044306815723136E-01
   1.0972808440300785E-01   1.0901464653331737E-01   1.0830270826664991E-01   1.0759222341967568E-01   1.0688314592827193E-01
   1.0617542986958356E-01   1.0546902948513980E-01   1.0476389920505100E-01   1.0405999367330607E-01   1.0335726777419008E-01
   1.0265567665984467E-01   1.0195517577898415E-01   1.0125572090679059E-01   1.0055726817599898E-01   9.9859774109184923E-02
   9.9163195652273564E-02   9.8467490209269953E-02   9.7772615678227398E-02   9.7078530488454565E-02   9.6385193638962502E-02
   9.5692564738157196E-02   9.5000604044770787E-02   9.4309272510023731E-02   9.3618531821015510E-02   9.2928344445322095E-02
   9.2238673676790284E-02   9.1549483682506400E-02   9.0860739550911035E-02   9.0172407341036404E-02   8.9484454132826907E-02
   8.8796848078507837E-02   8.8109558454956771E-02   8.7422555717027686E-02   8.6735811551775108E-02   8.6049298933516996E-02
   8.5362992179668834E-02   8.4676867007280096E-02   8.3990900590190487E-02   8.3305071616724763E-02   8.2619360347833404E-02
   8.1933748675580273E-02   8.1248220181875122E-02   8.0562760197338421E-02   7.9877355860179508E-02   7.9191996174965890E-02
   7.8506672071149211E-02   7.7821376461211747E-02   7.7136104298287655E-02   7.6450852633106303E-02   7.5765620670103145E-02
   7.5080409822528338E-02   7.4395223766390017E-02   7.3710068493051784E-02   7.3024952360302750E-02   7.2339886141719087E-02
   7.1654883074122641E-02   7.0969958902940583E-02   7.0285131925275190E-02   6.9600423030473577E-02   6.8915855738000978E-02
   6.8231456232411419E-02   6.7547253395205925E-02   6.6863278833378711E-02   6.6179566904441114E-02   6.5496154737722259E-02
   6.4813082251746729E-02   6.4130392167487102E-02   6.3448130017303372E-02   6.2766344149381106E-02   6.2085085727483044E-02
   6.1404408725847549E-02   6.0724369919064117E-02   6.0045028866774722E-02   5.9366447893056451E-02   5.8688692060352703E-02
   5.8011829137837388E-02   5.7335929564106387E-02   5.6661066404107313E-02   5.5987315300237733E-02   5.5314754417553944E-02
   5.4643464383056436E-02   5.3973528219033479E-02   5.3305031270464383E-02   5.2638061126508678E-02   5.1972707536121890E-02
   5.1309062317867721E-02   5.0647219264013867E-02   4.9987274039021971E-02   4.9329324072567772E-02   4.8673468447247750E-02
   4.8019807781150850E-02   4.7368444105501825E-02   4.6719480737595118E-02   4.6073022149273883E-02   4.5429173831217647E-02
   4.4788042153326761E-02   4.4149734221519805E-02   4.3514357731262276E-02   4.2882020818179267E-02   4.2252831906113002E-02
   4.1626899552997733E-02   4.1004332294948320E-02   4.0385238488963825E-02   3.9769726154654780E-02   3.9157902815422356E-02
   3.8549875339511618E-02   3.7945749781375285E-02   3.7345631223782386E-02   3.6749623621106675E-02   3.6157829644232739E-02
   3.5570350527507885E-02   3.4987285918168673E-02   3.4408733728659706E-02   3.3834789992252985E-02   3.3265548722367463E-02
   3.2701101775972803E-02   3.2141538721445422E-02   3.1586946711232515E-02   3.1037410359655428E-02   3.0493011626169141E-02
   2.9953829704370622E-02   2.9419940917025475E-02   2.8891418617362101E-02   2.8368333096855165E-02   2.7850751499694452E-02
   2.7338737744112801E-02   2.6832352450715097E-02   2.6331652877928397E-02   2.5836692864663197E-02   2.5347522780248554E-02
   2.4864189481680857E-02   2.4386736278192236E-02   2.3915202903127476E-02   2.3449625493085251E-02   2.2990036574256030E-02
   2.2536465055870418E-02   2.2088936230641332E-02   2.1647471782063610E-02   2.1212089798419296E-02   2.0782804793306475E-02
   2.0359627732501773E-02   1.9942566066944216E-02   1.9531623771610673E-02   1.9126801390046189E-02   1.8728096084291868E-02
   1.8335501689947721E-02   1.7949008776095489E-02   1.7568604709798298E-02   1.7194273724889467E-02   1.6825996994755690E-02
   1.6463752708816198E-02   1.6107516152399554E-02   1.5757259789715223E-02   1.5412953349620971E-02   1.5074563913886667E-02
   1.4742056007657824E-02   1.4415391691828287E-02   1.4094530657033266E-02   1.3779430318982976E-02   1.3470045914861983E-02
   1.3166330600527144E-02   1.2868235548246839E-02   1.2575710044731701E-02   1.2288701589216746E-02   1.2007155991366571E-02
   1.1731017468783113E-02   1.1460228743909010E-02   1.1194731140129036E-02   1.0934464676883448E-02   1.0679368163619923E-02
   1.0429379292420909E-02   1.0184434729154816E-02   9.9444702030128326E-03   9.7094205943010509E-03   9.4792200203734668E-03
   9.2538019195985022E-03   9.0330991332637778E-03   8.8170439853371523E-03   8.6055683600070841E-03   8.3986037769406639E-03
   8.1960814642045750E-03   7.9979324288027565E-03   7.8040875247963439E-03   7.6144775189779523E-03   7.4290331540796499E-03
   7.2476852095048235E-03   7.0703645595777929E-03   6.8970022293145588E-03   6.7275294477231037E-03   6.5618776986477471E-03
   6.3999787691785852E-03   6.2417647956506794E-03   6.0871683072639187E-03   5.9361222673578670E-03   5.7885601123799230E-03
   5.6444157885894054E-03   5.5036237865426522E-03   5.3661191734071826E-03   5.2318376231562354E-03   5.1007154446959663E-03
   4.9726896079807610E-03   4.8476977681729105E-03   4.7256782879042314E-03   4.6065702576990625E-03   4.4903135146176715E-03
   4.3768486591809035E-03   4.2661170706364687E-03   4.1580609206275368E-03   4.0526231853247642E-03   3.9497476560821487E-03
   3.8493789486767778E-03   3.7514625111927193E-03   3.6559446306072834E-03   3.5627724381389666E-03   3.4718939134138708E-03
   3.3832578875069410E-03   3.2968140449141617E-03   3.2125129245093834E-03   3.1303059195387181E-03   3.0501452767051629E-03
   2.9719840943928030E-03   2.8957763200805784E-03   2.8214767469931729E-03   2.7490410100348400E-03   2.6784255810518381E-03
   2.6095877634662156E-03   2.5424856863233351E-03   2.4770782977934819E-03   2.4133253581664830E-03   2.3511874323771361E-03
   2.2906258820974438E-03   2.2316028574302566E-03   2.1740812882378498E-03   2.1180248751369955E-03   2.0633980801912843E-03
   2.0101661173297326E-03   1.9582949425194043E-03   1.9077512437187993E-03   1.8585024306369898E-03   1.8105166243227516E-03
   1.7637626466064074E-03   1.7182100094159621E-03   1.6738289039881910E-03   1.6305901899940007E-03   1.5884653845963448E-03
   1.5474266514581790E-03   1.5074467897165521E-03   1.4684992229383642E-03   1.4305579880721363E-03   1.3935977244092655E-03
   1.3575936625675577E-03   1.3225216135088176E-03   1.2883579576014879E-03   1.2550796337388267E-03   1.2226641285218896E-03
   1.1910894655165270E-03   1.1603341945924015E-03   1.1303773813515186E-03   1.1011985966535901E-03   1.0727779062441735E-03
   1.0450958604917692E-03   1.0181334842391228E-03   9.9187226677337854E-04   9.6629415191966720E-04   9.4138152826199115E-04
   9.1711721949470253E-04   8.9348447490795145E-04   8.7046696000955836E-04   8.4804874728582687E-04   8.2621430710323176E-04
   8.0494849875267251E-04   7.8423656163775562E-04   7.6406410660813699E-04   7.4441710743884443E-04   7.2528189245617432E-04
   7.0664513631048525E-04   6.8849385189613099E-04   6.7081538241844018E-04   6.5359739360749925E-04   6.3682786607839636E-04
   6.2049508783728387E-04   6.0458764693260099E-04   5.8909442425058461E-04   5.7400458645404562E-04   5.5930757906338621E-04
   5.4499311967855333E-04   5.3105119134070201E-04   5.1747203603212059E-04   5.0424614831293027E-04   4.9136426909303160E-04
   4.7881737953766110E-04   4.6659669510483643E-04   4.5469365971303371E-04   4.4309994003718624E-04   4.3180741993131556E-04
   4.2080819497583105E-04   4.1009456714760439E-04   3.9965903961096638E-04   3.8949431162762290E-04   3.7959327358349853E-04
   3.6994900213064625E-04   3.6055475544208721E-04   3.5140396857770206E-04   3.4249024895914224E-04   3.3380737195171529E-04
   3.2534927655133192E-04   3.1711006117445277E-04   3.0908397954909183E-04   3.0126543670489295E-04   2.9364898506029671E-04
   2.8622932060488047E-04   2.7900127917491530E-04   2.7195983282021817E-04   2.6510008626042143E-04   2.5841727342874909E-04
   2.5190675410146279E-04   2.4556401061113294E-04   2.3938464464189193E-04   2.3336437410494045E-04   2.2749903009243873E-04
   2.2178455390813785E-04   2.1621699417298184E-04   2.1079250400395994E-04   2.0550733826460620E-04   2.0035785088547308E-04
   1.9534049225292666E-04   1.9045180666475990E-04   1.8568842985098704E-04   1.8104708655832227E-04   1.7652458819684435E-04
   1.7211783054734518E-04   1.6782379152792266E-04   1.6363952901841350E-04   1.5956217874123725E-04   1.5558895219731247E-04
   1.5171713465568222E-04   1.4794408319556264E-04   1.4426722479949592E-04   1.4068405449636570E-04   1.3719213355304678E-04
   1.3378908771346300E-04   1.3047260548387820E-04   1.2724043646327905E-04   1.2409038971769151E-04   1.2102033219734055E-04
   1.1802818719557640E-04   1.1511193284849120E-04   1.1226960067420813E-04   1.0949927415082127E-04   1.0679908733201253E-04
   1.0416722349936515E-04   1.0160191385043688E-04   9.9101436221689100E-05   9.6664113845336229E-05   9.4288314139278598E-05
   9.1972447529242458E-05   8.9714966302279026E-05   8.7514363490834589E-05   8.5369171786581381E-05   8.3277962483217064E-05
   8.1239344447509062E-05   7.9251963117812923E-05   7.7314499529358306E-05   7.5425669365601525E-05   7.3584222034948538E-05
   7.1788939772188113E-05   7.0038636763977249E-05   6.8332158297751151E-05   6.6668379933428312E-05   6.5046206697310283E-05
   6.3464572297594461E-05   6.1922438360913711E-05   6.0418793689350926E-05   5.8952653537386643E-05   5.7523058908240622E-05
   5.6129075869093767E-05   5.4769794884692319E-05   5.3444330168832723E-05   5.2151819053255539E-05   5.0891421373484788E-05
   4.9662318871151997E-05   4.8463714612368981E-05   4.7294832421715303E-05   4.6154916331426555E-05   4.5043230045369143E-05
   4.3959056417406151E-05   4.2901696943775106E-05   4.1870471269084470E-05   4.0864716705580125E-05   3.9883787765315901E-05
   3.8927055704875949E-05   3.7993908082322079E-05   3.7083748326031204E-05   3.6195995315095331E-05   3.5330082970987234E-05
   3.4485459860174048E-05   3.3661588807389959E-05   3.2857946519281126E-05   3.2074023218138388E-05   3.1309322285448980E-05
   3.0563359914999597E-05   2.9835664775276115E-05   2.9125777680904645E-05   2.8433251272891454E-05   2.7757649707425096E-05
   2.7098548353009210E-05   2.6455533495695568E-05   2.5828202052207672E-05   2.5216161290733560E-05   2.4619028559183294E-05
   2.4036431020711640E-05   2.3468005396304927E-05   2.2913397714244996E-05   2.2372263066261329E-05   2.1844265370194185E-05
   2.1329077138988575E-05   2.0826379255850253E-05   2.0335860755398135E-05   1.9857218610648511E-05   1.9390157525674521E-05
   1.8934389733789510E-05   1.8489634801101606E-05   1.8055619435296414E-05   1.7632077299507500E-05   1.7218748831135036E-05
   1.6815381065479902E-05   1.6421727464065058E-05   1.6037547747514493E-05   1.5662607732869491E-05   1.5296679175220479E-05
   1.4939539613540612E-05   1.4590972220604881E-05   1.4250765656886160E-05   1.3918713928322537E-05   1.3594616247847242E-05
   1.3278276900584819E-05   1.2969505112612650E-05   1.2668114923189739E-05   1.2373925060363734E-05   1.2086758819862964E-05
   1.1806443947183503E-05   1.1532812522789669E-05   1.1265700850340404E-05   1.1004949347861735E-05   1.0750402441787203E-05
   1.0501908463787194E-05   1.0259319550314103E-05   1.0022491544789203E-05   9.7912839023619346E-06   9.5655595971709196E-06
   9.3451850320405431E-06   9.1300299505485473E-06   8.9199673513998029E-06   8.7148734050451326E-06   8.5146273724859999E-06
   8.3191115262050643E-06   8.1282110731667310E-06   7.9418140798327256E-06   7.7598113991378522E-06   7.5820965993745366E-06
   7.4085658949345008E-06   7.2391180788590816E-06   7.0736544571488313E-06   6.9120787847859707E-06   6.7542972034248039E-06
   6.6002181807044674E-06   6.4497524511414622E-06   6.3028129585607746E-06   6.1593148000225903E-06   6.0191751712072145E-06
   5.8823133132183929E-06   5.7486504607665614E-06   5.6181097916972539E-06   5.4906163778279561E-06   5.3660971370580551E-06
   5.2444807867200296E-06   5.1256977981372640E-06   5.0096803523573534E-06   4.8963622970300936E-06   4.7856791043991069E-06
   4.6775678303783674E-06   4.5719670746845299E-06   4.4688169419977818E-06   4.3680590041233768E-06   4.2696362631278297E-06
   4.1734931154244453E-06   4.0795753167824625E-06   3.9878299482359317E-06   3.8982053828688945E-06   3.8106512534532442E-06
   3.7251184209171758E-06   3.6415589436227181E-06   3.5599260474304559E-06   3.4801740965313859E-06   3.4022585650253423E-06
   3.3261360092269780E-06   3.2517640406796342E-06   3.1791012998589142E-06   3.1081074305480909E-06   3.0387430548673409E-06
   2.9709697489399634E-06   2.9047500191791824E-06   2.8400472791788561E-06   2.7768258271926314E-06   2.7150508241863540E-06
   2.6546882724484120E-06   2.5957049947437022E-06   2.5380686139972554E-06   2.4817475334933508E-06   2.4267109175770506E-06
   2.3729286728448599E-06   2.3203714298121613E-06   2.2690105250446269E-06   2.2188179837418043E-06   2.1697665027613985E-06
   2.1218294340721579E-06   2.0749807686250296E-06   2.0291951206314360E-06   1.9844477122378336E-06   1.9407143585869397E-06
   1.8979714532553158E-06   1.8561959540573277E-06   1.8153653692066744E-06   1.7754577438257063E-06   1.7364516467937825E-06
   1.6983261579260872E-06   1.6610608554740971E-06   1.6246358039396939E-06   1.5890315421946636E-06   1.5542290718979805E-06
   1.5202098462029563E-06   1.4869557587469811E-06   1.4544491329166622E-06   1.4226727113811506E-06   1.3916096458868444E-06
   1.3612434873069256E-06   1.3315581759389725E-06   1.3025380320444528E-06   1.2741677466239650E-06   1.2464323724220627E-06
   1.2193173151559220E-06   1.1928083249620735E-06   1.1668914880557501E-06   1.1415532185973021E-06   1.1167802507604558E-06
   1.0925596309973991E-06   1.0688787104954926E-06   1.0457251378208605E-06   1.0230868517441892E-06   1.0009520742438562E-06
   9.7930930368218325E-07   9.5814730815031708E-07   9.3745511897730318E-07   9.1722202439949625E-07   8.9743756338608172E-07
   8.7809151961666926E-07   8.5917391560738414E-07   8.4067500698146261E-07   8.2258527688079814E-07   8.0489543051495374E-07
   7.8759638984403298E-07   7.7067928839216326E-07   7.5413546618821127E-07   7.3795646483064170E-07   7.2213402267327229E-07
   7.0666007012895933E-07   6.9152672508828140E-07   6.7672628845025930E-07   6.6225123976233319E-07   6.4809423296692181E-07
   6.3424809225178718E-07   6.2070580800167039E-07   6.0746053284868909E-07   5.9450557781895697E-07   5.8183440857307853E-07
   5.6944064173813949E-07   5.5731804132896267E-07   5.4546051525633581E-07   5.3386211192007236E-07   5.2251701688483960E-07
   5.1141954963660864E-07   5.0056416041777267E-07   4.8994542713899578E-07   4.7955805236583365E-07   4.6939686037829164E-07
   4.5945679430155144E-07   4.4973291330602943E-07   4.4022038987509148E-07   4.3091450713876541E-07   4.2181065627176855E-07
   4.1290433395429802E-07   4.0419113989400799E-07   3.9566677440769945E-07   3.8732703606119994E-07   3.7916781936601464E-07
   3.7118511253140204E-07   3.6337499527038871E-07   3.5573363665852643E-07   3.4825729304402723E-07   3.4094230600797882E-07
   3.3378510037349239E-07   3.2678218226254214E-07   3.1993013719927144E-07   3.1322562825873837E-07   3.0666539425988464E-07
   3.0024624800168973E-07   2.9396507454146333E-07   2.8781882951420843E-07   2.8180453749208050E-07   2.7591929038294123E-07
   2.7016024586708070E-07   2.6452462587114113E-07   2.5900971507834924E-07   2.5361285947419223E-07   2.4833146492663548E-07
   2.4316299580006246E-07   2.3810497360212619E-07   2.3315497566268627E-07   2.2831063384405960E-07   2.2356963328184757E-07
   2.1892971115555697E-07   2.1438865548832521E-07   2.0994430397501902E-07   2.0559454283804851E-07   2.0133730571019119E-07
   1.9717057254379139E-07   1.9309236854570381E-07   1.8910076313733872E-07   1.8519386893920840E-07   1.8136984077940980E-07
   1.7762687472540754E-07   1.7396320713861939E-07   1.7037711375122100E-07   1.6686690876462047E-07   1.6343094396911880E-07
   1.6006760788422927E-07   1.5677532491913256E-07   1.5355255455283778E-07   1.5039779053352670E-07   1.4730956009664379E-07
   1.4428642320128645E-07   1.4132697178443968E-07   1.3842982903264160E-07   1.3559364867065333E-07   1.3281711426673836E-07
   1.3009893855413916E-07   1.2743786276836961E-07   1.2483265599995639E-07   1.2228211456224059E-07   1.1978506137389275E-07
   1.1734034535579355E-07   1.1494684084192620E-07   1.1260344700395142E-07   1.1030908728914945E-07   1.0806270887139250E-07
   1.0586328211485401E-07   1.0370980005013952E-07   1.0160127786255893E-07   9.9536752392235428E-08   9.7515281645779411E-08
   9.5535944319257171E-08   9.3597839332176186E-08   9.1700085372230043E-08   8.9841820450560582E-08   8.8022201467261140E-08
   8.6240403786908897E-08   8.4495620823874354E-08   8.2787063637168533E-08   8.1113960534626809E-08   7.9475556686184336E-08
   7.7871113746047756E-08   7.6299909483541360E-08   7.4761237422426888E-08   7.3254406488504593E-08   7.1778740665289039E-08
   7.0333578657576351E-08   6.8918273562723923E-08   6.7532192549442712E-08   6.6174716543947695E-08   6.4845239923283809E-08
