DATE: 2024-05-26 UNITS: metal CONTRIBUTOR: Xiaowang Zhou xzhou@sandia.gov, Lucas Hale lucas.hale@nist.gov, and Germain Clavier g.m.g.c.clavier@tue.nl/germain.clavier@gmail.com
 CITATION: X. W. Zhou, R. A. Johnson, H. N. G. Wadley, Phys. Rev. B, 69, 144113(2004)
Generated by create_eam.py
2     Cu Fe                   
2000  6.1763741613720766e-02   2000  2.8593056495756970e-03   5.7157519935018186e+00  
   29        63.54600         3.61496      fcc
   0.0000000000000000E+00  -1.6752892883171722E-02  -3.3422579957273046E-02  -5.0009259426978092E-02  -6.6513129496961754E-02
  -8.2934388371899703E-02  -9.9273234256466836E-02  -1.1552986535533771E-01  -1.3170447987318779E-01  -1.4779727601469217E-01
  -1.6380845198452643E-01  -1.7973820598736434E-01  -1.9558673622788147E-01  -2.1135424091075317E-01  -2.2704091824065498E-01
  -2.4264696642226069E-01  -2.5817258366024609E-01  -2.7361796815928596E-01  -2.8898331812405598E-01  -3.0426883175923047E-01
  -3.1947470726948468E-01  -3.3460114285949372E-01  -3.4964833673393281E-01  -3.6461648709747652E-01  -3.7950579215480063E-01
  -3.9431645011057925E-01  -4.0904865916948796E-01  -4.2370261753620253E-01  -4.3827852341539697E-01  -4.5277657501174662E-01
  -4.6719697052992670E-01  -4.8153990817461145E-01  -4.9580558615047710E-01  -5.0999420266219808E-01  -5.2410595591444942E-01
  -5.3814104411190711E-01  -5.5209966545924460E-01  -5.6598201816113769E-01  -5.7978830042226215E-01  -5.9351871044729165E-01
  -6.0717344644090243E-01  -6.2075270660776904E-01  -6.3425668915256617E-01  -6.4768559227996947E-01  -6.6103961419465374E-01
  -6.7431895310129408E-01  -6.8752380720456563E-01  -7.0065437470914360E-01  -7.1371085381970223E-01  -7.2669344274091729E-01
  -7.3960233967746403E-01  -7.5243774283401654E-01  -7.6519985041525085E-01  -7.7788886062584117E-01  -7.9050497167046374E-01
  -8.0304838175379234E-01  -8.1551928908050264E-01  -8.2791789185526943E-01  -8.4024438828276860E-01  -8.5249897656767415E-01
  -8.6468185491466132E-01  -8.7679322152840544E-01  -8.8883327461358197E-01  -9.0080221237486491E-01  -9.1270023301692993E-01
  -9.2452753474445226E-01  -9.3628431576210669E-01  -9.4797077427456833E-01  -9.5958710848651219E-01  -9.7113351660261316E-01
  -9.8261019682754647E-01  -9.9401734736598746E-01  -1.0053551664226106E+00  -1.0166238522020914E+00  -1.0278236029091041E+00
  -1.0389546167483252E+00  -1.0500170919244285E+00  -1.0610112266420895E+00  -1.0719372191059839E+00  -1.0827952675207853E+00
  -1.0935855700911699E+00  -1.1043083250218124E+00  -1.1149637305173878E+00  -1.1255519847825708E+00  -1.1360732860220373E+00
  -1.1465278324404617E+00  -1.1569158222425193E+00  -1.1672374536328856E+00  -1.1774929248162342E+00  -1.1876824339972420E+00
  -1.1978061793805825E+00  -1.2078643591709319E+00  -1.2178571715729647E+00  -1.2277848147913553E+00  -1.2376474870307805E+00
  -1.2474453864959134E+00  -1.2571787113914301E+00  -1.2668476599220062E+00  -1.2764524302923157E+00  -1.2859932207070339E+00
  -1.2954702293708362E+00  -1.3048836544883968E+00  -1.3142336942643920E+00  -1.3235205469034956E+00  -1.3327444106103838E+00
  -1.3419054835897313E+00  -1.3510039640462124E+00  -1.3600400501845027E+00  -1.3690139402092782E+00  -1.3779258323252122E+00
  -1.3867759247369806E+00  -1.3955644156492584E+00  -1.4042915032667207E+00  -1.4129573857940427E+00  -1.4215622614358994E+00
  -1.4301063283969657E+00  -1.4385897848819167E+00  -1.4470128290954269E+00  -1.4553756592421725E+00  -1.4636784735268278E+00
  -1.4719214701540677E+00  -1.4801048473285678E+00  -1.4882288032550026E+00  -1.4962935361380476E+00  -1.5042992441823784E+00
  -1.5122461255926685E+00  -1.5201343785735939E+00  -1.5279642013298294E+00  -1.5357357920660504E+00  -1.5434493489869321E+00
  -1.5511050702971487E+00  -1.5587031542013756E+00  -1.5662437989042883E+00  -1.5737272026105613E+00  -1.5811535635248701E+00
  -1.5885230798518899E+00  -1.5958359497962951E+00  -1.6030923715627610E+00  -1.6102925433559629E+00  -1.6174366633805750E+00
  -1.6245249298412741E+00  -1.6315575409427332E+00  -1.6385346948896287E+00  -1.6454565898866351E+00  -1.6523234241384275E+00
  -1.6591353958496817E+00  -1.6658927032250714E+00  -1.6725955444692726E+00  -1.6792441177869601E+00  -1.6858386213828092E+00
  -1.6923792534614948E+00  -1.6988662122276914E+00  -1.7052996958860747E+00  -1.7116799026413194E+00  -1.7180070306981010E+00
  -1.7242812782610941E+00  -1.7305028435349743E+00  -1.7366719247244160E+00  -1.7427887200340944E+00  -1.7488534276686847E+00
  -1.7548662458328623E+00  -1.7608273727313015E+00  -1.7667370065686776E+00  -1.7725953455496657E+00  -1.7784025878789413E+00
  -1.7841589317611790E+00  -1.7898645754010543E+00  -1.7955197170032413E+00  -1.8011245547724157E+00  -1.8066792869132526E+00
  -1.8121841116304269E+00  -1.8176392271286141E+00  -1.8230448316124883E+00  -1.8284011232867250E+00  -1.8337083003560000E+00
  -1.8389665610249870E+00  -1.8441761034983626E+00  -1.8493371259808000E+00  -1.8544498266769758E+00  -1.8595144037915643E+00
  -1.8645310555292407E+00  -1.8694999800946805E+00  -1.8744213756925578E+00  -1.8792954405275484E+00  -1.8841223728043273E+00
  -1.8889023707275692E+00  -1.8936356325019494E+00  -1.8983223563321432E+00  -1.9029627404228249E+00  -1.9075569829786703E+00
  -1.9121052822043541E+00  -1.9166078363045511E+00  -1.9210648434839372E+00  -1.9254765019471869E+00  -1.9298430098989747E+00
  -1.9341645655439768E+00  -1.9384413670868672E+00  -1.9426736127323219E+00  -1.9468615006850150E+00  -1.9510052291496220E+00
  -1.9551049963308182E+00  -1.9591610004332782E+00  -1.9631734396616780E+00  -1.9671425122206909E+00  -1.9710684163149934E+00
  -1.9749513501492602E+00  -1.9787915119281663E+00  -1.9825890998563864E+00  -1.9863443121385964E+00  -1.9900573469794707E+00
  -1.9937284025836841E+00  -1.9973576771559123E+00  -2.0009453689008296E+00  -2.0044916760231124E+00  -2.0079967967274341E+00
  -2.0114609292184711E+00  -2.0148842717008977E+00  -2.0182670223793888E+00  -2.0216093794586203E+00  -2.0249115411432665E+00
  -2.0281737056380025E+00  -2.0313960711475039E+00  -2.0345788358764452E+00  -2.0377221980295017E+00  -2.0408263558113484E+00
  -2.0438915074266601E+00  -2.0469178510801123E+00  -2.0499055849763796E+00  -2.0528549073201376E+00  -2.0557660163160616E+00
  -2.0586391101688251E+00  -2.0614743870831047E+00  -2.0642720452635741E+00  -2.0670322829149099E+00  -2.0697552982417866E+00
  -2.0724412894488786E+00  -2.0750904547408613E+00  -2.0777029923224100E+00  -2.0802791003981995E+00  -2.0828189771729058E+00
  -2.0853228208512022E+00  -2.0877908296377647E+00  -2.0902232017372686E+00  -2.0926201353543883E+00  -2.0949818286938000E+00
  -2.0973084799601778E+00  -2.0996002873581960E+00  -2.1018574490925310E+00  -2.1040801633678576E+00  -2.1062686283888508E+00
  -2.1084230423601857E+00  -2.1105436034865366E+00  -2.1126305099725791E+00  -2.1146839600229881E+00  -2.1167041518424394E+00
  -2.1186912836356075E+00  -2.1206455536071673E+00  -2.1225671599617937E+00  -2.1244563009041619E+00  -2.1263131746389474E+00
  -2.1281379793708255E+00  -2.1299309133044697E+00  -2.1316921746445563E+00  -2.1334219615957601E+00  -2.1351204723627566E+00
  -2.1367879051502201E+00  -2.1384244581628256E+00  -2.1400303296052487E+00  -2.1416057176821641E+00  -2.1431508205982475E+00
  -2.1446658365581732E+00  -2.1461509637666158E+00  -2.1476064004282520E+00  -2.1490323447477553E+00  -2.1504289949298014E+00
  -2.1517965491790658E+00  -2.1531352057002229E+00  -2.1544451626979475E+00  -2.1557266183769150E+00  -2.1569797709418008E+00
  -2.1582048185972798E+00  -2.1594019595480267E+00  -2.1605713919987166E+00  -2.1617133141540248E+00  -2.1628279242186261E+00
  -2.1639154203971964E+00  -2.1649760008944097E+00  -2.1660098639149408E+00  -2.1670172076634659E+00  -2.1679982303446592E+00
  -2.1689531301631959E+00  -2.1698821053237523E+00  -2.1707856751053485E+00  -2.1716634675120301E+00  -2.1725161102652479E+00
  -2.1733439160957060E+00  -2.1741471977341082E+00  -2.1749262679111583E+00  -2.1756814393575592E+00  -2.1764130248040163E+00
  -2.1771213369812319E+00  -2.1778066886199103E+00  -2.1784693924507557E+00  -2.1791097612044710E+00  -2.1797281076117607E+00
  -2.1803247444033280E+00  -2.1808999843098773E+00  -2.1814541400621117E+00  -2.1819875243907356E+00  -2.1825004500264522E+00
  -2.1829932296999659E+00  -2.1834661761419798E+00  -2.1839196020831979E+00  -2.1843538202543247E+00  -2.1847691433860628E+00
  -2.1851658842091162E+00  -2.1855443554541893E+00  -2.1859048698519858E+00  -2.1862477401332088E+00  -2.1865732790285626E+00
  -2.1868817992687504E+00  -2.1871736135844770E+00  -2.1874490347064457E+00  -2.1877083753653594E+00  -2.1879519482919232E+00
  -2.1881800662168400E+00  -2.1883930418708140E+00  -2.1885911879845485E+00  -2.1887748172887473E+00  -2.1889442425141152E+00
  -2.1890997763913549E+00  -2.1892417316511703E+00  -2.1893704210242655E+00  -2.1894861572413444E+00  -2.1895892530331102E+00
  -2.1896800211302669E+00  -2.1897587742635185E+00  -2.1898258251635685E+00  -2.1898814865611205E+00  -2.1899260711868789E+00
  -2.1899598917715473E+00  -2.1899832610458287E+00  -2.1899964917404282E+00  -2.1899998965860479E+00  -2.1899937883133931E+00
  -2.1899784796531665E+00  -2.1899542833360726E+00  -2.1899215120928148E+00  -2.1898804786540973E+00  -2.1898314957506231E+00
  -2.1897748761130966E+00  -2.1897109324722210E+00  -2.1896399775587003E+00  -2.1895623241032389E+00  -2.1894782848365399E+00
  -2.1893881724893069E+00  -2.1892922997922448E+00  -2.1891909794760562E+00  -2.1890845242714452E+00  -2.1889732469091152E+00
  -2.1888574601197708E+00  -2.1887374766341154E+00  -2.1886136091828523E+00  -2.1884861704966863E+00  -2.1883554733063200E+00
  -2.1882218303424579E+00  -2.1880855543358035E+00  -2.1879469580170605E+00  -2.1878063541169332E+00  -2.1876640553661253E+00
  -2.1875203744953398E+00  -2.1873756242352806E+00  -2.1872301173166520E+00  -2.1870841664701581E+00  -2.1869380844265018E+00
  -2.1867921839163871E+00  -2.1866467776705178E+00  -2.1865021784195982E+00  -2.1863586988943311E+00  -2.1862166518254207E+00
  -2.1860763499435709E+00  -2.1859381059794862E+00  -2.1858022326638689E+00  -2.1856690427274232E+00  -2.1855388489008538E+00
  -2.1854119639148633E+00  -2.1852887005001560E+00  -2.1851693713874361E+00  -2.1850542893074065E+00  -2.1849437669907714E+00
  -2.1848381171682347E+00  -2.1847376525704996E+00  -2.1846426859282708E+00  -2.1845535299722512E+00  -2.1844704974331450E+00
  -2.1843915367075293E+00  -2.1843119349176963E+00  -2.1842310670929193E+00  -2.1841489410505743E+00  -2.1840655645449480E+00
  -2.1839809452678840E+00  -2.1838950908494321E+00  -2.1838080088584819E+00  -2.1837197068033909E+00  -2.1836301921326027E+00
  -2.1835394722352630E+00  -2.1834475544418206E+00  -2.1833544460246239E+00  -2.1832601541985146E+00  -2.1831646861214051E+00
  -2.1830680488948553E+00  -2.1829702495646406E+00  -2.1828712951213118E+00  -2.1827711925007498E+00  -2.1826699485847110E+00
  -2.1825675702013698E+00  -2.1824640641258490E+00  -2.1823594370807524E+00  -2.1822536957366787E+00  -2.1821468467127394E+00
  -2.1820388965770698E+00  -2.1819298518473227E+00  -2.1818197189911741E+00  -2.1817085044268056E+00  -2.1815962145233927E+00
  -2.1814828556015819E+00  -2.1813684339339598E+00  -2.1812529557455269E+00  -2.1811364272141525E+00  -2.1810188544710343E+00
  -2.1809002436011462E+00  -2.1807806006436867E+00  -2.1806599315925146E+00  -2.1805382423965871E+00  -2.1804155389603870E+00
  -2.1802918271443490E+00  -2.1801671127652780E+00  -2.1800414015967640E+00  -2.1799146993695917E+00  -2.1797870117721470E+00
  -2.1796583444508135E+00  -2.1795287030103743E+00  -2.1793980930143966E+00  -2.1792665199856236E+00  -2.1791339894063517E+00
  -2.1790005067188147E+00  -2.1788660773255502E+00  -2.1787307065897741E+00  -2.1785943998357422E+00  -2.1784571623491136E+00
  -2.1783189993773062E+00  -2.1781799161298481E+00  -2.1780399177787300E+00  -2.1778990094587454E+00  -2.1777571962678355E+00
  -2.1776144832674231E+00  -2.1774708754827481E+00  -2.1773263779031962E+00  -2.1771809954826247E+00  -2.1770347331396853E+00
  -2.1768875957581422E+00  -2.1767395881871865E+00  -2.1765907152417494E+00  -2.1764409817028114E+00  -2.1762903923177035E+00
  -2.1761389518004113E+00  -2.1759866648318713E+00  -2.1758335360602694E+00  -2.1756795701013294E+00  -2.1755247715386004E+00
  -2.1753691449237467E+00  -2.1752126947768256E+00  -2.1750554255865695E+00  -2.1748973418106594E+00  -2.1747384478760012E+00
  -2.1745787481789942E+00  -2.1744182470857969E+00  -2.1742569489325954E+00  -2.1740948580258617E+00  -2.1739319786426141E+00
  -2.1737683150306708E+00  -2.1736038714089090E+00  -2.1734386519675093E+00  -2.1732726608682071E+00  -2.1731059022445360E+00
  -2.1729383802020732E+00  -2.1727700988186776E+00  -2.1726010621447287E+00  -2.1724312742033609E+00  -2.1722607389906967E+00
  -2.1720894604760765E+00  -2.1719174426022891E+00  -2.1717446892857919E+00  -2.1715712044169400E+00  -2.1713969918602025E+00
  -2.1712220554543848E+00  -2.1710463990128424E+00  -2.1708700263236955E+00  -2.1706929411500409E+00  -2.1705151472301627E+00
  -2.1703366482777393E+00  -2.1701574479820480E+00  -2.1699775500081691E+00  -2.1697969579971881E+00  -2.1696156755663925E+00
  -2.1694337063094724E+00  -2.1692510537967120E+00  -2.1690677215751855E+00  -2.1688837131689476E+00  -2.1686990320792221E+00
  -2.1685136817845918E+00  -2.1683276657411792E+00  -2.1681409873828366E+00  -2.1679536501213232E+00  -2.1677656573464863E+00
  -2.1675770124264400E+00  -2.1673877187077428E+00  -2.1671977795155692E+00  -2.1670071981538870E+00  -2.1668159779056242E+00
  -2.1666241220328422E+00  -2.1664316337769005E+00  -2.1662385163586260E+00  -2.1660447729784762E+00  -2.1658504068167015E+00
  -2.1656554210335086E+00  -2.1654598187692189E+00  -2.1652636031444272E+00  -2.1650667772601575E+00  -2.1648693441980202E+00
  -2.1646713070203654E+00  -2.1644726687704323E+00  -2.1642734324725050E+00  -2.1640736011320576E+00  -2.1638731777359035E+00
  -2.1636721652523425E+00  -2.1634705666313052E+00  -2.1632683848044953E+00  -2.1630656226855369E+00  -2.1628622831701083E+00
  -2.1626583691360883E+00  -2.1624538834436886E+00  -2.1622488289355948E+00  -2.1620432084371015E+00  -2.1618370247562462E+00
  -2.1616302806839398E+00  -2.1614229789941048E+00  -2.1612151224437990E+00  -2.1610067137733502E+00  -2.1607977557064797E+00
  -2.1605882509504335E+00  -2.1603782021961067E+00  -2.1601676121181659E+00  -2.1599564833751765E+00  -2.1597448186097226E+00
  -2.1595326204485277E+00  -2.1593198915025758E+00  -2.1591066343672325E+00  -2.1588928516223587E+00  -2.1586785458324287E+00
  -2.1584637195466492E+00  -2.1582483752990682E+00  -2.1580325156086944E+00  -2.1578161429796050E+00  -2.1575992599010605E+00
  -2.1573818688476134E+00  -2.1571639722792177E+00  -2.1569455726413396E+00  -2.1567266723650618E+00  -2.1565072738671933E+00
  -2.1562873795503710E+00  -2.1560669918031690E+00  -2.1558461130001980E+00  -2.1556247455022119E+00  -2.1554028916562062E+00
  -2.1551805537955211E+00  -2.1549577342399417E+00  -2.1547344352957936E+00  -2.1545106592560481E+00  -2.1542864084004116E+00
  -2.1540616849954275E+00  -2.1538364912945700E+00  -2.1536108295383394E+00  -2.1533847019543546E+00  -2.1531581107574480E+00
  -2.1529310581497585E+00  -2.1527035463208195E+00  -2.1524755774476532E+00  -2.1522471536948591E+00  -2.1520182772147014E+00
  -2.1517889501472021E+00  -2.1515591746202221E+00  -2.1513289527495534E+00  -2.1510982866390025E+00  -2.1508671783804778E+00
  -2.1506356300540701E+00  -2.1504036437281400E+00  -2.1501712214594013E+00  -2.1499383652930004E+00  -2.1497050772626007E+00
  -2.1494713593904615E+00  -2.1492372136875204E+00  -2.1490026421534711E+00  -2.1487676467768431E+00  -2.1485322295350797E+00
  -2.1482963923946161E+00  -2.1480601373109556E+00  -2.1478234662287456E+00  -2.1475863810818545E+00  -2.1473488837934451E+00
  -2.1471109762760512E+00  -2.1468726604316473E+00  -2.1466339381517265E+00  -2.1463948113173688E+00  -2.1461552817993166E+00
  -2.1459153514580427E+00  -2.1456750221438217E+00  -2.1454342956968033E+00  -2.1451931739470762E+00  -2.1449516587147421E+00
  -2.1447097518099802E+00  -2.1444674550331175E+00  -2.1442247701746959E+00  -2.1439816990155358E+00  -2.1437382433268062E+00
  -2.1434944048700872E+00  -2.1432501853974375E+00  -2.1430055866514564E+00  -2.1427606103653485E+00  -2.1425152582629892E+00
  -2.1422695320589833E+00  -2.1420234334587320E+00  -2.1417769641584923E+00  -2.1415301258454367E+00  -2.1412829201977179E+00
  -2.1410353488845262E+00  -2.1407874135661515E+00  -2.1405391158940401E+00  -2.1402904575108557E+00  -2.1400414400505370E+00
  -2.1397920651383555E+00  -2.1395423343909732E+00  -2.1392922494165005E+00  -2.1390418118145504E+00  -2.1387910231762972E+00
  -2.1385398850845299E+00  -2.1382883991137094E+00  -2.1380365668300221E+00  -2.1377843897914328E+00  -2.1375318695477428E+00
  -2.1372790076406392E+00  -2.1370258056037499E+00  -2.1367722649626959E+00  -2.1365183872351414E+00  -2.1362641739308508E+00
  -2.1360096265517341E+00  -2.1357547465919020E+00  -2.1354995355377144E+00  -2.1352439948678312E+00  -2.1349881260532619E+00
  -2.1347319305574146E+00  -2.1344754098361474E+00  -2.1342185653378123E+00  -2.1339613985033083E+00  -2.1337039107661266E+00
  -2.1334461035523966E+00  -2.1331879782809384E+00  -2.1329295363633034E+00  -2.1326707792038246E+00  -2.1324117081996619E+00
  -2.1321523247408454E+00  -2.1318926302103236E+00  -2.1316326259840079E+00  -2.1313723134308153E+00  -2.1311116939127155E+00
  -2.1308507687847720E+00  -2.1305895393951872E+00  -2.1303280070853461E+00  -2.1300661731898574E+00  -2.1298040390365984E+00
  -2.1295416059467560E+00  -2.1292788752348670E+00  -2.1290158482088635E+00  -2.1287525261701115E+00  -2.1284889104134526E+00
  -2.1282250022272438E+00  -2.1279608028933996E+00  -2.1276963136874323E+00  -2.1274315358784883E+00  -2.1271664707293909E+00
  -2.1269011194966789E+00  -2.1266354834306447E+00  -2.1263695637753739E+00  -2.1261033617687812E+00  -2.1258368786426520E+00
  -2.1255701156226783E+00  -2.1253030739284946E+00  -2.1250357547737169E+00  -2.1247681593659813E+00  -2.1245002889069760E+00
  -2.1242321445924812E+00  -2.1239637276124048E+00  -2.1236950391508174E+00  -2.1234260803859866E+00  -2.1231568524904163E+00
  -2.1228873566308764E+00  -2.1226175939684420E+00  -2.1223475656585262E+00  -2.1220772728509130E+00  -2.1218067166897936E+00
  -2.1215358983138000E+00  -2.1212648188560363E+00  -2.1209934794441136E+00  -2.1207218812001827E+00  -2.1204500252409675E+00
  -2.1201779126777969E+00  -2.1199055446166368E+00  -2.1196329221581225E+00  -2.1193600463975906E+00  -2.1190869184251104E+00
  -2.1188135393255161E+00  -2.1185399101784368E+00  -2.1182660320583278E+00  -2.1179919060345016E+00  -2.1177175331711577E+00
  -2.1174429145274143E+00  -2.1171680511573361E+00  -2.1168929441099666E+00  -2.1166175944293557E+00  -2.1163420031545899E+00
  -2.1160661713198228E+00  -2.1157900999543005E+00  -2.1155137900823950E+00  -2.1152372427236283E+00  -2.1149604588927051E+00
  -2.1146834395995362E+00  -2.1144061858492722E+00  -2.1141286986423253E+00  -2.1138509789744013E+00  -2.1135730278365239E+00
  -2.1132948462150658E+00  -2.1130164350917702E+00  -2.1127377954437829E+00  -2.1124589282436763E+00  -2.1121798344594760E+00
  -2.1119005150546859E+00  -2.1116209709883185E+00  -2.1113412032149155E+00  -2.1110612126845760E+00  -2.1107810003429845E+00
  -2.1105005671314299E+00  -2.1102199139868372E+00  -2.1099390418417880E+00  -2.1096579516245493E+00  -2.1093766442590942E+00
  -2.1090951206651272E+00  -2.1088133817581118E+00  -2.1085314284492909E+00  -2.1082492616457111E+00  -2.1079668822502500E+00
  -2.1076842911616356E+00  -2.1074014892744715E+00  -2.1071184774792617E+00  -2.1068352566624302E+00  -2.1065518277063480E+00
  -2.1062681914893533E+00  -2.1059843488857752E+00  -2.1057003007659554E+00  -2.1054160479962727E+00  -2.1051315914391617E+00
  -2.1048469319531393E+00  -2.1045620703928214E+00  -2.1042770076089505E+00  -2.1039917444484124E+00  -2.1037062817542607E+00
  -2.1034206203657360E+00  -2.1031347611182891E+00  -2.1028487048436020E+00  -2.1025624523696056E+00  -2.1022760045205051E+00
  -2.1019893621167980E+00  -2.1017025259752935E+00  -2.1014154969091359E+00  -2.1011282757278233E+00  -2.1008408632372273E+00
  -2.1005532602396131E+00  -2.1002654675336601E+00  -2.0999774859144806E+00  -2.0996893161736403E+00  -2.0994009590991771E+00
  -2.0991124154756209E+00  -2.0988236860840108E+00  -2.0985347717019187E+00  -2.0982456731034631E+00  -2.0979563910593306E+00
  -2.0976669263367951E+00  -2.0973772796997334E+00  -2.0970874519086480E+00  -2.0967974437206807E+00  -2.0965072558896347E+00
  -2.0962168891659907E+00  -2.0959263442969251E+00  -2.0956356220263279E+00  -2.0953447230948208E+00  -2.0950536482397735E+00
  -2.0947623981953236E+00  -2.0944709736923914E+00  -2.0941793754586993E+00  -2.0938876042187871E+00  -2.0935956606940298E+00
  -2.0933035456026561E+00  -2.0930112596597623E+00  -2.0927188035773310E+00  -2.0924261780642475E+00  -2.0921333838263148E+00
  -2.0918404215662725E+00  -2.0915472919838116E+00  -2.0912539957755896E+00  -2.0909605336352497E+00  -2.0906669062534333E+00
  -2.0903731143177984E+00  -2.0900791585130332E+00  -2.0897850395208759E+00  -2.0894907580201227E+00  -2.0891963146866535E+00
  -2.0889017101934373E+00  -2.0886069452105542E+00  -2.0883120204052070E+00  -2.0880169364417385E+00  -2.0877216939816452E+00
  -2.0874262936835928E+00  -2.0871307362034308E+00  -2.0868350221942062E+00  -2.0865391523061803E+00  -2.0862431271868411E+00
  -2.0859469474809198E+00  -2.0856506138304023E+00  -2.0853541268745466E+00  -2.0850574872498946E+00  -2.0847606955902873E+00
  -2.0844637525268790E+00  -2.0841666586881500E+00  -2.0838694146999215E+00  -2.0835720211853683E+00  -2.0832744787650350E+00
  -2.0829767880568446E+00  -2.0826789496761182E+00  -2.0823809642355839E+00  -2.0820828323453902E+00  -2.0817845546131220E+00
  -2.0814861316438118E+00  -2.0811875640399529E+00  -2.0808888524015141E+00  -2.0805899973259478E+00  -2.0802909994082088E+00
  -2.0799918592407645E+00  -2.0796925774136046E+00  -2.0793931545142605E+00  -2.0790935911278110E+00  -2.0787938878368988E+00
  -2.0784940452217402E+00  -2.0781940638601406E+00  -2.0778939443275033E+00  -2.0775936871968455E+00  -2.0772932930388053E+00
  -2.0769927624216571E+00  -2.0766920959113246E+00  -2.0763912940713891E+00  -2.0760903574631042E+00  -2.0757892866454055E+00
  -2.0754880821749238E+00  -2.0751867446059955E+00  -2.0748852744906729E+00  -2.0745836723787412E+00  -2.0742819388177227E+00
  -2.0739800743528924E+00  -2.0736780795272871E+00  -2.0733759548817194E+00  -2.0730737009547844E+00  -2.0727713182828760E+00
  -2.0724688074001922E+00  -2.0721661688387503E+00  -2.0718634031283969E+00  -2.0715605107968162E+00  -2.0712574923695444E+00
  -2.0709543483699768E+00  -2.0706510793193806E+00  -2.0703476857369045E+00  -2.0700441681395896E+00  -2.0697405270423799E+00
  -2.0694367629581314E+00  -2.0691328763976244E+00  -2.0688288678695703E+00  -2.0685247378806264E+00  -2.0682204869354019E+00
  -2.0679161155364705E+00  -2.0676116241843783E+00  -2.0673070133776559E+00  -2.0670022836128257E+00  -2.0666974353844139E+00
  -2.0663924691849598E+00  -2.0660873855050239E+00  -2.0657821848331994E+00  -2.0654768676561206E+00  -2.0651714344584735E+00
  -2.0648658857230036E+00  -2.0645602219305257E+00  -2.0642544435599359E+00  -2.0639485510882172E+00  -2.0636425449904494E+00
  -2.0633364257398208E+00  -2.0630301938076343E+00  -2.0627238496633198E+00  -2.0624173937744374E+00  -2.0621108266066943E+00
  -2.0618041486239469E+00  -2.0614973602882132E+00  -2.0611904620596802E+00  -2.0608834543967136E+00  -2.0605763377558661E+00
  -2.0602691125918859E+00  -2.0599617793577245E+00  -2.0596543385045485E+00  -2.0593467904817424E+00  -2.0590391357369233E+00
  -2.0587313747159453E+00  -2.0584235078629085E+00  -2.0581155356201690E+00  -2.0578074584283450E+00  -2.0574992767263258E+00
  -2.0571909909512813E+00  -2.0568826015386681E+00  -2.0565741089222378E+00  -2.0562655135340475E+00  -2.0559568158044641E+00
  -2.0556480161621762E+00  -2.0553391150341982E+00  -2.0550301128458792E+00  -2.0547210100209141E+00  -2.0544118069813466E+00
  -2.0541025041475791E+00  -2.0537931019383819E+00  -2.0534836007708983E+00  -2.0531740010606527E+00  -2.0528643032215590E+00
  -2.0525545076659286E+00  -2.0522446148044753E+00  -2.0519346250463255E+00  -2.0516245387990240E+00  -2.0513143564685428E+00
  -2.0510040784592860E+00  -2.0506937051740994E+00  -2.0503832370142772E+00  -2.0500726743795679E+00  -2.0497620176681814E+00
  -2.0494512672768002E+00  -2.0491404236005799E+00  -2.0488294870331614E+00  -2.0485184579666762E+00  -2.0482073367917515E+00
  -2.0478961238975208E+00  -2.0475848196716289E+00  -2.0472734245002360E+00  -2.0469619387680300E+00  -2.0466503628582298E+00
  -2.0463386971525912E+00  -2.0460269420314159E+00  -2.0457150978735563E+00  -2.0454031650564266E+00  -2.0450911439560002E+00
  -2.0447790349468269E+00  -2.0444668384020304E+00  -2.0441545546933222E+00  -2.0438421841910013E+00  -2.0435297272639654E+00
  -2.0432171842797171E+00  -2.0429045556043657E+00  -2.0425918416026390E+00  -2.0422790426378863E+00  -2.0419661590720848E+00
  -2.0416531912658482E+00  -2.0413401395784301E+00  -2.0410270043677308E+00  -2.0407137859903028E+00  -2.0404004848013626E+00
  -2.0400871011547848E+00  -2.0397736354031211E+00  -2.0394600878975968E+00  -2.0391464589881219E+00  -2.0388327490232951E+00
  -2.0385189583504109E+00  -2.0382050873154625E+00  -2.0378911362631502E+00  -2.0375771055368883E+00  -2.0372629954788071E+00
  -2.0369488064297609E+00  -2.0366345387293343E+00  -2.0363201927158459E+00  -2.0360057687263562E+00  -2.0356912670966705E+00
  -2.0353766881613469E+00  -2.0350620322537005E+00  -2.0347472997058085E+00  -2.0344324908485190E+00  -2.0341176060114501E+00
  -2.0338026455230018E+00  -2.0334876097103574E+00  -2.0331724988994910E+00  -2.0328573134151715E+00  -2.0325420535809675E+00
  -2.0322267197192545E+00  -2.0319113121512191E+00  -2.0315958311968623E+00  -2.0312802771750103E+00  -2.0309646504033112E+00
  -2.0306489511982484E+00  -2.0303331798751407E+00  -2.0300173367481498E+00  -2.0297014221302829E+00  -2.0293854363334001E+00
  -2.0290693796682193E+00  -2.0287532524443179E+00  -2.0284370549701434E+00  -2.0281207875530121E+00  -2.0278044504991204E+00
  -2.0274880441135434E+00  -2.0271715687002443E+00  -2.0268550245620767E+00  -2.0265384120007917E+00  -2.0262217313170394E+00
  -2.0259049828103768E+00  -2.0255881667792712E+00  -2.0252712835211044E+00  -2.0249543333321789E+00  -2.0246373165077203E+00
  -2.0243202333418839E+00  -2.0240030841277594E+00  -2.0236858691573727E+00  -2.0233685887216950E+00  -2.0230512431106420E+00
  -2.0227338326130839E+00  -2.0224163575168452E+00  -2.0220988181087125E+00  -2.0217812146744358E+00  -2.0214635474987377E+00
  -2.0211458168653116E+00  -2.0208280230568314E+00  -2.0205101663549532E+00  -2.0201922470403191E+00  -2.0198742653925641E+00
  -2.0195562216903182E+00  -2.0192381162112114E+00  -2.0189199492318775E+00  -2.0186017210279599E+00  -2.0182834318741132E+00
  -2.0179650820440092E+00  -2.0176466718103407E+00  -2.0173282014448253E+00  -2.0170096712182111E+00  -2.0166910814002774E+00
  -2.0163724322598418E+00  -2.0160537240647631E+00  -2.0157349570819481E+00  -2.0154161315773473E+00  -2.0150972478159708E+00
  -2.0147783060618818E+00  -2.0144593065782068E+00  -2.0141402496271383E+00  -2.0138211354699358E+00  -2.0135019643669332E+00
  -2.0131827365775412E+00  -2.0128634523602518E+00  -2.0125441119726415E+00  -2.0122247156713735E+00  -2.0119052637122059E+00
  -2.0115857563499921E+00  -2.0112661938386847E+00  -2.0109465764313397E+00  -2.0106269043801213E+00  -2.0103071779363040E+00
  -2.0099873973502778E+00  -2.0096675628715501E+00  -2.0093476747487506E+00  -2.0090277332296349E+00  -2.0087077385610868E+00
  -2.0083876909891254E+00  -2.0080675907589041E+00  -2.0077474381147162E+00  -2.0074272333000005E+00  -2.0071069765573393E+00
  -2.0067866681284698E+00  -2.0064663082542800E+00  -2.0061458971748167E+00  -2.0058254351292879E+00  -2.0055049223560664E+00
  -2.0051843590926905E+00  -2.0048637455758729E+00  -2.0045430820414980E+00  -2.0042223687246299E+00  -2.0039016058595154E+00
  -2.0035807936795833E+00  -2.0032599324174516E+00  -2.0029390223049308E+00  -2.0026180635730233E+00  -2.0022970564519325E+00
  -2.0019760011710610E+00  -2.0016548979590167E+00  -2.0013337470436143E+00  -2.0010125486518802E+00  -2.0006913030100550E+00
  -2.0003700103435964E+00  -2.0000486708771823E+00  -1.9997272848347134E+00  -1.9994058524393186E+00  -1.9990843739133561E+00
  -1.9987628494784173E+00  -1.9984412793553279E+00  -1.9981196637641563E+00  -1.9977980029242088E+00  -1.9974762970540407E+00
  -1.9971545463714531E+00  -1.9968327510934998E+00  -1.9965109114364872E+00  -1.9961890276159808E+00  -1.9958670998468064E+00
  -1.9955451283430514E+00  -1.9952231133180707E+00  -1.9949010549844866E+00  -1.9945789535541971E+00  -1.9942568092383701E+00
  -1.9939346222474561E+00  -1.9936123927911826E+00  -1.9932901210785636E+00  -1.9929678073178960E+00  -1.9926454517167704E+00
  -1.9923230544820671E+00  -1.9920006158199590E+00  -1.9916781359359212E+00  -1.9913556150347267E+00  -1.9910330533204512E+00
  -1.9907104509964788E+00  -1.9903878082655004E+00  -1.9900651253295185E+00  -1.9897424023898507E+00  -1.9894196396471306E+00
  -1.9890968373013125E+00  -1.9887739955516721E+00  -1.9884511145968098E+00  -1.9881281946346550E+00  -1.9878052358624654E+00
  -1.9874822384768334E+00  -1.9871592026736862E+00  -1.9868361286482887E+00  -1.9865130165952471E+00  -1.9861898667085112E+00
  -1.9858666791813748E+00  -1.9855434542064831E+00  -1.9852201919758297E+00  -1.9848968926807635E+00  -1.9845735565119875E+00
  -1.9842501836595656E+00  -1.9839267743129201E+00  -1.9836033286608401E+00  -1.9832798468914774E+00  -1.9829563291923549E+00
  -1.9826327757503641E+00  -1.9823091867517719E+00  -1.9819855623822200E+00  -1.9816619028267288E+00  -1.9813382082696984E+00
  -1.9810144788949138E+00  -1.9806907148855430E+00  -1.9803669164241442E+00  -1.9800430836926637E+00  -1.9797192168724418E+00
  -1.9793953161442130E+00  -1.9790713816881096E+00  -1.9787474136836625E+00  -1.9784234123098046E+00  -1.9780993777448745E+00
  -1.9777753101666151E+00  -1.9774512097521788E+00  -1.9771270766781301E+00  -1.9768029111204442E+00  -1.9764787132545150E+00
  -1.9761544832551512E+00  -1.9758302212965846E+00  -1.9755059275524651E+00  -1.9751816021958710E+00  -1.9748572453993050E+00
  -1.9745328573346983E+00  -1.9742084381734148E+00  -1.9738839880862502E+00  -1.9735595072434360E+00  -1.9732349958146407E+00
  -1.9729104539689730E+00  -1.9725858818749828E+00  -1.9722612797006640E+00  -1.9719366476134566E+00  -1.9716119857802481E+00
  -1.9712872943673778E+00  -1.9709625735406351E+00  -1.9706378234652644E+00  -1.9703130443059671E+00  -1.9699882362269026E+00
  -1.9696633993916906E+00  -1.9693385339634135E+00  -1.9690136401046192E+00  -1.9686887179773189E+00  -1.9683637677429970E+00
  -1.9680387895626046E+00  -1.9677137835965679E+00  -1.9673887500047853E+00  -1.9670636889466346E+00  -1.9667386005809691E+00
  -1.9664134850661250E+00  -1.9660883425599189E+00  -1.9657631732196528E+00  -1.9654379772021158E+00  -1.9651127546635832E+00
  -1.9647875057598210E+00  -1.9644622306460884E+00  -1.9641369294771376E+00  -1.9638116024072167E+00  -1.9634862495900707E+00
  -1.9631608711789452E+00  -1.9628354673265875E+00  -1.9625100381852469E+00  -1.9621845839066783E+00  -1.9618591046421432E+00
  -1.9615336005424140E+00  -1.9612080717577702E+00  -1.9608825184380063E+00  -1.9605569407324306E+00  -1.9602313387898669E+00
  -1.9599057127586565E+00  -1.9595800627866611E+00  -1.9592543890212637E+00  -1.9589286916093700E+00  -1.9586029706974106E+00
  -1.9582772264313433E+00  -1.9579514589566536E+00  -1.9576256684183575E+00  -1.9572998549610034E+00  -1.9569740187286728E+00
  -1.9566481598649816E+00  -1.9563222785130836E+00  -1.9559963748156721E+00  -1.9556704489149792E+00  -1.9553445009527808E+00
  -1.9550185310703945E+00  -1.9546925394086854E+00  -1.9543665261080643E+00  -1.9540404913084912E+00  -1.9537144351494773E+00
  -1.9533883577700835E+00  -1.9530622593089275E+00  -1.9527361399041800E+00  -1.9524099996935707E+00  -1.9520838388143844E+00
  -1.9517576574034701E+00  -1.9514314555972359E+00  -1.9511052335316543E+00  -1.9507789913422624E+00  -1.9504527291641645E+00
  -1.9501264471320312E+00  -1.9498001453801042E+00  -1.9494738240421974E+00  -1.9491474832516951E+00  -1.9488211231415573E+00
  -1.9484947438443196E+00  -1.9481683454920951E+00  -1.9478419282165760E+00  -1.9475154921490347E+00  -1.9471890374203249E+00
  -1.9468625641608852E+00  -1.9465360725007370E+00  -1.9462095625694908E+00  -1.9458830344963438E+00  -1.9455564884100813E+00
  -1.9452299244390816E+00  -1.9449033427113147E+00  -1.9445767433543444E+00  -1.9442501264953287E+00  -1.9439234922610236E+00
  -1.9435968407777835E+00  -1.9432701721715617E+00  -1.9429434865679125E+00  -1.9426167840919932E+00  -1.9422900648685650E+00
  -1.9419633290219931E+00  -1.9416365766762518E+00  -1.9413098079549214E+00  -1.9409830229811920E+00  -1.9406562218778671E+00
  -1.9403294047673587E+00  -1.9400025717716944E+00  -1.9396757230125183E+00  -1.9393488586110879E+00  -1.9390219786882803E+00
  -1.9386950833645924E+00  -1.9383681727601401E+00  -1.9380412469946608E+00  -1.9377143061875171E+00  -1.9373873504576948E+00
  -1.9370603799238049E+00  -1.9367333947040870E+00  -1.9364063949164081E+00  -1.9360793806782659E+00  -1.9357523521067892E+00
  -1.9354253093187375E+00  -1.9350982524305060E+00  -1.9347711815581241E+00  -1.9344440968172569E+00  -1.9341169983232078E+00
  -1.9337898861909197E+00  -1.9334627605349735E+00  -1.9331356214695945E+00  -1.9328084691086467E+00  -1.9324813035656405E+00
  -1.9321541249537320E+00  -1.9318269333857223E+00  -1.9314997289740599E+00  -1.9311725118308436E+00  -1.9308452820678208E+00
  -1.9305180397963904E+00  -1.9301907851276043E+00  -1.9298635181721684E+00  -1.9295362390404427E+00  -1.9292089478424432E+00
  -1.9288816446878452E+00  -1.9285543296859791E+00  -1.9282270029458379E+00  -1.9278996645760751E+00  -1.9275723146850039E+00
  -1.9272449533806042E+00  -1.9269175807705181E+00  -1.9265901969620538E+00  -1.9262628020621855E+00  -1.9259353961775569E+00
  -1.9256079794144791E+00  -1.9252805518789351E+00  -1.9249531136765774E+00  -1.9246256649127318E+00  -1.9242982056923981E+00
  -1.9239707361202496E+00  -1.9236432563006371E+00  -1.9233157663375877E+00  -1.9229882663348055E+00  -1.9226607563956741E+00
  -1.9223332366232595E+00  -1.9220057071203065E+00  -1.9216781679892438E+00  -1.9213506193321823E+00  -1.9210230612509200E+00
  -1.9206954938469378E+00  -1.9203679172214050E+00  -1.9200403314751795E+00  -1.9197127367088058E+00  -1.9193851330225211E+00
  -1.9190575205162512E+00  -1.9187298992896162E+00  -1.9184022694419276E+00  -1.9180746310721921E+00  -1.9177469842791131E+00
  -1.9174193291610862E+00  -1.9170916658162083E+00  -1.9167639943422736E+00  -1.9164363148367749E+00  -1.9161086273969057E+00
  -1.9157809321195620E+00  -1.9154532291013413E+00  -1.9151255184385445E+00  -1.9147978002271775E+00  -1.9144700745629506E+00
  -1.9141423415412833E+00  -1.9138146012572990E+00  -1.9134868538058318E+00  -1.9131590992814256E+00  -1.9128313377783333E+00
  -1.9125035693905197E+00  -1.9121757942116626E+00  -1.9118480123351527E+00  -1.9115202238540951E+00  -1.9111924288613107E+00
  -1.9108646274493342E+00  -1.9105368197104224E+00  -1.9102090057365451E+00  -1.9098811856193942E+00  -1.9095533594503817E+00
  -1.9092255273206393E+00  -1.9088976893210212E+00  -1.9085698455421041E+00  -1.9082419960741897E+00  -1.9079141410073033E+00
  -1.9075862804311967E+00  -1.9072584144353470E+00  -1.9069305431089607E+00  -1.9066026665409710E+00  -1.9062747848200416E+00
  -1.9059468980345640E+00  -1.9056190062726652E+00  -1.9052911096222007E+00  -1.9049632081707595E+00  -1.9046353020056652E+00
  -1.9043073912139756E+00  -1.9039794758824853E+00  -1.9036515560977232E+00  -1.9033236319459570E+00  -1.9029957035131919E+00
  -1.9026677708851731E+00  -1.9023398341473849E+00  -1.9020118933850523E+00  -1.9016839486831438E+00  -1.9013560001263674E+00
  -1.9010280477991774E+00  -1.9007000917857693E+00  -1.9003721321700873E+00  -1.9000441690358183E+00  -1.8997162024663987E+00
  -1.8993882325450093E+00  -1.8990602593545829E+00  -1.8987322829777988E+00  -1.8984043034970881E+00  -1.8980763209946312E+00
  -1.8977483355523619E+00  -1.8974203472519662E+00  -1.8970923561748823E+00  -1.8967643624023034E+00  -1.8964363660151786E+00
  -1.8961083670942118E+00  -1.8957803657198629E+00  -1.8954523619723500E+00  -1.8951243559316502E+00  -1.8947963476774972E+00
  -1.8944683372893880E+00  -1.8941403248465769E+00  -1.8938123104280813E+00  -1.8934842941126795E+00  -1.8931562759789147E+00
  -1.8928282561050922E+00  -1.8925002345692810E+00  -1.8921722114493180E+00  -1.8918441868228044E+00  -1.8915161607671083E+00
  -1.8911881333593645E+00  -1.8908601046764772E+00  -1.8905320747951213E+00  -1.8902040437917371E+00  -1.8898760117425388E+00
  -1.8895479787235117E+00  -1.8892199448104112E+00  -1.8888919100787684E+00  -1.8885638746038846E+00  -1.8882358384608384E+00
  -1.8879078017244806E+00  -1.8875797644694401E+00  -1.8872517267701208E+00  -1.8869236887007037E+00  -1.8865956503351498E+00
  -1.8862676117471944E+00  -1.8859395730103568E+00  -1.8856115341979336E+00  -1.8852834953830031E+00  -1.8849554566384243E+00
  -1.8846274180368394E+00  -1.8842993796506720E+00  -1.8839713415521306E+00  -1.8836433038132077E+00  -1.8833152665056805E+00
  -1.8829872297011114E+00  -1.8826591934708501E+00  -1.8823311578860316E+00  -1.8820031230175815E+00  -1.8816750889362108E+00
  -1.8813470557124217E+00  -1.8810190234165043E+00  -1.8806909921185408E+00  -1.8803629618884041E+00  -1.8800349327957577E+00
  -1.8797069049100590E+00  -1.8793788783005567E+00  -1.8790508530362959E+00  -1.8787228291861138E+00  -1.8783948068186425E+00
  -1.8780667860023128E+00  -1.8777387668053482E+00  -1.8774107492957717E+00  -1.8770827335414026E+00  -1.8767547196098591E+00
  -1.8764267075685583E+00  -1.8760986974847178E+00  -1.8757706894253525E+00  -1.8754426834572810E+00  -1.8751146796471239E+00
  -1.8747866780613012E+00  -1.8744586787660378E+00  -1.8741306818273604E+00  -1.8738026873111002E+00  -1.8734746952828949E+00
  -1.8731467058081854E+00  -1.8728187189522185E+00  -1.8724907347800479E+00  -1.8721627533565353E+00  -1.8718347747463477E+00
  -1.8715067990139642E+00  -1.8711788262236688E+00  -1.8708508564395578E+00  -1.8705228897255362E+00  -1.8701949261453199E+00
  -1.8698669657624367E+00  -1.8695390086402259E+00  -1.8692110548418399E+00  -1.8688831044302432E+00  -1.8685551574682144E+00
  -1.8682272140183465E+00  -1.8678992741430476E+00  -1.8675713379045398E+00  -1.8672434053648639E+00  -1.8669154765858751E+00
  -1.8665875516292465E+00  -1.8662596305564680E+00  -1.8659317134288500E+00  -1.8656038003075197E+00  -1.8652758912534251E+00
  -1.8649479863273322E+00  -1.8646200855898303E+00  -1.8642921891013275E+00  -1.8639642969220558E+00  -1.8636364091120676E+00
  -1.8633085257312392E+00  -1.8629806468392691E+00  -1.8626527724956812E+00  -1.8623249027598219E+00  -1.8619970376908652E+00
  -1.8616691773478089E+00  -1.8613413217894768E+00  -1.8610134710745203E+00  -1.8606856252614177E+00  -1.8603577844084738E+00
  -1.8600299485738236E+00  -1.8597021178154296E+00  -1.8593742921910839E+00  -1.8590464717584090E+00  -1.8587186565748564E+00
  -1.8583908466977097E+00  -1.8580630421840838E+00  -1.8577352430909257E+00  -1.8574074494750135E+00  -1.8570796613929599E+00
  -1.8567518789012101E+00  -1.8564241020560439E+00  -1.8560963309135761E+00  -1.8557685655297544E+00  -1.8554408059603646E+00
  -1.8551130522610277E+00  -1.8547853044871998E+00  -1.8544575626941759E+00  -1.8541298269370885E+00  -1.8538020972709064E+00
  -1.8534743737504391E+00  -1.8531466564303336E+00  -1.8528189453650772E+00  -1.8524912406089977E+00  -1.8521635422162619E+00
  -1.8518358502408798E+00  -1.8515081647367007E+00  -1.8511804857574168E+00  -1.8508528133565640E+00  -1.8505251475875186E+00
  -1.8501974885035026E+00  -1.8498698361575807E+00  -1.8495421906026634E+00  -1.8492145518915040E+00  -1.8488869200767024E+00
  -1.8485592952107051E+00  -1.8482316773458034E+00  -1.8479040665341362E+00  -1.8475764628276883E+00  -1.8472488662782942E+00
  -1.8469212769376360E+00  -1.8465936948572439E+00  -1.8462661200884967E+00  -1.8459385526826244E+00  -1.8456109926907054E+00
  -1.8452834401636691E+00  -1.8449558951522960E+00  -1.8446283577072187E+00  -1.8443008278789192E+00  -1.8439733057177354E+00
  -1.8436457912738544E+00  -1.8433182845973179E+00  -1.8429907857380223E+00  -1.8426632947457167E+00  -1.8423358116700044E+00
  -1.8420083365603450E+00  -1.8416808694660525E+00  -1.8413534104362967E+00  -1.8410259595201044E+00  -1.8406985167663579E+00
  -1.8403710822237982E+00  -1.8400436559410225E+00  -1.8397162379664860E+00  -1.8393888283485034E+00  -1.8390614271352472E+00
  -1.8387340343747496E+00  -1.8384066501149030E+00  -1.8380792744034586E+00  -1.8377519072880286E+00  -1.8374245488160872E+00
  -1.8370971990349692E+00  -1.8367698579918705E+00  -1.8364425257338499E+00  -1.8361152023078291E+00  -1.8357878877605924E+00
  -1.8354605821387870E+00  -1.8351332854889260E+00  -1.8348059978573839E+00  -1.8344787192904015E+00  -1.8341514498340845E+00
  -1.8338241895344045E+00  -1.8334969384371980E+00  -1.8331696965881681E+00  -1.8328424640328846E+00  -1.8325152408167855E+00
  -1.8321880269851731E+00  -1.8318608225832222E+00  -1.8315336276559713E+00  -1.8312064422483314E+00  -1.8308792664050786E+00
  -1.8305521001708620E+00  -1.8302249435901992E+00  -1.8298977967074777E+00  -1.8295706595669552E+00  -1.8292435322127605E+00
  -1.8289164146888952E+00  -1.8285893070392318E+00  -1.8282622093075145E+00  -1.8279351215373596E+00  -1.8276080437722579E+00
  -1.8272809760555724E+00  -1.8269539184305392E+00  -1.8266268709402695E+00  -1.8262998336277487E+00  -1.8259728065358365E+00
  -1.8256457897072671E+00  -1.8253187831846522E+00  -1.8249917870104782E+00  -1.8246648012271065E+00  -1.8243378258767773E+00
  -1.8240108610016073E+00  -1.8236839066435888E+00  -1.8233569628445936E+00  -1.8230300296463704E+00  -1.8227031070905479E+00
  -1.8223761952186317E+00  -1.8220492940720074E+00  -1.8217224036919404E+00  -1.8213955241195749E+00  -1.8210686553959370E+00
  -1.8207417975619313E+00  -1.8204149506583445E+00  -1.8200881147258443E+00  -1.8197612898049804E+00  -1.8194344759361833E+00
  -1.8191076731597671E+00  -1.8187808815159276E+00  -1.8184541010447446E+00  -1.8181273317861797E+00  -1.8178005737800789E+00
  -1.8174738270661737E+00  -1.8171470916840773E+00  -1.8168203676732890E+00  -1.8164936550731927E+00  -1.8161669539230585E+00
  -1.8158402642620410E+00  -1.8155135861291818E+00  -1.8151869195634083E+00  -1.8148602646035343E+00  -1.8145336212882623E+00
  -1.8142069896561794E+00  -1.8138803697457626E+00  -1.8135537615953761E+00  -1.8132271652432721E+00  -1.8129005807275926E+00
  -1.8125740080863673E+00  -1.8122474473575159E+00  -1.8119208985788469E+00  -1.8115943617880599E+00  -1.8112678370227446E+00
  -1.8109413243203800E+00  -1.8106148237183384E+00  -1.8102883352538803E+00  -1.8099618589641595E+00  -1.8096353948862218E+00
  -1.8093089430570053E+00  -1.8089825035133387E+00  -1.8086560762919464E+00  -1.8083296614294426E+00  -1.8080032589623383E+00
  -1.8076768689270351E+00  -1.8073504913598304E+00  -1.8070241262969156E+00  -1.8066977737743777E+00  -1.8063714338281962E+00
  -1.8060451064942484E+00  -1.8057187918083049E+00  -1.8053924898060341E+00  -1.8050662005229985E+00  -1.8047399239946604E+00
  -1.8044136602563752E+00  -1.8040874093433963E+00  -1.8037611712908761E+00  -1.8034349461338626E+00  -1.8031087339073031E+00
  -1.8027825346460420E+00  -1.8024563483848237E+00  -1.8021301751582905E+00  -1.8018040150009826E+00  -1.8014778679473418E+00
  -1.8011517340317083E+00  -1.8008256132883222E+00  -1.8004995057513247E+00  -1.8001734114547563E+00  -1.7998473304325595E+00
  -1.7995212627185775E+00  -1.7991952083465541E+00  -1.7988691673501365E+00  -1.7985431397628717E+00  -1.7982171256182105E+00
  -1.7978911249495055E+00  -1.7975651377900128E+00  -1.7972391641728902E+00  -1.7969132041312008E+00  -1.7965872576979087E+00
  -1.7962613249058852E+00  -1.7959354057879022E+00  -1.7956095003766390E+00  -1.7952836087046780E+00  -1.7949577308045073E+00
  -1.7946318667085190E+00  -1.7943060164490128E+00  -1.7939801800581925E+00  -1.7936543575681685E+00  -1.7933285490109572E+00
  -1.7930027544184823E+00  -1.7926769738225736E+00  -1.7923512072549694E+00  -1.7920254547473127E+00  -1.7916997163311577E+00
  -1.7913739920379628E+00  -1.7910482818990978E+00  -1.7907225859458387E+00  -1.7903969042093713E+00  -1.7900712367207900E+00
  -1.7897455835110982E+00  -1.7894199446112100E+00  -1.7890943200519469E+00  -1.7887687098640423E+00  -1.7884431140781389E+00
  -1.7881175327247909E+00  -1.7877919658344623E+00  -1.7874664134375282E+00  -1.7871408755642748E+00  -1.7868153522449006E+00
  -1.7864898435095147E+00  -1.7861643493881392E+00  -1.7858388699107084E+00  -1.7855134051070676E+00  -1.7851879550069769E+00
  -1.7848625196401080E+00  -1.7845370990360458E+00  -1.7842116932242902E+00  -1.7838863022342526E+00  -1.7835609260952596E+00
  -1.7832355648365523E+00  -1.7829102184872851E+00  -1.7825848870765280E+00  -1.7822595706332660E+00  -1.7819342691863991E+00
  -1.7816089827647408E+00  -1.7812837113970235E+00  -1.7809584551118931E+00  -1.7806332139379131E+00  -1.7803079879035615E+00
  -1.7799827770372350E+00  -1.7796575813672453E+00  -1.7793324009218221E+00  -1.7790072357291118E+00  -1.7786820858171790E+00
  -1.7783569512140058E+00  -1.7780318319474917E+00  -1.7777067280454546E+00  -1.7773816395356321E+00  -1.7770565664456777E+00
  -1.7767315088031661E+00  -1.7764064666355912E+00  -1.7760814399703646E+00  -1.7757564288348180E+00  -1.7754314332562040E+00
  -1.7751064532616943E+00  -1.7747814888783791E+00  -1.7744565401332730E+00  -1.7741316070533073E+00  -1.7738066896653368E+00
  -1.7734817879961364E+00  -1.7731569020724018E+00  -1.7728320319207520E+00  -1.7725071775677252E+00  -1.7721823390397842E+00
  -1.7718575163633117E+00  -1.7715327095646145E+00  -1.7712079186699210E+00  -1.7708831437053831E+00  -1.7705583846970749E+00
  -1.7702336416709950E+00  -1.7699089146530647E+00  -1.7695842036691278E+00  -1.7692595087449545E+00  -1.7689348299062371E+00
  -1.7686101671785941E+00  -1.7682855205875661E+00  -1.7679608901586201E+00  -1.7676362759171476E+00  -1.7673116778884659E+00
  -1.7669870960978158E+00  -1.7666625305703663E+00  -1.7663379813312090E+00  -1.7660134484053647E+00  -1.7656889318177784E+00
  -1.7653644315933217E+00  -1.7650399477567937E+00  -1.7647154803329193E+00  -1.7643910293463496E+00  -1.7640665948216661E+00
  -1.7637421767833739E+00  -1.7634177752559073E+00  -1.7630933902636297E+00  -1.7627690218308301E+00  -1.7624446699817273E+00
  -1.7621203347404675E+00  -1.7617960161311264E+00  -1.7614717141777074E+00  -1.7611474289041440E+00  -1.7608231603342981E+00
  -1.7604989084919611E+00  -1.7601746734008541E+00  -1.7598504550846275E+00  -1.7595262535668625E+00  -1.7592020688710690E+00
  -1.7588779010206892E+00  -1.7585537500390935E+00  -1.7582296159495856E+00  -1.7579054987753973E+00  -1.7575813985396935E+00
  -1.7572573152655697E+00  -1.7569332489760516E+00  -1.7566091996941002E+00  -1.7562851674426045E+00  -1.7559611522443861E+00
  -1.7556371541222009E+00  -1.7553131730987357E+00  -1.7549892091966088E+00  -1.7546652624383738E+00  -1.7543413328465149E+00
  -1.7540174204434515E+00  -1.7536935252515342E+00  -1.7533696472930489E+00  -1.7530457865902134E+00  -1.7527219431651808E+00
  -1.7523981170400380E+00  -1.7520743082368042E+00  -1.7517505167774363E+00  -1.7514267426838230E+00  -1.7511029859777891E+00
  -1.7507792466810936E+00  -1.7504555248154312E+00  -1.7501318204024308E+00  -1.7498081334636590E+00  -1.7494844640206144E+00
  -1.7491608120947348E+00  -1.7488371777073928E+00  -1.7485135608798963E+00  -1.7481899616334897E+00  -1.7478663799893552E+00
  -1.7475428159686106E+00  -1.7472192695923099E+00  -1.7468957408814461E+00  -1.7465722298569475E+00  -1.7462487365396804E+00
  -1.7459252609504483E+00  -1.7456018031099925E+00  -1.7452783630389928E+00  -1.7449549407580658E+00  -1.7446315362877669E+00
  -1.7443081496485904E+00  -1.7439847808609685E+00  -1.7436614299452715E+00  -1.7433380969218097E+00  -1.7430147818108310E+00
  -1.7426914846325248E+00  -1.7423682054070171E+00  -1.7420449441543744E+00  -1.7417217008946038E+00  -1.7413984756476515E+00
  -1.7410752684334030E+00  -1.7407520792716846E+00  -1.7404289081822635E+00  -1.7401057551848462E+00  -1.7397826202990803E+00
  -1.7394595035445541E+00  -1.7391364049407974E+00  -1.7388133245072801E+00  -1.7384902622634149E+00  -1.7381672182285535E+00
  -1.7378441924219910E+00  -1.7375211848629644E+00  -1.7371981955706512E+00  -1.7368752245641721E+00  -1.7365522718625888E+00
  -1.7362293374849072E+00  -1.7359064214500737E+00  -1.7355835237769788E+00  -1.7352606444844543E+00  -1.7349377835912774E+00
  -1.7346149411161653E+00  -1.7342921170777814E+00  -1.7339693114947308E+00  -1.7336465243855619E+00  -1.7333237557687680E+00
  -1.7330010056627854E+00  -1.7326782740859952E+00  -1.7323555610567212E+00  -1.7320328665932336E+00  -1.7317101907137455E+00
  -1.7313875334364146E+00  -1.7310648947793443E+00  -1.7307422747605823E+00  -1.7304196733981216E+00  -1.7300970907099000E+00
  -1.7297745267138007E+00  -1.7294519814276530E+00  -1.7291294548692304E+00  -1.7288069470562548E+00  -1.7284844580063909E+00
  -1.7281619877372516E+00  -1.7278395362663950E+00  -1.7275171036113262E+00  -1.7271946897894959E+00  -1.7268722948183026E+00
  -1.7265499187150908E+00  -1.7262275614971521E+00  -1.7259052231817251E+00  -1.7255829037859949E+00  -1.7252606033270956E+00
  -1.7249383218221077E+00  -1.7246160592880593E+00  -1.7242938157419261E+00  -1.7239715912006315E+00  -1.7236493856810489E+00
  -1.7233271991999970E+00  -1.7230050317742447E+00  -1.7226828834205092E+00  -1.7223607541554544E+00  -1.7220386439956958E+00
  -1.7217165529577958E+00  -1.7213944810582660E+00  -1.7210724283135674E+00  -1.7207503947401110E+00  -1.7204283803542557E+00
  -1.7201063851723111E+00  -1.7197844092105352E+00  -1.7194624524851374E+00  -1.7191405150122754E+00  -1.7188185968080583E+00
  -1.7184966978885450E+00  -1.7181748182697438E+00  -1.7178529579676141E+00  -1.7175311169980660E+00  -1.7172092953769607E+00
  -1.7168874931201095E+00  -1.7165657102432743E+00  -1.7162439467621693E+00  -1.7159222026924588E+00  -1.7156004780497593E+00
  -1.7152787728496379E+00  -1.7149570871076139E+00  -1.7146354208391583E+00  -1.7143137740596939E+00  -1.7139921467845955E+00
  -1.7136705390291891E+00  -1.7133489508087547E+00  -1.7130273821385227E+00  -1.7127058330336780E+00  -1.7123843035093564E+00
  -1.7120627935806474E+00  -1.7117413032625921E+00  -1.7114198325701866E+00  -1.7110983815183785E+00  -1.7107769501220695E+00
   5.0803612526640507E+01   5.0803612526640507E+01   5.0803612526640507E+01   5.0803612526640507E+01   5.0803612526640507E+01
   5.0803612526640507E+01   5.0803612526640507E+01   5.0803612526640507E+01   5.0803612526640507E+01   5.0803612526640507E+01
   5.0803612526640507E+01   5.0803612526640507E+01   5.0803612526640507E+01   5.0803612526640507E+01   5.0803612526640507E+01
   5.0803612526640507E+01   5.0803612526640507E+01   5.0803612526640507E+01   5.0803612526640507E+01   5.0803612526640507E+01
   5.0803612526640507E+01   5.0803612526640507E+01   5.0803612526640507E+01   5.0803612526640507E+01   5.0803612526640507E+01
   5.0803612526640507E+01   5.0803612526640507E+01   5.0803612526640507E+01   5.0803612526640507E+01   5.0803612526640507E+01
   5.0803612526640507E+01   5.0803612526640507E+01   5.0803612526640507E+01   5.0803612526640507E+01   5.0803612526640507E+01
   5.0803612526640507E+01   5.0803612526640507E+01   5.0803612526640507E+01   5.0803612526640507E+01   5.0803612526640507E+01
   5.0803612526640507E+01   5.0803612526640507E+01   5.0803612526640507E+01   5.0803612526640507E+01   5.0803612526640507E+01
   5.0803612526640507E+01   5.0803612526640507E+01   5.0803612526640507E+01   5.0803612526640507E+01   5.0803612526640507E+01
   5.0803612526640507E+01   5.0803612526640507E+01   5.0803612526640507E+01   5.0803612526640507E+01   5.0803612526640507E+01
   5.0803612526640507E+01   5.0803612526640507E+01   5.0803612526640507E+01   5.0803612526640507E+01   5.0803612526640507E+01
   5.0803612526640507E+01   5.0803612526640507E+01   5.0803612526640507E+01   5.0803612526640507E+01   5.0803612526640507E+01
   5.0803612526640507E+01   5.0803612526640507E+01   5.0803612526640507E+01   5.0803612526640507E+01   5.0803612526640507E+01
   5.0803612526640507E+01   5.0803612526640507E+01   5.0803612526640507E+01   5.0803612526640507E+01   5.0803612526640507E+01
   5.0803612526640507E+01   5.0803612526640507E+01   5.0803612526640507E+01   5.0803612526640507E+01   5.0803612526640507E+01
   5.0803612526640507E+01   5.0803612526640507E+01   5.0803612526640507E+01   5.0803612526640507E+01   5.0803612526640507E+01
   5.0803612526640507E+01   5.0803612526640507E+01   5.0803612526640507E+01   5.0803612526640507E+01   5.0803612526640507E+01
   5.0803612526640507E+01   5.0803612526640507E+01   5.0803612526640507E+01   5.0803612526640507E+01   5.0803612526640507E+01
   5.0803612526640507E+01   5.0803612526640507E+01   5.0803612526640507E+01   5.0803612526640507E+01   5.0803612526640507E+01
   5.0803612526640507E+01   5.0803612526640507E+01   5.0803612526640507E+01   5.0803612526640507E+01   5.0803612526640507E+01
   5.0803612526640507E+01   5.0803612526640507E+01   5.0803612526640507E+01   5.0803612526640507E+01   5.0803612526640507E+01
   5.0803612526640507E+01   5.0803612526640507E+01   5.0803612526640507E+01   5.0803612526640507E+01   5.0803612526640507E+01
   5.0803612526640507E+01   5.0803612526640507E+01   5.0803612526640507E+01   5.0803612526640507E+01   5.0803612526640507E+01
   5.0803612526640507E+01   5.0803612526640507E+01   5.0803612526640507E+01   5.0803612526640507E+01   5.0803612526640507E+01
   5.0803612526640507E+01   5.0803612526640507E+01   5.0803612526640507E+01   5.0803612526640507E+01   5.0803612526640507E+01
   5.0803612526640507E+01   5.0803612526640507E+01   5.0803612526640507E+01   5.0803612526640507E+01   5.0803612526640507E+01
   5.0803612526640507E+01   5.0803612526640507E+01   5.0803612526640507E+01   5.0803612526640507E+01   5.0803612526640507E+01
   5.0803612526640507E+01   5.0803612526640507E+01   5.0803612526640507E+01   5.0803612526640507E+01   5.0803612526640507E+01
   5.0803612526640507E+01   5.0803612526640507E+01   5.0803612526640507E+01   5.0803612526640507E+01   5.0803612526640507E+01
   5.0803612526640507E+01   5.0803612526640507E+01   5.0803612526640507E+01   5.0803612526640507E+01   5.0803612526640507E+01
   5.0803612526640507E+01   5.0803612526640507E+01   5.0803612526640507E+01   5.0803612526640507E+01   5.0803612526640507E+01
   5.0803612526640507E+01   5.0803612526640507E+01   5.0803612526640507E+01   5.0803612526640507E+01   5.0803612526640507E+01
   5.0803612526640507E+01   5.0803612526640507E+01   5.0803612526640507E+01   5.0803612526640507E+01   5.0803612526640507E+01
   5.0803612526640507E+01   5.0803612526640507E+01   5.0803612526640507E+01   5.0803612526640507E+01   5.0803612526640507E+01
   5.0771017747452532E+01   5.0525453755586554E+01   5.0281076788797087E+01   5.0037881136918671E+01   4.9795861116188320E+01
   4.9555011069162845E+01   4.9315325364635214E+01   4.9076798397549148E+01   4.8839424588913317E+01   4.8603198385714109E+01
   4.8368114260827539E+01   4.8134166712930380E+01   4.7901350266410113E+01   4.7669659471274464E+01   4.7439088903059840E+01
   4.7209633162739145E+01   4.6981286876629127E+01   4.6754044696296660E+01   4.6527901298464883E+01   4.6302851384918370E+01
   4.6078889682408182E+01   4.5856010942556061E+01   4.5634209941758364E+01   4.5413481481089732E+01   4.5193820386205928E+01
   4.4975221507246900E+01   4.4757679718738878E+01   4.4541189919496894E+01   4.4325747032526337E+01   4.4111346004924812E+01
   4.3897981807783466E+01   4.3685649436088354E+01   4.3474343908621364E+01   4.3264060267861247E+01   4.3054793579884496E+01
   4.2846538934266064E+01   4.2639291443979900E+01   4.2433046245299799E+01   4.2227798497699716E+01   4.2023543383754593E+01
   4.1820276109040641E+01   4.1617991902036209E+01   4.1416686014022154E+01   4.1216353718982639E+01   4.1016990313505900E+01
   4.0818591116684964E+01   4.0621151470018617E+01   4.0424666737312378E+01   4.0229132304579764E+01   4.0034543579943353E+01
   3.9840895993536485E+01   3.9648184997404520E+01   3.9456406065406902E+01   3.9265554693118787E+01   3.9075626397733423E+01
   3.8886616717964294E+01   3.8698521213947664E+01   3.8511335467145308E+01   3.8325055080247580E+01   3.8139675677076440E+01
   3.7955192902488974E+01   3.7771602422281084E+01   3.7588899923091311E+01   3.7407081112305221E+01   3.7226141717959685E+01
   3.7046077488647711E+01   3.6866884193423353E+01   3.6688557621707176E+01   3.6511093583191645E+01   3.6334487907747246E+01
   3.6158736445328344E+01   3.5983835065879965E+01   3.5809779659244413E+01   3.5636566135068520E+01   3.5464190422710836E+01
   3.5292648471149604E+01   3.5121936248890648E+01   3.4952049743875904E+01   3.4782984963391996E+01   3.4614737933979391E+01
   3.4447304701341736E+01   3.4280681330255490E+01   3.4114863904480210E+01   3.3949848526668710E+01   3.3785631318277908E+01
   3.3622208419479868E+01   3.3459575989073329E+01   3.3297730204395371E+01   3.3136667261233605E+01   3.2976383373738607E+01
   3.2816874774336810E+01   3.2658137713643661E+01   3.2500168460377161E+01   3.2342963301271730E+01   3.2186518540992537E+01
   3.2030830502050001E+01   3.1875895524714828E+01   3.1721709966933371E+01   3.1568270204243174E+01   3.1415572629689144E+01
   3.1263613653739863E+01   3.1112389704204453E+01   3.0961897226149492E+01   3.0812132681816717E+01   3.0663092550540700E+01
   3.0514773328667086E+01   3.0367171529471157E+01   3.0220283683076786E+01   3.0074106336375543E+01   2.9928636052946484E+01
   2.9783869412976056E+01   2.9639803013178504E+01   2.9496433466716425E+01   2.9353757403121921E+01   2.9211771468218064E+01
   2.9070472324040544E+01   2.8929856648759788E+01   2.8789921136603486E+01   2.8650662497779400E+01   2.8512077458398501E+01
   2.8374162760398558E+01   2.8236915161467934E+01   2.8100331434969853E+01   2.7964408369866927E+01   2.7829142770646197E+01
   2.7694531457244228E+01   2.7560571264972872E+01   2.7427259044445059E+01   2.7294591661501297E+01   2.7162565997136152E+01
   2.7031178947425314E+01   2.6900427423452854E+01   2.6770308351238956E+01   2.6640818671667876E+01   2.6511955340416300E+01
   2.6383715327882044E+01   2.6256095619112941E+01   2.6129093213736351E+01   2.6002705125888713E+01   2.5876928384145625E+01
   2.5751760031452111E+01   2.5627197125053332E+01   2.5503236736425571E+01   2.5379875951207556E+01   2.5257111869132075E+01
   2.5134941603957973E+01   2.5013362283402433E+01   2.4892371049073539E+01   2.4771965056403321E+01   2.4652141474580915E+01
   2.4532897486486117E+01   2.4414230288623290E+01   2.4296137091055638E+01   2.4178615117339579E+01   2.4061661604459680E+01
   2.3945273802763701E+01   2.3829448975898153E+01   2.3714184400743910E+01   2.3599477367352428E+01   2.3485325178881929E+01
   2.3371725151534232E+01   2.3258674614491618E+01   2.3146170909854181E+01   2.3034211392577330E+01   2.2922793430409740E+01
   2.2811914403831416E+01   2.2701571705992286E+01   2.2591762742650889E+01   2.2482484932113422E+01   2.2373735705173136E+01
   2.2265512505049930E+01   2.2157812787330347E+01   2.2050634019907712E+01   2.1943973682922721E+01   2.1837829268704127E+01
   2.1732198281709923E+01   2.1627078238468659E+01   2.1522466667521083E+01   2.1418361109362056E+01   2.1314759116382771E+01
   2.1211658252813237E+01   2.1109056094665021E+01   2.1006950229674288E+01   2.0905338257245127E+01   2.0804217788393082E+01
   2.0703586445689073E+01   2.0603441863203496E+01   2.0503781686450569E+01   2.0404603572333063E+01   2.0305905189087177E+01
   2.0207684216227758E+01   2.0109938344493784E+01   2.0012665275794042E+01   1.9915862723153086E+01   1.9819528410657561E+01
   1.9723660073402673E+01   1.9628255457438925E+01   1.9533312319719141E+01   1.9438828428045767E+01   1.9344801561018389E+01
   1.9251229507981506E+01   1.9158110068972572E+01   1.9065441054670252E+01   1.8973220286343032E+01   1.8881445595797906E+01
   1.8790114825329482E+01   1.8699225827669210E+01   1.8608776465934948E+01   1.8518764613580682E+01   1.8429188154346562E+01
   1.8340044982209161E+01   1.8251333001331933E+01   1.8163050126015964E+01   1.8075194280650926E+01   1.7987763399666331E+01
   1.7900755427482899E+01   1.7814168318464247E+01   1.7728000036868874E+01   1.7642248556802159E+01   1.7556911862168942E+01
   1.7471987946625902E+01   1.7387474813534514E+01   1.7303370475914086E+01   1.7219672956395087E+01   1.7136380287172564E+01
   1.7053490509959953E+01   1.6971001675943015E+01   1.6888911845734043E+01   1.6807219089326221E+01   1.6725921486048293E+01
   1.6645017124519402E+01   1.6564504102604097E+01   1.6484380527367726E+01   1.6404644515031805E+01   1.6325294190929839E+01
   1.6246327689463151E+01   1.6167743154057128E+01   1.6089538737117458E+01   1.6011712599986787E+01   1.5934262912901444E+01
   1.5857187854948402E+01   1.5780485614022535E+01   1.5704154386783971E+01   1.5628192378615696E+01   1.5552597803581339E+01
   1.5477368884383260E+01   1.5402503852320644E+01   1.5328000947248082E+01   1.5253858417534016E+01   1.5180074520019684E+01
   1.5106647519978033E+01   1.5033575691073079E+01   1.4960857315319151E+01   1.4888490683040628E+01   1.4816474092831651E+01
   1.4744805851516231E+01   1.4673484274108315E+01   1.4602507683772277E+01   1.4531874411783422E+01   1.4461582797488777E+01
   1.4391631188268088E+01   1.4322017939494886E+01   1.4252741414497903E+01   1.4183799984522516E+01   1.4115192028692524E+01
   1.4046915933971972E+01   1.3978970095127307E+01   1.3911352914689550E+01   1.3844062802916806E+01   1.3777098177756836E+01
   1.3710457464809936E+01   1.3644139097291827E+01   1.3578141515996892E+01   1.3512463169261466E+01   1.3447102512927415E+01
   1.3382058010305775E+01   1.3317328132140632E+01   1.3252911356573220E+01   1.3188806169106053E+01   1.3125011062567417E+01
   1.3061524537075831E+01   1.2998345100004892E+01   1.2935471265948076E+01   1.2872901556683907E+01   1.2810634501141129E+01
   1.2748668635364170E+01   1.2687002502478704E+01   1.2625634652657396E+01   1.2564563643085817E+01   1.2503788037928530E+01
   1.2443306408295319E+01   1.2383117332207613E+01   1.2323219394565037E+01   1.2263611187112133E+01   1.2204291308405299E+01
   1.2145258363779764E+01   1.2086510965316890E+01   1.2028047731811439E+01   1.1969867288739181E+01   1.1911968268224548E+01
   1.1854349309008475E+01   1.1797009056416373E+01   1.1739946162326332E+01   1.1683159285137373E+01   1.1626647089737936E+01
   1.1570408247474480E+01   1.1514441436120251E+01   1.1458745339844183E+01   1.1403318649179967E+01   1.1348160060995291E+01
   1.1293268278461145E+01   1.1238642011021390E+01   1.1184279974362381E+01   1.1130180890382771E+01   1.1076343487163490E+01
   1.1022766498937806E+01   1.0969448666061602E+01   1.0916388734983718E+01   1.0863585458216525E+01   1.0811037594306541E+01
   1.0758743907805318E+01   1.0706703169240303E+01   1.0654914155086022E+01   1.0603375647735247E+01   1.0552086435470414E+01
   1.0501045312435098E+01   1.0450251078605687E+01   1.0399702539763158E+01   1.0349398507465008E+01   1.0299337799017300E+01
   1.0249519237446867E+01   1.0199941651473644E+01   1.0150603875483110E+01   1.0101504749498908E+01   1.0052643119155549E+01
   1.0004017835671307E+01   9.9556277558211548E+00   9.9074717419099496E+00   9.8595486617456363E+00   9.8118573886126423E+00
   9.7643968012454128E+00   9.7171657838019954E+00   9.6701632258378662E+00   9.6233880222797747E+00   9.5768390733997926E+00
   9.5305152847894377E+00   9.4844155673339561E+00   9.4385388371867123E+00   9.3928840157437090E+00   9.3474500296182157E+00
   9.3022358106155600E+00   9.2572402957079873E+00   9.2124624270096636E+00   9.1679011517518418E+00   9.1235554222580717E+00
   9.0794241959195734E+00   9.0355064351707544E+00   8.9918011074647790E+00   8.9483071852493019E+00   8.9050236459423360E+00
   8.8619494719081651E+00   8.8190836504334609E+00   8.7764251737034460E+00   8.7339730387782097E+00   8.6917262475691288E+00
   8.6496838068153910E+00   8.6078447280606625E+00   8.5662080276298287E+00   8.5247727266058781E+00   8.4835378508068793E+00
   8.4425024307630920E+00   8.4016655016941488E+00   8.3610261034864077E+00   8.3205832806703288E+00   8.2803360823980725E+00
   8.2402835624210855E+00   8.2004247790678999E+00   8.1607587952219554E+00   8.1212846782996024E+00   8.0820015002281451E+00
   8.0429083374240395E+00   8.0040042707711727E+00   7.9652883855992664E+00   7.9267597716623479E+00   7.8884175231173677E+00
   7.8502607385029037E+00   7.8122885207179484E+00   7.7744999770008452E+00   7.7368942189082661E+00   7.6994703622943614E+00
   7.6622275272899252E+00   7.6251648382817674E+00   7.5882814238920684E+00   7.5515764169579267E+00   7.5150489545109771E+00
   7.4786981777570700E+00   7.4425232320561099E+00   7.4065232669019450E+00   7.3706974359023807E+00   7.3350448967592712E+00
   7.2995648112487279E+00   7.2642563452013960E+00   7.2291186684828634E+00   7.1941509549741189E+00   7.1593523825521554E+00
   7.1247221330706161E+00   7.0902593923405757E+00   7.0559633501113970E+00   7.0218332000516748E+00   6.9878681397302724E+00
   6.9540673705974791E+00   6.9204300979662117E+00   6.8869555309933395E+00   6.8536428826610960E+00   6.8204913697585665E+00
   6.7875002128632804E+00   6.7546686363228767E+00   6.7219958682368901E+00   6.6894811404385734E+00   6.6571236884768537E+00
   6.6249227515983664E+00   6.5928775727295461E+00   6.5609873984588569E+00   6.5292514790190470E+00   6.4976690682695537E+00
   6.4662394236789265E+00   6.4349618063074052E+00   6.4038354807895130E+00   6.3728597153167961E+00   6.3420337816205965E+00
   6.3113569549549462E+00   6.2808285140795110E+00   6.2504477412426525E+00   6.2202139221645378E+00   6.1901263460203513E+00
   6.1601843054235825E+00   6.1303870964094029E+00   6.1007340184180965E+00   6.0712243742786027E+00   6.0418574701921308E+00
   6.0126326157158259E+00   5.9835491237465641E+00   5.9546063105047695E+00   5.9258034955183669E+00   5.8971400016067497E+00
   5.8686151548649006E+00   5.8402282846475053E+00   5.8119787235532092E+00   5.7838658074089286E+00   5.7558888752542181E+00
   5.7280472693257485E+00   5.7003403350418260E+00   5.6727674209870216E+00   5.6453278788968309E+00   5.6180210636424617E+00
   5.5908463332156382E+00   5.5638030487135302E+00   5.5368905743237127E+00   5.5101082773092367E+00   5.4834555279937343E+00
   5.4569316997466224E+00   5.4305361689683798E+00   5.4042683150758677E+00   5.3781275204877481E+00   5.3521131706099689E+00
   5.3262246538213063E+00   5.3004613614589857E+00   5.2748226878043800E+00   5.2493080300687529E+00   5.2239167883791069E+00
   5.1986483657640585E+00   5.1735021681398230E+00   5.1484776042962288E+00   5.1235740858828285E+00   5.0987910273950696E+00
   5.0741278461605122E+00   5.0495839623251539E+00   5.0251587988397697E+00   5.0008517814463707E+00   4.9766623386646804E+00
   4.9525899017787216E+00   4.9286339048234185E+00   4.9047937845713179E+00   4.8810689805193253E+00   4.8574589348755417E+00
   4.8339630925461385E+00   4.8105809011223180E+00   4.7873118108673127E+00   4.7641552747034694E+00   4.7411107481993904E+00
   4.7181776895571197E+00   4.6953555595994168E+00   4.6726438217570747E+00   4.6500419420563119E+00   4.6275493891062025E+00
   4.6051656340862044E+00   4.5828901507337036E+00   4.5607224153316626E+00   4.5386619066962863E+00   4.5167081061647893E+00
   4.4948604975831854E+00   4.4731185672941578E+00   4.4514818041249899E+00   4.4299496993755323E+00   4.4085217468062590E+00
   4.3871974426263494E+00   4.3659762854818593E+00   4.3448577764439182E+00   4.3238414189970147E+00   4.3029267190273073E+00
   4.2821131848110214E+00   4.2614003270028773E+00   4.2407876586245941E+00   4.2202746950534333E+00   4.1998609540108065E+00
   4.1795459555509424E+00   4.1593292220495961E+00   4.1392102781928202E+00   4.1191886509657962E+00   4.0992638696417041E+00
   4.0794354657706613E+00   4.0597029731687098E+00   4.0400659279068485E+00   4.0205238683001383E+00   4.0010763348968315E+00
   3.9817228704675864E+00   3.9624630199947006E+00   3.9432963306614321E+00   3.9242223518413288E+00   3.9052406350876607E+00
   3.8863507341228565E+00   3.8675522048280269E+00   3.8488446052324976E+00   3.8302274955034505E+00   3.8117004379355617E+00
   3.7932629969407201E+00   3.7749147390377713E+00   3.7566552328423484E+00   3.7384840490567166E+00   3.7204007604596785E+00
   3.7024049418965324E+00   3.6844961702690830E+00   3.6666740245256850E+00   3.6489380856513436E+00   3.6312879366578743E+00
   3.6137231625740842E+00   3.5962433504360289E+00   3.5788480892772916E+00   3.5615369701193278E+00   3.5443095859618521E+00
   3.5271655317732660E+00   3.5101044044811265E+00   3.4931258029626875E+00   3.4762293280354597E+00   3.4594145824478137E+00
   3.4426811708696636E+00   3.4260286998831577E+00   3.4094567779734333E+00   3.3929650155194024E+00   3.3765530247846067E+00
   3.3602204199080941E+00   3.3439668168953474E+00   3.3277918336092474E+00   3.3116950897611059E+00   3.2956762069017116E+00
   3.2797348084124422E+00   3.2638705194963920E+00   3.2480829671695846E+00   3.2323717802521830E+00   3.2167365893597739E+00
   3.2011770268946824E+00   3.1856927270373228E+00   3.1702833257376062E+00   3.1549484607063762E+00   3.1396877714068898E+00
   3.1245008990463465E+00   3.1093874865674542E+00   3.0943471786400170E+00   3.0793796216526057E+00   3.0644844637042281E+00
   3.0496613545960640E+00   3.0349099458232178E+00   3.0202298905665432E+00   3.0056208436844809E+00   2.9910824617049352E+00
   2.9766144028172148E+00   2.9622163268639867E+00   2.9478878953332832E+00   2.9336287713505333E+00   2.9194386196706570E+00
   2.9053171066701751E+00   2.8912639003393683E+00   2.8772786702744622E+00   2.8633610876698739E+00   2.8495108253104759E+00
   2.8357275575638927E+00   2.8220109603728609E+00   2.8083607112476030E+00   2.7947764892582407E+00   2.7812579750272586E+00
   2.7678048507219866E+00   2.7544168000471352E+00   2.7410935082373582E+00   2.7278346620498408E+00   2.7146399497569522E+00
   2.7015090611389052E+00   2.6884416874764678E+00   2.6754375215436972E+00   2.6624962576007274E+00   2.6496175913865780E+00
   2.6368012201119897E+00   2.6240468424523216E+00   2.6113541585404594E+00   2.5987228699597642E+00   2.5861526797370540E+00
   2.5736432923356301E+00   2.5611944136483227E+00   2.5488057509905784E+00   2.5364770130935725E+00   2.5242079100973718E+00
   2.5119981535441158E+00   2.4998474563712247E+00   2.4877555329046679E+00   2.4757220988522355E+00   2.4637468712968560E+00
   2.4518295686899458E+00   2.4399699108447934E+00   2.4281676189299639E+00   2.4164224154627529E+00   2.4047340243026540E+00
   2.3931021706448696E+00   2.3815265810138553E+00   2.3700069832568835E+00   2.3585431065376428E+00   2.3471346813298792E+00
   2.3357814394110563E+00   2.3244831138560396E+00   2.3132394390308355E+00   2.3020501505863376E+00   2.2909149854521145E+00
   2.2798336818302181E+00   2.2688059791890391E+00   2.2578316182571747E+00   2.2469103410173372E+00   2.2360418907002777E+00
   2.2252260117787648E+00   2.2144624499615664E+00   2.2037509521874719E+00   2.1930912666193429E+00   2.1824831426381994E+00
   2.1719263308373153E+00   2.1614205830163633E+00   2.1509656521755782E+00   2.1405612925099469E+00   2.1302072594034329E+00
   2.1199033094232216E+00   2.1096492003139975E+00   2.0994446909922524E+00   2.0892895415406163E+00   2.0791835132022070E+00
   2.0691263683750329E+00   2.0591178706063964E+00   2.0491577845873339E+00   2.0392458761470893E+00   2.0293819122476049E+00
   2.0195656609780452E+00   2.0097968915493367E+00   2.0000753742887527E+00   1.9904008806345064E+00   1.9807731831303823E+00
   1.9711920554203772E+00   1.9616572722433949E+00   1.9521686094279382E+00   1.9427258438868433E+00   1.9333287536120292E+00
   1.9239771176692873E+00   1.9146707161930814E+00   1.9054093303813744E+00   1.8961927424904947E+00   1.8870207358300066E+00
   1.8778930947576240E+00   1.8688096046741332E+00   1.8597700520183502E+00   1.8507742242621033E+00   1.8418219099052333E+00
   1.8329128984706162E+00   1.8240469804992239E+00   1.8152239475451935E+00   1.8064435921709314E+00   1.7977057079422256E+00
   1.7890100894234067E+00   1.7803565321725101E+00   1.7717448327364647E+00   1.7631747886463207E+00   1.7546461984124819E+00
   1.7461588615199717E+00   1.7377125784237129E+00   1.7293071505438451E+00   1.7209423802610497E+00   1.7126180709119077E+00
   1.7043340267842690E+00   1.6960900531126599E+00   1.6878859560737007E+00   1.6797215427815420E+00   1.6715966212833417E+00
   1.6635110005547442E+00   1.6554644904953904E+00   1.6474569019244472E+00   1.6394880465761656E+00   1.6315577370954462E+00
   1.6236657870334423E+00   1.6158120108431673E+00   1.6079962238751404E+00   1.6002182423730422E+00   1.5924778834693964E+00
   1.5847749651812617E+00   1.5771093064059671E+00   1.5694807269168449E+00   1.5618890473589921E+00   1.5543340892450617E+00
   1.5468156749510571E+00   1.5393336277121648E+00   1.5318877716185912E+00   1.5244779316114301E+00   1.5171039334785450E+00
   1.5097656038504814E+00   1.5024627701963724E+00   1.4951952608199051E+00   1.4879629048552672E+00   1.4807655322631359E+00
   1.4736029738266785E+00   1.4664750611475794E+00   1.4593816266420716E+00   1.4523225035370033E+00   1.4452975258659138E+00
   1.4383065284651375E+00   1.4313493469699108E+00   1.4244258178105142E+00   1.4175357782084257E+00   1.4106790661724957E+00
   1.4038555204951328E+00   1.3970649807485185E+00   1.3903072872808324E+00   1.3835822812125051E+00   1.3768898044324687E+00
   1.3702296995944585E+00   1.3636018101132970E+00   1.3570059801612218E+00   1.3504420546642184E+00   1.3439098792983739E+00
   1.3374093004862544E+00   1.3309401653932851E+00   1.3245023219241632E+00   1.3180956187192789E+00   1.3117199051511634E+00
   1.3053750313209367E+00   1.2990608480547916E+00   1.2927772069004821E+00   1.2865239601238405E+00   1.2803009607052886E+00
   1.2741080623364012E+00   1.2679451194164482E+00   1.2618119870489863E+00   1.2557085210384369E+00   1.2496345778867122E+00
   1.2435900147898269E+00   1.2375746896345539E+00   1.2315884609950682E+00   1.2256311881296376E+00   1.2197027309773021E+00
   1.2138029501545853E+00   1.2079317069522164E+00   1.2020888633318729E+00   1.1962742819229282E+00   1.1904878260192266E+00
   1.1847293595758681E+00   1.1789987472060084E+00   1.1732958541776803E+00   1.1676205464106200E+00   1.1619726904731178E+00
   1.1563521535788801E+00   1.1507588035839127E+00   1.1451925089834005E+00   1.1396531389086324E+00   1.1341405631239119E+00
   1.1286546520235006E+00   1.1231952766285682E+00   1.1177623085841661E+00   1.1123556201562006E+00   1.1069750842284363E+00
   1.1016205742995029E+00   1.0962919644799280E+00   1.0909891294891683E+00   1.0857119446526702E+00   1.0804602858989345E+00
   1.0752340297566052E+00   1.0700330533515598E+00   1.0648572344040230E+00   1.0597064512256928E+00   1.0545805827168779E+00
   1.0494795083636499E+00   1.0444031082350136E+00   1.0393512629800812E+00   1.0343238538252701E+00   1.0293207625715100E+00
   1.0243418715914612E+00   1.0193870638267546E+00   1.0144562227852314E+00   1.0095492325382107E+00   1.0046659777177582E+00
   9.9980634351398356E-01   9.9497021567232380E-01   9.9015748049087593E-01   9.8536802481770913E-01   9.8060173604821410E-01
   9.7585850212244485E-01   9.7113821152249580E-01   9.6644075326986945E-01   9.6176601692287522E-01   9.5711389257402202E-01
   9.5248427084744736E-01   9.4787704289633290E-01   9.4329210040035605E-01   9.3872933556313032E-01   9.3418864110968403E-01
   9.2966991028392820E-01   9.2517303684615015E-01   9.2069791507051424E-01   9.1624443974257563E-01   9.1181250615680853E-01
   9.0740201011414012E-01   9.0301284791950254E-01   8.9864491637939337E-01   8.9429811279945270E-01   8.8997233498203954E-01
   8.8566748122383898E-01   8.8138345031346299E-01   8.7712014152907303E-01   8.7287745463601074E-01   8.6865528988444207E-01
   8.6445354800700913E-01   8.6027213021649651E-01   8.5611093820350792E-01   8.5196987413415681E-01   8.4784884064775967E-01
   8.4374774085455051E-01   8.3966647833340036E-01   8.3560495712955229E-01   8.3156308175235871E-01   8.2754075717304110E-01
   8.2353788882245005E-01   8.1955438258884783E-01   8.1559014481568315E-01   8.1164508229940135E-01   8.0771910228724186E-01
   8.0381211247506068E-01   7.9992402100515869E-01   7.9605473646411917E-01   7.9220416788066006E-01   7.8837222472349100E-01
   7.8455881689918372E-01   7.8076385475005339E-01   7.7698724905205052E-01   7.7322891101265734E-01   7.6948875226880242E-01
   7.6576668488477906E-01   7.6206262135018010E-01   7.5837647457783020E-01   7.5470815790174794E-01   7.5105758507509535E-01
   7.4742467026815695E-01   7.4380932806631084E-01   7.4021147346802807E-01   7.3663102188286333E-01   7.3306788912947130E-01
   7.2952199143361596E-01   7.2599324542620891E-01   7.2248156814133813E-01   7.1898687701431985E-01   7.1550908987975081E-01
   7.1204812496957892E-01   7.0860390091117176E-01   7.0517633672540381E-01   7.0176535182474942E-01   6.9837086601138254E-01
   6.9499279947529247E-01   6.9163107279239833E-01   6.8828560692268115E-01   6.8495632320832134E-01   6.8164314337184795E-01
   6.7834598951428771E-01   6.7506478411333770E-01   6.7179945002153230E-01   6.6854991046442791E-01   6.6531608903879158E-01
   6.6209790971080362E-01   6.5889529681426073E-01   6.5570817504879420E-01   6.5253646947809407E-01   6.4938010552814396E-01
   6.4623900898545850E-01   6.4311310599533555E-01   6.4000232306011295E-01   6.3690658703743741E-01   6.3382582513853170E-01
   6.3075996492648623E-01   6.2770893431454167E-01   6.2467266156439127E-01   6.2165107528448627E-01   6.1864410442835138E-01
   6.1565167829290457E-01   6.1267372651678909E-01   6.0971017907871095E-01   6.0676096629578335E-01   6.0382601882188347E-01
   6.0090526764600860E-01   5.9799864409064851E-01   5.9510607981015928E-01   5.9222750678915104E-01   5.8936285734087135E-01
   5.8651206410561363E-01   5.8367506004911507E-01   5.8085177846097635E-01   5.7804215295307526E-01   5.7524611745800258E-01
   5.7246360622749071E-01   5.6969455383086121E-01   5.6693889515346785E-01   5.6419656539516150E-01   5.6146750006874513E-01
   5.5875163499845248E-01   5.5604890631841697E-01   5.5335925047116430E-01   5.5068260420609816E-01   5.4801890457800040E-01
   5.4536808894553557E-01   5.4273009496976155E-01   5.4010486061265051E-01   5.3749232413560954E-01   5.3489242409801507E-01
   5.3230509935574921E-01   5.2973028905974673E-01   5.2716793265453987E-01   5.2461796987682330E-01   5.2208034075401244E-01
   5.1955498560281388E-01   5.1704184502780237E-01   5.1454085992000465E-01   5.1205197145548409E-01   5.0957512109393799E-01
   5.0711025057729653E-01   5.0465730192833225E-01   5.0221621744926848E-01   4.9978693972040078E-01   4.9736941159871950E-01
   4.9496357621654236E-01   4.9256937698014719E-01   4.9018675756841551E-01   4.8781566193147918E-01   4.8545603428937506E-01
   4.8310781913069895E-01   4.8077096121127566E-01   4.7844540555282405E-01   4.7613109744163284E-01   4.7382798242724172E-01
   4.7153600632112769E-01   4.6925511519539326E-01   4.6698525538146474E-01   4.6472637346879264E-01   4.6247841630355796E-01
   4.6024133098738484E-01   4.5801506487605465E-01   4.5579956557822959E-01   4.5359478095417738E-01   4.5140065911450467E-01
   4.4921714841888860E-01   4.4704419747482327E-01   4.4488175513636014E-01   4.4272977050286205E-01   4.4058819291775236E-01
   4.3845697196728128E-01   4.3633605747928295E-01   4.3422539952194816E-01   4.3212494840259169E-01   4.3003465466643487E-01
   4.2795446909538193E-01   4.2588434270680642E-01   4.2382422675234060E-01   4.2177407271666917E-01   4.1973383231632522E-01
   4.1770345749849197E-01   4.1568290043980793E-01   4.1367211354517586E-01   4.1167104944657557E-01   4.0967966100187919E-01
   4.0769790129367228E-01   4.0572572362807652E-01   4.0376308153357837E-01   4.0180992875985605E-01   3.9986621927661820E-01
   3.9793190727243682E-01   3.9600694715358981E-01   3.9409129354290418E-01   3.9218490127860317E-01   3.9028772541315504E-01
   3.8839972121212601E-01   3.8652084415303650E-01   3.8465104992421978E-01   3.8279029442368212E-01   3.8093853375796716E-01
   3.7909572424102256E-01   3.7726182239307060E-01   3.7543678493947569E-01   3.7362056880962330E-01   3.7181313113579295E-01
   3.7001442925203770E-01   3.6822442069306482E-01   3.6644306319311981E-01   3.6467031468486921E-01   3.6290613329828836E-01
   3.6115047735955069E-01   3.5940330538991666E-01   3.5766457610462837E-01   3.5593424841180027E-01   3.5421228141131667E-01
   3.5249863439372725E-01   3.5079326683914686E-01   3.4909613841615189E-01   3.4740720898068467E-01   3.4572643857495167E-01
   3.4405378742632930E-01   3.4238921594626393E-01   3.4073268472918061E-01   3.3908415455138435E-01   3.3744358636996985E-01
   3.3581094132172290E-01   3.3418618072203332E-01   3.3256926606379683E-01   3.3096015901632708E-01   3.2935882142425882E-01
   3.2776521530646002E-01   3.2617930285493690E-01   3.2460104643374266E-01   3.2303040857788445E-01   3.2146735199223070E-01
   3.1991183955041852E-01   3.1836383429375820E-01   3.1682329943014004E-01   3.1529019833293809E-01   3.1376449453991601E-01
   3.1224615175212628E-01   3.1073513383281648E-01   3.0923140480632660E-01   3.0773492885698955E-01   3.0624567032802885E-01
   3.0476359372045586E-01   3.0328866369196311E-01   3.0182084505581763E-01   3.0036010277975256E-01   2.9890640198485607E-01
   2.9745970794445742E-01   2.9601998608301228E-01   2.9458720197498439E-01   2.9316132134372669E-01   2.9174231006035622E-01
   2.9033013414263004E-01   2.8892475975381582E-01   2.8752615320156150E-01   2.8613428093675758E-01   2.8474910955240296E-01
   2.8337060578246015E-01   2.8199873650071183E-01   2.8063346871961098E-01   2.7927476958913028E-01   2.7792260639560268E-01
   2.7657694656056236E-01   2.7523775763957947E-01   2.7390500732109013E-01   2.7257866342522352E-01   2.7125869390262153E-01
   2.6994506683325659E-01   2.6863775042524191E-01   2.6733671301363948E-01   2.6604192305925800E-01   2.6475334914745197E-01
   2.6347095998690856E-01   2.6219472440843400E-01   2.6092461136372891E-01   2.5966058992416396E-01   2.5840262927954255E-01
   2.5715069873686230E-01   2.5590476771906601E-01   2.5466480576379003E-01   2.5343078252210177E-01   2.5220266775723255E-01
   2.5098043134330233E-01   2.4976404326403820E-01   2.4855347361148294E-01   2.4734869258469847E-01   2.4614967048846007E-01
   2.4495637773194215E-01   2.4376878482739828E-01   2.4258686238882859E-01   2.4141058113064273E-01   2.4023991186631166E-01
   2.3907482550701251E-01   2.3791529306026044E-01   2.3676128562853810E-01   2.3561277440790768E-01   2.3446973068661969E-01
   2.3333212584370891E-01   2.3219993134758163E-01   2.3107311875459149E-01   2.2995165970760686E-01   2.2883552593456621E-01
   2.2772468924702469E-01   2.2661912153868757E-01   2.2551879478393497E-01   2.2442368103633453E-01   2.2333375242714376E-01
   2.2224898116379810E-01   2.2116933952839268E-01   2.2009479987614708E-01   2.1902533463386142E-01   2.1796091629835926E-01
   2.1690151743491981E-01   2.1584711067569509E-01   2.1479766871811751E-01   2.1375316432329344E-01   2.1271357031438437E-01
   2.1167885957497595E-01   2.1064900504743231E-01   2.0962397973123936E-01   2.0860375668133388E-01   2.0758830900642022E-01
   2.0657760986727092E-01   2.0557163247501861E-01   2.0457035008942973E-01   2.0357373601716763E-01   2.0258176361003982E-01
   2.0159440626323380E-01   2.0061163741353688E-01   1.9963343053754373E-01   1.9865975914984818E-01   1.9769059680122369E-01
   1.9672591707678727E-01   1.9576569359415147E-01   1.9480990000156020E-01   1.9385850997601331E-01   1.9291149722137516E-01
   1.9196883546646978E-01   1.9103049846316267E-01   1.9009645998442942E-01   1.8916669382240847E-01   1.8824117378644245E-01
   1.8731987370110556E-01   1.8640276740421732E-01   1.8548982874484374E-01   1.8458103158128408E-01   1.8367634977904768E-01
   1.8277575720881550E-01   1.8187922774439066E-01   1.8098673526063722E-01   1.8009825363140694E-01   1.7921375672745440E-01
   1.7833321841434141E-01   1.7745661255033110E-01   1.7658391298427153E-01   1.7571509355346929E-01   1.7485012808155395E-01
   1.7398899037633409E-01   1.7313165422764548E-01   1.7227809340518976E-01   1.7142828165636856E-01   1.7058219270410915E-01
   1.6973980024468704E-01   1.6890107794553966E-01   1.6806599944308137E-01   1.6723453834050978E-01   1.6640666820561398E-01
   1.6558236256857867E-01   1.6476159491979014E-01   1.6394433870764050E-01   1.6313056733633591E-01   1.6232025416370652E-01
   1.6151337249902104E-01   1.6070989560080773E-01   1.5990979667467947E-01   1.5911304887117161E-01   1.5831962528358492E-01
   1.5752949894584473E-01   1.5674264283036790E-01   1.5595902984595064E-01   1.5517863283566771E-01   1.5440142457479419E-01
   1.5362737776874433E-01   1.5285646505103739E-01   1.5208865898128412E-01   1.5132393204320413E-01   1.5056225664266906E-01
   1.4980360510578272E-01   1.4904794967699092E-01   1.4829526251723238E-01   1.4754551570212782E-01   1.4679868122021428E-01
   1.4605473097122298E-01   1.4531363676440903E-01   1.4457537031693327E-01   1.4383990325229934E-01   1.4310720709885280E-01
   1.4237725328834080E-01   1.4165001315454223E-01   1.4092545793196676E-01   1.4020355875463203E-01   1.3948428665491741E-01
   1.3876761256250608E-01   1.3805350730341268E-01   1.3734194159910695E-01   1.3663288606573484E-01   1.3592631121344495E-01
   1.3522218744582185E-01   1.3452048505943673E-01   1.3382117424351594E-01   1.3312422507973817E-01   1.3242960754216088E-01
   1.3173729149728730E-01   1.3104724670427745E-01   1.3035944281531078E-01   1.2967384937610571E-01   1.2899043582660585E-01
   1.2830917150183699E-01   1.2763002563294532E-01   1.2695296734842085E-01   1.2627796567551713E-01   1.2560498954187307E-01
   1.2493400777734556E-01   1.2426498911606260E-01   1.2359790219870236E-01   1.2293271557500961E-01   1.2226939770655894E-01
   1.2160791696976982E-01   1.2094824165918712E-01   1.2029033999103513E-01   1.1963418010705272E-01   1.1897973007862338E-01
   1.1832695791120505E-01   1.1767583154907534E-01   1.1702631888039768E-01   1.1637838774262158E-01   1.1573200592822576E-01
   1.1508714119081652E-01   1.1444376125158991E-01   1.1380183380617041E-01   1.1316132653183536E-01   1.1252220709513780E-01
   1.1188444315993577E-01   1.1124800239584261E-01   1.1061285248710559E-01   1.0997896114192612E-01   1.0934629610223229E-01
   1.0871482515391137E-01   1.0808451613751779E-01   1.0745533695946349E-01   1.0682725560370041E-01   1.0620024014390869E-01
   1.0557425875619733E-01   1.0494927973232737E-01   1.0432527149346817E-01   1.0370220260449345E-01   1.0308004178882810E-01
   1.0245875794385143E-01   1.0183832015686582E-01   1.0121869772163671E-01   1.0059986015551137E-01   9.9981777217121176E-02
   9.9364418924672557E-02   9.8747755574831994E-02   9.8131757762206978E-02   9.7516396399425220E-02   9.6901642737816415E-02
   9.6287468388693218E-02   9.5673845345234557E-02   9.5060746004966598E-02   9.4448143192841963E-02   9.3836010184908364E-02
   9.3224320732566548E-02   9.2613049087405655E-02   9.2002170026611416E-02   9.1391658878935286E-02   9.0781491551212609E-02
   9.0171644555417360E-02   8.9562095036239395E-02   8.8952820799163446E-02   8.8343800339035300E-02   8.7735012869091869E-02
   8.7126438350431670E-02   8.6518057521902766E-02   8.5909851930378006E-02   8.5301803961391143E-02   8.4693896870098553E-02
   8.4086114812535445E-02   8.3478442877126344E-02   8.2870867116414962E-02   8.2263374578966944E-02   8.1655953341406351E-02
   8.1048592540533065E-02   8.0441282405479722E-02   7.9834014289847210E-02   7.9226780703772190E-02   7.8619575345863502E-02
   7.8012393134952437E-02   7.7405230241592016E-02   7.6798084119240093E-02   7.6190953535062736E-02   7.5583838600284503E-02
   7.4976740800015609E-02   7.4369663022482074E-02   7.3762609587583530E-02   7.3155586274697440E-02   7.2548600349655115E-02
   7.1941660590801426E-02   7.1334777314061917E-02   7.0727962396926775E-02   7.0121229301270349E-02   6.9514593094915728E-02
   6.8908070471861191E-02   6.8301679771076235E-02   6.7695440993781761E-02   6.7089375819126010E-02   6.6483507618167029E-02
   6.5877861466074134E-02   6.5272464152464779E-02   6.4667344189787146E-02   6.4062531819669075E-02   6.3458059017147878E-02
   6.2853959492703518E-02   6.2250268692018149E-02   6.1647023793386657E-02   6.1044263702707692E-02   6.0442029045989727E-02
   5.9840362159306708E-02   5.9239307076146851E-02   5.8638909512099054E-02   5.8039216846830832E-02   5.7440278103311357E-02
   5.6842143924245386E-02   5.6244866545686729E-02   5.5648499767804865E-02   5.5053098922791192E-02   5.4458720839889764E-02
   5.3865423807555324E-02   5.3273267532738929E-02   5.2682313097317024E-02   5.2092622911683123E-02   5.1504260665533985E-02
   5.0917291275885068E-02   5.0331780832365301E-02   4.9747796539841932E-02   4.9165406658445529E-02   4.8584680441060520E-02
   4.8005688068368586E-02   4.7428500581530801E-02   4.6853189812609691E-02   4.6279828312835440E-02   4.5708489278832441E-02
   4.5139246476929351E-02   4.4572174165681676E-02   4.4007347016744115E-02   4.3444840034239825E-02   4.2884728472773810E-02
   4.2327087754250939E-02   4.1771993383659514E-02   4.1219520863987245E-02   4.0669745610445229E-02   4.0122742864172597E-02
   3.9578587605604024E-02   3.9037354467680835E-02   3.8499117649092446E-02   3.7963950827731609E-02   3.7431927074552347E-02
   3.6903118768017169E-02   3.6377597509319556E-02   3.5855434038566274E-02   3.5336698152105009E-02   3.4821458621174965E-02
   3.4309783112060642E-02   3.3801738107919498E-02   3.3297388832453839E-02   3.2796799175590537E-02   3.2300031621325304E-02
   3.1807147177882501E-02   3.1318205310336966E-02   3.0833263875831560E-02   3.0352379061522397E-02   2.9875605325369561E-02
   2.9402995339888157E-02   2.8934599938958531E-02   2.8470468067792975E-02   2.8010646736138966E-02   2.7555180974795323E-02
   2.7104113795503457E-02   2.6657486154267135E-02   2.6215336918144386E-02   2.5777702835545434E-02   2.5344618510056521E-02
   2.4916116377805095E-02   2.4492226688367487E-02   2.4072977489210633E-02   2.3658394613653103E-02   2.3248501672314990E-02
   2.2843320048025872E-02   2.2442868894140107E-02   2.2047165136211289E-02   2.1656223476960338E-02   2.1270056404471129E-02
   2.0888674203533988E-02   2.0512084970055470E-02   2.0140294628443755E-02   1.9773306951873244E-02   1.9411123585326411E-02
   1.9053744071308006E-02   1.8701165878118212E-02   1.8353384430571756E-02   1.8010393143043587E-02   1.7672183454718743E-02
   1.7338744866924726E-02   1.7010064982418419E-02   1.6686129546500780E-02   1.6366922489831483E-02   1.6052425972814335E-02
   1.5742620431423684E-02   1.5437484624344237E-02   1.5136995681296433E-02   1.4841129152419077E-02   1.4549859058585848E-02
   1.4263157942531503E-02   1.3980996920665952E-02   1.3703345735459138E-02   1.3430172808278951E-02   1.3161445292570679E-02
   1.2897129127268139E-02   1.2637189090329952E-02   1.2381588852298618E-02   1.2130291029784584E-02   1.1883257238779508E-02
   1.1640448147709308E-02   1.1401823530139792E-02   1.1167342317053974E-02   1.0936962648621755E-02   1.0710641925390464E-02
   1.0488336858825772E-02   1.0270003521139531E-02   1.0055597394344015E-02   9.8450734184763033E-03   9.6383860389419301E-03
   9.4354892529306851E-03   9.2363366548603356E-03   9.0408814808106055E-03   8.8490766519118171E-03   8.6608748166567204E-03
   8.4762283921093005E-03   8.2950896039854487E-03   8.1174105255870689E-03   7.9431431155715538E-03   7.7722392545442141E-03
   7.6046507804627649E-03   7.4403295228474805E-03   7.2792273357918042E-03   7.1212961297726293E-03   6.9664879022606277E-03
   6.8147547671348410E-03   6.6660489829061826E-03   6.5203229797590363E-03   6.3775293854198105E-03   6.2376210498649876E-03
   6.1005510688820746E-03   5.9662728064981026E-03   5.8347399162933600E-03   5.7059063616175338E-03   5.5797264347276949E-03
   5.4561547748688422E-03   5.3351463853181366E-03   5.2166566494148969E-03   5.1006413455999787E-03   4.9870566614874977E-03
   4.8758592069940866E-03   4.7670060265497284E-03   4.6604546104159388E-03   4.5561629051363564E-03   4.4540893231460937E-03
   4.3541927515651909E-03   4.2564325602026179E-03   4.1607686087968701E-03   4.0671612535190275E-03   3.9755713527642022E-03
   3.8859602722575810E-03   3.7982898895000988E-03   3.7125225975796843E-03   3.6286213083727126E-03   3.5465494551609575E-03
   3.4662709946878373E-03   3.3877504086787017E-03   3.3109527048481861E-03   3.2358434174182965E-03   3.1623886071697571E-03
   3.0905548610488144E-03   3.0203092913514027E-03   2.9516195345060457E-03   2.8844537494757800E-03   2.8187806157997908E-03
   2.7545693312941962E-03   2.6917896094309441E-03   2.6304116764137649E-03   2.5704062679686684E-03   2.5117446258669796E-03
   2.4543984941973037E-03   2.3983401154031186E-03   2.3435422261014653E-03   2.2899780526983021E-03   2.2376213068148487E-03
   2.1864461805394439E-03   2.1364273415180731E-03   2.0875399278973009E-03   2.0397595431314581E-03   1.9930622506667875E-03
   1.9474245685136865E-03   1.9028234637184795E-03   1.8592363467450435E-03   1.8166410657766397E-03   1.7750159009476221E-03
   1.7343395585141998E-03   1.6945911649730977E-03   1.6557502611365951E-03   1.6177967961719002E-03   1.5807111216123591E-03
   1.5444739853479291E-03   1.5090665256014813E-03   1.4744702648977139E-03   1.4406671040305325E-03   1.4076393160348975E-03
   1.3753695401684232E-03   1.3438407759080830E-03   1.3130363769666531E-03   1.2829400453335988E-03   1.2535358253446492E-03
   1.2248080977840022E-03   1.1967415740229165E-03   1.1693212901982639E-03   1.1425326014341370E-03   1.1163611761097112E-03
   1.0907929901759774E-03   1.0658143215240569E-03   1.0414117444074542E-03   1.0175721239204119E-03   9.9428261053434767E-04
   9.7153063469431248E-04   9.4930390147697497E-04   9.2759038531178340E-04   9.0637832476651891E-04   8.8565621739857730E-04
   8.6541281467288447E-04   8.4563711694752349E-04   8.2631836852781269E-04   8.0744605278949421E-04   7.8900988737170728E-04
   7.7099981944009214E-04   7.5340602102053696E-04   7.3621888440371299E-04   7.1942901762069153E-04   7.0302723998965885E-04
   6.8700457773384759E-04   6.7135225967053438E-04   6.5606171297110055E-04   6.4112455899182133E-04   6.2653260917534240E-04
   6.1227786102231241E-04   5.9835249413301296E-04   5.8474886631843849E-04   5.7145950978048309E-04   5.5847712736064562E-04
   5.4579458885678663E-04   5.3340492740734592E-04   5.2130133594240221E-04   5.0947716370093891E-04   4.9792591281368843E-04
   4.8664123495080681E-04   4.7561692803371324E-04   4.6484693301034833E-04   4.5432533069305123E-04   4.4404633865836700E-04
   4.3400430820792325E-04   4.2419372138959970E-04   4.1460918807819221E-04   4.0524544311473760E-04   3.9609734350364863E-04
   3.8715986566685096E-04   3.7842810275406761E-04   3.6989726200839138E-04   3.6156266218628769E-04   3.5341973103121007E-04
   3.4546400279991652E-04   3.3769111584068708E-04   3.3009681022253456E-04   3.2267692541459336E-04   3.1542739801482196E-04
   3.0834425952716376E-04   3.0142363418632123E-04   2.9466173682932541E-04   2.8805487081303137E-04   2.8159942597674243E-04
   2.7529187664911614E-04   2.6912877969856227E-04   2.6310677262628515E-04   2.5722257170121413E-04   2.5147297013598460E-04
   2.4585483630323185E-04   2.4036511199137319E-04   2.3500081069914599E-04   2.2975901596812204E-04   2.2463687975246604E-04
   2.1963162082519054E-04   2.1474052322017115E-04   2.0996093470920441E-04   2.0529026531342174E-04   2.0072598584832142E-04
   1.9626562650175308E-04   1.9190677544417525E-04   1.8764707747051447E-04   1.8348423267295545E-04   1.7941599514403482E-04
   1.7544017170937986E-04   1.7155462068949441E-04   1.6775725068993229E-04   1.6404601941930335E-04   1.6041893253446421E-04
   1.5687404251235623E-04   1.5340944754787858E-04   1.5002329047725325E-04   1.4671375772631347E-04   1.4347907828319195E-04
   1.4031752269484074E-04   1.3722740208689920E-04   1.3420706720635293E-04   1.3125490748651879E-04   1.2836935013382997E-04
   1.2554885923594708E-04   1.2279193489073118E-04   1.2009711235558211E-04   1.1746296121672143E-04   1.1488808457793423E-04
   1.1237111826836435E-04   1.0991073006890512E-04   1.0750561895678166E-04   1.0515451436789862E-04   1.0285617547656552E-04
   1.0060939049217858E-04   9.8412975972500441E-05   9.6265776153127230E-05   9.4166662292799683E-05   9.2114532034171621E-05
   9.0108308779692962E-05   8.8146941082250355E-05   8.6229402050231382E-05   8.4354688766675461E-05   8.2521821722179915E-05
   8.0729844261246070E-05   7.8977822041757947E-05   7.7264842507276398E-05   7.5590014371855024E-05   7.3952467117092225E-05
   7.2351350501116994E-05   7.0785834079248886E-05   6.9255106736038058E-05   6.7758376228437318E-05   6.6294868739829503E-05
   6.4863828444663963E-05   6.3464517083446794E-05   6.2096213547845636E-05   6.0758213475668664E-05   5.9449828855480926E-05
   5.8170387640633413E-05   5.6919233372486051E-05   5.5695724812598363E-05   5.4499235583682324E-05   5.3329153819104945E-05
   5.2184881820742139E-05   5.1065835724983418E-05   4.9971445176691578E-05   4.8901153010929873E-05   4.7854414942276421E-05
   4.6830699261536692E-05   4.5829486539683174E-05   4.4850269338850186E-05   4.3892551930214835E-05   4.2955850018597201E-05
   4.2039690473623645E-05   4.1143611067292275E-05   4.0267160217793696E-05   3.9409896739430211E-05   3.8571389598491916E-05
   3.7751217674947652E-05   3.6948969529810940E-05   3.6164243178043066E-05   3.5396645866862492E-05   3.4645793859333967E-05
   3.3911312223104780E-05   3.3192834624170547E-05   3.2490003125544212E-05   3.1802467990720197E-05   3.1129887491806851E-05
   3.0471927722224461E-05   2.9828262413854097E-05   2.9198572758535384E-05   2.8582547233803585E-05   2.7979881432767233E-05
   2.7390277898027473E-05   2.6813445959541440E-05   2.6249101576333549E-05   2.5696967181964965E-05   2.5156771533668507E-05
   2.4628249565064668E-05   2.4111142242368434E-05   2.3605196424005691E-05   2.3110164723557633E-05   2.2625805375952910E-05
   2.2151882106828389E-05   2.1688164004983412E-05   2.1234425397855203E-05   2.0790445729939455E-05   2.0356009444087252E-05
   1.9930905865611012E-05   1.9514929089127952E-05   1.9107877868080240E-05   1.8709555506863718E-05   1.8319769755504236E-05
   1.7938332706822077E-05   1.7565060696021758E-05   1.7199774202651009E-05   1.6842297754872268E-05   1.6492459835991035E-05
   1.6150092793186044E-05   1.5815032748390151E-05   1.5487119511268800E-05   1.5166196494248368E-05   1.4852110629541611E-05
   1.4544712288126632E-05   1.4243855200628740E-05   1.3949396380063158E-05   1.3661196046391433E-05   1.3379117552849187E-05
   1.3103027314004092E-05   1.2832794735500472E-05   1.2568292145451528E-05   1.2309394727440673E-05   1.2055980455091229E-05
   1.1807930028169852E-05   1.1565126810184803E-05   1.1327456767444333E-05   1.1094808409541392E-05   1.0867072731228208E-05
   1.0644143155650635E-05   1.0425915478906835E-05   1.0212287815901749E-05   1.0003160547463970E-05   9.7984362686966904E-06
   9.5980197385322150E-06   9.4018178304629501E-06   9.2097394844186907E-06   9.0216956597654721E-06   8.8375992893969791E-06
   8.6573652348947694E-06   8.4809102427301637E-06   8.3081529014838537E-06   8.1390136000597918E-06   7.9734144868680317E-06
