DATE: 2024-03-16 UNITS: metal CONTRIBUTOR: Xiaowang Zhou xzhou@sandia.gov, Lucas Hale lucas.hale@nist.gov, and Germain Clavier g.m.g.c.clavier@tue.nl/germain.clavier@gmail.com
 CITATION: X. W. Zhou, R. A. Johnson, H. N. G. Wadley, Phys. Rev. B, 69, 144113(2004)
Generated by create_eam.py
2     Cu Pd                   
2000  5.0025012506253123e-02   2000  3.0771349130066235e-03   6.1511926911002401e+00  
   29        63.54600         3.61496      fcc
   0.0000000000000000E+00  -1.3575272078492628E-02  -2.7095936009703281E-02  -4.0562097104869688E-02  -5.3973860675230689E-02
  -6.7331332032023572E-02  -8.0634616486487065E-02  -9.3883819349859898E-02  -1.0707904593337936E-01  -1.2022040154828517E-01
  -1.3330799150581374E-01  -1.4634192111720445E-01  -1.5932229569369616E-01  -1.7224922054652547E-01  -1.8512280098693201E-01
  -1.9794314232615351E-01  -2.1071034987542780E-01  -2.2342452894599418E-01  -2.3608578484909026E-01  -2.4869422289595400E-01
  -2.6124994839782478E-01  -2.7375306666593924E-01  -2.8620368301153720E-01  -2.9860190274585585E-01  -3.1094783118013369E-01
  -3.2324157362560968E-01  -3.3548323539352110E-01  -3.4767292179510700E-01  -3.5981073814160491E-01  -3.7189678974425322E-01
  -3.8393118191429121E-01  -3.9591401996295594E-01  -4.0784540920148626E-01  -4.1972545494111946E-01  -4.3155426249309548E-01
  -4.4333193716865160E-01  -4.5505858427902568E-01  -4.6673430913545710E-01  -4.7835921704918283E-01  -4.8993341333144214E-01
  -5.0145700329347309E-01  -5.1293009224651331E-01  -5.2435278550180153E-01  -5.3572518837057681E-01  -5.4704740616407577E-01
  -5.5831954419353824E-01  -5.6954170777020119E-01  -5.8071400220530378E-01  -5.9183653281008375E-01  -6.0290940489577938E-01
  -6.1393272377362929E-01  -6.2490659475487154E-01  -6.3583112315074419E-01  -6.4670641427248621E-01  -6.5753257343133475E-01
  -6.6830970593852934E-01  -6.7903791710530670E-01  -6.8971731224290700E-01  -7.0034799666256653E-01  -7.1093007567552480E-01
  -7.2146365459301975E-01  -7.3194883872628946E-01  -7.4238573338657265E-01  -7.5277444388510739E-01  -7.6311507553313129E-01
  -7.7340773364188342E-01  -7.8365252352260217E-01  -7.9384955048652506E-01  -8.0399891984489080E-01  -8.1410073690893725E-01
  -8.2415510698990335E-01  -8.3416213539902673E-01  -8.4412192744754588E-01  -8.5403458844669966E-01  -8.6390022370772501E-01
  -8.7371893854186100E-01  -8.8349083826034636E-01  -8.9321602817441870E-01  -9.0289461359531575E-01  -9.1252669983427659E-01
  -9.2211239220253949E-01  -9.3165179601134263E-01  -9.4114501657192395E-01  -9.5059215919552198E-01  -9.5999332919337521E-01
  -9.6934863187672082E-01  -9.7865817255679843E-01  -9.8792205654484588E-01  -9.9714038915210068E-01  -1.0063132756898021E+00
  -1.0154408214691879E+00  -1.0245231318014965E+00  -1.0335603119979657E+00  -1.0425524673698345E+00  -1.0514997032283406E+00
  -1.0604021248847224E+00  -1.0692598376502187E+00  -1.0780729468360670E+00  -1.0868415577535051E+00  -1.0955657757137729E+00
  -1.1042457060281077E+00  -1.1128814540077474E+00  -1.1214731249639309E+00  -1.1300208242078962E+00  -1.1385246570508814E+00
  -1.1469847288041248E+00  -1.1554011447788655E+00  -1.1637740102863408E+00  -1.1721034306377889E+00  -1.1803895111444482E+00
  -1.1886323571175579E+00  -1.1968320738683551E+00  -1.2049887667080783E+00  -1.2131025409479665E+00  -1.2211735018992564E+00
  -1.2292017548731879E+00  -1.2371874051809986E+00  -1.2451305581339267E+00  -1.2530313190432103E+00  -1.2608897932200882E+00
  -1.2687060859757981E+00  -1.2764803026215787E+00  -1.2842125484686677E+00  -1.2919029288283039E+00  -1.2995515490117255E+00
  -1.3071585143301705E+00  -1.3147239300948774E+00  -1.3222479016170845E+00  -1.3297305342080294E+00  -1.3371719331789509E+00
  -1.3445722038410877E+00  -1.3519314515056773E+00  -1.3592497814839581E+00  -1.3665272990871689E+00  -1.3737641096265476E+00
  -1.3809603184133319E+00  -1.3881160307587610E+00  -1.3952313519740729E+00  -1.4023063873705048E+00  -1.4093412422592968E+00
  -1.4163360219516861E+00  -1.4232908317589106E+00  -1.4302057769922094E+00  -1.4370809629628205E+00  -1.4439164949819818E+00
  -1.4507124783609320E+00  -1.4574690184109094E+00  -1.4641862204431513E+00  -1.4708641897688972E+00  -1.4775030316993849E+00
  -1.4841028515458523E+00  -1.4906637546195380E+00  -1.4971858462316809E+00  -1.5036692316935181E+00  -1.5101140163162881E+00
  -1.5165203054112297E+00  -1.5228882042895810E+00  -1.5292178182625797E+00  -1.5355092526414649E+00  -1.5417626127374746E+00
  -1.5479780038618458E+00  -1.5541555313258193E+00  -1.5602953004406312E+00  -1.5663974165175205E+00  -1.5724619848677255E+00
  -1.5784891108024846E+00  -1.5844788996330355E+00  -1.5904314566706172E+00  -1.5963468872264674E+00  -1.6022252966118244E+00
  -1.6080667901379269E+00  -1.6138714731160129E+00  -1.6196394508573200E+00  -1.6253708286730877E+00  -1.6310657118745533E+00
  -1.6367242057729559E+00  -1.6423464156795324E+00  -1.6479324469055228E+00  -1.6534824047621641E+00  -1.6589963945606949E+00
  -1.6644745216123535E+00  -1.6699168912283784E+00  -1.6753236087200072E+00  -1.6806947793984790E+00  -1.6860305085750313E+00
  -1.6913309015609026E+00  -1.6965960636673314E+00  -1.7018261002055561E+00  -1.7070211164868141E+00  -1.7121812178223448E+00
  -1.7173065095233857E+00  -1.7223970969011750E+00  -1.7274530852669514E+00  -1.7324745799319532E+00  -1.7374616862074179E+00
  -1.7424145094045846E+00  -1.7473331548346915E+00  -1.7522177278089761E+00  -1.7570683336386774E+00  -1.7618850776350334E+00
  -1.7666680651092823E+00  -1.7714174013726627E+00  -1.7761331917364125E+00  -1.7808155415117697E+00  -1.7854645560099733E+00
  -1.7900803405422614E+00  -1.7946630004198714E+00  -1.7992126409540425E+00  -1.8037293674560131E+00  -1.8082132852370207E+00
  -1.8126644996083034E+00  -1.8170831158811005E+00  -1.8214692393666496E+00  -1.8258229753761885E+00  -1.8301444292209570E+00
  -1.8344337062121918E+00  -1.8386909116611314E+00  -1.8429161508790151E+00  -1.8471095291770803E+00  -1.8512711518665645E+00
  -1.8554011242587081E+00  -1.8594995516647477E+00  -1.8635665393959218E+00  -1.8676021927634687E+00  -1.8716066170786274E+00
  -1.8755799176526351E+00  -1.8795221997967309E+00  -1.8834335688221524E+00  -1.8873141300401379E+00  -1.8911639887619263E+00
  -1.8949832502987554E+00  -1.8987720199618632E+00  -1.9025304030624888E+00  -1.9062585049118697E+00  -1.9099564308212447E+00
  -1.9136242861018509E+00  -1.9172621760649282E+00  -1.9208702060217142E+00  -1.9244484812834461E+00  -1.9279971071613640E+00
  -1.9315161889667050E+00  -1.9350058320107073E+00  -1.9384661416046101E+00  -1.9418972230596505E+00  -1.9452991816870673E+00
  -1.9486721227980990E+00  -1.9520161517039836E+00  -1.9553313737159590E+00  -1.9586178941452641E+00  -1.9618758183031373E+00
  -1.9651052515008156E+00  -1.9683062990495388E+00  -1.9714790662605444E+00  -1.9746236584450703E+00  -1.9777401809143556E+00
  -1.9808287389796380E+00  -1.9838894379521557E+00  -1.9869223831431473E+00  -1.9899276798638512E+00  -1.9929054334255052E+00
  -1.9958557491393476E+00  -1.9987787323166173E+00  -2.0016744882685513E+00  -2.0045431223063890E+00  -2.0073847397413682E+00
  -2.0101994458847274E+00  -2.0129873460477046E+00  -2.0157485455415385E+00  -2.0184831496774667E+00  -2.0211912637667271E+00
  -2.0238729931205595E+00  -2.0265284430502017E+00  -2.0291577188668906E+00  -2.0317609258818656E+00  -2.0343381694063654E+00
  -2.0368895547516268E+00  -2.0394151872288893E+00  -2.0419151721493911E+00  -2.0443896148243694E+00  -2.0468386205650635E+00
  -2.0492622946827117E+00  -2.0516607424885511E+00  -2.0540340692938215E+00  -2.0563823804097598E+00  -2.0587057811476051E+00
  -2.0610043768185955E+00  -2.0632782727339696E+00  -2.0655275742049644E+00  -2.0677523865428191E+00  -2.0699528150587727E+00
  -2.0721289650640622E+00  -2.0742809418699260E+00  -2.0764088507876028E+00  -2.0785127971283308E+00  -2.0805928862033478E+00
  -2.0826492233238927E+00  -2.0846819138012038E+00  -2.0866910629465183E+00  -2.0886767760710758E+00  -2.0906391584861139E+00
  -2.0925783155028705E+00  -2.0944943524325850E+00  -2.0963873745864947E+00  -2.0982574872758373E+00  -2.1001047958118524E+00
  -2.1019294055057780E+00  -2.1037314216688516E+00  -2.1055109496123126E+00  -2.1072680946473978E+00  -2.1090029620853463E+00
  -2.1107156572373973E+00  -2.1124062854147874E+00  -2.1140749519287554E+00  -2.1157217620905397E+00  -2.1173468212113788E+00
  -2.1189502346025102E+00  -2.1205321075751731E+00  -2.1220925454406054E+00  -2.1236316535100448E+00  -2.1251495370947304E+00
  -2.1266463015059007E+00  -2.1281220520547928E+00  -2.1295768940526449E+00  -2.1310109328106970E+00  -2.1324242736401855E+00
  -2.1338170218523493E+00  -2.1351892827584273E+00  -2.1365411616696570E+00  -2.1378727638972763E+00  -2.1391841947525250E+00
  -2.1404755595466400E+00  -2.1417469635908595E+00  -2.1429985121964230E+00  -2.1442303106745677E+00  -2.1454424643365320E+00
  -2.1466350784935542E+00  -2.1478082584568732E+00  -2.1489621095377256E+00  -2.1500967370473516E+00  -2.1512122462969892E+00
  -2.1523087425978749E+00  -2.1533863312612489E+00  -2.1544451175983483E+00  -2.1554852069204116E+00  -2.1565067045386779E+00
  -2.1575097157643848E+00  -2.1584943459087698E+00  -2.1594607002830726E+00  -2.1604088841985303E+00  -2.1613390029663822E+00
  -2.1622511618978653E+00  -2.1631454663042189E+00  -2.1640220214966810E+00  -2.1648809327864895E+00  -2.1657223054848829E+00
  -2.1665462449030999E+00  -2.1673528563523776E+00  -2.1681422451439554E+00  -2.1689145165890715E+00  -2.1696697759989632E+00
  -2.1704084457819008E+00  -2.1711300148833281E+00  -2.1718349603050000E+00  -2.1725234482087776E+00  -2.1731956447565222E+00
  -2.1738517161100934E+00  -2.1744918284313535E+00  -2.1751161478821626E+00  -2.1757248406243828E+00  -2.1763180728198734E+00
  -2.1768960106304971E+00  -2.1774588202181135E+00  -2.1780066677445840E+00  -2.1785397193717699E+00  -2.1790581412615317E+00
  -2.1795620995757305E+00  -2.1800517604762275E+00  -2.1805272901248829E+00  -2.1809888546835587E+00  -2.1814366203141153E+00
  -2.1818707531784129E+00  -2.1822914194383141E+00  -2.1826987852556785E+00  -2.1830930167923674E+00  -2.1834742802102420E+00
  -2.1838427416711634E+00  -2.1841985673369924E+00  -2.1845419233695895E+00  -2.1848729759308152E+00  -2.1851918911825323E+00
  -2.1854988352866003E+00  -2.1857939744048807E+00  -2.1860774746992337E+00  -2.1863495023315216E+00  -2.1866102234636040E+00
  -2.1868598042573422E+00  -2.1870984108745981E+00  -2.1873262094772317E+00  -2.1875433662271040E+00  -2.1877500472860762E+00
  -2.1879464188160092E+00  -2.1881326469787634E+00  -2.1883088979362006E+00  -2.1884753378501820E+00  -2.1886321328825677E+00
  -2.1887794491952186E+00  -2.1889174529499957E+00  -2.1890463103087612E+00  -2.1891661874333743E+00  -2.1892772504856968E+00
  -2.1893796656275897E+00  -2.1894735990209138E+00  -2.1895592168275302E+00  -2.1896366852092997E+00  -2.1897061703280833E+00
  -2.1897678383457420E+00  -2.1898218554241367E+00  -2.1898683877251282E+00  -2.1899076014105776E+00  -2.1899396626423457E+00
  -2.1899647375822937E+00  -2.1899829923922827E+00  -2.1899945932341729E+00  -2.1899997062698260E+00  -2.1899984976611027E+00
  -2.1899911335698641E+00  -2.1899777801579705E+00  -2.1899586035872836E+00  -2.1899337700196639E+00  -2.1899034456169733E+00
  -2.1898677965410709E+00  -2.1898269889538198E+00  -2.1897811890170789E+00  -2.1897305628927106E+00  -2.1896752767425758E+00
  -2.1896154967285346E+00  -2.1895513890124483E+00  -2.1894831197561784E+00  -2.1894108551215852E+00  -2.1893347612705290E+00
  -2.1892550043648726E+00  -2.1891717505664761E+00  -2.1890851660371995E+00  -2.1889954169389050E+00  -2.1889026694334528E+00
  -2.1888070896827050E+00  -2.1887088438485209E+00  -2.1886080980927622E+00  -2.1885050185772901E+00  -2.1883997714639656E+00
  -2.1882925229146490E+00  -2.1881834390912021E+00  -2.1880726861554853E+00  -2.1879604302693596E+00  -2.1878468375946856E+00
  -2.1877320742933253E+00  -2.1876163065271381E+00  -2.1874997004579870E+00  -2.1873824222477309E+00  -2.1872646380582323E+00
  -2.1871465140513511E+00  -2.1870282163889487E+00  -2.1869099112328860E+00  -2.1867917647450241E+00  -2.1866739430872242E+00
  -2.1865566124213465E+00  -2.1864399389092521E+00  -2.1863240887128024E+00  -2.1862092279938583E+00  -2.1860955229142798E+00
  -2.1859831396359297E+00  -2.1858722443206671E+00  -2.1857630031303539E+00  -2.1856555822268509E+00  -2.1855501477720187E+00
  -2.1854468659277191E+00  -2.1853459028558122E+00  -2.1852474247181597E+00  -2.1851515976766218E+00  -2.1850585878930593E+00
  -2.1849685615293346E+00  -2.1848816847473067E+00  -2.1847981237088385E+00  -2.1847180445757890E+00  -2.1846416135100206E+00
  -2.1845689966733937E+00  -2.1845003602277693E+00  -2.1844354426691042E+00  -2.1843716434044866E+00  -2.1843070097494097E+00
  -2.1842415458859858E+00  -2.1841752559689063E+00  -2.1841081441256787E+00  -2.1840402144568483E+00  -2.1839714710362292E+00
  -2.1839019179111214E+00  -2.1838315591025399E+00  -2.1837603986054259E+00  -2.1836884403888677E+00  -2.1836156883963138E+00
  -2.1835421465457854E+00  -2.1834678187300849E+00  -2.1833927088170069E+00  -2.1833168206495399E+00  -2.1832401580460736E+00
  -2.1831627248005971E+00  -2.1830845246829043E+00  -2.1830055614387822E+00  -2.1829258387902164E+00  -2.1828453604355782E+00
  -2.1827641300498195E+00  -2.1826821512846593E+00  -2.1825994277687766E+00  -2.1825159631079911E+00  -2.1824317608854518E+00
  -2.1823468246618170E+00  -2.1822611579754354E+00  -2.1821747643425238E+00  -2.1820876472573483E+00  -2.1819998101923930E+00
  -2.1819112565985401E+00  -2.1818219899052367E+00  -2.1817320135206675E+00  -2.1816413308319262E+00  -2.1815499452051745E+00
  -2.1814578599858145E+00  -2.1813650784986511E+00  -2.1812716040480518E+00  -2.1811774399181081E+00  -2.1810825893727959E+00
  -2.1809870556561304E+00  -2.1808908419923250E+00  -2.1807939515859456E+00  -2.1806963876220591E+00  -2.1805981532663909E+00
  -2.1804992516654704E+00  -2.1803996859467838E+00  -2.1802994592189160E+00  -2.1801985745717021E+00  -2.1800970350763684E+00
  -2.1799948437856753E+00  -2.1798920037340612E+00  -2.1797885179377814E+00  -2.1796843893950482E+00  -2.1795796210861669E+00
  -2.1794742159736740E+00  -2.1793681770024715E+00  -2.1792615070999628E+00  -2.1791542091761813E+00  -2.1790462861239268E+00
  -2.1789377408188919E+00  -2.1788285761197921E+00  -2.1787187948684958E+00  -2.1786083998901473E+00  -2.1784973939932963E+00
  -2.1783857799700179E+00  -2.1782735605960397E+00  -2.1781607386308619E+00  -2.1780473168178776E+00  -2.1779332978844961E+00
  -2.1778186845422560E+00  -2.1777034794869490E+00  -2.1775876853987315E+00  -2.1774713049422441E+00  -2.1773543407667231E+00
  -2.1772367955061145E+00  -2.1771186717791897E+00  -2.1769999721896514E+00  -2.1768806993262486E+00  -2.1767608557628839E+00
  -2.1766404440587226E+00  -2.1765194667583003E+00  -2.1763979263916289E+00  -2.1762758254743022E+00  -2.1761531665076004E+00
  -2.1760299519785957E+00  -2.1759061843602518E+00  -2.1757818661115289E+00  -2.1756569996774822E+00  -2.1755315874893641E+00
  -2.1754056319647210E+00  -2.1752791355074952E+00  -2.1751521005081171E+00  -2.1750245293436081E+00  -2.1748964243776707E+00
  -2.1747677879607865E+00  -2.1746386224303103E+00  -2.1745089301105618E+00  -2.1743787133129193E+00  -2.1742479743359113E+00
  -2.1741167154653067E+00  -2.1739849389742063E+00  -2.1738526471231276E+00  -2.1737198421601018E+00  -2.1735865263207521E+00
  -2.1734527018283880E+00  -2.1733183708940875E+00  -2.1731835357167837E+00  -2.1730481984833503E+00  -2.1729123613686849E+00
  -2.1727760265357912E+00  -2.1726391961358651E+00  -2.1725018723083731E+00  -2.1723640571811362E+00  -2.1722257528704065E+00
  -2.1720869614809524E+00  -2.1719476851061339E+00  -2.1718079258279825E+00  -2.1716676857172792E+00  -2.1715269668336314E+00
  -2.1713857712255482E+00  -2.1712441009305197E+00  -2.1711019579750888E+00  -2.1709593443749267E+00  -2.1708162621349087E+00
  -2.1706727132491865E+00  -2.1705286997012583E+00  -2.1703842234640471E+00  -2.1702392864999664E+00  -2.1700938907609943E+00
  -2.1699480381887430E+00  -2.1698017307145290E+00  -2.1696549702594408E+00  -2.1695077587344112E+00  -2.1693600980402810E+00
  -2.1692119900678715E+00  -2.1690634366980457E+00  -2.1689144398017794E+00  -2.1687650012402244E+00  -2.1686151228647770E+00
  -2.1684648065171390E+00  -2.1683140540293850E+00  -2.1681628672240243E+00  -2.1680112479140656E+00  -2.1678591979030779E+00
  -2.1677067189852561E+00  -2.1675538129454797E+00  -2.1674004815593739E+00  -2.1672467265933726E+00  -2.1670925498047779E+00
  -2.1669379529418196E+00  -2.1667829377437129E+00  -2.1666275059407210E+00  -2.1664716592542099E+00  -2.1663153993967081E+00
  -2.1661587280719652E+00  -2.1660016469750047E+00  -2.1658441577921854E+00  -2.1656862622012536E+00  -2.1655279618714025E+00
  -2.1653692584633246E+00  -2.1652101536292658E+00  -2.1650506490130836E+00  -2.1648907462502973E+00  -2.1647304469681434E+00
  -2.1645697527856274E+00  -2.1644086653135775E+00  -2.1642471861546970E+00  -2.1640853169036154E+00  -2.1639230591469394E+00
  -2.1637604144633058E+00  -2.1635973844234302E+00  -2.1634339705901589E+00  -2.1632701745185154E+00  -2.1631059977557556E+00
  -2.1629414418414123E+00  -2.1627765083073442E+00  -2.1626111986777867E+00  -2.1624455144693981E+00  -2.1622794571913060E+00
  -2.1621130283451588E+00  -2.1619462294251681E+00  -2.1617790619181569E+00  -2.1616115273036058E+00  -2.1614436270537003E+00
  -2.1612753626333721E+00  -2.1611067355003484E+00  -2.1609377471051952E+00  -2.1607683988913609E+00  -2.1605986922952218E+00
  -2.1604286287461250E+00  -2.1602582096664316E+00  -2.1600874364715601E+00  -2.1599163105700296E+00  -2.1597448333635016E+00
  -2.1595730062468230E+00  -2.1594008306080670E+00  -2.1592283078285743E+00  -2.1590554392829957E+00  -2.1588822263393319E+00
  -2.1587086703589744E+00  -2.1585347726967457E+00  -2.1583605347009391E+00  -2.1581859577133593E+00  -2.1580110430693602E+00
  -2.1578357920978859E+00  -2.1576602061215069E+00  -2.1574842864564623E+00  -2.1573080344126940E+00  -2.1571314512938873E+00
  -2.1569545383975095E+00  -2.1567772970148420E+00  -2.1565997284310234E+00  -2.1564218339250849E+00  -2.1562436147699833E+00
  -2.1560650722326429E+00  -2.1558862075739862E+00  -2.1557070220489738E+00  -2.1555275169066368E+00  -2.1553476933901146E+00
  -2.1551675527366885E+00  -2.1549870961778175E+00  -2.1548063249391705E+00  -2.1546252402406632E+00  -2.1544438432964914E+00
  -2.1542621353151623E+00  -2.1540801174995332E+00  -2.1538977910468398E+00  -2.1537151571487310E+00  -2.1535322169913025E+00
  -2.1533489717551291E+00  -2.1531654226152948E+00  -2.1529815707414288E+00  -2.1527974172977347E+00  -2.1526129634430218E+00
  -2.1524282103307386E+00  -2.1522431591090028E+00  -2.1520578109206321E+00  -2.1518721669031740E+00  -2.1516862281889404E+00
  -2.1514999959050325E+00  -2.1513134711733741E+00  -2.1511266551107422E+00  -2.1509395488287932E+00  -2.1507521534340968E+00
  -2.1505644700281610E+00  -2.1503764997074652E+00  -2.1501882435634849E+00  -2.1499997026827242E+00  -2.1498108781467424E+00
  -2.1496217710321810E+00  -2.1494323824107950E+00  -2.1492427133494774E+00  -2.1490527649102900E+00  -2.1488625381504884E+00
  -2.1486720341225505E+00  -2.1484812538742029E+00  -2.1482901984484490E+00  -2.1480988688835945E+00  -2.1479072662132750E+00
  -2.1477153914664804E+00  -2.1475232456675837E+00  -2.1473308298363660E+00  -2.1471381449880402E+00  -2.1469451921332827E+00
  -2.1467519722782491E+00  -2.1465584864246097E+00  -2.1463647355695685E+00  -2.1461707207058884E+00  -2.1459764428219197E+00
  -2.1457819029016201E+00  -2.1455871019245834E+00  -2.1453920408660601E+00  -2.1451967206969833E+00  -2.1450011423839945E+00
  -2.1448053068894621E+00  -2.1446092151715117E+00  -2.1444128681840442E+00  -2.1442162668767617E+00  -2.1440194121951901E+00
  -2.1438223050807013E+00  -2.1436249464705384E+00  -2.1434273372978354E+00  -2.1432294784916421E+00  -2.1430313709769466E+00
  -2.1428330156746931E+00  -2.1426344135018103E+00  -2.1424355653712306E+00  -2.1422364721919096E+00  -2.1420371348688523E+00
  -2.1418375543031312E+00  -2.1416377313919082E+00  -2.1414376670284567E+00  -2.1412373621021827E+00  -2.1410368174986463E+00
  -2.1408360340995793E+00  -2.1406350127829090E+00  -2.1404337544227796E+00  -2.1402322598895696E+00  -2.1400305300499127E+00
  -2.1398285657667198E+00  -2.1396263678991971E+00  -2.1394239373028681E+00  -2.1392212748295898E+00  -2.1390183813275763E+00
  -2.1388152576414150E+00  -2.1386119046120897E+00  -2.1384083230769946E+00  -2.1382045138699590E+00  -2.1380004778212620E+00
  -2.1377962157576542E+00  -2.1375917285023744E+00  -2.1373870168751687E+00  -2.1371820816923117E+00  -2.1369769237666199E+00
  -2.1367715439074733E+00  -2.1365659429208348E+00  -2.1363601216092643E+00  -2.1361540807719388E+00  -2.1359478212046703E+00
  -2.1357413436999253E+00  -2.1355346490468365E+00  -2.1353277380312266E+00  -2.1351206114356232E+00  -2.1349132700392746E+00
  -2.1347057146181694E+00  -2.1344979459450517E+00  -2.1342899647894384E+00  -2.1340817719176388E+00  -2.1338733680927655E+00
  -2.1336647540747564E+00  -2.1334559306203884E+00  -2.1332468984832946E+00  -2.1330376584139805E+00  -2.1328282111598402E+00
  -2.1326185574651721E+00  -2.1324086980711963E+00  -2.1321986337160679E+00  -2.1319883651348945E+00  -2.1317778930597533E+00
  -2.1315672182197032E+00  -2.1313563413408025E+00  -2.1311452631461245E+00  -2.1309339843557722E+00  -2.1307225056868915E+00
  -2.1305108278536919E+00  -2.1302989515674544E+00  -2.1300868775365518E+00  -2.1298746064664611E+00  -2.1296621390597790E+00
  -2.1294494760162359E+00  -2.1292366180327109E+00  -2.1290235658032466E+00  -2.1288103200190625E+00  -2.1285968813685701E+00
  -2.1283832505373881E+00  -2.1281694282083525E+00  -2.1279554150615350E+00  -2.1277412117742558E+00  -2.1275268190210963E+00
  -2.1273122374739133E+00  -2.1270974678018533E+00  -2.1268825106713658E+00  -2.1266673667462155E+00  -2.1264520366874993E+00
  -2.1262365211536545E+00  -2.1260208208004774E+00  -2.1258049362811318E+00  -2.1255888682461661E+00  -2.1253726173435230E+00
  -2.1251561842185547E+00  -2.1249395695140350E+00  -2.1247227738701713E+00  -2.1245057979246202E+00  -2.1242886423124951E+00
  -2.1240713076663846E+00  -2.1238537946163598E+00  -2.1236361037899902E+00  -2.1234182358123541E+00  -2.1232001913060543E+00
  -2.1229819708912232E+00  -2.1227635751855432E+00  -2.1225450048042527E+00  -2.1223262603601607E+00  -2.1221073424636594E+00
  -2.1218882517227340E+00  -2.1216689887429756E+00  -2.1214495541275915E+00  -2.1212299484774197E+00  -2.1210101723909380E+00
  -2.1207902264642775E+00  -2.1205701112912294E+00  -2.1203498274632637E+00  -2.1201293755695345E+00  -2.1199087561968928E+00
  -2.1196879699298989E+00  -2.1194670173508330E+00  -2.1192458990397052E+00  -2.1190246155742676E+00  -2.1188031675300243E+00
  -2.1185815554802425E+00  -2.1183597799959641E+00  -2.1181378416460159E+00  -2.1179157409970193E+00  -2.1176934786134014E+00
  -2.1174710550574076E+00  -2.1172484708891086E+00  -2.1170257266664123E+00  -2.1168028229450755E+00  -2.1165797602787118E+00
  -2.1163565392188044E+00  -2.1161331603147131E+00  -2.1159096241136868E+00  -2.1156859311608738E+00  -2.1154620819993295E+00
  -2.1152380771700283E+00  -2.1150139172118734E+00  -2.1147896026617041E+00  -2.1145651340543097E+00  -2.1143405119224368E+00
  -2.1141157367967964E+00  -2.1138908092060809E+00  -2.1136657296769648E+00  -2.1134404987341204E+00  -2.1132151169002249E+00
  -2.1129895846959696E+00  -2.1127639026400704E+00  -2.1125380712492756E+00  -2.1123120910383766E+00  -2.1120859625202151E+00
  -2.1118596862056949E+00  -2.1116332626037884E+00  -2.1114066922215478E+00  -2.1111799755641112E+00  -2.1109531131347152E+00
  -2.1107261054347002E+00  -2.1104989529635212E+00  -2.1102716562187571E+00  -2.1100442156961177E+00  -2.1098166318894531E+00
  -2.1095889052907615E+00  -2.1093610363902009E+00  -2.1091330256760932E+00  -2.1089048736349358E+00  -2.1086765807514083E+00
  -2.1084481475083821E+00  -2.1082195743869270E+00  -2.1079908618663237E+00  -2.1077620104240644E+00  -2.1075330205358704E+00
  -2.1073038926756911E+00  -2.1070746273157197E+00  -2.1068452249263960E+00  -2.1066156859764167E+00  -2.1063860109327441E+00
  -2.1061562002606116E+00  -2.1059262544235327E+00  -2.1056961738833118E+00  -2.1054659591000449E+00  -2.1052356105321350E+00
  -2.1050051286362956E+00  -2.1047745138675582E+00  -2.1045437666792828E+00  -2.1043128875231618E+00  -2.1040818768492309E+00
  -2.1038507351058735E+00  -2.1036194627398310E+00  -2.1033880601962078E+00  -2.1031565279184807E+00  -2.1029248663485047E+00
  -2.1026930759265219E+00  -2.1024611570911662E+00  -2.1022291102794739E+00  -2.1019969359268855E+00  -2.1017646344672625E+00
  -2.1015322063328821E+00  -2.1012996519544536E+00  -2.1010669717611217E+00  -2.1008341661804750E+00  -2.1006012356385511E+00
  -2.1003681805598444E+00  -2.1001350013673132E+00  -2.0999016984823871E+00  -2.0996682723249713E+00  -2.0994347233134567E+00
  -2.0992010518647253E+00  -2.0989672583941545E+00  -2.0987333433156286E+00  -2.0984993070415405E+00  -2.0982651499828009E+00
  -2.0980308725488452E+00  -2.0977964751476392E+00  -2.0975619581856848E+00  -2.0973273220680269E+00  -2.0970925671982621E+00
  -2.0968576939785404E+00  -2.0966227028095763E+00  -2.0963875940906527E+00  -2.0961523682196264E+00  -2.0959170255929367E+00
  -2.0956815666056103E+00  -2.0954459916512662E+00  -2.0952103011221235E+00  -2.0949744954090095E+00  -2.0947385749013607E+00
  -2.0945025399872326E+00  -2.0942663910533046E+00  -2.0940301284848855E+00  -2.0937937526659218E+00  -2.0935572639790005E+00
  -2.0933206628053553E+00  -2.0930839495248756E+00  -2.0928471245161098E+00  -2.0926101881562693E+00  -2.0923731408212394E+00
  -2.0921359828855803E+00  -2.0918987147225350E+00  -2.0916613367040351E+00  -2.0914238492007056E+00  -2.0911862525818696E+00
  -2.0909485472155573E+00  -2.0907107334685078E+00  -2.0904728117061770E+00  -2.0902347822927414E+00  -2.0899966455911052E+00
  -2.0897584019629054E+00  -2.0895200517685155E+00  -2.0892815953670532E+00  -2.0890430331163850E+00  -2.0888043653731301E+00
  -2.0885655924926683E+00  -2.0883267148291424E+00  -2.0880877327354668E+00  -2.0878486465633292E+00  -2.0876094566631984E+00
  -2.0873701633843273E+00  -2.0871307670747612E+00  -2.0868912680813394E+00  -2.0866516667497028E+00  -2.0864119634242968E+00
  -2.0861721584483792E+00  -2.0859322521640222E+00  -2.0856922449121198E+00  -2.0854521370323909E+00  -2.0852119288633864E+00
  -2.0849716207424902E+00  -2.0847312130059290E+00  -2.0844907059887747E+00  -2.0842501000249487E+00  -2.0840093954472270E+00
  -2.0837685925872460E+00  -2.0835276917755068E+00  -2.0832866933413796E+00  -2.0830455976131073E+00  -2.0828044049178143E+00
  -2.0825631155815061E+00  -2.0823217299290766E+00  -2.0820802482843126E+00  -2.0818386709698986E+00  -2.0815969983074192E+00
  -2.0813552306173686E+00  -2.0811133682191474E+00  -2.0808714114310765E+00  -2.0806293605703923E+00  -2.0803872159532588E+00
  -2.0801449778947663E+00  -2.0799026467089408E+00  -2.0796602227087435E+00  -2.0794177062060792E+00  -2.0791750975117984E+00
  -2.0789323969357025E+00  -2.0786896047865477E+00  -2.0784467213720497E+00  -2.0782037469988865E+00  -2.0779606819727068E+00
  -2.0777175265981280E+00  -2.0774742811787452E+00  -2.0772309460171350E+00  -2.0769875214148565E+00  -2.0767440076724588E+00
  -2.0765004050894831E+00  -2.0762567139644679E+00  -2.0760129345949538E+00  -2.0757690672774838E+00  -2.0755251123076128E+00
  -2.0752810699799071E+00  -2.0750369405879505E+00  -2.0747927244243494E+00  -2.0745484217807322E+00  -2.0743040329477589E+00
  -2.0740595582151227E+00  -2.0738149978715517E+00  -2.0735703522048157E+00  -2.0733256215017297E+00  -2.0730808060481558E+00
  -2.0728359061290105E+00  -2.0725909220282643E+00  -2.0723458540289497E+00  -2.0721007024131595E+00  -2.0718554674620586E+00
  -2.0716101494558790E+00  -2.0713647486739299E+00  -2.0711192653945982E+00  -2.0708736998953543E+00  -2.0706280524527525E+00
  -2.0703823233424385E+00  -2.0701365128391500E+00  -2.0698906212167230E+00  -2.0696446487480920E+00  -2.0693985957052985E+00
  -2.0691524623594884E+00  -2.0689062489809200E+00  -2.0686599558389669E+00  -2.0684135832021209E+00  -2.0681671313379946E+00
  -2.0679206005133257E+00  -2.0676739909939821E+00  -2.0674273030449619E+00  -2.0671805369303993E+00  -2.0669336929135689E+00
  -2.0666867712568848E+00  -2.0664397722219094E+00  -2.0661926960693533E+00  -2.0659455430590787E+00  -2.0656983134501044E+00
  -2.0654510075006081E+00  -2.0652036254679298E+00  -2.0649561676085755E+00  -2.0647086341782197E+00  -2.0644610254317088E+00
  -2.0642133416230650E+00  -2.0639655830054902E+00  -2.0637177498313659E+00  -2.0634698423522608E+00  -2.0632218608189308E+00
  -2.0629738054813225E+00  -2.0627256765885789E+00  -2.0624774743890391E+00  -2.0622291991302433E+00  -2.0619808510589359E+00
  -2.0617324304210687E+00  -2.0614839374618028E+00  -2.0612353724255130E+00  -2.0609867355557903E+00  -2.0607380270954434E+00
  -2.0604892472865060E+00  -2.0602403963702343E+00  -2.0599914745871142E+00  -2.0597424821768633E+00  -2.0594934193784327E+00
  -2.0592442864300096E+00  -2.0589950835690232E+00  -2.0587458110321442E+00  -2.0584964690552900E+00  -2.0582470578736261E+00
  -2.0579975777215713E+00  -2.0577480288327967E+00  -2.0574984114402315E+00  -2.0572487257760668E+00  -2.0569989720717552E+00
  -2.0567491505580153E+00  -2.0564992614648339E+00  -2.0562493050214710E+00  -2.0559992814564598E+00  -2.0557491909976102E+00
  -2.0554990338720120E+00  -2.0552488103060389E+00  -2.0549985205253476E+00  -2.0547481647548849E+00  -2.0544977432188873E+00
  -2.0542472561408842E+00  -2.0539967037437017E+00  -2.0537460862494643E+00  -2.0534954038795985E+00  -2.0532446568548344E+00
  -2.0529938453952079E+00  -2.0527429697200659E+00  -2.0524920300480662E+00  -2.0522410265971800E+00  -2.0519899595846982E+00
  -2.0517388292272281E+00  -2.0514876357407026E+00  -2.0512363793403758E+00  -2.0509850602408322E+00  -2.0507336786559840E+00
  -2.0504822347990763E+00  -2.0502307288826898E+00  -2.0499791611187410E+00  -2.0497275317184873E+00  -2.0494758408925282E+00
  -2.0492240888508078E+00  -2.0489722758026172E+00  -2.0487204019565959E+00  -2.0484684675207387E+00  -2.0482164727023919E+00
  -2.0479644177082594E+00  -2.0477123027444049E+00  -2.0474601280162523E+00  -2.0472078937285909E+00  -2.0469556000855760E+00
  -2.0467032472907314E+00  -2.0464508355469522E+00  -2.0461983650565059E+00  -2.0459458360210370E+00  -2.0456932486415678E+00
  -2.0454406031184993E+00  -2.0451878996516171E+00  -2.0449351384400902E+00  -2.0446823196824759E+00  -2.0444294435767194E+00
  -2.0441765103201592E+00  -2.0439235201095260E+00  -2.0436704731409487E+00  -2.0434173696099522E+00  -2.0431642097114633E+00
  -2.0429109936398113E+00  -2.0426577215887303E+00  -2.0424043937513616E+00  -2.0421510103202545E+00  -2.0418975714873722E+00
  -2.0416440774440896E+00  -2.0413905283811982E+00  -2.0411369244889057E+00  -2.0408832659568432E+00  -2.0406295529740599E+00
  -2.0403757857290312E+00  -2.0401219644096598E+00  -2.0398680892032743E+00  -2.0396141602966353E+00  -2.0393601778759360E+00
  -2.0391061421268035E+00  -2.0388520532343017E+00  -2.0385979113829338E+00  -2.0383437167566427E+00  -2.0380894695388139E+00
  -2.0378351699122801E+00  -2.0375808180593165E+00  -2.0373264141616514E+00  -2.0370719584004604E+00  -2.0368174509563737E+00
  -2.0365628920094765E+00  -2.0363082817393088E+00  -2.0360536203248705E+00  -2.0357989079446219E+00  -2.0355441447764866E+00
  -2.0352893309978506E+00  -2.0350344667855675E+00  -2.0347795523159591E+00  -2.0345245877648175E+00  -2.0342695733074061E+00
  -2.0340145091184629E+00  -2.0337593953722024E+00  -2.0335042322423149E+00  -2.0332490199019717E+00  -2.0329937585238249E+00
  -2.0327384482800106E+00  -2.0324830893421484E+00  -2.0322276818813472E+00  -2.0319722260682025E+00  -2.0317167220728019E+00
  -2.0314611700647238E+00  -2.0312055702130434E+00  -2.0309499226863283E+00  -2.0306942276526470E+00  -2.0304384852795661E+00
  -2.0301826957341538E+00  -2.0299268591829809E+00  -2.0296709757921239E+00  -2.0294150457271654E+00  -2.0291590691531960E+00
  -2.0289030462348183E+00  -2.0286469771361437E+00  -2.0283908620207987E+00  -2.0281347010519255E+00  -2.0278784943921826E+00
  -2.0276222422037464E+00  -2.0273659446483161E+00  -2.0271096018871093E+00  -2.0268532140808708E+00  -2.0265967813898675E+00
  -2.0263403039738970E+00  -2.0260837819922819E+00  -2.0258272156038779E+00  -2.0255706049670708E+00  -2.0253139502397808E+00
  -2.0250572515794629E+00  -2.0248005091431112E+00  -2.0245437230872545E+00  -2.0242868935679645E+00  -2.0240300207408528E+00
  -2.0237731047610756E+00  -2.0235161457833342E+00  -2.0232591439618748E+00  -2.0230020994504914E+00  -2.0227450124025306E+00
  -2.0224878829708874E+00  -2.0222307113080102E+00  -2.0219734975659014E+00  -2.0217162418961196E+00  -2.0214589444497819E+00
  -2.0212016053775606E+00  -2.0209442248296927E+00  -2.0206868029559746E+00  -2.0204293399057667E+00  -2.0201718358279943E+00
  -2.0199142908711489E+00  -2.0196567051832899E+00  -2.0193990789120475E+00  -2.0191414122046205E+00  -2.0188837052077813E+00
  -2.0186259580678758E+00  -2.0183681709308265E+00  -2.0181103439421308E+00  -2.0178524772468642E+00  -2.0175945709896830E+00
  -2.0173366253148250E+00  -2.0170786403661092E+00  -2.0168206162869384E+00  -2.0165625532203024E+00  -2.0163044513087760E+00
  -2.0160463106945232E+00  -2.0157881315192969E+00  -2.0155299139244414E+00  -2.0152716580508936E+00  -2.0150133640391834E+00
  -2.0147550320294374E+00  -2.0144966621613762E+00  -2.0142382545743209E+00  -2.0139798094071901E+00  -2.0137213267985032E+00
  -2.0134628068863827E+00  -2.0132042498085525E+00  -2.0129456557023433E+00  -2.0126870247046904E+00  -2.0124283569521366E+00
  -2.0121696525808339E+00  -2.0119109117265430E+00  -2.0116521345246379E+00  -2.0113933211101029E+00  -2.0111344716175381E+00
  -2.0108755861811578E+00  -2.0106166649347932E+00  -2.0103577080118931E+00  -2.0100987155455234E+00  -2.0098396876683755E+00
  -2.0095806245127572E+00  -2.0093215262106021E+00  -2.0090623928934663E+00  -2.0088032246925320E+00  -2.0085440217386084E+00
  -2.0082847841621323E+00  -2.0080255120931696E+00  -2.0077662056614174E+00  -2.0075068649962020E+00  -2.0072474902264856E+00
  -2.0069880814808627E+00  -2.0067286388875631E+00  -2.0064691625744544E+00  -2.0062096526690398E+00  -2.0059501092984640E+00
  -2.0056905325895094E+00  -2.0054309226686016E+00  -2.0051712796618069E+00  -2.0049116036948371E+00  -2.0046518948930476E+00
  -2.0043921533814415E+00  -2.0041323792846661E+00  -2.0038725727270204E+00  -2.0036127338324508E+00  -2.0033528627245554E+00
  -2.0030929595265845E+00  -2.0028330243614394E+00  -2.0025730573516776E+00  -2.0023130586195119E+00  -2.0020530282868099E+00
  -2.0017929664750991E+00  -2.0015328733055626E+00  -2.0012727488990465E+00  -2.0010125933760561E+00  -2.0007524068567588E+00
  -2.0004921894609851E+00  -2.0002319413082303E+00  -1.9999716625176558E+00  -1.9997113532080870E+00  -1.9994510134980192E+00
  -1.9991906435056155E+00  -1.9989302433487084E+00  -1.9986698131448020E+00  -1.9984093530110709E+00  -1.9981488630643645E+00
  -1.9978883434212038E+00  -1.9976277941977885E+00  -1.9973672155099904E+00  -1.9971066074733612E+00  -1.9968459702031294E+00
  -1.9965853038142034E+00  -1.9963246084211730E+00  -1.9960638841383069E+00  -1.9958031310795579E+00  -1.9955423493585618E+00
  -1.9952815390886391E+00  -1.9950207003827960E+00  -1.9947598333537233E+00  -1.9944989381138027E+00  -1.9942380147751013E+00
  -1.9939770634493774E+00  -1.9937160842480792E+00  -1.9934550772823467E+00  -1.9931940426630119E+00  -1.9929329805006009E+00
  -1.9926718909053347E+00  -1.9924107739871291E+00  -1.9921496298555956E+00  -1.9918884586200449E+00  -1.9916272603894849E+00
  -1.9913660352726232E+00  -1.9911047833778670E+00  -1.9908435048133277E+00  -1.9905821996868147E+00  -1.9903208681058431E+00
  -1.9900595101776328E+00  -1.9897981260091067E+00  -1.9895367157068957E+00  -1.9892752793773369E+00  -1.9890138171264746E+00
  -1.9887523290600631E+00  -1.9884908152835663E+00  -1.9882292759021580E+00  -1.9879677110207252E+00  -1.9877061207438658E+00
  -1.9874445051758913E+00  -1.9871828644208298E+00  -1.9869211985824213E+00  -1.9866595077641251E+00  -1.9863977920691158E+00
  -1.9861360516002864E+00  -1.9858742864602490E+00  -1.9856124967513349E+00  -1.9853506825755969E+00  -1.9850888440348089E+00
  -1.9848269812304680E+00  -1.9845650942637925E+00  -1.9843031832357274E+00  -1.9840412482469416E+00  -1.9837792893978292E+00
  -1.9835173067885130E+00  -1.9832553005188418E+00  -1.9829932706883933E+00  -1.9827312173964751E+00  -1.9824691407421242E+00
  -1.9822070408241093E+00  -1.9819449177409316E+00  -1.9816827715908232E+00  -1.9814206024717513E+00  -1.9811584104814175E+00
  -1.9808961957172584E+00  -1.9806339582764452E+00  -1.9803716982558885E+00  -1.9801094157522356E+00  -1.9798471108618727E+00
  -1.9795847836809233E+00  -1.9793224343052545E+00  -1.9790600628304724E+00  -1.9787976693519240E+00  -1.9785352539647014E+00
  -1.9782728167636383E+00  -1.9780103578433146E+00  -1.9777478772980512E+00  -1.9774853752219199E+00  -1.9772228517087349E+00
  -1.9769603068520603E+00  -1.9766977407452075E+00  -1.9764351534812379E+00  -1.9761725451529597E+00  -1.9759099158529350E+00
  -1.9756472656734754E+00  -1.9753845947066457E+00  -1.9751219030442619E+00  -1.9748591907778945E+00  -1.9745964579988695E+00
  -1.9743337047982652E+00  -1.9740709312669189E+00  -1.9738081374954217E+00  -1.9735453235741247E+00  -1.9732824895931351E+00
  -1.9730196356423206E+00  -1.9727567618113064E+00  -1.9724938681894808E+00  -1.9722309548659900E+00  -1.9719680219297449E+00
  -1.9717050694694169E+00  -1.9714420975734424E+00  -1.9711791063300210E+00  -1.9709160958271166E+00  -1.9706530661524588E+00
  -1.9703900173935440E+00  -1.9701269496376348E+00  -1.9698638629717620E+00  -1.9696007574827239E+00  -1.9693376332570884E+00
  -1.9690744903811932E+00  -1.9688113289411464E+00  -1.9685481490228269E+00  -1.9682849507118858E+00  -1.9680217340937463E+00
  -1.9677584992536055E+00  -1.9674952462764335E+00  -1.9672319752469765E+00  -1.9669686862497542E+00  -1.9667053793690630E+00
  -1.9664420546889771E+00  -1.9661787122933454E+00  -1.9659153522657977E+00  -1.9656519746897407E+00  -1.9653885796483606E+00
  -1.9651251672246248E+00  -1.9648617375012798E+00  -1.9645982905608550E+00  -1.9643348264856604E+00  -1.9640713453577889E+00
  -1.9638078472591187E+00  -1.9635443322713084E+00  -1.9632808004758047E+00  -1.9630172519538376E+00  -1.9627536867864241E+00
  -1.9624901050543662E+00  -1.9622265068382554E+00  -1.9619628922184684E+00  -1.9616992612751738E+00  -1.9614356140883256E+00
  -1.9611719507376710E+00  -1.9609082713027444E+00  -1.9606445758628739E+00  -1.9603808644971772E+00  -1.9601171372845660E+00
  -1.9598533943037444E+00  -1.9595896356332092E+00  -1.9593258613512521E+00  -1.9590620715359597E+00  -1.9587982662652130E+00
  -1.9585344456166909E+00  -1.9582706096678666E+00  -1.9580067584960115E+00  -1.9577428921781961E+00  -1.9574790107912867E+00
  -1.9572151144119514E+00  -1.9569512031166549E+00  -1.9566872769816657E+00  -1.9564233360830494E+00  -1.9561593804966759E+00
  -1.9558954102982162E+00  -1.9556314255631422E+00  -1.9553674263667316E+00  -1.9551034127840645E+00  -1.9548393848900252E+00
  -1.9545753427593033E+00  -1.9543112864663941E+00  -1.9540472160855982E+00  -1.9537831316910239E+00  -1.9535190333565851E+00
  -1.9532549211560060E+00  -1.9529907951628165E+00  -1.9527266554503564E+00  -1.9524625020917761E+00  -1.9521983351600347E+00
  -1.9519341547279030E+00  -1.9516699608679609E+00  -1.9514057536526022E+00  -1.9511415331540320E+00  -1.9508772994442689E+00
  -1.9506130525951435E+00  -1.9503487926783023E+00  -1.9500845197652039E+00  -1.9498202339271240E+00  -1.9495559352351535E+00
  -1.9492916237601980E+00  -1.9490272995729809E+00  -1.9487629627440435E+00  -1.9484986133437427E+00  -1.9482342514422557E+00
  -1.9479698771095773E+00  -1.9477054904155220E+00  -1.9474410914297238E+00  -1.9471766802216381E+00  -1.9469122568605399E+00
  -1.9466478214155269E+00  -1.9463833739555172E+00  -1.9461189145492519E+00  -1.9458544432652967E+00  -1.9455899601720381E+00
  -1.9453254653376886E+00  -1.9450609588302841E+00  -1.9447964407176865E+00  -1.9445319110675823E+00  -1.9442673699474846E+00
  -1.9440028174247328E+00  -1.9437382535664935E+00  -1.9434736784397608E+00  -1.9432090921113574E+00  -1.9429444946479331E+00
  -1.9426798861159671E+00  -1.9424152665817709E+00  -1.9421506361114820E+00  -1.9418859947710703E+00  -1.9416213426263373E+00
  -1.9413566797429149E+00  -1.9410920061862682E+00  -1.9408273220216932E+00  -1.9405626273143195E+00  -1.9402979221291115E+00
  -1.9400332065308645E+00  -1.9397684805842121E+00  -1.9395037443536198E+00  -1.9392389979033888E+00  -1.9389742412976576E+00
  -1.9387094746003997E+00  -1.9384446978754255E+00  -1.9381799111863836E+00  -1.9379151145967586E+00  -1.9376503081698746E+00
  -1.9373854919688951E+00  -1.9371206660568203E+00  -1.9368558304964909E+00  -1.9365909853505894E+00  -1.9363261306816364E+00
  -1.9360612665519941E+00  -1.9357963930238673E+00  -1.9355315101593014E+00  -1.9352666180201830E+00  -1.9350017166682454E+00
  -1.9347368061650598E+00  -1.9344718865720452E+00  -1.9342069579504630E+00  -1.9339420203614193E+00  -1.9336770738658653E+00
  -1.9334121185245967E+00  -1.9331471543982570E+00  -1.9328821815473345E+00  -1.9326172000321635E+00  -1.9323522099129284E+00
  -1.9320872112496577E+00  -1.9318222041022304E+00  -1.9315571885303719E+00  -1.9312921645936596E+00  -1.9310271323515169E+00
  -1.9307620918632185E+00  -1.9304970431878892E+00  -1.9302319863845052E+00  -1.9299669215118909E+00  -1.9297018486287250E+00
  -1.9294367677935373E+00  -1.9291716790647098E+00  -1.9289065825004765E+00  -1.9286414781589249E+00  -1.9283763660979965E+00
  -1.9281112463754866E+00  -1.9278461190490437E+00  -1.9275809841761731E+00  -1.9273158418142333E+00  -1.9270506920204398E+00
  -1.9267855348518625E+00  -1.9265203703654299E+00  -1.9262551986179250E+00  -1.9259900196659896E+00  -1.9257248335661228E+00
  -1.9254596403746800E+00  -1.9251944401478776E+00  -1.9249292329417891E+00  -1.9246640188123476E+00  -1.9243987978153456E+00
  -1.9241335700064364E+00  -1.9238683354411321E+00  -1.9236030941748068E+00  -1.9233378462626953E+00  -1.9230725917598939E+00
  -1.9228073307213607E+00  -1.9225420632019175E+00  -1.9222767892562462E+00  -1.9220115089388936E+00  -1.9217462223042689E+00
  -1.9214809294066464E+00  -1.9212156303001628E+00  -1.9209503250388216E+00  -1.9206850136764897E+00  -1.9204196962668989E+00
  -1.9201543728636488E+00  -1.9198890435202032E+00  -1.9196237082898917E+00  -1.9193583672259136E+00  -1.9190930203813334E+00
  -1.9188276678090830E+00  -1.9185623095619626E+00  -1.9182969456926418E+00  -1.9180315762536555E+00  -1.9177662012974128E+00
  -1.9175008208761875E+00  -1.9172354350421250E+00  -1.9169700438472415E+00  -1.9167046473434222E+00  -1.9164392455824237E+00
  -1.9161738386158746E+00  -1.9159084264952733E+00  -1.9156430092719923E+00  -1.9153775869972745E+00  -1.9151121597222347E+00
  -1.9148467274978640E+00  -1.9145812903750230E+00  -1.9143158484044489E+00  -1.9140504016367501E+00  -1.9137849501224118E+00
  -1.9135194939117930E+00  -1.9132540330551271E+00  -1.9129885676025229E+00  -1.9127230976039666E+00  -1.9124576231093176E+00
  -1.9121921441683143E+00  -1.9119266608305705E+00  -1.9116611731455773E+00  -1.9113956811627026E+00  -1.9111301849311935E+00
  -1.9108646845001733E+00  -1.9105991799186457E+00  -1.9103336712354912E+00  -1.9100681584994710E+00  -1.9098026417592231E+00
  -1.9095371210632688E+00  -1.9092715964600069E+00  -1.9090060679977177E+00  -1.9087405357245610E+00  -1.9084749996885790E+00
  -1.9082094599376953E+00  -1.9079439165197127E+00  -1.9076783694823189E+00  -1.9074128188730832E+00  -1.9071472647394558E+00
  -1.9068817071287716E+00  -1.9066161460882491E+00  -1.9063505816649888E+00  -1.9060850139059760E+00  -1.9058194428580801E+00
  -1.9055538685680546E+00  -1.9052882910825384E+00  -1.9050227104480562E+00  -1.9047571267110155E+00  -1.9044915399177131E+00
  -1.9042259501143295E+00  -1.9039603573469308E+00  -1.9036947616614732E+00  -1.9034291631037976E+00  -1.9031635617196312E+00
  -1.9028979575545912E+00  -1.9026323506541805E+00  -1.9023667410637921E+00  -1.9021011288287066E+00  -1.9018355139940928E+00
  -1.9015698966050101E+00  -1.9013042767064063E+00  -1.9010386543431179E+00  -1.9007730295598739E+00  -1.9005074024012920E+00
  -1.9002417729118799E+00  -1.8999761411360376E+00  -1.8997105071180562E+00  -1.8994448709021161E+00  -1.8991792325322925E+00
  -1.8989135920525506E+00  -1.8986479495067488E+00  -1.8983823049386370E+00  -1.8981166583918596E+00  -1.8978510099099544E+00
  -1.8975853595363490E+00  -1.8973197073143699E+00  -1.8970540532872344E+00  -1.8967883974980551E+00  -1.8965227399898377E+00
  -1.8962570808054864E+00  -1.8959914199877965E+00  -1.8957257575794613E+00  -1.8954600936230686E+00  -1.8951944281611026E+00
  -1.8949287612359449E+00  -1.8946630928898713E+00  -1.8943974231650560E+00  -1.8941317521035708E+00  -1.8938660797473832E+00
  -1.8936004061383598E+00  -1.8933347313182638E+00  -1.8930690553287584E+00  -1.8928033782114031E+00  -1.8925377000076578E+00
  -1.8922720207588806E+00  -1.8920063405063301E+00  -1.8917406592911616E+00  -1.8914749771544330E+00  -1.8912092941371017E+00
  -1.8909436102800239E+00  -1.8906779256239590E+00  -1.8904122402095640E+00  -1.8901465540773998E+00  -1.8898808672679273E+00
  -1.8896151798215095E+00  -1.8893494917784106E+00  -1.8890838031787984E+00  -1.8888181140627420E+00  -1.8885524244702121E+00
  -1.8882867344410850E+00  -1.8880210440151377E+00  -1.8877553532320526E+00  -1.8874896621314143E+00  -1.8872239707527119E+00
  -1.8869582791353392E+00  -1.8866925873185929E+00  -1.8864268953416767E+00  -1.8861612032436965E+00  -1.8858955110636659E+00
  -1.8856298188405025E+00  -1.8853641266130297E+00  -1.8850984344199775E+00  -1.8848327422999813E+00  -1.8845670502915834E+00
  -1.8843013584332327E+00  -1.8840356667632847E+00  -1.8837699753200028E+00  -1.8835042841415564E+00  -1.8832385932660243E+00
  -1.8829729027313920E+00  -1.8827072125755535E+00  -1.8824415228363112E+00  -1.8821758335513752E+00  -1.8819101447583657E+00
  -1.8816444564948116E+00  -1.8813787687981514E+00  -1.8811130817057315E+00  -1.8808473952548102E+00  -1.8805817094825548E+00
  -1.8803160244260431E+00  -1.8800503401222630E+00  -1.8797846566081124E+00  -1.8795189739204032E+00  -1.8792532920958547E+00
  -1.8789876111711004E+00  -1.8787219311826826E+00  -1.8784562521670587E+00  -1.8781905741605958E+00  -1.8779248971995748E+00
  -1.8776592213201881E+00  -1.8773935465585418E+00  -1.8771278729506535E+00  -1.8768622005324558E+00  -1.8765965293397933E+00
  -1.8763308594084256E+00  -1.8760651907740251E+00  -1.8757995234721785E+00  -1.8755338575383877E+00  -1.8752681930080675E+00
  -1.8750025299165489E+00  -1.8747368682990779E+00  -1.8744712081908148E+00  -1.8742055496268362E+00  -1.8739398926421329E+00
  -1.8736742372716140E+00  -1.8734085835501015E+00  -1.8731429315123371E+00  -1.8728772811929773E+00  -1.8726116326265947E+00
  -1.8723459858476796E+00  -1.8720803408906392E+00  -1.8718146977897994E+00  -1.8715490565794013E+00  -1.8712834172936053E+00
  -1.8710177799664889E+00  -1.8707521446320505E+00  -1.8704865113242028E+00  -1.8702208800767799E+00  -1.8699552509235340E+00
  -1.8696896238981355E+00  -1.8694239990341763E+00  -1.8691583763651654E+00  -1.8688927559245325E+00  -1.8686271377456269E+00
  -1.8683615218617180E+00  -1.8680959083059965E+00  -1.8678302971115712E+00  -1.8675646883114740E+00  -1.8672990819386566E+00
  -1.8670334780259910E+00  -1.8667678766062732E+00  -1.8665022777122169E+00  -1.8662366813764595E+00  -1.8659710876315614E+00
  -1.8657054965100031E+00  -1.8654399080441881E+00  -1.8651743222664430E+00  -1.8649087392090151E+00  -1.8646431589040773E+00
  -1.8643775813837233E+00  -1.8641120066799717E+00  -1.8638464348247630E+00  -1.8635808658499624E+00  -1.8633152997873583E+00
  -1.8630497366686640E+00  -1.8627841765255162E+00  -1.8625186193894763E+00  -1.8622530652920304E+00  -1.8619875142645892E+00
  -1.8617219663384883E+00  -1.8614564215449891E+00  -1.8611908799152772E+00  -1.8609253414804647E+00  -1.8606598062715898E+00
  -1.8603942743196149E+00  -1.8601287456554312E+00  -1.8598632203098517E+00  -1.8595976983136218E+00  -1.8593321796974089E+00
  -1.8590666644918095E+00  -1.8588011527273458E+00  -1.8585356444344692E+00  -1.8582701396435553E+00  -1.8580046383849107E+00
  -1.8577391406887678E+00  -1.8574736465852872E+00  -1.8572081561045586E+00  -1.8569426692765976E+00  -1.8566771861313518E+00
  -1.8564117066986945E+00  -1.8561462310084287E+00  -1.8558807590902873E+00  -1.8556152909739312E+00  -1.8553498266889517E+00
  -1.8550843662648686E+00  -1.8548189097311321E+00  -1.8545534571171225E+00  -1.8542880084521494E+00  -1.8540225637654533E+00
  -1.8537571230862042E+00  -1.8534916864435047E+00  -1.8532262538663862E+00  -1.8529608253838115E+00  -1.8526954010246748E+00
  -1.8524299808178015E+00  -1.8521645647919494E+00  -1.8518991529758051E+00  -1.8516337453979905E+00  -1.8513683420870570E+00
  -1.8511029430714896E+00  -1.8508375483797048E+00  -1.8505721580400520E+00  -1.8503067720808122E+00  -1.8500413905302004E+00
  -1.8497760134163641E+00  -1.8495106407673843E+00  -1.8492452726112749E+00  -1.8489799089759840E+00  -1.8487145498893915E+00
  -1.8484491953793127E+00  -1.8481838454734967E+00  -1.8479185001996268E+00  -1.8476531595853201E+00  -1.8473878236581285E+00
  -1.8471224924455372E+00  -1.8468571659749691E+00  -1.8465918442737788E+00  -1.8463265273692591E+00  -1.8460612152886349E+00
  -1.8457959080590687E+00  -1.8455306057076577E+00  -1.8452653082614350E+00  -1.8450000157473700E+00  -1.8447347281923681E+00
  -1.8444694456232693E+00  -1.8442041680668524E+00  -1.8439388955498310E+00  -1.8436736280988559E+00  -1.8434083657405160E+00
  -1.8431431085013341E+00  -1.8428778564077735E+00  -1.8426126094862325E+00  -1.8423473677630482E+00  -1.8420821312644939E+00
  -1.8418169000167826E+00  -1.8415516740460633E+00  -1.8412864533784243E+00  -1.8410212380398918E+00  -1.8407560280564297E+00
  -1.8404908234539414E+00  -1.8402256242582689E+00  -1.8399604304951915E+00  -1.8396952421904296E+00  -1.8394300593696413E+00
  -1.8391648820584252E+00  -1.8388997102823170E+00  -1.8386345440667951E+00  -1.8383693834372747E+00  -1.8381042284191125E+00
  -1.8378390790376056E+00  -1.8375739353179892E+00  -1.8373087972854407E+00  -1.8370436649650774E+00  -1.8367785383819566E+00
  -1.8365134175610771E+00  -1.8362483025273786E+00  -1.8359831933057411E+00  -1.8357180899209864E+00  -1.8354529923978764E+00
  -1.8351879007611167E+00  -1.8349228150353525E+00  -1.8346577352451716E+00  -1.8343926614151029E+00  -1.8341275935696177E+00
   5.0803612526640507E+01   5.0803612526640507E+01   5.0803612526640507E+01   5.0803612526640507E+01   5.0803612526640507E+01
   5.0803612526640507E+01   5.0803612526640507E+01   5.0803612526640507E+01   5.0803612526640507E+01   5.0803612526640507E+01
   5.0803612526640507E+01   5.0803612526640507E+01   5.0803612526640507E+01   5.0803612526640507E+01   5.0803612526640507E+01
   5.0803612526640507E+01   5.0803612526640507E+01   5.0803612526640507E+01   5.0803612526640507E+01   5.0803612526640507E+01
   5.0803612526640507E+01   5.0803612526640507E+01   5.0803612526640507E+01   5.0803612526640507E+01   5.0803612526640507E+01
   5.0803612526640507E+01   5.0803612526640507E+01   5.0803612526640507E+01   5.0803612526640507E+01   5.0803612526640507E+01
   5.0803612526640507E+01   5.0803612526640507E+01   5.0803612526640507E+01   5.0803612526640507E+01   5.0803612526640507E+01
   5.0803612526640507E+01   5.0803612526640507E+01   5.0803612526640507E+01   5.0803612526640507E+01   5.0803612526640507E+01
   5.0803612526640507E+01   5.0803612526640507E+01   5.0803612526640507E+01   5.0803612526640507E+01   5.0803612526640507E+01
   5.0803612526640507E+01   5.0803612526640507E+01   5.0803612526640507E+01   5.0803612526640507E+01   5.0803612526640507E+01
   5.0803612526640507E+01   5.0803612526640507E+01   5.0803612526640507E+01   5.0803612526640507E+01   5.0803612526640507E+01
   5.0803612526640507E+01   5.0803612526640507E+01   5.0803612526640507E+01   5.0803612526640507E+01   5.0803612526640507E+01
   5.0803612526640507E+01   5.0803612526640507E+01   5.0803612526640507E+01   5.0803612526640507E+01   5.0803612526640507E+01
   5.0803612526640507E+01   5.0803612526640507E+01   5.0803612526640507E+01   5.0803612526640507E+01   5.0803612526640507E+01
   5.0803612526640507E+01   5.0803612526640507E+01   5.0803612526640507E+01   5.0803612526640507E+01   5.0803612526640507E+01
   5.0803612526640507E+01   5.0803612526640507E+01   5.0803612526640507E+01   5.0803612526640507E+01   5.0803612526640507E+01
   5.0803612526640507E+01   5.0803612526640507E+01   5.0803612526640507E+01   5.0803612526640507E+01   5.0803612526640507E+01
   5.0803612526640507E+01   5.0803612526640507E+01   5.0803612526640507E+01   5.0803612526640507E+01   5.0803612526640507E+01
   5.0803612526640507E+01   5.0803612526640507E+01   5.0803612526640507E+01   5.0803612526640507E+01   5.0803612526640507E+01
   5.0803612526640507E+01   5.0803612526640507E+01   5.0803612526640507E+01   5.0803612526640507E+01   5.0803612526640507E+01
   5.0803612526640507E+01   5.0803612526640507E+01   5.0803612526640507E+01   5.0803612526640507E+01   5.0803612526640507E+01
   5.0803612526640507E+01   5.0803612526640507E+01   5.0803612526640507E+01   5.0803612526640507E+01   5.0803612526640507E+01
   5.0803612526640507E+01   5.0803612526640507E+01   5.0803612526640507E+01   5.0803612526640507E+01   5.0803612526640507E+01
   5.0803612526640507E+01   5.0803612526640507E+01   5.0803612526640507E+01   5.0803612526640507E+01   5.0803612526640507E+01
   5.0803612526640507E+01   5.0803612526640507E+01   5.0803612526640507E+01   5.0803612526640507E+01   5.0803612526640507E+01
   5.0803612526640507E+01   5.0803612526640507E+01   5.0803612526640507E+01   5.0803612526640507E+01   5.0803612526640507E+01
   5.0803612526640507E+01   5.0803612526640507E+01   5.0803612526640507E+01   5.0803612526640507E+01   5.0803612526640507E+01
   5.0803612526640507E+01   5.0803612526640507E+01   5.0803612526640507E+01   5.0803612526640507E+01   5.0803612526640507E+01
   5.0803612526640507E+01   5.0803612526640507E+01   5.0803612526640507E+01   5.0803612526640507E+01   5.0803612526640507E+01
   5.0803612526640507E+01   5.0803612526640507E+01   5.0803612526640507E+01   5.0803612526640507E+01   5.0803612526640507E+01
   5.0803612526640507E+01   5.0803612526640507E+01   5.0803612526640507E+01   5.0803612526640507E+01   5.0803612526640507E+01
   5.0803612526640507E+01   5.0803612526640507E+01   5.0803612526640507E+01   5.0803612526640507E+01   5.0803612526640507E+01
   5.0803612526640507E+01   5.0803612526640507E+01   5.0803612526640507E+01   5.0668286321779931E+01   5.0404597685583546E+01
   5.0142280554923019E+01   4.9881327830160146E+01   4.9621732447008647E+01   4.9363487376414085E+01   4.9106585624431332E+01
   4.8851020232100929E+01   4.8596784275323387E+01   4.8343870864732260E+01   4.8092273145565684E+01   4.7841984297536563E+01
   4.7592997534701546E+01   4.7345306105328810E+01   4.7098903291764763E+01   4.6853782410299573E+01   4.6609936811031950E+01
   4.6367359877732973E+01   4.6126045027708813E+01   4.5885985711663110E+01   4.5647175413558301E+01   4.5409607650476481E+01
   4.5173275972479544E+01   4.4938173962468859E+01   4.4704295236044487E+01   4.4471633441363707E+01   4.4240182258999404E+01
   4.4009935401798067E+01   4.3780886614737248E+01   4.3553029674783083E+01   4.3326358390747210E+01   4.3100866603143849E+01
   4.2876548184046548E+01   4.2653397036944618E+01   4.2431407096599919E+01   4.2210572328903218E+01   4.1990886730730672E+01
   4.1772344329800248E+01   4.1554939184528301E+01   4.1338665383886052E+01   4.1123517047256279E+01   4.0909488324289946E+01
   4.0696573394763263E+01   4.0484766468434600E+01   4.0274061784901733E+01   4.0064453613459293E+01   3.9855936252956326E+01
   3.9648504031654305E+01   3.9442151307085162E+01   3.9236872465909713E+01   3.9032661923776409E+01   3.8829514125180296E+01
   3.8627423543322408E+01   3.8426384679969438E+01   3.8226392065313718E+01   3.8027440257833639E+01   3.7829523844154473E+01
   3.7632637438909427E+01   3.7436775684601308E+01   3.7241933251464495E+01   3.7048104837327216E+01   3.6855285167474570E+01
   3.6663468994511604E+01   3.6472651098227182E+01   3.6282826285458079E+01   3.6093989389953641E+01   3.5906135272240924E+01
   3.5719258819490271E+01   3.5533354945381461E+01   3.5348418589970109E+01   3.5164444719554993E+01   3.4981428326545412E+01
   3.4799364429329430E+01   3.4618248072142357E+01   3.4438074324935982E+01   3.4258838283248110E+01   3.4080535068072869E+01
   3.3903159825731258E+01   3.3726707727742479E+01   3.3551173970695679E+01   3.3376553776122243E+01   3.3202842390368666E+01
   3.3030035084469986E+01   3.2858127154023599E+01   3.2687113919063940E+01   3.2516990723937283E+01   3.2347752937177574E+01
   3.2179395951382411E+01   3.2011915183089783E+01   3.1845306072655351E+01   3.1679564084130245E+01   3.1514684705139388E+01
   3.1350663446760453E+01   3.1187495843403337E+01   3.1025177452690169E+01   3.0863703855335970E+01   3.0703070655029673E+01
   3.0543273478316021E+01   3.0384307974477647E+01   3.0226169815418011E+01   3.0068854695544708E+01   2.9912358331653444E+01
   2.9756676462812511E+01   2.9601804850247859E+01   2.9447739277228646E+01   2.9294475548953390E+01   2.9142009492436724E+01
   2.8990336956396586E+01   2.8839453811142043E+01   2.8689355948461664E+01   2.8540039281512374E+01   2.8391499744708927E+01
   2.8243733293613897E+01   2.8096735904828179E+01   2.7950503575882081E+01   2.7805032325126923E+01   2.7660318191627212E+01
   2.7516357235053302E+01   2.7373145535574594E+01   2.7230679193753371E+01   2.7088954330439002E+01   2.6947967086662786E+01
   2.6807713623533314E+01   2.6668190122132298E+01   2.6529392783411005E+01   2.6391317828087178E+01   2.6253961496542392E+01
   2.6117320048720142E+01   2.5981389764024193E+01   2.5846166941217639E+01   2.5711647898322369E+01   2.5577828972519089E+01
   2.5444706520047816E+01   2.5312276916108978E+01   2.5180536554764807E+01   2.5049481848841513E+01   2.4919109229831680E+01
   2.4789415147797413E+01   2.4660396071273798E+01   2.4532048487172929E+01   2.4404368900688368E+01   2.4277353835200270E+01
   2.4150999832180737E+01   2.4025303451099845E+01   2.3900261269332091E+01   2.3775869882063329E+01   2.3652125902198158E+01
   2.3529025960267845E+01   2.3406566704338648E+01   2.3284744799920681E+01   2.3163556929877188E+01   2.3042999794334346E+01
   2.2923070110591443E+01   2.2803764613031635E+01   2.2685080053033090E+01   2.2567013198880566E+01   2.2449560835677556E+01
   2.2332719765258723E+01   2.2216486806102967E+01   2.2100858793246783E+01   2.1985832578198206E+01   2.1871405028851058E+01
   2.1757573029399797E+01   2.1644333480254609E+01   2.1531683297957223E+01   2.1419619415096804E+01   2.1308138780226578E+01
   2.1197238357780787E+01   2.1086915127992025E+01   2.0977166086809056E+01   2.0867988245815088E+01   2.0759378632146351E+01
   2.0651334288411256E+01   2.0543852272609850E+01   2.0436929658053707E+01   2.0330563533286369E+01   2.0224751002003959E+01
   2.0119489182976380E+01   2.0014775209968985E+01   1.9910606231664357E+01   1.9806979411584887E+01   1.9703891928015370E+01
   1.9601340973926344E+01   1.9499323756897560E+01   1.9397837499042041E+01   1.9296879436930396E+01   1.9196446821515615E+01
   1.9096536918058195E+01   1.8997147006051765E+01   1.8898274379148880E+01   1.8799916345087482E+01   1.8702070225617522E+01
   1.8604733356428053E+01   1.8507903087074695E+01   1.8411576780907470E+01   1.8315751814999032E+01   1.8220425580073215E+01
   1.8125595480434022E+01   1.8031258933894936E+01   1.7937413371708637E+01   1.7844056238497032E+01   1.7751184992181667E+01
   1.7658797103914587E+01   1.7566890058009363E+01   1.7475461351872724E+01   1.7384508495936316E+01   1.7294029013588933E+01
   1.7204020441109183E+01   1.7114480327598237E+01   1.7025406234913220E+01   1.6936795737600804E+01   1.6848646422831116E+01
   1.6760955890332099E+01   1.6673721752324120E+01   1.6586941633454956E+01   1.6500613170735168E+01   1.6414734013473648E+01
   1.6329301823213722E+01   1.6244314273669449E+01   1.6159769050662216E+01   1.6075663852057833E+01   1.5991996387703743E+01
   1.5908764379366733E+01   1.5825965560670868E+01   1.5743597677035792E+01   1.5661658485615332E+01   1.5580145755236424E+01
   1.5499057266338383E+01   1.5418390810912401E+01   1.5338144192441550E+01   1.5258315225840819E+01   1.5178901737397736E+01
   1.5099901564713100E+01   1.5021312556642163E+01   1.4943132573236014E+01   1.4865359485683316E+01   1.4787991176252371E+01
   1.4711025538233399E+01   1.4634460475881228E+01   1.4558293904358193E+01   1.4482523749677386E+01   1.4407147948646156E+01
   1.4332164448809991E+01   1.4257571208396554E+01   1.4183366196260113E+01   1.4109547391826284E+01   1.4036112785036920E+01
   1.3963060376295477E+01   1.3890388176412477E+01   1.3818094206551400E+01   1.3746176498174792E+01   1.3674633092990645E+01
   1.3603462042899084E+01   1.3532661409939326E+01   1.3462229266236886E+01   1.3392163693951138E+01   1.3322462785223014E+01
   1.3253124642123131E+01   1.3184147376600057E+01   1.3115529110428922E+01   1.3047267975160263E+01   1.2979362112069182E+01
   1.2911809672104683E+01   1.2844608815839349E+01   1.2777757713419263E+01   1.2711254544514176E+01   1.2645097498267926E+01
   1.2579284773249148E+01   1.2513814577402195E+01   1.2448685127998388E+01   1.2383894651587420E+01   1.2319441383949099E+01
   1.2255323570045322E+01   1.2191539463972211E+01   1.2128087328912688E+01   1.2064965437089073E+01   1.2002172069716110E+01
   1.1939705516954122E+01   1.1877564077862482E+01   1.1815746060353293E+01   1.1754249781145289E+01   1.1693073565718015E+01
   1.1632215748266246E+01   1.1571674671654602E+01   1.1511448687372445E+01   1.1451536155488977E+01   1.1391935444608590E+01
   1.1332644931826440E+01   1.1273663002684268E+01   1.1214988051126431E+01   1.1156618479456164E+01   1.1098552698292089E+01
   1.1040789126524901E+01   1.0983326191274397E+01   1.0926162327846537E+01   1.0869295979690920E+01   1.0812725598358377E+01
   1.0756449643458796E+01   1.0700466582619178E+01   1.0644774891441942E+01   1.0589373053463362E+01   1.0534259560112337E+01
   1.0479432910669248E+01   1.0424891612225158E+01   1.0370634179641110E+01   1.0316659135507715E+01   1.0262965010104917E+01
   1.0209550341361963E+01   1.0156413674817601E+01   1.0103553563580478E+01   1.0050968568289745E+01   9.9986572570758288E+00
   9.9466182055215082E+00   9.8948499966230496E+00   9.8433512207517051E+00   9.7921204756152491E+00   9.7411563662198475E+00
   9.6904575048320609E+00   9.6400225109410496E+00   9.5898500112209728E+00   9.5399386394936343E+00   9.4902870366912229E+00
   9.4408938508193732E+00   9.3917577369202743E+00   9.3428773570361141E+00   9.2942513801726214E+00   9.2458784822628193E+00
   9.1977573461309614E+00   9.1498866614566960E+00   9.1022651247393700E+00   9.0548914392625264E+00   9.0077643150586102E+00
   8.9608824688738249E+00   8.9142446241332252E+00   8.8678495109059128E+00   8.8216958658704758E+00   8.7757824322806037E+00
   8.7301079599308462E+00   8.6846712051225730E+00   8.6394709306301269E+00   8.5945059056670949E+00   8.5497749058528498E+00
   8.5052767131791551E+00   8.4610101159770430E+00   8.4169739088837936E+00   8.3731668928101222E+00   8.3295878749075332E+00
   8.2862356685358396E+00   8.2431090932308315E+00   8.2002069746721578E+00   8.1575281446513426E+00   8.1150714410399694E+00
   8.0728357077580366E+00   8.0308197947424809E+00   7.9890225579158693E+00   7.9474428591552320E+00   7.9060795662610808E+00
   7.8649315529265760E+00   7.8239976987068678E+00   7.7832768889885573E+00   7.7427680149593954E+00   7.7024699735780340E+00
   7.6623816675440386E+00   7.6225020052679779E+00   7.5828299008417153E+00   7.5433642740088374E+00   7.5041040501352372E+00
   7.4650481601798457E+00   7.4261955406655362E+00   7.3875451336501605E+00   7.3490958866977385E+00   7.3108467528498018E+00
   7.2727966905968771E+00   7.2349446638501611E+00   7.1972896419132537E+00   7.1598305994541365E+00   7.1225665164772360E+00
   7.0854963782956562E+00   7.0486191755035268E+00   7.0119339039485649E+00   6.9754395647046712E+00   6.9391351640447869E+00
   6.9030197134137889E+00   6.8670922294016066E+00   6.8313517337164225E+00   6.7957972531580442E+00   6.7604278195913894E+00
   6.7252424699201594E+00   6.6902402460605632E+00   6.6554201949152736E+00   6.6207813683474548E+00   6.5863228231549451E+00
   6.5520436210445796E+00   6.5179428286066274E+00   6.4840195172894024E+00   6.4502727633739498E+00   6.4167016479489112E+00
   6.3833052568854942E+00   6.3500826808125952E+00   6.3170330150920080E+00   6.2841553597938331E+00   6.2514488196719276E+00
   6.2189125041395661E+00   6.1865455272451682E+00   6.1543470076481803E+00   6.1223160685950804E+00   6.0904518378955013E+00
   6.0587534478984706E+00   6.0272200354688161E+00   5.9958507419636238E+00   5.9646447132088829E+00   5.9336010994762214E+00
   5.9027190554597659E+00   5.8719977402531294E+00   5.8414363173264974E+00   5.8110339545038725E+00   5.7807898239404034E+00
   5.7507031020998429E+00   5.7207729697321126E+00   5.6909986118510290E+00   5.6613792177120663E+00   5.6319139807903165E+00
   5.6026020987585063E+00   5.5734427734651675E+00   5.5444352109128863E+00   5.5155786212366955E+00   5.4868722186825520E+00
   5.4583152215859734E+00   5.4299068523507064E+00   5.4016463374275947E+00   5.3735329072934901E+00   5.3455657964303160E+00
   5.3177442433042064E+00   5.2900674903447840E+00   5.2625347839245187E+00   5.2351453743382175E+00   5.2078985157826052E+00
   5.1807934663360165E+00   5.1538294879382001E+00   5.1270058463702028E+00   5.1003218112344086E+00   5.0737766559346129E+00
   5.0473696576562723E+00   5.0211000973467970E+00   4.9949672596959873E+00   4.9689704331165396E+00   4.9431089097246996E+00
   4.9173819853209437E+00   4.8917889593708512E+00   4.8663291349859890E+00   4.8410018189049566E+00   4.8158063214745059E+00
   4.7907419566307672E+00   4.7658080418805477E+00   4.7410038982827718E+00   4.7163288504299796E+00   4.6917822264299414E+00
   4.6673633578873615E+00   4.6430715798856674E+00   4.6189062309689319E+00   4.5948666531238276E+00   4.5709521917617320E+00
   4.5471621957008974E+00   4.5234960171487213E+00   4.4999530116841013E+00   4.4765325382398951E+00   4.4532339590854519E+00
   4.4300566398092753E+00   4.4069999493017091E+00   4.3840632597377844E+00   4.3612459465601079E+00   4.3385473884618664E+00
   4.3159669673698957E+00   4.2935040684278611E+00   4.2711580799795108E+00   4.2489283935520206E+00   4.2268144038394295E+00
   4.2048155086861509E+00   4.1829311090705836E+00   4.1611606090887898E+00   4.1395034159382824E+00   4.1179589399018743E+00
   4.0965265943316220E+00   4.0752057956328525E+00   4.0539959632482754E+00   4.0328965196421604E+00   4.0119068902846395E+00
   3.9910265036360277E+00   3.9702547911312887E+00   3.9495911871645353E+00   3.9290351290736458E+00   3.9085860571249147E+00
   3.8882434144978442E+00   3.8680066472699628E+00   3.8478752044017392E+00   3.8278485377215925E+00   3.8079261019109576E+00
   3.7881073544894277E+00   3.7683917558000024E+00   3.7487787689943812E+00   3.7292678600183367E+00   3.7098584975971916E+00
   3.6905501532213383E+00   3.6713423011318622E+00   3.6522344183061950E+00   3.6332259844439152E+00   3.6143164819525495E+00
   3.5955053959334862E+00   3.5767922141679591E+00   3.5581764271031053E+00   3.5396575278380666E+00   3.5212350121102198E+00
   3.5029083782814210E+00   3.4846771273243511E+00   3.4665407628089362E+00   3.4484987908888249E+00   3.4305507202879326E+00
   3.4126960622870834E+00   3.3949343307106825E+00   3.3772650419134917E+00   3.3596877147674502E+00   3.3422018706485792E+00
   3.3248070334239554E+00   3.3075027294387276E+00   3.2902884875032377E+00   3.2731638388801829E+00   3.2561283172718478E+00
   3.2391814588074155E+00   3.2223228020303378E+00   3.2055518878857518E+00   3.1888682597080074E+00   3.1722714632082116E+00
   3.1557610464618637E+00   3.1393365598965532E+00   3.1229975562797190E+00   3.1067435907064667E+00   3.0905742205874494E+00
   3.0744890056368304E+00   3.0584875078602853E+00   3.0425692915430718E+00   3.0267339232381731E+00   3.0109809717544982E+00
   2.9953100081451245E+00   2.9797206056956349E+00   2.9642123399124927E+00   2.9487847885114764E+00   2.9334375314061898E+00
   2.9181701506966240E+00   2.9029822306577677E+00   2.8878733577282958E+00   2.8728431204993088E+00   2.8578911097031225E+00
   2.8430169182021321E+00   2.8282201409777254E+00   2.8135003751192484E+00   2.7988572198130357E+00   2.7842902763315012E+00
   2.7697991480222797E+00   2.7553834402974169E+00   2.7410427606226428E+00   2.7267767185066671E+00   2.7125849254905510E+00
   2.6984669951371325E+00   2.6844225430205038E+00   2.6704511867155372E+00   2.6565525457874792E+00   2.6427262417815913E+00
   2.6289718982128361E+00   2.6152891405556353E+00   2.6016775962336665E+00   2.5881368946097254E+00   2.5746666669756140E+00
   2.5612665465421292E+00   2.5479361684290533E+00   2.5346751696552241E+00   2.5214831891286553E+00   2.5083598676367065E+00
   2.4953048478362838E+00   2.4823177742441347E+00   2.4693982932271523E+00   2.4565460529927470E+00   2.4437607035792741E+00
   2.4310418968465002E+00   2.4183892864661201E+00   2.4058025279123370E+00   2.3932812784524691E+00   2.3808251971376255E+00
   2.3684339447934160E+00   2.3561071840107202E+00   2.3438445791365039E+00   2.3316457962646626E+00   2.3195105032269518E+00
   2.3074383695839265E+00   2.2954290666159465E+00   2.2834822673142292E+00   2.2715976463719478E+00   2.2597748801753572E+00
   2.2480136467950045E+00   2.2363136259769489E+00   2.2246744991340415E+00   2.2130959493372564E+00   2.2015776613070566E+00
   2.1901193214048131E+00   2.1787206176242573E+00   2.1673812395829914E+00   2.1561008785140374E+00   2.1448792272574222E+00
   2.1337159802518229E+00   2.1226108335262430E+00   2.1115634846917297E+00   2.1005736329331501E+00   2.0896409790009929E+00
   2.0787652252032194E+00   2.0679460753971641E+00   2.0571832349814683E+00   2.0464764108880473E+00   2.0358253115741309E+00
   2.0252296470143087E+00   2.0146891286926354E+00   2.0042034695947799E+00   1.9937723842002084E+00   1.9833955884744057E+00
   1.9730727998611437E+00   1.9628037372747886E+00   1.9525881210926466E+00   1.9424256731473473E+00   1.9323161167192728E+00
   1.9222591765290227E+00   1.9122545787299132E+00   1.9023020509005266E+00   1.8924013220372917E+00   1.8825521225470994E+00
   1.8727541842399689E+00   1.8630072403217446E+00   1.8533110253868228E+00   1.8436652754109357E+00   1.8340697277439544E+00
   1.8245241211027445E+00   1.8150281955640386E+00   1.8055816925573749E+00   1.7961843548580454E+00   1.7868359265800937E+00
   1.7775361531693497E+00   1.7682847813964975E+00   1.7590815593501776E+00   1.7499262364301325E+00   1.7408185633403772E+00
   1.7317582920824137E+00   1.7227451759484789E+00   1.7137789695148260E+00   1.7048594286350398E+00   1.6959863104333921E+00
   1.6871593732982277E+00   1.6783783768753839E+00   1.6696430820616424E+00   1.6609532509982261E+00   1.6523086470643218E+00
   1.6437090348706247E+00   1.6351541802529472E+00   1.6266438502658289E+00   1.6181778131761988E+00   1.6097558384570640E+00
   1.6013776967812388E+00   1.5930431600150843E+00   1.5847520012123166E+00   1.5765039946078132E+00   1.5682989156114693E+00
   1.5601365408020831E+00   1.5520166479212714E+00   1.5439390158674209E+00   1.5359034246896583E+00   1.5279096555818714E+00
   1.5199574908767508E+00   1.5120467140398510E+00   1.5041771096637080E+00   1.4963484634619666E+00   1.4885605622635480E+00
   1.4808131940068434E+00   1.4731061477339427E+00   1.4654392135848819E+00   1.4578121827919437E+00   1.4502248476739599E+00
   1.4426770016306578E+00   1.4351684391370387E+00   1.4276989557377859E+00   1.4202683480416820E+00   1.4128764137160863E+00
   1.4055229514814176E+00   1.3982077611056754E+00   1.3909306433989863E+00   1.3836914002081824E+00   1.3764898344114034E+00
   1.3693257499127303E+00   1.3621989516368465E+00   1.3551092455237239E+00   1.3480564385233380E+00   1.3410403385904144E+00
   1.3340607546792025E+00   1.3271174967382608E+00   1.3202103757052948E+00   1.3133392035020033E+00   1.3065037930289576E+00
   1.2997039581605068E+00   1.2929395137397097E+00   1.2862102755732940E+00   1.2795160604266396E+00   1.2728566860187884E+00
   1.2662319710174847E+00   1.2596417350342293E+00   1.2530857986193802E+00   1.2465639832572559E+00   1.2400761113612744E+00
   1.2336220062691250E+00   1.2272014922379524E+00   1.2208143944395720E+00   1.2144605389557102E+00   1.2081397527732676E+00
   1.2018518637796085E+00   1.1955967007578754E+00   1.1893740933823238E+00   1.1831838722136887E+00   1.1770258686945627E+00
   1.1708999151448183E+00   1.1648058447570326E+00   1.1587434915919450E+00   1.1527126905739444E+00   1.1467132774865707E+00
   1.1407450889680435E+00   1.1348079625068137E+00   1.1289017364371385E+00   1.1230262499346795E+00   1.1171813430121220E+00
   1.1113668565148218E+00   1.1055826321164655E+00   1.0998285123147649E+00   1.0941043404271686E+00   1.0884099605865876E+00
   1.0827452177371599E+00   1.0771099576300229E+00   1.0715040268191185E+00   1.0659272726570046E+00   1.0603795432907090E+00
   1.0548606876575899E+00   1.0493705554812212E+00   1.0439089972673021E+00   1.0384758642995873E+00   1.0330710086358306E+00
   1.0276942831037681E+00   1.0223455412971005E+00   1.0170246375715077E+00   1.0117314270406876E+00   1.0064657655724063E+00
   1.0012275097845746E+00   9.9601651704134231E-01   9.9083264544921656E-01   9.8567575385319484E-01   9.8054570183292267E-01
   9.7544234969886934E-01   9.7036555848852490E-01   9.6531518996261034E-01   9.6029110660132411E-01   9.5529317160058613E-01
   9.5032124886831582E-01   9.4537520302072731E-01   9.4045489937864490E-01   9.3556020396382689E-01   9.3069098349532453E-01
   9.2584710538584969E-01   9.2102843773816312E-01   9.1623484934148436E-01   9.1146620966791669E-01   9.0672238886889134E-01
   9.0200325777163393E-01   8.9730868787564388E-01   8.9263855134919645E-01   8.8799272102585824E-01   8.8337107040102669E-01
   8.7877347362848612E-01   8.7419980551697252E-01   8.6964994152677155E-01   8.6512375776632322E-01   8.6062113098884707E-01
   8.5614193858898535E-01   8.5168605859946533E-01   8.4725336968777132E-01   8.4284375115284860E-01   8.3845708292180732E-01
   8.3409324554665698E-01   8.2975212020104661E-01   8.2543358867703642E-01   8.2113753338187101E-01   8.1686383733477486E-01
   8.1261238416377146E-01   8.0838305810250810E-01   8.0417574398710345E-01   7.9999032725300923E-01   7.9582669393189065E-01
   7.9168473064851819E-01   7.8756432461768078E-01   7.8346536364111230E-01   7.7938773610443213E-01   7.7533133097410589E-01
   7.7129603779442235E-01   7.6728174668447502E-01   7.6328834833517589E-01   7.5931573400627206E-01   7.5536379552338562E-01
   7.5143242527505882E-01   7.4752151620982754E-01   7.4363096183329991E-01   7.3976065620525477E-01   7.3591049393675223E-01
   7.3208037018726269E-01   7.2827018066180405E-01   7.2447982160810531E-01   7.2070918981377230E-01   7.1695818260347244E-01
   7.1322669783614012E-01   7.0951463390218650E-01   7.0582188972073068E-01   7.0214836473684206E-01   6.9849395891879784E-01
   6.9485857275535357E-01   6.9124210725302970E-01   6.8764446393340961E-01   6.8406554483045423E-01   6.8050525248782567E-01
   6.7696348995623323E-01   6.7344016079078239E-01   6.6993516904834349E-01   6.6644841928493426E-01   6.6297981655311655E-01
   6.5952926639939657E-01   6.5609667486165346E-01   6.5268194846656991E-01   6.4928499422707942E-01   6.4590571963982757E-01
   6.4254403268264360E-01   6.3919984181202760E-01   6.3587305596064914E-01   6.3256358453485662E-01   6.2927133741220465E-01
   6.2599622493898599E-01   6.2273815792778398E-01   6.1949704765503466E-01   6.1627280585859479E-01   6.1306534473533314E-01
   6.0987457693872615E-01   6.0670041557646770E-01   6.0354277420809177E-01   6.0040156684260582E-01   5.9727670793613519E-01
   5.9416811238958489E-01   5.9107569554630313E-01   5.8799937318976625E-01   5.8493906154126729E-01   5.8189467725762489E-01
   5.7886613742889381E-01   5.7585335957609196E-01   5.7285626164894032E-01   5.6987476202360998E-01   5.6690877950048291E-01
   5.6395823330192141E-01   5.6102304307005180E-01   5.5810312886455571E-01   5.5519841116047419E-01   5.5230881084602179E-01
   5.4943424922040973E-01   5.4657464799168409E-01   5.4372992927457131E-01   5.4090001558832934E-01   5.3808482985462103E-01
   5.3528429539538680E-01   5.3249833593073226E-01   5.2972687557682552E-01   5.2696983884380366E-01   5.2422715063368996E-01
   5.2149873623832077E-01   5.1878452133728192E-01   5.1608443199585474E-01   5.1339839466297055E-01   5.1072633616917962E-01
   5.0806818372462315E-01   5.0542386491701607E-01   5.0279330770964503E-01   5.0017644043936693E-01   4.9757319181462306E-01
   4.9498349091345911E-01   4.9240726718155470E-01   4.8984445043026303E-01   4.8729497083465800E-01   4.8475875893159026E-01
   4.8223574561775245E-01   4.7972586214775131E-01   4.7722904013219314E-01   4.7474521153577098E-01   4.7227430867536246E-01
   4.6981626421814082E-01   4.6737101117968599E-01   4.6493848292210982E-01   4.6251861315218606E-01   4.6011133591948999E-01
   4.5771658561454465E-01   4.5533429696697519E-01   4.5296440504367125E-01   4.5060684524695710E-01   4.4826155331276551E-01
   4.4592846530882735E-01   4.4360751763285888E-01   4.4129864701076110E-01   4.3900179049482690E-01   4.3671688546195453E-01
   4.3444386961186365E-01   4.3218268096532525E-01   4.2993325786239345E-01   4.2769553896064544E-01   4.2546946323342733E-01
   4.2325496996810735E-01   4.2105199876433325E-01   4.1886048953230043E-01   4.1668038249102013E-01   4.1451161816659809E-01
   4.1235413739051668E-01   4.1020788129792496E-01   4.0807279132593394E-01   4.0594880921191301E-01   4.0383587699180001E-01
   4.0173393699840959E-01   3.9964293185975019E-01   3.9756280449734532E-01   3.9549349812456086E-01   3.9343495624493402E-01
   3.9138712265051279E-01   3.8934994142019508E-01   3.8732335691807285E-01   3.8530731379178451E-01   3.8330175697086921E-01
   3.8130663166512235E-01   3.7932188336296152E-01   3.7734745782979162E-01   3.7538330110637536E-01   3.7342935950720807E-01
   3.7148557961889511E-01   3.6955190829853335E-01   3.6762829267209607E-01   3.6571468013282066E-01   3.6381101833960028E-01
   3.6191725521537643E-01   3.6003333894553746E-01   3.5815921797631906E-01   3.5629484101320247E-01   3.5444015701932324E-01
   3.5259511521387604E-01   3.5075966507052436E-01   3.4893375631581103E-01   3.4711733892757202E-01   3.4531036313334984E-01
   3.4351277940881109E-01   3.4172453847616274E-01   3.3994559130257285E-01   3.3817588909858759E-01   3.3641538331655585E-01
   3.3466402564904862E-01   3.3292176802728102E-01   3.3118856261953716E-01   3.2946436182959177E-01   3.2774911829513437E-01
   3.2604278488619198E-01   3.2434531470355293E-01   3.2265666107718877E-01   3.2097677756467763E-01   3.1930561794962520E-01
   3.1764313624008550E-01   3.1598928666697962E-01   3.1434402368251679E-01   3.1270730195860874E-01   3.1107907638528537E-01
   3.0945930206910977E-01   3.0784793433158969E-01   3.0624492870758496E-01   3.0465024094371673E-01   3.0306382699677153E-01
   3.0148564303210251E-01   2.9991564542202837E-01   2.9835379074422985E-01   2.9680003578014014E-01   2.9525433751333630E-01
   2.9371665312792189E-01   2.9218694000690898E-01   2.9066515573059409E-01   2.8915125807493119E-01   2.8764520500990060E-01
   2.8614695469786816E-01   2.8465646549194645E-01   2.8317369593434566E-01   2.8169860475472042E-01   2.8023115086851114E-01
   2.7877129337527951E-01   2.7731899155703521E-01   2.7587420487656178E-01   2.7443689297572943E-01   2.7300701567380387E-01
   2.7158453296574886E-01   2.7016940502052078E-01   2.6876159217935208E-01   2.6736105495403223E-01   2.6596775402517719E-01
   2.6458165024049041E-01   2.6320270461301654E-01   2.6183087831938473E-01   2.6046613269804403E-01   2.5910842924748795E-01
   2.5775772962447019E-01   2.5641399564221040E-01   2.5507718926858813E-01   2.5374727262432850E-01   2.5242420798117643E-01
   2.5110795776005640E-01   2.4979848452922679E-01   2.4849575100241750E-01   2.4719972003695803E-01   2.4591035463189281E-01
   2.4462761792608370E-01   2.4335147319630010E-01   2.4208188385529608E-01   2.4081881344987371E-01   2.3956222565893312E-01
   2.3831208429150749E-01   2.3706835328478737E-01   2.3583099670212535E-01   2.3459997873102958E-01   2.3337526368114161E-01
   2.3215681598219826E-01   2.3094460018197810E-01   2.2973858094423202E-01   2.2853872304659820E-01   2.2734499137849951E-01
   2.2615735093902528E-01   2.2497576683479553E-01   2.2380020427780833E-01   2.2263062858326804E-01   2.2146700516739942E-01
   2.2030929954523967E-01   2.1915747732841351E-01   2.1801150422289164E-01   2.1687134602672753E-01   2.1573696862777725E-01
   2.1460833800139889E-01   2.1348542020813271E-01   2.1236818139136210E-01   2.1125658777495410E-01   2.1015060566088031E-01
   2.0905020142681541E-01   2.0795534152372011E-01   2.0686599247339710E-01   2.0578212086603032E-01   2.0470369335770261E-01
   2.0363067666789114E-01   2.0256303757694341E-01   2.0150074292352799E-01   2.0044375960206937E-01   1.9939205456015671E-01
   1.9834559479593311E-01   1.9730434735546262E-01   1.9626827933007565E-01   1.9523735785369190E-01   1.9421155010012459E-01
   1.9319082328035839E-01   1.9217514463980917E-01   1.9116448145556164E-01   1.9015880103358498E-01   1.8915807070592744E-01
   1.8816225782789012E-01   1.8717132977517953E-01   1.8618525394104024E-01   1.8520399773336602E-01   1.8422752857179192E-01
   1.8325581388476667E-01   1.8228882110660441E-01   1.8132651767452007E-01   1.8036887102564408E-01   1.7941584859401918E-01
   1.7846741780758238E-01   1.7752354608512816E-01   1.7658420083325480E-01   1.7564934944329852E-01   1.7471895928825071E-01
   1.7379299771966200E-01   1.7287143206453454E-01   1.7195422962220130E-01   1.7104135766119566E-01   1.7013278341611138E-01
   1.6922847408445379E-01   1.6832839682348472E-01   1.6743251874706050E-01   1.6654080692246784E-01   1.6565322836725579E-01
   1.6476975004606584E-01   1.6389033886746524E-01   1.6301496168078097E-01   1.6214358527293951E-01   1.6127617636531252E-01
   1.6041270161057208E-01   1.5955312758955620E-01   1.5869742080815033E-01   1.5784554769418158E-01   1.5699747459433516E-01
   1.5615316777109001E-01   1.5531259339968226E-01   1.5447571756509385E-01   1.5364250625907311E-01   1.5281292537719168E-01
   1.5198694071593810E-01   1.5116451796985433E-01   1.5034562272871835E-01   1.4953022047477751E-01   1.4871827658003622E-01
   1.4790975630360362E-01   1.4710462478910483E-01   1.4630284706216154E-01   1.4550438802794774E-01   1.4470921246882501E-01
   1.4391728504206203E-01   1.4312857027764780E-01   1.4234303257620110E-01   1.4156063620698531E-01   1.4078134530603145E-01
   1.4000512387438235E-01   1.3923193577645962E-01   1.3846174473856376E-01   1.3769451434751434E-01   1.3693020804943931E-01
   1.3616878914871966E-01   1.3541022080710197E-01   1.3465446604298265E-01   1.3390148773087784E-01   1.3315124860108676E-01
   1.3240371123955788E-01   1.3165883808796899E-01   1.3091659144403289E-01   1.3017693346203607E-01   1.2943982615362698E-01
   1.2870523138886172E-01   1.2797311089751887E-01   1.2724342627069940E-01   1.2651613896272174E-01   1.2579121029332477E-01
   1.2506860145019297E-01   1.2434827349182000E-01   1.2363018735071854E-01   1.2291430383699851E-01   1.2220058364232314E-01
   1.2148898734425891E-01   1.2077947541103706E-01   1.2007200820674177E-01   1.1936654599693755E-01   1.1866304895475750E-01
   1.1796147716746688E-01   1.1726179064351698E-01   1.1656394932010941E-01   1.1586791307128816E-01   1.1517364171657300E-01
   1.1448109503015841E-01   1.1379023275069050E-01   1.1310101459164157E-01   1.1241340025230349E-01   1.1172734942941212E-01
   1.1104282182942732E-01   1.1035977718148256E-01   1.0967817525102247E-01   1.0899797585414890E-01   1.0831913887269176E-01
   1.0764162427002059E-01   1.0696539210761662E-01   1.0629040256242250E-01   1.0561661594498327E-01   1.0494399271839690E-01
   1.0427249351809127E-01   1.0360207917243755E-01   1.0293271072421992E-01   1.0226434945297126E-01   1.0159695689818710E-01
   1.0093049488343162E-01   1.0026492554134549E-01   9.9600211339561429E-02   9.8936315107539335E-02   9.8273200064326952E-02
   9.7610829847246686E-02   9.6949168541518152E-02   9.6288180710813159E-02   9.5627831428742913E-02   9.4968086311278802E-02
   9.4308911550097171E-02   9.3650273946844387E-02   9.2992140948310625E-02   9.2334480682503300E-02   9.1677261995600987E-02
   9.1020454489774000E-02   9.0364028561850759E-02   8.9707955442801940E-02   8.9052207238022069E-02   8.8396756968371792E-02
   8.7741578611950047E-02   8.7086647146559379E-02   8.6431938592817906E-02   8.5777430057878856E-02   8.5123099779703032E-02
   8.4468927171831770E-02   8.3814892868604593E-02   8.3160978770755428E-02   8.2507168091323413E-02   8.1853445401804587E-02
   8.1199796678471922E-02   8.0546209348777931E-02   7.9892672337759221E-02   7.9239176114352106E-02   7.8585712737521365E-02
   7.7932275902108619E-02   7.7278860984292444E-02   7.6625465086552116E-02   7.5972087082025713E-02   7.5318727658143611E-02
   7.4665389359414705E-02   7.4012076629243986E-02   7.3358795850652345E-02   7.2705555385763107E-02   7.2052365613925320E-02
   7.1399238968332335E-02   7.0746189970994369E-02   7.0093235265925827E-02   6.9440393650399515E-02   6.8787686104121157E-02
   6.8135135816181455E-02   6.7482768209631894E-02   6.6830610963543091E-02   6.6178694032394542E-02   6.5527049662651021E-02
   6.4875712406383512E-02   6.4224719131792202E-02   6.3574109030491502E-02   6.2923923621424932E-02   6.2274206751279954E-02
   6.1625004591273770E-02   6.0976365630196379E-02   6.0328340663594555E-02   5.9680982778991296E-02   5.9034347337046766E-02
   5.8388491948568995E-02   5.7743476447295279E-02   5.7099362858377793E-02   5.6456215362514314E-02   5.5814100255675000E-02
   5.5173085904394029E-02   5.4533242696604138E-02   5.3894642988001680E-02   5.3257361043953115E-02   5.2621472976958364E-02
   5.1987056679705247E-02   5.1354191753767472E-02   5.0722959434006502E-02   5.0093442508759599E-02   4.9465725235907941E-02
   4.8839893254938309E-02   4.8216033495121505E-02   4.7594234079952301E-02   4.6974584228009555E-02   4.6357174150404599E-02
   4.5742094945012080E-02   4.5129438487678565E-02   4.4519297320628752E-02   4.3911764538297926E-02   4.3306933670828190E-02
   4.2704898565486794E-02   4.2105753266266734E-02   4.1509591891943559E-02   4.0916508512873415E-02   4.0326597026821384E-02
   3.9739951034116441E-02   3.9156663712437492E-02   3.8576827691538598E-02   3.8000534928220447E-02   3.7427876581862966E-02
   3.6858942890832316E-02   3.6293823050069896E-02   3.5732605090178435E-02   3.5175375758307530E-02   3.4622220401140137E-02
   3.4073222850277418E-02   3.3528465310308141E-02   3.2988028249840609E-02   3.2451990295768451E-02   3.1920428131028557E-02
   3.1393416396094234E-02   3.0871027594441360E-02   3.0353332002203203E-02   2.9840397582218514E-02   2.9332289902663889E-02
   2.8829072060440095E-02   2.8330804609467755E-02   2.7837545494033292E-02   2.7349349987300240E-02   2.6866270635092806E-02
   2.6388357205031961E-02   2.5915656641089458E-02   2.5448213023607939E-02   2.4986067534814405E-02   2.4529258429835863E-02
   2.4077821013210841E-02   2.3631787620871543E-02   2.3191187607551081E-02   2.2756047339560437E-02   2.2326390192857083E-02
   2.1902236556314694E-02   2.1483603840090761E-02   2.1070506488970978E-02   2.0662956000558050E-02   2.0260960948162512E-02
   1.9864527008238861E-02   1.9473656992200172E-02   1.9088350882437610E-02   1.8708605872361332E-02   1.8334416410269453E-02
   1.7965774246851068E-02   1.7602668486118113E-02   1.7245085639559125E-02   1.6893009683305506E-02   1.6546422118096218E-02
   1.6205302031825103E-02   1.5869626164456734E-02   1.5539368975095268E-02   1.5214502710989942E-02   1.4894997478266362E-02
   1.4580821314172883E-02   1.4271940260633050E-02   1.3968318438903747E-02   1.3669918125136914E-02   1.3376699826652674E-02
   1.3088622358735319E-02   1.2805642921767496E-02   1.2527717178528892E-02   1.2254799331487706E-02   1.1986842199922460E-02
   1.1723797296719594E-02   1.1465614904698178E-02   1.1212244152320602E-02   1.0963633088657759E-02   1.0719728757483738E-02
   1.0480477270381988E-02   1.0245823878755075E-02   1.0015713044636929E-02   9.7900885102127789E-03   9.5688933659632824E-03
   9.3520701173533047E-03   9.1395607499951438E-03   8.9313067932237627E-03   8.7272493820274855E-03   8.5273293172846466E-03
   8.3314871242645711E-03   8.1396631093571033E-03   7.9517974149997690E-03   7.7678300727807275E-03   7.5877010546983236E-03
   7.4113503225648530E-03   7.2387178755482090E-03   7.0697437958479083E-03   6.9043682925084525E-03   6.7425317433765560E-03
   6.5841747352124447E-03   6.4292381019706701E-03   6.2776629612676634E-03   6.1293907490574005E-03   5.9843632525400665E-03
   5.8425226413304221E-03   5.7038114969150998E-03   5.5681728404312850E-03   5.4355501588006349E-03   5.3058874292533512E-03
   5.1791291422808375E-03   5.0552203230548494E-03   4.9341065513530246E-03   4.8157339800323790E-03   4.7000493520916869E-03
   4.5870000163656900E-03   4.4765339418937128E-03   4.3685997310064419E-03   4.2631466311736279E-03   4.1601245456569192E-03
   4.0594840430113405E-03   3.9611763654781923E-03   3.8651534363134481E-03   3.7713678660938159E-03   3.6797729580428954E-03
   3.5903227124196740E-03   3.5029718300104069E-03   3.4176757147643083E-03   3.3343904756133217E-03   3.2530729275151546E-03
   3.1736805917573982E-03   3.0961716955609773E-03   3.0205051710190120E-03   2.9466406534068299E-03   2.8745384788983522E-03
   2.8041596817219802E-03   2.7354659907893155E-03   2.6684198258285002E-03   2.6029842930526208E-03   2.5391231803936149E-03
   2.4768009523300988E-03   2.4159827443369923E-03   2.3566343569840385E-03   2.2987222497089081E-03   2.2422135342896310E-03
   2.1870759680405068E-03   2.1332779467544282E-03   2.0807884974133077E-03   2.0295772706881545E-03   1.9796145332486377E-03
   1.9308711599014263E-03   1.8833186255759696E-03   1.8369289971750199E-03   1.7916749253066317E-03   1.7475296359137362E-03
   1.7044669218162951E-03   1.6624611341802997E-03   1.6214871739273890E-03   1.5815204830980068E-03   1.5425370361800248E-03
   1.5045133314147228E-03   1.4674263820907358E-03   1.4312537078362308E-03   1.3959733259191248E-03   1.3615637425641771E-03
   1.3280039442955559E-03   1.2952733893128387E-03   1.2633519989077380E-03   1.2322201489286867E-03   1.2018586612995601E-03
   1.1722487955985268E-03   1.1433722407027155E-03   1.1152111065037221E-03   1.0877479156986528E-03   1.0609655956611329E-03
   1.0348474703962963E-03   1.0093772525832012E-03   9.8453903570822196E-04   9.6031728629224710E-04   9.3669683621437150E-04
   9.1366287513460387E-04   8.9120094301764583E-04   8.6929692275959593E-04   8.4793703291929023E-04   8.2710782055570205E-04
   8.0679615417250032E-04   7.8698921677085114E-04   7.6767449901128800E-04   7.4883979248512749E-04   7.3047318309608076E-04
   7.1256304455221244E-04   6.9509803196841176E-04   6.7806707557945749E-04   6.6145937456348449E-04   6.4526439097559163E-04
   6.2947184379127041E-04   6.1407170305920807E-04   5.9905418416279018E-04   5.8440974218978222E-04   5.7012906640936157E-04
   5.5620307485566563E-04   5.4262290901706885E-04   5.2937992863009054E-04   5.1646570657701805E-04   5.0387202388615427E-04
   4.9159086483349440E-04   4.7961441214477556E-04   4.6793504229660128E-04   4.5654532091541250E-04   4.4543799827305783E-04
   4.3460600487763815E-04   4.2404244715825581E-04   4.1374060324236075E-04   4.0369391882432484E-04   3.9389600312377898E-04
   3.8434062493241527E-04   3.7502170874776156E-04   3.6593333099252357E-04   3.5706971631810586E-04   3.4842523399083579E-04
   3.3999439435946689E-04   3.3177184540255549E-04   3.2375236935426832E-04   3.1593087940716815E-04   3.0830241649059943E-04
   3.0086214612325238E-04   2.9360535533845821E-04   2.8652744968088732E-04   2.7962395027321223E-04   2.7289049095137111E-04
   2.6632281546709092E-04   2.5991677475630941E-04   2.5366832427213673E-04   2.4757352138108431E-04   2.4162852282121037E-04
   2.3582958222091071E-04   2.3017304767711279E-04   2.2465535939153090E-04   2.1927304736385131E-04   2.1402272914054825E-04
   2.0890110761813359E-04   2.0390496889970936E-04   1.9903118020358452E-04   1.9427668782285318E-04   1.8963851513478355E-04
   1.8511376065891380E-04   1.8069959616275465E-04   1.7639326481403052E-04   1.7219207937839803E-04   1.6809342046160698E-04
   1.6409473479508742E-04   1.6019353356395866E-04   1.5638739077648560E-04   1.5267394167400587E-04   1.4905088118041714E-04
   1.4551596239024823E-04   1.4206699509444794E-04   1.3870184434300174E-04   1.3541842904346002E-04   1.3221472059458806E-04
   1.2908874155425414E-04   1.2603856434074390E-04   1.2306230996672599E-04   1.2015814680505548E-04   1.1732428938564609E-04
   1.1455899722268934E-04   1.1186057367144985E-04   1.0922736481393616E-04   1.0665775837274480E-04   1.0415018265236774E-04
   1.0170310550732572E-04   9.9315033336433800E-05   9.6984510102576530E-05   9.4710116377358115E-05   9.2490468410011303E-05
   9.0324217219967353E-05   8.8210047712497592E-05   8.6146677816854644E-05   8.4132857646353147E-05   8.2167368679841675E-05
   8.0249022964033531E-05   7.8376662336172666E-05   7.6549157666523461E-05   7.4765408120198342E-05   7.3024340437816241E-05
   7.1324908234536634E-05   6.9666091317005247E-05   6.8046895017740374E-05   6.6466349546546747E-05   6.4923509358507563E-05
   6.3417452538134535E-05   6.1947280199283584E-05   6.0512115900415973E-05   5.9111105074827525E-05   5.7743414475462062E-05
   5.6408231633937196E-05   5.5104764333422549E-05   5.3832240095015215E-05   5.2589905677270397E-05   5.1377026588549782E-05
   5.0192886611860911E-05   4.9036787341868870E-05   4.7908047733767550E-05   4.6806003663708617E-05   4.5730007500490671E-05
   4.4679427688221451E-05   4.3653648339670616E-05   4.2652068840039955E-05   4.1674103460881112E-05   4.0719180983907298E-05
   3.9786744334433521E-05   3.8876250224207069E-05   3.7987168803387393E-05   3.7118983321430411E-05   3.6271189796657624E-05
   3.5443296694286692E-05   3.4634824612694643E-05   3.3845305977717229E-05   3.3074284744766152E-05   3.2321316108564466E-05
   3.1585966220310484E-05   3.0867811912070332E-05   3.0166440428217861E-05   2.9481449163738644E-05   2.8812445409221544E-05
   2.8159046102364852E-05   2.7520877585829657E-05   2.6897575371276120E-05   2.6288783909423698E-05   2.5694156365979611E-05
   2.5113354403284119E-05   2.4546047967525868E-05   2.3991915081381354E-05   2.3450641641943717E-05   2.2921921223796664E-05
   2.2405454887108189E-05   2.1900950990610635E-05   2.1408125009340860E-05   2.0926699357021807E-05   2.0456403212959104E-05
   1.9996972353341985E-05   1.9548148986834347E-05   1.9109681594340070E-05   1.8681324772842998E-05   1.8262839083210563E-05
   1.7853990901859769E-05   1.7454552276189722E-05   1.7064300783679008E-05   1.6683019394556259E-05   1.6310496337951250E-05
   1.5946524971436743E-05   1.5590903653873967E-05   1.5243435621476785E-05   1.4903928867011471E-05   1.4572196022051842E-05
   1.4248054242210709E-05   1.3931325095271613E-05   1.3621834452146025E-05   1.3319412380582790E-05   1.3023893041561594E-05
   1.2735114588297400E-05   1.2452919067792381E-05   1.2177152324869539E-05   1.1907663908621262E-05   1.1644306981215407E-05
   1.1386938228995350E-05   1.1135417775815134E-05   1.0889609098555049E-05   1.0649378944759389E-05   1.0414597252341757E-05
   1.0185137071308371E-05   9.9608744874426400E-06   9.7416885479058936E-06   9.5274611887019863E-06   9.3180771639584974E-06
   9.1134239769802844E-06   8.9133918130273244E-06   8.7178734737747156E-06   8.5267643134110514E-06   8.3399621763337901E-06
   8.1573673364006467E-06   7.9788824376974364E-06   7.8044124367838375E-06   7.6338645463792359E-06   7.4671481804522054E-06
   7.3041749006777664E-06   7.1448583642277478E-06   6.9891142728599814E-06   6.8368603232745173E-06   6.6880161587027220E-06
   6.5425033216995536E-06   6.4002452081085945E-06   6.2611670221681152E-06   6.1251957327319792E-06   5.9922600305751958E-06
   5.8622902867568090E-06   5.7352185120147638E-06   5.6109783171648497E-06   5.4895048744795234E-06   5.3707348800213168E-06
   5.2546065169069376E-06   5.1410594194783763E-06   5.0300346383584700E-06   4.9214746063678145E-06   4.8153231052825826E-06
   4.7115252334107941E-06   4.6100273739671431E-06   4.5107771642260890E-06   4.4137234654336009E-06   4.3188163334584904E-06
   4.2260069901647979E-06   4.1352477954869936E-06   4.0464922201905226E-06   3.9596948193001338E-06   3.8748112061800063E-06
   3.7917980272482014E-06   3.7106129373104409E-06   3.6312145754977052E-06   3.5535625417916744E-06   3.4776173741241946E-06
   3.4033405260363211E-06   3.3306943448821212E-06   3.2596420505648358E-06   3.1901477147912832E-06   3.1221762408315464E-06
   3.0556933437720743E-06   2.9906655312490679E-06   2.9270600846506563E-06   2.8648450407760744E-06   2.8039891739404367E-06
   2.7444619785140944E-06   2.6862336518856958E-06   2.6292750778384780E-06   2.5735578103295266E-06   2.5190540576619552E-06
   2.4657366670403371E-06   2.4135791094998007E-06   2.3625554651996183E-06   2.3126404090721905E-06   2.2638091968186715E-06
   2.2160376512426630E-06   2.1693021489136058E-06   2.1235796071516482E-06   2.0788474713263676E-06   2.0350837024610504E-06
   1.9922667651354821E-06   1.9503756156798335E-06   1.9093896906520247E-06   1.8692888955922517E-06   1.8300535940473941E-06
   1.7916645968586431E-06   1.7541031517063183E-06   1.7173509329051125E-06   1.6813900314436643E-06   1.6462029452628379E-06
   1.6117725697663676E-06   1.5780821885585023E-06   1.5451154644029459E-06   1.5128564303977322E-06   1.4812894813607244E-06
   1.4503993654205938E-06   1.4201711758082752E-06   1.3905903428439790E-06   1.3616426261149541E-06   1.3333141068395250E-06
   1.3055911804125487E-06   1.2784605491281269E-06   1.2519092150752819E-06   1.2259244732020836E-06   1.2004939045444824E-06
   1.1756053696156493E-06   1.1512470019519075E-06   1.1274072018116625E-06   1.1040746300232886E-06   1.0812382019786179E-06
   1.0588870817685187E-06   1.0370106764568076E-06   1.0155986304895808E-06   9.9464082023637050E-07   9.7412734865999030E-07
   9.5404854011213657E-07   9.3439493525148212E-07   9.1515728608143989E-07   8.9632655110466687E-07   8.7789389059150773E-07
   8.5985066195961567E-07   8.4218841526209261E-07   8.2489888878151709E-07   8.0797400472733265E-07   7.9140586503409620E-07
   7.7518674725816813E-07   7.5930910057049454E-07   7.4376554184311840E-07   7.2854885182731038E-07   7.1365197142091554E-07
   6.9906799802294354E-07   6.8479018197331979E-07   6.7081192307556778E-07   6.5712676720070798E-07   6.4372840297023662E-07
   6.3061065851632350E-07   6.1776749831750266E-07   6.0519302010790726E-07   5.9288145185837845E-07   5.8082714882773957E-07
   5.6902459068247882E-07   5.5746837868335402E-07   5.4615323293721403E-07   5.3507398971247949E-07   5.2422559881689551E-07
   5.1360312103593149E-07   5.0320172563047311E-07   4.9301668789238188E-07   4.8304338675654083E-07   4.7327730246806206E-07
   4.6371401430333681E-07   4.5434919834366794E-07   4.4517862530022898E-07   4.3619815838914323E-07   4.2740375125550170E-07
