DATE: 2024-03-16 UNITS: metal CONTRIBUTOR: Xiaowang Zhou xzhou@sandia.gov, Lucas Hale lucas.hale@nist.gov, and Germain Clavier g.m.g.c.clavier@tue.nl/germain.clavier@gmail.com
 CITATION: X. W. Zhou, R. A. Johnson, H. N. G. Wadley, Phys. Rev. B, 69, 144113(2004)
Generated by create_eam.py
2     Cu Pt                   
2000  5.0025012506253123e-02   2000  3.1006466252722900e-03   6.1981926039193080e+00  
   29        63.54600         3.61496      fcc
   0.0000000000000000E+00  -1.3575272078492628E-02  -2.7095936009703281E-02  -4.0562097104869688E-02  -5.3973860675230689E-02
  -6.7331332032023572E-02  -8.0634616486487065E-02  -9.3883819349859898E-02  -1.0707904593337936E-01  -1.2022040154828517E-01
  -1.3330799150581374E-01  -1.4634192111720445E-01  -1.5932229569369616E-01  -1.7224922054652547E-01  -1.8512280098693201E-01
  -1.9794314232615351E-01  -2.1071034987542780E-01  -2.2342452894599418E-01  -2.3608578484909026E-01  -2.4869422289595400E-01
  -2.6124994839782478E-01  -2.7375306666593924E-01  -2.8620368301153720E-01  -2.9860190274585585E-01  -3.1094783118013369E-01
  -3.2324157362560968E-01  -3.3548323539352110E-01  -3.4767292179510700E-01  -3.5981073814160491E-01  -3.7189678974425322E-01
  -3.8393118191429121E-01  -3.9591401996295594E-01  -4.0784540920148626E-01  -4.1972545494111946E-01  -4.3155426249309548E-01
  -4.4333193716865160E-01  -4.5505858427902568E-01  -4.6673430913545710E-01  -4.7835921704918283E-01  -4.8993341333144214E-01
  -5.0145700329347309E-01  -5.1293009224651331E-01  -5.2435278550180153E-01  -5.3572518837057681E-01  -5.4704740616407577E-01
  -5.5831954419353824E-01  -5.6954170777020119E-01  -5.8071400220530378E-01  -5.9183653281008375E-01  -6.0290940489577938E-01
  -6.1393272377362929E-01  -6.2490659475487154E-01  -6.3583112315074419E-01  -6.4670641427248621E-01  -6.5753257343133475E-01
  -6.6830970593852934E-01  -6.7903791710530670E-01  -6.8971731224290700E-01  -7.0034799666256653E-01  -7.1093007567552480E-01
  -7.2146365459301975E-01  -7.3194883872628946E-01  -7.4238573338657265E-01  -7.5277444388510739E-01  -7.6311507553313129E-01
  -7.7340773364188342E-01  -7.8365252352260217E-01  -7.9384955048652506E-01  -8.0399891984489080E-01  -8.1410073690893725E-01
  -8.2415510698990335E-01  -8.3416213539902673E-01  -8.4412192744754588E-01  -8.5403458844669966E-01  -8.6390022370772501E-01
  -8.7371893854186100E-01  -8.8349083826034636E-01  -8.9321602817441870E-01  -9.0289461359531575E-01  -9.1252669983427659E-01
  -9.2211239220253949E-01  -9.3165179601134263E-01  -9.4114501657192395E-01  -9.5059215919552198E-01  -9.5999332919337521E-01
  -9.6934863187672082E-01  -9.7865817255679843E-01  -9.8792205654484588E-01  -9.9714038915210068E-01  -1.0063132756898021E+00
  -1.0154408214691879E+00  -1.0245231318014965E+00  -1.0335603119979657E+00  -1.0425524673698345E+00  -1.0514997032283406E+00
  -1.0604021248847224E+00  -1.0692598376502187E+00  -1.0780729468360670E+00  -1.0868415577535051E+00  -1.0955657757137729E+00
  -1.1042457060281077E+00  -1.1128814540077474E+00  -1.1214731249639309E+00  -1.1300208242078962E+00  -1.1385246570508814E+00
  -1.1469847288041248E+00  -1.1554011447788655E+00  -1.1637740102863408E+00  -1.1721034306377889E+00  -1.1803895111444482E+00
  -1.1886323571175579E+00  -1.1968320738683551E+00  -1.2049887667080783E+00  -1.2131025409479665E+00  -1.2211735018992564E+00
  -1.2292017548731879E+00  -1.2371874051809986E+00  -1.2451305581339267E+00  -1.2530313190432103E+00  -1.2608897932200882E+00
  -1.2687060859757981E+00  -1.2764803026215787E+00  -1.2842125484686677E+00  -1.2919029288283039E+00  -1.2995515490117255E+00
  -1.3071585143301705E+00  -1.3147239300948774E+00  -1.3222479016170845E+00  -1.3297305342080294E+00  -1.3371719331789509E+00
  -1.3445722038410877E+00  -1.3519314515056773E+00  -1.3592497814839581E+00  -1.3665272990871689E+00  -1.3737641096265476E+00
  -1.3809603184133319E+00  -1.3881160307587610E+00  -1.3952313519740729E+00  -1.4023063873705048E+00  -1.4093412422592968E+00
  -1.4163360219516861E+00  -1.4232908317589106E+00  -1.4302057769922094E+00  -1.4370809629628205E+00  -1.4439164949819818E+00
  -1.4507124783609320E+00  -1.4574690184109094E+00  -1.4641862204431513E+00  -1.4708641897688972E+00  -1.4775030316993849E+00
  -1.4841028515458523E+00  -1.4906637546195380E+00  -1.4971858462316809E+00  -1.5036692316935181E+00  -1.5101140163162881E+00
  -1.5165203054112297E+00  -1.5228882042895810E+00  -1.5292178182625797E+00  -1.5355092526414649E+00  -1.5417626127374746E+00
  -1.5479780038618458E+00  -1.5541555313258193E+00  -1.5602953004406312E+00  -1.5663974165175205E+00  -1.5724619848677255E+00
  -1.5784891108024846E+00  -1.5844788996330355E+00  -1.5904314566706172E+00  -1.5963468872264674E+00  -1.6022252966118244E+00
  -1.6080667901379269E+00  -1.6138714731160129E+00  -1.6196394508573200E+00  -1.6253708286730877E+00  -1.6310657118745533E+00
  -1.6367242057729559E+00  -1.6423464156795324E+00  -1.6479324469055228E+00  -1.6534824047621641E+00  -1.6589963945606949E+00
  -1.6644745216123535E+00  -1.6699168912283784E+00  -1.6753236087200072E+00  -1.6806947793984790E+00  -1.6860305085750313E+00
  -1.6913309015609026E+00  -1.6965960636673314E+00  -1.7018261002055561E+00  -1.7070211164868141E+00  -1.7121812178223448E+00
  -1.7173065095233857E+00  -1.7223970969011750E+00  -1.7274530852669514E+00  -1.7324745799319532E+00  -1.7374616862074179E+00
  -1.7424145094045846E+00  -1.7473331548346915E+00  -1.7522177278089761E+00  -1.7570683336386774E+00  -1.7618850776350334E+00
  -1.7666680651092823E+00  -1.7714174013726627E+00  -1.7761331917364125E+00  -1.7808155415117697E+00  -1.7854645560099733E+00
  -1.7900803405422614E+00  -1.7946630004198714E+00  -1.7992126409540425E+00  -1.8037293674560131E+00  -1.8082132852370207E+00
  -1.8126644996083034E+00  -1.8170831158811005E+00  -1.8214692393666496E+00  -1.8258229753761885E+00  -1.8301444292209570E+00
  -1.8344337062121918E+00  -1.8386909116611314E+00  -1.8429161508790151E+00  -1.8471095291770803E+00  -1.8512711518665645E+00
  -1.8554011242587081E+00  -1.8594995516647477E+00  -1.8635665393959218E+00  -1.8676021927634687E+00  -1.8716066170786274E+00
  -1.8755799176526351E+00  -1.8795221997967309E+00  -1.8834335688221524E+00  -1.8873141300401379E+00  -1.8911639887619263E+00
  -1.8949832502987554E+00  -1.8987720199618632E+00  -1.9025304030624888E+00  -1.9062585049118697E+00  -1.9099564308212447E+00
  -1.9136242861018509E+00  -1.9172621760649282E+00  -1.9208702060217142E+00  -1.9244484812834461E+00  -1.9279971071613640E+00
  -1.9315161889667050E+00  -1.9350058320107073E+00  -1.9384661416046101E+00  -1.9418972230596505E+00  -1.9452991816870673E+00
  -1.9486721227980990E+00  -1.9520161517039836E+00  -1.9553313737159590E+00  -1.9586178941452641E+00  -1.9618758183031373E+00
  -1.9651052515008156E+00  -1.9683062990495388E+00  -1.9714790662605444E+00  -1.9746236584450703E+00  -1.9777401809143556E+00
  -1.9808287389796380E+00  -1.9838894379521557E+00  -1.9869223831431473E+00  -1.9899276798638512E+00  -1.9929054334255052E+00
  -1.9958557491393476E+00  -1.9987787323166173E+00  -2.0016744882685513E+00  -2.0045431223063890E+00  -2.0073847397413682E+00
  -2.0101994458847274E+00  -2.0129873460477046E+00  -2.0157485455415385E+00  -2.0184831496774667E+00  -2.0211912637667271E+00
  -2.0238729931205595E+00  -2.0265284430502017E+00  -2.0291577188668906E+00  -2.0317609258818656E+00  -2.0343381694063654E+00
  -2.0368895547516268E+00  -2.0394151872288893E+00  -2.0419151721493911E+00  -2.0443896148243694E+00  -2.0468386205650635E+00
  -2.0492622946827117E+00  -2.0516607424885511E+00  -2.0540340692938215E+00  -2.0563823804097598E+00  -2.0587057811476051E+00
  -2.0610043768185955E+00  -2.0632782727339696E+00  -2.0655275742049644E+00  -2.0677523865428191E+00  -2.0699528150587727E+00
  -2.0721289650640622E+00  -2.0742809418699260E+00  -2.0764088507876028E+00  -2.0785127971283308E+00  -2.0805928862033478E+00
  -2.0826492233238927E+00  -2.0846819138012038E+00  -2.0866910629465183E+00  -2.0886767760710758E+00  -2.0906391584861139E+00
  -2.0925783155028705E+00  -2.0944943524325850E+00  -2.0963873745864947E+00  -2.0982574872758373E+00  -2.1001047958118524E+00
  -2.1019294055057780E+00  -2.1037314216688516E+00  -2.1055109496123126E+00  -2.1072680946473978E+00  -2.1090029620853463E+00
  -2.1107156572373973E+00  -2.1124062854147874E+00  -2.1140749519287554E+00  -2.1157217620905397E+00  -2.1173468212113788E+00
  -2.1189502346025102E+00  -2.1205321075751731E+00  -2.1220925454406054E+00  -2.1236316535100448E+00  -2.1251495370947304E+00
  -2.1266463015059007E+00  -2.1281220520547928E+00  -2.1295768940526449E+00  -2.1310109328106970E+00  -2.1324242736401855E+00
  -2.1338170218523493E+00  -2.1351892827584273E+00  -2.1365411616696570E+00  -2.1378727638972763E+00  -2.1391841947525250E+00
  -2.1404755595466400E+00  -2.1417469635908595E+00  -2.1429985121964230E+00  -2.1442303106745677E+00  -2.1454424643365320E+00
  -2.1466350784935542E+00  -2.1478082584568732E+00  -2.1489621095377256E+00  -2.1500967370473516E+00  -2.1512122462969892E+00
  -2.1523087425978749E+00  -2.1533863312612489E+00  -2.1544451175983483E+00  -2.1554852069204116E+00  -2.1565067045386779E+00
  -2.1575097157643848E+00  -2.1584943459087698E+00  -2.1594607002830726E+00  -2.1604088841985303E+00  -2.1613390029663822E+00
  -2.1622511618978653E+00  -2.1631454663042189E+00  -2.1640220214966810E+00  -2.1648809327864895E+00  -2.1657223054848829E+00
  -2.1665462449030999E+00  -2.1673528563523776E+00  -2.1681422451439554E+00  -2.1689145165890715E+00  -2.1696697759989632E+00
  -2.1704084457819008E+00  -2.1711300148833281E+00  -2.1718349603050000E+00  -2.1725234482087776E+00  -2.1731956447565222E+00
  -2.1738517161100934E+00  -2.1744918284313535E+00  -2.1751161478821626E+00  -2.1757248406243828E+00  -2.1763180728198734E+00
  -2.1768960106304971E+00  -2.1774588202181135E+00  -2.1780066677445840E+00  -2.1785397193717699E+00  -2.1790581412615317E+00
  -2.1795620995757305E+00  -2.1800517604762275E+00  -2.1805272901248829E+00  -2.1809888546835587E+00  -2.1814366203141153E+00
  -2.1818707531784129E+00  -2.1822914194383141E+00  -2.1826987852556785E+00  -2.1830930167923674E+00  -2.1834742802102420E+00
  -2.1838427416711634E+00  -2.1841985673369924E+00  -2.1845419233695895E+00  -2.1848729759308152E+00  -2.1851918911825323E+00
  -2.1854988352866003E+00  -2.1857939744048807E+00  -2.1860774746992337E+00  -2.1863495023315216E+00  -2.1866102234636040E+00
  -2.1868598042573422E+00  -2.1870984108745981E+00  -2.1873262094772317E+00  -2.1875433662271040E+00  -2.1877500472860762E+00
  -2.1879464188160092E+00  -2.1881326469787634E+00  -2.1883088979362006E+00  -2.1884753378501820E+00  -2.1886321328825677E+00
  -2.1887794491952186E+00  -2.1889174529499957E+00  -2.1890463103087612E+00  -2.1891661874333743E+00  -2.1892772504856968E+00
  -2.1893796656275897E+00  -2.1894735990209138E+00  -2.1895592168275302E+00  -2.1896366852092997E+00  -2.1897061703280833E+00
  -2.1897678383457420E+00  -2.1898218554241367E+00  -2.1898683877251282E+00  -2.1899076014105776E+00  -2.1899396626423457E+00
  -2.1899647375822937E+00  -2.1899829923922827E+00  -2.1899945932341729E+00  -2.1899997062698260E+00  -2.1899984976611027E+00
  -2.1899911335698641E+00  -2.1899777801579705E+00  -2.1899586035872836E+00  -2.1899337700196639E+00  -2.1899034456169733E+00
  -2.1898677965410709E+00  -2.1898269889538198E+00  -2.1897811890170789E+00  -2.1897305628927106E+00  -2.1896752767425758E+00
  -2.1896154967285346E+00  -2.1895513890124483E+00  -2.1894831197561784E+00  -2.1894108551215852E+00  -2.1893347612705290E+00
  -2.1892550043648726E+00  -2.1891717505664761E+00  -2.1890851660371995E+00  -2.1889954169389050E+00  -2.1889026694334528E+00
  -2.1888070896827050E+00  -2.1887088438485209E+00  -2.1886080980927622E+00  -2.1885050185772901E+00  -2.1883997714639656E+00
  -2.1882925229146490E+00  -2.1881834390912021E+00  -2.1880726861554853E+00  -2.1879604302693596E+00  -2.1878468375946856E+00
  -2.1877320742933253E+00  -2.1876163065271381E+00  -2.1874997004579870E+00  -2.1873824222477309E+00  -2.1872646380582323E+00
  -2.1871465140513511E+00  -2.1870282163889487E+00  -2.1869099112328860E+00  -2.1867917647450241E+00  -2.1866739430872242E+00
  -2.1865566124213465E+00  -2.1864399389092521E+00  -2.1863240887128024E+00  -2.1862092279938583E+00  -2.1860955229142798E+00
  -2.1859831396359297E+00  -2.1858722443206671E+00  -2.1857630031303539E+00  -2.1856555822268509E+00  -2.1855501477720187E+00
  -2.1854468659277191E+00  -2.1853459028558122E+00  -2.1852474247181597E+00  -2.1851515976766218E+00  -2.1850585878930593E+00
  -2.1849685615293346E+00  -2.1848816847473067E+00  -2.1847981237088385E+00  -2.1847180445757890E+00  -2.1846416135100206E+00
  -2.1845689966733937E+00  -2.1845003602277693E+00  -2.1844354426691042E+00  -2.1843716434044866E+00  -2.1843070097494097E+00
  -2.1842415458859858E+00  -2.1841752559689063E+00  -2.1841081441256787E+00  -2.1840402144568483E+00  -2.1839714710362292E+00
  -2.1839019179111214E+00  -2.1838315591025399E+00  -2.1837603986054259E+00  -2.1836884403888677E+00  -2.1836156883963138E+00
  -2.1835421465457854E+00  -2.1834678187300849E+00  -2.1833927088170069E+00  -2.1833168206495399E+00  -2.1832401580460736E+00
  -2.1831627248005971E+00  -2.1830845246829043E+00  -2.1830055614387822E+00  -2.1829258387902164E+00  -2.1828453604355782E+00
  -2.1827641300498195E+00  -2.1826821512846593E+00  -2.1825994277687766E+00  -2.1825159631079911E+00  -2.1824317608854518E+00
  -2.1823468246618170E+00  -2.1822611579754354E+00  -2.1821747643425238E+00  -2.1820876472573483E+00  -2.1819998101923930E+00
  -2.1819112565985401E+00  -2.1818219899052367E+00  -2.1817320135206675E+00  -2.1816413308319262E+00  -2.1815499452051745E+00
  -2.1814578599858145E+00  -2.1813650784986511E+00  -2.1812716040480518E+00  -2.1811774399181081E+00  -2.1810825893727959E+00
  -2.1809870556561304E+00  -2.1808908419923250E+00  -2.1807939515859456E+00  -2.1806963876220591E+00  -2.1805981532663909E+00
  -2.1804992516654704E+00  -2.1803996859467838E+00  -2.1802994592189160E+00  -2.1801985745717021E+00  -2.1800970350763684E+00
  -2.1799948437856753E+00  -2.1798920037340612E+00  -2.1797885179377814E+00  -2.1796843893950482E+00  -2.1795796210861669E+00
  -2.1794742159736740E+00  -2.1793681770024715E+00  -2.1792615070999628E+00  -2.1791542091761813E+00  -2.1790462861239268E+00
  -2.1789377408188919E+00  -2.1788285761197921E+00  -2.1787187948684958E+00  -2.1786083998901473E+00  -2.1784973939932963E+00
  -2.1783857799700179E+00  -2.1782735605960397E+00  -2.1781607386308619E+00  -2.1780473168178776E+00  -2.1779332978844961E+00
  -2.1778186845422560E+00  -2.1777034794869490E+00  -2.1775876853987315E+00  -2.1774713049422441E+00  -2.1773543407667231E+00
  -2.1772367955061145E+00  -2.1771186717791897E+00  -2.1769999721896514E+00  -2.1768806993262486E+00  -2.1767608557628839E+00
  -2.1766404440587226E+00  -2.1765194667583003E+00  -2.1763979263916289E+00  -2.1762758254743022E+00  -2.1761531665076004E+00
  -2.1760299519785957E+00  -2.1759061843602518E+00  -2.1757818661115289E+00  -2.1756569996774822E+00  -2.1755315874893641E+00
  -2.1754056319647210E+00  -2.1752791355074952E+00  -2.1751521005081171E+00  -2.1750245293436081E+00  -2.1748964243776707E+00
  -2.1747677879607865E+00  -2.1746386224303103E+00  -2.1745089301105618E+00  -2.1743787133129193E+00  -2.1742479743359113E+00
  -2.1741167154653067E+00  -2.1739849389742063E+00  -2.1738526471231276E+00  -2.1737198421601018E+00  -2.1735865263207521E+00
  -2.1734527018283880E+00  -2.1733183708940875E+00  -2.1731835357167837E+00  -2.1730481984833503E+00  -2.1729123613686849E+00
  -2.1727760265357912E+00  -2.1726391961358651E+00  -2.1725018723083731E+00  -2.1723640571811362E+00  -2.1722257528704065E+00
  -2.1720869614809524E+00  -2.1719476851061339E+00  -2.1718079258279825E+00  -2.1716676857172792E+00  -2.1715269668336314E+00
  -2.1713857712255482E+00  -2.1712441009305197E+00  -2.1711019579750888E+00  -2.1709593443749267E+00  -2.1708162621349087E+00
  -2.1706727132491865E+00  -2.1705286997012583E+00  -2.1703842234640471E+00  -2.1702392864999664E+00  -2.1700938907609943E+00
  -2.1699480381887430E+00  -2.1698017307145290E+00  -2.1696549702594408E+00  -2.1695077587344112E+00  -2.1693600980402810E+00
  -2.1692119900678715E+00  -2.1690634366980457E+00  -2.1689144398017794E+00  -2.1687650012402244E+00  -2.1686151228647770E+00
  -2.1684648065171390E+00  -2.1683140540293850E+00  -2.1681628672240243E+00  -2.1680112479140656E+00  -2.1678591979030779E+00
  -2.1677067189852561E+00  -2.1675538129454797E+00  -2.1674004815593739E+00  -2.1672467265933726E+00  -2.1670925498047779E+00
  -2.1669379529418196E+00  -2.1667829377437129E+00  -2.1666275059407210E+00  -2.1664716592542099E+00  -2.1663153993967081E+00
  -2.1661587280719652E+00  -2.1660016469750047E+00  -2.1658441577921854E+00  -2.1656862622012536E+00  -2.1655279618714025E+00
  -2.1653692584633246E+00  -2.1652101536292658E+00  -2.1650506490130836E+00  -2.1648907462502973E+00  -2.1647304469681434E+00
  -2.1645697527856274E+00  -2.1644086653135775E+00  -2.1642471861546970E+00  -2.1640853169036154E+00  -2.1639230591469394E+00
  -2.1637604144633058E+00  -2.1635973844234302E+00  -2.1634339705901589E+00  -2.1632701745185154E+00  -2.1631059977557556E+00
  -2.1629414418414123E+00  -2.1627765083073442E+00  -2.1626111986777867E+00  -2.1624455144693981E+00  -2.1622794571913060E+00
  -2.1621130283451588E+00  -2.1619462294251681E+00  -2.1617790619181569E+00  -2.1616115273036058E+00  -2.1614436270537003E+00
  -2.1612753626333721E+00  -2.1611067355003484E+00  -2.1609377471051952E+00  -2.1607683988913609E+00  -2.1605986922952218E+00
  -2.1604286287461250E+00  -2.1602582096664316E+00  -2.1600874364715601E+00  -2.1599163105700296E+00  -2.1597448333635016E+00
  -2.1595730062468230E+00  -2.1594008306080670E+00  -2.1592283078285743E+00  -2.1590554392829957E+00  -2.1588822263393319E+00
  -2.1587086703589744E+00  -2.1585347726967457E+00  -2.1583605347009391E+00  -2.1581859577133593E+00  -2.1580110430693602E+00
  -2.1578357920978859E+00  -2.1576602061215069E+00  -2.1574842864564623E+00  -2.1573080344126940E+00  -2.1571314512938873E+00
  -2.1569545383975095E+00  -2.1567772970148420E+00  -2.1565997284310234E+00  -2.1564218339250849E+00  -2.1562436147699833E+00
  -2.1560650722326429E+00  -2.1558862075739862E+00  -2.1557070220489738E+00  -2.1555275169066368E+00  -2.1553476933901146E+00
  -2.1551675527366885E+00  -2.1549870961778175E+00  -2.1548063249391705E+00  -2.1546252402406632E+00  -2.1544438432964914E+00
  -2.1542621353151623E+00  -2.1540801174995332E+00  -2.1538977910468398E+00  -2.1537151571487310E+00  -2.1535322169913025E+00
  -2.1533489717551291E+00  -2.1531654226152948E+00  -2.1529815707414288E+00  -2.1527974172977347E+00  -2.1526129634430218E+00
  -2.1524282103307386E+00  -2.1522431591090028E+00  -2.1520578109206321E+00  -2.1518721669031740E+00  -2.1516862281889404E+00
  -2.1514999959050325E+00  -2.1513134711733741E+00  -2.1511266551107422E+00  -2.1509395488287932E+00  -2.1507521534340968E+00
  -2.1505644700281610E+00  -2.1503764997074652E+00  -2.1501882435634849E+00  -2.1499997026827242E+00  -2.1498108781467424E+00
  -2.1496217710321810E+00  -2.1494323824107950E+00  -2.1492427133494774E+00  -2.1490527649102900E+00  -2.1488625381504884E+00
  -2.1486720341225505E+00  -2.1484812538742029E+00  -2.1482901984484490E+00  -2.1480988688835945E+00  -2.1479072662132750E+00
  -2.1477153914664804E+00  -2.1475232456675837E+00  -2.1473308298363660E+00  -2.1471381449880402E+00  -2.1469451921332827E+00
  -2.1467519722782491E+00  -2.1465584864246097E+00  -2.1463647355695685E+00  -2.1461707207058884E+00  -2.1459764428219197E+00
  -2.1457819029016201E+00  -2.1455871019245834E+00  -2.1453920408660601E+00  -2.1451967206969833E+00  -2.1450011423839945E+00
  -2.1448053068894621E+00  -2.1446092151715117E+00  -2.1444128681840442E+00  -2.1442162668767617E+00  -2.1440194121951901E+00
  -2.1438223050807013E+00  -2.1436249464705384E+00  -2.1434273372978354E+00  -2.1432294784916421E+00  -2.1430313709769466E+00
  -2.1428330156746931E+00  -2.1426344135018103E+00  -2.1424355653712306E+00  -2.1422364721919096E+00  -2.1420371348688523E+00
  -2.1418375543031312E+00  -2.1416377313919082E+00  -2.1414376670284567E+00  -2.1412373621021827E+00  -2.1410368174986463E+00
  -2.1408360340995793E+00  -2.1406350127829090E+00  -2.1404337544227796E+00  -2.1402322598895696E+00  -2.1400305300499127E+00
  -2.1398285657667198E+00  -2.1396263678991971E+00  -2.1394239373028681E+00  -2.1392212748295898E+00  -2.1390183813275763E+00
  -2.1388152576414150E+00  -2.1386119046120897E+00  -2.1384083230769946E+00  -2.1382045138699590E+00  -2.1380004778212620E+00
  -2.1377962157576542E+00  -2.1375917285023744E+00  -2.1373870168751687E+00  -2.1371820816923117E+00  -2.1369769237666199E+00
  -2.1367715439074733E+00  -2.1365659429208348E+00  -2.1363601216092643E+00  -2.1361540807719388E+00  -2.1359478212046703E+00
  -2.1357413436999253E+00  -2.1355346490468365E+00  -2.1353277380312266E+00  -2.1351206114356232E+00  -2.1349132700392746E+00
  -2.1347057146181694E+00  -2.1344979459450517E+00  -2.1342899647894384E+00  -2.1340817719176388E+00  -2.1338733680927655E+00
  -2.1336647540747564E+00  -2.1334559306203884E+00  -2.1332468984832946E+00  -2.1330376584139805E+00  -2.1328282111598402E+00
  -2.1326185574651721E+00  -2.1324086980711963E+00  -2.1321986337160679E+00  -2.1319883651348945E+00  -2.1317778930597533E+00
  -2.1315672182197032E+00  -2.1313563413408025E+00  -2.1311452631461245E+00  -2.1309339843557722E+00  -2.1307225056868915E+00
  -2.1305108278536919E+00  -2.1302989515674544E+00  -2.1300868775365518E+00  -2.1298746064664611E+00  -2.1296621390597790E+00
  -2.1294494760162359E+00  -2.1292366180327109E+00  -2.1290235658032466E+00  -2.1288103200190625E+00  -2.1285968813685701E+00
  -2.1283832505373881E+00  -2.1281694282083525E+00  -2.1279554150615350E+00  -2.1277412117742558E+00  -2.1275268190210963E+00
  -2.1273122374739133E+00  -2.1270974678018533E+00  -2.1268825106713658E+00  -2.1266673667462155E+00  -2.1264520366874993E+00
  -2.1262365211536545E+00  -2.1260208208004774E+00  -2.1258049362811318E+00  -2.1255888682461661E+00  -2.1253726173435230E+00
  -2.1251561842185547E+00  -2.1249395695140350E+00  -2.1247227738701713E+00  -2.1245057979246202E+00  -2.1242886423124951E+00
  -2.1240713076663846E+00  -2.1238537946163598E+00  -2.1236361037899902E+00  -2.1234182358123541E+00  -2.1232001913060543E+00
  -2.1229819708912232E+00  -2.1227635751855432E+00  -2.1225450048042527E+00  -2.1223262603601607E+00  -2.1221073424636594E+00
  -2.1218882517227340E+00  -2.1216689887429756E+00  -2.1214495541275915E+00  -2.1212299484774197E+00  -2.1210101723909380E+00
  -2.1207902264642775E+00  -2.1205701112912294E+00  -2.1203498274632637E+00  -2.1201293755695345E+00  -2.1199087561968928E+00
  -2.1196879699298989E+00  -2.1194670173508330E+00  -2.1192458990397052E+00  -2.1190246155742676E+00  -2.1188031675300243E+00
  -2.1185815554802425E+00  -2.1183597799959641E+00  -2.1181378416460159E+00  -2.1179157409970193E+00  -2.1176934786134014E+00
  -2.1174710550574076E+00  -2.1172484708891086E+00  -2.1170257266664123E+00  -2.1168028229450755E+00  -2.1165797602787118E+00
  -2.1163565392188044E+00  -2.1161331603147131E+00  -2.1159096241136868E+00  -2.1156859311608738E+00  -2.1154620819993295E+00
  -2.1152380771700283E+00  -2.1150139172118734E+00  -2.1147896026617041E+00  -2.1145651340543097E+00  -2.1143405119224368E+00
  -2.1141157367967964E+00  -2.1138908092060809E+00  -2.1136657296769648E+00  -2.1134404987341204E+00  -2.1132151169002249E+00
  -2.1129895846959696E+00  -2.1127639026400704E+00  -2.1125380712492756E+00  -2.1123120910383766E+00  -2.1120859625202151E+00
  -2.1118596862056949E+00  -2.1116332626037884E+00  -2.1114066922215478E+00  -2.1111799755641112E+00  -2.1109531131347152E+00
  -2.1107261054347002E+00  -2.1104989529635212E+00  -2.1102716562187571E+00  -2.1100442156961177E+00  -2.1098166318894531E+00
  -2.1095889052907615E+00  -2.1093610363902009E+00  -2.1091330256760932E+00  -2.1089048736349358E+00  -2.1086765807514083E+00
  -2.1084481475083821E+00  -2.1082195743869270E+00  -2.1079908618663237E+00  -2.1077620104240644E+00  -2.1075330205358704E+00
  -2.1073038926756911E+00  -2.1070746273157197E+00  -2.1068452249263960E+00  -2.1066156859764167E+00  -2.1063860109327441E+00
  -2.1061562002606116E+00  -2.1059262544235327E+00  -2.1056961738833118E+00  -2.1054659591000449E+00  -2.1052356105321350E+00
  -2.1050051286362956E+00  -2.1047745138675582E+00  -2.1045437666792828E+00  -2.1043128875231618E+00  -2.1040818768492309E+00
  -2.1038507351058735E+00  -2.1036194627398310E+00  -2.1033880601962078E+00  -2.1031565279184807E+00  -2.1029248663485047E+00
  -2.1026930759265219E+00  -2.1024611570911662E+00  -2.1022291102794739E+00  -2.1019969359268855E+00  -2.1017646344672625E+00
  -2.1015322063328821E+00  -2.1012996519544536E+00  -2.1010669717611217E+00  -2.1008341661804750E+00  -2.1006012356385511E+00
  -2.1003681805598444E+00  -2.1001350013673132E+00  -2.0999016984823871E+00  -2.0996682723249713E+00  -2.0994347233134567E+00
  -2.0992010518647253E+00  -2.0989672583941545E+00  -2.0987333433156286E+00  -2.0984993070415405E+00  -2.0982651499828009E+00
  -2.0980308725488452E+00  -2.0977964751476392E+00  -2.0975619581856848E+00  -2.0973273220680269E+00  -2.0970925671982621E+00
  -2.0968576939785404E+00  -2.0966227028095763E+00  -2.0963875940906527E+00  -2.0961523682196264E+00  -2.0959170255929367E+00
  -2.0956815666056103E+00  -2.0954459916512662E+00  -2.0952103011221235E+00  -2.0949744954090095E+00  -2.0947385749013607E+00
  -2.0945025399872326E+00  -2.0942663910533046E+00  -2.0940301284848855E+00  -2.0937937526659218E+00  -2.0935572639790005E+00
  -2.0933206628053553E+00  -2.0930839495248756E+00  -2.0928471245161098E+00  -2.0926101881562693E+00  -2.0923731408212394E+00
  -2.0921359828855803E+00  -2.0918987147225350E+00  -2.0916613367040351E+00  -2.0914238492007056E+00  -2.0911862525818696E+00
  -2.0909485472155573E+00  -2.0907107334685078E+00  -2.0904728117061770E+00  -2.0902347822927414E+00  -2.0899966455911052E+00
  -2.0897584019629054E+00  -2.0895200517685155E+00  -2.0892815953670532E+00  -2.0890430331163850E+00  -2.0888043653731301E+00
  -2.0885655924926683E+00  -2.0883267148291424E+00  -2.0880877327354668E+00  -2.0878486465633292E+00  -2.0876094566631984E+00
  -2.0873701633843273E+00  -2.0871307670747612E+00  -2.0868912680813394E+00  -2.0866516667497028E+00  -2.0864119634242968E+00
  -2.0861721584483792E+00  -2.0859322521640222E+00  -2.0856922449121198E+00  -2.0854521370323909E+00  -2.0852119288633864E+00
  -2.0849716207424902E+00  -2.0847312130059290E+00  -2.0844907059887747E+00  -2.0842501000249487E+00  -2.0840093954472270E+00
  -2.0837685925872460E+00  -2.0835276917755068E+00  -2.0832866933413796E+00  -2.0830455976131073E+00  -2.0828044049178143E+00
  -2.0825631155815061E+00  -2.0823217299290766E+00  -2.0820802482843126E+00  -2.0818386709698986E+00  -2.0815969983074192E+00
  -2.0813552306173686E+00  -2.0811133682191474E+00  -2.0808714114310765E+00  -2.0806293605703923E+00  -2.0803872159532588E+00
  -2.0801449778947663E+00  -2.0799026467089408E+00  -2.0796602227087435E+00  -2.0794177062060792E+00  -2.0791750975117984E+00
  -2.0789323969357025E+00  -2.0786896047865477E+00  -2.0784467213720497E+00  -2.0782037469988865E+00  -2.0779606819727068E+00
  -2.0777175265981280E+00  -2.0774742811787452E+00  -2.0772309460171350E+00  -2.0769875214148565E+00  -2.0767440076724588E+00
  -2.0765004050894831E+00  -2.0762567139644679E+00  -2.0760129345949538E+00  -2.0757690672774838E+00  -2.0755251123076128E+00
  -2.0752810699799071E+00  -2.0750369405879505E+00  -2.0747927244243494E+00  -2.0745484217807322E+00  -2.0743040329477589E+00
  -2.0740595582151227E+00  -2.0738149978715517E+00  -2.0735703522048157E+00  -2.0733256215017297E+00  -2.0730808060481558E+00
  -2.0728359061290105E+00  -2.0725909220282643E+00  -2.0723458540289497E+00  -2.0721007024131595E+00  -2.0718554674620586E+00
  -2.0716101494558790E+00  -2.0713647486739299E+00  -2.0711192653945982E+00  -2.0708736998953543E+00  -2.0706280524527525E+00
  -2.0703823233424385E+00  -2.0701365128391500E+00  -2.0698906212167230E+00  -2.0696446487480920E+00  -2.0693985957052985E+00
  -2.0691524623594884E+00  -2.0689062489809200E+00  -2.0686599558389669E+00  -2.0684135832021209E+00  -2.0681671313379946E+00
  -2.0679206005133257E+00  -2.0676739909939821E+00  -2.0674273030449619E+00  -2.0671805369303993E+00  -2.0669336929135689E+00
  -2.0666867712568848E+00  -2.0664397722219094E+00  -2.0661926960693533E+00  -2.0659455430590787E+00  -2.0656983134501044E+00
  -2.0654510075006081E+00  -2.0652036254679298E+00  -2.0649561676085755E+00  -2.0647086341782197E+00  -2.0644610254317088E+00
  -2.0642133416230650E+00  -2.0639655830054902E+00  -2.0637177498313659E+00  -2.0634698423522608E+00  -2.0632218608189308E+00
  -2.0629738054813225E+00  -2.0627256765885789E+00  -2.0624774743890391E+00  -2.0622291991302433E+00  -2.0619808510589359E+00
  -2.0617324304210687E+00  -2.0614839374618028E+00  -2.0612353724255130E+00  -2.0609867355557903E+00  -2.0607380270954434E+00
  -2.0604892472865060E+00  -2.0602403963702343E+00  -2.0599914745871142E+00  -2.0597424821768633E+00  -2.0594934193784327E+00
  -2.0592442864300096E+00  -2.0589950835690232E+00  -2.0587458110321442E+00  -2.0584964690552900E+00  -2.0582470578736261E+00
  -2.0579975777215713E+00  -2.0577480288327967E+00  -2.0574984114402315E+00  -2.0572487257760668E+00  -2.0569989720717552E+00
  -2.0567491505580153E+00  -2.0564992614648339E+00  -2.0562493050214710E+00  -2.0559992814564598E+00  -2.0557491909976102E+00
  -2.0554990338720120E+00  -2.0552488103060389E+00  -2.0549985205253476E+00  -2.0547481647548849E+00  -2.0544977432188873E+00
  -2.0542472561408842E+00  -2.0539967037437017E+00  -2.0537460862494643E+00  -2.0534954038795985E+00  -2.0532446568548344E+00
  -2.0529938453952079E+00  -2.0527429697200659E+00  -2.0524920300480662E+00  -2.0522410265971800E+00  -2.0519899595846982E+00
  -2.0517388292272281E+00  -2.0514876357407026E+00  -2.0512363793403758E+00  -2.0509850602408322E+00  -2.0507336786559840E+00
  -2.0504822347990763E+00  -2.0502307288826898E+00  -2.0499791611187410E+00  -2.0497275317184873E+00  -2.0494758408925282E+00
  -2.0492240888508078E+00  -2.0489722758026172E+00  -2.0487204019565959E+00  -2.0484684675207387E+00  -2.0482164727023919E+00
  -2.0479644177082594E+00  -2.0477123027444049E+00  -2.0474601280162523E+00  -2.0472078937285909E+00  -2.0469556000855760E+00
  -2.0467032472907314E+00  -2.0464508355469522E+00  -2.0461983650565059E+00  -2.0459458360210370E+00  -2.0456932486415678E+00
  -2.0454406031184993E+00  -2.0451878996516171E+00  -2.0449351384400902E+00  -2.0446823196824759E+00  -2.0444294435767194E+00
  -2.0441765103201592E+00  -2.0439235201095260E+00  -2.0436704731409487E+00  -2.0434173696099522E+00  -2.0431642097114633E+00
  -2.0429109936398113E+00  -2.0426577215887303E+00  -2.0424043937513616E+00  -2.0421510103202545E+00  -2.0418975714873722E+00
  -2.0416440774440896E+00  -2.0413905283811982E+00  -2.0411369244889057E+00  -2.0408832659568432E+00  -2.0406295529740599E+00
  -2.0403757857290312E+00  -2.0401219644096598E+00  -2.0398680892032743E+00  -2.0396141602966353E+00  -2.0393601778759360E+00
  -2.0391061421268035E+00  -2.0388520532343017E+00  -2.0385979113829338E+00  -2.0383437167566427E+00  -2.0380894695388139E+00
  -2.0378351699122801E+00  -2.0375808180593165E+00  -2.0373264141616514E+00  -2.0370719584004604E+00  -2.0368174509563737E+00
  -2.0365628920094765E+00  -2.0363082817393088E+00  -2.0360536203248705E+00  -2.0357989079446219E+00  -2.0355441447764866E+00
  -2.0352893309978506E+00  -2.0350344667855675E+00  -2.0347795523159591E+00  -2.0345245877648175E+00  -2.0342695733074061E+00
  -2.0340145091184629E+00  -2.0337593953722024E+00  -2.0335042322423149E+00  -2.0332490199019717E+00  -2.0329937585238249E+00
  -2.0327384482800106E+00  -2.0324830893421484E+00  -2.0322276818813472E+00  -2.0319722260682025E+00  -2.0317167220728019E+00
  -2.0314611700647238E+00  -2.0312055702130434E+00  -2.0309499226863283E+00  -2.0306942276526470E+00  -2.0304384852795661E+00
  -2.0301826957341538E+00  -2.0299268591829809E+00  -2.0296709757921239E+00  -2.0294150457271654E+00  -2.0291590691531960E+00
  -2.0289030462348183E+00  -2.0286469771361437E+00  -2.0283908620207987E+00  -2.0281347010519255E+00  -2.0278784943921826E+00
  -2.0276222422037464E+00  -2.0273659446483161E+00  -2.0271096018871093E+00  -2.0268532140808708E+00  -2.0265967813898675E+00
  -2.0263403039738970E+00  -2.0260837819922819E+00  -2.0258272156038779E+00  -2.0255706049670708E+00  -2.0253139502397808E+00
  -2.0250572515794629E+00  -2.0248005091431112E+00  -2.0245437230872545E+00  -2.0242868935679645E+00  -2.0240300207408528E+00
  -2.0237731047610756E+00  -2.0235161457833342E+00  -2.0232591439618748E+00  -2.0230020994504914E+00  -2.0227450124025306E+00
  -2.0224878829708874E+00  -2.0222307113080102E+00  -2.0219734975659014E+00  -2.0217162418961196E+00  -2.0214589444497819E+00
  -2.0212016053775606E+00  -2.0209442248296927E+00  -2.0206868029559746E+00  -2.0204293399057667E+00  -2.0201718358279943E+00
  -2.0199142908711489E+00  -2.0196567051832899E+00  -2.0193990789120475E+00  -2.0191414122046205E+00  -2.0188837052077813E+00
  -2.0186259580678758E+00  -2.0183681709308265E+00  -2.0181103439421308E+00  -2.0178524772468642E+00  -2.0175945709896830E+00
  -2.0173366253148250E+00  -2.0170786403661092E+00  -2.0168206162869384E+00  -2.0165625532203024E+00  -2.0163044513087760E+00
  -2.0160463106945232E+00  -2.0157881315192969E+00  -2.0155299139244414E+00  -2.0152716580508936E+00  -2.0150133640391834E+00
  -2.0147550320294374E+00  -2.0144966621613762E+00  -2.0142382545743209E+00  -2.0139798094071901E+00  -2.0137213267985032E+00
  -2.0134628068863827E+00  -2.0132042498085525E+00  -2.0129456557023433E+00  -2.0126870247046904E+00  -2.0124283569521366E+00
  -2.0121696525808339E+00  -2.0119109117265430E+00  -2.0116521345246379E+00  -2.0113933211101029E+00  -2.0111344716175381E+00
  -2.0108755861811578E+00  -2.0106166649347932E+00  -2.0103577080118931E+00  -2.0100987155455234E+00  -2.0098396876683755E+00
  -2.0095806245127572E+00  -2.0093215262106021E+00  -2.0090623928934663E+00  -2.0088032246925320E+00  -2.0085440217386084E+00
  -2.0082847841621323E+00  -2.0080255120931696E+00  -2.0077662056614174E+00  -2.0075068649962020E+00  -2.0072474902264856E+00
  -2.0069880814808627E+00  -2.0067286388875631E+00  -2.0064691625744544E+00  -2.0062096526690398E+00  -2.0059501092984640E+00
  -2.0056905325895094E+00  -2.0054309226686016E+00  -2.0051712796618069E+00  -2.0049116036948371E+00  -2.0046518948930476E+00
  -2.0043921533814415E+00  -2.0041323792846661E+00  -2.0038725727270204E+00  -2.0036127338324508E+00  -2.0033528627245554E+00
  -2.0030929595265845E+00  -2.0028330243614394E+00  -2.0025730573516776E+00  -2.0023130586195119E+00  -2.0020530282868099E+00
  -2.0017929664750991E+00  -2.0015328733055626E+00  -2.0012727488990465E+00  -2.0010125933760561E+00  -2.0007524068567588E+00
  -2.0004921894609851E+00  -2.0002319413082303E+00  -1.9999716625176558E+00  -1.9997113532080870E+00  -1.9994510134980192E+00
  -1.9991906435056155E+00  -1.9989302433487084E+00  -1.9986698131448020E+00  -1.9984093530110709E+00  -1.9981488630643645E+00
  -1.9978883434212038E+00  -1.9976277941977885E+00  -1.9973672155099904E+00  -1.9971066074733612E+00  -1.9968459702031294E+00
  -1.9965853038142034E+00  -1.9963246084211730E+00  -1.9960638841383069E+00  -1.9958031310795579E+00  -1.9955423493585618E+00
  -1.9952815390886391E+00  -1.9950207003827960E+00  -1.9947598333537233E+00  -1.9944989381138027E+00  -1.9942380147751013E+00
  -1.9939770634493774E+00  -1.9937160842480792E+00  -1.9934550772823467E+00  -1.9931940426630119E+00  -1.9929329805006009E+00
  -1.9926718909053347E+00  -1.9924107739871291E+00  -1.9921496298555956E+00  -1.9918884586200449E+00  -1.9916272603894849E+00
  -1.9913660352726232E+00  -1.9911047833778670E+00  -1.9908435048133277E+00  -1.9905821996868147E+00  -1.9903208681058431E+00
  -1.9900595101776328E+00  -1.9897981260091067E+00  -1.9895367157068957E+00  -1.9892752793773369E+00  -1.9890138171264746E+00
  -1.9887523290600631E+00  -1.9884908152835663E+00  -1.9882292759021580E+00  -1.9879677110207252E+00  -1.9877061207438658E+00
  -1.9874445051758913E+00  -1.9871828644208298E+00  -1.9869211985824213E+00  -1.9866595077641251E+00  -1.9863977920691158E+00
  -1.9861360516002864E+00  -1.9858742864602490E+00  -1.9856124967513349E+00  -1.9853506825755969E+00  -1.9850888440348089E+00
  -1.9848269812304680E+00  -1.9845650942637925E+00  -1.9843031832357274E+00  -1.9840412482469416E+00  -1.9837792893978292E+00
  -1.9835173067885130E+00  -1.9832553005188418E+00  -1.9829932706883933E+00  -1.9827312173964751E+00  -1.9824691407421242E+00
  -1.9822070408241093E+00  -1.9819449177409316E+00  -1.9816827715908232E+00  -1.9814206024717513E+00  -1.9811584104814175E+00
  -1.9808961957172584E+00  -1.9806339582764452E+00  -1.9803716982558885E+00  -1.9801094157522356E+00  -1.9798471108618727E+00
  -1.9795847836809233E+00  -1.9793224343052545E+00  -1.9790600628304724E+00  -1.9787976693519240E+00  -1.9785352539647014E+00
  -1.9782728167636383E+00  -1.9780103578433146E+00  -1.9777478772980512E+00  -1.9774853752219199E+00  -1.9772228517087349E+00
  -1.9769603068520603E+00  -1.9766977407452075E+00  -1.9764351534812379E+00  -1.9761725451529597E+00  -1.9759099158529350E+00
  -1.9756472656734754E+00  -1.9753845947066457E+00  -1.9751219030442619E+00  -1.9748591907778945E+00  -1.9745964579988695E+00
  -1.9743337047982652E+00  -1.9740709312669189E+00  -1.9738081374954217E+00  -1.9735453235741247E+00  -1.9732824895931351E+00
  -1.9730196356423206E+00  -1.9727567618113064E+00  -1.9724938681894808E+00  -1.9722309548659900E+00  -1.9719680219297449E+00
  -1.9717050694694169E+00  -1.9714420975734424E+00  -1.9711791063300210E+00  -1.9709160958271166E+00  -1.9706530661524588E+00
  -1.9703900173935440E+00  -1.9701269496376348E+00  -1.9698638629717620E+00  -1.9696007574827239E+00  -1.9693376332570884E+00
  -1.9690744903811932E+00  -1.9688113289411464E+00  -1.9685481490228269E+00  -1.9682849507118858E+00  -1.9680217340937463E+00
  -1.9677584992536055E+00  -1.9674952462764335E+00  -1.9672319752469765E+00  -1.9669686862497542E+00  -1.9667053793690630E+00
  -1.9664420546889771E+00  -1.9661787122933454E+00  -1.9659153522657977E+00  -1.9656519746897407E+00  -1.9653885796483606E+00
  -1.9651251672246248E+00  -1.9648617375012798E+00  -1.9645982905608550E+00  -1.9643348264856604E+00  -1.9640713453577889E+00
  -1.9638078472591187E+00  -1.9635443322713084E+00  -1.9632808004758047E+00  -1.9630172519538376E+00  -1.9627536867864241E+00
  -1.9624901050543662E+00  -1.9622265068382554E+00  -1.9619628922184684E+00  -1.9616992612751738E+00  -1.9614356140883256E+00
  -1.9611719507376710E+00  -1.9609082713027444E+00  -1.9606445758628739E+00  -1.9603808644971772E+00  -1.9601171372845660E+00
  -1.9598533943037444E+00  -1.9595896356332092E+00  -1.9593258613512521E+00  -1.9590620715359597E+00  -1.9587982662652130E+00
  -1.9585344456166909E+00  -1.9582706096678666E+00  -1.9580067584960115E+00  -1.9577428921781961E+00  -1.9574790107912867E+00
  -1.9572151144119514E+00  -1.9569512031166549E+00  -1.9566872769816657E+00  -1.9564233360830494E+00  -1.9561593804966759E+00
  -1.9558954102982162E+00  -1.9556314255631422E+00  -1.9553674263667316E+00  -1.9551034127840645E+00  -1.9548393848900252E+00
  -1.9545753427593033E+00  -1.9543112864663941E+00  -1.9540472160855982E+00  -1.9537831316910239E+00  -1.9535190333565851E+00
  -1.9532549211560060E+00  -1.9529907951628165E+00  -1.9527266554503564E+00  -1.9524625020917761E+00  -1.9521983351600347E+00
  -1.9519341547279030E+00  -1.9516699608679609E+00  -1.9514057536526022E+00  -1.9511415331540320E+00  -1.9508772994442689E+00
  -1.9506130525951435E+00  -1.9503487926783023E+00  -1.9500845197652039E+00  -1.9498202339271240E+00  -1.9495559352351535E+00
  -1.9492916237601980E+00  -1.9490272995729809E+00  -1.9487629627440435E+00  -1.9484986133437427E+00  -1.9482342514422557E+00
  -1.9479698771095773E+00  -1.9477054904155220E+00  -1.9474410914297238E+00  -1.9471766802216381E+00  -1.9469122568605399E+00
  -1.9466478214155269E+00  -1.9463833739555172E+00  -1.9461189145492519E+00  -1.9458544432652967E+00  -1.9455899601720381E+00
  -1.9453254653376886E+00  -1.9450609588302841E+00  -1.9447964407176865E+00  -1.9445319110675823E+00  -1.9442673699474846E+00
  -1.9440028174247328E+00  -1.9437382535664935E+00  -1.9434736784397608E+00  -1.9432090921113574E+00  -1.9429444946479331E+00
  -1.9426798861159671E+00  -1.9424152665817709E+00  -1.9421506361114820E+00  -1.9418859947710703E+00  -1.9416213426263373E+00
  -1.9413566797429149E+00  -1.9410920061862682E+00  -1.9408273220216932E+00  -1.9405626273143195E+00  -1.9402979221291115E+00
  -1.9400332065308645E+00  -1.9397684805842121E+00  -1.9395037443536198E+00  -1.9392389979033888E+00  -1.9389742412976576E+00
  -1.9387094746003997E+00  -1.9384446978754255E+00  -1.9381799111863836E+00  -1.9379151145967586E+00  -1.9376503081698746E+00
  -1.9373854919688951E+00  -1.9371206660568203E+00  -1.9368558304964909E+00  -1.9365909853505894E+00  -1.9363261306816364E+00
  -1.9360612665519941E+00  -1.9357963930238673E+00  -1.9355315101593014E+00  -1.9352666180201830E+00  -1.9350017166682454E+00
  -1.9347368061650598E+00  -1.9344718865720452E+00  -1.9342069579504630E+00  -1.9339420203614193E+00  -1.9336770738658653E+00
  -1.9334121185245967E+00  -1.9331471543982570E+00  -1.9328821815473345E+00  -1.9326172000321635E+00  -1.9323522099129284E+00
  -1.9320872112496577E+00  -1.9318222041022304E+00  -1.9315571885303719E+00  -1.9312921645936596E+00  -1.9310271323515169E+00
  -1.9307620918632185E+00  -1.9304970431878892E+00  -1.9302319863845052E+00  -1.9299669215118909E+00  -1.9297018486287250E+00
  -1.9294367677935373E+00  -1.9291716790647098E+00  -1.9289065825004765E+00  -1.9286414781589249E+00  -1.9283763660979965E+00
  -1.9281112463754866E+00  -1.9278461190490437E+00  -1.9275809841761731E+00  -1.9273158418142333E+00  -1.9270506920204398E+00
  -1.9267855348518625E+00  -1.9265203703654299E+00  -1.9262551986179250E+00  -1.9259900196659896E+00  -1.9257248335661228E+00
  -1.9254596403746800E+00  -1.9251944401478776E+00  -1.9249292329417891E+00  -1.9246640188123476E+00  -1.9243987978153456E+00
  -1.9241335700064364E+00  -1.9238683354411321E+00  -1.9236030941748068E+00  -1.9233378462626953E+00  -1.9230725917598939E+00
  -1.9228073307213607E+00  -1.9225420632019175E+00  -1.9222767892562462E+00  -1.9220115089388936E+00  -1.9217462223042689E+00
  -1.9214809294066464E+00  -1.9212156303001628E+00  -1.9209503250388216E+00  -1.9206850136764897E+00  -1.9204196962668989E+00
  -1.9201543728636488E+00  -1.9198890435202032E+00  -1.9196237082898917E+00  -1.9193583672259136E+00  -1.9190930203813334E+00
  -1.9188276678090830E+00  -1.9185623095619626E+00  -1.9182969456926418E+00  -1.9180315762536555E+00  -1.9177662012974128E+00
  -1.9175008208761875E+00  -1.9172354350421250E+00  -1.9169700438472415E+00  -1.9167046473434222E+00  -1.9164392455824237E+00
  -1.9161738386158746E+00  -1.9159084264952733E+00  -1.9156430092719923E+00  -1.9153775869972745E+00  -1.9151121597222347E+00
  -1.9148467274978640E+00  -1.9145812903750230E+00  -1.9143158484044489E+00  -1.9140504016367501E+00  -1.9137849501224118E+00
  -1.9135194939117930E+00  -1.9132540330551271E+00  -1.9129885676025229E+00  -1.9127230976039666E+00  -1.9124576231093176E+00
  -1.9121921441683143E+00  -1.9119266608305705E+00  -1.9116611731455773E+00  -1.9113956811627026E+00  -1.9111301849311935E+00
  -1.9108646845001733E+00  -1.9105991799186457E+00  -1.9103336712354912E+00  -1.9100681584994710E+00  -1.9098026417592231E+00
  -1.9095371210632688E+00  -1.9092715964600069E+00  -1.9090060679977177E+00  -1.9087405357245610E+00  -1.9084749996885790E+00
  -1.9082094599376953E+00  -1.9079439165197127E+00  -1.9076783694823189E+00  -1.9074128188730832E+00  -1.9071472647394558E+00
  -1.9068817071287716E+00  -1.9066161460882491E+00  -1.9063505816649888E+00  -1.9060850139059760E+00  -1.9058194428580801E+00
  -1.9055538685680546E+00  -1.9052882910825384E+00  -1.9050227104480562E+00  -1.9047571267110155E+00  -1.9044915399177131E+00
  -1.9042259501143295E+00  -1.9039603573469308E+00  -1.9036947616614732E+00  -1.9034291631037976E+00  -1.9031635617196312E+00
  -1.9028979575545912E+00  -1.9026323506541805E+00  -1.9023667410637921E+00  -1.9021011288287066E+00  -1.9018355139940928E+00
  -1.9015698966050101E+00  -1.9013042767064063E+00  -1.9010386543431179E+00  -1.9007730295598739E+00  -1.9005074024012920E+00
  -1.9002417729118799E+00  -1.8999761411360376E+00  -1.8997105071180562E+00  -1.8994448709021161E+00  -1.8991792325322925E+00
  -1.8989135920525506E+00  -1.8986479495067488E+00  -1.8983823049386370E+00  -1.8981166583918596E+00  -1.8978510099099544E+00
  -1.8975853595363490E+00  -1.8973197073143699E+00  -1.8970540532872344E+00  -1.8967883974980551E+00  -1.8965227399898377E+00
  -1.8962570808054864E+00  -1.8959914199877965E+00  -1.8957257575794613E+00  -1.8954600936230686E+00  -1.8951944281611026E+00
  -1.8949287612359449E+00  -1.8946630928898713E+00  -1.8943974231650560E+00  -1.8941317521035708E+00  -1.8938660797473832E+00
  -1.8936004061383598E+00  -1.8933347313182638E+00  -1.8930690553287584E+00  -1.8928033782114031E+00  -1.8925377000076578E+00
  -1.8922720207588806E+00  -1.8920063405063301E+00  -1.8917406592911616E+00  -1.8914749771544330E+00  -1.8912092941371017E+00
  -1.8909436102800239E+00  -1.8906779256239590E+00  -1.8904122402095640E+00  -1.8901465540773998E+00  -1.8898808672679273E+00
  -1.8896151798215095E+00  -1.8893494917784106E+00  -1.8890838031787984E+00  -1.8888181140627420E+00  -1.8885524244702121E+00
  -1.8882867344410850E+00  -1.8880210440151377E+00  -1.8877553532320526E+00  -1.8874896621314143E+00  -1.8872239707527119E+00
  -1.8869582791353392E+00  -1.8866925873185929E+00  -1.8864268953416767E+00  -1.8861612032436965E+00  -1.8858955110636659E+00
  -1.8856298188405025E+00  -1.8853641266130297E+00  -1.8850984344199775E+00  -1.8848327422999813E+00  -1.8845670502915834E+00
  -1.8843013584332327E+00  -1.8840356667632847E+00  -1.8837699753200028E+00  -1.8835042841415564E+00  -1.8832385932660243E+00
  -1.8829729027313920E+00  -1.8827072125755535E+00  -1.8824415228363112E+00  -1.8821758335513752E+00  -1.8819101447583657E+00
  -1.8816444564948116E+00  -1.8813787687981514E+00  -1.8811130817057315E+00  -1.8808473952548102E+00  -1.8805817094825548E+00
  -1.8803160244260431E+00  -1.8800503401222630E+00  -1.8797846566081124E+00  -1.8795189739204032E+00  -1.8792532920958547E+00
  -1.8789876111711004E+00  -1.8787219311826826E+00  -1.8784562521670587E+00  -1.8781905741605958E+00  -1.8779248971995748E+00
  -1.8776592213201881E+00  -1.8773935465585418E+00  -1.8771278729506535E+00  -1.8768622005324558E+00  -1.8765965293397933E+00
  -1.8763308594084256E+00  -1.8760651907740251E+00  -1.8757995234721785E+00  -1.8755338575383877E+00  -1.8752681930080675E+00
  -1.8750025299165489E+00  -1.8747368682990779E+00  -1.8744712081908148E+00  -1.8742055496268362E+00  -1.8739398926421329E+00
  -1.8736742372716140E+00  -1.8734085835501015E+00  -1.8731429315123371E+00  -1.8728772811929773E+00  -1.8726116326265947E+00
  -1.8723459858476796E+00  -1.8720803408906392E+00  -1.8718146977897994E+00  -1.8715490565794013E+00  -1.8712834172936053E+00
  -1.8710177799664889E+00  -1.8707521446320505E+00  -1.8704865113242028E+00  -1.8702208800767799E+00  -1.8699552509235340E+00
  -1.8696896238981355E+00  -1.8694239990341763E+00  -1.8691583763651654E+00  -1.8688927559245325E+00  -1.8686271377456269E+00
  -1.8683615218617180E+00  -1.8680959083059965E+00  -1.8678302971115712E+00  -1.8675646883114740E+00  -1.8672990819386566E+00
  -1.8670334780259910E+00  -1.8667678766062732E+00  -1.8665022777122169E+00  -1.8662366813764595E+00  -1.8659710876315614E+00
  -1.8657054965100031E+00  -1.8654399080441881E+00  -1.8651743222664430E+00  -1.8649087392090151E+00  -1.8646431589040773E+00
  -1.8643775813837233E+00  -1.8641120066799717E+00  -1.8638464348247630E+00  -1.8635808658499624E+00  -1.8633152997873583E+00
  -1.8630497366686640E+00  -1.8627841765255162E+00  -1.8625186193894763E+00  -1.8622530652920304E+00  -1.8619875142645892E+00
  -1.8617219663384883E+00  -1.8614564215449891E+00  -1.8611908799152772E+00  -1.8609253414804647E+00  -1.8606598062715898E+00
  -1.8603942743196149E+00  -1.8601287456554312E+00  -1.8598632203098517E+00  -1.8595976983136218E+00  -1.8593321796974089E+00
  -1.8590666644918095E+00  -1.8588011527273458E+00  -1.8585356444344692E+00  -1.8582701396435553E+00  -1.8580046383849107E+00
  -1.8577391406887678E+00  -1.8574736465852872E+00  -1.8572081561045586E+00  -1.8569426692765976E+00  -1.8566771861313518E+00
  -1.8564117066986945E+00  -1.8561462310084287E+00  -1.8558807590902873E+00  -1.8556152909739312E+00  -1.8553498266889517E+00
  -1.8550843662648686E+00  -1.8548189097311321E+00  -1.8545534571171225E+00  -1.8542880084521494E+00  -1.8540225637654533E+00
  -1.8537571230862042E+00  -1.8534916864435047E+00  -1.8532262538663862E+00  -1.8529608253838115E+00  -1.8526954010246748E+00
  -1.8524299808178015E+00  -1.8521645647919494E+00  -1.8518991529758051E+00  -1.8516337453979905E+00  -1.8513683420870570E+00
  -1.8511029430714896E+00  -1.8508375483797048E+00  -1.8505721580400520E+00  -1.8503067720808122E+00  -1.8500413905302004E+00
  -1.8497760134163641E+00  -1.8495106407673843E+00  -1.8492452726112749E+00  -1.8489799089759840E+00  -1.8487145498893915E+00
  -1.8484491953793127E+00  -1.8481838454734967E+00  -1.8479185001996268E+00  -1.8476531595853201E+00  -1.8473878236581285E+00
  -1.8471224924455372E+00  -1.8468571659749691E+00  -1.8465918442737788E+00  -1.8463265273692591E+00  -1.8460612152886349E+00
  -1.8457959080590687E+00  -1.8455306057076577E+00  -1.8452653082614350E+00  -1.8450000157473700E+00  -1.8447347281923681E+00
  -1.8444694456232693E+00  -1.8442041680668524E+00  -1.8439388955498310E+00  -1.8436736280988559E+00  -1.8434083657405160E+00
  -1.8431431085013341E+00  -1.8428778564077735E+00  -1.8426126094862325E+00  -1.8423473677630482E+00  -1.8420821312644939E+00
  -1.8418169000167826E+00  -1.8415516740460633E+00  -1.8412864533784243E+00  -1.8410212380398918E+00  -1.8407560280564297E+00
  -1.8404908234539414E+00  -1.8402256242582689E+00  -1.8399604304951915E+00  -1.8396952421904296E+00  -1.8394300593696413E+00
  -1.8391648820584252E+00  -1.8388997102823170E+00  -1.8386345440667951E+00  -1.8383693834372747E+00  -1.8381042284191125E+00
  -1.8378390790376056E+00  -1.8375739353179892E+00  -1.8373087972854407E+00  -1.8370436649650774E+00  -1.8367785383819566E+00
  -1.8365134175610771E+00  -1.8362483025273786E+00  -1.8359831933057411E+00  -1.8357180899209864E+00  -1.8354529923978764E+00
  -1.8351879007611167E+00  -1.8349228150353525E+00  -1.8346577352451716E+00  -1.8343926614151029E+00  -1.8341275935696177E+00
   5.0803612526640507E+01   5.0803612526640507E+01   5.0803612526640507E+01   5.0803612526640507E+01   5.0803612526640507E+01
   5.0803612526640507E+01   5.0803612526640507E+01   5.0803612526640507E+01   5.0803612526640507E+01   5.0803612526640507E+01
   5.0803612526640507E+01   5.0803612526640507E+01   5.0803612526640507E+01   5.0803612526640507E+01   5.0803612526640507E+01
   5.0803612526640507E+01   5.0803612526640507E+01   5.0803612526640507E+01   5.0803612526640507E+01   5.0803612526640507E+01
   5.0803612526640507E+01   5.0803612526640507E+01   5.0803612526640507E+01   5.0803612526640507E+01   5.0803612526640507E+01
   5.0803612526640507E+01   5.0803612526640507E+01   5.0803612526640507E+01   5.0803612526640507E+01   5.0803612526640507E+01
   5.0803612526640507E+01   5.0803612526640507E+01   5.0803612526640507E+01   5.0803612526640507E+01   5.0803612526640507E+01
   5.0803612526640507E+01   5.0803612526640507E+01   5.0803612526640507E+01   5.0803612526640507E+01   5.0803612526640507E+01
   5.0803612526640507E+01   5.0803612526640507E+01   5.0803612526640507E+01   5.0803612526640507E+01   5.0803612526640507E+01
   5.0803612526640507E+01   5.0803612526640507E+01   5.0803612526640507E+01   5.0803612526640507E+01   5.0803612526640507E+01
   5.0803612526640507E+01   5.0803612526640507E+01   5.0803612526640507E+01   5.0803612526640507E+01   5.0803612526640507E+01
   5.0803612526640507E+01   5.0803612526640507E+01   5.0803612526640507E+01   5.0803612526640507E+01   5.0803612526640507E+01
   5.0803612526640507E+01   5.0803612526640507E+01   5.0803612526640507E+01   5.0803612526640507E+01   5.0803612526640507E+01
   5.0803612526640507E+01   5.0803612526640507E+01   5.0803612526640507E+01   5.0803612526640507E+01   5.0803612526640507E+01
   5.0803612526640507E+01   5.0803612526640507E+01   5.0803612526640507E+01   5.0803612526640507E+01   5.0803612526640507E+01
   5.0803612526640507E+01   5.0803612526640507E+01   5.0803612526640507E+01   5.0803612526640507E+01   5.0803612526640507E+01
   5.0803612526640507E+01   5.0803612526640507E+01   5.0803612526640507E+01   5.0803612526640507E+01   5.0803612526640507E+01
   5.0803612526640507E+01   5.0803612526640507E+01   5.0803612526640507E+01   5.0803612526640507E+01   5.0803612526640507E+01
   5.0803612526640507E+01   5.0803612526640507E+01   5.0803612526640507E+01   5.0803612526640507E+01   5.0803612526640507E+01
   5.0803612526640507E+01   5.0803612526640507E+01   5.0803612526640507E+01   5.0803612526640507E+01   5.0803612526640507E+01
   5.0803612526640507E+01   5.0803612526640507E+01   5.0803612526640507E+01   5.0803612526640507E+01   5.0803612526640507E+01
   5.0803612526640507E+01   5.0803612526640507E+01   5.0803612526640507E+01   5.0803612526640507E+01   5.0803612526640507E+01
   5.0803612526640507E+01   5.0803612526640507E+01   5.0803612526640507E+01   5.0803612526640507E+01   5.0803612526640507E+01
   5.0803612526640507E+01   5.0803612526640507E+01   5.0803612526640507E+01   5.0803612526640507E+01   5.0803612526640507E+01
   5.0803612526640507E+01   5.0803612526640507E+01   5.0803612526640507E+01   5.0803612526640507E+01   5.0803612526640507E+01
   5.0803612526640507E+01   5.0803612526640507E+01   5.0803612526640507E+01   5.0803612526640507E+01   5.0803612526640507E+01
   5.0803612526640507E+01   5.0803612526640507E+01   5.0803612526640507E+01   5.0803612526640507E+01   5.0803612526640507E+01
   5.0803612526640507E+01   5.0803612526640507E+01   5.0803612526640507E+01   5.0803612526640507E+01   5.0803612526640507E+01
   5.0803612526640507E+01   5.0803612526640507E+01   5.0803612526640507E+01   5.0803612526640507E+01   5.0803612526640507E+01
   5.0803612526640507E+01   5.0803612526640507E+01   5.0803612526640507E+01   5.0803612526640507E+01   5.0803612526640507E+01
   5.0803612526640507E+01   5.0803612526640507E+01   5.0803612526640507E+01   5.0803612526640507E+01   5.0803612526640507E+01
   5.0803612526640507E+01   5.0803612526640507E+01   5.0803612526640507E+01   5.0803612526640507E+01   5.0803612526640507E+01
   5.0803612526640507E+01   5.0803612526640507E+01   5.0605454793038092E+01   5.0340085947266999E+01   5.0076107873245761E+01
   4.9813513316375953E+01   4.9552295058472914E+01   4.9292445917640279E+01   4.9033958748142325E+01   4.8776826440275009E+01
   4.8521041920234950E+01   4.8266598149987253E+01   4.8013488127131374E+01   4.7761704884766189E+01   4.7511241491353374E+01
   4.7262091050579507E+01   4.7014246701217573E+01   4.6767701616986713E+01   4.6522449006411506E+01   4.6278482112680059E+01
   4.6035794213501418E+01   4.5794378620962043E+01   4.5554228681381623E+01   4.5315337775168267E+01   4.5077699316673076E+01
   4.4841306754043998E+01   4.4606153569079446E+01   4.4372233277081342E+01   4.4139539426707600E+01   4.3908065599824624E+01
   4.3677805411359010E+01   4.3448752509149486E+01   4.3220900573798254E+01   4.2994243318522287E+01   4.2768774489004493E+01
   4.2544487863244733E+01   4.2321377251410738E+01   4.2099436495689034E+01   4.1878659470135780E+01   4.1659040080527760E+01
   4.1440572264213294E+01   4.1223249989963165E+01   4.1007067257821952E+01   4.0792018098959140E+01   4.0578096575520611E+01
   4.0365296780480151E+01   4.0153612837491359E+01   3.9943038900739552E+01   3.9733569154794097E+01   3.9525197814460917E+01
   3.9317919124635203E+01   3.9111727360154696E+01   3.8906616825652932E+01   3.8702581855413079E+01   3.8499616813221998E+01
   3.8297716092224739E+01   3.8096874114779332E+01   3.7897085332312010E+01   3.7698344225172960E+01   3.7500645302492195E+01
   3.7303983102036142E+01   3.7108352190064537E+01   3.6913747161187793E+01   3.6720162638224764E+01   3.6527593272061168E+01
   3.6336033741508118E+01   3.6145478753161662E+01   3.5955923041262338E+01   3.5767361367555381E+01   3.5579788521151691E+01
   3.5393199318388895E+01   3.5207588602693228E+01   3.5022951244441799E+01   3.4839282140825532E+01   3.4656576215712420E+01
   3.4474828419511532E+01   3.4294033729037437E+01   3.4114187147375262E+01   3.3935283703746272E+01   3.3757318453373948E+01
   3.3580286477350739E+01   3.3404182882505275E+01   3.3229002801270198E+01   3.3054741391550586E+01   3.2881393836592864E+01
   3.2708955344854374E+01   3.2537421149873481E+01   3.2366786510140273E+01   3.2197046708967783E+01   3.2028197054363915E+01
   3.1860232878903773E+01   3.1693149539602796E+01   3.1526942417790146E+01   3.1361606918983142E+01   3.1197138472761793E+01
   3.1033532532644269E+01   3.0870784575962748E+01   3.0708890103740021E+01   3.0547844640566463E+01   3.0387643734477777E+01
   3.0228282956833276E+01   3.0069757902194603E+01   2.9912064188205349E+01   2.9755197455470810E+01   2.9599153367438806E+01
   2.9443927610280692E+01   2.9289515892773139E+01   2.9135913946180462E+01   2.8983117524137537E+01   2.8831122402533204E+01
   2.8679924379394347E+01   2.8529519274770550E+01   2.8379902930619181E+01   2.8231071210691290E+01   2.8083020000417797E+01
   2.7935745206796501E+01   2.7789242758279411E+01   2.7643508604660909E+01   2.7498538716966216E+01   2.7354329087340545E+01
   2.7210875728938909E+01   2.7068174675816209E+01   2.6926221982818227E+01   2.6785013725472808E+01   2.6644545999881927E+01
   2.6504814922614024E+01   2.6365816630597138E+01   2.6227547281012306E+01   2.6090003051187814E+01   2.5953180138493742E+01
   2.5817074760237094E+01   2.5681683153557653E+01   2.5547001575324082E+01   2.5413026302030776E+01   2.5279753629695115E+01
   2.5147179873755359E+01   2.5015301368968920E+01   2.4884114469311324E+01   2.4753615547875526E+01   2.4623800996771894E+01
   2.4494667227028657E+01   2.4366210668492734E+01   2.4238427769731352E+01   2.4111314997933871E+01   2.3984868838814357E+01
   2.3859085796514506E+01   2.3733962393507159E+01   2.3609495170500217E+01   2.3485680686341240E+01   2.3362515517922290E+01
   2.3239996260085480E+01   2.3118119525528922E+01   2.2996881944713120E+01   2.2876280165767991E+01   2.2756310854400166E+01
   2.2636970693800993E+01   2.2518256384554874E+01   2.2400164644548088E+01   2.2282692208878132E+01   2.2165835829763587E+01
   2.2049592276454277E+01   2.1933958335142069E+01   2.1818930808872107E+01   2.1704506517454369E+01   2.1590682297375903E+01
   2.1477455001713345E+01   2.1364821500046016E+01   2.1252778678369321E+01   2.1141323439008815E+01   2.1030452700534482E+01
   2.0920163397675683E+01   2.0810452481236322E+01   2.0701316918010711E+01   2.0592753690699620E+01   2.0484759797826957E+01
   2.0377332253656803E+01   2.0270468088110849E+01   2.0164164346686356E+01   2.0058418090374449E+01   1.9953226395578909E+01
   1.9848586354035348E+01   1.9744495072730839E+01   1.9640949673823950E+01   1.9537947294565139E+01   1.9435485087217728E+01
   1.9333560218979063E+01   1.9232169871902343E+01   1.9131311242818580E+01   1.9030981543259241E+01   1.8931177999379045E+01
   1.8831897851879411E+01   1.8733138355932070E+01   1.8634896781103254E+01   1.8537170411278186E+01   1.8439956544586000E+01
   1.8343252493325089E+01   1.8247055583888720E+01   1.8151363156691211E+01   1.8056172566094332E+01   1.7961481180334239E+01
   1.7867286381448658E+01   1.7773585565204556E+01   1.7680376141026091E+01   1.7587655531923048E+01   1.7495421174419597E+01
   1.7403670518483359E+01   1.7312401027455007E+01   1.7221610177978036E+01   1.7131295459929067E+01   1.7041454376348451E+01
   1.6952084443371177E+01   1.6863183190158317E+01   1.6774748158828576E+01   1.6686776904390474E+01   1.6599266994674629E+01
   1.6512216010266641E+01   1.6425621544440069E+01   1.6339481203090038E+01   1.6253792604666895E+01   1.6168553380110513E+01
   1.6083761172784694E+01   1.5999413638412054E+01   1.5915508445009229E+01   1.5832043272822352E+01   1.5749015814262997E+01
   1.5666423773844247E+01   1.5584264868117417E+01   1.5502536825608752E+01   1.5421237386756749E+01   1.5340364303849597E+01
   1.5259915340963117E+01   1.5179888273898863E+01   1.5100280890122713E+01   1.5021090988703611E+01   1.4942316380252796E+01
   1.4863954886863230E+01   1.4786004342049390E+01   1.4708462590687386E+01   1.4631327488955355E+01   1.4554596904274216E+01
   1.4478268715248698E+01   1.4402340811608651E+01   1.4326811094150798E+01   1.4251677474680601E+01   1.4176937875954593E+01
   1.4102590231622891E+01   1.4028632486172132E+01   1.3955062594868588E+01   1.3881878523701678E+01   1.3809078249327696E+01
   1.3736659759013891E+01   1.3664621050582822E+01   1.3592960132356993E+01   1.3521675023103809E+01   1.3450763751980771E+01
   1.3380224358481016E+01   1.3310054892379071E+01   1.3240253413677010E+01   1.3170817992550722E+01   1.3101746709296657E+01
   1.3033037654278658E+01   1.2964688927875251E+01   1.2896698640427047E+01   1.2829064912184553E+01   1.2761785873256171E+01
   1.2694859663556526E+01   1.2628284432755018E+01   1.2562058340224688E+01   1.2496179554991286E+01   1.2430646255682708E+01
   1.2365456630478597E+01   1.2300608877060274E+01   1.2236101202560874E+01   1.2171931823515843E+01   1.2108098965813555E+01
   1.2044600864646332E+01   1.1981435764461585E+01   1.1918601918913341E+01   1.1856097590813897E+01   1.1793921052085865E+01
   1.1732070583714314E+01   1.1670544475699325E+01   1.1609341027008650E+01   1.1548458545530709E+01   1.1487895348027822E+01
   1.1427649760089638E+01   1.1367720116086879E+01   1.1308104759125250E+01   1.1248802040999676E+01   1.1189810322148679E+01
   1.1131127971609105E+01   1.1072753366970995E+01   1.1014684894332740E+01   1.0956920948256469E+01   1.0899459931723650E+01
   1.0842300256090935E+01   1.0785440341046254E+01   1.0728878614565115E+01   1.0672613512867152E+01   1.0616643480372851E+01
   1.0560966969660596E+01   1.0505582441423856E+01   1.0450488364428642E+01   1.0395683215471148E+01   1.0341165479335668E+01
   1.0286933648752687E+01   1.0232986224357214E+01   1.0179321714647335E+01   1.0125938635942951E+01   1.0072835512344795E+01
   1.0020010875693607E+01   9.9674632655295383E+00   9.9151912290517838E+00   9.8631933210784162E+00   9.8114681040064315E+00
   9.7600141477719919E+00   9.7088300298108976E+00   9.6579143350192584E+00   9.6072656557143628E+00   9.5568825915957643E+00
   9.5067637497065594E+00   9.4569077443948935E+00   9.4073131972756379E+00   9.3579787371922727E+00   9.3089030001790007E+00
   9.2600846294230230E+00   9.2115222752270167E+00   9.1632145949718495E+00   9.1151602530794307E+00   9.0673579209758071E+00
   9.0198062770544052E+00   8.9725040066395216E+00   8.9254498019499646E+00   8.8786423620628927E+00   8.8320803928778417E+00
   8.7857626070809705E+00   8.7396877241094462E+00   8.6938544701160492E+00   8.6482615779339671E+00   8.6029077870417225E+00
   8.5577918435283742E+00   8.5129125000588139E+00   8.4682685158392843E+00   8.4238586565830964E+00   8.3796816944764814E+00
   8.3357364081446548E+00   8.2920215826180463E+00   8.2485360092987108E+00   8.2052784859269199E+00   8.1622478165479020E+00
   8.1194428114788035E+00   8.0768622872757749E+00   8.0345050667012714E+00   7.9923699786914923E+00   7.9504558583240064E+00
   7.9087615467855503E+00   7.8672858913399866E+00   7.8260277452964235E+00   7.7849859679775335E+00   7.7441594246880090E+00
   7.7035469866831674E+00   7.6631475311377830E+00   7.6229599411150186E+00   7.5829831055355514E+00   7.5432159191468617E+00
   7.5036572824926546E+00   7.4643061018824897E+00   7.4251612893615260E+00   7.3862217626804494E+00   7.3474864452655551E+00
   7.3089542661889624E+00   7.2706241601390369E+00   7.2324950673909205E+00   7.1945659337772279E+00   7.1568357106589131E+00
   7.1193033548962745E+00   7.0819678288201144E+00   7.0448281002030440E+00   7.0078831422309538E+00   6.9711319334746245E+00
   6.9345734578614744E+00   6.8982067046474880E+00   6.8620306683892522E+00   6.8260443489161720E+00   6.7902467513028162E+00
   6.7546368858414052E+00   6.7192137680144493E+00   6.6839764184675374E+00   6.6489238629822429E+00   6.6140551324492129E+00
   6.5793692628413583E+00   6.5448652951871962E+00   6.5105422755443589E+00   6.4763992549732015E+00   6.4424352895105716E+00
   6.4086494401437157E+00   6.3750407727843026E+00   6.3416083582426213E+00   6.3083512722018735E+00   6.2752685951926273E+00
   6.2423594125673967E+00   6.2096228144753383E+00   6.1770578958371241E+00   6.1446637563198978E+00   6.1124395003123855E+00
   6.0803842369001417E+00   6.0484970798409137E+00   6.0167771475401404E+00   5.9852235630265733E+00   5.9538354539280416E+00
   5.9226119524473244E+00   5.8915521953381571E+00   5.8606553238813692E+00   5.8299204838611471E+00   5.7993468255414129E+00
   5.7689335036423257E+00   5.7386796773169255E+00   5.7085845101278707E+00   5.6786471700243268E+00   5.6488668293189477E+00
   5.6192426646650073E+00   5.5897738570336308E+00   5.5604595916911386E+00   5.5312990581765442E+00   5.5022914502791265E+00
   5.4734359660161545E+00   5.4447318076107072E+00   5.4161781814696122E+00   5.3877742981615189E+00   5.3595193723950620E+00
   5.3314126229971555E+00   5.3034532728913950E+00   5.2756405490765630E+00   5.2479736826052763E+00   5.2204519085627155E+00
   5.1930744660454726E+00   5.1658405981405267E+00   5.1387495519043069E+00   5.1118005783418825E+00   5.0849929323862479E+00
   5.0583258728777309E+00   5.0317986625435012E+00   5.0054105679771750E+00   4.9791608596185499E+00   4.9530488117334386E+00
   4.9270737023935913E+00   4.9012348134567452E+00   4.8755314305467650E+00   4.8499628430338975E+00   4.8245283440151194E+00
   4.7992272302945933E+00   4.7740588023642321E+00   4.7490223643843574E+00   4.7241172241644511E+00   4.6993426931440343E+00
   4.6746980863736223E+00   4.6501827224957859E+00   4.6257959237263204E+00   4.6015370158354933E+00   4.5774053281294211E+00
   4.5534001934315160E+00   4.5295209480640404E+00   4.5057669318297648E+00   4.4821374879936995E+00   4.4586319632649571E+00
   4.4352497077786843E+00   4.4119900750780809E+00   4.3888524220965497E+00   4.3658361091399023E+00   4.3429404998686758E+00
   4.3201649612805433E+00   4.2975088636928120E+00   4.2749715807250084E+00   4.2525524892815705E+00   4.2302509695346107E+00
   4.2080664049067895E+00   4.1859981820542593E+00   4.1640456908497141E+00   4.1422083243655168E+00   4.1204854788569207E+00
   4.0988765537453791E+00   4.0773809516019384E+00   4.0559980781307194E+00   4.0347273421524932E+00   4.0135681555883291E+00
   3.9925199334433406E+00   3.9715820937905133E+00   3.9507540577546068E+00   3.9300352494961626E+00   3.9094250961955757E+00
   3.8889230280372606E+00   3.8685284781938956E+00   3.8482408828107535E+00   3.8280596809901142E+00   3.8079843147757484E+00
   3.7880142291375032E+00   3.7681488719559524E+00   3.7483876940071279E+00   3.7287301489473412E+00   3.7091756932980755E+00
   3.6897237864309624E+00   3.6703738905528240E+00   3.6511254706908227E+00   3.6319779946776594E+00   3.6129309331368615E+00
   3.5939837594681445E+00   3.5751359498328612E+00   3.5563869831395110E+00   3.5377363410293374E+00   3.5191835078619964E+00
   3.5007279707012970E+00   3.4823692193010252E+00   3.4641067460908337E+00   3.4459400461622050E+00   3.4278686172545028E+00
   3.4098919597410791E+00   3.3920095766154539E+00   3.3742209734775903E+00   3.3565256585202126E+00   3.3389231425152168E+00
   3.3214129388001385E+00   3.3039945632647032E+00   3.2866675343374379E+00   3.2694313729723623E+00   3.2522856026357356E+00
   3.2352297492928916E+00   3.2182633413951267E+00   3.2013859098666648E+00   3.1845969880916885E+00   3.1678961119014373E+00
   3.1512828195613771E+00   3.1347566517584342E+00   3.1183171515882870E+00   3.1019638645427512E+00   3.0856963384972014E+00
   3.0695141236980761E+00   3.0534167727504369E+00   3.0374038406056072E+00   3.0214748845488648E+00   3.0056294641872006E+00
   2.9898671414371432E+00   2.9741874805126494E+00   2.9585900479130540E+00   2.9430744124110846E+00   2.9276401450409373E+00
   2.9122868190864226E+00   2.8970140100691668E+00   2.8818212957368643E+00   2.8667082560516230E+00   2.8516744731783379E+00
   2.8367195314731428E+00   2.8218430174719193E+00   2.8070445198788656E+00   2.7923236295551228E+00   2.7776799395074683E+00
   2.7631130448770569E+00   2.7486225429282336E+00   2.7342080330373970E+00   2.7198691166819211E+00   2.7056053974291401E+00
   2.6914164809253860E+00   2.6773019748850881E+00   2.6632614890799267E+00   2.6492946353280358E+00   2.6354010274832884E+00
   2.6215802814246070E+00   2.6078320150453473E+00   2.5941558482427332E+00   2.5805514029073509E+00   2.5670183029126918E+00
   2.5535561741047568E+00   2.5401646442917083E+00   2.5268433432335828E+00   2.5135919026320543E+00   2.5004099561202522E+00
   2.4872971392526275E+00   2.4742530894948853E+00   2.4612774462139586E+00   2.4483698506680280E+00   2.4355299459966200E+00
   2.4227573772107305E+00   2.4100517911830117E+00   2.3974128366380096E+00   2.3848401641424544E+00   2.3723334260955951E+00
   2.3598922767195933E+00   2.3475163720499603E+00   2.3352053699260509E+00   2.3229589299815996E+00   2.3107767136353146E+00
   2.2986583840815134E+00   2.2866036062808122E+00   2.2746120469508635E+00   2.2626833745571435E+00   2.2508172593037781E+00
   2.2390133731244348E+00   2.2272713896732492E+00   2.2155909843158015E+00   2.2039718341201384E+00   2.1924136178478504E+00
   2.1809160159451872E+00   2.1694787105342255E+00   2.1581013854040747E+00   2.1467837260021416E+00   2.1355254194254303E+00
   2.1243261544118921E+00   2.1131856213318163E+00   2.1021035121792764E+00   2.0910795205636123E+00   2.0801133417009519E+00
   2.0692046724057973E+00   2.0583532110826344E+00   2.0475586577175955E+00   2.0368207138701666E+00   2.0261390826649355E+00
   2.0155134687833831E+00   2.0049435784557206E+00   1.9944291194527639E+00   1.9839698010778588E+00   1.9735653341588426E+00
   1.9632154310400460E+00   1.9529198055743444E+00   1.9426781731152449E+00   1.9324902505090171E+00   1.9223557560868656E+00
   1.9122744096571351E+00   1.9022459324975771E+00   1.8922700473476355E+00   1.8823464784007791E+00   1.8724749512968824E+00
   1.8626551931146385E+00   1.8528869323640100E+00   1.8431698989787282E+00   1.8335038243088218E+00   1.8238884411131930E+00
   1.8143234835522284E+00   1.8048086871804454E+00   1.7953437889391863E+00   1.7859285271493432E+00   1.7765626415041231E+00
   1.7672458730618517E+00   1.7579779642388105E+00   1.7487586588021231E+00   1.7395877018626653E+00   1.7304648398680189E+00
   1.7213898205954621E+00   1.7123623931449969E+00   1.7033823079324124E+00   1.6944493166823817E+00   1.6855631724216016E+00
   1.6767236294719636E+00   1.6679304434437583E+00   1.6591833712289230E+00   1.6504821709943183E+00   1.6418266021750416E+00
   1.6332164254677783E+00   1.6246514028241805E+00   1.6161312974442938E+00   1.6076558737700033E+00   1.5992248974785239E+00
   1.5908381354759236E+00   1.5824953558906738E+00   1.5741963280672449E+00   1.5659408225597253E+00   1.5577286111254791E+00
   1.5495594667188348E+00   1.5414331634848106E+00   1.5333494767528666E+00   1.5253081830306967E+00   1.5173090599980468E+00
   1.5093518865005717E+00   1.5014364425437132E+00   1.4935625092866291E+00   1.4857298690361338E+00   1.4779383052406851E+00
   1.4701876024843905E+00   1.4624775464810593E+00   1.4548079240682743E+00   1.4471785232014986E+00   1.4395891329482118E+00
   1.4320395434820818E+00   1.4245295460771605E+00   1.4170589331021148E+00   1.4096274980144849E+00   1.4022350353549748E+00
   1.3948813407417724E+00   1.3875662108648976E+00   1.3802894434805806E+00   1.3730508374056731E+00   1.3658501925120854E+00
   1.3586873097212511E+00   1.3515619909986252E+00   1.3444740393482082E+00   1.3374232588071024E+00   1.3304094544400855E+00
   1.3234324323342328E+00   1.3164919995935482E+00   1.3095879643336332E+00   1.3027201356763827E+00   1.2958883237447056E+00
   1.2890923396572775E+00   1.2823319955233172E+00   1.2756071044373933E+00   1.2689174804742529E+00   1.2622629386836866E+00
   1.2556432950854124E+00   1.2490583666639887E+00   1.2425079713637555E+00   1.2359919280837999E+00   1.2295100566729495E+00
   1.2230621779247934E+00   1.2166481135727238E+00   1.2102676862850117E+00   1.2039207196599013E+00   1.1976070382207311E+00
   1.1913264674110882E+00   1.1850788335899773E+00   1.1788639640270233E+00   1.1726816868976901E+00   1.1665318312785375E+00
   1.1604142271424900E+00   1.1543287053541387E+00   1.1482750976650631E+00   1.1422532367091824E+00   1.1362629559981243E+00
   1.1303040899166241E+00   1.1243764737179469E+00   1.1184799435193302E+00   1.1126143362974541E+00   1.1067794898839347E+00
   1.1009752429608379E+00   1.0952014350562236E+00   1.0894579065397056E+00   1.0837444986180353E+00   1.0780610533307204E+00
   1.0724074135456496E+00   1.0667834229547484E+00   1.0611889260696630E+00   1.0556237682174563E+00   1.0500877955363344E+00
   1.0445808549713882E+00   1.0391027942703674E+00   1.0336534619794671E+00   1.0282327074391409E+00   1.0228403807799353E+00
   1.0174763329183474E+00   1.0121404155527005E+00   1.0068324811590461E+00   1.0015523829870834E+00   9.9629997505609980E-01
   9.9107511215094024E-01   9.8587764981798698E-01   9.8070744436116708E-01   9.7556435283798026E-01   9.7044823305554406E-01
   9.6535894356666574E-01   9.6029634366592587E-01   9.5526029338579388E-01   9.5025065349275362E-01   9.4526728548345551E-01
   9.4031005158088543E-01   9.3537881473055573E-01   9.3047343859671550E-01   9.2559378755858024E-01   9.2073972670658288E-01
   9.1591112183863965E-01   9.1110783945644458E-01   9.0632974676177402E-01   9.0157671165281494E-01   8.9684860272051337E-01
   8.9214528924493863E-01   8.8746664119166951E-01   8.8281252920819864E-01   8.7818282462035357E-01   8.7357739942874191E-01
   8.6899612630520495E-01   8.6443887858930446E-01   8.5990553028481420E-01   8.5539595605623675E-01   8.5091003122533881E-01
   8.4644763176769888E-01   8.4200863430928197E-01   8.3759291612302444E-01   8.3320035512543966E-01   8.2883082987324275E-01
   8.2448421955998941E-01   8.2016040401273649E-01   8.1585926368871642E-01   8.1158067967203096E-01   8.0732453367036250E-01
   8.0309070801170024E-01   7.9887908564108678E-01   7.9468955011737819E-01   7.9052198561002374E-01   7.8637627689586220E-01
   7.8225230935593060E-01   7.7814996897229716E-01   7.7406914232490531E-01   7.7000971658843298E-01   7.6597157952917438E-01
   7.6195461950193233E-01   7.5795872544692944E-01   7.5398378688673429E-01   7.5002969392320451E-01   7.4609633723444457E-01
   7.4218360807178096E-01   7.3829139825675250E-01   7.3441960017811425E-01   7.3056810678886130E-01   7.2673681160326320E-01
   7.2292560869391831E-01   7.1913439268881740E-01   7.1536305876843154E-01   7.1161150266280582E-01   7.0787962064867360E-01
   7.0416730954658402E-01   7.0047446671804492E-01   6.9680099006267993E-01   6.9314677801539859E-01   6.8951172954358764E-01
   6.8589574414430798E-01   6.8229872184151275E-01   6.7872056318327556E-01   6.7516116923903680E-01   6.7162044159686030E-01
   6.6809828236070679E-01   6.6459459414772193E-01   6.6110928008553249E-01   6.5764224380956693E-01   6.5419338946037919E-01
   6.5076262168099208E-01   6.4734984561425368E-01   6.4395496690020460E-01   6.4057789167346235E-01   6.3721852656061662E-01
   6.3387677867763847E-01   6.3055255562730361E-01   6.2724576549662547E-01   6.2395631685430786E-01   6.2068411874820384E-01
   6.1742908070279123E-01   6.1419111271666016E-01   6.1097012526001149E-01   6.0776602927217260E-01   6.0457873615912028E-01
   6.0140815779102008E-01   5.9825420649977556E-01   5.9511679507659110E-01   5.9199583676954770E-01   5.8889124528118808E-01
   5.8580293476611833E-01   5.8273081982861730E-01   5.7967481552025968E-01   5.7663483733755194E-01   5.7361080121957841E-01
   5.7060262354566049E-01   5.6761022113302428E-01   5.6463351123448524E-01   5.6167241153614034E-01   5.5872684015507157E-01
   5.5579671563706068E-01   5.5288195695431963E-01   5.4998248350322521E-01   5.4709821510207057E-01   5.4422907198882298E-01
   5.4137497481889696E-01   5.3853584466293503E-01   5.3571160300459975E-01   5.3290217173837795E-01   5.3010747316739382E-01
   5.2732743000123361E-01   5.2456196535377975E-01   5.2181100274105607E-01   5.1907446607908203E-01   5.1635227968173991E-01
   5.1364436825864912E-01   5.1095065691305130E-01   5.0827107113970615E-01   5.0560553682279730E-01   5.0295398023384419E-01
   5.0031632802963044E-01   4.9769250725013559E-01   4.9508244531647932E-01   4.9248607002887451E-01   4.8990330956458883E-01
   4.8733409247591691E-01   4.8477834768816097E-01   4.8223600449762016E-01   4.7970699256958976E-01   4.7719124193636703E-01
   4.7468868299527017E-01   4.7219924650666123E-01   4.6972286359198068E-01   4.6725946573178878E-01   4.6480898476381716E-01
   4.6237135288102682E-01   4.5994650262967562E-01   4.5753436690739319E-01   4.5513487896126542E-01   4.5274797238592357E-01
   4.5037358112164549E-01   4.4801163945246192E-01   4.4566208200427099E-01   4.4332484374296027E-01   4.4099985997253582E-01
   4.3868706633326093E-01   4.3638639879979946E-01   4.3409779367936685E-01   4.3182118760988991E-01   4.2955651755817170E-01
   4.2730372081806400E-01   4.2506273500864694E-01   4.2283349807241466E-01   4.2061594827346793E-01   4.1841002419571333E-01
   4.1621566474106830E-01   4.1403280912767293E-01   4.1186139688810808E-01   4.0970136786761768E-01   4.0755266222234077E-01
   4.0541522041754524E-01   4.0328898322587048E-01   4.0117389172557183E-01   3.9906988729877585E-01   3.9697691162973625E-01
   3.9489490670309718E-01   3.9282381480216139E-01   3.9076357850716292E-01   3.8871414069354554E-01   3.8667544453024510E-01
   3.8464743347797692E-01   3.8263005128752781E-01   3.8062324199805231E-01   3.7862694993537294E-01   3.7664111971028541E-01
   3.7466569621686591E-01   3.7270062463078563E-01   3.7074585040762575E-01   3.6880131928119769E-01   3.6686697726186623E-01
   3.6494277063487685E-01   3.6302864595868423E-01   3.6112455006328709E-01   3.5923043004856270E-01   3.5734623328260612E-01
   3.5547190740007123E-01   3.5360740030051463E-01   3.5175266014674161E-01   3.4990763536315472E-01   3.4807227463410356E-01
   3.4624652690223784E-01   3.4443034136685974E-01   3.4262366748228135E-01   3.4082645495618041E-01   3.3903865374795827E-01
   3.3726021406710011E-01   3.3549108637153380E-01   3.3373122136599193E-01   3.3198057000037268E-01   3.3023908346810221E-01
   3.2850671320449526E-01   3.2678341088512003E-01   3.2506912842415786E-01   3.2336381797276631E-01   3.2166743191744013E-01
   3.1997992287837207E-01   3.1830124370781193E-01   3.1663134748842664E-01   3.1497018753165740E-01   3.1331771737607528E-01
   3.1167389078573654E-01   3.1003866174853523E-01   3.0841198447455370E-01   3.0679381339441153E-01   3.0518410315761163E-01
   3.0358280863088366E-01   3.0198988489652506E-01   3.0040528725073867E-01   2.9882897120196739E-01   2.9726089246922494E-01
   2.9570100698042306E-01   2.9414927087069564E-01   2.9260564048071835E-01   2.9107007235502197E-01   2.8954252324030444E-01
   2.8802295008373641E-01   2.8651131003126101E-01   2.8500756042588998E-01   2.8351165880599316E-01   2.8202356290358255E-01
   2.8054323064259079E-01   2.7907062013714262E-01   2.7760568968982058E-01   2.7614839778992362E-01   2.7469870311171873E-01
   2.7325656451268526E-01   2.7182194103175283E-01   2.7039479188752819E-01   2.6897507647651953E-01   2.6756275437134691E-01
   2.6615778531894813E-01   2.6476012923877318E-01   2.6336974622097176E-01   2.6198659652456868E-01   2.6061064057563360E-01
   2.5924183896543684E-01   2.5788015244859724E-01   2.5652554194121913E-01   2.5517796851901836E-01   2.5383739341543726E-01
   2.5250377801974844E-01   2.5117708387514703E-01   2.4985727267683061E-01   2.4854430627006702E-01   2.4723814664825061E-01
   2.4593875595094439E-01   2.4464609646190952E-01   2.4336013060712200E-01   2.4208082095277497E-01   2.4080813020326711E-01
   2.3954202119917742E-01   2.3828245691522484E-01   2.3702940045821227E-01   2.3578281506495777E-01   2.3454266410020766E-01
   2.3330891105453555E-01   2.3208151954222447E-01   2.3086045329913329E-01   2.2964567618054507E-01   2.2843715215900118E-01
   2.2723484532211552E-01   2.2603871987037227E-01   2.2484874011490608E-01   2.2366487047526365E-01   2.2248707547714741E-01
   2.2131531975014032E-01   2.2014956802541147E-01   2.1898978513340300E-01   2.1783593600149748E-01   2.1668798565166522E-01
   2.1554589919809194E-01   2.1440964184478645E-01   2.1327917888316661E-01   2.1215447568962714E-01   2.1103549772308397E-01
   2.0992221052249826E-01   2.0881457970438055E-01   2.0771257096027104E-01   2.0661615005420025E-01   2.0552528282012630E-01
   2.0443993515935127E-01   2.0336007303791465E-01   2.0228566248396518E-01   2.0121666958510942E-01   2.0015306048573864E-01
   1.9909480138433308E-01   1.9804185853074241E-01   1.9699419822344566E-01   1.9595178680678590E-01   1.9491459066818412E-01
   1.9388257623532978E-01   1.9285570997334886E-01   1.9183395838194867E-01   1.9081728799254144E-01   1.8980566536534402E-01
   1.8879905708645700E-01   1.8779742976492100E-01   1.8680075002975113E-01   1.8580898452695030E-01   1.8482209991650089E-01
   1.8384006286933652E-01   1.8286284006429213E-01   1.8189039818503513E-01   1.8092270391697599E-01   1.7995972394416096E-01
   1.7900142494614482E-01   1.7804777359484725E-01   1.7709873655139155E-01   1.7615428046292633E-01   1.7521437195943246E-01
   1.7427897765051450E-01   1.7334806412217937E-01   1.7242159793360073E-01   1.7149954561387354E-01   1.7058187365875546E-01
   1.6966854852740190E-01   1.6875953663909102E-01   1.6785480436994224E-01   1.6695431804963104E-01   1.6605804395809845E-01
   1.6516594832225973E-01   1.6427799731271311E-01   1.6339415704045063E-01   1.6251439355357136E-01   1.6163867283400254E-01
   1.6076696079422845E-01   1.5989922327402900E-01   1.5903542603723336E-01   1.5817553476848767E-01   1.5731951507004274E-01
   1.5646733245856262E-01   1.5561895236195863E-01   1.5477434011625049E-01   1.5393346096245950E-01   1.5309628004353698E-01
   1.5226276240133085E-01   1.5143287297359581E-01   1.5060657659104904E-01   1.4978383797447950E-01   1.4896462173191088E-01
   1.4814889235582640E-01   1.4733661422045871E-01   1.4652775157915124E-01   1.4572226856179474E-01   1.4492012917234717E-01
   1.4412129728644010E-01   1.4332573664908013E-01   1.4253341087245064E-01   1.4174428343382017E-01   1.4095831767356601E-01
   1.4017547679331818E-01   1.3939572385423357E-01   1.3861902177540544E-01   1.3784533333242005E-01   1.3707462115606489E-01
   1.3630684773120044E-01   1.3554197539580218E-01   1.3477996634018508E-01   1.3402078260641748E-01   1.3326438608793581E-01
   1.3251073852937151E-01   1.3175980152659866E-01   1.3101153652701578E-01   1.3026590483007264E-01   1.2952286758805279E-01
   1.2878238580712603E-01   1.2804442034868188E-01   1.2730893193095832E-01   1.2657588113097795E-01   1.2584522838680673E-01
   1.2511693400014806E-01   1.2439095813928810E-01   1.2366726084240573E-01   1.2294580202126411E-01   1.2222654146529763E-01
   1.2150943884611222E-01   1.2079445372241290E-01   1.2008154554537810E-01   1.1937067366449548E-01   1.1866179733387687E-01
   1.1795487571907141E-01   1.1724986790439275E-01   1.1654673290077994E-01   1.1584542965420952E-01   1.1514591705467803E-01
   1.1444815394577267E-01   1.1375209913485070E-01   1.1305771140384467E-01   1.1236494952071437E-01   1.1167377225156348E-01
   1.1098413837343991E-01   1.1029600668784204E-01   1.0960933603494435E-01   1.0892408530856719E-01   1.0824021347190514E-01
   1.0755767957403559E-01   1.0687644276722315E-01   1.0619646232504003E-01   1.0551769766131761E-01   1.0484010834994828E-01
   1.0416365414555191E-01   1.0348829500502314E-01   1.0281399110997508E-01   1.0214070289009165E-01   1.0146839104740361E-01
   1.0079701658149781E-01   1.0012654081567240E-01   9.9456925424045883E-02   9.8788132459628766E-02   9.8120124383364288E-02
   9.7452864094141931E-02   9.6786314959788497E-02   9.6120440849035871E-02   9.5455206164466164E-02   9.4790575876429112E-02
   9.4126515557928919E-02   9.3462991420469502E-02   9.2799970350849498E-02   9.2137419948892685E-02   9.1475308566097979E-02
   9.0813605345189105E-02   9.0152280260540382E-02   8.9491304159455554E-02   8.8830648804265708E-02   8.8170286915216126E-02
   8.7510192214103749E-02   8.6850339468623777E-02   8.6190704537381077E-02   8.5531264415515604E-02   8.4871997280889247E-02
   8.4212882540774581E-02   8.3553900878983484E-02   8.2895034303367102E-02   8.2236266193615903E-02   8.1577581349281031E-02
   8.0918966037936815E-02   8.0260408043395334E-02   7.9601896713882403E-02   7.8943423010078548E-02   7.8284979552921130E-02
   7.7626560671063036E-02   7.6968162447875285E-02   7.6309782767877865E-02   7.5651421362477531E-02   7.4993079854888109E-02
   7.4334761804102770E-02   7.3676472747785882E-02   7.3018220243945775E-02   7.2360013911248980E-02   7.1701865467829903E-02
   7.1043788768450952E-02   7.0385799839861637E-02   6.9727916914204921E-02   6.9070160460320315E-02   6.8412553212783958E-02
   6.7755120198534594E-02   6.7097888760927524E-02   6.6440888581062146E-02   6.5784151696228962E-02   6.5127712515322692E-02
   6.4471607831071920E-02   6.3815876828938328E-02   6.3160561092540535E-02   6.2505704605464757E-02   6.1851353749327598E-02
   6.1197557297963015E-02   6.0544366407612286E-02   5.9891834603002715E-02   5.9240017759210055E-02   5.8588974079207295E-02
   5.7938764067013801E-02   5.7289450496368119E-02   5.6641098374859492E-02   5.5993774903465555E-02   5.5347549431455333E-02
   5.4702493406631469E-02   5.4058680320897189E-02   5.3416185651152012E-02   5.2775086795529558E-02   5.2135463005012053E-02
   5.1497395310467500E-02   5.0860966445174613E-02   5.0226260762915108E-02   4.9593364151729456E-02   4.8962363943452665E-02
   4.8333348819155672E-02   4.7706408710642703E-02   4.7081634698165988E-02   4.6459118904537369E-02   4.5838954385831909E-02
   4.5221235018893344E-02   4.4606055385866955E-02   4.3993510655998387E-02   4.3383696464951424E-02   4.2776708791909479E-02
   4.2172643834737789E-02   4.1571597883493482E-02   4.0973667192581109E-02   4.0378947851858596E-02   3.9787535657006566E-02
   3.9199525979481224E-02   3.8615013636372181E-02   3.8034092760494520E-02   3.7456856671042843E-02   3.6883397745137866E-02
   3.6313807290593816E-02   3.5748175420234056E-02   3.5186590928077341E-02   3.4629141167713151E-02   3.4075911933177355E-02
   3.3526987342632077E-02   3.2982449725143997E-02   3.2442379510845575E-02   3.1906855124751318E-02   3.1375952884487968E-02
   3.0849746902186920E-02   3.0328308990765825E-02   2.9811708574817412E-02   2.9300012606302359E-02   2.8793285485227554E-02
   2.8291588985472554E-02   2.7794982185908399E-02   2.7303521406934046E-02   2.6817260152537156E-02   2.6336249057964462E-02
   2.5860535843069528E-02   2.5390165271384813E-02   2.4925179114945614E-02   2.4465616124874457E-02   2.4011512007715001E-02
   2.3562899407486460E-02   2.3119807893410900E-02   2.2682263953248381E-02   2.2250290992158285E-02   2.1823909336988280E-02
   2.1403136245877811E-02   2.0987985923047608E-02   2.0578469538633813E-02   2.0174595253411441E-02   1.9776368248242318E-02
   1.9383790758068672E-02   1.8996862110266972E-02   1.8615578767166033E-02   1.8239934372526349E-02   1.7869919801771425E-02
   1.7505523215754916E-02   1.7146730117846214E-02   1.6793523414108641E-02   1.6445883476346897E-02   1.6103788207796014E-02
   1.5767213111224334E-02   1.5436131359223754E-02   1.5110513866460975E-02   1.4790329363666411E-02   1.4475544473139465E-02
   1.4166123785553097E-02   1.3862029937844342E-02   1.3563223691982729E-02   1.3269664014413676E-02   1.2981308155980165E-02
   1.2698111732132242E-02   1.2420028803240635E-02   1.2147011954838902E-02   1.1879012377624256E-02   1.1615979947056980E-02
   1.1357863302404974E-02   1.1104609925088811E-02   1.0856166216190661E-02   1.0612477572999003E-02   1.0373488464469215E-02
   1.0139142505488837E-02   9.9093825298442739E-03   9.6841506617943839E-03   9.4633883861641576E-03   9.2470366168801686E-03
   9.0350357638769759E-03   8.8273257983112387E-03   8.6238463160290876E-03   8.4245365992369741E-03   8.2293356763360661E-03
   8.0381823798851212E-03   7.8510154026640942E-03   7.6677733518166974E-03   7.4883948010561431E-03   7.3128183409237879E-03
   7.1409826270962783E-03   6.9728264267409279E-03   6.8082886629247073E-03   6.6473084570862423E-03   6.4898251695844032E-03
   6.3357784383410972E-03   6.1851082155992684E-03   6.0377548028206383E-03   5.8936588837505488E-03   5.7527615556801524E-03
   5.6150043589387024E-03   5.4803293046508626E-03   5.3486789007960939E-03   5.2199961766088154E-03   5.0942247053597772E-03
   4.9713086255600862E-03   4.8511926606311208E-03   4.7338221370835775E-03   4.6191430012505440E-03   4.5071018346195873E-03
   4.3976458678093716E-03   4.2907229932367397E-03   4.1862817765199109E-03   4.0842714666643855E-03   3.9846420050765842E-03
   3.8873440334514136E-03   3.7923289005787953E-03   3.6995486681139873E-03   3.6089561153560437E-03   3.5205047430780434E-03
   3.4341487764521675E-03   3.3498431671118278E-03   3.2675435943924011E-03   3.1872064657910968E-03   3.1087889166857871E-03
   3.0322488093514986E-03   2.9575447313124848E-03   2.8846359930665747E-03   2.8134826252178510E-03   2.7440453750521669E-03
   2.6762857025894116E-03   2.6101657761451692E-03   2.5456484674333505E-03   2.4826973462403925E-03   2.4212766747004769E-03
   2.3613514012002291E-03   2.3028871539402386E-03   2.2458502341797713E-03   2.1902076091899385E-03   2.1359269049396365E-03
   2.0829763985375101E-03   2.0313250104522485E-03   1.9809422965325510E-03   1.9317984398470745E-03   1.8838642423639172E-03
   1.8371111164881141E-03   1.7915110764747783E-03   1.7470367297347448E-03   1.7036612680486492E-03   1.6613584587045949E-03
   1.6201026355737148E-03   1.5798686901373424E-03   1.5406320624784719E-03   1.5023687322497769E-03   1.4650552096295523E-03
   1.4286685262763854E-03   1.3931862262926609E-03   1.3585863572064245E-03   1.3248474609804971E-03   1.2919485650571931E-03
   1.2598691734464172E-03   1.2285892578643934E-03   1.1980892489297961E-03   1.1683500274235216E-03   1.1393529156179226E-03
   1.1110796686808655E-03   1.0835124661595075E-03   1.0566339035484095E-03   1.0304269839460191E-03   1.0048751098033994E-03
   9.7996207476858002E-04   9.5567205562964767E-04   9.3198960435936760E-04   9.0889964026380358E-04   8.8638744223716397E-04
   8.6443864112474870E-04   8.4303921219581242E-04   8.2217546772760889E-04   8.0183404970196050E-04   7.8200192261531514E-04
   7.6266636640308285E-04   7.4381496947887845E-04   7.2543562188909715E-04   7.0751650858310211E-04   6.9004610279912071E-04
   6.7301315956583133E-04   6.5640670931945940E-04   6.4021605163609491E-04   6.2443074907880846E-04   6.0904062115902985E-04
   5.9403573841160175E-04   5.7940641658272608E-04   5.6514321093003683E-04   5.5123691063388880E-04   5.3767853331890508E-04
   5.2445931968474126E-04   5.1157072824497597E-04   4.9900443017297216E-04   4.8675230425351010E-04   4.7480643193893528E-04
   4.6315909250853240E-04   4.5180275832979583E-04   4.4073009022023706E-04   4.2993393290833095E-04   4.1940731059219070E-04
   4.0914342259452605E-04   3.9913563911243616E-04   3.8937749706056344E-04   3.7986269600610699E-04   3.7058509419422576E-04
   3.6153870466231061E-04   3.5271769144162699E-04   3.4411636584481077E-04   3.3572918283772515E-04   3.2755073749414303E-04
   3.1957576153176940E-04   3.1179911992809900E-04   3.0421580761460918E-04   2.9682094624780867E-04   2.8960978105565903E-04
   2.8257767775790915E-04   2.7572011955888002E-04   2.6903270421126249E-04   2.6251114114949898E-04   2.5615124869133058E-04
   2.4994895130611494E-04   2.4390027694852755E-04   2.3800135445628363E-04   2.3224841101052615E-04   2.2663776965755123E-04
   2.2116584689055432E-04   2.1582915029010454E-04   2.1062427622206575E-04   2.0554790759171092E-04   2.0059681165278691E-04
   1.9576783787031706E-04   1.9105791583592732E-04   1.8646405323454449E-04   1.8198333386127335E-04   1.7761291568733591E-04
   1.7335002897394549E-04   1.6919197443301555E-04   1.6513612143362739E-04   1.6117990625318535E-04   1.5732083037224269E-04
   1.5355645881195013E-04   1.4988441851314542E-04   1.4630239675609592E-04   1.4280813961993448E-04   1.3939945048084424E-04
   1.3607418854807009E-04   1.3283026743685165E-04   1.2966565377739255E-04   1.2657836585899720E-04   1.2356647230852614E-04
   1.2062809080233897E-04   1.1776138681091129E-04   1.1496457237532860E-04   1.1223590491487917E-04   1.0957368606498359E-04
   1.0697626054471686E-04   1.0444201505319316E-04   1.0196937719410184E-04   9.9556814427697950E-05   9.7202833049567773E-05
   9.4905977195502576E-05   9.2664827871831586E-05   9.0478002010580650E-05   8.8344151548830038E-05   8.6261962531678283E-05
   8.4230154238203994E-05   8.2247478329860286E-05   8.0312718020731332E-05   7.8424687269101811E-05   7.6582229989801393E-05
   7.4784219286798146E-05   7.3029556705529083E-05   7.1317171504466846E-05   6.9646019945435240E-05   6.8015084602195833E-05
   6.6423373686841451E-05   6.4869920393543381E-05   6.3353782259206428E-05   6.1874040540607964E-05   6.0429799607588835E-05
   5.9020186351894352E-05   5.7644349611259999E-05   5.6301459608352857E-05   5.4990707404186647E-05   5.3711304365639843E-05
   5.2462481646713222E-05   5.1243489683174452E-05   5.0053597700244655E-05   4.8892093232991482E-05   4.7758281659100895E-05
   4.6651485743708322E-05   4.5571045195978790E-05   4.4516316237131661E-05   4.3486671179615470E-05   4.2481498017141973E-05
   4.1500200025304716E-05   4.0542195372500254E-05   3.9606916740891248E-05   3.8693810957149459E-05   3.7802338632725093E-05
   3.6931973813396216E-05   3.6082203637857185E-05   3.5252528005112405E-05   3.4442459250446191E-05   3.3651521829747016E-05
   3.2879252011968648E-05   3.2125197579517730E-05   3.1388917536361374E-05   3.0669981823654530E-05   2.9967971042691916E-05
   2.9282476184994344E-05   2.8613098369343695E-05   2.7959448585586335E-05   2.7321147445029193E-05   2.6697824937256806E-05
   2.6089120193203000E-05   2.5494681254313145E-05   2.4914164847642202E-05   2.4347236166729621E-05   2.3793568658104394E-05
   2.3252843813272687E-05   2.2724750966045575E-05   2.2208987095068252E-05   2.1705256631415445E-05   2.1213271271121721E-05
   2.0732749792517185E-05   2.0263417878246433E-05   1.9805007941845743E-05   1.9357258958762451E-05   1.8919916301700327E-05
   1.8492731580178563E-05   1.8075462484195267E-05   1.7667872631888541E-05   1.7269731421091709E-05   1.6880813884681320E-05
   1.6500900549619903E-05   1.6129777299597230E-05   1.5767235241176944E-05   1.5413070573357779E-05   1.5067084460460540E-05
   1.4729082908254939E-05   1.4398876643242115E-05   1.4076280995011334E-05   1.3761115781590931E-05   1.3453205197716288E-05
   1.3152377705939074E-05   1.2858465930504493E-05   1.2571306553924657E-05   1.2290740216178589E-05   1.2016611416470746E-05
   1.1748768417482195E-05   1.1487063152049760E-05   1.1231351132210618E-05   1.0981491360551268E-05   1.0737346243800963E-05
   1.0498781508612907E-05   1.0265666119475040E-05   1.0037872198696973E-05   9.8152749484188282E-06   9.5977525745901092E-06
   9.3851862128679071E-06   9.1774598563846172E-06   8.9744602853381195E-06   8.7760769983560489E-06   8.5822021455897706E-06
   8.3927304634930039E-06   8.2075592112419570E-06   8.0265881087548741E-06   7.8497192762698253E-06   7.6768571754408352E-06
   7.5079085519133530E-06   7.3427823793412373E-06   7.1813898048081773E-06   7.0236440956176958E-06   6.8694605874165855E-06
   6.7187566336178085E-06   6.5714515560894405E-06   6.4274665970774295E-06   6.2867248723305299E-06   6.1491513253968348E-06
   6.0146726830618490E-06   5.8832174118990725E-06   5.7547156759046519E-06   5.6290992951885475E-06   5.5063017056951920E-06
   5.3862579199274536E-06   5.2689044886484798E-06   5.1541794635361560E-06   5.0420223607666664E-06   4.9323741255027103E-06
   4.8251770972639484E-06   4.7203749761570920E-06   4.6179127899438039E-06   4.5177368619252147E-06   4.4197947796223001E-06
   4.3240353642319604E-06   4.2304086408391642E-06   4.1388658093660320E-06   4.0493592162391665E-06   3.9618423267571419E-06
   3.8762696981402200E-06   3.7925969532456016E-06   3.7107807549306973E-06   3.6307787810485816E-06   3.5525497000595013E-06
   3.4760531472429172E-06   3.4012497014949560E-06   3.3281008626965261E-06   3.2565690296377672E-06   3.1866174784847817E-06
   3.1182103417750540E-06   3.0513125879282862E-06   2.9858900012596530E-06   2.9219091624829218E-06   2.8593374296911052E-06
   2.7981429198027152E-06   2.7382944904619144E-06   2.6797617223812385E-06   2.6225149021156729E-06   2.5665250052576377E-06
   2.5117636800418974E-06   2.4582032313504836E-06   2.4058166051075396E-06   2.3545773730543315E-06   2.3044597178949729E-06
   2.2554384188036071E-06   2.2074888372840577E-06   2.1605869033731436E-06   2.1147091021791255E-06   2.0698324607469353E-06
   2.0259345352420828E-06   1.9829933984452982E-06   1.9409876275502002E-06   1.8998962922564931E-06   1.8596989431513261E-06
   1.8203756003716973E-06   1.7819067425409251E-06   1.7442732959724215E-06   1.7074566241341352E-06   1.6714385173671594E-06
   1.6362011828524262E-06   1.6017272348190694E-06   1.5679996849887108E-06   1.5350019332497543E-06   1.5027177585560471E-06
   1.4711313100443530E-06   1.4402270983652716E-06   1.4099899872223297E-06   1.3804051851141572E-06   1.3514582372746658E-06
   1.3231350178065327E-06   1.2954217220030450E-06   1.2683048588538145E-06   1.2417712437298094E-06   1.2158079912433008E-06
   1.1904025082784626E-06   1.1655424871884138E-06   1.1412158991546588E-06   1.1174109877049311E-06   1.0941162623855920E-06
   1.0713204925847831E-06   1.0490127015026688E-06   1.0271821602651791E-06   1.0058183821777426E-06   9.8491111711560970E-07
   9.6445034604742847E-07   9.4442627568884227E-07   9.2482933328293179E-07   9.0565016150442772E-07   8.8687961348467817E-07
   8.6850874795445048E-07   8.5052882450169232E-07   8.3293129894147556E-07   8.1570781879539312E-07   7.9885021887777244E-07
   7.8235051698609806E-07   7.6620090969314155E-07   7.5039376823832828E-07   7.3492163451592424E-07   7.1977721715777526E-07
   7.0495338770820682E-07   6.9044317688895368E-07   6.7623977095190361E-07   6.6233650811754676E-07   6.4872687509708089E-07
   6.3540450369611520E-07   6.2236316749809431E-07   6.0959677862542024E-07   5.9709938457648783E-07   5.8486516513677227E-07
   5.7288842936219829E-07   5.6116361263306518E-07   5.4968527377682519E-07   5.3844809225807354E-07   5.2744686543413666E-07
   5.1667650587469330E-07   5.0613203874389332E-07   4.9580859924348094E-07   4.8570143011546612E-07   4.7580587920292697E-07
   4.6611739706754651E-07   4.5663153466253968E-07   4.4734394105964646E-07   4.3825036122890725E-07   4.2934663386995893E-07
   4.2062868929362883E-07   4.1209254735263491E-07   4.0373431542021671E-07   3.9555018641556813E-07   3.8753643687495251E-07
   3.7968942506742929E-07   3.7200558915410949E-07   3.6448144538995374E-07   3.5711358636705340E-07   3.4989867929844878E-07
   3.4283346434151450E-07   3.3591475295997545E-07   3.2913942632364618E-07   3.2250443374499753E-07   3.1600679115168554E-07
